5211 50
like 0.558783 -0.741353 2.158230 -0.272066 -1.472435 0.590040 0.374116 -0.098533 0.032820 0.642491 -1.124029 0.840904 0.540984 0.143535 0.736342 0.477952 -0.588045 -0.581529 -1.768293 -0.815135 -0.262910 0.260917 0.433596 0.732983 -0.018527 -0.182046 0.611643 0.086356 -0.236314 -0.492134 0.241632 0.928344 -0.825867 -0.335166 1.124354 -0.762292 0.724794 0.826056 -0.394227 -2.520642 0.713330 -0.905773 -1.259571 -1.704795 -0.014907 0.016382 -0.127316 -0.155035 -0.101069 -1.081175
got 0.392598 -1.923557 0.133886 0.111471 -0.065867 0.316721 -0.057423 -0.148622 0.333357 0.315894 0.111782 -0.310131 -1.301991 1.602869 -0.077504 -0.671365 -0.752859 0.146943 -0.865641 -0.119228 -0.746927 -0.553909 0.462742 0.664263 0.065977 0.431398 1.087790 0.535483 0.521026 -1.588002 1.267081 1.392424 -1.001029 -1.773403 1.083388 -0.249378 0.370169 -0.854845 -0.352816 -1.684268 0.794739 0.344448 -1.000576 -1.462269 0.690971 -0.236145 -0.643793 0.409149 0.895909 -0.035609
know -0.551091 -0.243769 0.524024 0.569452 -0.819298 0.691623 1.022023 0.689618 -0.180322 -0.831071 -0.106511 0.957654 0.624899 0.295334 0.017829 -0.103676 -0.271044 -2.160783 -0.321653 -0.675134 -0.142053 0.441426 0.156646 -0.009478 0.499633 0.636808 -0.384431 -0.592617 0.366585 -0.508094 2.229467 1.122090 -0.157040 -1.361284 1.376217 -1.320279 -0.290141 -0.795141 0.795142 -2.021751 1.007522 0.162336 0.117891 -2.289324 -0.215871 -1.455020 -0.145788 0.134974 0.063892 -0.061318
nigga 0.715260 -1.459477 0.586255 0.838747 -0.872390 0.840306 -0.057343 0.953448 0.147059 0.148025 -0.114022 -1.538796 -0.099663 0.746079 0.302001 0.817955 -0.330798 -0.542218 -0.820880 -0.674838 -1.104099 -0.880766 0.508010 1.487033 -0.567954 -0.150365 0.527368 -0.499068 -0.694846 0.552571 1.356518 1.083864 -0.029819 0.444566 0.967623 -0.770683 0.866729 -0.345573 -0.179958 -1.928742 0.880790 -0.545616 -0.263345 -0.500078 -0.810240 -2.573406 -0.384649 -0.931776 0.448588 0.305797
yeah 0.557925 -0.621908 0.671801 0.605613 -1.520718 1.237665 0.268515 0.354915 -0.435771 -0.916269 -0.122719 0.479393 -0.390312 0.602417 0.293872 0.653577 -0.575508 -0.073342 0.108910 -0.436342 -2.107124 1.339169 -0.206504 1.394182 -0.718895 -0.437904 0.546252 -0.172262 0.196649 0.982371 1.861083 1.778617 0.209678 -0.054830 0.642347 -1.269363 -0.495470 -0.891665 -0.801321 -0.497994 0.401710 -0.452816 0.568493 -1.779645 0.823619 -0.255125 -1.200132 0.119167 0.218399 -1.501549
ai -0.465386 -0.708307 0.017095 0.757816 0.362125 -0.138713 1.301426 -0.347459 1.202460 -0.290756 -0.119110 0.519790 -0.875985 0.504483 0.164257 -0.159330 0.596389 -0.645983 -1.140338 0.028747 -1.191026 -0.199855 0.264014 1.044308 -0.229550 0.080616 1.087218 -0.906095 -0.241188 0.015328 1.289121 0.584911 -1.177503 -0.549237 0.921619 -1.157396 -0.071074 -1.090642 -0.469672 -2.065940 0.354074 -0.253542 -0.881238 -0.634434 -0.915940 -0.578224 -0.188093 0.583991 -0.372329 -1.536947
niggas -0.522551 -0.833088 -0.622151 0.859569 -0.725836 1.230841 0.674448 -0.654653 0.903881 -0.268236 -0.286488 0.369299 -0.967732 0.305815 0.569193 0.345612 0.343913 -0.539723 -1.194572 -1.048688 -0.120966 -1.398879 0.610812 0.491830 -0.537311 -0.013651 0.450161 -0.011575 -0.997208 0.640320 0.199505 -0.420975 -0.998693 -1.071083 0.711760 -0.275419 0.035191 -0.961838 -0.261029 -1.418820 0.312178 -0.410090 0.160471 -1.590120 -0.540278 -0.995137 -0.564380 -0.279031 0.552584 -0.470828
shit -0.509959 -1.013168 -0.597087 -0.026891 -0.833807 0.298756 0.326470 0.139864 0.493309 -0.633348 0.527099 0.829228 -0.756201 0.871456 -0.168861 0.213335 0.556284 -0.687122 -0.842914 -1.746573 -1.303147 -0.231942 -0.502131 1.459533 -0.506197 0.862321 0.223097 0.312870 -0.161035 0.160343 -0.224396 0.331310 -1.218926 0.322983 1.793615 -0.880913 0.552871 -0.291038 -0.028946 -1.142078 0.391740 -0.109809 -0.400811 -0.837714 -0.441013 -0.977327 -0.630468 -0.075667 0.962630 -1.589308
let 0.018929 -0.860106 0.612602 0.082280 0.182747 -0.266954 0.156146 0.305639 0.398343 -0.009659 -0.155174 0.530434 0.409261 0.339990 0.406482 -0.056329 -0.840036 0.183594 0.370409 -0.080146 -0.676203 -0.251087 -0.207417 -0.143864 -1.652556 0.174061 -1.431928 -1.324246 -1.021679 -0.184956 -0.061074 0.477635 -0.765527 -0.942246 2.625104 -0.756921 0.573192 -0.691595 0.241153 -1.572912 1.494773 -0.076720 -0.801123 -1.666422 -0.641209 -0.398881 -0.618518 0.663819 -0.396016 -0.956540
love 0.749644 -0.701727 -0.114064 0.558911 0.934146 0.179543 1.227623 -0.005696 -0.031684 0.076197 -0.150265 -0.743572 0.836648 0.629850 -0.149921 1.821529 0.119539 0.097795 -1.569466 0.632931 -0.285895 1.490202 1.083522 1.252627 -0.099753 -0.131782 -0.458414 0.984731 -0.782877 -0.700677 1.214796 0.590002 -0.433032 -0.931483 1.108256 -0.191340 -0.381293 -0.201697 -0.468721 -1.482578 1.233482 0.439180 0.623682 -2.411745 -0.050395 -0.319091 0.459287 0.139788 0.390779 -1.041791
bitch -0.109188 -1.284980 1.370724 0.225175 -0.069076 0.508863 0.731101 -0.150064 -0.131983 -0.439127 -0.517897 0.374657 -0.090586 1.514914 -1.199556 0.136506 0.249715 -0.546821 -0.719597 -0.923218 -0.125652 -0.020865 0.179947 1.505621 -0.417086 -0.014839 0.224206 -0.460720 0.455350 -0.039460 0.425758 0.071513 -0.337064 -0.921198 1.507592 -1.746195 0.767021 -1.714152 -0.162025 -0.871924 0.763031 -1.428889 -0.334965 -0.513054 -0.949244 0.477125 0.842446 -1.269426 0.922820 -1.327908
oh 0.484901 -1.061276 -0.116963 -0.155210 -0.120191 0.045302 0.429988 -1.064710 -0.531251 -1.199836 -0.468402 1.040765 -0.975480 0.694893 -0.036298 1.193262 -0.089412 0.961894 0.269562 -1.005121 -0.393658 -0.119768 -0.397796 -0.628849 0.489075 -0.984794 0.529815 0.116850 -0.296545 -0.298323 2.045068 0.365568 2.039391 -0.843432 0.620292 -0.762359 1.113936 0.918554 -0.322722 -0.986087 1.403130 -0.199489 0.303316 -1.957592 -0.056700 -0.755050 -1.155372 0.456314 -0.373771 -1.827097
baby 1.475029 -0.512145 0.228086 -0.222232 1.195550 0.653802 0.325742 0.642245 0.389386 -0.381500 -0.263329 -0.079474 0.819367 0.971489 -0.256627 0.527847 -0.790316 -0.304120 0.724093 -1.333988 -1.381668 0.600106 1.845364 0.160166 0.265794 0.817059 0.470377 -0.301231 -0.503548 0.253161 0.924697 0.212121 -1.530059 -0.716529 1.093763 -0.633580 0.120449 0.703100 -0.097028 -0.997693 0.857137 0.377652 0.517424 -1.253858 0.475563 -0.567893 -1.135678 0.471612 -0.087059 -1.454246
ya 0.238164 -2.377900 -0.073609 0.553959 0.294699 1.013180 -1.015987 -0.092642 -0.041305 0.204948 -0.467275 -0.227409 1.108338 -0.514999 -0.175683 -0.747634 -0.132245 -0.993763 -0.810304 -0.815214 -0.362110 -0.444491 0.154949 0.158553 -0.673239 -0.107829 -0.605275 -1.208630 -0.138205 -0.574076 -0.003334 0.525431 -0.087163 -0.521128 1.118783 -0.958431 0.273629 -0.783141 -0.121347 -1.721146 0.477891 0.778487 -0.023323 -1.677790 -0.682875 -0.177563 -0.952878 0.338549 0.323911 -2.020579
fuck 0.148010 -1.016157 -0.230796 -0.119242 -0.884151 0.278399 -0.126095 0.386244 0.294323 -0.612822 0.341439 0.671628 0.488916 0.320695 -0.264449 -0.463310 -0.049714 -0.175351 -0.547740 -1.069189 -0.134643 -0.266130 0.288030 1.476705 0.049745 -0.076702 0.572363 -0.365874 -0.294611 -1.219295 0.588103 0.498596 -0.495404 -0.164816 1.735703 0.544353 0.442706 -0.895431 -0.641495 -1.478576 0.876907 -1.455897 0.814999 -0.858623 -0.686434 -0.834659 -0.103496 -1.174529 0.177619 -1.602986
man -0.082864 -0.680434 0.465456 0.378030 -0.065807 -0.287620 0.378183 -0.701038 -0.731574 -0.687532 -0.459433 0.572183 -0.094431 1.000270 -0.231992 0.100729 0.470644 -0.961975 -0.058331 -0.255815 -0.662333 -0.991655 -0.147563 1.219398 0.190045 0.852219 0.133949 -0.395259 -0.540882 -1.254440 0.947492 1.690105 0.139774 -1.773077 1.871965 -1.067818 -0.339511 -0.386684 -1.091724 -1.608873 -0.970863 0.419151 0.162423 -0.384043 0.154347 -0.843946 -0.152822 -0.809993 0.179324 -0.930089
wanna 0.458846 -2.436455 -0.316840 -0.544341 0.408204 0.545160 -0.527137 -0.500476 0.737197 -0.643387 -0.724868 -0.229374 0.859714 0.943249 0.871905 0.258465 0.585997 -0.128220 0.177289 -0.559615 -0.101440 0.391539 0.819589 0.012534 -0.652228 1.132189 0.040921 -1.085817 0.764762 0.147672 0.289098 0.209153 0.270565 -0.360622 0.098236 -1.211210 0.425887 -0.212953 -0.424607 -2.352711 0.580081 0.011369 0.848776 -2.514872 0.223010 -0.019437 -0.370649 -0.233691 -1.375762 -1.328854
girl -0.662631 -0.838356 0.206196 -0.399382 0.924831 0.498812 0.114753 0.784217 -0.122633 -0.852589 -1.106014 -0.002269 0.055913 -0.174721 0.119817 0.752333 -0.820251 0.984115 0.452150 -1.201362 -0.891360 0.592734 0.619487 -0.378324 1.466567 0.501623 0.082164 0.139006 -0.619886 -1.009149 1.664152 0.351620 -1.068965 -0.215874 2.236402 -1.007145 0.401316 -0.159823 0.178646 -1.738095 0.648612 -0.165949 -0.188872 -0.861260 0.517461 -0.028128 0.363055 0.398440 -0.803145 -1.303991
want -0.329099 -1.360283 -0.345805 0.479112 0.301192 0.498666 1.463247 0.725733 0.498579 -0.626416 -0.750570 -0.459093 -0.005312 0.286649 -0.256346 0.896293 -0.109691 -1.036127 -0.101666 -1.166803 0.080242 0.291735 0.927209 -0.055850 0.021651 -0.912940 -0.756445 -0.789744 0.496424 -0.542022 0.774413 1.704288 0.441954 -0.571908 1.968213 0.351116 0.668345 -0.274257 -0.514947 -1.427015 -0.131703 -0.973929 0.140305 -1.984117 1.031310 -0.540340 -1.018382 -1.002923 -0.000119 -0.412804
gon -0.188862 0.075967 0.489341 -0.236196 -0.042460 0.843738 1.064154 -0.211260 -0.212295 0.762756 -0.521371 0.727302 -0.887989 -0.268222 -0.187907 -0.141142 0.074175 -0.468601 -0.084329 0.768407 0.573444 0.207943 1.948410 0.331090 -0.761699 0.285452 0.605302 -0.233888 -0.326424 -0.646630 0.417489 1.032590 -0.406716 -0.259565 1.448347 -0.940315 0.288133 -1.232393 -0.308901 -1.415280 0.557825 0.137380 1.165450 -1.725057 -0.872121 -1.319160 -0.498690 -0.100385 -0.657491 -1.601596
uh -1.257638 -0.507951 -0.843985 -0.565005 0.146967 0.911015 -0.266277 -0.662831 0.392678 -2.171936 -0.234701 0.096132 0.288131 -0.835263 0.077305 0.598150 -1.126760 -0.195250 0.067656 -0.171223 -0.928372 0.291096 1.694677 0.637100 -1.064414 -0.664831 0.160608 0.980167 -0.861784 -0.050389 1.753482 0.547423 0.157629 -0.298893 0.535930 -1.209646 -0.067190 0.354069 -0.926362 -0.683996 0.479023 0.977412 -0.669186 -1.833855 -0.426722 0.426674 -1.576065 -0.060153 0.602669 -1.293731
right 1.151185 -1.169604 -0.017337 -0.912556 0.253197 0.313777 -0.444993 0.065120 -0.959219 -0.977645 -0.579943 0.834752 0.494372 0.811512 -0.535908 0.263232 0.332292 -1.018061 -0.086418 -1.463691 -0.067465 -0.268643 -0.246553 -0.867064 -0.796647 0.684379 0.528140 0.576667 -1.538363 -0.337500 0.879980 1.061312 -0.710679 -0.849132 -0.022678 -0.500189 0.183019 -1.619355 -0.229776 -1.431726 0.662152 -0.055715 -0.207262 -1.574414 0.096242 -0.342132 -0.621586 -0.407869 -0.139693 -0.883274
money -0.836826 -0.650421 1.320158 0.171183 -0.437478 -0.211447 -0.076114 0.223073 1.323755 0.039836 -0.030734 0.564339 0.806074 1.210477 0.448138 0.500002 1.128371 1.229364 0.378107 0.095414 -1.022057 -0.299924 0.819564 0.872996 0.139632 0.896462 1.322688 0.023426 -0.450152 -0.911426 0.706137 0.711040 -0.162796 -1.571407 0.768387 -0.749738 0.011347 -0.913454 -0.280549 -1.181469 -0.443079 -0.492351 -0.581010 -1.598713 -0.428843 -1.383678 -0.657091 -1.284250 1.004214 -0.317076
yo 0.316940 -1.330957 -0.125787 -0.214246 0.059944 0.991117 0.288578 0.148454 -0.334089 -0.762055 -1.070998 0.293503 -0.213388 0.567550 1.015795 0.899670 0.002993 -0.607125 0.793100 -0.978356 -0.509830 -1.478273 1.857406 1.673073 0.790696 -0.157006 -0.642990 0.010582 -1.108946 -1.532809 0.275221 0.203110 -0.381040 -0.352580 0.936902 -1.573518 0.860095 -0.468614 -0.279089 0.460622 0.563090 -0.432772 0.085351 -0.677921 -0.364710 0.434575 -0.704003 0.959295 0.304253 -0.941063
come 0.012912 -0.403640 -0.022447 -0.249396 -0.056599 1.227341 0.210315 0.544842 0.441268 -0.838343 -1.125513 -0.387327 -0.204872 0.436816 -0.684361 -0.722517 -0.324673 -1.009970 0.065518 -0.036528 -1.098307 -0.066098 1.296738 0.540385 -0.214883 -0.078027 0.181345 -0.067712 -1.116897 0.318071 0.022258 0.436930 -1.136188 -0.968746 0.475622 -0.588457 1.377255 0.617450 -0.135042 -0.536463 0.853307 0.379394 -0.483607 -1.893714 0.390239 -0.702225 -0.500636 -1.244562 -0.210430 -1.492572
time 0.407882 0.433378 0.756786 0.380540 0.950370 -0.336774 0.798010 1.260951 0.390573 -0.003517 -1.072273 0.005228 -0.361637 0.428381 1.141830 0.880019 -0.688703 0.481640 0.609718 -0.585753 -0.938725 -0.243699 0.156647 0.508250 -0.858425 1.270189 1.169781 -0.854047 -0.955046 -0.214248 0.685520 1.014791 0.012279 -0.470217 0.498163 -0.021080 1.287125 -0.904240 0.357265 -2.056202 0.971911 -0.081401 -0.213418 -1.398214 -0.422263 -0.517384 -0.668180 -0.225317 -0.397804 -0.760789
ass -0.892410 -1.075412 -0.730901 0.212485 -0.416741 0.049707 -0.204676 1.268745 0.031419 0.922887 -0.718657 -0.790229 0.230613 0.218093 0.510364 0.595541 -0.411502 -0.511584 -1.488226 -1.772604 -0.416460 0.143416 0.138093 0.362687 0.447485 0.479342 0.137270 -0.191202 -0.550701 -0.485750 -0.866643 0.125511 0.035272 -1.001644 0.978915 -1.835535 0.211809 -1.821858 -0.694081 -0.904052 0.839536 -0.488985 -0.402815 -0.597682 0.138560 -0.551577 -0.031614 0.183014 0.460644 -1.447125
cause 0.165741 -0.230650 0.009460 0.051886 0.181018 -0.629557 0.259439 0.203217 0.665738 0.229304 -0.118812 -0.249498 -0.224213 0.478128 0.740306 0.484763 0.954987 -1.204634 -1.167132 -0.496259 -0.459624 -0.496187 0.846985 0.494196 0.055809 0.204220 0.733313 -0.466844 -0.022887 -0.103449 0.598579 0.302521 -0.706471 -0.532407 1.307434 -0.993918 0.342739 -0.427895 -0.401859 -1.265073 0.742935 -0.511253 -0.122708 -1.750962 -0.268426 0.572656 0.067763 0.041200 -0.152963 -0.272757
need -0.030404 -0.289517 0.974393 0.571754 0.320792 0.739614 0.236094 1.027470 -1.070359 -0.433757 -0.053446 -0.516421 -0.734434 0.671433 0.450808 0.272035 0.836669 -0.831738 -1.202197 -0.350289 -0.684032 0.290484 0.937050 -0.577848 -1.137762 1.300021 0.663598 0.610148 -1.266097 -1.263738 0.460505 1.100508 0.652827 -1.225287 0.431506 -0.207419 0.736672 -0.088869 -0.125732 -1.143494 0.719322 -0.445539 0.392597 -1.186902 -0.113653 -0.475117 -0.480132 1.369590 0.341533 -0.561376
way 0.990992 -1.352225 0.767720 -0.636828 -0.274506 0.456243 0.616709 -0.156564 0.102245 0.288220 -1.102689 0.958033 1.133718 0.044930 -0.804603 0.029074 1.329898 0.467091 -0.399629 -1.240281 -0.325675 0.005677 -0.070028 0.703264 -0.490347 0.684036 -0.336227 0.438996 -0.829832 0.028636 1.096492 0.093064 -0.184453 -1.111292 0.464823 -0.270495 0.449723 -1.668547 0.081726 -0.977374 0.980426 -0.398298 -0.009778 -0.987986 -0.266419 -0.424849 -0.581057 0.860317 -0.548975 -0.779548
tell -0.192258 -0.998917 0.375879 0.199888 -0.453644 -0.362787 -0.069410 1.177580 -0.291930 -0.088593 0.343800 0.510126 0.575400 1.206913 0.853034 0.516485 0.775514 -0.066495 -0.318603 -0.563777 -1.234543 -0.554743 1.780810 0.233319 -1.009336 -0.432502 -0.244994 0.162188 0.185447 -0.398313 1.271080 -0.135331 -0.182589 -1.858538 0.734167 -0.170227 0.050782 -0.327889 -0.580287 -2.573175 0.506367 0.374728 0.313576 -0.471419 -0.187866 0.327404 -0.394348 0.638561 -0.760084 -0.471105
ta 0.160699 -1.572642 0.217863 -0.138682 0.486101 -0.143676 0.162095 -0.790125 0.411926 0.558116 -0.431716 -0.379416 -1.293559 0.938093 -0.370011 -0.061682 0.088267 0.146648 -1.136855 -0.226278 -0.591701 -0.116006 1.189851 0.468195 -0.378731 0.358946 0.695819 -0.826041 0.961610 -1.176936 0.644857 1.771761 -0.813669 -1.339126 0.564700 0.124371 0.252257 -0.094971 0.091917 -1.053376 0.038068 0.542715 0.373194 -1.397782 -0.169649 -0.688468 -0.590806 0.092589 0.224127 -0.923405
lyrics 0.295288 -0.708513 1.048627 -0.642589 -0.379661 0.160932 -0.011603 -0.110593 -0.225344 -0.488175 -0.473965 0.285395 0.726066 1.346447 -0.493237 0.770806 -0.006737 -0.146278 0.084735 0.172027 -0.729358 -0.237504 0.623716 0.478062 -0.526077 0.097761 -0.362846 0.008636 -0.194953 -0.101309 1.490187 0.960067 -0.349084 -0.476733 0.620238 -1.291922 0.417119 0.368484 -0.738251 -0.536637 1.144517 -0.063186 -0.123657 -0.751511 -0.163969 -0.356844 -0.764994 0.097359 0.623703 -0.918846
think -0.150707 -1.116221 0.284634 0.373317 0.612759 0.111621 1.939062 0.233138 -0.389711 -0.801350 -1.170494 0.533989 0.271293 0.514230 0.844602 1.230717 -0.248533 -0.245171 0.133855 -0.562581 -0.398911 0.752718 -0.227372 0.778522 -1.147032 0.897215 0.762563 0.265616 -0.348970 -0.367383 0.169349 0.621151 -0.411621 -0.770847 0.390828 0.455354 -0.435577 -0.574429 -1.774519 -0.900911 0.640978 0.728422 0.247320 -0.510599 -0.608725 -1.522310 -0.524117 0.390982 -0.490599 -1.019541
look -0.147726 -1.709422 -0.551012 -0.025101 -0.736462 0.418035 -0.315203 1.045862 -0.018200 0.255513 -0.195520 0.693629 0.491774 0.074344 0.355854 0.166518 0.391577 -0.036246 -1.022718 -0.110959 -0.255895 -0.291029 -0.082355 0.648618 0.530971 -0.256754 0.440600 -0.275250 -0.786098 -0.593131 0.790711 0.721965 -0.076546 -0.888874 0.270439 -0.495196 -0.961496 0.246345 -0.349691 -0.717467 0.404348 0.479560 -0.788044 -1.463492 -0.530496 -1.116294 0.791856 -0.146659 1.512054 -1.996118
big -1.076137 -1.427266 1.027287 0.459815 -0.586053 0.311792 -0.560665 -1.076995 0.449465 0.383844 -0.544691 -0.166123 -0.293769 0.222604 -0.259057 0.146380 -0.290484 -1.634422 0.913328 -0.710014 -1.292159 -0.231858 -0.229375 1.114549 0.405832 -0.064542 1.379813 0.381195 -0.852983 -0.207309 -0.261442 -0.077428 0.647288 -0.817875 0.326850 -0.686009 0.310240 -0.792290 -1.665003 -1.545921 1.238139 0.763366 -0.336930 -0.554532 -0.671582 -0.555461 -0.187438 0.702200 -0.181799 -0.121011
good -1.228138 -1.134613 -0.442000 -2.331049 -0.569360 1.121633 0.188857 1.507435 0.235723 -0.357260 -1.279246 -0.157490 0.094488 0.781220 -0.470683 0.174485 0.724056 0.186009 -1.518263 0.685036 -1.046984 -0.136671 0.427622 -0.214331 -0.268313 -0.170296 0.600628 -0.053175 -0.192363 -0.006917 1.104483 1.297432 -0.017650 -0.155532 1.590227 -0.090447 0.249502 -0.629118 0.185691 -0.467115 0.452593 -0.274776 -0.398475 -1.274331 -0.345529 -0.730019 -0.705017 0.760547 -0.500571 -0.103128
hot -0.757519 -0.002833 -0.275358 -1.402864 -0.321737 0.827179 0.683784 -0.592898 -0.601414 -1.128163 0.654311 -0.056129 -0.104390 -0.931149 -0.652239 1.386662 0.851834 -0.832397 0.390372 -0.758527 -1.248799 -0.800809 1.142655 1.128675 -1.371693 0.467808 -0.226210 -0.227190 0.423012 0.017257 0.693216 -0.610858 0.250653 -0.579863 0.563183 -0.835792 0.221225 0.434114 -1.139903 -1.056255 1.195631 -1.263750 -1.754972 -1.376542 0.978322 0.316157 -0.114458 0.384147 1.028406 -0.192902
hit 0.023378 -1.203228 0.092180 0.145576 -0.826125 0.648322 1.325610 0.074053 -0.536042 0.017124 -0.591300 -0.533100 -1.372711 0.185637 0.016151 -0.626241 0.196129 0.606891 0.451212 -0.643997 -0.168312 0.516604 0.046508 -0.101677 -0.368893 -0.182152 0.553900 -1.198674 -0.215235 -0.630280 0.186336 -0.021583 -0.995578 0.035816 0.499461 -0.800537 0.088032 -0.849112 -0.287321 -1.514392 1.144467 -0.314348 -0.921851 -1.078204 -0.482371 -0.719983 0.208724 0.537144 0.743832 -0.905220
real -0.103531 -1.138604 0.126390 0.026330 -0.338921 0.547507 0.069637 0.617867 -0.359426 0.501407 -0.246995 -0.190145 -0.308072 0.013195 -0.347227 0.359696 0.393537 0.049741 -0.546100 -1.350258 -1.221868 -0.874593 0.506315 0.307470 -0.097302 0.036165 0.585423 0.865798 -1.130978 0.682075 0.767526 0.588968 -0.723778 -0.299760 1.289397 -0.801494 0.416501 -0.179242 -0.236536 -1.103251 -0.474773 -0.303575 0.463600 -0.941447 -0.993164 -1.733509 -0.536040 0.372327 -0.295714 0.076799
feel 0.252027 -1.616061 1.652054 -0.369410 0.139060 0.810097 -0.857281 -0.602557 1.100449 0.524198 -0.954198 0.608029 -1.033185 0.071715 -0.237087 0.833517 1.259792 -0.654822 -0.134480 0.318660 -0.561301 0.777560 0.879528 0.035622 -0.895138 -1.159808 0.018639 0.738764 -0.285084 0.584814 1.017933 0.924103 0.011163 -0.178115 1.491900 -0.249443 0.109186 -0.315506 0.668793 -0.815603 0.102038 -0.013578 -0.095866 -1.490451 -0.174573 -1.218521 -0.208401 0.382584 -0.829368 -0.803918
said -0.414231 -1.774347 0.057150 -0.282376 -0.066902 0.264763 0.943439 0.764271 0.844503 -1.013688 -0.102855 -0.787271 -0.004014 -0.648638 -0.148436 -0.162391 1.009060 -1.005929 -0.572579 -0.042930 -0.921036 0.221527 0.959474 0.124369 -0.356609 0.010806 0.014455 -0.453382 -0.193018 -0.582311 0.814077 1.504059 -0.037843 -0.659968 0.673158 0.602359 0.322824 0.295800 -0.774196 -1.166458 0.656520 -0.636930 -0.534680 -0.599767 0.002727 0.189354 0.755018 -0.306245 0.205855 -1.488847
life 1.698500 -0.531775 -0.129362 -0.705263 0.312325 0.608973 -0.303118 0.134769 0.375132 -0.364008 -0.227932 0.649879 -0.184381 0.083743 0.643309 1.171306 0.366890 -0.413996 -0.375335 -0.021042 -0.493553 -0.681803 -0.134968 -0.107827 0.298659 0.700195 1.793087 0.176235 -0.237051 0.576434 0.118292 1.054226 -0.815113 -0.633554 1.638445 0.023402 -0.254700 -0.272545 -0.040949 -0.600020 1.000096 -0.616442 0.398057 -0.705880 -0.256869 -0.197395 0.461960 0.682169 0.203464 -0.935499
hoes -0.820431 -1.188876 0.244230 -0.167746 0.940788 1.198969 1.861241 0.291256 -0.299947 -0.124451 0.167459 -0.944259 0.037288 -0.828334 0.236916 -0.016780 0.105735 -0.957178 -0.233878 -0.417392 -0.314222 -0.361867 -0.727817 0.001508 -1.086000 0.270120 0.640202 0.505225 0.392669 -0.353620 1.470301 -0.923562 -0.473928 -0.905650 0.251235 0.306495 0.879034 -0.836419 -1.731574 -1.311861 0.601876 -1.537669 -0.614990 -0.955738 0.203163 -0.413130 0.344854 -0.313524 0.966929 -0.441424
bitches -0.402707 -0.934941 0.223206 0.739788 -0.564558 0.710470 0.839012 1.283484 0.623321 -0.875537 0.488886 0.050642 0.033295 0.290004 0.119303 0.705404 0.089039 1.100057 -1.453043 -0.630854 0.120037 0.491370 0.389646 1.040030 -0.217823 -0.262911 0.375882 0.141766 -0.356079 0.026288 -0.097047 -0.429085 0.334903 -0.907610 0.572352 -0.647259 -0.711736 -1.532151 -0.032184 -1.049877 0.157854 -0.806497 0.582595 -1.981099 -0.321339 0.150923 -0.069407 -0.618009 0.078225 0.014046
ooh 0.249234 -1.082968 0.065355 0.035843 -0.693773 -0.874021 0.218869 -1.106882 -0.641632 0.399456 -0.300002 0.078624 -0.154023 -0.246575 -0.939803 1.469513 -0.176994 -0.068130 0.143932 0.029274 -0.433795 1.782812 0.106323 -1.297749 0.144272 -0.548572 0.423989 0.377894 0.792593 0.762429 0.921056 1.374441 -1.075529 -1.437410 0.560775 -0.487508 -0.462866 0.005255 -1.072176 0.674217 0.923502 0.441399 -0.196224 -0.354237 -0.287710 0.242678 -1.939748 -0.546468 0.161182 -1.254703
hey -0.344353 -1.194179 1.395121 -0.452663 -0.688664 0.696114 1.043362 -0.048702 0.710230 -0.773519 -0.195186 0.692366 0.040997 -0.222669 -0.238420 0.038599 0.975950 0.665776 0.058043 -1.150976 -1.460096 0.028332 -0.258018 -0.700787 0.230284 -0.136429 0.960267 -0.854232 -0.927696 -1.562112 1.079427 0.660127 -0.379754 -0.259529 1.310898 -0.467950 0.946487 -0.520449 -0.902014 0.552025 1.555393 0.886533 0.384472 -0.710177 0.120368 0.870565 -0.782161 -0.459764 -0.855200 -0.356443
head -0.949671 -1.866350 0.147414 -0.089564 -0.274696 0.876722 -0.255482 0.162980 -0.358891 -0.196222 -0.094545 0.225259 0.111638 0.629503 -0.009181 1.490793 -0.166609 -1.347180 0.075242 0.648700 -0.238227 0.840847 0.184445 0.216401 0.458817 -0.173669 0.524352 -0.737988 -1.231928 -0.824981 0.155706 0.497747 -0.807461 -0.495411 -0.102783 0.542957 0.311486 -1.343268 1.073715 -1.044802 0.903192 -0.983305 -0.897366 0.147966 -0.333615 -0.704862 -1.193260 0.151654 -0.134018 -0.857419
boy -0.691657 -0.267643 -0.684777 0.111327 -1.303847 0.336749 -0.137157 -0.557820 -0.553818 0.299801 -0.887473 -0.016531 0.548298 -0.173199 -0.863476 1.874454 0.372203 -0.195965 0.289666 -0.854288 -0.708159 -0.017273 1.177471 0.940696 -0.568729 1.059493 0.277314 -0.617427 -0.499009 -0.203813 1.137544 1.153533 -0.305680 -0.202830 -0.338680 -0.435491 0.756482 -0.673407 -0.690609 -0.609520 0.105313 1.011741 -0.732143 -1.750141 0.412467 -0.058609 0.502903 -0.298228 0.424972 -0.395651
la 0.146905 -0.374237 0.917645 0.327914 -0.686327 -0.931619 0.310056 0.726546 0.514060 -0.715241 -1.281658 1.820108 1.045574 -0.060611 0.848466 -0.030876 0.775660 0.399175 1.260195 0.422585 -1.160561 -0.275600 0.271612 -0.309968 0.697182 -0.787620 -0.165128 1.285969 0.290559 -1.739713 0.426469 -0.626000 -0.864057 1.138302 0.359036 -0.745560 -1.155309 0.916629 -1.245574 0.961596 0.185282 -0.045009 1.058450 -0.464749 0.533755 0.144098 -1.654076 0.679536 0.061158 -0.377933
na 0.357089 0.024777 0.131671 -0.502920 0.160560 1.147727 1.063352 -0.105396 -0.469235 1.130001 -0.125782 0.967103 -0.883539 0.104627 0.039695 0.047491 0.714277 -0.265038 0.231313 1.180177 0.418096 0.024311 1.212403 0.131134 -0.216063 -0.254016 0.565884 -0.204714 -0.409263 -0.788846 0.080772 0.639360 0.747146 0.146800 1.337406 -1.323852 0.765428 -0.650889 -0.534769 -1.072474 0.952284 0.518693 0.936983 -1.141735 -0.202738 -0.638178 -0.711097 -0.089992 -0.836134 -1.864644
day -0.059810 -0.660967 0.268967 -0.673781 -0.884146 -0.117503 1.398487 0.508834 -0.374125 -0.625513 -1.233866 -0.538983 0.318954 -0.380863 1.137705 0.658967 0.535142 0.628475 0.418790 1.009660 0.360049 -0.415196 0.353524 -0.244382 -0.038247 -0.116333 0.975236 0.607016 -0.059868 0.677384 1.000839 -0.109643 -1.054242 0.198025 0.931383 0.383393 -0.023909 -0.441757 -0.121993 -1.115261 0.550414 0.062968 0.047881 -1.222609 -0.206438 -0.064680 -1.030528 0.743452 1.856343 -1.076095
better -0.269471 -0.624503 -0.446459 -0.198500 -0.322369 -0.633695 0.765711 0.082892 -0.586876 -0.114176 -0.228715 0.318465 -0.235558 1.569848 1.263635 -0.302569 -0.281583 -1.155501 -0.089126 -0.045133 -0.472670 -0.636099 0.382829 0.453252 -0.837763 0.194476 -0.270977 0.077706 -0.307170 0.193491 0.380849 0.682312 -0.727638 -0.128456 0.177377 -0.644155 1.665980 -0.590640 0.051648 -0.323684 0.805501 -0.596470 0.620767 -1.316577 -0.416995 -1.022992 0.864408 1.531869 0.295686 -1.133961
new -0.318477 0.191302 0.209757 0.752196 -0.799631 0.389036 -1.680013 -0.085017 0.190852 -0.342856 -0.282015 0.316736 -0.645587 0.355255 -0.650377 0.623039 -1.513189 -0.791429 0.033237 0.321069 -0.210147 0.298717 -0.102257 0.979768 -0.851359 -0.210314 1.022193 0.240052 -0.311198 0.213361 0.735582 -0.831735 -0.213412 -0.522115 1.964830 -0.449705 0.757911 -0.277076 -0.519650 -0.607255 -0.462612 0.039246 -0.473464 -2.083322 0.478918 -0.577854 0.152091 0.726790 0.469892 -0.510426
ride 0.196549 -1.250174 0.616345 -0.926163 -0.222867 -0.360820 1.319034 -0.475697 1.725631 0.081639 -0.354862 -0.410462 0.238112 -0.222814 0.173564 0.687837 -1.543450 -0.569950 -0.272627 0.886966 -0.506998 -1.694556 0.319793 -0.556065 0.249605 0.594009 -0.579535 -0.965662 -0.669255 0.667854 0.601547 -0.149066 0.168719 -0.807344 0.334971 -1.521055 0.320073 -1.250135 0.272880 -0.953340 0.279322 0.155893 0.452285 -1.340577 1.420169 -0.332918 -0.586866 0.068267 -0.551580 -0.395983
pussy -1.564592 -0.936630 0.726976 -1.295675 -0.720321 0.050025 -0.077198 1.200259 -0.210260 0.416948 0.233472 -0.203927 0.325424 0.164957 0.698445 0.631389 -0.454428 -0.341792 -1.447463 -1.207004 1.196612 0.371418 1.111318 0.553469 -0.367906 -0.011180 0.205252 -1.259329 -0.264143 0.122536 1.519522 0.089450 -0.637438 -0.870075 0.064594 -0.397212 0.199381 -0.931620 -0.394887 -0.621708 0.517264 0.095946 0.248993 0.313362 -0.663467 0.149651 -1.125290 -0.930955 0.079812 -1.354682
rock 0.754851 -0.461448 0.406709 -0.508671 -1.465924 0.291152 0.731016 -2.200085 -0.334061 -0.204398 0.970157 0.110730 1.109732 0.156941 1.032818 -0.248189 0.262897 0.770905 -0.406286 -0.230513 0.875466 1.649203 1.163237 0.173855 0.443599 1.402726 -0.384633 -0.049597 -0.141953 0.747172 0.340867 0.643232 0.131234 -0.300194 0.903976 -0.751351 0.965385 0.174091 -0.279269 -0.902138 0.450227 0.171297 -1.531119 -1.057643 0.744952 -0.271934 -0.929206 0.650953 -0.296706 -1.279811
huh -1.671221 0.075972 -0.806369 -0.475553 -0.162718 0.793034 0.130799 -0.575654 0.666228 -0.331585 -0.458506 -0.537913 -0.410645 -0.900374 0.223986 1.320352 -0.817269 0.463204 -0.047864 -1.248534 -1.348020 0.564202 0.467092 -0.182841 -0.634415 -0.286823 -0.803968 1.220776 -0.415134 -0.404082 1.405328 0.176419 -0.633538 -0.600808 -0.263704 -1.210789 -0.092373 -0.717073 -1.031714 -0.826275 0.711970 -0.561314 -0.293297 -0.557653 -0.380031 0.103980 -1.290605 -0.425766 -0.043471 -1.038492
mind -0.319514 0.273577 1.135795 -0.335354 1.332682 -0.804681 -0.259310 0.855153 0.165333 0.602927 -1.502338 0.654702 0.834143 -0.275887 1.166543 0.266223 0.667304 0.060630 0.296355 -0.065160 -0.163318 0.011375 0.039210 0.977154 -1.150025 0.348203 1.380601 -0.290008 -0.398936 -0.938222 1.476273 -0.001916 -0.951832 -1.448423 0.664284 0.204564 0.891860 -0.165373 -0.035746 -0.362216 0.304926 -0.397672 0.907781 -1.076016 0.282537 -1.073811 -1.375625 -0.303838 1.077793 -1.111276
night 0.981007 -0.937708 0.187359 -0.510233 -0.637164 -0.929319 1.474777 -0.008015 0.461192 -0.680231 -0.134355 0.547862 -0.546236 1.373552 0.625557 1.069890 0.474715 0.192468 0.702694 -0.743051 -0.563558 -0.095137 0.681600 -1.477030 -0.813372 -0.080620 0.918222 0.213862 -1.206592 -0.091185 0.575654 0.078417 0.567352 0.030937 1.111283 0.368501 0.233081 -0.079441 0.478295 -0.755087 0.058617 -0.199195 0.392316 -1.135844 0.235967 0.575565 -0.394339 -0.025745 0.442064 -1.755964
drop -0.112595 -1.244758 0.017036 -0.336474 -0.175539 -0.471021 -0.624729 -0.312574 -1.870036 0.493318 0.745623 -0.505646 -0.121573 -0.844109 -0.418313 -0.036880 0.218456 0.031004 0.197835 -0.649352 -1.223552 0.202050 0.715385 0.084896 0.329576 -0.176122 0.627755 -0.921725 -1.125143 0.459065 0.774681 -0.505511 -0.324190 -0.789090 1.011768 -1.527535 0.659775 0.098050 -0.243342 -0.596839 0.150556 -2.159208 -0.112579 -1.003394 1.185246 0.065597 0.352145 0.927348 -0.010049 -0.425330
high -0.462616 -0.691433 0.904489 -0.597046 -1.106046 -0.754404 -0.338057 -0.371086 0.499405 -0.203350 -1.318997 -0.741470 0.274813 1.767043 0.067303 1.530975 0.527524 -0.338727 -0.364613 1.018502 0.070655 0.287400 -1.041984 -1.068687 -0.079977 0.922127 0.633765 0.164263 -1.435141 -0.115791 -0.115564 -0.758187 -0.758814 -0.037281 0.990007 -0.400196 0.206297 -0.339944 -0.061599 -0.129075 1.087817 -0.371334 1.648827 -1.492295 0.617008 -0.160772 -0.521842 0.280303 1.317046 -0.700856
watch 0.563291 0.241688 -0.644058 0.238134 -1.134956 0.762541 -0.465001 -1.024265 -0.587362 1.425219 -0.812438 -0.257362 0.251732 0.459942 -0.062477 0.551978 0.408526 -0.211417 0.077360 -1.128248 -0.806738 0.294607 0.507933 1.140912 -0.460943 0.512685 0.295419 -1.473707 -0.571927 -0.948843 1.373948 -0.038423 -0.628691 -0.157109 -0.345312 -0.188490 0.322008 -1.969626 -0.172572 -0.469017 0.457497 -0.444687 0.034401 -0.854265 0.393510 0.076416 0.395302 -0.150257 0.721228 -1.629531
stop -0.792092 -1.193081 0.786932 0.750971 0.492507 -0.391661 0.284133 -0.660327 -1.308423 -0.366134 0.403730 0.536292 -0.654952 -0.524620 0.163164 0.569410 1.003201 -0.430035 -0.264245 -0.934867 0.155912 0.310836 1.104182 1.015027 0.687158 0.463117 0.679049 -0.470985 -1.039558 0.570249 0.591338 -0.005807 -0.866840 -0.325914 0.859769 -0.756453 -0.260049 -0.010688 0.435856 -0.695253 0.703159 -0.159011 -0.586535 -0.484442 1.246178 -0.682839 -0.727168 0.254345 -0.512398 -0.381614
stay -0.678728 0.258732 -0.002497 0.288945 -1.225260 -0.527817 0.438901 -0.944490 -0.174124 -0.093292 -0.786241 -1.256059 0.204908 0.926376 0.151313 0.301230 -0.053295 -0.781030 -0.976326 -0.180394 -0.738338 -0.402583 -0.587360 0.519052 0.566511 -0.203941 -0.186084 -0.794220 -0.860390 0.091852 0.939703 -0.278089 -0.419364 -1.520099 0.807279 0.835323 0.532957 0.051822 -0.062272 -0.641143 1.185394 0.151570 1.460484 -1.668772 -0.633811 -1.175653 -0.387840 0.386680 0.599650 -0.303922
party 1.153970 0.141243 1.603959 -0.250825 -0.995395 0.794263 0.956878 -1.295122 -0.892001 0.109882 0.800547 0.371038 0.324803 -0.119459 1.812786 0.298714 0.434827 0.617118 -0.236261 -0.672443 -0.126786 1.116764 0.931005 -0.601892 -0.362116 0.408738 -0.103515 0.487859 0.064613 0.125319 -1.076334 0.607065 0.206670 -0.033395 1.754464 -1.396722 1.092490 0.119550 0.588298 -0.300368 1.013533 1.167486 -2.178610 -0.512344 0.311085 -0.058394 0.262622 0.515965 0.133948 -1.041011
club -0.313686 -1.767283 0.347798 0.546629 -1.371644 1.155456 1.682473 0.595328 -0.183519 1.365374 -0.362988 0.126983 -0.298317 0.659302 -0.035506 0.284093 -0.275925 -0.376858 -0.068500 -0.447886 -0.192668 1.170046 0.544842 -0.126358 -0.753276 0.328078 0.291074 0.095039 -0.268198 -1.158598 1.011313 -1.051421 -0.217726 -0.581544 0.505171 -0.979683 -0.783734 -0.012510 0.913515 -0.664079 0.429130 -0.200646 -0.039064 -0.784717 -0.562689 0.621119 -0.282380 -0.759911 0.518190 -0.331877
damn 0.058183 0.095795 -0.553349 0.116507 -0.452708 0.426287 -0.171443 -0.574021 0.501233 0.018290 -0.297549 0.438787 -0.149349 0.679706 0.504324 -0.636257 0.752292 -0.531219 -0.777188 -1.411095 -0.946278 0.291986 -1.160698 0.134001 -0.851901 0.528898 0.633708 -0.576677 -0.315415 -0.950013 1.652619 -0.063696 0.042719 0.366396 1.371101 -0.219015 0.426771 -1.114382 -1.054194 0.284792 0.991073 -0.189189 -0.393515 -1.243344 0.305746 -0.164569 0.709623 -0.734657 -0.820394 -1.367282
game -0.599582 -0.687908 -0.037754 1.235514 0.458275 0.682482 0.287764 -0.621499 -0.228964 -0.537701 -0.668811 0.838579 0.598181 0.442998 0.511758 -0.263024 0.231485 0.018441 -0.817026 0.091564 -0.583796 -0.805689 -0.124126 1.523128 -0.556483 0.547225 0.198871 0.171221 -0.874081 0.843454 0.961310 1.294857 -1.117605 -0.498225 0.793282 -0.059356 0.029244 -0.144600 0.068324 -0.881545 0.199136 -0.895771 -0.097097 -0.666149 -0.222745 0.127918 -0.299063 0.627770 0.465746 -0.151799
body 0.216581 -0.917753 0.606297 -1.820604 1.865981 0.835106 -0.356797 -0.600186 -0.463564 0.533834 -0.271524 -0.129253 -0.563271 -0.272218 0.777760 0.661630 0.325855 -0.000928 0.707685 -1.101878 -0.352776 0.226617 -0.135208 1.645741 0.515080 -0.425006 -0.146140 -0.280427 0.156869 -0.931095 0.507605 -0.303248 -0.044286 -0.314219 0.341889 -1.098661 1.148759 -0.370577 0.960975 -0.673309 1.561312 0.132638 -0.700469 -1.128846 0.821293 0.142955 0.108361 -0.096904 0.643542 -0.847650
gettin -0.611198 -1.195514 -0.197822 -1.221880 -0.160532 0.358374 0.793599 -0.526523 0.236364 -1.436378 0.297772 -0.079983 -0.301521 0.200388 0.237881 1.037249 0.772395 -0.276752 0.282478 -0.162917 -0.922110 0.812127 0.053882 1.367587 -0.616994 0.668075 0.887856 0.258426 0.126776 -0.621960 -0.505063 -0.364699 0.172339 -1.119931 0.785977 -1.521525 0.538458 0.750623 0.537107 -0.213988 0.212788 -0.303910 -0.563204 -0.571142 -0.982344 -0.326095 0.313863 -1.410591 1.367842 -0.734639
fuckin 0.070467 -0.217382 -0.302771 -0.100802 -0.383291 0.527667 0.277443 0.859815 -1.002893 -0.725593 -0.271752 -0.207511 -0.705062 0.152857 0.471730 -0.076426 0.087169 0.083860 -0.634999 -0.444488 0.244190 -0.193960 0.364147 0.999687 -0.582699 0.573588 0.212839 0.595184 -0.795486 0.461709 0.269785 1.643998 0.166114 -1.154597 0.165865 -0.920899 0.269777 -0.356563 -0.084508 -0.697522 -0.055911 -1.098036 -0.020009 -1.017147 -1.460300 -0.402552 -0.281361 -0.434150 0.183472 -0.146512
god 0.292124 0.742358 0.137948 -0.063656 0.048827 0.735616 -0.519555 -0.341027 0.023994 -0.561893 -0.074851 0.222763 -0.283526 1.156036 0.955638 0.918860 0.775161 -0.153766 -0.698760 -0.106051 -0.843944 -0.833810 -1.455554 0.320982 0.585340 -0.662434 -1.548898 0.643924 -0.328056 -0.294474 0.859980 1.024957 -0.249139 -0.216606 0.029464 0.629842 0.394193 -0.360952 -0.162243 -0.180908 1.817467 -0.516065 -0.933081 -1.462175 -0.049359 -0.971461 -0.022201 -1.275485 -0.771176 -0.805816
talk 0.267071 -0.636119 -0.847349 -0.284515 -1.107763 -0.812413 -0.597677 -0.034250 0.608053 0.573309 -0.378985 0.130504 0.083944 0.792570 1.008862 -0.301962 1.179032 0.312562 -0.096771 -0.746868 -0.047664 0.644401 0.812534 1.687448 -1.383362 0.330758 -0.529650 0.251202 -1.489686 -0.085297 1.370300 0.120135 -0.320374 -1.653261 1.279012 -0.010047 0.167223 0.268539 -0.685352 -1.383091 -0.180671 0.107548 -0.357789 -0.075103 -0.398551 -0.412616 -0.083763 0.073932 -0.268030 -0.435808
bad 0.210174 -1.452647 -0.065520 0.260618 -0.634877 -0.247162 -0.709413 1.270961 1.059419 -1.612088 -1.777883 -0.615506 -0.478207 0.503834 -0.742777 0.169239 0.817491 0.249306 -1.505549 -0.854894 0.098360 0.028454 0.814174 0.546693 -0.190342 0.179179 0.324615 -0.733368 0.335927 -0.094215 0.201529 0.529317 0.234313 -0.120808 0.861000 -0.118079 0.058151 -0.667519 -0.382519 -0.205864 0.754605 -0.644478 -0.217782 -0.879563 0.015496 1.091430 0.527327 0.136608 -0.421034 -0.106242
wit -0.266839 -1.150220 0.065188 0.972406 -0.013282 0.617430 0.985763 -1.067451 -0.114019 -0.916691 0.365678 -0.010076 0.586315 -0.983082 0.060225 -0.667344 -0.172374 -0.015335 -0.796544 0.109695 -0.410351 -0.296810 0.855506 0.675022 -0.001902 1.251749 -0.182506 -0.348799 -0.697975 -0.433800 0.073486 -0.136516 -0.007342 -0.449541 0.607558 -0.673135 0.481275 -0.427285 0.494615 -0.942296 -0.208888 -0.152762 -0.253991 -1.105587 0.004897 -0.531937 -0.435376 0.540921 -0.739784 -0.712023
run 0.438221 -1.718144 -0.116316 1.071754 -0.667345 0.681556 0.158952 0.251137 -1.010004 0.037553 -0.214844 -0.614993 0.357184 0.171175 0.859361 -0.335459 -0.337744 -0.473281 -0.164464 0.409930 -0.987201 -0.997529 0.934850 0.862203 -0.465765 0.990094 0.439406 -0.719930 0.579390 1.195251 0.264374 0.575696 -0.338359 -1.102700 0.787362 0.431765 0.139756 0.055442 0.802381 0.392254 1.791531 0.589908 -0.268597 -0.864813 -0.203740 -0.524119 0.402259 -0.903376 -0.116528 -0.940832
ho -2.082346 0.452149 0.372491 -0.045815 -0.839540 0.038057 0.770732 -0.999880 -1.161067 0.713200 -1.157223 -0.954977 0.532355 -0.122338 0.051677 0.262704 0.403626 -0.235696 -0.653875 -0.154553 -0.839055 -0.805230 0.527278 -0.230861 0.082427 0.679337 -0.696318 -0.258715 0.188999 -0.734143 0.877167 0.275949 -0.296318 -0.403790 0.066070 -0.527907 0.238572 -1.449035 -0.638196 -0.865375 0.343357 -0.830391 0.311475 -0.150835 0.497561 -0.626557 -0.007329 -1.066496 0.475687 -0.814645
hard -0.121695 -0.535041 0.468845 -0.430324 -0.102181 0.161124 0.715984 -0.517927 -0.079686 0.857393 -0.120842 -0.239988 -0.075721 -0.515593 -0.073271 0.460266 -0.253444 -0.558102 -0.473298 0.114167 -1.174816 -0.266591 -0.243008 1.259081 0.200689 0.588791 0.219368 0.074152 0.223050 -0.161473 0.178496 0.702156 -0.052185 -0.033241 0.976160 0.776056 -0.222010 -0.640829 0.591732 -1.160756 1.299849 -0.264219 -0.280086 -1.368982 -1.265304 -0.312315 -0.241695 0.346914 -0.032656 -0.299135
world 0.739425 -0.326880 -0.263223 0.114071 -0.497585 0.636862 0.489659 0.920496 0.911678 -0.926611 -0.089261 0.090983 0.044662 -0.769596 0.747459 1.498026 -0.010883 0.222330 -0.476266 0.310480 -0.439079 0.390877 0.076119 0.341221 0.689133 0.337334 0.290651 -0.426374 -0.759521 -0.760057 0.736504 0.162715 -0.126027 -0.173167 1.900795 0.508296 0.700375 -0.192482 0.266391 0.213541 0.239819 0.853349 -0.644960 -0.545756 -0.329478 -0.362664 0.855901 0.667436 -0.046436 -1.821605
pop -0.041889 -0.913922 -0.954058 -0.589514 -0.483005 -0.070531 -0.114954 -0.803072 -0.502297 1.166288 0.652901 -0.512718 -0.368531 -0.829809 -0.120349 -0.107300 -0.353853 0.252208 -0.020527 -0.726455 -0.450586 -0.074958 1.018629 0.971639 -0.418360 1.312911 -0.239141 -0.628003 -1.807959 -0.174458 0.934541 -0.391204 0.166892 -1.193537 0.957153 -0.834982 0.328026 1.013808 -0.390748 -0.373608 0.588120 -2.025986 -0.280921 -0.686467 0.099336 -0.735121 -0.506429 0.552195 -0.887291 -0.620703
little -0.826677 -0.684407 -0.661032 -0.337521 0.463852 -0.202975 0.406418 0.629128 -0.611927 -0.155112 -0.454953 0.910277 0.923905 0.642757 -0.176862 0.453429 -0.180342 -0.407443 -0.550293 -0.386158 0.187218 0.273453 -0.077106 0.355270 -1.095616 0.386382 0.557517 -0.497361 -0.760672 -0.573254 0.095038 0.951586 -0.102508 0.189003 1.188614 -0.742955 -0.542740 1.240114 -1.255924 -1.049111 1.660995 0.476251 -0.712031 -0.923969 -0.478148 -0.154253 0.043883 0.459380 -0.077187 0.467514
roll 0.233592 -0.698005 -0.764963 0.448908 -0.109592 0.237944 0.361692 -0.382872 -1.144178 0.532395 -0.713407 -0.606699 0.558533 0.456910 0.973082 0.075678 -0.104294 -0.091929 0.528110 1.262427 -0.444014 0.138089 0.438413 0.321995 0.566195 0.720640 0.078269 -0.479277 -1.146780 -0.761333 1.004087 -0.929292 -0.413591 -0.804503 0.094082 -1.349433 0.503008 -0.142180 -0.388105 0.245426 0.950943 -1.586356 -0.294747 -1.609794 0.126021 0.335058 -1.025184 -0.377830 -0.884276 -0.999563
til -0.628462 -0.853469 0.384636 -1.149460 0.347873 -0.590111 1.163378 0.505474 -0.862662 -0.151393 0.471602 -0.023279 0.065659 0.535335 -0.303552 0.062104 0.037303 0.514116 0.404201 0.034684 0.477267 -0.641080 0.325545 0.344728 0.355917 -0.885092 0.181745 -0.326322 -0.868079 1.222601 0.375580 0.365132 0.277639 -0.097592 2.106945 0.080145 0.729826 -0.908049 0.217704 -0.892790 0.910151 0.475987 -0.074303 -1.324139 0.093924 0.450158 -0.694368 -0.284325 0.824623 -0.838377
hood 0.030075 -1.198558 0.213124 0.769383 -1.943526 -0.585211 0.103111 0.215039 -0.422145 -0.974562 -1.831289 -0.114789 -0.253683 0.337855 -0.318596 -0.416138 -0.711253 -0.199018 -1.620585 0.391844 0.233411 -1.181769 0.918908 0.624526 -0.572948 0.376363 0.584238 -0.856867 -0.260311 0.317637 1.517509 0.247748 -0.175459 0.779626 0.718598 -0.452792 -0.271405 -0.079917 -0.243526 -0.174256 0.601045 -0.714715 0.298523 -1.020347 -0.442816 -0.669745 -0.033038 0.490849 -0.319865 -0.224024
dick -1.099275 -0.995535 0.246418 -0.549855 -0.576616 -0.180662 1.066252 0.264015 -0.678937 0.275595 -0.161428 -0.642082 0.238131 0.074067 -0.730190 0.746723 -0.508636 -0.721841 -0.858921 -1.442347 -0.187109 0.012866 0.116765 0.846723 -0.005912 -0.015884 0.205315 -0.206991 -0.922462 0.450484 0.444767 0.637734 0.271755 -0.445284 0.821577 -0.016909 1.505874 -0.960020 0.094196 -0.765909 -0.067428 0.234450 0.070875 -0.741567 -0.682894 1.177889 0.143045 -1.150848 -0.128031 -0.429829
g -0.015360 -1.107074 0.033304 1.425375 0.313174 0.720608 -0.101343 -0.080507 0.820276 0.503929 0.278249 0.407984 0.302843 0.864187 0.233339 0.036965 -0.593569 0.209215 -0.214042 0.288908 1.701415 -0.556116 0.830974 -0.127237 0.342626 1.265175 0.454263 -0.534430 -0.026499 0.228536 1.589475 1.087447 -0.883731 -0.235672 0.723096 -1.107818 0.686133 -0.543060 -0.866121 -0.368885 1.393456 -0.286540 -0.447613 -0.159883 0.059293 0.191127 -0.140220 0.225600 1.357645 0.234763
ha -0.670482 -0.589465 -0.219409 -0.188670 0.291621 -0.476789 0.531982 -0.604114 -0.520891 -0.803637 -1.170853 -0.239660 0.460220 -0.052549 -1.175881 0.267106 -0.477586 0.388503 0.939744 0.193604 -0.855618 -0.746634 0.756673 -0.127385 -0.532968 0.402342 0.452920 0.335675 0.518307 0.184144 -0.060746 0.802857 -0.268727 0.404133 0.458301 -0.664682 -0.472920 0.106356 -0.676281 -1.429155 0.192162 -0.715552 -0.825222 -1.035485 -0.889957 -0.328237 -0.389492 -1.021165 -0.263629 0.333104
leave 0.057999 -0.678621 -0.119341 -0.391445 0.325322 0.176196 -0.218471 0.293160 -0.178318 -0.741857 -0.504912 -0.321396 -0.712439 -0.360343 -0.491035 0.015962 0.275072 -0.650036 -0.856813 -0.323938 -0.152926 0.591828 1.208504 0.493387 -0.582955 0.193511 0.629202 -0.309720 -0.347732 -0.296561 0.249999 1.260048 0.324775 -0.843713 0.028801 0.518241 -0.048653 -0.882458 1.088029 -1.025438 0.901303 -0.348402 0.931290 -1.178656 -0.415514 0.321520 -0.020822 0.218636 -0.103940 -0.679686
lil -1.051221 -0.710258 0.336665 0.435867 -0.060272 1.097338 0.006336 0.506579 0.477204 0.374937 1.123608 0.780381 0.972757 1.100569 -0.969777 0.497105 -0.718285 -0.325611 -0.521669 -0.443303 -0.432584 0.199889 1.113132 0.393706 0.184268 0.025887 0.561483 -0.461936 -0.551658 -0.469526 0.050572 0.298478 0.104657 -0.445906 0.591988 0.411208 1.173575 -0.244565 -1.192405 0.264763 0.977865 -0.689992 -0.529420 -0.696751 -0.093064 -0.328323 -0.564416 0.738727 -0.335785 -0.837898
beat -0.709169 -0.689246 1.202408 -0.362654 0.360328 -0.522390 0.477776 0.172101 -0.834389 0.332838 0.893375 -0.126429 -0.364805 0.250185 -0.347001 0.457498 -0.197175 -0.311132 -1.412893 -0.593595 0.982319 -0.343324 0.659639 1.215192 0.186813 0.308241 0.163515 -1.221904 -0.440452 0.589269 1.232393 0.071382 -0.803265 0.199499 0.049687 -0.424133 1.030276 -0.610152 -1.029601 -0.668523 1.273735 0.150003 -0.459165 -0.827686 0.651424 0.628512 -0.614999 -0.736638 -0.453421 -0.944329
long 0.504576 0.012381 0.671260 0.091806 -0.632112 -1.495216 1.235572 0.906087 0.223423 -0.613631 -0.079160 -0.022068 0.230000 -0.491273 0.209783 0.424591 -0.338592 0.788706 -0.248394 -0.718067 -0.881276 -0.113430 0.702659 0.498917 -0.178853 0.321609 -0.382678 0.447175 0.074272 0.759354 0.269588 1.042951 0.999738 -0.540050 0.175503 -0.024102 -0.248914 -1.220220 0.604689 -1.439670 0.468108 -1.053678 -0.176567 -1.310706 0.297448 0.036473 -0.661954 -0.120857 0.629438 -1.891377
black -0.231278 -0.478590 0.585294 -0.299217 -1.419094 -0.207291 0.107394 -0.948445 1.427959 -0.400192 0.578708 0.087256 -0.027689 0.419974 0.110181 0.393659 -1.209178 -0.160565 -0.877441 -0.760273 -0.252811 -0.328288 1.191851 0.135850 0.058863 0.050521 -0.129355 -0.244899 -0.664400 -0.401407 1.370355 0.363830 -0.025290 0.179075 -0.146828 -0.064115 -0.265182 -0.948560 0.271493 -1.614340 0.654978 -0.066109 0.019217 0.445071 0.270389 -0.738455 1.737650 0.382529 0.017848 -0.758392
wo -1.440671 -0.446547 -0.275656 -0.228475 0.127450 -1.016450 0.189004 0.167221 0.236270 -0.132181 0.022894 0.146702 -0.730136 0.027138 0.699958 0.034516 0.241050 -0.713202 -1.084819 -0.998573 -0.815945 -0.194132 0.415615 0.125337 0.365376 0.817979 0.071485 0.293348 -0.203394 0.360859 0.347730 0.972672 0.543043 -0.238307 1.868188 -0.293229 0.112275 0.034362 0.059893 0.139922 1.500510 -0.254369 0.337637 -0.732492 0.557815 -0.272948 -0.728539 0.007978 -0.454373 -1.758769
que 1.422154 0.810689 0.148500 -0.041556 0.160248 -0.755460 -0.684693 0.111024 -0.157023 -0.849740 -1.644986 0.275384 0.168903 -0.389882 -0.494384 -0.557415 -0.494761 0.600902 0.784948 -0.161210 0.432768 0.123328 0.718815 0.011045 0.767640 -1.215954 -1.700164 -0.024333 -0.522021 -1.744444 0.297035 -0.430533 0.845018 0.670060 -0.714793 -1.334996 0.800953 0.487603 -0.603765 1.292936 0.168358 0.022581 0.315617 -0.194289 0.076105 0.380461 -1.136860 0.647679 -0.640055 0.342085
bring -0.544316 -0.328042 0.648895 -0.982771 -0.171724 0.865572 -0.541236 0.489245 0.051961 -0.583362 0.479118 0.317684 -0.141592 0.238664 1.326041 0.244384 0.014892 -0.275329 0.179466 -1.580078 0.022184 0.090945 1.662868 -0.385129 -0.408241 -0.182601 -0.106331 -0.405277 0.156473 0.396437 0.062583 0.496678 -0.781656 -1.921311 1.039313 -0.258901 0.223472 -0.759126 -1.047570 -0.601902 1.311230 0.200352 0.356866 0.277399 -0.310687 -0.652020 0.569447 0.826282 -0.205357 -0.607549
start -0.827965 -1.006282 -0.268087 -0.352404 0.050265 -0.229583 0.427964 0.329051 0.309434 0.175869 0.951951 0.131823 -0.193999 0.626581 0.738841 0.705397 -0.140877 -1.335670 -0.566840 -1.235619 -0.222961 0.574684 0.230403 0.321355 -0.285473 0.315001 0.298923 0.093849 0.410645 -0.424738 1.111604 -0.856486 -0.332522 0.400015 1.876893 0.018370 0.658087 -0.705395 1.310683 0.096749 0.624416 0.814620 -0.106826 -0.608342 -0.490718 -0.397783 -1.288886 -0.323262 -0.011373 -0.433530
turn -0.489234 -1.033056 0.174684 -0.855072 0.321742 0.715648 -0.367315 0.671213 -0.926554 0.271312 0.377604 0.198290 -0.390161 0.990136 0.463112 0.656209 0.804260 0.610524 0.727211 0.318824 -0.375554 0.020192 0.396570 -0.357092 -0.106614 -0.945709 -0.012325 -0.356071 -0.477924 -0.349286 0.336642 -0.042205 0.206480 0.333346 1.020369 -0.313601 0.425584 -0.674730 0.060024 -1.277194 0.624565 0.200306 -0.490619 -1.603335 -0.018292 0.343837 0.010749 -0.503327 -0.515509 -0.918438
live 0.927954 -0.555845 0.700704 -0.040535 -0.662600 1.088142 -0.109354 0.534722 1.447629 -0.692456 0.329069 1.067290 -0.373648 -0.361663 -0.015402 1.062406 0.408129 1.798766 -0.479950 0.418476 -0.028201 -1.301236 0.025723 -0.270327 -0.062148 0.975379 0.470268 -0.334724 -0.515812 -0.258342 0.036117 0.487710 0.205834 -1.237023 0.553883 -0.283786 -1.044427 -0.409863 -0.258884 -1.305671 0.765460 -0.473363 0.466290 -1.522247 0.072392 -0.080618 -0.812603 -0.423976 -0.099822 -0.499522
bout -0.774152 0.267610 -1.680498 0.779891 -0.259078 0.285399 -0.118321 -0.248245 0.970533 0.183415 -0.227166 0.775106 0.868216 0.848836 0.395549 -0.850296 0.283929 -1.770238 0.573596 0.117462 0.165780 0.032254 0.269094 0.019398 -0.337032 -0.262670 1.477856 0.662283 -1.031019 0.510157 1.798374 0.394965 0.238006 -0.120331 0.324702 -1.363284 1.126664 -0.516763 0.219748 -1.541389 1.035785 0.008516 0.399951 0.510542 -0.278502 -0.118158 -0.044824 -0.118807 0.656283 -0.056844
home -0.194658 -1.223976 0.819985 -0.296369 -0.262387 0.334051 0.403138 0.444869 0.924463 -0.112934 -0.505114 -1.205577 -0.567646 0.939228 -0.170894 -0.406369 -0.291683 -1.021111 0.716065 0.511985 -1.097848 0.375431 -0.153620 -0.144101 0.736497 0.850727 -1.039699 -0.156384 -0.494246 0.421793 0.549851 0.644772 -0.279899 -0.662899 0.358680 0.809871 -0.188413 0.324046 -0.277716 -1.354018 0.970717 0.472358 -0.837181 -1.094280 -1.357127 0.664754 0.452906 0.093949 -1.249757 -1.491787
ayy 0.348120 -0.935135 0.778203 -1.665043 0.200808 0.305071 0.197716 -0.612145 -0.401559 -0.191550 0.369680 -0.657807 0.078614 -0.271701 -0.493332 1.156201 -0.365934 0.017218 0.552032 -0.667447 -1.143634 -0.395293 -0.047677 0.435654 -0.611915 0.018931 1.019098 -1.047110 0.133553 1.265757 1.551613 0.101668 0.679192 -0.621095 0.817745 -1.115630 0.229739 -0.911638 0.022099 0.072919 -0.775633 1.318775 -0.762236 -1.324862 -0.464970 1.087666 0.534045 -1.221573 0.149045 0.298057
thing 0.136147 0.220236 -0.546424 0.334886 0.460725 0.445330 0.830847 -0.861877 0.265025 0.553967 -0.581304 0.660265 0.328630 0.831337 -0.309323 -0.963923 0.726470 -0.136312 0.046556 -0.228214 -0.604161 1.042665 0.016097 -0.333827 -0.880462 -0.436665 0.335782 -0.891194 -0.594929 0.152216 1.710540 1.204161 -0.414965 -0.443911 1.013189 0.120126 0.374959 -0.975541 -0.176005 -0.539633 1.296559 -0.641236 -0.620286 -0.488703 0.892738 -0.810523 0.442334 0.336880 0.183806 -0.531170
told -0.233162 -0.872314 0.188980 1.079138 0.377855 0.159498 0.403087 1.079009 -0.076863 0.410300 0.160470 0.024223 -0.197358 0.118551 0.472038 -0.168425 0.259941 -0.729860 -0.251340 0.089248 -0.382805 0.443708 0.356240 -0.249707 -0.873105 0.012051 0.505274 -0.083907 -0.253665 0.247950 1.419356 0.612257 -0.877423 -0.900816 1.068940 -0.026924 0.259334 -0.400405 -1.156595 -0.776973 -0.573205 0.199817 -0.158329 0.272797 0.026450 0.304328 0.497396 -0.636615 -0.041430 -1.936578
da -0.526781 -0.561732 1.358629 0.625803 -0.976465 0.313035 0.823001 0.131446 -0.843174 0.196068 0.263965 0.326680 -0.513591 0.719495 -0.956345 -0.450384 -0.001681 -0.807407 -0.887135 0.036786 -0.461171 -0.432461 0.324861 0.177993 -0.531984 2.394735 -0.796123 1.243352 -0.174022 -1.089332 0.728783 -0.856363 0.965868 1.403821 0.638175 -0.963717 -1.401839 1.291076 -0.236776 -0.302556 0.404949 -0.405300 0.227207 0.030452 0.380206 0.201028 -1.639905 0.505091 0.058064 -1.149278
face -0.581682 -0.831219 0.013541 1.255481 -0.159171 0.179230 0.012187 0.604997 -0.486548 0.072789 -0.366479 0.205973 0.354005 0.025269 1.010916 0.612088 -0.203967 -0.140404 -0.235612 -0.872688 -0.496582 -0.571343 0.534324 0.807040 0.063915 -0.989973 0.082401 -0.493735 -0.416630 -0.568444 0.229146 0.829924 -0.697752 -0.190245 -0.496842 0.180418 -0.255008 -1.184037 -0.268187 -0.989092 -0.078576 0.074471 -0.811537 -1.803011 -0.683573 0.820374 -0.040138 0.359941 0.815553 -0.521331
hear -0.639924 -0.359314 0.186602 0.227264 -0.098397 0.230344 -0.900528 0.021195 0.766886 0.175354 -0.364093 0.302397 -0.699882 -0.228145 0.229339 0.715730 1.102093 -1.925500 0.381281 -0.139615 -0.644915 0.011059 0.423160 0.641488 -1.308930 0.420746 0.181750 0.056211 -0.125035 -0.286381 0.654077 0.119756 -0.014438 -0.444312 0.826233 0.683079 1.012513 -0.086075 0.530368 -0.252691 1.017548 0.265628 0.183361 -0.601081 1.298135 0.168267 -0.808416 0.122970 0.710717 -1.170588
play -0.076129 -0.736931 -0.224669 1.496623 -0.865184 0.851942 1.147759 -0.162424 -0.150985 -0.260284 -0.560400 0.715533 1.045291 -0.021860 -0.565256 0.104184 0.646309 0.074564 -0.351386 -0.018253 -0.520809 -1.017474 0.454669 0.468648 0.178961 -0.104242 0.175919 -0.913176 -0.423120 0.024117 0.616611 -0.219110 -1.018688 -0.685908 0.635632 0.967508 0.512590 0.206820 -0.106193 -0.714506 0.459847 0.298537 0.415712 -0.800228 0.000976 -0.851797 0.150045 0.209522 0.364715 -1.251344
low -0.651337 -2.063820 0.303827 -0.304852 0.256760 -1.647005 0.466462 0.347955 0.553853 0.893758 -0.273632 0.259250 0.657404 0.037011 0.188360 -0.235313 -0.553229 -0.099961 0.610514 -0.275328 -1.059454 1.137601 0.116647 0.175774 0.603371 -0.912570 0.782723 -1.822348 -1.299589 -0.684107 0.098383 0.137066 -0.113017 -0.804803 -0.157116 -1.220672 -0.382667 0.080290 -0.282981 -0.106312 1.118831 -0.821120 0.414212 -1.454888 1.652606 -0.645136 0.830389 0.522520 -0.256546 0.121179
crazy 0.493272 -1.164926 -0.968081 -0.016678 -0.503847 -0.281228 0.777127 -0.571948 -0.244958 -0.472460 -1.677209 0.508901 -0.045077 -0.166505 -0.238877 1.209727 0.101322 -0.277584 0.632791 -1.324812 0.108612 0.821848 0.226234 0.172666 -0.290278 1.752980 0.509204 -0.043109 0.371017 -0.399364 1.058450 0.625784 -1.235624 -0.398606 0.712415 0.352802 -1.089599 0.100351 -0.825879 -0.155059 -0.423892 -0.164975 -0.024954 -0.643048 0.216251 -1.050276 -0.517952 0.562388 -0.225842 -0.551241
break -0.178153 -1.251880 -0.078347 1.718726 0.578731 0.319319 0.304344 0.621328 -0.274418 1.410194 -0.719024 0.116957 0.068132 -0.554938 0.705382 -0.316052 -0.357988 -0.403258 0.136516 0.527132 -0.021382 -0.445836 0.254044 -0.477528 -0.846642 0.088017 0.684810 0.046966 -0.853996 0.423624 0.368815 0.482060 0.362440 -0.940999 1.761255 -0.957455 0.138603 -0.155120 -0.644429 -0.439377 -0.066678 -0.466048 0.297334 -0.117804 1.120024 0.312645 -0.584002 -0.769668 0.493649 -1.633670
dem 0.006453 0.934458 -1.267293 -0.408437 -0.354825 1.208516 -0.598971 -0.060100 -0.472958 0.343615 -0.785562 -0.130395 0.834611 1.093387 0.206733 0.527579 0.807219 0.499303 0.382521 -0.287301 -1.086890 -0.490981 -0.105695 0.191753 0.599940 -0.269009 0.559762 -0.584419 0.042162 -1.265794 0.547952 -0.872101 0.587066 -0.618078 0.573744 -0.430373 0.232343 0.743973 1.120545 -1.869797 0.368666 -0.161305 0.337311 0.559910 0.776659 1.622900 0.439394 -1.292056 0.224337 0.112209
die 0.459255 -0.802991 0.221978 -1.215976 -0.342694 -0.544665 0.961668 0.241301 0.164182 -0.597994 0.213268 0.155047 -0.938241 -0.113568 0.112194 1.772182 0.359477 -0.417200 -0.221933 1.603536 0.440191 -1.587204 0.358975 0.058130 -0.113308 0.654606 0.340920 -0.631244 -0.395833 0.690388 -0.525122 0.794653 -0.272550 -0.920690 0.533999 0.011051 -0.090504 -0.539526 -0.452147 -0.438559 0.152598 -0.408925 0.990347 -0.487105 0.467429 -0.746663 -0.079067 -0.216008 -0.004513 -0.663159
hold 0.820647 -0.172654 0.868776 -0.113021 0.130078 -0.596242 0.133156 0.201789 -0.537809 -0.459138 0.698415 -0.609375 -0.566499 0.021228 0.694358 -0.107364 -0.371523 -1.046896 0.727655 0.200785 0.545611 0.722233 -0.253074 0.524664 0.204855 0.474093 -0.664261 -0.316167 -0.855422 -0.142262 0.785180 0.313014 -0.181922 -0.497221 1.151536 0.162434 0.036702 -0.877804 -0.980261 -1.375902 0.328705 0.064627 -0.255453 -0.524805 -0.590062 -0.727563 -0.717084 0.024285 -0.626977 -0.906676
o -0.510114 -0.629865 1.073067 1.659791 -1.061509 0.413398 -0.365906 0.242963 0.227885 -1.435262 0.362039 0.756374 -0.281219 -1.495666 -0.743610 -0.116387 0.366703 0.537794 1.108953 -0.153680 0.925600 0.252675 -0.620717 0.860877 1.260234 1.158625 -0.675826 0.456896 -0.947350 -0.100571 1.041841 0.328136 -0.683442 -0.484015 0.179626 -1.169201 1.222181 -0.042181 -0.441561 -1.090714 1.062049 0.910002 0.079608 -0.460433 0.860867 -0.108381 1.041904 0.399849 0.489615 0.564902
everybody -0.079615 -1.267061 0.481412 -0.228422 -0.461702 0.661339 0.521350 0.281379 -1.008455 -1.557074 -0.599726 -0.226619 -0.550468 0.250160 1.262150 0.097867 -0.271113 -1.370017 0.232456 0.283761 -0.521359 1.290212 0.303948 1.127884 -0.571232 0.255715 0.454116 0.010640 0.508452 -1.037746 0.518921 -0.170274 -0.825876 -0.837146 0.756773 -1.498263 0.141238 0.086075 1.564905 0.331969 0.431581 -1.167368 0.258584 -0.550943 -1.245018 0.142693 0.028114 -0.928200 0.404173 0.219422
rap -0.720868 -0.232443 -0.409838 0.108817 -0.138833 0.191746 -0.223325 -0.808355 0.721521 0.011437 -0.400600 0.873327 -0.028678 -0.311372 0.894180 0.177219 0.345916 -0.248476 -0.680083 0.204041 -0.427203 -0.735715 -0.261031 1.480592 -0.019454 0.361996 -0.504985 0.772725 -0.718879 0.511971 0.215051 2.027723 -1.329101 0.033543 0.677888 0.038950 0.558803 -0.434113 0.221043 -1.006737 0.791885 -1.087339 -0.075829 0.145076 -0.287085 0.028755 -0.006521 0.084509 -0.274425 -0.541487
tonight 0.204726 -0.464400 -0.219422 -0.978736 -0.847606 0.184774 1.990310 0.440842 0.194064 -0.125785 -0.085346 -0.001586 -0.948281 0.109099 0.676388 0.795628 0.803045 -0.508766 0.346535 -0.202184 -0.504356 0.446461 0.789903 -1.195790 -1.118010 0.698161 -0.174173 -0.265738 -0.719709 -0.281298 0.289507 1.316244 -0.396058 -0.080343 1.197147 0.309404 0.792676 0.520413 -0.043992 0.129708 0.957503 2.112373 0.729771 -0.849902 0.558244 -0.118361 -0.032301 -0.478317 -1.439801 -0.643578
young -0.224548 -0.692751 0.964326 1.025919 -0.860451 0.890657 -0.448470 -0.357814 1.095071 -0.266572 -0.079220 0.455265 0.737245 0.942444 -0.790501 1.119376 0.324303 0.469041 0.409106 -0.286421 -0.226435 -0.098997 0.946439 0.665135 0.049020 0.955017 0.453768 -0.084004 -0.457897 1.025385 0.034576 0.211229 0.104645 -1.284351 1.073149 0.092387 0.340194 -0.327754 -0.259400 -0.365948 0.843160 0.206209 0.145702 0.088347 0.400227 -0.939588 -0.111312 -0.441883 0.443167 -0.647676
ready 0.675584 -0.484744 0.283112 -0.676521 0.478040 0.653052 0.464299 0.458853 -0.292868 0.242372 0.564088 1.265516 -0.567985 0.274709 -1.351535 1.148792 0.102193 -0.749960 0.208516 -0.211817 -0.683861 -0.919982 0.685584 -0.773518 -0.675676 -0.549111 -0.020112 -1.030656 -1.623857 -0.031806 0.301030 1.117975 0.130702 0.141039 0.493705 -0.263254 0.043564 -0.109682 1.182048 -0.070673 0.621612 -0.033117 -0.410712 -1.153257 0.385668 -0.419148 -0.098291 0.172902 1.195454 -1.153361
shake -0.336731 -0.538757 -0.014941 -0.248886 0.308296 0.573447 -1.015818 0.300291 -1.675953 1.733260 -0.986165 -0.924336 0.217733 -0.331765 -0.674969 0.215138 0.111041 0.759646 -0.504806 -1.878045 -0.703601 0.696066 0.031285 -0.414213 0.875637 0.225089 -0.802032 -0.834236 -0.633907 -1.225164 -0.737959 -0.415518 -0.527808 0.427355 0.450222 -1.856005 0.631735 -0.010208 -0.091066 0.061921 -0.363456 0.276821 -0.629134 -0.713228 -0.170559 -0.151342 -0.615865 0.733485 0.114829 -1.639423
white 0.310399 -0.440557 0.811182 -0.177511 -0.732798 -1.145323 -0.616977 -0.877635 -0.174436 -1.242617 0.227783 0.130719 0.374928 0.710966 -0.318545 0.510261 -0.803220 0.312744 -0.307620 -0.949794 -0.457163 -0.929923 0.307852 -0.119043 0.412462 0.464613 0.388770 0.270079 -0.659277 -0.741949 1.096873 0.822276 -0.152896 0.260418 0.291828 -0.381012 -0.484467 0.125339 -0.629811 -1.404329 0.539070 -1.032903 -0.952804 0.192163 0.579584 0.046280 1.869997 -0.439676 1.064730 -0.441987
tryna -0.287728 -0.520660 0.107117 0.417908 0.467859 0.526829 -0.121399 0.440808 0.193728 -0.236957 -0.192328 0.078212 -0.536045 -1.060796 -0.035370 0.048642 -0.139732 0.993901 -0.070456 0.439536 -0.288451 -0.373337 -0.512204 0.852255 0.001820 -0.312333 -0.077391 0.231234 -0.640015 -0.714717 0.663933 -0.076269 -1.201074 -0.394551 0.128013 0.136031 0.913666 -0.540103 -0.283274 -1.596816 0.628278 -0.124370 -0.135667 -0.754507 0.564439 -0.575152 1.011188 -0.747794 -0.396058 -0.756294
lookin -0.718571 -0.910029 -0.024662 -1.140553 -0.771184 0.406604 0.641718 0.216592 -0.657412 -0.108901 -0.619935 0.419300 0.368294 0.161874 -0.088584 1.410747 0.478621 0.295676 -0.898476 -0.515213 -0.763018 0.455690 0.232288 0.227653 -0.839607 -0.444427 1.547101 -0.239658 0.122903 -0.338085 0.111528 0.328590 0.205821 0.130841 0.028926 -1.133726 -0.194779 -1.902897 -0.157018 -0.790702 -0.617312 0.218044 -1.305726 -1.350046 0.074950 0.207943 0.602535 0.059099 -0.711616 0.769408
daddy -0.227908 -0.064702 1.064362 0.620520 -0.386142 -0.123575 -0.964945 0.097082 0.922931 0.419620 -1.215313 0.508595 0.673045 -0.945171 0.614109 -0.493272 -0.245404 -0.394902 -0.847362 0.265310 0.081225 -0.160725 0.944319 -0.623504 1.168989 0.193387 -0.012955 0.442937 1.264887 0.041313 -0.287702 1.012448 1.344085 0.005297 0.978577 -0.784065 0.575954 0.836336 -1.517597 -0.803627 0.680336 -0.245942 -0.221108 -0.499089 0.009074 0.875886 -1.147040 0.202314 -0.815109 -2.909107
gone 0.576213 -0.009926 1.151826 0.426917 -0.506392 0.527487 0.794399 0.615006 0.162126 -0.311335 -0.040548 -0.090509 -0.515484 -0.200162 0.703358 -0.281757 0.991527 -0.354952 0.311140 0.374245 0.053759 0.074811 0.543272 0.480101 0.237446 0.300567 0.171883 -0.224230 -0.167220 0.464420 -1.213030 0.898267 0.605499 -0.545094 1.153650 0.351717 0.210176 -0.661300 -0.253690 -1.611762 0.636269 1.054713 -0.709387 -0.978877 1.303114 -0.297095 -0.317699 0.508398 0.202193 -0.917774
b -0.148492 -0.715568 1.418704 -0.184456 0.443380 0.605648 0.291749 0.527823 0.891445 0.203952 1.319825 -0.869188 -0.013877 0.446453 0.695001 -0.041807 0.899490 -0.468644 -0.750200 -1.289859 1.199513 0.154381 0.472498 1.249835 0.236304 0.230026 -0.399125 -0.023395 -1.514218 1.310671 1.296538 -0.060116 -0.138498 0.675753 0.371410 -1.543925 0.339160 -0.691339 -1.391015 -0.120871 1.331667 1.155718 0.320321 -0.082195 -0.485427 1.476860 -0.200805 -0.280318 0.344875 0.458594
ice 0.739786 0.149292 0.175574 -1.569306 0.337622 1.858027 0.542751 -1.381609 -0.183998 -0.956117 0.101075 -0.126601 0.560157 0.567698 1.256661 -0.933074 -0.769361 0.052921 0.046351 0.276939 0.022625 0.074171 -0.511197 0.624345 0.102635 0.429399 1.074168 -0.384298 -1.400055 -0.304355 1.071839 0.557921 -0.507026 -0.526747 1.011738 -0.104083 -0.198811 -0.594755 -0.897076 -1.167142 -1.366434 -0.512584 0.497440 -0.335763 0.498171 0.033889 0.579836 0.614064 0.562202 -0.256994
work -0.562168 -1.065259 1.061107 0.199135 0.047816 0.311848 0.264843 -0.106513 -0.656350 0.083766 -0.554896 0.336198 0.040814 -0.503981 -0.833634 -0.587205 -1.158397 0.537604 -0.050802 -0.488743 -1.244687 -0.101829 0.270336 0.467800 -1.193416 0.300789 0.123958 -0.640622 0.277818 -1.148835 0.193188 0.715689 -0.616929 0.121198 0.531996 -0.194527 0.153175 -0.894253 0.774360 -0.622144 0.796100 0.417285 -0.675942 -0.603929 0.116865 -0.424447 -0.199497 0.549485 0.436048 -0.696831
pull -0.047606 -1.015757 -0.288659 -0.416065 -0.401158 -0.519878 0.105877 -0.134234 -0.189981 -0.607068 0.235568 -0.084184 -0.276580 0.076499 0.090621 -0.954947 -0.790625 -0.300379 -0.013375 -0.076834 0.483081 -0.423980 1.755883 0.593379 -0.411220 0.142866 1.136396 -0.595302 -0.514443 -0.122797 -0.193132 -0.138166 0.147458 0.489216 0.915468 -0.343188 0.061341 -1.274213 -0.173719 -0.391906 0.372041 -1.291146 -0.846479 -0.993886 -0.591067 -0.844723 0.316792 -0.240334 0.316164 -1.120814
whoa -0.928317 -0.298609 1.222432 0.988429 -0.012240 -0.308491 0.332686 -0.395230 -1.146072 0.255213 0.523849 0.395525 -0.461071 -0.506632 -1.256265 -0.387085 -0.064047 -0.335029 0.117108 0.329381 -0.811969 0.545277 -0.608241 0.591130 0.122682 -0.569213 0.858729 0.477705 0.571780 -0.822096 0.447725 0.109952 1.460282 -1.170913 -0.031038 -0.871605 1.526678 0.337134 -0.728512 0.823049 0.398784 0.138763 0.303295 -1.355113 -0.480985 -1.046409 0.484775 1.159509 1.153644 -0.270291
fly 0.056789 0.309062 0.085698 -0.493758 -0.948064 0.458909 0.026691 -0.210919 1.057211 -1.308131 -1.291265 -0.521020 -0.402845 0.723807 0.126975 1.167524 0.567229 -0.200582 0.106281 0.583110 -0.381591 -0.738459 -0.028117 0.148676 -0.504291 -0.014959 -0.235345 -1.147282 -0.490395 0.339302 -0.708755 -0.353314 0.123579 -1.593285 1.267007 -1.107193 -0.386914 0.003182 -1.170337 -0.407326 0.654969 -0.296271 -0.167094 -1.021485 0.320927 -0.062641 0.202451 0.894985 1.186387 0.311909
girls 0.423460 0.325665 0.047521 -0.188348 -0.261196 0.190822 0.480890 0.415705 -0.738531 -0.634702 -0.043720 -0.178272 0.552885 0.353555 0.293979 1.741886 0.551652 0.080924 -0.628345 -0.807709 -0.414500 -0.003688 1.182584 0.156800 -0.056572 0.891285 0.920395 -0.395127 -0.283907 -0.983045 0.947221 -0.634296 0.028587 -0.712207 0.917013 -0.464729 0.872382 -0.264081 0.165593 -0.259994 0.097041 1.334073 -1.293138 -1.039028 0.390247 0.848661 0.978679 0.530490 0.428614 -0.313526
talkin -0.970523 -0.784803 -1.111625 -0.103070 -0.711608 -0.128892 -0.497735 0.398878 0.589128 -0.007975 0.239711 1.584664 -0.027875 0.449801 -0.384141 -0.371342 -0.001930 -0.467850 0.906428 -1.068668 0.357517 0.479780 0.458806 0.760189 0.163593 -0.454653 1.056887 -0.038283 -0.990945 0.694683 0.680924 0.473902 0.108563 -0.319430 -0.137106 -0.949214 -0.009073 -0.212040 0.452290 -1.369259 0.524987 0.336851 -0.482088 -0.359220 -1.114582 -1.101981 0.057795 -1.399456 -0.206966 -1.029428
yes -0.403483 0.037656 0.554064 0.093732 1.421223 0.237067 0.197243 -0.612317 -0.690392 -1.017287 -0.433276 -0.038627 -0.579905 0.970968 -0.184010 1.535270 0.100040 -0.930743 -1.258670 0.161536 -0.221260 -0.765520 0.549115 0.529924 1.147329 -0.896617 -0.808794 -0.054039 -0.035901 0.025993 0.871938 0.273468 -1.427449 -0.703449 -0.357380 -0.192237 0.459805 0.553451 0.175806 -0.071186 0.045009 0.551552 -1.000968 -1.005161 1.338948 -0.505846 -0.731191 -0.777599 -0.324093 -0.921292
house 0.574082 -0.273775 -0.413817 -0.259267 -1.311371 0.832227 -0.068472 -0.396809 -0.363828 -0.032946 0.960397 -0.488524 0.268094 -0.282584 -0.635093 0.525444 -0.504983 -0.430695 -0.007209 -0.520220 -1.263828 -1.223022 -0.328763 -0.117865 0.976308 -1.071241 0.440087 -0.099123 0.190610 0.447562 0.186660 -0.608213 -1.145748 -1.125116 0.621483 0.018386 0.485259 -0.908029 -0.647778 -0.967925 1.483810 0.517561 0.868392 -0.756575 -0.512060 -0.871137 0.230595 -1.668987 -0.087149 -0.214152
open -0.809487 -0.504227 0.945894 -0.176059 -0.314102 -0.123703 -0.608536 0.532550 -0.960644 -0.458661 -0.232711 -0.241861 -0.548344 0.259336 0.974738 -0.558531 -0.682196 -0.061523 -0.478649 -0.642587 0.223900 0.289204 1.129733 -0.222645 -0.312472 -1.196671 0.412500 -1.017503 -0.041380 0.047828 1.020069 -0.807357 -0.203781 -1.912709 -0.511780 -0.183461 0.016929 -0.093406 -0.285920 -0.958286 1.174471 -0.620611 0.453995 0.706863 0.220124 -0.485974 -0.480703 -0.187468 -0.555422 -1.569013
slow 0.441925 0.536750 0.322784 -0.505447 0.452919 -0.982928 0.807159 0.947856 0.275792 1.610349 -0.556138 0.753966 -0.424570 -0.098548 -0.917244 0.618690 -0.411008 -0.731981 0.273669 -1.535435 -0.353834 0.085421 0.553503 -0.079557 1.364191 -0.308794 0.855198 0.297213 -0.161492 -0.222259 0.272819 0.056757 0.362035 -0.392090 0.035337 -1.456839 1.062706 0.077456 0.675318 -0.799862 1.158247 -0.434607 0.352710 -1.713428 0.135935 -1.303504 -0.862392 0.289571 -0.233935 -0.189879
shawty 0.085761 -0.299719 0.329182 -0.387402 -0.569332 -1.159421 0.580684 0.530651 0.539969 0.733164 -0.474859 -0.201034 0.026723 -0.497970 0.226935 -0.852410 -0.632763 -0.281093 0.128669 -0.637450 -0.219269 0.885426 0.594264 -0.158376 0.431044 0.063099 -0.094189 -0.660489 -0.863706 -0.215914 1.332437 1.555806 0.094459 -1.225350 -0.493884 -1.235037 0.293099 -0.650205 0.181021 -0.358980 0.633179 -0.126893 -0.335909 -0.753898 -0.871279 0.133063 -0.154866 -0.134437 0.415448 -0.532750
chick -0.279587 -1.610230 0.062845 0.677496 -1.083802 -0.952324 -0.600330 1.254449 0.545404 -2.002254 -1.799623 -0.174395 -0.643908 -0.037888 -1.438882 -0.225595 0.310937 0.320604 -0.548869 -0.490391 0.878746 0.227093 -0.242131 1.361155 -0.042235 0.634531 -0.704293 -0.553286 -0.545600 -0.160380 0.921398 -0.383524 0.269854 0.138413 0.365677 -0.305777 0.617713 -0.158631 -0.701096 -0.390185 0.623592 -0.183041 -0.248599 -0.264014 -0.042053 0.989703 1.276673 0.442520 -1.013912 -0.128458
floor -0.055056 -1.447479 -0.138901 -0.231400 -0.740004 -0.848196 0.848428 0.338832 -1.183843 -0.395289 -1.801637 -1.457346 -0.143275 -0.002639 -0.108097 0.331397 -0.256535 0.813874 0.828555 -1.093067 0.009800 0.578849 0.825500 -0.571258 -0.420808 -0.106794 -0.528539 -0.322770 0.327794 -0.820816 -0.102799 -0.605713 -0.408738 -0.131317 0.252705 -0.927617 0.053311 -0.783742 0.004594 -1.297091 0.675764 -0.866921 -0.208331 -0.027463 0.431090 -1.390018 0.547146 0.159320 1.168895 -0.893706
hands 0.441518 -0.550868 0.265340 1.011713 -0.169039 -0.007740 -0.868107 0.509128 -0.713539 -0.975881 0.265647 -0.372166 -0.503237 -0.452441 1.982048 0.617266 0.011237 0.052007 0.406437 -0.003611 -0.021902 0.875067 0.347823 -0.508903 -1.457606 0.408692 -0.761395 0.610896 -0.895225 -1.366801 -0.263901 1.251572 0.021748 -0.931422 0.120692 -1.412839 0.245484 -0.872331 0.316795 -0.486762 0.062182 -1.085338 -0.090038 -0.632323 -0.963482 -0.127586 -0.168931 -0.587997 -0.229267 0.156318
throw -0.755133 -0.400094 0.004095 0.712628 -0.279760 -0.143249 -1.052689 -0.282339 -0.355189 0.154972 -0.004570 -0.896434 -0.122843 -0.644260 1.921711 0.306711 0.089726 -0.440778 0.227340 -0.519416 -1.159941 -0.048143 0.674563 -0.044753 0.016892 -0.323157 -0.204691 -0.756168 0.412093 -1.383279 0.412153 0.739750 -1.006313 -0.437621 0.390896 -0.958989 -0.833815 -0.241290 0.178940 -0.497294 1.702218 -1.169597 0.663058 -1.026504 0.171088 -0.118451 -0.280794 -1.575321 0.141766 0.707978
heart -0.172989 -0.376845 0.301370 0.084227 0.498261 -0.333121 -0.805964 1.024850 -0.929432 0.316391 -0.761912 0.664958 -0.934148 -0.468849 0.413647 1.306290 0.271835 -1.218479 0.290575 -0.159399 0.707043 -0.249218 -0.129749 0.964085 0.606078 0.541033 0.054212 -0.020388 -0.265632 -0.028292 1.392183 0.244724 -0.333716 -0.041349 2.079825 1.504523 -1.138331 0.169694 0.286355 -0.184479 0.636138 0.179855 0.060364 -0.984911 0.105609 -0.216997 -0.933991 0.947481 -0.253250 -0.893200
best 0.712438 0.562874 -0.947539 -0.276687 0.450176 -0.295150 0.438841 0.262632 0.552369 -0.609451 -0.361015 -0.358893 -0.346752 0.093549 -0.720594 0.405244 0.388191 -0.293875 0.160503 0.834135 0.399076 0.492018 1.167190 -0.003657 -0.314390 0.556836 -0.363889 -0.324878 -0.703672 -0.793879 0.290087 0.991607 -0.959170 -0.506683 0.538882 -0.867330 1.070696 -0.491577 -0.944702 -1.902627 1.022096 0.322124 -0.792374 -0.290651 1.094699 -0.315441 -1.028711 -0.162837 -0.551257 0.399449
lot 0.327399 -0.096762 -0.567981 0.803425 -0.999355 0.150372 0.398504 0.375629 -0.067229 -0.736764 0.103077 -0.863129 -0.388624 1.087951 0.069572 -0.156725 0.155018 -0.242628 -0.458805 -0.303226 -0.747965 0.124038 0.765856 0.629003 0.381226 1.484901 1.295408 0.055149 -0.232389 -0.095301 0.331109 -0.034218 0.005711 -0.935738 0.194093 1.208082 -0.303557 -0.845481 0.569074 -0.782510 0.307177 -1.182107 -0.688902 -0.715899 0.109458 0.106291 -0.635223 0.591455 0.096381 -0.355118
mean -0.255524 -0.411578 -0.445748 0.269033 0.114478 0.723557 0.404108 -0.014276 0.424652 -0.633668 -0.554998 0.676232 0.985588 0.441671 -0.476315 -0.399754 0.269087 -1.269696 -0.236282 -0.470285 0.024813 0.320933 0.192289 -0.464766 -1.163570 0.457410 0.706442 0.411581 -0.706540 -0.350669 1.473203 0.504742 0.035599 0.253701 0.317690 -0.075020 -0.369337 0.135532 -0.235381 -0.805714 0.593136 0.020532 -0.571459 -0.451885 0.119882 -0.868365 0.666185 -0.042018 0.193727 -0.123797
ah -0.090557 -0.259989 -1.035892 -0.221708 0.767541 0.966896 0.096674 0.135982 -1.253719 -0.083530 -1.008962 0.196104 0.754858 -0.303906 0.239509 0.749913 -1.073326 0.561603 0.778157 0.145115 0.409866 -0.740608 0.591528 -1.000194 -1.425844 0.611788 -0.674987 0.455443 0.291904 0.006340 0.056953 0.593060 0.291292 0.522902 1.703747 -1.490953 -1.036987 1.153162 -0.318541 -0.576138 1.809914 -0.089012 -1.199754 -0.712073 -0.432691 0.235240 -1.104035 -0.344387 0.846000 -0.365929
came 0.275720 -0.346092 0.642552 0.715785 -0.582310 0.085024 0.727188 -0.008097 -0.345869 -0.434231 0.346517 -0.360383 0.206169 -0.171258 0.489616 0.038209 0.487718 0.234349 -0.107351 -0.489954 -0.789667 0.362012 -0.179551 0.732330 -0.125856 0.483938 -0.269130 0.250915 0.213010 0.338940 0.269892 0.075918 -0.462905 -0.879149 1.001567 0.402750 0.975976 0.138950 0.275600 -0.819522 1.163022 -0.218585 -0.557108 -0.356216 -0.884717 -0.667441 0.343648 0.144001 0.149422 -0.633598
try -0.240453 0.151243 -0.070190 0.102205 0.519224 0.394607 0.019927 -0.488999 -0.390709 -0.182371 -0.389146 0.099553 -0.604920 -0.347419 -0.061668 0.603246 1.121177 -0.235852 -0.762395 -0.387722 -0.308373 -0.670781 0.120455 0.711499 -1.203883 0.973107 0.827180 -0.853974 -0.054300 0.625814 -0.114950 0.892524 0.549465 -0.297520 0.342060 0.262961 0.338689 -0.191853 0.544059 -1.300928 1.176200 -0.294748 0.562225 -1.201073 0.152416 0.085661 0.062840 -0.352022 -0.204841 -0.760834
blow 0.220809 -1.049347 0.368005 -0.374952 0.294212 0.018452 -0.064482 1.291427 0.231031 0.124728 0.714419 0.102689 0.523190 -0.244603 1.051954 -0.284719 -0.219215 -1.133853 0.415539 0.546962 -0.554799 -0.704765 0.209068 -0.070176 -0.178496 0.100392 -0.237165 -0.055093 -0.364133 -0.993177 -0.237487 -0.560393 -1.658854 -0.276773 0.300147 -1.289947 0.575056 -0.544526 -0.099872 -1.082912 -0.144451 -0.305965 0.688172 -1.028112 0.288853 -1.061290 -0.325337 0.059811 0.586881 -0.509859
mama -1.080194 -1.467082 -0.048702 -0.362134 0.150473 0.926107 -0.279328 0.397720 0.080830 -0.186761 1.034481 0.288631 0.742873 0.670323 -0.194506 0.007965 0.052175 0.382297 -0.204758 -0.171219 -1.703351 0.038524 1.262863 -0.235720 0.704103 -0.037282 0.511757 0.087612 -0.312266 -0.181489 0.070518 0.587335 0.395020 -1.178418 0.410156 0.465836 0.325192 -0.057295 -1.273386 0.963897 0.800924 0.199062 -0.453666 -0.987146 -0.634858 -0.554363 0.524775 1.408441 -1.446775 -0.548878
straight -0.199682 -0.330148 0.211806 0.886553 -0.780485 -0.314457 0.339266 0.148567 -0.418698 -0.069370 0.122642 0.459218 0.011497 0.163015 -0.080255 -0.145674 -0.698164 -0.303554 0.097570 0.240048 -0.116089 -0.079181 0.638068 0.407229 0.626424 -0.412935 0.716176 0.137941 -0.383641 0.339305 -0.075651 1.076337 -0.694734 -0.347060 0.075881 -0.370136 -0.478782 -1.486826 -0.192904 -0.417943 -0.158828 0.005247 -0.284316 -1.628574 -1.518419 0.295047 -0.353938 0.406288 1.018356 -0.686203
away 0.768267 -0.896173 -0.815148 0.259107 -0.218408 -0.175344 0.257150 0.269627 0.225290 0.163741 -0.810421 -0.528622 0.949614 0.319708 1.664483 -0.614966 0.301955 -0.603751 0.504211 1.046824 -0.279678 -0.333985 0.239837 0.461213 0.611721 0.978203 -0.008225 -0.445471 0.032328 0.722571 0.367078 0.208067 -0.905946 -0.777834 0.213916 0.252186 -1.166866 0.072310 -0.242620 0.043523 1.356403 0.261325 -0.151753 -1.828243 0.185671 -0.291098 -0.245684 -0.938572 -0.382511 -1.114806
believe 0.392873 -0.174478 -0.083061 -0.017529 -0.682754 -0.841660 -0.353286 1.254660 0.554143 -0.015666 0.204736 -0.277792 -0.916154 -0.275203 -0.076000 0.156726 1.095457 0.286952 -0.154606 0.803727 -0.381770 0.328644 0.750364 1.133185 -0.239573 0.605788 -0.821779 0.465924 -1.211880 -0.562493 1.257160 1.039529 -1.119395 -0.416032 -0.090301 -0.294735 0.825603 0.429367 -0.410449 -1.768431 0.257687 1.197824 0.349456 -0.305835 0.953747 -0.128199 0.463196 -0.134487 -0.375928 -0.289795
woo 0.018866 -0.865013 0.481134 -0.207944 0.017406 0.418436 -0.829921 -0.602103 -0.535704 -0.273411 -0.829220 0.024540 -0.435327 -0.786910 0.443238 0.405039 -0.682833 1.394514 0.168559 -0.299176 0.134879 0.773944 -0.170417 -0.804933 -1.110943 0.194334 -0.481179 0.669073 0.672433 -0.533393 1.127905 1.336376 -0.166084 -0.379121 1.055803 -0.983807 0.446411 0.444404 -0.717819 -0.068290 0.986480 0.139965 -0.378157 -0.796559 -0.416633 -0.765447 0.260508 -0.181485 0.576187 -1.108648
people 0.474795 0.989027 -0.440442 0.952617 -0.572260 0.529050 0.213759 0.385644 -0.250541 0.689058 -0.260834 1.052223 0.267753 0.646624 -0.198614 1.299521 0.276230 0.413089 -0.352477 -0.156005 -1.713225 -0.375017 0.398882 0.129394 0.619179 0.256356 -0.506567 0.524755 -0.059548 0.139928 0.683742 1.125154 -1.084066 -0.665933 -0.101085 -0.347128 -0.099407 -0.445741 0.485421 -0.497494 0.425813 -0.067074 -0.433971 -0.766351 -0.054008 -0.005583 -0.232645 0.219083 -0.467705 -1.235615
seen -0.008233 0.002689 -0.201408 0.538307 0.171674 0.352332 0.382421 -0.245120 0.931803 -0.788927 -0.033685 -0.028392 -0.189058 0.593161 -0.002391 -0.228204 0.441482 -0.676510 -0.727472 0.005698 -1.333581 -0.405523 0.108813 0.202538 -0.017979 -0.327893 -0.379810 0.061272 0.328499 -0.552861 1.572680 -0.644031 0.114483 -0.226201 0.859823 -0.601364 0.158856 -0.040095 0.177444 -1.403057 0.340391 0.246903 -0.376143 0.202422 0.139728 -0.717726 0.315501 0.724232 0.353216 -0.722043
bust -0.641376 -0.722810 0.470568 0.095000 -0.995480 -0.043580 0.240474 0.862635 -1.068981 -0.224615 0.624522 -0.141227 -0.053133 0.787205 1.555245 -0.117848 -0.608022 -0.272301 -0.359367 -1.078858 0.899531 -0.217142 2.638302 0.128696 -0.275931 -0.337577 -0.551065 -0.818289 0.265085 0.415470 0.499271 -0.370630 -0.573937 -1.197101 -0.373597 -0.181680 0.449215 -0.362665 -0.598352 -0.272696 0.415198 -0.275908 0.169698 0.712153 -0.317876 -1.051810 -1.136250 0.440025 -0.391144 -1.059260
ask 0.160617 -1.023632 0.187209 0.527585 0.190709 0.610525 -0.127727 0.887134 -0.011386 -0.140739 0.010695 -0.496627 0.293956 0.835627 0.257663 0.276598 0.578695 -0.059886 -0.372691 0.319163 -0.632275 0.289781 0.028753 0.946122 -0.799784 -0.320963 -0.458717 0.133584 0.495243 0.035580 0.938288 0.564572 -0.508225 0.622034 0.104933 -1.237896 0.415416 -0.349659 -0.934782 0.050927 0.390107 0.269485 0.134739 -0.289831 -0.146300 -2.255719 -0.140921 0.025063 0.573946 -0.269137
light 1.261581 -0.332825 0.873707 -0.608940 -0.297318 0.180756 -0.278132 0.362907 -0.685435 -0.193063 0.788270 0.155350 0.172459 0.543892 0.296942 0.530570 0.171040 0.158260 -0.475689 0.188046 -0.422818 -0.656958 0.633299 -0.800050 -1.098176 -0.067813 0.481328 -0.730561 -1.664467 -0.344809 0.865623 -0.495412 -0.167804 1.050053 0.462842 -0.407407 -1.295662 -0.306314 0.102490 -0.559452 -0.203500 -0.263807 -0.610138 -1.294294 -0.048487 -1.017603 -0.275426 -0.317391 0.367836 -0.921163
going 0.668760 -0.027695 0.472794 -0.472373 0.163115 0.366654 0.621717 0.642237 0.401198 -0.008248 0.298097 -0.355905 -0.342537 0.347904 -0.396211 0.601413 -0.233210 -0.820822 -0.094196 0.458632 -0.262451 0.091465 0.544430 0.186021 0.416610 1.332379 -0.303014 -0.521768 -0.520703 -0.017726 1.151179 0.033927 -1.373133 -0.136148 0.989705 0.443037 -0.972516 -0.896092 -0.532782 0.070613 0.019361 0.417123 -1.386192 -0.802261 -1.152849 -0.380543 -0.393951 1.098327 -0.073429 -0.891704
smoke -1.084288 -0.967012 0.832740 -0.591503 -0.532153 0.240799 -0.269385 0.001715 0.103675 -0.599564 0.728780 -0.108078 0.127270 0.649868 0.280199 -1.279482 0.457313 0.033061 -0.015055 0.440229 0.928685 0.217488 -0.295244 -0.021929 -0.321227 0.636374 0.221494 0.210039 -1.699749 -1.068359 0.600084 0.083732 0.327385 0.809323 0.252099 0.492086 -0.084815 -1.054982 -0.694632 -0.101403 0.969699 -0.842112 1.230988 -1.301150 0.481653 -0.433614 -1.295131 -0.395308 0.033394 -0.229431
find -0.214068 -0.322395 0.318355 -0.100811 -0.124892 -0.210825 0.261502 0.321637 -0.508215 0.345217 -0.837630 -0.346610 -0.345736 -0.356304 -0.653800 0.261020 0.349719 -0.014657 -1.103493 0.327305 -0.798554 1.139790 -0.573894 0.868135 -1.113439 -0.040628 -0.183100 0.460890 -0.432564 -0.527516 0.511410 -0.066415 -0.389365 -0.791864 0.599430 0.386093 -0.173779 0.212177 0.266436 -0.891927 0.516434 0.962824 0.182720 -1.639566 -0.518567 -0.224648 -0.312556 -0.463649 -0.192485 -0.563367
fucking -0.203756 -0.534567 -0.198782 0.461510 -0.065511 0.744312 0.235144 0.747863 -0.550702 -0.165045 0.806688 0.414040 0.226073 0.647785 0.472925 0.119813 0.806585 -0.599673 -0.947631 -0.249845 0.337134 0.362160 -0.557857 0.017059 -0.043488 0.443184 0.267088 0.440803 0.031568 -0.475262 0.974513 0.114502 -0.698174 0.952611 0.290788 -0.140424 0.950885 -1.231394 0.065557 -0.678293 -0.153866 -1.065282 -0.802646 -0.872472 -0.208456 -0.229897 0.042159 -0.503218 -0.306175 -0.625676
left 0.569404 -0.769552 -0.070969 0.226622 0.395360 0.469952 0.098065 0.007853 -0.721954 0.538548 -0.679662 -0.399288 -0.681483 0.091673 0.187402 0.601242 -0.010296 -0.947926 -0.199804 -0.030553 0.649965 -0.527959 -0.165607 -0.120686 0.341497 0.766503 -0.012605 -0.152912 -1.968537 0.027535 1.234397 0.551410 -0.176375 -0.291591 1.005741 0.887640 0.101206 -0.147547 -0.044521 -0.176960 0.445178 -0.276392 -0.822927 -0.384934 0.137140 0.370894 0.081520 0.856311 0.055905 -0.679673
round 0.675295 0.150783 -0.626476 0.113757 -0.344269 0.128348 0.827339 -0.263006 -0.335060 -0.886347 -0.644814 0.325702 0.538407 0.410892 -0.389048 1.071710 -1.159711 -0.529108 -0.082039 -0.348155 -0.527872 0.009639 0.342627 -0.906929 -0.052319 -0.371929 0.801811 -0.837161 -1.371882 -0.621644 -0.459005 0.104799 -0.367696 -0.793813 0.747474 -0.184172 1.749352 -1.239183 0.708437 0.116689 -0.190040 0.011331 -1.667196 -0.362023 -0.214967 0.143132 -1.641422 -0.987804 -0.721416 -0.640973
getting -0.677710 -0.773103 0.055117 0.655910 -0.205355 0.011403 0.569576 0.274507 0.632065 -0.803092 0.065708 -0.151532 0.301769 0.932193 -0.093619 0.032771 1.141925 0.191112 -0.210098 -0.257675 -0.616327 0.436815 0.277497 0.058650 -0.076977 0.617879 1.384037 -0.166300 -0.649448 -0.382692 -0.449433 -0.255956 -0.150100 -0.113387 -0.400617 -0.130346 0.464829 -0.898109 0.387489 -0.921319 0.499366 -0.068087 -0.132239 -0.047336 0.089729 -0.945184 -0.053635 -0.495577 0.627379 -0.607429
check -0.377370 -0.093452 1.428264 -0.229456 -0.023285 1.028167 0.414304 0.209213 0.141102 0.165844 -0.257010 0.235041 -0.652209 1.598655 -0.243889 0.049834 -0.044819 -0.068482 0.881808 -0.715863 -1.206223 -0.164131 0.700729 1.515450 -0.637623 -0.101588 -0.284809 0.222614 -0.286289 0.279896 0.524740 0.719171 0.300113 -0.429681 -0.396171 -0.082533 0.313357 0.632684 -0.224001 -1.633402 -0.626277 -0.668146 0.392899 -0.378552 -0.338838 0.826941 -0.522965 0.879932 0.226131 -0.336956
block -0.118252 -0.693787 0.035313 0.070868 -0.070444 -0.623989 -0.085975 -0.860211 -0.304829 -0.656453 1.039346 0.216043 -0.359243 -0.396072 -0.241001 -0.410454 -0.099889 -0.472437 0.035749 0.005795 0.592056 -0.792724 0.929273 1.037985 -0.230053 0.610850 0.586233 -1.012074 -0.221820 0.566501 0.764414 0.049604 -0.524750 0.113398 0.071908 0.023276 0.531996 -0.586245 -0.835410 -0.793811 0.981397 -1.007064 -0.775402 -0.601913 1.021825 -0.631214 -0.411871 -0.287439 -0.183303 0.011043
car -0.107376 -0.213873 -0.240895 0.221993 -1.326822 0.676283 0.049663 -1.174708 0.110272 -0.086999 0.159708 -0.606176 -0.349801 0.237440 0.097378 -0.136600 -1.147596 -0.822258 -0.185198 -0.719922 -0.357154 -0.373946 0.219758 -0.254131 0.734837 0.456667 1.178608 0.295086 0.339643 0.108965 0.230601 -0.590447 0.527357 -0.423625 1.405573 -0.030168 -0.819311 -0.674495 0.296629 -1.483179 0.919092 -0.235352 0.233869 -0.448534 0.624530 0.494467 -0.324849 -0.239747 0.523708 -0.544996
dat -0.576200 -0.819784 -0.953481 -0.610943 -0.696092 0.579280 -0.626504 0.646105 -1.892900 1.277957 -1.160892 -0.328364 0.769581 -0.159625 -0.821015 0.666574 0.314289 0.117954 -0.019444 -0.755559 -1.077602 -0.249837 0.723043 1.278179 0.007824 0.806871 -0.529986 -1.428516 -0.559980 -0.816051 0.488737 0.201941 0.501990 -0.527490 -0.377162 -0.294691 -0.198377 -0.861155 0.723437 0.021286 0.455558 0.209736 0.374030 0.108602 0.673414 0.407748 -0.265191 0.724664 -0.204748 -0.856854
em -0.393511 -0.164991 -0.425302 1.011336 -0.191759 0.598296 -0.050061 0.716115 -1.133674 0.266241 0.227183 0.038007 0.216385 0.642054 0.875757 0.228505 1.182992 0.346782 -0.161797 0.140206 -0.283496 -0.598661 0.569116 0.404115 -0.145195 -0.769179 0.708617 -0.566321 0.765225 -0.435072 0.454069 -0.588393 0.320961 0.163824 0.570543 -0.861105 1.326315 -0.534363 -0.691790 -1.730172 0.452600 0.291992 -0.043834 -0.413484 -0.018308 0.146599 0.435195 0.081395 -0.522768 -0.372582
eyes -0.030330 0.044879 0.156908 -0.902992 0.935306 -0.204081 -0.272486 -0.238811 -0.136949 -0.360160 -0.983334 0.342077 -0.531296 0.388805 0.123906 0.106284 -0.028229 -0.603481 -1.131075 0.166891 -0.575285 0.367332 -0.007537 0.377471 -0.273564 -0.921583 0.240744 -0.207372 -0.268482 -0.806373 0.766818 -0.153758 0.244270 -0.948008 -0.602720 -0.255226 -0.600695 -0.881906 0.360056 -0.256850 0.921538 -0.217264 -0.263299 -0.372275 0.571908 -1.033785 0.308333 -0.315910 -0.003068 -1.768956
street 0.559225 0.176734 1.035436 -1.089049 0.215158 0.562044 0.152443 0.260963 0.218705 -0.554727 0.207282 0.251187 -0.502362 0.512018 -1.046582 0.119664 -0.784765 -0.103884 -0.175628 -0.213611 0.605440 -0.310666 0.343146 0.448510 -0.629299 0.621459 0.712626 -1.330095 -0.158561 1.090564 0.695732 -0.720338 -1.426104 -0.592721 0.362020 -0.569628 -0.542210 0.429645 -0.265781 -0.285951 -0.327308 -0.420931 -0.537014 -0.851962 0.480314 -0.896305 -0.475514 -0.687305 0.870403 -0.689135
mad 0.114172 -0.468292 -0.776869 -0.482165 0.127212 0.190028 0.086081 0.073037 1.035269 -0.543566 -0.118171 -0.443537 -0.609371 0.065886 0.690290 0.244274 1.122800 -1.109497 -0.624072 -0.661970 -0.046590 -0.225451 0.756129 0.781215 0.204919 0.046977 0.522577 0.279339 0.746516 0.295529 0.643095 -0.271244 -0.299202 0.112767 1.131037 -0.461437 0.085842 -0.575565 -0.557519 -1.086922 0.004273 0.270487 0.473755 -0.747295 -0.779528 0.498368 0.276633 -0.176133 -0.299312 -0.264644
mi -0.235614 0.821278 -1.062946 -0.641139 -0.346029 0.309989 0.319267 0.664493 -0.569280 -0.201052 -0.697211 0.860501 1.336019 -0.096728 0.025548 0.856535 0.162181 1.563597 0.359793 0.894167 -0.513812 -1.555371 0.602813 -0.059422 -0.238093 -0.628375 -1.054711 0.558966 0.196466 -0.465484 1.139362 -0.298884 0.738000 -0.325309 1.270538 -0.633160 0.012702 -0.548729 0.541092 -0.985071 0.318923 0.853037 -0.545989 0.107177 0.991002 1.355653 -0.691277 0.131685 0.184094 0.067874
heard 0.048007 -0.718553 -0.153318 1.109075 -0.330609 0.673816 0.350056 0.388649 0.580353 -0.070093 0.453795 0.101347 -0.545268 -0.168168 -0.554642 -0.113826 0.296312 -0.479257 -0.138813 -0.080299 -0.086259 0.280937 -0.006434 -0.321912 0.336306 0.568623 -0.354369 -0.379457 0.494684 -0.195665 1.005391 0.766734 -0.952473 -0.980096 0.521764 -0.461886 0.832531 -0.175743 -0.239418 0.048488 0.332224 -0.790069 -0.194085 -0.601574 -1.436041 0.573280 -0.248286 -0.838799 0.240437 -1.016582
motherfucker -0.812182 -0.964338 -0.164268 0.169903 -0.190282 0.267703 -0.298803 0.351112 -0.275656 0.136386 -0.797806 -0.046009 0.281470 1.031830 0.961040 -0.011984 0.071244 -0.103773 -0.758640 -0.396459 -0.866842 -0.899503 0.594054 0.352037 -0.216846 0.405464 0.459010 0.103846 0.092674 0.327204 0.038662 0.938758 0.916180 -0.468234 1.171185 -0.123213 -0.695525 -0.408809 -0.028458 0.754128 1.627145 -0.044538 0.153219 0.496676 -0.481539 -0.530799 0.157536 -1.136213 -0.657809 -0.827892
hate -0.070826 -0.318417 0.297856 1.177914 0.265995 -0.022791 0.049949 0.416974 0.055353 0.025500 -0.453038 0.204707 0.269310 0.119515 -0.023763 0.460910 1.107628 -0.295420 -0.747147 0.101062 0.055326 0.341172 0.004043 1.491866 0.287493 -0.003689 0.148487 -0.424880 -0.201916 -0.594450 0.207474 -0.162092 -0.204473 -0.177788 0.735996 -0.040250 0.301780 -0.732835 0.028994 -1.066517 0.049158 -0.488783 0.884221 -1.405979 -0.893556 -0.155300 0.012815 0.574957 -0.050499 -0.034350
things 0.623239 -0.247847 -0.001297 -0.325567 0.225094 0.484585 0.296946 0.743146 0.642687 -0.855803 -0.146413 -0.506281 0.025296 1.267977 -0.918868 -0.735608 0.622059 -0.713402 -0.496933 0.004957 -0.926066 0.267992 -0.205335 -0.077381 0.024514 0.084742 0.413652 -0.294781 -0.403110 0.415292 0.753347 -0.131525 0.113643 -0.560723 0.586955 1.072783 0.047489 -0.420168 -0.817142 -0.792141 0.164542 -0.501959 -0.086976 -1.593485 -0.554671 -0.210224 -0.401382 1.340252 -0.364997 -0.234529
fo -0.577771 -1.714566 1.028344 -0.362534 0.368663 0.916560 1.329575 0.314876 0.237225 -0.217230 0.214260 -0.149809 0.609428 -0.579513 0.914388 0.080070 0.261332 0.245771 0.391368 0.397518 -0.796931 -1.502691 -1.520965 -1.225297 0.077324 -0.013656 -0.166242 -0.156955 0.313490 0.127283 0.830725 -1.622220 0.332880 -0.243433 -1.410880 -0.765879 0.822165 0.442188 -0.188082 -0.537445 -0.378390 -0.523729 0.579460 -0.266515 0.919433 -0.847246 0.307113 -0.030546 -0.168258 -0.541927
star 0.569636 -0.357528 1.160830 -0.184482 -1.389782 0.542699 0.932345 -1.635165 -0.031276 -0.832526 0.746167 0.390349 1.322147 0.478306 1.184037 -0.494268 -0.030276 0.561565 -0.674023 -0.258045 0.048499 0.900396 0.274235 -0.530164 0.618543 0.404095 0.187910 0.553576 0.305255 0.820879 0.122246 0.503963 0.892927 0.317726 1.279379 -0.353960 0.278029 0.752250 0.753971 -0.552170 -0.006786 0.461919 -1.678041 -1.055806 0.332522 -0.351505 0.371203 0.672117 -0.142938 -0.709587
fall 0.286710 0.289354 -0.609789 -0.506696 1.026201 0.402598 1.118507 0.381732 -0.850616 0.566871 -0.143350 -0.584917 0.388131 -0.453166 0.219211 -0.049537 -0.036729 0.695448 -0.461076 0.268816 -0.292243 0.077643 0.297896 0.940509 -0.515345 -0.726156 -0.348136 0.474006 -0.873298 0.506732 0.414504 0.826357 -0.039063 0.089474 0.836826 -1.320879 -1.382114 -0.674154 -0.584487 -1.125823 1.320740 0.353486 0.248859 -0.969259 -0.284297 0.358048 -0.360130 -0.058135 0.895845 -0.189951
gimme 0.244981 -0.354038 -0.960082 -0.263268 -0.161849 -0.129661 -0.587573 0.392044 -1.913095 -0.269424 -0.415775 -0.377677 0.869444 0.422092 0.047771 -0.116525 -0.047648 0.699481 0.891165 0.633137 -0.826769 -0.019333 1.076755 -0.880012 0.382781 -0.151231 0.918567 -0.359543 -1.291185 -0.004683 1.388141 -0.926713 0.747231 0.639715 0.212568 -1.719669 -0.279563 0.087194 -0.233508 -0.526210 -0.695830 -1.317901 -0.217907 -0.103430 1.178923 1.522298 0.409628 0.449487 -0.055290 -1.191538
y 1.201354 -0.033759 0.528462 0.952322 -1.233784 1.010090 0.210356 0.161019 0.876649 -0.997591 -0.412000 1.020149 0.884699 0.109440 0.753685 -0.230410 0.541548 1.080131 0.903587 -0.221031 0.879732 -0.490048 0.786196 -0.038405 1.512208 -0.660567 -1.780310 0.777953 -0.221093 0.039208 -0.313266 0.317666 0.305712 0.317274 0.141999 -1.407790 0.341364 -0.409570 -0.880688 1.016535 0.704577 0.114729 -0.159679 -0.137978 0.098821 0.701381 -1.224132 0.671092 0.527463 0.092964
ay 0.447526 -0.287972 -0.214744 0.268850 0.133456 0.174120 -1.272338 -0.291676 0.356464 -0.179682 -1.364855 0.450744 0.560574 0.396584 -0.535920 0.228072 -0.417726 1.141877 0.524651 -0.751189 0.724870 -0.405283 -0.445847 -0.218349 -0.839333 -0.949364 -0.577193 -1.101068 -1.069667 -0.442658 0.997797 -0.489912 0.325677 -0.576474 1.005732 -1.086489 1.233862 1.207556 -0.605659 1.225935 0.067220 -0.617735 0.324996 -1.072397 -0.644585 -1.552920 0.023786 0.412424 1.216448 0.024031
ball 0.894525 -0.727256 0.540748 -0.335648 -0.032521 0.327092 1.458221 0.467465 -0.267043 0.663204 0.045665 0.594545 0.789512 -1.555247 -0.911075 -0.224295 0.172414 0.980005 -0.409073 0.134098 -0.377823 -0.322452 0.122838 0.410594 0.394266 -0.909676 0.668251 0.632962 -0.766442 0.959471 0.816368 0.035250 0.386356 -0.924326 0.703090 -0.654588 -0.543114 -1.332375 0.221599 -0.425656 0.263874 -0.665137 0.083909 -1.231889 0.551670 0.003828 -0.134656 1.136300 1.229613 0.234238
city 0.680924 -0.925433 0.215699 0.267097 -0.732324 -0.162330 0.126328 -0.194027 1.269238 0.157921 -0.145312 0.349895 0.182817 0.319096 0.185993 0.733953 -1.102588 -0.210487 0.049575 0.324919 0.152824 -0.013433 0.119683 0.702726 -1.634817 0.301630 0.759944 0.274299 -1.358580 0.411447 0.712579 -0.283605 0.579602 -0.274699 2.111737 -0.041185 0.713523 0.047266 0.176249 0.338134 -0.036736 0.861554 -0.572967 -0.262309 0.540282 0.108318 0.629033 0.232592 -0.045979 0.574237
cold -0.029964 -0.379782 -0.467828 -0.773889 -0.133732 0.417003 -0.333124 -0.439622 -0.063936 -0.614053 -0.083936 -0.847465 -0.141442 -0.476601 1.117197 0.635349 0.441356 0.270160 0.555759 0.101718 0.981135 0.660049 -0.802193 0.838275 0.168517 0.148941 -0.000685 0.088983 -0.348969 0.584571 1.201971 0.042722 0.451825 0.012842 0.555189 1.134216 0.834799 -1.264991 -0.966657 -0.819306 -0.081776 -0.578270 -0.844554 -1.427142 0.369990 0.315360 -0.124429 0.616622 0.662183 -0.903617
m -0.806806 -0.711701 0.927488 0.011143 -0.081798 0.966917 -0.174809 0.321598 0.840836 -0.857184 0.784252 0.406880 -0.340420 -0.382332 0.071801 0.105413 -0.091305 -0.216146 0.188812 0.763003 0.347492 -0.573730 0.823299 0.438141 0.469507 1.620721 -0.076657 -0.185834 -0.670776 0.652703 0.601192 1.113095 -0.389051 -0.519804 -0.452838 -1.394887 0.724965 0.193335 -0.562139 0.074852 0.089405 -1.391461 0.391210 -0.457351 -0.426278 0.432539 0.159726 -0.187604 -0.273482 -0.250348
walk 0.608544 -0.535005 -0.933138 -0.871543 -1.048913 0.255349 0.145500 -0.062645 0.311487 0.453740 -0.486356 0.336756 0.205363 0.692252 0.788655 -1.011291 0.498312 0.049265 0.157406 -0.698333 0.327988 0.296773 0.231027 0.636683 -0.433777 -0.093903 0.030902 -0.638965 -0.460822 1.027810 0.578413 -0.082791 -0.810592 -1.135013 1.035927 -0.387907 -0.670313 -0.223000 0.034412 -0.597497 0.167311 -0.071805 -0.595245 -0.674997 -0.734230 0.553767 0.033403 -0.218881 -0.084571 -0.281581
di -0.032518 -0.155830 -0.681207 -0.558444 -0.089063 0.693705 0.787748 0.244038 -1.329087 0.375191 -0.204894 -0.506964 0.204114 -0.106628 -0.476943 0.820917 0.355230 0.217498 0.447137 0.048165 -0.531604 -1.167450 0.285232 0.090809 0.616411 0.235816 0.254636 0.482030 0.602843 -0.957882 1.336925 -0.873418 0.944903 0.159093 0.715129 -0.440803 -0.535876 0.896975 0.028887 -1.101908 0.992836 0.606762 0.293018 0.222534 1.211355 1.199183 -0.516347 -0.672898 0.655877 0.344459
gun -0.005933 -1.040149 -0.800627 0.765828 -1.175071 -0.276768 0.340987 0.195229 -0.635914 0.504860 0.157258 0.178896 -0.097964 0.616026 0.546408 -0.694077 -0.019526 -0.838924 0.478804 -0.175649 0.244975 -1.843647 0.677203 0.388714 -0.027507 -0.087287 -0.491911 -0.751680 -0.616487 -0.500209 -0.127662 0.354213 -0.215758 -0.157402 0.184780 1.131099 -0.240797 -0.258059 -0.003620 -1.089984 0.960322 0.126981 -0.565543 -0.748914 -0.026831 0.465174 -1.041639 -1.114513 -0.624882 -0.142117
thug 0.661009 -2.416730 -0.324517 0.531945 -0.144603 0.856675 0.395412 -1.390555 1.129043 0.006697 0.938086 -0.474831 0.453105 -0.855434 -0.736882 1.514114 -0.434518 -0.233662 -0.227682 0.929357 -0.756202 0.322557 0.682968 0.410139 -0.480306 0.053914 -0.874389 -0.101567 -0.886769 0.366747 -0.696909 -0.732421 -0.340927 0.365970 0.458492 -0.105772 -0.638742 0.520784 0.339161 -0.823560 -0.552803 -1.588682 0.489220 0.381731 0.921684 -0.390410 -0.218559 0.779886 -0.431821 -0.635500
music 0.414753 -0.171654 0.192225 -0.054844 -1.303391 -0.393256 -0.208106 0.124189 0.747089 0.314016 0.946481 1.246184 0.097035 0.385071 -0.462126 0.989975 -0.035617 -0.479948 0.149414 0.526621 -0.915471 -0.891166 0.714163 -0.395567 -0.582245 -0.584272 -0.391052 0.023991 0.883434 -0.181623 0.544161 -0.116539 -1.341150 0.334737 -0.079533 0.331193 1.560145 -0.816632 0.227332 -0.474347 1.295692 -0.524334 0.511194 0.001263 -0.411975 -0.190611 -0.465821 1.348446 -0.247970 -0.454894
pass -0.030742 0.492213 0.512465 -0.459197 0.310612 0.425474 -0.452792 0.620320 -0.985152 0.316223 0.608562 -0.798832 -0.470304 0.506688 -0.520183 0.079055 0.100704 -0.364565 -1.013317 -0.379354 0.383122 -0.314690 0.676841 -1.194330 -0.881657 1.514680 -0.457275 -0.580481 -1.556651 -0.727439 0.523586 -0.487956 -0.067478 0.256533 0.441919 -1.369186 -0.575959 0.294904 -1.146546 0.867406 0.339114 -0.276186 -0.348533 -0.343685 -0.523997 -0.459057 -1.513350 0.312071 0.639610 -1.237357
weed -0.680997 0.297498 0.814967 0.450660 -0.075865 1.054219 0.136524 0.818810 0.321569 -0.308299 1.175710 0.330328 -0.733947 0.867860 -0.389451 -0.029469 0.147716 1.210282 -1.006002 0.641515 0.178723 -0.267349 0.398872 -0.499105 -0.136266 1.889324 0.589542 0.172963 -1.225258 -1.690072 -0.083159 -0.437494 0.378160 -0.399644 0.414060 -0.550494 -1.022188 -0.454479 -0.122876 -0.453476 0.723221 -1.160679 0.049591 -1.234329 0.396379 -0.128321 -1.600938 -0.465819 0.087032 0.207116
tryin -0.485842 -1.102221 -0.273701 0.516074 0.669855 0.562636 0.517795 0.467581 -0.357100 -0.894622 -0.831229 0.551214 -0.110378 0.251664 0.233314 0.965055 0.058976 -0.119523 -0.725318 0.425577 0.446295 0.117647 -0.047060 0.312367 0.483909 0.648720 0.628048 -0.534037 0.391882 0.250557 0.006769 -0.087326 -1.520427 -0.855677 0.609291 -0.012867 -0.583110 -0.364790 0.031210 -1.520418 -0.427293 -0.810020 0.023471 -0.063157 0.835238 -0.427115 -0.123308 0.164271 -0.796343 -0.594827
dance -0.175347 -1.007455 0.167487 -0.250515 0.213037 -0.524370 1.135099 0.083407 -0.880330 -0.413378 -0.918025 -0.019945 0.099649 0.661905 0.720115 0.129494 -0.754002 0.332782 0.145252 -1.133457 0.240396 0.157177 1.024838 -0.204392 -1.173987 0.704028 -0.536402 0.244513 0.284194 -0.975760 -0.200090 -0.545429 0.378615 -0.443181 0.139022 -0.313034 0.286110 -0.674419 0.138437 -0.411680 -0.019026 -0.771657 -0.852322 -0.115747 0.458562 -1.174419 0.302693 1.059228 0.657119 -1.551400
l -0.907585 -0.869011 1.551588 0.119841 -1.246245 -0.066513 -0.151457 -0.291460 1.030376 -1.278934 -0.113636 0.228907 -0.301743 0.119123 -0.255888 -0.663078 0.494602 -0.623756 1.147346 -0.082591 0.807047 0.824772 -1.006778 0.904407 1.105644 0.892746 -0.498086 0.713028 -1.390913 -0.223541 0.371848 0.626507 0.570023 -0.186274 0.182472 -0.555593 0.678437 -0.550450 -0.794198 -0.404762 1.191992 0.569553 0.589687 -1.161027 -0.138389 -0.160703 0.325263 0.356863 -0.092697 0.709914
wet -0.622194 -0.265964 0.407663 -1.785127 0.287179 0.220142 -0.540812 -0.938088 -0.111189 1.530744 -0.153473 -0.641310 0.662199 -0.057451 0.072676 -0.286298 -0.527743 0.119019 -0.611002 -1.081391 0.138945 0.598283 0.469298 0.968097 -0.612949 0.656681 0.187833 -1.759249 -1.027894 -0.691510 0.535033 0.060912 0.105377 -0.844229 0.221027 -0.459538 1.329345 -0.269841 0.733305 -0.776112 -0.861887 0.115477 -0.134703 0.041567 -0.200673 0.689125 -0.837167 -0.362696 -0.328331 -0.282370
bed 0.266641 -1.557945 0.413031 -0.552939 0.045612 0.447092 -0.161819 -0.126275 -1.180984 0.059632 -0.859476 -0.760696 0.764538 0.686090 0.412965 1.089883 0.596587 0.344947 0.171197 0.044633 0.768074 1.705660 0.512158 -0.774465 0.807766 0.952294 0.324893 -0.304596 0.673902 0.930555 0.037938 0.815749 0.323071 -1.139903 -0.209140 0.241970 0.531473 -0.838147 1.136793 -0.333209 1.223687 -0.334322 -0.572683 -0.191742 0.591591 -0.291149 -0.076615 0.448346 -0.182894 -0.936019
dope -0.258572 0.306100 -0.249583 -0.326459 -1.557618 -0.364064 -0.030951 -0.733464 -0.085005 0.784035 -0.465196 0.423925 0.241590 -0.911445 0.001738 0.458748 -0.689346 -0.832319 0.213077 -0.961290 0.773429 -0.290553 0.195432 0.509332 -1.323536 0.698670 0.951210 -0.650862 -0.415686 -0.592582 0.523332 1.047029 -1.298314 -0.121752 0.277661 0.391034 0.808762 0.405445 -1.224010 -0.526012 0.198872 -0.113538 0.196463 -0.710097 0.306835 -0.044777 -0.160168 -0.504511 1.234452 -0.029571
boss 0.473745 -0.355808 2.315702 1.847653 -0.460110 1.088750 -0.092139 -1.092455 0.105469 1.265014 -0.157784 -0.215078 0.439003 -0.507697 0.720303 0.205193 0.016715 -0.222401 0.459998 -0.689132 -0.592069 0.374489 0.504371 -0.404192 -0.810005 0.013833 0.511051 0.665136 -0.697631 1.391663 -0.749166 0.659755 0.802527 -0.836937 0.892210 -0.500340 0.480913 -1.218691 -0.258144 -1.185085 0.771491 0.527513 -0.396492 0.874597 1.383840 -0.196205 0.057203 -0.026638 0.081720 -0.653049
looking -0.325409 0.323742 0.162509 -0.872013 0.932808 -0.314129 -0.922635 -0.052307 -0.260523 -0.362145 -1.018744 -0.594188 0.581513 -0.009223 0.507918 -0.105984 0.431745 -0.380965 -1.338675 0.211972 -0.389320 0.016319 0.046857 0.383810 0.045858 -1.111707 -0.003838 -0.412061 -0.392654 -0.505941 0.970417 0.215907 -0.354625 -0.050428 0.374608 -0.343957 0.405935 -0.259126 -0.267762 -1.079625 0.343366 0.690488 -0.653201 -0.453688 -0.598308 -0.380645 0.322313 0.048231 0.081134 -0.749883
ladies 0.659999 -1.056345 -0.745344 0.584416 -0.055620 0.768265 0.481470 0.309302 0.152783 -0.097481 -0.008436 0.056230 -0.853460 0.202542 0.012356 1.293350 0.530431 -0.214432 0.270314 -1.238301 -0.542198 0.001964 0.972411 -1.414917 -0.811064 0.152933 -0.622090 0.186540 -1.146256 -1.155200 -0.068380 0.107404 1.007397 -1.555422 0.463296 -0.771044 -0.180846 1.106780 0.338769 -0.145472 -0.224710 0.007082 1.002125 -0.923834 -0.247657 1.345002 -0.305127 1.313582 0.985639 -0.210786
