like -0.458061 0.443968 -1.576838 -0.517831 -0.195160 -0.454072 0.180532 -0.018040 0.387378 0.418955 0.985531 -0.502637 0.099515 -1.086163 0.097026 0.940796 -0.873041 0.008897 -0.494383 -0.025467 -0.186249 -0.237956 -0.638749 -0.177619 -0.412205 -0.375781 -0.852736 -0.411247 0.521482 -0.061365 1.089137 -0.208502 0.022279 0.547897 0.477001 1.372826 0.106139 -0.006031 -0.171534 -0.050193 -0.410582 0.236501 -0.367308 0.801374 0.325750 0.601845 0.009369 0.064179 -0.034369 -0.377803
got -0.052481 0.682978 -0.822610 0.306982 -0.325358 -0.269226 0.011905 0.042983 0.076736 0.202279 0.778696 -0.480759 0.118397 0.365393 0.057439 0.236327 -0.078778 0.085918 -0.467437 1.233148 -0.048768 -0.650132 -0.893664 0.295020 1.003480 -0.025555 -0.143644 -1.307217 -0.392489 0.246810 0.756855 0.476123 -0.198649 -0.269937 0.620611 0.407352 0.248455 0.138491 -0.788414 -0.797246 -0.515101 -0.426696 0.818683 -0.110513 -0.612313 -0.432508 0.320971 0.105817 0.212715 -0.824912
legit -0.154080 -0.009261 -0.638640 0.410716 0.239671 0.492970 -0.137021 -0.502557 -0.652035 -0.452638 -0.126343 -0.244425 0.001189 0.014141 0.269296 -0.521945 0.151276 -0.001916 0.588002 -1.180538 -0.287497 2.487716 0.641813 -0.469521 -0.749352 0.769407 -0.170617 0.378880 0.167819 -0.263893 -0.675509 -1.067265 -0.320997 -0.025185 -1.003830 0.119508 0.367561 0.310035 0.409880 -0.060508 0.688117 -0.321946 -0.972655 -0.230965 0.340629 0.361020 -0.210091 0.012132 0.772262 -0.321671
know -0.076986 0.494999 -1.118511 -0.423799 -0.276846 0.377471 -0.023365 -0.349530 0.828412 -0.331486 1.008383 -0.946365 0.207538 0.356023 0.100857 -0.017728 -0.395273 -0.171230 -0.046302 0.629016 0.154160 -0.176836 0.080950 -0.388491 0.197254 -0.213497 -0.527103 -0.907965 0.634848 -0.193793 0.329327 -0.495711 -0.454042 -0.157649 -0.190109 1.034664 -0.645629 -0.719768 -0.018093 -0.069937 -0.492241 0.047807 0.376455 0.573717 -0.178166 -0.102614 -0.249404 0.207813 0.332103 0.030130
wake 0.433188 -1.213129 0.394811 -0.110207 0.121278 -0.322333 -0.326233 1.295579 -1.243656 0.967100 -0.061213 -0.787123 0.120438 -0.614241 -0.089901 -0.751294 1.052572 0.217311 -0.212842 -0.005527 0.462252 0.726305 -0.444504 0.325425 -0.159715 -0.812916 0.374013 -0.484627 0.210521 0.520751 -0.849827 0.247681 -0.465099 0.002231 0.628931 -0.118425 0.168977 0.456100 -0.928510 0.771259 -0.249153 0.122464 -0.547975 -1.187560 -0.422112 -0.501754 1.068497 0.240813 0.017278 0.813052
yeah -0.537046 -0.504234 -1.652068 -0.070463 -0.488326 0.070271 -0.534271 0.843771 0.489768 0.527560 0.173535 -0.512121 -0.247543 -0.359317 0.450745 -0.420156 -0.094149 0.650753 0.389593 0.365685 0.327710 -0.418014 0.027463 0.015273 0.501129 0.002437 0.040901 -0.925699 0.849479 -0.454091 0.466788 -0.697075 -0.381044 -0.949407 -0.134107 1.985171 -0.072042 -0.381522 -0.213308 0.046470 -0.228551 -0.504012 0.031649 -0.515072 -0.667597 0.702277 0.186619 -0.229895 -0.435525 -0.092746
wanna 0.096255 0.017009 -1.037899 -0.477071 0.079556 0.720485 0.149626 -0.712291 -0.111032 -1.509436 1.389862 -0.310493 0.507890 1.700029 -0.067459 0.458151 -0.273233 -0.601063 0.230634 -0.485519 0.769121 0.348611 -0.472659 -0.847049 -0.478226 -1.082658 0.257613 -0.755613 0.303700 0.137007 0.310457 -0.152459 0.042558 -0.032663 0.423677 0.445039 -0.964030 -0.984144 -0.203163 -1.506941 -0.918230 -0.340750 -0.663127 0.629828 0.310293 0.061382 0.463215 -0.011962 -0.192580 -0.123573
come 0.173686 -0.407395 -0.615470 0.067634 -0.135714 -0.665333 -0.188122 1.127657 -0.942553 0.671406 0.841726 -1.009129 0.247076 -0.164923 -0.071033 0.072468 0.767721 0.164168 -0.238218 -0.121262 0.942465 0.192479 -0.788486 -0.000097 0.279321 -0.971567 0.206514 -1.088860 0.338901 0.514406 -0.554663 -0.195264 -0.859349 -0.090879 0.355383 0.609175 0.044928 -0.395249 -1.238112 0.374975 -0.778092 -0.024412 0.150141 -0.715250 -0.356248 -0.288974 0.814531 0.476193 -0.139469 0.173027
ya -0.293487 1.168411 -1.242703 0.611052 -0.325061 0.450078 0.004256 -1.132560 0.563839 -0.247835 1.259315 -0.837614 -0.124475 0.487392 0.911857 0.032918 -0.498314 -0.157817 -0.078246 0.375864 -0.138674 0.611934 0.607463 -0.344485 0.462537 0.731561 -0.789851 -0.534475 0.453110 0.161917 -0.536990 -0.827009 -0.797876 -0.462346 -1.129224 1.236164 0.077526 -0.650738 -0.217744 0.348793 0.596380 0.123559 0.590696 0.151687 -0.441102 -0.422501 -0.361939 0.547519 0.234687 -0.401416
way -1.254906 -0.608383 -0.544651 0.998615 -0.150465 -0.251417 -0.508723 0.695278 -0.578944 0.587405 0.240083 -0.156238 -0.096511 -0.219231 0.777714 -0.390621 0.592659 1.155920 -0.510647 0.580938 0.283812 -0.360824 -0.499292 0.055659 0.215323 -0.094698 -0.299738 -1.088887 -0.128659 -0.036580 0.290015 0.302377 -0.746698 -1.070287 0.605829 1.714310 0.168501 0.677638 -0.455117 -0.452089 -0.682811 -0.563217 0.256355 -0.446042 -0.799692 -0.650205 0.698516 -0.267121 -0.314048 0.378815
yo -0.667357 -0.035620 0.227653 -0.242351 0.090339 -0.081862 -0.453107 -0.066418 0.439529 0.385783 0.576261 -1.189141 0.147999 0.586355 -0.938636 -0.651042 0.415580 -0.239464 -0.188984 0.726578 -0.425284 -0.719242 -1.107911 -0.395014 -0.029351 -0.345448 0.103554 -0.570906 0.344869 0.038412 0.401077 -0.367259 -0.037870 -0.179423 -0.170643 -0.006670 -0.537513 0.306581 0.514652 -0.269409 -0.795863 -0.243059 0.186737 0.892644 -0.210208 -0.224141 -0.558741 0.737863 0.464746 0.149042
nigga -0.039145 0.439263 -0.468878 -0.418232 0.634739 -0.123823 0.742009 0.345212 0.213684 0.355929 0.685780 0.018293 -0.260734 0.047810 0.199692 1.011534 -0.247374 -1.134169 0.015806 -0.359387 0.608286 -0.692592 -0.915356 -0.614696 0.696481 -0.414746 -0.182085 0.084605 0.259634 -0.152477 -0.234494 -0.416358 0.022556 -0.112475 0.475018 0.458708 0.597102 -0.827302 -0.712057 -0.098013 0.196075 -0.216574 -0.161592 -0.159739 -0.243507 0.222325 0.131928 0.642333 -0.335609 -0.902932
love -0.353982 0.799185 -0.247840 0.677519 -0.048632 -0.170136 0.042329 -0.781750 -0.042001 -0.574082 0.376944 0.288175 -0.056234 0.864345 0.854217 0.357342 0.328419 -0.825008 0.118659 -0.262402 0.753628 -0.595665 -0.044688 0.051028 0.224886 0.045217 -0.891219 -0.967233 0.087811 -0.707471 0.070159 0.620880 -0.781679 -0.394750 0.385710 0.603651 -0.327038 0.116776 -0.412062 -0.998284 0.042065 0.445344 0.214446 0.647177 -0.639036 -0.154752 -0.215045 -0.013493 -0.193735 0.278540
let -0.783265 0.736676 0.113001 0.005193 -0.099921 -0.809268 0.111968 0.050371 1.098785 0.730218 0.468150 -0.802441 0.189996 0.302881 0.699292 0.465047 -0.294235 -0.103016 -0.018813 -0.123555 -0.478585 -0.967601 -0.767477 -0.037172 -0.074570 -0.223052 0.078887 -0.783611 -0.067430 -0.284041 0.028550 0.109873 -0.327676 0.037765 0.164935 0.903115 0.570354 0.075011 -0.181699 0.469093 -0.847520 -0.269164 0.034037 0.411644 0.108245 -0.659315 -0.347533 0.350310 0.295538 0.083182
hey -0.492672 0.784606 -1.613863 0.742300 -0.250183 0.433522 -0.569261 -1.070660 -0.475133 -0.567475 0.506809 -0.659623 0.195192 0.575654 0.739668 -0.239242 -0.055748 0.192643 0.339778 -0.698317 0.065348 2.255460 0.384236 -0.551384 -0.332253 0.554079 -0.599576 -0.670595 0.233659 -0.067545 -0.619848 -1.159232 -0.975703 -0.219566 -1.276709 1.073282 0.369058 -0.080992 -0.060815 -0.133083 0.462601 -0.135336 -0.217542 0.055853 -0.046576 -0.069264 -0.317378 0.089287 0.659169 -0.491688
girl -1.826213 -0.172964 0.219516 1.084675 0.478897 -0.449189 0.326844 0.257294 -0.243923 -0.095223 0.284848 -0.620583 0.054194 0.154732 0.222813 -0.197075 0.294817 0.628173 -0.643765 -0.754312 -0.156692 0.146927 0.108282 0.054233 -0.059186 0.610296 0.042042 -0.992507 0.170119 0.024489 -0.264560 0.797796 -0.522613 -0.949111 1.432389 1.032750 0.088345 1.678639 0.079836 -0.490896 -0.255591 -0.311284 -0.103309 0.311625 -1.112159 -0.710885 0.568992 -0.024118 -0.153487 0.373867
ai -0.610071 0.795561 -0.077732 0.529529 0.388780 -0.427324 0.647774 -0.061247 0.339058 -0.279385 0.476553 -0.523967 -0.119209 0.252824 0.390797 0.548279 -0.189245 -0.099910 -0.205041 0.122789 0.218767 -0.788704 0.395182 -0.195362 0.667641 0.623797 -0.403074 -0.484325 -0.430335 -0.104879 -0.225052 0.134819 -0.519174 -0.630691 0.380977 0.405821 0.059690 -0.148949 -0.158069 0.063433 -0.188243 -0.324766 0.516071 0.269260 -0.327596 -0.510370 -0.393153 0.203238 0.062904 -0.556829
man 0.162681 1.079473 -0.743601 0.507193 -0.020965 -0.203999 0.152225 -0.142336 0.526595 -0.042492 0.613440 -0.667152 0.394398 0.379204 -1.128958 0.219469 -0.095503 0.168761 -0.745483 0.600337 0.546233 -0.931103 -0.421905 -0.693813 0.464113 -0.694492 -0.066395 -0.417534 0.024712 -0.122083 0.888105 -1.221084 -0.399954 0.255100 -0.677923 0.000593 -0.628989 0.137239 0.112514 0.315032 -0.744141 -0.041667 1.445044 0.566883 -0.085068 -0.286748 -0.006049 0.787297 0.020039 -0.231220
oh -0.133070 0.343956 -1.654687 0.508455 -0.553121 0.285269 -0.834889 -0.211811 -0.169097 -0.267150 0.682682 -0.567779 0.386244 0.646128 0.801406 -0.100028 -0.177890 0.736826 0.127349 0.261643 0.311814 0.916391 0.211282 -0.152587 0.247132 0.035248 -0.373133 -0.899752 0.383511 0.667356 -0.602185 -0.767269 -1.070093 -0.619159 -0.688981 1.644287 0.143532 -0.472971 -0.646004 0.204758 0.098231 -0.398960 0.273831 -0.373291 -0.203812 -0.337863 -0.011001 -0.254714 0.276126 -0.130777
run -0.173094 0.958867 0.683394 0.343986 -0.536751 -1.097436 0.730936 -0.527306 0.670306 0.541521 0.802965 0.532737 0.060391 1.182738 1.184619 0.692315 -0.075298 -1.166172 0.672211 -1.336083 0.572968 -0.824434 -1.292785 -0.205213 -0.211712 -0.597438 0.266806 -0.338206 -0.493910 -0.161932 -0.626442 0.102777 -0.191089 -0.168078 0.248716 0.211728 1.275407 -0.090959 -0.542526 -0.226389 -0.471693 -0.189594 -0.838790 0.290614 0.178517 -0.231462 0.230004 0.374374 -0.237335 0.195888
niggas -0.270502 0.525092 -0.408004 -0.609497 0.726598 0.229030 0.553012 0.159908 0.575538 0.425625 0.415770 -0.416942 -0.478952 -0.174510 0.448011 0.568930 -0.302000 -0.642605 -0.272253 0.622652 0.050602 -0.591069 -0.754899 -0.263878 0.254252 -0.118174 -0.527596 -0.208253 -0.083435 -0.606750 0.115446 0.034537 0.153872 -0.130295 0.561486 0.390969 0.421310 -0.722640 -0.052573 0.248503 0.031532 -0.061272 0.002557 0.249652 -0.211773 -0.359059 -0.284127 0.314596 0.024898 -0.833507
shit -0.193423 0.331128 -0.616614 -0.131722 0.327923 -0.386671 0.205377 -0.002419 0.959024 0.578765 0.511316 -1.136510 0.371411 -0.759701 -0.298785 0.499457 -0.442376 -0.124023 -0.125790 0.237989 -0.717279 -0.575927 -0.542054 0.076626 0.283773 -0.007828 -0.351599 -0.512352 0.131683 -0.473876 0.847914 0.240274 -0.126172 0.418628 0.234450 0.821145 0.395317 -0.138387 0.031463 0.364895 -0.682006 0.171876 0.496036 0.511322 0.012548 -0.091176 -0.343102 0.436210 0.347397 -0.316821
quit -0.318393 0.253881 -0.429332 0.830858 0.046433 0.099703 -0.194910 -0.487658 -0.608946 -0.152800 -0.190621 -0.147301 -0.009288 -0.078679 0.509088 -0.464992 0.215974 0.226426 0.475469 -1.196191 -0.313211 2.248054 0.590506 -0.296756 -0.531817 0.937788 -0.193855 0.210570 0.001126 -0.167534 -0.860465 -0.950673 -0.547272 -0.150395 -1.000101 0.260243 0.673790 0.653180 0.231199 0.101099 0.732931 -0.288610 -0.626962 -0.266132 0.162728 0.141390 -0.225837 0.011275 0.678204 -0.219751
gon 0.302214 1.009089 0.115395 0.645864 -0.597228 -0.580612 0.844945 -1.304567 0.802211 -0.064968 1.611316 -0.030104 0.177533 -0.084431 0.052535 0.556242 -0.584167 -0.244669 -0.017615 0.208932 -0.455947 -0.945259 0.624647 -0.160701 0.914979 0.733611 -0.186222 0.427970 -0.046721 0.586756 0.442687 -0.032528 -0.387994 0.165281 -1.056319 0.125239 0.210745 -0.711399 -0.062105 -0.126219 -0.210704 0.317650 1.124971 0.226688 0.147722 -0.040319 -0.082372 0.633046 -0.341210 -0.139691
time -0.270231 0.375660 -0.096658 0.248472 -0.078221 -0.326295 0.054357 0.140547 0.707543 0.211770 -0.017983 -0.689166 0.121660 -0.042768 -0.499432 0.120610 -0.094670 -0.301954 0.106468 0.269983 0.184479 -1.057930 -0.360159 -0.467953 0.513974 -0.213807 0.039272 -0.278998 0.308496 -0.872376 0.576135 -0.714770 -0.300584 -0.057705 -0.151856 0.238393 -0.536453 -0.564018 0.092464 0.269836 -0.444766 -0.303874 0.599537 0.472055 0.058902 -0.183154 -0.451188 0.719662 -0.468101 0.039128
ta 0.128589 0.509233 -0.457727 0.355566 -0.161682 -0.331266 -0.039337 0.543728 0.008440 0.140578 0.285289 -0.319940 0.125965 0.462208 -0.050813 0.235873 0.132448 0.117597 -0.382004 0.859110 0.270410 -0.754324 -0.900782 0.380895 0.799202 -0.250571 0.078817 -1.241646 -0.372366 -0.001482 0.372383 0.481565 -0.232753 -0.261118 0.601032 0.209531 0.070054 -0.053804 -0.730891 -0.474008 -0.478460 -0.393150 0.907788 -0.139849 -0.464549 -0.354926 0.265107 0.195326 0.164770 -0.726103
huh 0.461781 0.066762 0.724307 0.841031 -1.117715 -0.370606 0.372521 -1.399667 -0.052051 -0.209652 1.185019 0.565116 0.293390 -0.073075 0.053988 -0.062722 -0.119645 0.039209 -0.046859 0.213503 -0.724582 -0.357450 0.868649 0.291631 0.648547 0.724658 0.268705 0.181364 -0.290394 0.907117 0.421983 0.523387 -0.140949 0.405665 -0.944709 -0.326168 0.066471 -0.066239 -0.089443 -0.612871 -0.312131 0.316216 0.843469 -0.254277 0.254234 -0.079055 0.269907 0.057317 -0.426808 0.466671
bump 0.015078 -0.244432 -0.920046 -0.480234 0.247268 -0.192527 -0.051474 0.063222 0.003385 0.954618 -0.396430 -0.166337 -0.176636 -1.776024 -0.299156 0.235504 -0.819156 -0.038324 -0.431680 -0.263768 -0.661984 0.751872 -0.370039 0.015197 -0.719089 -0.207879 -0.638188 0.636946 0.417433 -0.063547 0.545754 -0.197687 0.713622 0.493232 -0.042968 0.663430 0.473489 0.521228 0.377406 0.345638 0.734624 0.408310 -0.933292 0.193228 0.510052 0.665488 -0.250638 0.167084 0.130137 -0.551656
pumps 0.102796 -0.340965 -0.634106 -0.434205 0.292361 -0.184907 -0.036051 0.000045 -0.041288 0.959377 -0.454418 -0.112821 -0.139862 -1.820602 -0.440836 0.126364 -0.756308 -0.123194 -0.411520 -0.273621 -0.751565 0.759703 -0.295222 0.027891 -0.625133 -0.117950 -0.609467 0.847057 0.368122 -0.070875 0.518031 -0.106294 0.756405 0.558152 -0.126429 0.414391 0.465096 0.545995 0.464198 0.333111 0.755910 0.497598 -0.909913 0.171422 0.531659 0.659977 -0.286637 0.201945 0.117190 -0.451431
right -0.220360 0.177498 -0.257478 0.144369 0.009985 0.159745 -0.987729 0.109822 0.062174 0.355606 -0.360240 -0.791596 -0.653077 -0.124888 0.052467 -0.180931 0.112996 0.462993 -0.246224 -0.173121 0.141593 -0.064698 0.525162 -0.007765 0.932339 0.271886 0.779849 -1.231975 -0.004138 0.421437 -1.009718 -0.589586 -0.339291 -0.191445 -0.788329 0.558980 -0.052077 -0.195522 -0.203140 0.947816 -0.308892 0.056663 0.885813 -0.416137 -0.707989 0.223094 0.033328 -0.087626 -0.325794 -0.330374
uh -0.270112 0.155131 -1.412265 0.352852 -0.943549 0.644544 -0.723579 -0.730080 0.141523 -0.551672 0.678132 -0.324455 0.317161 0.534274 0.711461 -0.457482 -0.422015 0.761232 -0.137023 0.269715 0.110822 1.438665 0.508777 -0.174393 -0.157432 0.128536 -0.116911 -0.727608 0.707018 0.529879 -0.578222 -0.878436 -0.615636 -0.383861 -0.853770 1.124040 -0.172681 -0.141034 -0.139999 0.361360 0.496460 -0.180447 0.023888 -0.125268 -0.122027 -0.046042 -0.151634 -0.461469 0.437095 0.279789
na 0.372556 0.871931 0.171931 0.612289 -0.681321 -0.539775 0.711277 -1.263780 0.664210 -0.010666 1.509555 -0.065893 0.221093 -0.244577 0.033220 0.418674 -0.584485 -0.035177 -0.034891 0.286469 -0.643738 -0.661401 0.798385 -0.049665 0.784057 0.805908 -0.138628 0.510086 -0.002309 0.734926 0.397428 -0.017893 -0.342295 0.268778 -1.171517 0.051541 0.190644 -0.648976 -0.042701 0.002609 -0.166206 0.362704 1.096193 0.092794 0.284879 -0.028322 -0.082228 0.604292 -0.282219 -0.023461
said 0.075705 0.175885 0.472480 0.868809 -1.064258 -0.796384 0.159710 -1.044496 0.097665 -0.056168 1.337672 -0.018052 0.504637 -0.164844 -0.374178 0.011014 -0.124480 0.061477 -0.165336 -0.028644 -0.776665 -0.792369 0.285111 0.218980 0.530411 0.351734 0.171940 -0.296523 -0.272171 0.760376 0.927322 0.428788 -0.294912 0.476006 -0.827262 0.244096 -0.050737 0.273886 -0.135682 -0.745209 -1.012945 0.241976 1.042900 0.210781 0.193580 -0.127363 0.060523 0.402226 -0.403372 0.411914
ooh -0.042879 0.086175 -1.136688 -0.722986 -0.109189 0.034922 0.286852 0.723427 0.721991 0.590669 0.280706 -0.831504 -0.456649 -1.023730 0.197782 -0.287116 -0.929029 0.081747 0.453076 0.436226 -0.220401 -0.276770 0.721059 0.297736 0.134665 0.528946 -0.297079 0.594279 0.865903 0.046814 0.267742 -0.657218 0.175377 -0.577261 -0.394309 0.893852 0.298894 -0.463221 0.283261 0.946731 0.769218 0.197544 -0.091602 -0.183089 -0.337074 0.787311 -0.297461 0.240591 -0.167611 -0.233056
fire 0.380668 0.635252 1.100848 0.288725 -0.458808 -0.683258 0.265771 -0.338237 0.474998 0.662778 -0.325737 0.991643 0.047687 0.746404 0.760464 0.154636 -0.046102 -0.796449 0.668513 -0.963660 0.345441 -0.269599 -0.885708 0.017541 -0.215213 -0.312824 0.397706 0.171294 -0.903227 -0.429790 -0.735873 0.132179 0.172653 -0.040226 -0.115847 -0.581711 1.301779 0.126826 0.034635 0.322705 0.288255 0.015517 -0.359409 0.056636 0.175391 -0.327686 -0.074663 0.176011 -0.118841 -0.146835
fuck -0.149555 0.401762 0.048295 -0.803693 0.965970 0.204947 0.675639 -0.173198 0.469883 0.035843 0.844123 -0.570509 -0.280418 -0.196821 -0.331462 0.609496 -0.118957 -0.716641 -0.152797 0.360569 -0.146942 -0.533761 -0.802256 -0.667660 0.108213 -0.134602 -0.519135 0.130206 -0.031671 -0.614549 0.244731 -0.046595 0.198421 0.006723 -0.077682 0.026641 0.091463 -0.958059 0.553912 -0.140843 -0.438917 0.358437 0.202431 0.882180 -0.007681 -0.532283 -0.466248 0.688215 0.109817 -0.753783
better -0.266245 1.108798 0.243212 0.183349 -0.514134 -0.860141 0.385067 -0.104229 1.029979 0.871364 0.304213 0.291696 -0.054498 0.913034 1.103511 0.428242 -0.295230 -0.724441 0.462642 -0.763812 0.357055 -0.718349 -1.382249 -0.108171 -0.130609 -0.451478 0.192757 -0.686687 -0.450030 -0.525141 -0.482928 -0.221137 -0.123780 -0.296113 0.059266 0.544450 1.268603 -0.048029 -0.190866 0.308929 -0.152305 -0.314301 -0.300359 0.335328 -0.058784 -0.518452 -0.176585 0.381031 0.033397 -0.362439
bone 0.918665 0.068418 0.771348 0.434749 -0.739727 0.661446 0.165306 -0.992468 0.195243 -0.307226 0.069056 1.033046 0.296574 0.974398 0.828348 -0.612659 -0.166144 -0.014612 0.081896 0.531209 -0.463835 0.127048 -0.099156 0.543692 0.354355 0.413540 0.908046 -0.445962 -0.063685 0.374747 -0.278247 0.561685 0.476423 -0.109278 0.085160 -0.385674 0.055266 0.651981 -0.081703 -0.410855 1.285726 -0.405010 0.273123 -0.944899 -0.502266 -0.010432 0.305392 0.421287 -0.059816 -0.636179
poo 0.039544 0.059577 -0.982572 -0.793122 -0.016319 0.069157 0.002638 0.537685 0.924085 0.588819 0.040293 -0.581358 -0.341957 -1.069852 -0.144508 0.084441 -0.563230 -0.007689 0.206940 0.236318 -0.350115 -0.247789 0.094794 0.017286 0.048261 0.144944 -0.342190 0.363360 0.950120 -0.293930 0.422073 -0.665677 0.253306 0.044570 -0.416476 0.772220 0.057817 -0.359532 0.271223 0.908880 0.430972 0.250811 -0.187871 0.260406 0.016105 0.739530 -0.389722 0.191330 0.009179 -0.272630
day -0.253642 0.038204 -0.392691 0.100882 -0.051005 -0.615635 -1.252098 -0.365144 -1.452195 -0.420411 -0.787735 0.554872 0.358017 0.495588 -0.065164 0.314122 0.854531 -0.392444 0.333091 -0.259679 1.266247 -0.250665 -0.406463 0.200187 0.048662 -0.748605 -0.435320 -0.668230 -0.443699 -0.350927 0.763991 0.822983 -0.688697 0.250529 -0.067667 -0.074283 -0.314092 -0.688416 -0.689555 -1.150307 -0.411651 0.699281 0.404659 0.267756 -0.142378 0.254489 -0.234054 -0.461022 -0.562835 -0.265292
live -0.105414 -0.186573 -0.753467 -0.572188 0.216081 0.327116 -0.274995 -0.342786 -0.512904 -1.157696 0.321746 -0.004111 0.351603 1.101511 -0.067057 0.365553 0.097793 -0.636104 0.244084 -0.203627 0.903252 -0.084668 -0.611248 -0.294856 -0.491453 -1.078031 -0.139868 -0.762492 -0.037262 -0.453547 0.855328 0.654102 -0.031402 0.089780 0.725383 0.184372 -0.815404 -0.910844 -0.256213 -1.480133 -0.784228 0.123042 -0.481527 0.585873 0.093289 0.127712 0.213606 -0.308415 -0.312074 -0.133391
real -0.078517 0.191111 -0.773785 -0.752662 0.415306 -0.160275 0.604871 1.175363 0.165904 0.071762 -0.051244 -0.673923 -0.366327 -0.649645 -0.208410 -0.170469 -0.795657 -0.537081 0.396678 0.245222 0.546366 -0.898402 0.405528 0.171321 0.155014 0.082533 -0.135224 0.479719 0.203510 -0.378040 0.494870 -0.277126 0.431688 -0.741563 0.400235 0.135111 0.269992 -0.266158 0.209798 0.266076 0.320498 0.123311 0.168532 -0.012580 -0.477617 0.832578 -0.198703 0.186907 -0.429525 -0.107292
bitch -0.613592 -0.206352 0.508510 -0.123994 0.462918 1.014381 -0.024872 -0.604217 -0.379092 0.438627 -0.030396 0.784907 -0.754823 -0.083499 1.202812 -0.317471 0.031112 0.742269 -1.019204 2.306912 0.068908 -0.518013 -0.239152 -0.411283 -0.332290 0.047935 -0.714413 0.318391 -1.169291 -0.298736 0.101105 0.034201 0.074665 -0.462973 0.687146 -0.094411 0.253624 -0.335895 0.754599 0.701304 0.104973 -0.620059 -0.279306 -0.350187 -0.102641 -1.368126 0.424900 -0.606971 -0.111499 -0.166548
need -0.830231 0.174057 -0.101228 0.830529 0.341120 -0.084870 0.288351 0.081226 -0.215896 -0.299772 0.384772 -0.174568 -0.175325 0.386842 0.698486 0.090004 0.414660 -0.060029 -0.119482 -0.291066 0.403859 -0.297423 -0.082158 -0.073871 0.136343 0.291712 -0.569062 -0.906123 0.097271 -0.524338 -0.190238 0.490677 -0.653321 -0.934756 0.867140 1.024467 -0.144425 0.701137 -0.189868 -0.824155 -0.170695 -0.124333 0.022202 0.371994 -0.838351 -0.491098 0.206897 0.011636 -0.050206 0.385357
addams 0.045310 -0.936616 -0.509143 -0.454053 0.306931 0.815862 -0.185719 0.299875 -0.542217 -0.667353 -0.028441 -0.021712 0.074891 0.395199 0.096265 -0.331484 0.037265 0.087918 0.331362 -0.199090 0.263134 0.830282 0.596206 -0.207017 -0.417118 -0.213796 0.018276 -0.026250 0.432739 0.141833 -0.123963 -0.106595 0.117538 -0.295104 0.286156 0.427726 -0.570570 -0.280662 0.050675 -0.587329 -0.108190 -0.322295 -0.960224 -0.448763 0.126780 0.289603 0.357865 -0.460090 0.028369 0.240576
die 0.227314 -0.251293 0.013457 -0.315055 0.479569 0.066192 -0.313682 -0.400928 -0.981221 -0.521216 0.028269 0.456030 0.282841 0.527973 0.040011 0.476925 0.389589 -0.975342 0.581129 -0.671857 0.682480 0.114687 -0.232002 -0.437202 0.167925 -0.364520 -0.156403 0.400942 -0.187275 0.167872 -0.202238 0.246748 -0.192077 0.165105 0.052694 -0.150057 -0.014493 -0.756858 -0.514899 -0.995756 0.094509 0.070738 -0.172618 0.103370 0.179902 0.105410 0.002494 -0.016275 -0.449518 -0.474474
hit -0.990206 -0.033798 -0.099370 -0.620001 0.754402 0.391071 0.397015 0.179945 0.152831 -0.026592 0.228993 -0.544243 -0.673362 -0.079130 0.518120 0.539346 -0.240721 -0.403458 -0.472274 0.218901 -0.167480 -0.622541 -0.130853 -0.011923 -0.002787 -0.032324 0.641837 -0.308709 0.913311 0.425640 -0.074067 -0.089720 0.495024 0.304759 0.482270 -0.046171 -0.454302 -0.176035 -0.733234 -0.018517 0.301400 -0.438703 -0.554714 -0.069913 -0.200961 0.115544 -0.070829 -0.095092 -0.332557 -0.247308
mama 0.431832 0.111198 0.343375 0.970355 -0.976879 -0.152221 0.075063 -1.101236 0.063798 -0.367108 1.089768 0.142958 0.305676 -0.130980 0.007057 -0.113477 -0.139101 0.245437 -0.148685 0.057921 -0.762475 -0.170050 0.950139 0.174415 0.605214 0.740642 0.038007 -0.018160 -0.083680 0.771210 0.154369 0.247647 -0.223395 0.269103 -1.018231 0.245838 -0.193202 0.097005 -0.155992 -0.445839 -0.271491 0.246146 0.889039 -0.047431 0.168625 -0.185738 0.118251 0.217348 -0.214472 0.401358
money -0.212784 0.034797 -0.095544 -0.707783 1.141091 0.415149 0.334796 -0.311930 -0.319420 -0.224305 0.572846 0.092140 -0.212867 -0.109079 -0.050345 0.646336 0.194340 -0.832780 -0.125537 0.403678 0.412235 -0.452080 -0.690368 -0.714440 0.232845 -0.212466 -0.733005 0.142757 -0.231367 -0.568924 0.312066 0.304290 -0.092558 -0.002850 0.286325 0.025890 0.068946 -1.263109 0.071582 -0.655517 -0.158940 0.218254 0.131355 0.585162 -0.092341 -0.457689 -0.174707 0.185298 -0.207166 -0.821495
lyrics -0.275642 0.141393 -0.439869 0.286609 -0.663512 0.174860 -0.135626 -0.362388 0.385171 0.023747 0.551930 -0.158985 0.109899 0.530593 0.279845 -0.402497 -0.089351 0.363715 -0.195837 0.157063 0.040057 0.307263 -0.302911 -0.041166 -0.052845 -0.059194 0.390459 -0.714627 0.547009 0.188263 -0.180143 -0.393628 -0.049966 -0.316352 -0.048865 0.336422 -0.123481 0.521010 -0.006106 -0.046223 0.324326 -0.247143 -0.058123 0.015175 -0.423976 0.089964 0.182049 0.070333 0.108868 0.160997
little -0.469902 0.184688 -0.608400 -0.295146 0.398847 -0.027469 -0.141614 0.245104 0.647695 0.523209 0.137911 -0.904871 -0.244548 -0.624363 -0.122086 0.317359 -0.032370 0.043448 -0.210032 0.386982 -0.393025 -0.041779 -0.671356 -0.065833 0.367459 0.110856 -0.539279 -0.442351 0.169118 -0.333939 0.418705 -0.127101 -0.022050 0.006355 -0.082620 0.739994 0.383451 -0.274072 0.024426 0.556944 -0.189556 0.252139 0.008735 0.529639 -0.248574 -0.054047 -0.367244 0.512996 0.331342 -0.571827
shorty 0.189313 0.036378 0.262941 0.136418 -0.311569 -0.580785 -0.586870 -0.712421 -0.871367 -0.475190 -0.132038 0.639622 0.452295 0.512251 -0.271049 0.202215 0.531705 -0.720782 0.426986 -0.341514 0.466228 -0.597268 -0.273600 0.209958 0.203019 -0.345721 -0.045227 -0.239708 -0.490754 -0.024646 0.834743 0.878471 -0.341574 0.555589 -0.190526 -0.603739 -0.208508 -0.114203 -0.430759 -1.374663 -0.469193 0.524887 0.447177 0.216655 0.076634 0.205376 -0.198760 -0.095575 -0.536457 -0.050800
play 0.011794 -0.294967 -0.723769 -0.358196 0.043731 0.494996 -0.027751 -0.361106 -0.211888 -1.355416 0.650277 -0.365191 0.389208 1.039856 -0.378779 0.177233 -0.056271 -0.337901 0.249015 -0.395529 0.627108 0.239680 -0.193335 -0.418070 -0.468403 -0.790421 0.247246 -0.518890 0.255999 -0.142201 0.439392 0.282848 0.008676 0.007571 0.532514 0.044550 -1.038710 -0.907891 -0.058641 -1.181834 -0.733185 -0.101835 -0.506496 0.584233 0.235593 0.162797 0.319236 -0.219224 -0.176549 0.117808
shook -0.243608 0.011130 0.228731 0.708103 -0.321210 -0.034435 0.130414 0.374246 -0.278407 -0.198106 -0.174865 0.256084 -0.210967 0.826402 -0.252851 -0.082779 0.494754 0.350742 -0.143749 0.770625 0.109869 -0.730442 -0.724273 0.290678 0.551679 0.247083 0.294326 -0.813271 -0.820812 0.277908 0.322491 0.870763 0.367547 -0.544232 0.801289 -0.358535 0.080267 0.979415 -0.394630 -1.302937 -0.434356 -0.648164 0.555918 -0.045714 -0.450137 -0.349912 0.287461 -0.139470 -0.074874 -0.552083
crossroads -0.098837 -0.467010 0.013202 -0.218044 0.195689 -0.275459 -0.289971 0.680127 0.403483 -0.174496 -1.002066 -0.281241 -0.068215 -0.459488 -0.486856 -0.097341 0.225208 0.112550 0.423638 -0.776295 -0.429216 -0.038352 -0.313411 0.043678 -0.789636 -0.149834 -0.590229 1.376420 -0.358144 -0.383763 -0.207706 -0.059334 -0.094737 0.227426 -0.049998 -0.033793 0.296037 0.018355 0.206555 0.469114 -0.016818 -0.286150 -0.555686 0.388639 0.231094 -0.094574 -0.332749 -0.521673 0.576953 0.205153
kick 0.434422 -0.291773 -0.418169 -0.753318 -0.629455 0.607686 0.170789 -0.458930 0.020196 -1.040292 1.230422 0.548092 0.406786 0.449292 0.105964 0.588015 -0.403263 0.270712 0.157711 -0.207094 0.053381 0.583156 0.181135 -0.213570 -0.864120 -0.350865 0.421020 0.301737 0.546443 0.733042 0.019501 0.295180 0.470433 0.509257 0.586268 -0.206185 -0.904446 -0.482480 -0.070620 -1.079756 -0.621411 -0.059925 -0.172869 0.642535 0.795538 0.482170 0.818418 -0.643934 -0.463775 0.620960
knock 0.607760 0.197523 0.949116 0.764588 -0.999917 -0.537229 0.586134 -1.401420 0.064186 -0.283957 1.288898 0.382479 0.394404 -0.234059 -0.261808 0.021592 -0.271629 -0.053663 0.070768 -0.227523 -0.862773 -0.364205 1.038778 0.171611 0.462894 0.767342 0.323716 0.567604 -0.247678 0.991596 0.385131 0.329610 -0.060337 0.607495 -1.240424 -0.478685 0.045544 -0.068371 0.099705 -0.448689 -0.360668 0.444086 0.830208 -0.050205 0.528221 0.121188 0.059388 0.397749 -0.413318 0.423452
check -0.482319 -0.231496 -1.157802 0.316238 -0.547216 -0.106975 -0.203809 -0.359458 0.666523 -0.642964 0.177022 -0.413603 -0.033048 -0.215806 -0.572617 -0.338667 -0.433372 0.816205 -0.423011 -0.963408 0.284379 0.737700 0.397724 0.311221 -0.167104 -0.034745 1.074289 -0.219390 0.992321 -0.306448 0.180508 -0.134381 -0.020566 -0.130508 0.174262 -0.298680 -0.355617 -0.132793 0.563881 0.417404 0.779948 0.282788 -0.624996 0.468212 -0.183558 1.059567 -0.099618 -1.261772 0.330573 0.586176
relax -1.336218 -0.565814 0.770825 0.894702 0.529991 -0.170025 0.193054 0.152213 -0.701092 -0.066954 -0.245018 0.014027 0.003326 0.155064 0.361174 -0.460315 0.459415 0.492226 -0.282252 -0.926819 -0.081705 0.597056 0.415429 0.029946 -0.317355 0.596612 0.228867 -0.256921 -0.039813 0.189970 -0.743722 0.684036 -0.265193 -0.744472 1.067071 0.396896 0.301052 1.457807 0.167405 -0.263112 0.177880 -0.253630 -0.477161 -0.192153 -0.778543 -0.595822 0.627066 -0.164038 -0.225593 0.475939
settle -1.377786 -0.655907 0.721328 0.801565 0.555394 -0.108809 0.128282 0.304374 -0.695684 -0.051262 -0.297196 -0.131818 0.022208 0.102896 0.283546 -0.569110 0.446548 0.583424 -0.292386 -0.832233 -0.138142 0.629656 0.493813 0.042117 -0.376275 0.627542 0.229338 -0.258332 0.038049 0.241544 -0.735301 0.649644 -0.247020 -0.780215 1.107105 0.446020 0.190825 1.510259 0.223967 -0.201545 0.132630 -0.296242 -0.446645 -0.182522 -0.802412 -0.602983 0.619161 -0.140857 -0.193004 0.512631
tell -0.166037 0.650359 0.014548 0.872479 -0.168019 -0.484423 0.481819 -0.803163 0.282794 -0.023196 0.914659 -0.329994 0.210516 0.124830 0.408231 0.163690 -0.188996 -0.127171 0.083647 -0.181879 -0.256405 -0.064932 0.356125 -0.158830 0.584395 0.714870 -0.049200 -0.238793 -0.219476 0.181770 -0.054903 -0.223636 -0.589162 -0.165324 -0.483547 0.341826 0.300425 0.039611 -0.175200 0.072536 0.048052 -0.296012 0.482289 -0.176509 -0.124300 -0.274334 -0.099426 0.475407 0.075731 -0.326309
thug 0.174109 0.740786 0.234204 0.251601 -0.322979 0.114571 0.759337 -0.460672 0.621898 0.177833 0.284532 0.907558 -0.372705 0.496079 0.777165 0.433290 -0.246464 -1.022024 0.074621 -0.350892 0.250755 -0.331287 -0.827740 -0.025334 0.218880 -0.018576 -0.042601 0.013847 0.031651 -0.442450 -0.150630 0.099964 0.289047 0.013043 0.365113 0.036680 0.700189 0.155400 -0.271486 -0.327541 0.819225 -0.053797 -0.396496 -0.207741 -0.216143 0.542791 0.203938 0.334610 -0.391334 -0.497495
da 0.256961 -0.422816 0.448771 -0.084771 0.437245 -0.309055 -0.232371 0.356812 -0.870746 -0.311116 -0.063756 0.355883 0.335274 0.694679 -0.126413 0.505120 0.587486 -0.596898 0.602369 -1.116593 0.769421 0.073005 -0.443655 -0.395615 -0.017754 -0.616379 0.377518 0.746217 -0.089416 0.557657 -1.082244 0.103258 0.198530 -0.256804 0.674872 -0.397020 0.039912 -0.057136 -0.684334 -0.552864 -0.199688 -0.273782 -0.547600 -0.022249 0.072514 0.058862 0.484287 0.055322 -0.350463 0.052695
gangster 0.395964 -0.838468 0.510930 -0.204126 -0.102762 0.297446 -0.314808 -0.088488 -0.560530 0.071068 -0.577933 0.683477 -0.143749 0.083631 0.043972 -0.468105 0.528347 -0.095372 0.236357 -0.463072 0.152725 0.735108 0.180923 0.129679 -0.458658 -0.204380 0.522056 0.282666 0.031518 -0.163532 -0.494224 -0.147343 0.229480 0.108831 -0.321274 -0.364250 -0.060811 -0.090715 0.262092 0.095527 0.244771 0.117204 -0.536622 -0.533822 0.149633 0.194591 0.169696 -0.277461 -0.242205 0.251237
think -0.151382 0.398735 -1.077480 -0.272350 0.070730 -0.104311 0.011211 -0.125988 0.811918 0.261385 0.563509 -1.010033 0.181451 -0.577740 -0.162390 0.379143 -0.490235 -0.118468 0.025654 0.167449 -0.406845 -0.173179 -0.315642 -0.101124 0.187430 0.027560 -0.515416 -0.382567 0.437061 -0.360671 0.624718 -0.228515 -0.196000 0.219894 -0.221171 0.990793 0.169666 -0.402797 0.077346 0.310116 -0.277765 0.253223 0.273584 0.599800 -0.025173 0.129149 -0.419714 0.409316 0.282360 -0.391503
touch 0.037412 -0.604416 0.116861 -0.182005 -0.393363 0.238632 -0.664379 0.628096 0.316083 0.292886 -0.742807 -0.306651 0.280120 0.519339 -0.690068 -0.865805 0.493476 0.324578 0.365777 0.652848 0.499175 -0.622736 -0.324195 -0.214888 0.182247 -0.615610 0.284555 -0.354703 0.351859 -0.164061 0.003110 -0.538573 -0.146060 -0.136180 -0.177252 -0.231713 -0.737461 -0.057823 0.086565 0.522228 -0.178195 -0.041382 0.380952 -0.275657 -0.286829 0.015223 -0.264553 0.083726 0.086952 0.414646
boogie 0.170765 -0.750008 0.384660 -0.205064 0.111657 0.257677 -0.283880 0.123091 -0.523624 0.090014 -0.632199 0.511092 -0.162206 0.075772 0.019853 -0.336523 0.503624 -0.085253 0.139152 -0.469035 0.218953 0.654093 -0.076583 0.083308 -0.533123 -0.280528 0.418208 0.160968 0.031705 -0.282253 -0.451741 -0.058999 0.213045 0.060842 0.015230 -0.274280 -0.050651 0.050088 0.217224 0.068298 0.206406 0.040901 -0.602908 -0.351532 0.091769 0.119838 0.139733 -0.260961 -0.163183 0.176316
crazy -0.378973 -0.011148 0.226040 -0.028290 0.115619 0.848520 -0.001825 -0.532478 -0.187208 0.344161 0.004807 0.873677 -0.605223 -0.052352 1.095407 -0.311365 -0.050937 0.881223 -0.986514 2.231022 0.028845 -0.497129 -0.058768 -0.128564 -0.027446 0.060377 -0.604145 0.060190 -1.001979 -0.127134 0.360486 0.144750 0.182863 -0.492763 0.720549 -0.094696 0.277110 -0.021884 0.499406 0.502706 0.111029 -0.468509 -0.178613 -0.537481 -0.359574 -1.053844 0.685341 -0.802818 -0.012698 -0.005952
try -0.198670 0.720328 -0.416722 0.004443 0.075514 -0.391125 0.428239 1.164381 -0.137956 -0.493005 -0.313149 -0.396927 -0.180820 0.293707 -0.619056 0.727648 0.112854 0.286503 -0.181135 0.470077 0.836700 -0.827069 0.122331 0.144162 0.484610 -0.060303 -0.326273 -0.893415 -0.600807 -0.286307 0.101496 0.015410 -0.062384 -0.268579 0.077588 -0.282991 -0.370950 -0.669127 -0.118313 -0.032815 -0.811188 0.047645 0.903041 0.452964 0.090091 0.078808 -0.488031 0.103576 0.162357 -0.718455
want -0.397828 0.609006 -0.825466 0.047897 -0.337908 -0.032234 -0.218670 -0.084606 0.340992 -0.094075 0.458272 -0.484791 0.097942 0.475324 0.370895 0.193193 -0.414329 0.179877 -0.137378 0.259054 0.060693 0.105215 -0.050043 -0.075661 0.277057 -0.024411 -0.124119 -0.834010 0.119410 0.037126 -0.203487 -0.460333 -0.459547 -0.222921 -0.383247 0.844535 0.138619 -0.261170 -0.247954 0.251759 -0.235933 -0.201103 0.368886 0.133396 -0.168552 -0.333717 -0.422223 -0.051899 0.245947 -0.187899
wo -0.010735 -0.216596 -0.131127 -0.158230 0.018136 -0.346894 -0.140589 0.558298 0.594744 -0.363817 -0.712333 -0.316943 0.036327 -0.282239 -0.526056 0.132106 0.157600 0.080014 0.351447 -0.644381 -0.392566 -0.345583 -0.407085 0.088867 -0.457729 -0.151360 -0.535032 0.951393 -0.314840 -0.391753 -0.036458 0.121531 -0.080798 0.204289 0.097742 0.084621 0.115314 -0.073480 0.056285 0.171068 -0.199073 -0.230633 -0.192468 0.462954 0.074214 0.002599 -0.281267 -0.385401 0.509856 0.044896
dance 0.321296 -0.461635 -0.437877 -0.729933 0.052666 0.730560 0.117721 -0.442374 -0.336370 -1.317908 0.771298 0.080650 0.332762 0.950543 -0.148353 0.309847 -0.188816 -0.375781 0.269020 -0.393847 0.459662 0.454820 -0.023209 -0.430049 -0.677978 -0.764217 0.254724 -0.011984 0.229304 0.309806 0.142539 0.343287 0.345311 0.176234 0.581504 -0.152862 -0.922890 -0.838593 -0.078486 -1.209286 -0.593899 -0.078268 -0.699873 0.422587 0.464345 0.196098 0.554476 -0.357361 -0.265713 0.216526
insane 0.372445 0.755780 -0.300438 -0.248623 0.195444 -0.112127 0.292634 0.706191 0.374987 0.652819 -0.822054 0.875894 -0.103674 -0.641912 -0.002637 0.314481 -0.399621 0.586541 -0.709095 1.622095 0.167602 -0.760356 0.125033 0.145000 0.833188 -0.240279 -0.829192 0.079991 -0.674596 -0.143051 0.867561 0.035720 0.720596 -0.340005 0.944636 -0.705046 0.393452 0.602858 -0.239167 0.469878 0.281250 0.302883 0.014523 -0.619497 -0.478092 -0.061062 0.499131 -0.708409 0.425589 0.060913
hard -0.069585 0.750477 -0.278666 0.039105 0.150656 -0.380109 0.407418 1.337946 -0.319557 -0.430889 -0.665505 -0.297518 -0.161367 0.102420 -0.979797 0.580721 0.239381 0.405745 -0.173166 0.641272 0.819126 -0.797826 0.283614 0.139945 0.520659 0.004138 -0.350808 -0.595721 -0.662524 -0.263623 0.197979 -0.184454 0.051128 -0.145144 -0.125976 -0.742646 -0.357916 -0.419468 -0.039951 0.139976 -0.707059 0.103199 1.070878 0.280534 0.142353 0.189330 -0.484754 0.140596 0.218753 -0.733493
la 0.156798 -0.233803 0.473416 -0.007231 0.458702 -0.268002 -0.371284 0.163776 -0.295647 -0.362692 -0.226577 -0.305410 0.545559 0.603476 -0.345253 0.210341 0.502339 -0.423041 0.640193 -0.909510 0.042717 0.110129 -0.082925 -0.344492 -0.238325 -0.166691 0.354680 0.565902 -0.042615 0.570920 -0.839637 -0.061858 0.035368 -0.076949 0.177198 -0.300067 -0.300038 0.248591 -0.230140 -0.336388 -0.235380 -0.435724 -0.274206 0.387178 0.465514 0.056559 -0.273848 0.184279 0.148929 -0.034114
understand 0.319636 1.068969 -0.313079 0.599497 0.192725 0.071133 0.083242 -0.325589 0.530806 0.216602 0.201431 -0.237399 0.122879 0.070028 -1.082306 -0.024354 -0.039583 0.121594 -1.052459 0.770298 0.168295 -0.654100 -0.460705 -0.670119 0.432278 -0.457460 0.004550 0.250622 -0.063743 -0.247564 0.783097 -1.201617 0.024659 0.216429 -0.643206 -0.428196 -0.425161 0.597228 0.344671 0.423486 -0.054628 -0.057124 1.329940 0.474273 -0.128576 -0.453900 0.076187 0.668516 0.117071 -0.228924
cause -0.248870 0.721473 -0.398395 -0.105429 0.105247 -0.246181 0.392341 0.629536 0.284724 -0.246928 -0.118233 -0.309820 -0.178374 0.322355 -0.163697 0.617885 -0.123620 -0.063753 -0.062823 0.201537 0.439668 -0.607083 -0.078521 -0.098424 0.380841 -0.025395 -0.353742 -0.513226 -0.344263 -0.396952 -0.024390 -0.169065 -0.110124 -0.184921 0.025393 0.081336 0.001039 -0.520910 -0.093793 0.159852 -0.490810 -0.072332 0.458477 0.317010 -0.004169 -0.129023 -0.535805 0.111466 0.264016 -0.590128
ruggish 0.872749 -0.423067 0.903645 0.238881 -0.450779 0.640434 -0.154710 -0.730512 -0.492714 -0.443412 -0.494114 1.185645 0.280461 0.593352 0.475586 -0.659050 0.147689 0.182515 0.203062 0.209569 -0.217461 0.451367 0.242952 0.548482 -0.016677 0.252779 0.885290 0.037094 -0.125248 0.406851 -0.279498 0.657766 0.516555 0.043876 0.137145 -0.778081 -0.114708 0.631629 0.026826 -0.435128 1.090047 -0.128292 -0.069160 -0.859899 -0.182302 0.163170 0.360046 -0.072544 -0.159879 -0.129918
thuggish 0.817877 -0.453245 0.887662 0.206315 -0.412810 0.567062 -0.183964 -0.690063 -0.493861 -0.412365 -0.497425 1.100155 0.288297 0.516634 0.400549 -0.635486 0.155599 0.193308 0.208777 0.133107 -0.221198 0.448880 0.222911 0.541494 -0.083178 0.212849 0.832407 0.079898 -0.112227 0.391247 -0.233953 0.629475 0.494138 0.070571 0.137105 -0.735391 -0.113114 0.628134 0.051685 -0.418168 0.997507 -0.102693 -0.124875 -0.768267 -0.136307 0.165985 0.344157 -0.086654 -0.141926 -0.079584
ass -0.485539 0.006844 -0.002982 -0.404022 0.602970 0.783557 -0.039570 -0.468090 -0.040794 0.313301 0.121191 0.185791 -0.585766 -0.197502 0.729275 0.013234 -0.036620 0.190448 -0.698281 1.613110 -0.059189 -0.287233 -0.445547 -0.356205 -0.261647 0.036266 -0.787264 0.042602 -0.615137 -0.463719 0.237621 -0.021123 0.026878 -0.194201 0.341383 0.230007 0.174476 -0.565646 0.583217 0.452821 0.079648 -0.306257 -0.173636 0.135371 -0.073177 -0.884233 -0.055830 -0.194876 0.014821 -0.521613
head 0.032021 0.685329 -0.641417 0.227218 -0.677519 -0.089729 0.159868 -0.327013 0.762456 0.428890 0.707841 -0.550929 -0.241380 -0.082273 0.708619 -0.080075 -0.662360 0.218523 0.191716 0.307423 -0.522629 0.243740 0.592664 0.298967 0.186060 0.750820 -0.381139 0.103291 0.356177 0.284001 -0.253284 -0.482096 -0.363595 -0.323345 -0.971578 0.858049 0.345024 -0.459100 0.011179 0.681191 0.619951 0.070784 0.309041 -0.193297 -0.203061 -0.121516 -0.317879 0.356096 0.121566 -0.317762
month 0.345024 -1.010101 0.264702 -0.244619 0.215824 -0.288875 -0.236812 1.104273 -0.977087 0.841899 -0.065809 -0.730112 0.043179 -0.751980 -0.230965 -0.539799 0.807074 0.154072 -0.159974 -0.132949 0.357901 0.645741 -0.345666 0.130557 -0.235238 -0.706322 0.215102 -0.147094 0.245982 0.325862 -0.664988 0.001566 -0.349436 0.105882 0.372189 -0.107653 0.143781 0.258885 -0.624437 0.807664 -0.198893 0.203147 -0.539652 -0.855641 -0.210892 -0.351193 0.758428 0.257459 0.030232 0.637522
pac 0.018734 0.613761 0.763448 0.359811 -0.382519 -0.493527 0.477456 -0.536883 0.140642 0.031475 0.019694 1.056350 -0.186024 1.049396 1.057412 0.324070 0.266630 -1.066025 0.726970 -1.303080 0.848699 -0.239387 -0.769814 -0.001035 -0.412704 -0.366242 0.103820 0.060900 -0.433117 -0.314984 -0.675956 0.286765 -0.036768 -0.189699 0.186207 -0.362168 0.905251 0.054396 -0.377028 -0.462437 0.117347 0.159885 -1.061654 0.122589 0.094766 0.329689 0.220977 -0.124296 -0.354542 0.449498
buck -0.309696 -0.399366 0.849291 0.147516 0.440500 -0.015553 -0.164545 0.208832 -0.346691 0.450366 -0.523441 -0.080607 -0.345647 -0.473710 -0.339833 -0.393633 0.297105 0.309651 -0.058062 -0.550809 -0.280155 0.760656 0.213641 0.120671 -0.350349 0.146990 -0.040088 0.453636 0.119944 -0.119028 -0.304410 -0.431235 0.178964 0.148807 0.009146 -0.632866 0.136835 0.719038 0.443216 -0.027298 0.406063 0.125903 -0.831290 0.038843 0.316190 -0.014705 -0.043347 -0.110526 0.382542 0.116123
feel -0.392372 0.137850 -0.602024 -0.334570 0.519958 -0.010496 0.197178 0.363809 0.237073 0.226045 0.336595 -0.538555 -0.251096 -0.354650 0.081751 0.297341 -0.077025 -0.286390 -0.148475 0.105508 0.141806 -0.099910 -0.505666 -0.210514 0.089599 -0.089213 -0.412838 -0.359421 0.179817 -0.401146 0.117288 -0.131657 -0.126340 -0.248973 0.244086 0.666362 0.211036 -0.302449 -0.060119 0.155552 -0.163328 0.039746 0.012864 0.302636 -0.241096 -0.050321 -0.249464 0.223021 0.129095 -0.399828
cash 0.301321 -0.978919 0.265964 0.037571 0.116109 -0.394222 -0.253876 1.109152 -1.030946 0.856936 0.006505 -0.821162 0.086794 -0.769079 -0.241807 -0.586616 0.851864 0.355669 -0.289045 -0.010398 0.317230 0.576564 -0.237354 0.208127 -0.065620 -0.624969 0.234081 -0.268594 0.200695 0.430335 -0.633178 0.055838 -0.480951 0.063986 0.382444 -0.049030 0.100851 0.399797 -0.739041 0.831689 -0.261894 0.128557 -0.330258 -1.014054 -0.306679 -0.481290 0.869511 0.266429 0.015149 0.704139
family 0.038981 -0.483776 -0.558267 -0.546673 0.195387 0.709374 0.086241 -0.015080 -0.224869 -0.890192 0.464062 -0.179978 0.192681 0.749057 -0.091585 -0.036365 -0.156108 -0.127356 0.202102 -0.167337 0.337214 0.495391 0.178846 -0.385594 -0.492764 -0.503896 0.103402 -0.323772 0.272257 0.066512 0.210515 -0.022354 0.186494 -0.088600 0.421650 0.218946 -0.711951 -0.482202 0.103067 -0.844350 -0.562159 -0.281032 -0.788458 0.077249 0.282769 0.185635 0.385745 -0.310058 0.034089 0.139287
kill 0.342286 1.140590 0.017197 0.483996 0.209540 -0.237013 0.245957 -0.076337 0.736112 0.601884 -0.146933 -0.093162 0.008220 -0.117871 -1.073122 0.042948 -0.084934 -0.084759 -0.850460 0.531005 0.231106 -0.949278 -0.649189 -0.627545 0.379322 -0.483017 0.098913 0.542557 -0.160002 -0.496079 0.723448 -1.351298 0.150400 0.279135 -0.683396 -0.626268 -0.062056 0.646208 0.468509 0.787612 0.125012 -0.019845 1.197204 0.408224 -0.066365 -0.302038 -0.082066 0.852046 -0.028343 -0.284660
mind 0.115171 -0.294346 -0.436622 -0.349531 -0.053345 0.132155 -0.031647 0.249782 0.182479 0.071431 0.114376 -0.203683 0.204887 -0.135137 0.031560 -0.328213 -0.102152 -0.029118 0.060580 0.051206 0.093884 0.069615 0.030111 0.060076 -0.343097 -0.298047 0.146232 -0.848489 0.511265 -0.094930 0.578570 -0.244936 -0.295080 -0.033356 -0.005486 0.496084 -0.453576 0.042048 0.017943 -0.036029 -0.170975 0.071479 -0.024013 0.233632 0.094428 0.203547 -0.214833 -0.026112 -0.103161 0.065780
roses -0.131482 -0.000245 -0.792026 -0.316304 -0.053423 0.002433 -0.246843 0.466644 0.626578 0.575374 -0.051551 -0.431280 -0.282834 -0.809106 -0.015531 0.124311 -0.151940 0.241158 0.028098 0.214348 -0.284378 -0.053538 -0.113334 0.015966 0.179213 0.168868 -0.329916 -0.046571 0.668572 -0.232010 0.252024 -0.466402 -0.007225 0.011405 -0.373944 0.830753 0.109687 -0.231389 0.022125 0.720786 0.204193 0.121215 -0.086044 0.123305 -0.095715 0.428746 -0.264247 0.117386 0.073681 -0.309808
word -0.335915 0.207960 -0.210735 -0.097370 0.120483 -0.005246 -0.034008 -0.088975 0.310131 -0.131001 0.220399 -0.379422 -0.053179 0.359592 0.024554 0.154790 -0.070199 -0.084153 -0.212324 0.131903 0.069271 -0.318772 -0.343325 -0.054983 -0.041731 -0.223632 0.059870 -0.509989 0.019317 -0.332465 0.190807 0.051908 -0.114181 -0.020411 0.356293 0.100322 -0.226040 -0.173777 0.061958 -0.063475 -0.296701 -0.112731 -0.048832 0.450093 -0.074861 -0.190862 -0.248417 -0.141113 0.134765 -0.026045
yes 0.531037 -0.274471 -0.563726 -0.658146 -0.775003 0.605035 0.072203 -0.381928 0.020932 -0.887586 1.212046 0.514657 0.457550 0.226509 0.140213 0.531225 -0.331171 0.556213 0.038544 0.000960 -0.142221 0.883980 0.206377 -0.134525 -0.933172 -0.257855 0.296131 0.258736 0.520767 0.789382 0.054168 0.252380 0.398210 0.599882 0.490042 -0.102354 -0.863603 -0.324645 -0.114045 -0.994968 -0.699060 -0.139497 -0.066030 0.530737 0.890321 0.422361 0.905907 -0.681593 -0.289338 0.614397
baby -0.231510 -0.109096 -0.465573 -0.097855 0.016716 0.069210 -0.068619 0.185605 0.339166 0.194568 0.000597 -0.333118 0.078990 -0.104530 0.007500 -0.107105 -0.218074 0.037158 -0.136278 0.004955 -0.000646 0.249965 -0.178612 -0.160064 0.065889 -0.106810 -0.126246 -0.250992 0.314035 -0.203382 -0.045747 -0.191130 -0.001343 -0.114228 0.013916 0.521537 -0.039007 0.077476 0.126588 0.165486 -0.083942 -0.040482 -0.259200 0.028548 -0.164361 0.119093 -0.021312 -0.016678 0.194290 0.008102
game 0.034296 -0.199755 -0.107534 0.019736 -0.262350 -0.265264 -0.092488 0.070471 -0.097759 0.169936 0.172355 -0.163251 0.150950 -0.254881 -0.084090 0.112731 0.034814 -0.000722 -0.004563 0.116604 -0.108161 -0.261314 -0.010931 0.139619 0.235581 -0.073374 -0.131428 -0.136166 -0.005430 0.137464 0.260161 0.258453 -0.209569 0.121953 0.042558 0.297563 -0.035013 -0.264433 -0.215007 -0.114523 -0.334838 0.066307 0.322919 -0.017310 0.056169 -0.091649 0.089244 -0.081499 -0.149126 0.133909
smell -0.047476 0.029736 -0.730188 -0.480245 -0.023856 -0.021161 -0.064163 0.427811 0.620284 0.501290 0.013159 -0.389426 -0.249650 -0.857160 -0.104078 0.166047 -0.333442 0.064178 0.053233 0.131080 -0.280163 -0.154395 -0.077357 0.002804 0.023751 0.090616 -0.293973 0.154470 0.677067 -0.229777 0.359944 -0.427412 0.147991 0.112206 -0.246586 0.645685 0.072423 -0.191113 0.118709 0.646389 0.236276 0.180513 -0.150388 0.205940 0.021577 0.530775 -0.249309 0.113057 0.005469 -0.246145
world 0.060078 -0.023078 0.142758 -0.078682 0.039240 0.183434 -0.025729 -0.029078 0.447172 -0.056942 -0.433378 -0.104094 -0.238752 -0.381640 0.174994 -0.021642 -0.179119 0.510603 -0.066807 0.056349 -0.580466 0.116645 0.724005 0.162460 0.093491 0.481777 0.071221 0.380823 0.164469 0.200794 -0.229788 -0.073247 0.092133 -0.218690 -0.157468 -0.083918 -0.187638 0.164215 0.126987 0.292970 0.347024 -0.179120 -0.034828 -0.450562 0.002679 -0.062745 -0.095762 -0.158824 0.018621 -0.070823
gettin 0.090552 0.059043 -0.122645 -0.174006 -0.015101 0.018629 -0.007013 0.137711 0.252603 0.226305 0.043760 -0.254745 -0.146129 -0.226862 -0.193149 0.186895 -0.145118 0.049368 -0.125056 0.123125 -0.171699 -0.290544 0.012658 0.048542 0.278083 0.038947 0.132110 -0.295610 -0.049226 0.070978 -0.031116 0.034278 0.096984 0.128257 -0.035096 0.209384 -0.043992 -0.202831 -0.025478 0.211222 -0.245566 0.072883 0.436509 0.021806 -0.046183 0.068005 -0.062559 0.133767 -0.088726 -0.293241
hear -0.578133 0.287204 -0.358440 0.138608 0.034129 -0.232755 -0.235814 0.004585 0.482058 0.273027 0.325192 -0.749796 0.237132 0.149860 0.524106 0.193518 -0.057421 0.128437 0.027630 -0.171486 -0.442839 -0.049223 -0.285331 -0.068937 -0.125890 -0.008537 -0.194825 -0.713796 0.189291 -0.189479 -0.095635 0.058859 -0.425595 -0.010049 0.005457 1.040748 0.247603 0.139885 -0.153666 0.218573 -0.479644 -0.071975 -0.040728 0.211508 0.055330 -0.336395 -0.190724 0.190664 0.295993 0.180877
life -0.340283 0.235423 0.014286 0.038749 0.149487 -0.071223 0.087347 -0.042866 0.237632 -0.098302 0.065813 -0.058074 -0.068641 0.373495 0.188601 0.250299 -0.007108 -0.349100 -0.075055 -0.055363 0.054246 -0.438656 -0.373128 -0.036088 0.086513 -0.153119 -0.127087 -0.363907 -0.068637 -0.390844 0.229056 0.337354 -0.049296 -0.119542 0.580916 0.194449 -0.033054 0.047708 -0.103556 -0.318925 -0.196351 -0.041307 -0.095046 0.291064 -0.214068 -0.156876 -0.071504 -0.089882 -0.109560 -0.059489
checks 0.314301 -1.078683 0.252246 -0.069564 0.137228 -0.290201 -0.360084 1.121046 -1.085457 0.791547 -0.155395 -0.656377 0.076169 -0.693253 -0.202532 -0.584024 0.858429 0.335293 -0.154946 -0.165786 0.359739 0.716823 -0.207908 0.197702 -0.196867 -0.641656 0.289216 -0.188119 0.245423 0.433172 -0.715536 0.014660 -0.416193 0.068647 0.335777 -0.061251 0.075052 0.320740 -0.682969 0.770636 -0.195665 0.128197 -0.452753 -0.981969 -0.209959 -0.350946 0.803089 0.156748 -0.008925 0.706938
boy -0.198348 0.225340 -0.000862 -0.398779 0.327170 0.032426 0.234726 -0.014751 0.258266 -0.010067 0.320956 -0.215531 -0.165319 -0.090438 -0.050425 0.387573 -0.063782 -0.281711 -0.041525 0.011762 -0.020460 -0.299624 -0.551322 -0.248413 -0.094226 -0.164015 -0.341086 -0.245784 -0.106096 -0.493110 0.194509 0.089043 0.012052 0.017486 0.135092 0.237909 0.033889 -0.387552 0.301502 -0.077031 -0.368139 0.226268 0.048386 0.580325 -0.050468 -0.402935 -0.305755 0.209279 0.057441 -0.305948
fuckin 0.076390 -0.177839 -0.243579 -0.409606 0.212489 0.378049 0.227602 -0.002852 0.254777 -0.088804 0.112259 0.007799 0.062952 -0.039774 0.196173 -0.047437 -0.208691 -0.306285 0.074850 0.136715 -0.089433 -0.002018 0.037433 -0.027133 -0.282951 -0.025606 0.028891 -0.508878 0.291420 -0.139894 0.452109 0.022717 -0.043314 0.047804 0.159524 0.253965 -0.323452 -0.197406 0.086375 -0.185076 0.061671 0.067812 -0.123057 0.266293 0.120451 0.171991 -0.301344 0.017227 -0.105970 -0.268681
rhyme -0.050450 -0.351622 -0.891704 -0.022282 -0.387080 0.013165 -0.102588 -0.307056 0.509867 -0.648319 0.035639 -0.186279 -0.033696 -0.377143 -0.657765 -0.219687 -0.444036 0.546719 -0.345989 -0.902661 0.202250 0.779452 0.370410 0.358510 -0.372756 -0.197576 0.990914 0.144893 0.848209 -0.285825 0.309823 -0.002095 0.233141 0.196235 0.208898 -0.613425 -0.396268 -0.263520 0.564423 0.346036 0.756701 0.377901 -0.793389 0.381163 0.119782 1.099194 -0.017077 -1.191899 0.250215 0.517768
roll 0.033877 0.137101 0.251891 0.002556 -0.026358 -0.168109 0.026177 -0.061769 0.218683 -0.009821 -0.270043 0.205250 0.003362 0.049076 -0.082662 0.177576 -0.058110 -0.003877 -0.039667 0.127830 -0.193760 -0.307815 -0.114365 0.119785 0.153511 0.032289 -0.037690 0.118447 -0.162166 -0.093086 0.193513 0.232934 0.158694 0.120376 0.065566 -0.258047 -0.031052 -0.028788 -0.004893 -0.210271 -0.027771 -0.127184 0.215101 -0.095209 0.038314 -0.078553 -0.134324 0.090930 -0.048479 -0.336829
bong -0.675819 -0.476846 0.487598 -0.523855 0.605080 0.537198 0.226352 -0.010640 -0.280565 -0.285799 -0.297133 0.001943 -0.601330 -0.132107 0.347941 0.105127 0.015571 -0.238255 -0.167435 -0.032978 -0.205133 -0.108364 0.276790 0.011533 -0.414468 0.132792 0.669208 0.403780 0.653750 0.375682 -0.322100 0.068061 0.625332 0.329443 0.201657 -0.623472 -0.483110 -0.051417 -0.295489 -0.057021 0.600771 -0.325884 -0.740492 -0.214006 0.059200 0.167467 -0.089879 -0.282580 -0.372181 0.056033
bring -0.332361 -0.125359 -0.235668 -0.489997 0.547048 0.170027 0.046472 0.338257 0.193221 0.343253 -0.120572 -0.346484 -0.227712 -0.337764 -0.133263 0.151307 -0.176576 -0.280772 -0.217708 0.130144 0.011539 0.055470 -0.508234 -0.261788 -0.027458 -0.271852 -0.200897 0.085315 0.077475 -0.313279 0.026082 -0.061438 0.304105 -0.017107 0.190505 0.135508 0.108702 -0.167770 0.210493 0.237446 -0.063704 0.059105 -0.415294 0.198323 0.057947 -0.026827 -0.111640 0.111762 0.084327 -0.259047
inside 0.191676 -0.255949 -0.163874 -0.322771 0.035227 0.107612 0.122497 0.185441 0.127752 -0.140205 0.017709 -0.024164 0.185263 -0.042635 0.019467 -0.269943 -0.086717 -0.312461 0.249663 -0.170604 0.134260 -0.066015 0.210814 0.090588 -0.335392 -0.078824 0.119758 -0.527258 0.302990 -0.157269 0.511225 0.024128 -0.147826 -0.063433 0.004439 0.268984 -0.345632 0.064574 0.123588 -0.303518 -0.125701 0.144509 0.040146 0.328027 0.033928 0.364115 -0.242108 -0.003793 -0.111430 0.137633
long 0.513915 0.427805 0.459826 0.265609 -0.493608 -0.494569 0.336641 -1.076430 -0.041638 -0.064028 0.797148 0.447777 0.399452 -0.359756 0.001799 0.373000 -0.321101 0.213017 0.209415 0.044195 -0.406993 -0.078861 0.746927 -0.013197 0.279193 0.545383 0.336224 0.609423 0.000086 0.728003 0.264891 0.363909 -0.077927 0.546309 -0.675492 -0.566375 0.170868 -0.371236 -0.057505 -0.068469 -0.282982 0.428289 0.600745 -0.034853 0.687957 0.414134 0.034428 0.021063 -0.235213 0.539404
pray -0.130465 -0.270291 0.194171 0.105157 0.063487 -0.268031 -0.993892 -0.445995 -1.166893 -0.306544 -1.091813 0.740408 0.294127 0.392742 -0.168623 0.113394 0.703797 -0.367496 0.260238 -0.364327 0.665233 0.146145 -0.331053 0.130042 -0.374877 -0.594783 -0.345614 0.144965 -0.443645 -0.465313 0.511581 0.703430 -0.252687 0.480626 -0.169352 -0.419615 -0.186438 -0.363609 -0.274394 -0.799111 -0.032976 0.574326 -0.115226 0.283209 0.161392 0.061874 -0.234398 -0.452066 -0.193709 -0.103826
shake 0.427510 -0.338354 0.130486 -0.053789 -0.142304 0.341713 -0.380784 -0.178719 -0.272446 -0.329860 0.050728 0.342501 0.157228 0.311506 0.398636 -0.341015 0.017517 0.047639 0.376273 -0.346868 -0.022639 0.887822 0.320170 0.011926 -0.517855 -0.052259 0.318838 0.447332 0.182940 0.399389 -0.536782 -0.230824 0.038110 0.172107 -0.279573 -0.238145 -0.008736 0.003696 -0.186788 0.054057 0.507755 -0.067411 -0.460947 -0.278281 0.362209 0.112053 0.067075 -0.252914 -0.026699 0.466450
things -0.094936 0.195571 -0.506356 0.225413 -0.385372 -0.249985 0.071577 0.075807 0.423598 0.506068 0.604542 -0.410029 -0.051014 -0.462402 0.418461 -0.064625 -0.339335 0.306437 -0.042758 0.355294 -0.352530 -0.177071 0.336345 0.225341 0.281315 0.443288 -0.409018 -0.023073 0.246569 0.270559 0.136657 -0.202410 -0.334859 -0.335579 -0.508421 0.948785 0.221404 -0.241735 -0.116660 0.355203 0.136278 0.080770 0.277912 -0.160893 -0.203535 0.002213 -0.027115 0.318735 -0.068037 -0.063872
thugs 0.346111 -0.269463 0.330311 -0.045517 -0.074240 0.299112 0.096875 0.035027 -0.044877 -0.078739 -0.085467 0.252050 0.095005 0.318133 0.292914 -0.279399 0.084740 -0.068453 -0.038925 0.372582 -0.086798 -0.009611 -0.225519 0.257864 0.065658 -0.046774 0.322225 -0.351403 -0.000632 0.056435 -0.098336 0.488394 0.185720 -0.096518 0.514636 -0.172881 -0.120223 0.207923 -0.178596 -0.193734 0.353452 -0.179441 -0.050427 -0.447461 -0.289677 -0.067397 0.235655 0.127101 -0.029460 -0.228774
wrong 0.088174 -0.004483 -0.600421 0.470040 -0.230563 0.049707 -0.699315 -0.263163 -0.430741 -0.440419 0.021521 -0.258287 0.408173 0.416489 0.168893 -0.088965 0.105222 0.562459 0.313611 -0.094560 0.024623 0.598328 0.470578 -0.038941 0.274398 0.313832 0.052919 -0.146940 -0.054978 0.665244 -0.483984 -0.194561 -0.738667 -0.300270 -0.394952 0.510037 -0.008497 -0.062270 -0.301021 -0.057643 0.007069 -0.422995 0.273348 -0.166963 0.160479 -0.127939 -0.182928 -0.417424 0.297136 0.071564
big -0.400761 0.066000 -0.353663 -0.178339 0.191702 -0.066190 0.014834 0.175933 0.215450 0.189767 0.228570 -0.457938 -0.031586 -0.305069 -0.174368 0.095768 -0.099050 0.037122 -0.243024 0.088447 -0.211176 -0.065097 -0.354741 -0.006254 -0.056036 -0.014425 -0.223604 -0.337829 0.185283 -0.176405 0.318697 -0.012890 -0.113138 -0.020636 0.263821 0.464847 0.003215 0.219322 0.147712 0.085377 -0.298956 0.039462 0.059672 0.375371 -0.141606 -0.041993 -0.075668 0.116583 0.098743 -0.122854
brain 0.206110 0.714764 -0.152639 0.049216 0.020645 -0.261035 0.298339 0.428594 0.329266 0.518788 -0.519178 0.640823 0.029376 -0.598095 -0.109555 0.218174 -0.320347 0.624988 -0.644170 1.352257 -0.017280 -0.603093 0.392895 0.147850 0.787137 -0.017923 -0.661301 0.041196 -0.578298 0.038114 0.820030 0.021197 0.508884 -0.227938 0.526866 -0.642889 0.321528 0.604134 -0.175766 0.346768 0.065591 0.359913 0.222516 -0.495495 -0.356979 -0.099893 0.431270 -0.540184 0.340555 0.238690
everybody 0.161535 0.475479 0.512120 0.221412 -0.392854 -0.634274 0.369955 -0.800172 0.620725 0.440427 0.704571 -0.076790 0.381822 -0.662171 0.108432 0.386480 -0.557359 0.239256 0.030254 0.114748 -0.948174 -0.566536 0.477891 0.203663 0.231870 0.556158 0.215738 0.319570 0.091978 0.354851 0.443407 0.492339 -0.039637 0.609655 -0.455566 -0.020111 0.407126 -0.071901 0.081388 0.384852 -0.371851 0.414095 0.588610 0.040300 0.523401 0.180200 -0.137673 0.275268 -0.078038 0.464765
g -0.345946 -0.031950 -0.130071 0.007714 0.103426 0.045533 -0.171757 0.179758 0.073950 0.110600 -0.061922 -0.172796 -0.023502 -0.029999 -0.049483 -0.001824 0.106853 0.259210 -0.400288 0.460586 -0.155878 -0.075976 -0.241102 0.055425 0.084913 -0.005851 -0.091338 -0.308626 -0.181985 -0.009461 0.261504 0.066474 -0.024571 -0.034655 0.201380 0.164812 -0.009533 0.154897 0.047917 0.137639 -0.379494 -0.162416 0.130026 0.128713 -0.092611 -0.249741 0.112306 -0.057087 0.112919 -0.042690
ghetto 0.262567 -0.350943 0.335278 -0.127318 0.065714 -0.066755 -0.495788 -0.388303 -1.023630 -0.637254 -0.601173 0.911186 0.228568 0.749800 0.078456 0.072884 0.709683 -0.709616 0.556654 -0.620656 0.845602 -0.019400 -0.258035 0.079588 -0.354905 -0.593387 -0.114396 -0.061343 -0.281399 -0.371253 0.138460 0.780549 -0.192819 0.320853 0.374039 -0.694650 -0.318748 0.004219 -0.237005 -1.158132 0.001931 0.396269 -0.384347 0.062366 0.008528 0.180372 0.004809 -0.363860 -0.372853 0.215648
girls 0.058674 -0.333593 -0.853194 -0.528021 0.159292 -0.160126 -0.047138 0.086319 -0.050107 0.813770 -0.277325 -0.171850 -0.122924 -1.745971 -0.378238 0.134715 -0.849660 0.006411 -0.371848 -0.239983 -0.621444 0.650034 -0.142802 0.011944 -0.709658 -0.173847 -0.546424 0.720126 0.441779 -0.004691 0.592958 -0.250830 0.660585 0.517475 -0.080312 0.592783 0.313364 0.426092 0.407620 0.343221 0.615774 0.405086 -0.833471 0.159006 0.539755 0.749829 -0.219343 0.094646 0.019204 -0.353032
gone 0.569649 0.355947 0.547714 0.289048 -0.563945 -0.300909 0.588231 -1.088180 0.020863 -0.313693 1.091927 0.512457 0.401604 -0.142502 0.042146 0.394084 -0.358344 0.227294 0.198938 -0.039967 -0.441009 0.046562 0.822442 -0.067629 0.162377 0.588506 0.466651 0.678220 -0.015344 0.907042 0.082466 0.418617 0.069810 0.480796 -0.536515 -0.670474 0.054008 -0.308775 -0.003466 -0.285824 -0.376147 0.316746 0.546472 0.021034 0.721782 0.336831 0.256751 -0.035710 -0.262961 0.605559
hail 0.040246 -0.549140 -0.072380 -0.200814 0.243217 -0.234705 -0.164972 0.625841 -0.621491 0.329927 -0.113219 -0.017524 -0.037329 -0.010686 -0.014164 0.169621 0.270790 -0.087383 0.203809 -1.135124 0.566484 0.536889 -0.266367 -0.143143 -0.014350 -0.492406 0.500352 0.080436 0.341829 0.330560 -0.897387 -0.334279 -0.144237 -0.097869 0.283119 0.209140 0.343902 -0.060696 -0.409259 0.294497 -0.028979 -0.099300 -0.769272 -0.610340 -0.124306 0.294807 0.565938 0.077730 -0.255795 0.177811
ready 0.046164 0.381516 -0.316094 -0.009326 -0.132803 0.093163 0.089584 -0.187184 0.310230 -0.041999 0.249836 -0.032790 0.024852 0.222383 0.051827 0.185354 -0.267442 -0.127820 -0.078380 0.227192 0.027174 -0.212782 -0.088359 -0.127039 0.261289 -0.022996 0.023554 -0.136977 0.136032 0.118769 0.086840 -0.275038 -0.000672 0.015155 -0.095672 0.158320 -0.041848 -0.065581 -0.089629 0.092024 0.112662 -0.139462 0.298887 0.049173 -0.114233 0.020610 -0.105459 0.200494 0.001789 -0.323708
tried -0.056114 0.625823 -0.151612 0.063670 0.120152 -0.322772 0.390203 1.106875 -0.021075 -0.196173 -0.455632 -0.287406 -0.074519 0.112974 -0.925596 0.450983 0.169237 0.369710 -0.319476 0.722958 0.637252 -0.957283 -0.019938 0.008871 0.469593 -0.148216 -0.233974 -0.512314 -0.520397 -0.254776 0.269640 -0.242821 0.043059 -0.107479 -0.019088 -0.585349 -0.366091 -0.259042 0.025399 0.279713 -0.667390 -0.004256 1.014137 0.306555 0.064938 -0.020777 -0.363150 0.235139 0.187495 -0.543663
damn -0.042942 0.106046 0.004732 -0.012956 0.090613 -0.082353 -0.090047 0.003045 0.164948 0.167028 -0.074893 -0.213870 -0.050194 -0.015687 -0.106531 -0.040489 0.052787 -0.053124 -0.090465 0.040939 -0.046842 -0.167948 -0.200948 0.091399 0.023168 -0.088044 0.009357 -0.237260 0.075864 -0.165901 0.135805 -0.122807 -0.082675 0.081217 -0.039647 0.069167 -0.102957 0.161694 0.031895 0.145544 -0.072642 0.033401 0.153261 0.172626 -0.092113 -0.064762 -0.179035 0.123494 0.079178 -0.077103
hits -0.715755 -0.389031 0.576957 -0.615415 0.733151 0.621833 0.324058 0.000174 -0.321056 -0.388878 -0.350773 0.138705 -0.647834 -0.018331 0.435549 0.198270 0.044319 -0.256833 -0.209122 0.131107 -0.116611 -0.209920 0.303790 -0.038492 -0.418238 0.098776 0.679241 0.412547 0.574815 0.375056 -0.285155 0.127933 0.748849 0.295883 0.360232 -0.844434 -0.541779 -0.051708 -0.342473 -0.157475 0.589546 -0.357797 -0.801742 -0.232492 0.035664 0.133265 0.002328 -0.358485 -0.385861 0.079041
mad 0.152429 -0.278397 -0.100942 -0.269045 0.008372 0.258565 -0.127287 0.162039 0.219731 0.007552 -0.130889 -0.089441 0.136030 -0.024390 -0.069253 -0.341132 -0.046154 0.010707 0.054553 -0.094933 -0.208190 0.304543 0.207073 0.065974 -0.313710 0.075584 0.252985 -0.600712 0.219491 0.037617 0.204591 -0.216838 -0.175715 0.038209 -0.227412 0.336075 -0.321736 0.217474 0.179451 0.026582 -0.158160 -0.032237 0.113341 0.231253 0.063357 0.181792 -0.310699 0.016842 0.065401 -0.062575
mary 0.104339 -0.379699 -0.035183 -0.171409 0.145326 -0.266701 0.058079 0.439925 -0.440685 0.236113 0.001599 0.249546 0.045812 0.201654 0.078435 0.323013 0.176618 -0.323559 0.269616 -1.219046 0.566511 0.391844 -0.461891 -0.185187 -0.056896 -0.508114 0.386257 0.247734 0.294778 0.210298 -0.775827 -0.269601 -0.082650 -0.053136 0.373373 0.174812 0.452690 -0.063472 -0.410008 0.082018 0.073053 -0.140734 -0.833512 -0.485735 -0.061902 0.322200 0.514537 0.147840 -0.218679 0.084502
o -0.357964 0.031213 -0.072143 0.030263 0.010498 -0.263875 -0.233906 0.100908 0.104299 0.258459 -0.121572 -0.329274 0.140736 -0.212286 0.055807 0.119813 0.050630 0.119127 -0.060894 -0.121113 -0.449300 -0.031072 -0.245032 0.107728 -0.200733 0.016360 -0.049898 -0.145041 -0.035599 -0.145810 0.238414 0.185477 -0.124908 0.375853 -0.055302 0.240598 0.266703 0.262400 0.002404 0.201220 -0.343659 0.098761 -0.029933 0.164069 0.282862 -0.041409 -0.131381 0.053124 0.180929 0.168287
stop -0.047159 -0.239738 0.192091 -0.111177 -0.031598 -0.004626 -0.163436 0.458028 0.331908 0.086404 -0.559192 -0.300468 0.011108 -0.010836 -0.515873 -0.194465 0.178596 0.199151 0.027365 0.494973 0.089303 -0.621976 -0.146817 0.072896 0.148985 -0.262825 0.104224 -0.075541 -0.007013 -0.274216 0.237855 0.043883 0.009619 0.021969 0.189226 -0.378940 -0.430904 -0.220727 0.102500 0.348986 -0.197438 0.009149 0.270577 0.053970 -0.015613 -0.139289 -0.245766 -0.169645 0.044033 0.175185
thing -0.209320 0.115157 0.102636 0.089273 0.145954 -0.033107 -0.183897 0.200740 0.213186 -0.057171 -0.195901 -0.293666 0.054244 0.317883 -0.319036 -0.020333 0.197090 0.172239 -0.329296 0.168903 0.135897 -0.302672 -0.169420 -0.079131 0.296551 -0.153225 0.186840 -0.509841 -0.148454 -0.070804 0.006761 -0.063462 -0.240186 -0.021097 0.066477 -0.035609 -0.292185 0.028384 -0.078460 0.196255 -0.480035 -0.135441 0.421675 0.192479 -0.234217 -0.227648 -0.069280 0.008237 0.059610 0.020242
away -0.101065 0.711274 -0.087430 0.033877 0.069440 -0.293319 0.396898 0.974543 -0.137150 -0.398005 -0.566792 -0.030744 -0.165005 0.391449 -0.651460 0.541329 0.232539 0.217035 -0.130834 0.604203 0.814091 -0.904460 0.113684 0.121006 0.464363 -0.072392 -0.219587 -0.687562 -0.663545 -0.309989 0.170471 -0.021340 0.056065 -0.214754 -0.005273 -0.662532 -0.315310 -0.407037 -0.027981 -0.030537 -0.638544 0.053157 0.913678 0.342256 0.054411 0.006643 -0.427412 0.052320 0.116393 -0.613577
bad -0.202970 0.058841 0.109345 -0.455383 0.579713 0.242296 0.224628 -0.052957 -0.031166 -0.127908 0.175565 0.028999 -0.230925 -0.080591 0.032314 0.342016 0.076877 -0.336142 -0.062686 0.188772 0.087109 -0.211950 -0.494036 -0.290449 -0.129196 -0.139566 -0.483218 -0.107219 -0.172996 -0.574567 0.181353 0.260919 0.052524 -0.087863 0.360554 0.073992 -0.036544 -0.378893 0.346519 -0.288980 -0.219033 0.223639 -0.090119 0.493748 -0.136334 -0.424164 -0.229654 0.032834 0.022835 -0.311367
friend 0.244450 -0.699295 -0.082770 -0.559701 0.206098 0.657262 0.128733 -0.082324 -0.338793 -0.977176 0.390311 0.149166 0.256222 0.781422 -0.074543 0.069704 -0.066863 -0.253469 0.291273 -0.377123 0.333437 0.363137 0.163618 -0.307026 -0.576960 -0.630141 0.320343 -0.083891 0.214442 0.236728 0.017092 0.303079 0.335280 0.019616 0.659223 -0.117111 -0.764632 -0.428789 -0.025900 -0.921709 -0.500830 -0.140373 -0.826341 0.079574 0.360748 0.131447 0.532309 -0.360301 -0.251138 0.332852
good -0.152170 0.219095 0.075529 0.161195 0.227207 -0.180869 0.038139 -0.000404 0.208253 0.041866 0.103055 -0.273547 0.029574 0.064356 -0.076170 0.055893 0.057159 -0.056690 -0.142887 0.041328 -0.009133 -0.263686 -0.098868 0.049307 0.124709 -0.018371 -0.102506 -0.289987 -0.018859 -0.212135 0.132638 0.032303 -0.223213 -0.051700 0.142768 0.101030 -0.032706 0.172241 0.038790 0.040183 -0.185879 0.023063 0.242101 0.205040 -0.216910 -0.235452 -0.098022 0.099712 0.042753 0.036195
illusions 0.499667 -0.704293 0.332544 -0.354187 -0.160230 0.406165 -0.008985 -0.124889 -0.204993 -0.310122 -0.486071 0.768908 0.229479 -0.013365 0.118302 -0.561744 -0.054827 -0.095459 0.434472 -0.341481 -0.136476 0.624696 0.620883 0.234371 -0.700370 0.125649 0.479227 -0.009516 0.237022 0.209516 0.336530 0.119887 0.150086 0.232616 -0.208200 -0.409623 -0.388902 0.186329 0.311622 -0.343404 0.353032 0.185378 -0.425995 0.004832 0.455093 0.621490 -0.183824 -0.393041 -0.147163 0.284865
black 0.080867 0.247579 0.007221 0.230667 -0.202704 -0.205532 0.070326 0.016179 0.215175 0.143700 0.217722 -0.167995 -0.018704 -0.060277 -0.090314 0.163692 -0.115649 0.115539 -0.189625 0.145946 -0.118158 -0.292305 -0.033552 -0.015819 0.313508 0.092788 0.043572 -0.160125 -0.185011 0.159169 0.022667 -0.071086 -0.089320 0.044628 -0.187405 0.080018 0.070685 0.017937 -0.123312 0.142717 -0.313821 -0.058030 0.430009 -0.005157 0.011332 -0.175639 -0.050495 0.131666 0.055755 -0.082502
bust 0.070744 0.235139 -0.011880 -0.131018 0.090432 -0.179339 0.120356 0.224863 0.402747 0.350041 0.052313 -0.312839 -0.021515 -0.063002 -0.254422 0.092892 0.000721 -0.208669 -0.128367 0.133315 -0.094968 -0.420255 -0.401875 -0.004908 0.091004 -0.197973 -0.046941 -0.123531 0.003410 -0.196166 0.132030 -0.173564 0.042121 0.152227 -0.040067 -0.079440 0.134643 -0.090971 0.051591 0.352084 -0.150503 0.020000 0.197041 0.117497 -0.025465 -0.066023 -0.210917 0.239477 0.169330 -0.126062
forever 0.307193 -0.082213 -0.024978 -0.393545 0.102821 -0.093440 -0.416853 -0.092320 -0.406379 -0.310164 -0.268584 0.381781 0.089796 0.129106 -0.201769 -0.086300 0.503991 0.074237 0.040546 0.034811 0.415782 0.499290 -0.103706 0.161184 -0.349648 -0.394197 -0.065578 -0.060494 0.024724 -0.074732 -0.029205 0.165734 -0.053201 0.034873 0.150742 -0.310062 -0.351526 -0.195006 -0.216511 -0.333258 -0.066862 0.217235 -0.329285 0.084374 0.193809 0.291612 0.109197 -0.369662 0.128629 0.288131
god 0.046943 0.066453 -0.176377 0.059753 -0.101817 -0.092859 -0.068727 0.165228 -0.071447 -0.013406 0.084603 -0.155093 0.055106 0.112980 -0.066767 0.046533 0.046630 0.126073 -0.051858 0.240778 0.075072 0.000885 -0.138605 0.134830 0.127630 -0.090733 -0.028578 -0.386102 -0.121905 0.029954 0.053152 0.044948 -0.112264 -0.006669 0.124468 0.051903 -0.049789 -0.102466 -0.184030 -0.068627 -0.215617 -0.071203 0.122780 -0.037648 -0.039099 -0.142996 0.053941 -0.023406 0.112818 -0.102608
home 0.083502 0.121896 -0.099540 0.264977 -0.164711 -0.162529 0.094740 -0.003399 0.052085 0.066716 0.336858 -0.351602 0.130561 -0.120526 -0.263727 0.039477 -0.044026 0.143434 -0.152483 0.201547 -0.081699 -0.128061 0.116265 -0.053445 0.379045 0.053294 0.009870 -0.117088 0.021533 0.180121 0.104375 -0.129724 -0.164466 0.021774 -0.180983 0.123604 -0.102269 -0.013426 -0.100620 0.133798 -0.300147 -0.041146 0.470310 -0.050612 -0.011686 -0.142867 0.067286 0.213332 0.019446 0.043312
ride 0.032877 -0.233913 0.150936 -0.360027 0.449301 0.103008 -0.034473 -0.155585 -0.548789 -0.500316 0.146299 0.396687 0.168719 0.734566 0.112176 0.509257 0.219046 -0.641615 0.319685 -0.652079 0.580883 0.051225 -0.356675 -0.453556 -0.226992 -0.567422 0.048842 0.284437 -0.193375 0.065413 -0.335786 0.198275 0.062916 0.001520 0.547241 -0.147988 -0.140818 -0.444225 -0.237255 -0.713936 -0.310348 -0.146185 -0.631994 0.236078 0.240969 -0.049417 0.221837 -0.124792 -0.266256 -0.099593
times 0.163313 -0.182410 0.061230 -0.511463 0.245350 0.031901 0.392328 0.529678 -0.227029 -0.043316 -0.380111 -0.008215 -0.245539 -0.506653 -0.233382 -0.296021 -0.431094 -0.260026 0.422871 -0.200730 0.132942 -0.081241 0.469808 0.172973 -0.284669 0.126506 0.123769 0.987391 0.039250 0.039112 0.120981 -0.096921 0.552386 -0.099420 0.063457 -0.565653 0.336023 0.146383 0.400717 0.353253 0.547170 0.250100 -0.258037 -0.199038 0.064656 0.636621 -0.042715 -0.011881 -0.148748 0.088607
beat -0.113050 0.203698 -0.499500 -0.103777 -0.016454 0.018972 -0.065199 0.133295 0.400660 0.068810 0.022112 -0.402388 0.002806 -0.137502 -0.089271 0.024639 -0.157548 0.075299 -0.091063 0.228650 -0.039761 -0.024928 -0.028671 -0.058928 0.079187 0.001220 -0.261578 -0.207385 0.137023 -0.176123 0.096694 -0.282143 -0.089240 -0.075577 -0.087818 0.381087 -0.023939 -0.070157 0.038209 0.305210 -0.058771 -0.027070 0.165618 0.198888 -0.061548 -0.035067 -0.270367 0.015549 0.328086 -0.135535
bit -0.192828 0.074925 -0.395330 -0.264722 0.255789 0.002523 -0.137951 0.291746 0.457955 0.505510 -0.208631 -0.443324 -0.304486 -0.791078 -0.062506 0.206736 -0.061338 0.099072 -0.061104 0.206049 -0.343303 0.113698 -0.286429 0.023464 0.207129 0.235350 -0.437649 0.093929 0.213995 -0.298215 0.222871 -0.230108 0.094951 0.124455 -0.227651 0.387910 0.388907 -0.193359 0.093843 0.735156 0.236297 0.267981 -0.110524 0.246593 -0.104216 0.181824 -0.339183 0.300580 0.229409 -0.397715
crack -0.116240 0.030517 -0.039678 0.249787 0.014573 -0.177198 -0.055494 0.224188 -0.101003 0.072686 -0.006579 -0.101286 0.017475 -0.079885 -0.092132 0.073650 0.131612 0.097957 -0.129054 0.048583 -0.023958 -0.148930 -0.161411 0.016353 0.143405 -0.046263 -0.068648 -0.210887 -0.127720 0.000484 0.073804 0.046333 -0.078134 -0.076097 0.011447 0.115189 0.089462 0.164322 -0.160606 -0.140579 -0.240190 -0.069928 0.138191 0.008084 -0.035224 -0.128261 0.020527 0.110830 0.045737 -0.028669
cry 0.318011 -0.208864 0.364422 -0.624437 0.249019 0.080853 0.439684 0.572700 -0.233166 -0.093860 -0.548256 0.070556 -0.280701 -0.319674 -0.278043 -0.436459 -0.411774 -0.351669 0.526975 -0.253330 0.173776 -0.129367 0.490809 0.149268 -0.303388 0.025152 0.389419 1.212917 -0.019315 0.059068 -0.102381 -0.199558 0.686692 -0.134312 0.052564 -0.989723 0.344145 0.095986 0.496114 0.392923 0.637708 0.175634 -0.333150 -0.324433 0.069972 0.620322 -0.008524 -0.047660 -0.185315 0.188021
everyday 0.383315 -0.045994 0.237044 -0.131742 -0.037261 -0.214182 -0.416837 -0.433340 -0.637211 -0.319045 -0.390565 0.684072 0.288512 0.474240 -0.264496 0.128610 0.474395 -0.700379 0.439005 -0.322275 0.571165 -0.365039 -0.362519 0.050531 -0.028351 -0.514899 -0.069219 -0.022921 -0.313682 -0.375376 0.545933 0.517734 -0.161270 0.563333 -0.058770 -0.687755 -0.188635 -0.120896 -0.179667 -0.916380 -0.151929 0.459075 0.095812 0.126454 0.056317 0.207373 -0.193083 -0.051791 -0.292079 -0.023161
high -0.027152 0.283446 -0.169448 -0.072304 -0.067390 -0.069002 0.217386 -0.056927 0.237198 0.113039 0.284779 0.133058 -0.113367 -0.056140 0.061898 0.328612 -0.259063 -0.183750 -0.084272 0.044136 -0.039022 -0.318660 -0.218753 0.001889 0.099329 0.006920 -0.031543 -0.058190 -0.001510 -0.087805 0.242654 0.078799 0.086329 0.173587 0.140185 0.143431 0.108953 -0.155612 -0.091043 -0.141921 -0.081938 -0.043909 0.199855 0.143055 0.007955 0.074327 -0.019923 0.041209 -0.111979 -0.247955
kid -0.059088 0.138127 0.021309 -0.008452 0.005692 -0.130109 -0.055923 0.135461 0.202814 0.210824 0.071625 -0.368214 -0.042512 0.003868 -0.429531 -0.141837 0.061261 -0.012320 -0.166317 0.389893 -0.182202 -0.390287 -0.286583 0.040256 0.235914 -0.034423 0.030066 -0.213158 -0.062471 -0.025705 0.360573 -0.134718 0.073087 -0.042330 -0.156715 -0.069997 -0.075601 0.120205 0.167350 0.008088 -0.252981 -0.025768 0.321268 0.239128 -0.108203 -0.045630 -0.216767 0.277199 0.162742 -0.150488
lady 0.382395 0.454383 0.080425 0.745680 -0.544672 0.440936 -0.147996 -1.238862 0.140110 -0.585057 0.711357 0.145962 0.166790 0.435801 0.402197 -0.236659 -0.037757 -0.067219 -0.088852 -0.111173 -0.420264 0.550052 0.968325 -0.104051 0.187380 0.615262 -0.139575 -0.021700 0.202907 0.271931 -0.497590 -0.059810 -0.240433 0.170215 -0.812301 0.110815 -0.354645 -0.008276 -0.061328 -0.176887 0.270807 0.325632 0.452987 0.166901 0.037034 -0.197630 0.008474 0.063536 0.116127 0.505195
new -0.040912 0.156981 -0.250006 -0.040905 0.049251 0.008769 0.007802 0.152471 0.236676 0.106410 0.102482 -0.252733 -0.064669 0.023935 0.031022 0.104366 -0.113336 0.089739 -0.149303 0.343257 0.022093 -0.193247 -0.242970 0.004018 0.210345 0.004856 -0.148482 -0.256593 -0.063971 -0.059517 0.033780 -0.012546 -0.087253 -0.114262 0.131157 0.192458 -0.007006 -0.106217 -0.011970 0.103504 -0.062797 -0.097325 0.149886 0.095101 -0.135570 -0.146722 -0.107485 0.048741 0.218005 -0.218029
pay -0.219483 0.161664 -0.194326 0.317522 0.002475 0.003712 -0.003295 0.059495 0.235642 0.208028 0.031386 -0.085645 0.018439 -0.147314 -0.130371 -0.105632 -0.038283 0.271393 -0.447273 0.346640 -0.036456 -0.270166 -0.219617 -0.055126 0.126562 -0.095220 -0.045365 -0.230079 0.076067 -0.162694 0.345438 -0.094470 -0.034088 -0.088723 0.162111 0.209321 -0.100406 0.453386 0.054600 0.113039 -0.039622 -0.116294 0.300452 0.088516 -0.242044 -0.172916 0.106637 -0.012044 0.059822 0.057239
queens 0.759843 -0.656832 0.150499 -0.032376 -0.420597 0.497521 0.358105 -0.204880 -0.094331 -0.042119 -0.274967 0.690067 0.062316 0.050066 0.297679 -0.135810 -0.089189 0.306139 0.349344 -0.215756 -0.167760 0.497558 0.421363 0.191395 -0.072988 0.376936 0.314282 0.727669 0.087332 0.284826 -0.444649 0.175822 0.366937 0.159226 0.256166 -0.259678 -0.151238 0.170497 0.132867 -0.080987 0.556848 -0.094953 -0.486695 -0.321540 0.242279 0.358350 0.363969 -0.143638 0.523116 0.122805
stay -0.162985 0.356836 -0.101613 0.264693 -0.064541 -0.189300 0.026127 0.105289 0.115960 0.172549 0.094792 0.082159 -0.087206 0.146693 0.132570 0.198386 -0.036451 0.097156 -0.252323 0.415108 0.018608 -0.548543 -0.282213 0.111507 0.413738 0.086634 -0.078548 -0.461217 -0.238889 -0.093972 0.260366 0.251691 -0.092861 -0.110838 0.269876 0.203863 0.094110 0.021760 -0.221374 -0.250152 -0.283918 -0.213737 0.502788 0.036991 -0.230674 -0.228178 0.039995 -0.027123 0.036828 -0.280842
streets -0.104287 0.632378 0.050451 0.022474 0.015177 -0.236195 0.429187 0.389654 0.213349 -0.069959 -0.225303 -0.079485 -0.160948 0.074930 -0.224355 0.450230 -0.112164 0.084469 -0.171825 0.397292 0.221189 -0.630050 0.061410 -0.033795 0.296029 0.117497 -0.316292 -0.218207 -0.448686 -0.253169 0.068185 -0.073999 0.054412 -0.026435 -0.010793 -0.295717 0.046795 -0.176490 0.079944 0.280945 -0.333440 -0.030625 0.444077 0.233262 0.177849 -0.157026 -0.393069 0.115122 0.254609 -0.407242
block 0.021001 0.110520 0.163022 -0.118541 0.070092 -0.030759 0.096668 0.091608 0.115214 0.133295 0.042606 -0.072944 -0.019665 0.090799 -0.212839 0.023954 0.012113 -0.126130 -0.058511 0.222993 -0.170904 -0.289035 -0.165991 0.003477 0.114415 0.020734 0.128752 -0.018200 -0.072982 0.114947 0.186426 -0.036028 0.167905 0.060054 -0.049931 -0.119309 -0.000087 0.001194 0.013446 -0.053799 -0.178632 -0.115600 0.221613 0.063114 0.007039 -0.016269 -0.173968 0.178942 0.035855 -0.200299
came 0.095951 -0.034086 -0.066372 -0.016448 -0.113456 -0.086385 -0.043989 0.168592 0.026913 0.168274 0.065616 -0.041043 0.021995 -0.032932 -0.035436 -0.047569 -0.025065 0.029104 0.011227 0.203022 -0.056405 -0.149042 -0.135458 0.090792 0.267652 -0.019249 0.075777 -0.154532 0.002530 0.052116 0.111778 0.005199 -0.007766 -0.024751 0.019292 0.127376 0.092625 0.010151 -0.146892 -0.056348 -0.078719 -0.087135 0.166342 -0.181626 -0.090673 0.037950 0.066561 0.036146 0.015552 -0.153117
eyes 0.082282 -0.379836 0.498976 -0.164293 0.415869 0.171978 0.074744 -0.173837 -0.538044 -0.320727 -0.179683 0.595431 -0.018132 0.010663 -0.116451 0.056143 0.199374 -0.479041 0.237866 -0.525310 0.284781 -0.046853 0.116627 -0.176749 -0.017279 -0.007133 0.171833 0.575809 -0.030253 0.016172 -0.205277 0.238820 0.055454 0.139409 -0.108818 -0.442607 0.065199 -0.366681 -0.030487 -0.434092 0.294489 0.076918 -0.152793 -0.075959 0.149488 0.262447 0.211213 0.017786 -0.294250 0.075155
going 0.119963 0.447404 -0.465878 -0.190389 0.136837 -0.163042 0.233651 0.503266 0.487814 0.531532 -0.215195 0.053188 -0.023180 -0.496059 -0.027868 0.289688 -0.373594 0.126671 -0.300303 0.596119 -0.087828 -0.471807 -0.189805 0.084011 0.480438 -0.062080 -0.381052 -0.163718 -0.080386 -0.156412 0.510926 -0.073743 0.263860 -0.100602 0.500099 0.059420 0.308604 0.282979 -0.206691 0.382324 0.132317 0.036104 0.080308 -0.167370 -0.262594 0.087306 0.066665 -0.116317 0.305493 -0.238283
hammer 0.094615 -0.333201 0.739516 0.005090 -0.132389 0.111676 -0.256106 0.245631 0.290848 0.072135 -0.812078 -0.161196 0.078613 0.241562 -0.514912 -0.468106 0.393436 -0.004542 0.278929 0.521014 0.130217 -0.760820 -0.064016 -0.100928 0.198029 -0.258016 0.281055 0.108242 0.038365 -0.295232 0.055069 -0.068255 -0.029226 -0.019235 -0.006125 -0.666986 -0.610489 -0.122555 0.174774 0.318620 -0.103113 -0.002556 0.285776 -0.037745 -0.007585 -0.267803 -0.327616 0.057501 -0.092272 0.394410
lean -0.143383 0.073952 -0.076322 -0.126205 0.269536 -0.093249 -0.097244 0.017546 0.304213 0.358535 -0.124003 -0.465002 -0.052231 -0.482987 -0.237330 0.158054 0.051399 0.005575 -0.084651 0.145767 -0.304478 0.030409 -0.273203 0.010331 0.166149 0.092204 -0.274332 0.003777 -0.019388 -0.235270 0.226287 -0.048768 0.026252 0.213327 -0.200527 0.082307 0.289024 -0.139166 0.124229 0.478202 -0.077654 0.336965 0.105821 0.275208 -0.011292 -0.043866 -0.305506 0.323201 0.235408 -0.220672
smoke -0.073714 0.112550 0.042109 -0.083252 0.108289 -0.036046 0.090543 0.148314 0.176397 0.033682 -0.140024 0.085527 -0.037831 -0.077189 -0.063020 0.121626 -0.118747 -0.005573 -0.169550 0.217300 -0.126103 -0.245250 -0.084051 0.088073 0.153004 0.008050 -0.016846 0.065369 -0.063392 -0.005711 0.195412 0.139246 0.208445 0.057565 0.214010 -0.152756 0.014973 0.070526 -0.046402 -0.035466 0.011292 -0.037327 0.105627 0.003293 -0.049834 -0.014921 0.016415 -0.040866 0.012416 -0.118355
straight 0.066064 0.015312 0.035787 -0.087823 0.000659 0.040509 0.095846 0.088390 0.293669 0.057721 -0.217229 -0.038806 -0.133862 -0.179009 0.006950 0.065517 -0.116368 0.160923 0.007205 0.093533 -0.264250 -0.002842 0.210184 0.110831 0.066241 0.160672 -0.042749 0.230444 -0.014893 0.016869 -0.105216 0.011046 0.130750 -0.012849 0.035755 -0.134901 0.018404 -0.047803 0.005910 0.214512 0.076263 -0.112367 -0.004837 -0.234050 0.039565 -0.083826 -0.085777 -0.064504 0.044656 -0.030190
style -0.028981 0.126886 -0.161667 -0.014672 -0.023725 0.058838 0.106520 -0.310552 0.245030 0.094042 0.418269 -0.240102 0.027602 -0.123582 0.088310 0.113356 -0.186341 -0.201532 -0.024489 -0.050319 -0.257023 0.149719 0.021160 -0.084611 -0.103795 0.124934 -0.110024 0.045326 0.216054 0.105543 -0.028007 -0.142947 -0.056517 0.159414 -0.223249 0.233672 0.068612 -0.087648 0.036813 0.133754 0.039841 0.014272 0.006836 0.135563 0.113397 0.012002 -0.115327 0.202619 0.000772 -0.063412
sweet -0.006065 0.461223 0.086192 0.910003 -0.441158 0.188413 -0.089764 -0.997118 0.094347 -0.439130 0.721545 0.002033 0.107627 0.352137 0.584008 -0.203159 0.004024 -0.044111 -0.088330 -0.152066 -0.379315 0.317952 0.861390 0.017902 0.250206 0.709982 -0.283031 -0.244348 0.196302 0.218198 -0.451322 0.163802 -0.412342 -0.112543 -0.506465 0.422827 -0.188387 0.222494 -0.162502 -0.243300 0.249615 0.283296 0.437035 0.137593 -0.242777 -0.286192 0.045929 0.089066 -0.026321 0.506192
test 0.094325 -0.101473 -0.183447 -0.390873 0.191834 0.088691 0.101607 0.249359 -0.085189 -0.312464 -0.004275 -0.087591 0.019652 0.211227 -0.232024 0.189992 -0.007315 -0.175360 0.094257 -0.161464 0.217228 0.150772 -0.088527 -0.156013 -0.236901 -0.322390 -0.036535 0.091657 -0.042010 -0.102477 -0.132872 -0.025056 0.179900 0.046528 0.198709 -0.083065 -0.211048 -0.298856 0.033940 -0.214973 -0.251061 -0.069633 -0.226388 0.205640 0.167477 -0.011087 -0.008385 -0.079281 0.086510 -0.073683
watch -0.152653 0.262125 -0.251658 0.003563 0.103253 -0.173293 0.032231 0.188106 0.253867 0.174990 -0.005528 -0.188797 -0.098662 -0.062276 -0.014862 0.195250 -0.035204 -0.051265 -0.142747 0.226264 0.096621 -0.429734 -0.375944 0.007043 0.160275 -0.058335 -0.245357 -0.335537 -0.051442 -0.322827 0.279289 -0.004729 -0.117407 -0.087315 0.147846 0.251107 0.014966 -0.009071 -0.008466 0.000883 -0.147402 -0.037454 0.246399 0.270040 -0.112060 -0.061378 -0.181380 0.153880 0.074897 -0.241942
comin -0.090576 0.355820 -0.213109 0.234713 -0.131353 0.028701 0.064928 -0.190334 0.353860 0.164992 0.265002 -0.293521 -0.039049 -0.138957 -0.040736 -0.112015 -0.170429 0.202125 -0.237399 0.476723 -0.210402 -0.193985 0.176403 -0.096178 0.348832 0.213175 -0.160615 -0.024806 0.049131 0.047153 0.157376 -0.335434 -0.154750 -0.104776 -0.370919 0.240438 -0.008931 0.066758 0.066069 0.274695 -0.019933 -0.049812 0.529323 0.025625 -0.142438 -0.225335 -0.070003 0.187433 0.111038 0.000676
hands -0.020444 -0.227915 -0.029324 -0.315962 0.048837 -0.014815 -0.017618 0.239284 0.098227 0.316468 0.097524 -0.150174 0.005349 -0.637584 0.081897 0.086294 -0.295742 0.133716 -0.107626 -0.184771 -0.433611 0.124391 -0.024874 0.137955 -0.240676 0.018181 -0.129333 0.204489 0.281890 -0.038964 0.018475 -0.026875 0.071114 0.420206 0.096144 0.302528 0.242523 0.060876 -0.020666 0.384216 0.085621 0.145540 -0.417515 -0.090456 0.218916 0.234779 0.021990 -0.064046 0.083874 0.162822
jackson 0.296135 -0.186100 -0.029528 -0.573193 0.154418 0.091813 0.258705 0.525263 -0.019726 0.125571 -0.432352 -0.015880 -0.306063 -0.546839 -0.213673 -0.389091 -0.372595 -0.222107 0.505018 -0.023470 0.088643 -0.044233 0.521342 0.215354 -0.178947 0.212100 0.130803 1.006874 0.208531 -0.067315 0.070655 -0.313406 0.456671 -0.192604 -0.145723 -0.463608 0.248637 -0.091265 0.384844 0.520562 0.700589 0.189527 -0.267115 -0.275207 -0.007600 0.652367 -0.161023 0.030804 -0.178738 0.048933
look -0.098638 -0.174640 -0.015789 -0.037628 0.058062 -0.071073 -0.017670 0.325672 0.137640 0.230372 -0.082274 -0.103534 0.057512 -0.196461 -0.182025 -0.129272 0.026253 -0.031877 0.045569 0.128232 0.108574 -0.508059 -0.141670 -0.024467 0.090862 -0.147461 0.060575 -0.203496 0.105426 -0.136219 0.325642 -0.017952 -0.063819 -0.058556 -0.015520 0.242640 -0.062575 0.032566 0.006062 0.017728 -0.194645 -0.042229 0.296959 0.062396 -0.089510 0.071901 -0.041791 0.147880 -0.158372 0.027724
loving -0.375051 -0.018139 0.221451 0.512975 -0.037602 -0.075596 0.122855 0.334288 -0.232661 -0.077645 -0.108005 0.109364 -0.164070 0.494049 -0.048209 0.003603 0.356616 0.192834 -0.116915 0.316941 0.085346 -0.458079 -0.483906 0.132181 0.284156 0.174130 0.103958 -0.560592 -0.464354 0.060620 0.095505 0.581066 0.126245 -0.463694 0.634779 0.017988 0.079744 0.699419 -0.246249 -0.830868 -0.332325 -0.417637 0.281986 0.035528 -0.366026 -0.348874 0.184291 -0.028234 -0.101826 -0.273358
people -0.128362 -0.005549 0.386464 0.156533 -0.068730 -0.048731 -0.038600 -0.062689 0.153764 0.135557 0.123847 -0.182392 -0.015574 0.112286 -0.130279 -0.174257 0.058088 0.152361 -0.035213 -0.151843 -0.141487 0.016892 -0.001958 0.017955 -0.031539 0.055843 0.157575 -0.120339 0.193844 0.094643 -0.198558 -0.164953 0.041205 -0.049321 -0.012644 -0.109549 -0.154968 0.470090 0.165685 -0.130975 0.014428 -0.000407 -0.073391 0.172439 -0.004227 -0.028872 -0.020288 0.124134 0.167010 0.283457
quick 0.049923 -0.036523 0.056268 -0.294525 0.171416 -0.101000 0.219145 -0.025444 -0.172287 -0.307742 0.384394 0.253972 0.128530 0.850866 0.189335 0.464365 0.053930 -0.727852 0.454583 -0.808013 0.606011 -0.104325 -0.592516 -0.371963 -0.220449 -0.639265 0.226129 0.072090 -0.088821 0.019714 -0.414876 0.042790 0.092745 -0.117469 0.454480 0.005210 0.143798 -0.442814 -0.290259 -0.600884 -0.359306 -0.202308 -0.659129 0.209647 0.147494 0.055748 0.279587 0.049552 -0.227515 -0.034212
shot -0.239928 0.299183 -0.461618 0.009401 0.039004 0.186648 -0.000822 -0.147583 0.220947 0.086160 0.199022 -0.200050 -0.164200 -0.025015 0.477122 0.055387 -0.216306 -0.014730 -0.059230 0.266230 -0.076064 0.127610 0.132158 -0.029794 0.087327 0.245723 -0.325454 -0.101324 0.106485 -0.042662 -0.115189 -0.269575 -0.136718 -0.197436 -0.223480 0.476757 0.176993 -0.245444 -0.065253 0.316195 0.286079 -0.036848 0.097421 -0.011063 -0.165670 -0.144375 -0.181149 0.058831 0.072030 -0.129078
slap 0.410322 -0.691645 0.199790 -0.623418 0.088558 0.609595 0.179246 -0.218620 -0.504450 -1.099480 0.369740 0.572903 0.272162 0.843906 -0.028855 0.205704 -0.019901 -0.325112 0.371829 -0.514787 0.382747 0.373710 0.120254 -0.244219 -0.718892 -0.637498 0.405181 0.259914 0.087124 0.350133 -0.092068 0.540903 0.512447 0.176255 0.762873 -0.524520 -0.730177 -0.408948 -0.057938 -1.152598 -0.408151 -0.047038 -0.825128 0.149748 0.495186 0.217727 0.650732 -0.486747 -0.393426 0.430684
step -0.279851 0.031036 -0.192952 -0.084935 0.121986 -0.031379 -0.169949 0.171895 0.168207 0.256145 -0.055541 -0.356524 -0.042783 -0.115583 -0.131640 -0.077906 -0.050497 0.067700 -0.196531 0.098499 -0.075210 0.036654 -0.207370 -0.100580 0.111352 -0.006509 -0.091151 -0.229381 0.055096 -0.083131 -0.009618 -0.169927 -0.068376 -0.049482 -0.108382 0.248238 0.036319 0.085064 0.113519 0.203612 -0.180414 -0.013327 0.045073 0.113162 -0.136452 -0.011831 -0.111274 0.061425 0.151866 -0.089115
tryin -0.030124 0.283556 0.056401 0.126030 0.000075 -0.086931 0.131755 0.162854 0.099747 -0.098160 -0.076077 0.084296 -0.053337 0.167342 -0.217024 0.130826 -0.007739 0.073561 -0.144000 0.329845 0.122593 -0.513722 -0.023857 0.063738 0.256850 0.055581 -0.085269 -0.140880 -0.200535 -0.124263 0.204134 0.063295 0.054360 -0.119638 0.096756 -0.150470 -0.113969 0.049752 0.046167 -0.095863 -0.188289 -0.070062 0.391515 0.129942 -0.062374 -0.093860 -0.093271 0.028558 0.042739 -0.157092
work 0.035800 0.173978 -0.129390 -0.052109 -0.055938 -0.130371 0.061250 -0.115876 0.075574 -0.095803 0.244341 -0.191510 0.150289 -0.038123 -0.317670 0.149583 -0.081199 -0.196989 -0.059198 0.049384 -0.015336 -0.277366 -0.091232 -0.092022 0.076313 -0.114691 -0.078221 -0.138106 0.013072 -0.032202 0.451007 -0.002701 -0.040783 0.215902 -0.117202 -0.026823 -0.153175 -0.057314 0.035103 -0.216271 -0.356761 0.127194 0.267966 0.287573 0.097743 0.062685 -0.125714 0.145419 -0.015771 -0.075517
believe -0.019648 0.313368 0.338247 0.141045 -0.165684 -0.247836 0.186878 -0.325927 0.250660 -0.032489 0.156481 0.278122 -0.013946 0.442248 0.254660 0.166714 -0.001359 -0.504511 0.224136 -0.339584 0.125024 -0.448734 -0.205909 0.038321 0.072090 -0.033301 0.068285 -0.127344 -0.034985 -0.088692 -0.059610 0.218863 -0.054528 0.001016 0.022804 -0.111680 0.122660 0.011957 -0.109422 -0.314161 0.002296 0.031834 -0.012059 0.254452 -0.024593 -0.039639 -0.122972 0.104672 -0.130471 0.089862
brother -0.335649 -0.198366 -0.007015 0.380902 -0.022928 -0.181166 -0.214223 0.336537 -0.129185 0.205707 -0.153431 0.057840 -0.017505 -0.056645 0.249011 -0.125757 0.277485 0.278379 -0.090039 0.131366 0.100879 -0.291831 -0.170049 0.206927 0.171710 -0.024416 -0.082806 -0.366344 -0.100709 -0.082698 0.091316 0.269188 -0.231605 -0.379893 0.322312 0.447172 0.028078 0.300617 -0.240304 -0.198432 -0.207053 -0.186780 0.106199 -0.221555 -0.333260 -0.154634 0.205145 -0.129186 -0.085526 0.136763
change -0.627369 -0.253375 -0.189176 0.330869 0.015094 -0.191359 -0.128215 0.599734 -0.000380 0.361286 -0.043231 -0.178911 -0.052733 -0.104827 0.445407 -0.048872 0.205870 0.498451 -0.165865 0.213923 0.001586 -0.318813 -0.226979 0.129305 0.079506 0.018044 -0.166604 -0.448877 -0.065825 -0.107394 0.081252 0.237229 -0.306333 -0.520267 0.366444 0.855308 0.114728 0.153886 -0.226900 -0.084615 -0.360254 -0.295867 0.054287 -0.151622 -0.295299 -0.298087 0.187873 -0.075178 -0.103878 0.131049
cheeks 0.181470 0.031736 0.174026 0.176241 -0.262585 -0.184962 0.082943 -0.060048 -0.017799 0.105276 0.113027 0.145865 0.064815 -0.161160 -0.166802 -0.013787 -0.040002 0.104100 -0.002945 0.081759 -0.222234 -0.124108 0.118794 0.201478 0.181002 0.170406 0.086490 0.048071 -0.177916 0.142058 0.206794 0.135137 0.048311 0.139647 -0.154331 -0.179875 0.099474 0.129388 -0.047625 0.033020 -0.105134 0.018230 0.263565 -0.126700 0.043502 0.040513 0.010835 0.027084 0.029130 0.051213
child 0.067006 0.280577 -0.496602 0.181967 -0.423290 0.020180 0.047090 -0.111765 0.507203 0.520562 0.395535 -0.384119 -0.218414 -0.470928 0.498320 -0.219125 -0.479304 0.384250 0.100235 0.417499 -0.517721 0.264305 0.742536 0.316091 0.183680 0.764054 -0.354071 0.373847 0.400438 0.407406 -0.186174 -0.484960 -0.259987 -0.327574 -0.889669 0.679383 0.210969 -0.261890 0.052607 0.737192 0.726562 0.121639 0.184035 -0.316929 -0.188959 0.047373 -0.185054 0.266992 0.064422 -0.193704
closer -0.060869 -0.035595 0.050134 -0.010206 0.070120 0.029997 -0.129617 0.131370 0.129067 0.239802 -0.241417 -0.027996 -0.194532 -0.393096 -0.058200 0.031182 0.110505 0.135851 -0.020067 0.065513 -0.228646 0.129754 -0.068952 0.028215 0.106790 0.222007 -0.153968 0.190464 0.092030 -0.085488 0.028302 -0.089308 0.055381 0.103042 -0.205327 0.007434 0.156590 0.017763 0.072834 0.393073 0.220378 0.125117 -0.077792 0.044811 -0.034659 0.079693 -0.148452 0.096394 0.096150 -0.137877
crew 0.012941 0.054677 -0.035691 -0.061474 -0.008228 0.051163 0.044913 -0.120040 0.126415 0.028397 0.125744 0.032544 0.035409 -0.056379 -0.131512 0.007465 -0.115685 0.032500 -0.140119 0.077724 -0.065438 0.014783 -0.094840 -0.098233 -0.071543 -0.087656 -0.011537 0.060474 0.077309 0.027921 0.190186 -0.120296 0.092422 0.124394 -0.051108 -0.049278 -0.046546 0.090526 0.159682 0.063705 -0.032801 0.014517 0.005631 0.107344 0.057367 0.021488 0.014529 0.047131 0.054064 0.009182
daddy -0.311089 0.178394 -0.357690 -0.083545 0.096941 -0.000275 -0.059219 -0.008281 0.094063 0.049368 0.023409 -0.148883 -0.060477 -0.138509 0.074913 0.091048 -0.119750 0.057804 -0.152876 0.043289 -0.025480 0.179973 -0.067859 -0.017201 -0.117605 0.060351 -0.232118 -0.215995 0.165574 -0.135258 0.058496 -0.164801 -0.108710 -0.040020 0.045202 0.304040 0.073589 0.136447 0.083694 0.204358 0.035715 0.017183 -0.063646 0.173115 -0.058145 0.014946 -0.164519 -0.027369 0.072903 -0.093404
eat -0.133326 -0.125210 -0.044926 0.032464 0.240453 -0.010283 0.042593 0.181090 -0.029540 -0.020970 0.099736 -0.149077 0.122864 -0.017489 -0.029409 0.147528 0.028084 -0.097795 0.075769 -0.231483 -0.045196 -0.005624 -0.140221 -0.157866 -0.127183 -0.044987 -0.077743 0.059884 0.090912 0.010833 -0.081191 0.036183 -0.019971 -0.039295 0.141211 0.255999 -0.042587 0.000211 -0.054202 -0.187538 -0.153485 -0.153870 -0.069479 0.124577 0.084100 -0.006308 -0.023749 0.104014 -0.009465 -0.007479
face -0.149018 0.180738 -0.039171 0.233140 0.149295 -0.054208 0.152948 -0.292732 0.148492 -0.006877 0.220527 -0.178631 -0.005872 -0.181321 0.112857 0.112360 -0.140544 -0.095076 -0.132256 -0.029230 -0.183935 0.026736 0.218744 0.008636 0.032705 0.289523 -0.151830 -0.019418 -0.007438 -0.088310 -0.011917 -0.011148 -0.183545 -0.014998 0.025781 0.214321 0.022248 0.079452 0.071364 0.171910 0.103536 -0.023683 0.169687 0.100738 -0.094805 -0.157072 -0.120494 0.138123 -0.013676 -0.028561
goes 0.060184 -0.192863 -0.022113 -0.150935 0.104643 0.076010 -0.231676 0.064270 -0.160645 -0.042131 -0.230127 -0.086608 0.109351 0.046296 0.018020 -0.061233 0.141697 -0.094327 0.165874 -0.214119 0.127071 0.214619 -0.062343 -0.045308 -0.052453 -0.121643 -0.099344 0.073021 -0.016565 -0.063533 -0.147766 -0.017067 -0.020123 0.071189 0.029013 0.093024 -0.015560 -0.054147 -0.058429 -0.095648 0.016245 -0.001241 -0.187199 0.003725 0.002639 0.077443 0.019963 -0.059156 0.043936 -0.058306
hell 0.063961 0.177396 0.187954 0.214566 -0.143954 -0.112409 0.027180 -0.243959 0.183655 -0.069264 0.145906 -0.012915 0.104595 0.062265 -0.010910 0.063689 -0.046609 -0.015119 -0.061871 0.074559 -0.242671 -0.214284 0.133279 0.084225 0.180374 0.187948 -0.111109 -0.112983 -0.094244 0.020631 0.083563 0.187668 -0.078899 0.142926 -0.183479 0.064139 -0.073566 0.013935 -0.058856 -0.142299 -0.121129 0.062237 0.256401 0.067463 0.044795 -0.148748 -0.158882 0.118384 0.057814 -0.002760
livin 0.074088 0.058575 0.302720 -0.095123 -0.014344 0.130563 0.132670 -0.149751 0.335612 -0.089070 -0.372268 0.278611 -0.148867 -0.016905 0.173125 0.124293 -0.125814 -0.031732 0.092517 -0.105070 -0.312592 -0.015398 0.173940 0.121849 -0.070348 0.166764 0.063523 0.264311 -0.026185 -0.114233 -0.050648 0.193971 0.292778 0.089470 0.108830 -0.316658 -0.048480 0.084342 0.080601 -0.066305 0.245071 -0.067089 -0.171445 -0.190330 0.123179 0.087692 -0.103972 -0.071433 -0.079434 -0.091538
makin -0.037681 -0.068324 0.053494 0.039436 -0.075010 -0.070640 -0.057528 -0.011864 0.027439 -0.025698 0.043604 -0.015242 0.029643 0.066703 0.042988 0.061509 0.100949 -0.050245 -0.043483 0.296160 -0.020266 -0.408235 -0.129166 0.146980 0.199775 -0.041071 0.043415 -0.240433 -0.048583 0.039248 0.230691 0.282066 -0.066680 0.007265 0.187148 -0.005159 -0.095717 -0.075911 -0.178254 -0.250644 -0.182732 -0.040892 0.187739 0.019443 -0.083662 -0.127019 0.032177 -0.070519 -0.096960 0.016449
membrane 0.335146 0.497014 0.105809 0.082196 0.011332 -0.092901 0.200844 0.283976 0.130970 0.377681 -0.700843 0.844228 -0.033397 -0.427084 0.067131 0.029879 -0.210134 0.569466 -0.462121 1.079805 0.026001 -0.298757 0.487733 0.188506 0.588165 0.045354 -0.517046 0.223860 -0.627825 0.012921 0.470899 0.085475 0.493280 -0.268673 0.466053 -0.720738 0.335150 0.596882 -0.076090 0.366986 0.327013 0.309627 0.049773 -0.647977 -0.339536 -0.133609 0.426718 -0.588574 0.279092 0.239513
men 0.503380 -0.105840 0.349777 0.082468 -0.475502 0.219814 0.038831 -0.258859 -0.013811 -0.296245 -0.097075 0.403671 -0.164587 0.338523 0.147388 -0.298525 -0.108898 0.072722 0.306240 -0.179648 0.096888 0.462426 0.412089 0.085229 -0.202154 0.102446 0.150608 0.484738 -0.038152 0.034834 -0.540542 -0.151052 0.046726 -0.074892 -0.500388 -0.266465 -0.004395 -0.219359 0.160835 0.238224 0.468834 -0.031135 0.071995 -0.486902 -0.033954 -0.040606 0.022174 -0.116612 -0.153536 0.235205
nice -0.552925 0.036294 0.384755 0.528601 0.103885 -0.319064 0.254759 -0.155836 -0.152763 0.009077 0.165469 -0.043143 0.067676 0.015492 0.100686 -0.058814 0.120986 0.198609 -0.273525 -0.157747 -0.110781 -0.135979 0.251815 0.032340 0.114339 0.369054 -0.060328 -0.257276 -0.214995 0.126446 0.007069 0.352326 -0.243630 -0.198725 0.311631 0.164966 0.114386 0.583010 0.047706 -0.105462 -0.131753 -0.021851 0.158535 -0.017619 -0.315966 -0.412945 0.165125 0.047572 -0.142269 0.111533
phife 0.114495 0.083108 0.274033 0.000914 0.142939 -0.166837 0.005035 0.361775 0.111606 0.092811 -0.362361 -0.341590 0.150992 -0.141671 -0.684785 0.090129 0.038818 -0.290581 0.083484 0.065887 0.001645 -0.415024 -0.212246 -0.245207 0.216901 -0.228948 0.091988 0.124885 0.145776 -0.476949 0.290597 -0.412211 0.073366 0.215489 -0.129268 -0.321363 -0.433991 -0.295174 0.080143 0.139499 -0.236925 -0.136204 0.310683 0.254913 0.268168 -0.116240 -0.284724 0.671485 -0.316524 -0.061604
stank -0.038284 0.242248 -0.049449 0.009110 0.178634 -0.191958 0.048147 -0.068329 0.473731 0.369167 0.050886 -0.556219 0.079239 -0.377416 -0.213667 0.180217 -0.078453 -0.003035 -0.088485 0.213683 -0.435644 -0.186201 -0.293394 0.090411 0.254529 0.123020 -0.189345 -0.123133 -0.115133 -0.172842 0.247251 0.042761 -0.024502 0.219475 -0.130317 0.089325 0.361823 -0.061380 0.088907 0.432359 -0.189173 0.208998 0.358456 0.223636 -0.017347 -0.164415 -0.286458 0.361146 0.292382 -0.247945
sure 0.056862 -0.073978 -0.050464 -0.227969 0.126568 0.091158 -0.180173 0.079409 -0.035717 -0.244531 -0.254127 0.055017 -0.082303 0.203979 -0.056978 -0.150752 0.181924 0.088374 -0.017051 0.008723 0.247890 0.258408 0.003834 0.087607 -0.067711 -0.102575 0.002979 0.065246 0.034448 0.000778 -0.195220 -0.082822 0.025305 -0.129717 0.094977 -0.148508 -0.180543 -0.103739 -0.029555 -0.036823 0.202935 -0.072425 -0.226598 0.011654 -0.028405 0.118680 -0.017324 -0.220912 0.156006 0.066829
tryna -0.136941 -0.226549 -0.229456 -0.203717 0.331414 0.085924 -0.087994 0.316875 -0.247447 0.199409 -0.014991 -0.138779 -0.079245 -0.162136 0.122752 0.092772 0.179930 0.046825 -0.186521 0.104584 0.218938 0.087757 -0.305964 -0.072853 -0.056433 -0.252445 -0.200460 -0.280172 0.017385 -0.090126 -0.048511 0.055510 -0.123457 -0.076210 0.351721 0.314119 0.007077 -0.188886 -0.184244 0.029467 -0.100197 -0.040829 -0.119638 -0.077963 -0.113594 -0.162290 0.114326 -0.039183 -0.030243 -0.134809
women 0.131866 0.058881 -0.027998 -0.011600 -0.137435 0.043173 -0.098450 0.183469 0.151079 -0.013538 -0.176375 -0.021969 -0.045919 0.066333 0.010062 -0.095899 0.063069 0.071108 0.217337 0.199316 0.207025 -0.225163 0.225174 0.026812 0.199959 0.110094 0.090003 0.126547 -0.010570 -0.409444 0.049466 -0.288363 -0.008877 -0.054050 0.001079 -0.118415 -0.125744 -0.145706 0.033743 0.217588 0.032659 -0.025057 0.183896 -0.016208 -0.034594 0.086685 -0.128737 -0.044610 -0.062116 0.228185
break -0.039152 -0.180899 0.330297 -0.037352 0.001565 -0.053291 -0.211776 0.289731 0.166025 0.124142 -0.435692 -0.212806 0.007187 0.076337 -0.401131 -0.216732 0.200763 0.096480 0.057342 0.217472 0.108453 -0.444831 -0.094624 -0.001735 0.180225 -0.147450 0.196643 -0.030956 -0.038781 -0.095782 -0.000781 -0.059122 -0.090406 0.075315 -0.041737 -0.313455 -0.284242 -0.128367 0.056231 0.384178 -0.143364 0.018947 0.276167 -0.016328 -0.039152 -0.042644 -0.221498 0.025242 -0.039406 0.123839
close 0.147809 0.022339 -0.170642 -0.179534 -0.072649 0.004178 -0.232918 0.024040 0.008577 -0.143121 -0.060183 -0.038454 0.065199 0.001085 -0.172339 -0.097126 0.107465 0.154521 -0.061690 0.205454 0.107771 0.159783 0.011318 0.131067 -0.097212 -0.164422 -0.067531 -0.033550 0.097102 0.029130 0.022801 -0.068405 -0.057456 0.014865 -0.022294 -0.027713 -0.239922 -0.100347 -0.095064 0.012394 -0.010788 0.064276 0.014865 0.067609 0.059114 0.094950 0.021908 -0.134982 0.144018 0.166275
daughter 0.365657 -0.236513 0.278502 -0.627997 0.234055 0.137253 0.393025 0.469704 -0.251965 -0.159533 -0.479631 0.135479 -0.238737 -0.347581 -0.255306 -0.366552 -0.438982 -0.330860 0.497600 -0.231230 0.139261 -0.036773 0.551434 0.139109 -0.262106 0.097306 0.324356 1.160940 0.008114 0.088295 -0.097243 -0.142681 0.658898 -0.143554 0.074343 -0.888066 0.261797 0.011981 0.430627 0.282434 0.658797 0.168218 -0.343558 -0.309181 0.056549 0.651145 -0.017161 -0.082719 -0.232792 0.142005
deal -0.013515 0.207629 -0.277793 -0.215229 0.033336 -0.076273 0.155000 0.245587 0.233940 0.009720 0.050089 -0.218905 -0.053633 -0.105835 0.053140 0.084074 -0.246000 -0.165463 0.143137 -0.000364 0.075801 -0.142717 0.128197 0.054453 -0.012819 0.079534 -0.137017 0.011244 0.046410 -0.084231 0.072100 -0.130574 0.092770 -0.125725 -0.109855 0.157977 0.116588 -0.228674 0.048353 0.152102 0.078431 0.072365 0.027801 0.101287 -0.005394 0.171514 -0.208284 0.120821 0.028794 -0.076023
find -0.332842 0.349263 0.333100 0.572514 -0.006649 -0.324309 0.180761 -0.322703 -0.046170 -0.278525 0.163896 0.242919 -0.000537 0.405147 0.169388 0.149425 0.168098 -0.059565 -0.107196 -0.062679 0.113895 -0.464332 0.063394 0.155567 0.261718 0.277651 -0.138506 -0.263850 -0.215011 -0.051180 0.071628 0.553569 -0.228818 -0.273648 0.320663 -0.024957 -0.053751 0.352544 -0.093077 -0.554480 -0.122786 0.012638 0.322965 0.242254 -0.324067 -0.217438 0.074308 -0.040889 -0.119159 0.085685
ha -0.025145 -0.290071 -0.391772 -0.087198 -0.296816 -0.106972 -0.113594 0.306847 0.161642 0.405004 0.001136 -0.004049 -0.197901 -0.291882 0.109699 -0.162772 0.001606 0.336427 0.136758 0.059783 -0.136252 -0.078594 0.050224 0.151746 0.025504 0.091691 0.062012 0.080005 0.226306 -0.086106 0.028866 -0.283233 0.057848 -0.117410 -0.259196 0.464612 0.194077 -0.144577 0.110386 0.225517 0.128538 -0.036768 -0.021961 -0.316763 -0.161153 0.307156 -0.050001 0.093245 -0.246792 0.076586
