4037 50
like -0.325688 -0.700958 0.838238 1.671607 0.891091 -0.738694 -0.080018 0.379259 -1.133421 -0.120940 -0.280613 -0.563561 1.404738 0.620804 1.340463 -0.119373 -1.285112 0.597645 0.106664 -0.155893 0.502886 0.058788 -1.742384 0.729176 1.001773 -0.110911 -0.132300 -0.393743 -0.257337 0.931770 -0.146958 -0.338965 2.369445 -0.067335 0.285324 0.433004 -1.385622 -1.121485 0.115403 -0.986291 0.222956 -0.899276 -0.826690 -0.407927 -0.345158 -1.152491 -1.709884 -0.623046 0.486817 -0.343088
yeah 0.446653 -1.342017 -0.255490 0.981355 -0.408280 -0.826889 -0.490211 -0.461036 -0.042801 -1.011889 0.582879 -1.274199 0.652514 0.580362 1.142374 0.175471 -1.016737 0.850788 0.802943 -0.478629 0.636739 -0.947977 -0.716174 -0.465789 0.508642 1.447329 0.033552 -0.348854 -0.787573 1.012736 0.051005 0.321461 1.553155 -1.050674 0.413546 0.107158 -1.307969 0.757263 -0.034339 1.215691 -0.337211 0.106910 1.187771 -1.193837 -1.562150 0.663826 -2.252249 0.053036 2.006839 -1.487320
got -0.518140 -0.291086 0.448320 1.025562 -0.116003 -1.255276 0.372698 -1.040580 -0.667049 0.007164 -0.492338 -1.714416 0.196018 -0.474566 0.706298 -0.635228 -0.184005 -0.136682 0.700359 -0.030675 0.800899 -0.026108 -2.483168 0.708826 0.598129 0.314353 -0.040365 -0.172899 -0.295244 0.290346 -1.328321 0.694218 -0.002221 -0.695994 -1.151062 0.358449 -0.669984 -0.771836 1.026898 0.136153 -1.125138 -0.519643 -0.206582 0.107627 -1.583780 0.127885 -2.227366 -0.385473 0.354913 0.433014
nigga -0.718133 -0.934745 0.408700 0.586175 0.241926 -0.421169 0.051788 0.687663 -0.168441 -0.301920 -2.142751 -0.689713 0.759043 -0.213492 1.154129 0.907441 -0.169145 0.827495 -0.663344 1.829932 -0.400292 1.178353 -1.491545 -0.209184 1.832292 0.754593 -0.189409 -0.969234 -0.006077 0.184710 -0.133896 -0.334939 -0.807877 -0.677656 -0.271232 -0.194465 -1.704345 -0.401882 0.530013 -0.127511 0.013577 -0.334675 1.076721 -0.628149 -0.656961 -0.323319 -1.692448 -1.918763 0.758430 -0.439242
know 0.211883 -0.036146 -0.553821 0.903259 0.742433 0.004064 -0.962098 -0.661500 -0.602470 -1.028444 -0.671722 -0.510879 0.337563 -0.036599 1.672048 0.028014 -1.045829 -1.107913 -0.060617 -0.192479 0.759144 -0.929713 -2.425898 0.880983 0.818540 -0.079186 0.680279 -0.380269 0.252608 1.310652 -0.539587 -0.275041 -0.345858 -0.750334 -0.104326 0.477681 -1.725623 0.358199 -1.232334 0.291432 -0.009480 -0.058373 0.355850 -0.106482 -1.201235 0.276647 -1.420145 -0.228664 1.702592 0.465904
bitch 0.960256 -0.612627 -0.384242 1.132895 1.225385 0.140458 -0.917134 0.483018 -0.365507 0.375795 0.225102 -1.343379 0.951799 0.841961 0.767822 1.200746 -0.650915 0.401133 -0.490711 0.749386 0.449498 -0.507134 -1.781145 1.555282 0.060398 1.030283 -0.645761 0.575268 0.579629 0.233641 -0.338937 0.040134 0.433298 -0.092746 -0.844198 0.827853 -1.125737 -1.628121 -0.237212 1.012235 -1.272179 -0.295975 -0.193821 -0.022968 -1.112896 1.256762 -1.309409 -1.364773 -0.337023 -0.643525
ai 0.764242 -0.195204 0.272684 0.974145 0.865730 -0.978253 -0.733798 -0.581711 -1.043648 -0.149899 -0.118097 -0.499312 2.019256 -0.090187 0.795950 0.639246 0.391314 0.493390 0.269092 0.501906 0.423492 0.565347 -1.911169 0.861703 1.730339 -0.056166 0.757234 1.088280 -0.056229 -0.091985 0.218654 -1.039343 -0.503226 -0.799626 -1.660200 -0.195345 -0.975196 0.740434 0.093179 0.419695 -0.404945 -0.971283 0.576982 -0.920630 0.153191 -0.077691 -2.256643 0.066465 0.512508 -0.158393
fuck 1.140424 -0.306054 -0.369486 1.022117 0.851177 -1.930300 0.438414 1.340656 -1.453774 -0.511140 -0.090292 -0.788985 -0.158969 0.243030 0.231485 0.566024 -0.287813 0.782379 0.016918 0.900633 0.244294 -0.018844 -1.734736 0.711361 1.050609 0.125465 -0.392812 -0.500758 -0.870902 0.158627 -1.151134 -0.447057 -0.201142 -0.575113 0.441903 0.423090 -0.903175 -1.277294 -1.322777 -0.043919 -0.071355 0.841268 -0.066192 -0.944060 -0.834220 0.241758 -1.310306 -1.165989 0.680478 -1.121147
shit 0.181272 0.740066 -0.648799 0.229611 0.553799 -0.578918 -0.683420 -0.328509 -0.776204 0.572998 -0.473213 -1.059844 1.580112 0.645500 0.441093 0.478365 -1.087593 0.236362 -0.297932 -0.339389 -0.689986 -0.134972 -0.753788 0.991686 1.138322 -0.797162 0.201119 0.216876 -1.005450 0.516806 -0.337062 -0.949299 0.086058 -1.466435 0.146934 0.251150 -0.682337 -0.973250 0.930807 -0.074662 -0.841311 -0.657708 0.932909 -0.179225 -1.258380 0.749566 -1.262276 -1.598177 0.923651 -1.199605
niggas 0.855500 -0.073628 -0.785083 0.706159 0.962459 -0.913594 -0.263595 0.436428 -0.390482 1.087804 -1.197777 -1.140982 0.714859 1.077524 1.015502 0.452350 -0.912639 0.288217 0.310800 0.779735 0.752302 2.066936 -1.145288 -0.259042 0.709465 -0.023711 -0.823677 -0.648478 -0.679316 -0.100182 -0.084780 -0.124445 0.037768 -0.112063 0.051336 -0.059970 -1.286707 0.044490 -0.210385 0.570550 -0.214449 0.064212 0.665738 -0.265677 -0.568345 0.093461 -1.201443 -0.550501 1.820803 0.356300
love 0.033496 -0.334158 1.705355 0.104765 -0.921094 -0.646632 -0.494183 0.116644 -0.551283 0.367556 -0.369863 -0.982337 -0.666582 0.124855 -0.675493 0.268578 -2.005352 0.111785 0.580206 0.352509 0.355231 0.290792 -1.719001 0.780511 0.553727 -1.000734 1.424616 0.510508 -0.101419 0.394046 -0.068639 -2.093284 0.329830 0.518306 0.056579 0.663845 -1.571530 -0.193471 -0.466642 1.451976 0.721897 -0.139276 0.176827 -0.649346 -1.358355 0.364012 -1.792282 -0.196461 1.298943 -0.262736
baby 0.292089 -0.344143 -0.041792 0.785130 -0.394536 -0.654010 0.520003 -1.061867 0.473480 -0.212209 -0.700433 -0.998378 1.221067 -0.219884 -1.015783 -0.190520 -0.757816 -0.260801 0.389289 -0.281456 0.750282 -0.912480 -1.844488 0.529743 1.827093 1.266187 0.461594 -0.200771 0.819635 -0.218278 0.172680 -1.295327 0.921725 1.161889 -0.774313 -0.543745 0.151519 -0.946788 -0.102713 -0.282559 -0.445514 1.162055 0.152461 -1.046695 -1.134703 -0.584093 -1.111580 -0.670798 1.620391 0.141102
want -1.034892 0.152641 -0.423030 0.463145 0.447455 -1.331530 0.129341 0.672531 -0.824463 -0.148850 0.740106 -1.399150 -0.318895 -0.713992 0.276587 0.140193 -1.547875 -1.093980 0.037374 0.288829 1.201709 0.184091 -0.873618 0.404434 1.680344 0.762637 0.790418 0.310810 -0.094100 -0.671708 0.043585 -1.226019 0.336801 0.245368 0.129077 -0.041738 -1.101357 -0.506425 -0.418421 0.588033 -1.117823 -0.446714 0.151274 0.364022 -0.714997 1.135533 -1.498900 0.048338 1.547293 0.267052
let -0.951543 0.486122 0.071626 -0.075692 0.318796 -0.877787 0.111927 -0.283106 -1.510455 -0.562234 0.057914 -1.070976 1.181359 -0.489746 0.259021 0.171141 0.240515 -0.290435 1.067478 -0.311227 0.090497 0.034341 -1.687973 0.725812 0.108957 -0.112684 -0.221438 -0.891451 1.339776 1.064223 -0.475095 -0.615710 0.115779 0.220173 0.506430 0.659329 -0.075691 -1.681955 0.184327 -0.321454 0.460986 0.411403 1.272146 -1.264358 -0.836056 -0.502052 -1.253114 -0.658770 1.761564 -0.328058
oh -0.582182 -0.162263 0.137285 1.035480 -0.294893 0.291273 0.845506 -0.397960 -0.374561 -0.232636 -0.811937 -0.986972 0.600065 0.134474 0.280199 0.922860 0.446259 -1.417435 2.005031 -0.001836 0.469156 -0.501388 -1.923225 0.148757 0.968641 0.261353 0.210695 -0.317055 -0.127787 1.444799 -0.698345 -1.281292 0.475112 -0.274659 0.799242 -0.254231 0.407582 -0.227910 0.327616 1.189365 0.328406 -1.091992 -0.258330 0.065907 -0.017068 1.002171 -0.927168 -0.312644 1.681336 -2.107837
money 0.428927 0.324247 -0.384283 -0.455683 -0.442883 -0.986473 -1.101742 0.502102 0.223688 -0.880385 -0.766393 -0.448747 0.513570 0.772935 -0.049344 -0.033070 -0.771127 0.629900 0.613005 -0.026107 1.064780 1.779717 -1.963392 0.604475 2.001168 0.909866 0.037651 1.148247 -0.058033 1.147748 -0.771820 -0.460655 0.312117 -0.149175 0.060828 0.611952 -0.890153 -0.267752 1.231102 -0.539322 0.115892 0.613693 0.299694 -0.051063 -1.440191 0.209311 -0.747592 -0.235355 0.698476 -0.510560
gon 0.682462 -0.631532 0.675077 -1.347572 1.116407 -1.157199 -0.697984 -0.063089 -0.616502 -1.478988 -0.740656 -1.295488 0.499683 0.623460 0.981806 -0.158637 -0.606570 0.071947 0.420128 0.642461 0.958056 -0.502691 -1.474595 -1.107808 0.373921 -0.169751 0.546046 0.596266 -0.123103 0.372182 -0.118334 -1.049415 0.363325 -0.948542 -0.243497 -0.547046 -0.300058 -1.178860 0.004279 -0.212593 -0.404523 0.284135 -0.153274 -0.125514 -0.575793 0.494176 -1.055016 -1.840838 1.469970 0.055433
wanna -0.744439 -0.448983 -0.632721 0.064818 0.833310 -1.618664 -1.135425 0.688386 -0.413709 -1.782090 0.204314 -1.203302 0.141781 0.408256 -0.076460 0.054286 -0.717355 -0.108358 0.957634 -0.882028 0.031153 -0.478152 -0.852732 0.846670 1.199248 0.270673 -0.988349 -0.343604 0.462573 -0.071039 0.446065 -0.435255 0.557299 -0.396364 -0.592994 -0.077473 -1.232082 -0.803874 -0.911299 0.724401 0.176403 0.230683 0.477209 0.023989 -0.469760 -0.599576 -1.505951 -0.583730 1.237376 -0.994204
girl -0.228588 0.675815 -0.099829 0.298906 1.214066 0.493119 0.969645 -0.075505 -0.186119 -0.441172 -0.330690 -0.647105 0.285739 -0.215151 -0.470482 -0.648284 -1.951175 -0.814216 0.429001 -0.275880 0.484325 -1.349838 -1.842639 0.454056 1.610416 0.224782 0.311413 -0.295714 -0.318698 -0.171184 -0.784100 -0.801836 0.097302 -0.244470 -0.366590 -0.679490 -0.460038 -0.336225 -0.406008 -0.441075 0.558906 0.407672 0.418742 -0.602647 -0.842673 0.580500 -2.206928 0.040342 0.702335 -0.735463
right 0.193320 0.107728 -0.441160 -0.332370 0.223922 0.724964 -1.515619 -0.040377 -1.099979 1.346065 -0.210505 -0.865266 0.297403 0.323276 -0.547194 -0.054993 -0.598098 0.834778 0.891915 -0.216447 1.589549 -0.023518 -1.924223 0.896236 0.929157 1.405769 0.449843 -0.940476 -0.177032 -0.137297 0.280624 0.230266 0.050137 -1.418227 0.203346 0.926896 -0.844147 -0.871306 -0.267436 -0.109760 0.511061 0.390910 0.684993 -1.444495 1.009793 -0.003976 -0.613389 -0.705666 1.151434 -0.170365
ooh -0.795188 0.808614 0.364993 2.410686 0.627571 0.610218 0.167906 0.628642 -0.595587 -0.978938 -0.121188 -0.472225 -0.310697 0.584526 -0.444426 -1.253769 0.231837 0.379344 0.629893 0.234761 0.334800 -1.100381 -0.557356 -0.887892 0.663340 0.802053 -0.266600 1.685632 0.964709 1.169166 -0.655302 -0.689727 0.610559 -0.750260 0.355143 -0.678180 -0.849339 0.551076 1.015994 1.226722 0.039268 0.474907 -0.196133 -2.220262 -0.725291 0.915148 -0.495255 -1.274857 1.261507 0.682628
need 0.205122 0.091660 -0.423944 -0.127480 -0.442750 -0.762924 0.495038 1.341097 0.087418 -0.698423 0.450688 -1.049702 0.615046 -0.107643 -0.114514 -0.546720 -1.400127 -0.866009 0.192074 0.129159 1.253324 -0.794261 -1.840117 0.198689 1.268503 0.310272 0.302610 -0.135437 0.513056 -0.233543 -0.424240 0.330862 -0.322436 0.463645 -0.245991 1.083030 -1.135301 -0.606863 0.433064 -0.125331 -0.629937 -0.925235 -0.183497 -0.683430 0.110142 0.710691 -0.958293 0.132491 1.177869 -0.673974
time -1.036865 0.517156 0.703014 0.204810 0.628678 -0.709885 -0.737125 0.629907 0.668658 -0.078942 -0.625599 0.763595 1.579501 1.065239 -0.146586 0.587441 0.129576 -0.366021 1.105467 -0.353079 1.130419 0.157886 -1.597373 0.565171 -0.176229 0.174422 -0.077015 -0.006586 -0.786246 0.726651 -0.276580 -1.127362 -0.005960 -0.223952 -0.290844 0.702764 -1.180494 -1.571293 -0.095093 -0.278392 -0.144388 0.226476 -0.437720 -0.562684 -0.730997 0.476644 -1.659793 0.929849 1.075815 -1.132965
way 1.030281 -0.555436 0.416292 0.521713 0.401515 -0.701334 0.216234 -0.493898 -0.231484 -1.210855 -0.070019 -0.415258 1.053360 -0.204246 -1.056747 -0.465633 -0.345726 -0.553878 -0.636313 -1.082606 1.159123 0.183991 -1.762346 0.004563 0.423528 0.142459 0.219642 0.071453 0.851626 -0.352243 0.470477 -1.146995 -0.653601 -1.352170 1.567805 0.331766 -1.127459 0.334481 0.153811 -0.711200 0.140526 -1.078250 0.039456 -0.871314 -0.450914 0.276572 -1.661025 -0.694914 0.752033 -0.324180
ayy -0.612406 -0.697081 -0.021691 0.450416 -0.226677 -0.908776 0.995671 0.018128 -0.518329 -0.177129 -0.677366 -0.786550 1.097833 0.434586 -0.479483 -0.225402 -0.018744 0.895980 -1.110799 -0.163019 0.597151 -0.076155 -0.764747 0.847190 0.014330 -0.146030 -0.454494 0.891497 0.363412 0.560067 0.177663 0.571771 0.725588 0.649213 1.280066 -0.760772 -0.663092 -0.690558 -0.268858 0.615171 -0.992558 0.277785 0.693561 -1.096063 -1.935896 1.153590 -0.383604 0.223100 1.434155 0.397720
uh 0.632758 -0.195750 0.196958 -0.400925 -0.070154 -0.126866 -0.231143 0.198891 -0.966602 0.316399 0.432159 -0.769679 0.877073 0.285448 0.646836 -0.662451 -0.279078 0.937397 0.321371 -0.738641 0.287432 0.495114 -0.804215 1.011494 0.259210 0.925905 -0.197817 -1.097692 0.280016 2.595674 0.440645 -1.381759 0.078927 -0.181266 -0.052855 -1.370769 0.726335 0.094691 -0.471008 0.789887 -0.210476 -0.132139 -0.691709 -1.018462 -1.014399 1.344537 -1.536461 -0.332489 0.660575 -0.207402
tell -0.092315 -0.363265 -0.302028 0.774137 0.339268 -1.577774 -0.747599 -0.315486 -1.251781 0.919371 -0.355142 -0.577265 0.135129 0.055605 0.013172 -0.887272 -1.541934 -0.312452 -0.772103 0.498264 0.585845 -0.496709 -0.861933 -0.000423 0.620183 0.689210 0.705190 -0.428782 -0.178481 -0.339564 -0.272195 -0.927857 0.223710 -0.561671 -0.368669 0.271345 0.128694 -0.426203 -0.033731 0.264856 -0.465061 0.159246 0.322861 -0.147284 -0.631958 0.195177 -1.416190 0.245696 1.572662 -0.942089
ass -0.522277 -0.718873 -0.084720 0.070582 0.115834 -0.284064 -0.248034 0.693118 -1.121868 0.559390 -0.312767 -1.146802 0.161123 0.114451 0.637582 -0.248694 -1.337886 -0.040751 0.327789 0.623726 -0.406895 0.312444 -1.481782 1.125103 -0.230466 0.960450 -0.939681 -0.027529 -0.533525 0.516373 0.786614 0.119036 -0.215166 -0.335494 -0.275609 -1.359437 -1.301907 -1.208787 0.556834 -1.208031 -0.399075 0.646718 -0.879400 -0.495494 0.273160 0.821496 -0.757439 0.309083 1.181632 -1.126678
hit 0.431078 -0.878845 0.018789 0.531779 0.856094 -0.777819 -0.742138 0.670371 -1.178811 0.204067 -0.718535 -0.013696 -0.423120 0.038446 0.009440 -0.802696 -0.304726 0.336484 0.539000 -0.247343 0.342918 -0.997888 -0.938812 0.177639 0.726590 0.966322 -0.606399 -0.726122 -0.180663 -0.713349 0.309291 -0.050010 -0.361878 0.494421 -0.350510 0.189025 -0.407936 0.219726 1.298638 -0.626978 0.380594 -0.153852 -0.392201 -1.034876 -1.491838 1.152199 -0.862992 -1.036222 1.364174 -0.280888
man -0.275331 -0.690676 -0.954729 0.344377 0.162752 -1.013384 -0.116302 0.875608 -0.051396 0.048383 -0.692215 -0.833076 0.666300 -0.797431 0.040108 -0.090398 -0.637057 0.042882 0.622799 0.487311 1.506010 0.672472 -0.700693 0.992981 -0.410973 0.064014 0.928134 -0.694888 -0.485866 1.265748 -0.253058 -0.381234 -0.314373 -1.107379 -1.269804 -0.470745 -1.087859 -0.145058 0.428560 0.282084 -0.365831 -0.085460 -0.806474 -0.665574 -0.707709 0.389414 -0.537015 -0.256819 0.308665 -0.782148
bitches 0.829914 -0.981443 0.320498 0.481604 0.423404 -1.323003 0.635737 0.512477 -1.541640 0.243213 -0.677237 -0.125633 -0.235739 0.489568 -0.552953 0.415787 -1.389813 0.020763 0.868967 0.892831 -0.160355 0.532281 -1.161857 1.201849 0.273012 0.460896 -0.770325 1.178238 -0.442865 0.790489 -0.362730 -0.835126 -0.768047 -0.146639 0.726615 0.780204 -1.042854 0.019051 0.237180 0.418730 -0.426767 0.513521 0.016951 -1.133073 -1.012624 -0.690441 -0.974946 0.562067 0.695052 0.183417
lyrics 0.338404 0.083881 -0.150170 0.724203 -0.172606 -0.378610 0.347241 -0.070528 -0.643876 -0.473405 -0.973340 -0.803372 0.430422 -0.051208 -0.401988 1.035689 -0.961611 0.550608 -0.008644 -0.496470 0.963778 -0.388965 -1.366138 0.215087 0.366170 -0.100844 -0.229073 -0.549717 0.668336 1.202086 -0.570885 0.012961 0.515950 0.253680 0.141837 -0.429487 -0.617532 0.109670 0.313076 1.099036 0.016082 0.001943 -0.125883 -0.848328 -0.490393 1.076900 -1.129509 -0.217749 0.836391 -0.913079
said 0.293485 -0.259509 1.984453 0.901172 1.038557 -0.539047 -0.660043 -0.314796 -0.585686 -0.042680 0.928028 -0.011470 0.299839 -0.343991 0.411383 0.733052 -1.231572 0.378919 0.349354 -0.534003 1.421726 -0.390012 -1.139021 0.729551 1.254187 -0.769791 -0.119069 -1.384670 0.603381 -0.288842 0.285280 -0.957186 -0.638413 -0.326475 -0.699060 0.033254 -0.356396 -0.705791 0.158882 1.029333 1.066434 0.443937 0.686457 -0.027542 -0.962335 2.209977 0.110735 -0.791109 0.744737 0.561698
ta -0.942928 -0.902357 0.189213 0.370381 -0.083454 -1.015341 0.277643 -0.987121 -0.888669 -0.159482 -0.884900 -1.546154 0.904193 0.718131 0.120179 -0.900309 0.432202 -0.230248 1.486199 0.402915 0.377741 -0.167429 -1.594199 0.224401 0.637304 0.652296 0.480515 0.323677 0.182017 -0.699382 -0.772617 1.199169 -0.122449 -0.963856 -1.193490 -0.061886 -0.511987 -0.576884 -0.082140 -0.272885 0.797214 -0.192761 0.225455 0.124648 -1.316931 1.037944 -1.238934 0.108633 0.304747 0.450083
watch -0.994363 0.707345 0.289066 1.244498 1.209861 -0.688858 -1.098106 -0.430616 -1.983357 -0.133783 0.424235 0.631000 -0.080892 0.588898 -1.064987 -0.012318 -0.432248 -0.071626 -0.194218 1.072662 0.377568 -0.379003 -0.461205 -0.643239 1.314206 1.236891 -0.453466 0.024471 -0.156084 0.990617 1.213510 0.314678 0.677341 0.751752 -0.322933 -0.600298 -0.597887 -0.042966 1.140148 0.907458 1.032951 -0.079075 -0.017731 -0.616633 -0.800237 1.466886 -1.279404 -1.800873 0.489164 -0.107901
la 0.958774 2.349129 0.162107 0.096665 -0.390150 -0.920919 0.080117 -0.212328 -0.071590 0.682252 -1.477106 -0.224994 -0.561856 -0.551697 -0.068095 -0.644479 -0.238968 -0.171677 0.030162 -1.231457 0.977492 -0.183310 -0.571126 -0.194485 -0.810057 -1.623234 0.224191 -0.331487 0.945584 0.581092 1.681434 0.051944 1.319893 0.496472 1.240997 -0.373938 -1.060903 0.561247 0.262686 1.144945 0.117424 0.602658 -0.391583 -0.256879 1.212015 -0.727604 -1.733234 0.326718 -0.361535 -0.156374
new 0.049799 0.694542 -1.229999 1.384860 0.460278 -0.066619 0.911052 0.683478 -1.451256 -0.802136 -0.698411 -2.020549 -0.052922 0.583658 0.737081 -0.620071 -0.862025 -0.022867 0.223728 -0.900785 1.722426 1.060030 0.002095 0.377647 1.113203 0.561624 -0.084253 0.208154 -0.490014 0.384259 0.521768 -0.013728 -0.246682 0.446499 0.177462 1.099024 0.606075 -0.939696 0.035903 0.937409 -0.963605 -0.724489 0.344507 -0.212828 0.170558 -0.135858 -1.760225 -1.122291 0.396988 0.576009
tryna -0.332453 0.429493 -0.336586 0.014319 1.511041 -0.640407 -0.325257 -0.167163 -0.516063 -0.235208 -0.810516 -0.498412 1.392397 -0.835857 -1.022597 -0.352798 -1.058882 0.719795 0.061823 -0.598369 0.115222 0.273516 -0.395881 0.378947 0.363819 1.069651 0.519023 -0.651796 -0.484255 -1.083572 -0.888161 -0.143498 -0.059745 -0.005017 0.099697 0.633691 -0.948189 -0.038882 0.146014 0.297275 -0.331028 -0.078347 -0.350081 -0.460912 -0.459093 0.326891 -1.504182 0.132692 0.845792 -0.648423
look 0.393109 -0.774593 0.715145 0.550549 0.601074 0.362720 0.099501 0.878487 -0.764395 -0.038601 0.184178 0.445058 0.274028 0.060881 -0.886896 -0.093562 -0.867861 -0.333247 -0.173062 -0.152639 0.701402 -0.070874 -1.208552 1.124820 1.066906 1.032341 0.453047 -0.355648 0.548722 0.950359 -0.181368 0.746520 1.893455 -1.147964 0.203649 -0.786162 -0.813850 -1.258271 -0.131676 0.362308 -0.314056 -1.064768 0.349522 -0.475393 -0.412435 0.227706 -1.008811 -0.035309 0.621807 0.230396
feel -0.920899 -1.027994 0.428889 0.607717 0.159990 -0.721616 -0.379101 0.069968 -0.549357 -0.077688 -0.587482 -0.091506 1.266470 0.175763 -1.152379 -0.542067 -1.381265 -0.157682 0.429433 -0.506272 1.009381 -0.492539 -1.176199 -0.458497 0.052379 -0.103763 0.936926 -0.426017 -0.595647 0.626737 0.482003 -0.313640 -0.323659 -1.754924 1.128726 0.434324 -0.813015 -1.276570 -0.766490 0.779912 0.344871 -0.022907 -0.108186 0.958349 -0.303638 -0.648778 -1.442064 -0.630609 0.326682 -0.461854
pussy 0.052064 -1.344704 -0.635066 0.658883 0.432274 -0.381214 0.492370 -0.069210 -0.760165 0.379629 -0.442843 0.222150 0.497803 -0.781640 0.574376 -0.816056 -1.406742 0.688206 0.427540 -0.569000 -0.734631 0.828172 -1.176090 0.498349 0.753202 -1.029111 -1.456574 0.281549 0.036546 0.003155 -0.210179 -0.449227 0.990224 -0.972996 -0.854476 -0.301711 -0.939526 -0.751765 0.155294 -0.162765 -1.281389 -0.433993 0.245588 -0.904292 0.379791 1.517780 0.005052 -0.360096 1.277087 -0.434133
come -0.317809 -0.941523 -1.188043 0.804321 -0.016537 -0.401195 -0.653514 -0.610764 -0.390380 -0.601597 -1.120967 -0.112172 1.007185 0.651331 0.063526 0.115548 -0.622640 -0.006703 -0.016785 0.620697 0.704421 -0.665661 -0.887026 0.155875 0.090005 0.329318 -0.498112 -0.436592 0.643806 -0.259463 -0.007555 -1.530057 0.386482 -0.297486 1.045212 0.727535 -0.500473 -0.819304 0.096624 -1.216896 -0.725991 -0.803532 0.600956 -0.819488 -0.767905 -0.000912 -1.031027 0.380145 0.918891 -0.207544
lil 0.501078 -0.576046 0.412334 0.708002 0.935553 -0.009437 -0.462369 0.245151 -0.580719 -0.395461 0.527200 -1.940587 1.866922 0.260799 -0.034134 0.333443 -0.182442 -0.609963 -0.219574 1.640638 1.590896 -0.665815 -0.098143 -0.008559 0.917374 0.838803 -1.313836 0.582215 -0.364932 0.546563 0.106928 -0.378563 -0.041788 0.488143 -0.017291 -0.201214 -1.410659 -0.518428 0.476939 0.384391 -0.272849 0.943095 -0.228471 -0.674142 -0.271454 0.916711 -0.218446 -0.777049 0.392421 0.189622
real -0.006342 -1.678024 -0.556840 0.303057 -0.070237 -0.151537 -0.039259 1.393486 -1.196666 0.826270 -1.293037 -0.383554 0.525665 -0.688754 0.321217 0.629378 -0.489045 -1.292452 0.503655 -0.647926 0.030806 0.559840 -0.723893 -0.226733 0.941073 0.592970 0.857627 -0.820514 -0.669880 0.639308 0.125948 -0.879150 -0.031377 -0.458848 0.166038 -0.100477 -0.836103 -1.096319 0.036506 0.363025 -0.329509 -0.177856 0.716276 -0.241595 -0.930721 0.620167 -1.026349 0.272467 0.421220 0.676736
life -0.062397 -0.202897 -0.326744 0.894512 0.054027 -1.877883 0.845840 -0.037653 -0.653996 0.275457 -1.081124 0.263122 0.822651 0.051374 0.602325 1.180105 -0.592628 0.491647 0.899042 -1.078980 1.163811 -0.262605 0.043230 0.021931 0.256721 0.780673 0.918577 -0.144177 0.911649 -0.213513 -0.188927 -0.719839 -0.074282 -2.159994 -0.436736 1.294419 -1.014346 -0.809358 -0.532480 0.021826 0.050003 0.067127 -0.288239 -1.297438 -0.959493 0.103564 -0.260533 -0.240957 0.851068 0.592247
ya 1.296644 -0.978950 0.732987 -0.352111 1.499536 -0.841825 -0.573270 0.555313 -0.577596 -0.783530 -1.027203 -0.372088 -0.598476 -0.207443 -1.263281 0.146466 -1.099284 -1.019878 1.861392 0.096850 0.461774 0.201699 -1.564076 -0.008332 0.127325 0.201730 0.505509 -0.246630 0.680566 -0.431516 -0.645973 0.111491 0.437073 -0.387763 0.431765 -0.482509 -0.052904 -0.477460 0.160964 0.429774 -0.051663 -1.909012 0.162669 -1.133877 -0.446409 -0.008087 -0.108731 -0.492011 0.101298 0.594593
think -0.570309 -0.602454 -0.207920 0.250852 0.239578 -0.143333 0.336876 0.233987 0.042000 -0.655835 -0.686434 0.188931 -0.475137 1.084930 -0.410725 -0.420104 -0.363179 0.114860 -0.388895 -0.841521 1.327986 -0.840024 -1.470586 1.291359 0.606327 -0.353550 0.269132 0.061777 -0.480158 0.056621 0.016709 -0.415354 -1.014794 -0.144002 -0.344875 0.109178 -1.130352 -1.517800 0.366667 1.390998 0.055382 -1.312489 0.419228 -0.657809 -0.758628 -0.383169 -0.444011 -0.061255 1.543437 -0.069662
hey -0.165956 -0.891891 -1.136273 1.398875 0.243167 -0.136255 0.093049 -0.076491 -0.586254 -0.248651 0.123595 -0.034196 0.019555 -1.699517 -0.994596 -0.901936 0.267496 0.222471 0.218177 0.250088 0.697254 -1.041523 -1.869948 -0.497791 -0.263317 -0.414373 -0.456997 -0.083040 -1.175992 0.485822 -0.011908 -0.905508 1.324682 0.327503 0.812514 0.597943 0.731766 -1.286781 -0.101910 1.036913 0.233734 0.516755 0.673107 -1.291873 -0.206163 1.295368 -1.480464 -1.071638 0.807085 -0.165772
good 0.593983 -0.092295 -0.120555 0.195455 0.149419 0.610703 0.532887 0.344079 -1.202669 -0.052736 -1.614737 0.277753 0.244772 -0.193353 -0.308300 0.551473 -0.088092 -0.962134 0.144060 -1.089578 0.174098 -0.796641 -1.227883 0.163725 1.047709 -0.427233 -0.350405 -0.685920 -0.184784 0.579456 0.116682 -0.668001 0.399176 -1.662258 0.216800 -0.261924 -1.896467 -1.334418 0.808424 1.088279 -0.900751 0.565148 -0.355625 0.106559 -0.307478 0.378169 -1.302663 0.095006 1.105022 1.002010
fuckin -0.505027 -0.058765 0.426629 -0.992114 0.529184 -0.088546 0.532842 0.817242 -1.189660 0.539187 0.220768 -0.963564 1.246832 -0.007858 0.708582 -0.448855 -0.428700 0.156460 0.265384 1.035289 -0.576479 -0.750371 -0.833081 1.376192 0.448719 -0.125600 -0.060153 0.105845 1.323506 0.686330 -0.031879 -0.147153 -0.620206 0.505350 0.412393 1.098312 -1.261868 0.658313 -0.265954 -0.041507 -0.486307 0.370788 0.621680 -0.785968 -0.287670 0.036164 -1.459720 -0.188413 0.355750 0.253347
big 0.645304 -0.313958 -0.507006 -0.031535 0.234468 -0.559664 0.877060 -0.270585 -0.849391 -0.533821 1.059968 -1.381250 0.030580 0.598722 -0.144857 -0.797491 -0.285404 -0.562240 -0.195015 0.727829 -0.042722 0.718699 -0.291113 0.015515 0.843949 0.732742 -0.918266 -0.446807 0.642808 0.031169 -0.798442 -1.125406 0.292616 -0.501302 -0.356791 -0.655891 -2.336335 -1.336880 0.842492 0.595989 0.614251 0.440708 -0.353085 -0.591940 -1.254216 0.151518 -0.877871 -0.048435 -0.559716 0.182034
boy 0.317120 -0.560490 -1.249165 0.398379 0.677718 0.239607 -0.409045 -0.912843 -1.002297 -1.195018 -0.695142 -0.153948 0.711088 -0.739729 -0.096331 -1.333499 -0.255543 0.091515 -0.008463 0.693342 0.722985 0.768363 -0.933882 0.443182 1.283899 -0.662333 -0.237447 -0.529073 -0.456759 0.190041 -0.006184 0.257178 1.158731 -0.990632 0.061266 0.760807 -1.478112 -0.190292 -0.604733 0.306017 -0.671620 -0.036343 -0.483914 -0.735421 -0.260066 1.300066 0.669633 -0.959350 0.603706 -0.268828
ho 0.073213 -0.506073 -1.760537 0.276143 1.396148 -0.780922 -0.260036 -0.241305 0.311028 0.494829 0.586267 -0.289552 0.394456 -0.696428 0.236459 -0.383603 -0.361236 -0.095129 -1.369296 1.449911 0.154392 0.507964 -1.776258 0.071894 -0.198282 0.017588 0.121309 0.552378 0.787840 0.313069 -0.104083 -1.250881 -0.047693 -1.275363 -0.390783 -0.303780 -0.431045 -0.626526 0.114691 1.153147 0.317271 0.110039 -1.151560 -1.400241 -0.449124 -0.051763 -0.974007 0.176790 0.351702 -1.151848
bad -0.369443 -0.722047 0.422363 0.067568 0.836180 0.573956 0.215462 0.528163 -0.958705 -0.117537 0.074839 -0.988404 0.288724 0.279556 0.009560 0.896366 -1.217026 -0.899394 -0.439450 0.357394 1.409635 -0.610223 -0.873237 0.670932 0.710870 0.564454 -1.546744 0.533482 -0.547891 0.850135 -0.721471 -0.507559 0.010092 -1.247720 0.092065 0.465558 -0.518534 0.005829 0.955986 0.313102 -0.520337 0.571890 -0.288248 -0.660409 -0.187802 -0.330690 -0.728816 0.749662 0.483808 0.843828
night -0.576414 -0.174528 0.000114 0.695679 -0.778865 0.672935 -0.606867 0.734329 0.143061 0.582305 -0.389768 -0.731688 -0.098503 0.296963 -0.401087 -1.077730 -0.573187 1.606182 0.801904 -1.658681 0.817132 -0.973245 -1.713331 -0.333907 -0.384876 -0.388467 -0.474234 -0.188660 0.575007 -0.273499 -1.303955 -1.307275 -0.080996 -0.515302 -0.538763 -0.538446 -1.525818 -0.174179 -0.378200 0.160117 0.047835 -0.457427 -0.438248 -0.352262 0.543046 -0.023146 -0.481344 -1.344769 1.941937 0.844348
hoes -0.465070 -0.525571 -0.941572 -0.472068 1.062452 -0.878325 0.010595 0.005099 -0.399176 0.029684 -0.270732 -0.363456 -0.451196 -0.254331 -0.160031 0.455636 -0.507750 0.040806 -0.706809 0.037913 0.574970 0.095196 -1.556291 1.272401 0.068029 0.435260 -0.250055 0.653523 -1.084678 0.712330 0.811925 -0.264306 -0.201302 -0.265621 -0.349973 0.553481 -0.101295 -0.381938 0.019575 0.523924 -0.115127 0.341412 0.129624 -1.588651 -0.914479 -0.689920 -1.284383 -0.678605 0.184611 0.121236
told 0.429689 -0.664383 0.253566 0.913033 1.213702 -0.552626 -1.203053 0.083434 -0.943955 -0.447384 -0.475964 -0.988050 1.073928 -0.565990 -0.580371 -0.113549 0.695482 -0.141224 0.133903 -0.242101 0.732916 -0.227167 -0.428205 0.736127 0.459257 -0.636003 0.984506 -0.193472 0.260939 -0.625893 0.021457 -1.100293 0.076927 -0.276848 0.065268 0.217127 -0.580948 -0.863687 0.188049 -0.519115 -0.359913 0.204210 0.792042 -1.300603 -0.938623 1.657846 -0.217179 -0.191295 0.850835 0.512205
pull 0.845042 -0.685766 -0.142743 -0.553820 1.084230 0.366368 -0.029340 -0.513164 -0.311866 0.165443 0.272943 -0.493336 0.282874 0.189709 0.985388 -0.305720 -0.732613 -0.787570 0.067903 0.681421 -0.036586 0.295865 -0.231125 0.250144 0.148045 0.506226 -0.157239 0.205544 -0.239543 0.220183 0.249719 0.545165 -0.142980 0.257345 0.063578 0.374133 -0.458989 -1.763720 0.766471 0.453806 0.743306 -1.207424 0.628025 -0.764061 -1.708213 -0.002439 -0.777610 -0.884676 1.555050 -0.394948
gang -0.063430 0.660448 -1.460152 1.104514 0.300070 -0.458120 -0.483447 -0.482465 -1.004314 0.817197 0.406233 -1.340832 -0.085035 0.671361 0.360934 1.273179 -0.561486 -0.495196 0.058954 -0.885590 -0.356070 0.204439 -0.783432 -1.498456 0.589040 0.455362 -0.660931 1.364596 0.350602 0.638757 -1.222473 -0.706620 -0.393568 -0.042916 0.202682 -0.021668 -0.971673 -0.793297 -0.081779 0.581599 -0.500317 -0.397600 1.551676 -1.350540 -0.509103 1.093129 -0.174504 -1.082921 -1.071443 -0.528920
woo 0.532356 -0.501788 1.008820 1.153685 -0.187337 -0.561354 0.950984 0.414522 -0.527150 -1.537981 0.364155 0.263117 0.138361 -0.835204 0.381097 -0.447359 -0.877000 0.915766 0.549626 0.431729 0.903537 0.217879 -0.096725 0.321518 0.270610 0.121416 1.306939 -0.372335 0.141098 0.807657 0.546498 0.631167 -0.408512 0.441093 -0.486462 0.299410 -1.036372 -1.285477 1.097929 0.149568 -1.465093 0.696970 0.902664 -0.590828 -0.736239 0.403054 -0.616878 -0.415912 0.705638 -0.364418
huh 0.083469 -1.024639 -0.159922 0.516200 -0.475087 0.151568 -0.293584 -0.003399 -0.542848 0.115810 0.127130 -0.305083 0.916384 0.354315 0.535267 -0.591267 -0.756476 1.363862 0.869571 0.269861 0.179353 -0.241215 -0.602887 0.693380 0.718019 0.509840 -0.230448 -0.212584 -0.200728 2.018650 -0.373529 -0.985491 -0.173614 0.375283 0.546407 -0.039133 0.175352 -0.316650 0.210742 0.573985 -0.876899 -0.646056 0.857830 -1.106943 -0.845465 0.775508 -0.209371 -0.286673 0.586197 -0.425800
turn -0.119492 0.067430 -0.748079 0.156282 -0.048113 -1.076168 0.814625 -0.508673 -1.007581 -0.716394 -0.341726 0.081833 -0.587286 0.302050 -0.279644 -0.913734 -1.021225 0.821813 0.462858 1.335137 1.193342 -0.439191 -1.777355 -0.037168 0.230932 -0.027031 -1.310082 0.026674 0.441041 -0.211415 0.713237 -0.631806 0.749232 -1.202470 0.386817 0.872798 0.463204 -0.518168 -0.638415 0.109602 0.799579 -0.117515 -0.695435 -0.491335 0.861641 0.966883 -1.024251 -0.770819 0.544379 0.118657
day -0.250796 0.011259 -0.727308 0.775842 0.575576 -0.120265 -0.046107 1.324815 -0.699793 -0.346247 0.112845 -1.004710 0.671008 0.398535 0.045751 -0.541962 -0.153427 0.245811 0.871288 -0.289316 1.652058 0.391770 -0.563374 0.326700 -0.458532 0.218438 -0.258940 -0.115154 -0.266469 0.448925 -1.373690 -1.123005 -0.598611 0.476300 0.025738 -0.289077 -0.646557 0.041943 0.539424 -0.399381 0.794241 -1.207018 0.870828 1.176909 0.342186 0.261911 -1.068283 -1.001101 1.195821 0.395598
yo -0.045044 0.821473 0.107841 -0.592658 1.141743 0.365465 0.096364 0.868751 -0.690206 0.493834 -0.056116 -0.287184 0.010042 -0.874559 0.774962 -0.092489 -1.777070 -0.540696 0.838970 0.414258 -0.098744 0.206122 -1.799580 0.991003 -0.849832 0.628648 -0.903744 -0.455690 0.834754 -0.211448 0.368218 -0.544740 0.850919 -0.086439 -0.788262 -0.372928 0.111013 -0.137236 0.921779 -0.005047 0.751484 0.783391 0.939156 -0.585584 -0.586275 0.477886 -0.669230 -0.030376 0.115429 -0.334331
cause -0.148362 0.132049 -0.880111 -0.259100 0.694900 -0.345775 -0.196796 0.658307 0.178895 -0.010420 0.181065 -0.710248 0.557261 1.320643 -0.638674 -0.385897 -0.782597 0.690293 0.101681 -0.017571 0.012034 -0.018580 -1.873745 0.462063 1.662286 -0.665294 0.370687 0.429370 -0.800026 -0.019377 -0.563742 -0.281293 -0.661332 -0.807283 -0.656570 -0.117289 -0.500976 -0.346948 -0.589239 -0.296569 0.611484 -0.320707 -0.663639 -1.107678 -0.417406 -0.171561 -0.739456 -0.641178 0.605142 1.179522
god -0.177433 -0.345436 -0.796188 -0.263603 -0.849871 -0.682112 0.806034 0.033595 -0.420508 -0.005823 1.038468 -0.712249 1.656539 -0.279085 0.055969 0.513311 0.186634 -0.363211 -0.749289 0.212501 0.583907 -0.143583 -1.590484 0.885475 0.054629 0.220074 1.075050 -0.702902 -1.186078 0.416894 -0.643692 -0.203964 0.476535 -0.216587 0.730324 -0.584145 -0.822428 -0.351592 1.249827 0.754907 1.401492 -1.103449 0.212547 0.506691 -0.581212 0.522432 0.861609 -0.967394 1.953784 -0.127762
mind -0.525010 1.092202 -0.675069 0.819557 -0.361326 -0.850837 -0.149349 -0.044264 0.290233 -0.017811 -0.467224 0.745671 0.974663 0.246790 -1.216838 -0.787765 -0.310681 0.196287 1.714484 -0.147078 0.930001 -0.264532 -2.162314 0.228897 0.176429 0.677622 0.164107 -0.174848 0.211455 0.606275 -0.986204 -0.626071 0.950972 -0.089346 0.156982 0.733117 -0.713900 -0.254435 0.155250 0.743332 -0.752332 0.386918 1.809141 -0.175551 -0.419480 -0.026440 -0.118857 -0.496147 0.267548 0.127302
drop -0.829852 -0.776583 -0.153724 0.737702 0.443517 0.554402 0.397166 -0.488826 -1.204761 0.534266 -0.846961 -0.537027 0.604020 0.550325 0.343839 -0.321419 -1.318955 -0.212615 -0.033422 0.107217 -0.137874 0.266318 -0.303005 -0.911196 0.445051 0.021892 0.076096 0.820126 1.234731 0.552270 1.494547 0.871852 -0.895158 -0.135931 -0.245274 -0.279092 0.479271 -1.016567 0.295431 0.143412 -0.086396 0.875670 -0.438536 -0.213161 -1.218400 1.100757 -0.978331 -1.104793 1.625832 -1.565134
pop -0.734893 -1.006792 0.553852 -0.406222 0.036450 0.740505 -0.158261 -0.458431 -1.977769 0.407073 0.111327 0.757532 0.708696 -0.452017 0.577059 0.275006 -1.178870 -0.092610 0.188562 -0.486838 0.785102 0.546120 -0.995905 -0.636277 -0.203893 -0.272636 -1.148057 0.926750 0.436571 0.058143 -0.479468 0.292848 -0.327414 -0.779570 -0.464694 -0.230119 -0.886094 -0.443790 -0.504718 -0.186751 -1.017659 -0.494553 0.345875 -0.742308 -1.855015 0.178749 0.654659 -1.599037 1.151429 -1.318656
da 0.302360 1.449395 -0.077689 -0.049513 -2.266125 -0.351273 -0.377795 -0.137101 -0.323694 -0.319265 -1.917459 -0.225096 0.289201 -0.526808 0.596251 -0.558531 0.063358 -0.644211 -0.265474 -0.303043 1.432061 0.054948 -0.443293 -1.077036 0.676093 -1.080125 -1.028334 -0.495743 -0.032022 0.301466 1.790308 0.210628 1.589378 -0.198249 0.060070 -0.061275 -0.236025 -0.324531 0.140810 0.948701 0.817136 0.489525 0.477405 -0.141468 -0.098507 -0.677607 -0.660848 0.033657 -0.572056 -1.231301
leave -0.792981 -0.112683 0.545372 -0.438064 0.787220 -0.578002 0.266281 -0.856934 -0.389458 -0.432311 -0.050404 -1.227401 0.457010 1.658682 -0.426490 -0.077561 -0.318532 0.215742 -0.104572 0.785511 0.044638 -0.009922 -0.742474 0.250310 0.697879 -0.048823 1.154810 -0.198050 0.143465 -0.510123 -0.249379 0.693948 -0.460720 0.033776 -0.072062 -0.818745 -0.610420 -1.282951 -0.261568 0.909691 -0.735236 -0.702125 -0.081139 -1.302794 -0.685796 -0.024190 0.313231 0.372864 1.528954 -0.966807
talk 0.425942 0.108288 -0.210447 0.203466 0.748023 -1.256259 -0.050223 -0.407378 -0.277338 -0.588660 -1.385786 0.241930 1.316822 -0.592375 -0.133357 -0.882072 -1.272924 -0.436697 0.159278 -0.223697 -0.470966 1.385206 -0.235078 0.984152 0.866722 -0.533660 -1.339967 0.011865 -0.854105 1.288004 0.258053 -0.203914 0.561709 -0.032490 -0.378088 0.392571 -0.513195 -0.645907 -0.637082 0.152437 -0.298555 -0.701646 0.921200 -0.561822 0.216792 1.177396 0.092314 -0.168192 1.252246 -0.342299
play -0.133437 -0.180877 -0.340869 0.046442 0.656243 -0.177814 -0.995936 0.214435 -0.309327 -0.855964 -0.294671 -1.009882 1.038045 0.410190 0.097173 0.362983 -0.881454 0.819974 0.160120 -0.229194 0.300474 0.341466 -1.852135 -0.338483 0.487426 -0.944050 -0.108314 -0.783578 0.270678 -0.680454 -0.111151 -0.900365 -1.090661 0.044108 0.258158 -0.527349 0.096962 0.061348 0.316548 0.212163 -0.315102 0.269477 0.869280 0.230700 -0.485375 0.345304 -1.292301 -0.388890 0.365064 -0.436987
better -0.391487 -0.407714 -0.621744 -0.404700 1.638714 -0.666716 0.704824 -0.101142 -0.449906 -0.114267 -0.432123 0.502201 -0.465309 0.193000 -0.267762 -0.054836 -0.060367 0.125899 0.001274 0.705183 0.901774 -0.013233 -1.705244 0.701748 0.100110 0.426598 -0.448728 -0.496047 0.025656 0.226960 0.188434 -0.610741 0.116439 -0.208018 -0.228839 0.513117 -0.439986 -1.738870 -1.110770 0.997193 -0.607016 0.650057 0.889767 -1.244909 0.470246 0.432580 -0.437067 -0.827140 0.215553 0.363033
wo 0.906412 -0.942299 -0.593249 -0.047268 -0.063849 0.266695 -0.475444 -0.929822 -1.441241 0.287076 -0.028336 -1.240490 0.969817 0.561591 -0.442972 0.790793 -0.999165 0.114944 0.191980 0.093020 0.616276 0.239331 -1.394770 -0.081787 -0.026577 0.122391 0.519297 -0.026670 -0.148122 -0.774234 -0.636137 -0.859946 0.136485 0.064811 0.611760 -0.269951 -0.336305 -0.923419 -0.344162 -0.406389 -0.103925 0.615390 0.707280 0.051292 0.050832 0.629836 -0.143516 0.498628 1.550800 0.268135
ride 0.675637 -0.135805 0.660097 -0.022015 0.247644 -0.784818 -0.419453 0.079285 -0.569066 -0.314047 -1.025615 -1.524222 0.247400 0.275874 0.339922 0.652140 -0.810581 0.527601 -0.072332 -0.120334 0.071208 -0.714770 0.552937 -0.670369 1.051101 0.509826 0.157282 -0.705267 0.891684 0.230310 -0.640507 -1.029745 0.388423 0.669559 0.012465 0.141063 -0.144923 -1.727224 -0.209003 -0.341469 -0.154604 -0.683663 0.548783 -0.582911 0.565749 -0.258442 -1.318770 -0.576532 1.657169 1.273267
left -0.016031 0.242858 0.645556 0.315243 -0.273366 0.671538 -0.863780 -0.356175 -0.405517 1.291785 -0.214052 -0.131208 -0.382160 -0.009383 -0.156412 -0.458715 0.446674 -0.075242 0.823021 0.265558 1.023545 -0.401239 -1.860074 0.289327 0.351837 1.255624 0.349339 -1.218481 -0.075785 -0.411013 1.266487 0.682346 0.027331 -1.395296 0.206340 -0.017577 -0.140150 -0.395000 0.446161 -0.745075 1.139837 -0.570429 0.483434 -0.885179 -0.028331 1.097757 -1.568547 -0.458606 0.550288 0.083534
high -0.165213 -0.054123 -0.105893 -0.579151 -1.017046 0.153347 0.735108 -0.705710 -0.316287 -0.013985 0.492037 0.891002 -0.364567 0.082051 -0.685328 0.964982 0.030304 1.736079 -0.526067 -0.568622 1.547155 -0.374855 -0.799821 0.640785 1.758407 0.040916 -0.147941 0.649000 -0.008478 -0.814114 -0.506151 -0.395098 -0.073668 -0.815330 0.798726 0.516133 -0.524113 -1.142316 -0.062561 -0.114666 -0.797564 0.099713 -0.717702 0.400238 -0.644305 0.652211 -1.660157 -0.234656 1.355811 -0.920047
aye -0.153093 -1.564921 0.408988 0.047427 0.890547 -0.075189 0.162043 -0.335073 -0.464099 0.444687 0.548251 0.829914 -0.881108 -1.355363 -1.370212 0.104674 0.107092 0.174986 -0.002218 -1.294921 2.149744 -0.881905 -1.378278 -1.344736 0.190654 -1.161796 0.469756 -0.828872 0.647919 -0.238354 -0.149550 -1.121800 -0.382892 -0.015387 1.608899 -0.523929 -0.420616 -0.144725 -0.201504 -0.687271 -0.882340 -0.059751 1.209279 -1.583859 -0.061595 -0.153712 -1.550587 -0.482548 0.393638 -0.076841
damn -0.084842 -0.357447 0.528900 0.010090 0.509730 0.319465 0.393587 0.622978 -0.522087 0.851124 0.006739 -0.589319 1.306716 0.440173 -0.337990 0.172126 0.603898 -0.074488 -0.598331 -0.027752 0.893462 -0.226988 -1.206343 0.487842 0.663169 -0.110831 0.193990 0.126944 -1.488443 0.493625 -0.847423 -0.020647 0.702318 -0.317130 -0.225484 -0.151551 -0.785582 -0.442832 0.137844 0.172833 0.439895 0.215452 -0.279141 -1.460999 -0.715985 0.540654 0.046506 -0.477198 0.746710 -1.048505
hold -0.408208 0.740435 0.684239 -0.079654 -0.361479 -0.763488 -0.710893 -0.354137 -0.500428 0.027070 0.175066 -0.931347 1.014192 -0.434049 0.661364 0.570540 -0.869477 0.495655 0.526110 -0.370389 -0.993702 -0.250408 -1.589926 -0.275412 -0.657678 1.084912 0.710464 -0.443367 -0.559507 1.041550 -0.375988 -0.211669 -0.119349 -0.412842 0.073020 0.434267 -0.141967 -1.284270 0.161203 0.159680 0.045472 -0.241533 0.074929 -1.875169 0.297835 0.653261 -0.705396 0.170426 0.985729 1.007315
came -1.076051 -0.457552 0.454466 0.998901 0.185615 0.816680 -0.774183 -0.019358 0.206180 -0.862127 1.195278 -1.991700 -0.518246 -0.322534 -0.181775 0.929836 -1.266734 -0.462920 -0.349867 0.035669 0.025185 1.349226 -1.032032 -0.224714 0.096740 0.217801 0.141768 -0.367228 -0.417672 0.289090 -0.701861 -0.023996 0.028786 -0.564335 -0.062506 0.791883 -0.140155 0.188363 -0.588315 -0.920281 0.231523 0.231163 -0.030825 -0.986184 -0.496703 0.526806 -0.801154 -0.768282 1.023129 0.202933
face 0.099686 -0.686362 -0.322820 0.846734 1.083318 -0.976344 -0.163625 -0.636064 -1.262133 0.140005 0.374413 -0.361486 0.164249 -0.140132 -0.068579 -0.735864 -0.618014 0.070127 -0.943755 1.391524 0.161873 0.292731 -1.581062 0.046956 0.434292 0.645656 0.126165 -1.413691 0.322726 0.763837 -1.125383 -0.129510 -0.179745 -1.313742 1.028034 -0.704366 -0.496936 -0.569502 -0.355477 0.354696 0.087548 0.516978 0.166607 0.358623 -0.178859 0.723787 -0.509689 0.222354 -0.166637 -1.230570
head -0.236673 -0.457291 0.635742 0.674192 0.831842 -0.042928 -1.240363 0.155700 -0.800250 0.437870 -0.706744 0.385334 -0.099042 -0.494421 0.463724 -0.235285 -0.196846 0.081685 0.539469 0.276111 0.002400 0.120971 -1.382962 0.694731 0.754539 0.162197 0.031107 -0.635657 1.471068 -1.248162 0.071931 0.173762 0.190122 -0.465488 0.259025 0.233150 -0.376938 -1.334240 0.792482 1.253255 -0.754682 -0.488885 -0.178650 0.026583 -0.257628 -0.023508 0.331984 -0.025802 1.764291 -0.426083
young 0.224616 -0.575386 -0.089874 -0.041473 0.091205 0.575409 0.144259 -0.336946 0.280753 -0.091876 -1.298655 -1.285522 0.405668 0.914091 -0.512392 0.561911 -0.850658 -0.223428 -0.407937 0.357399 0.044972 1.016497 -0.471902 0.375983 0.677254 0.559778 -0.058789 -1.159148 0.150624 0.923000 -0.281655 -0.593807 -0.100409 0.197485 0.214905 0.422296 -0.884991 0.408795 0.014003 0.546334 0.099976 -0.014470 -0.226383 -0.212505 -1.539346 0.729393 -0.620943 -1.509307 0.375316 -0.201627
hard -0.629947 0.552662 0.657157 -0.536249 -0.758785 -0.416408 -0.597269 0.564594 -1.417798 -0.472746 -0.795947 -0.199932 1.853342 0.105316 -0.710995 0.045575 -0.194752 0.364988 -1.144066 0.353205 0.483487 -0.026035 -1.340153 0.556652 0.235592 0.635583 -0.204239 -0.417375 -1.122231 -0.551680 -0.607605 0.020699 0.220109 -0.188864 -0.557913 -0.281843 -0.040671 0.212314 -1.574468 0.937477 -0.016740 -1.265090 -0.246755 -0.928994 -1.537172 0.189444 -0.209212 -0.164428 0.642305 0.357636
run 0.392704 -0.086769 0.140061 -0.607091 1.175209 -0.621379 0.294943 -0.248353 0.067376 0.010424 -0.045381 -0.077442 1.045160 1.235167 -0.086625 -0.132988 -0.586650 -0.831995 1.141800 0.685227 -0.280573 0.505983 -0.989408 0.078626 -0.004351 0.496737 0.129780 -0.584632 0.219864 0.047692 0.470220 0.228136 1.075228 -0.113487 0.516266 -0.734306 -1.347332 -0.551381 -0.541920 -0.842720 -1.140984 -0.468136 0.186342 -0.638700 -0.655566 0.776962 -1.094035 -0.174658 0.838724 -0.268838
walk -0.608371 0.606428 0.303287 0.933552 0.509945 -0.656140 -1.505737 0.185800 0.397638 0.144460 -0.067777 0.892964 1.038986 -0.921764 -0.655486 -0.364435 0.481546 -0.423936 -0.430766 -0.404529 0.616496 0.383304 -0.839664 -0.712354 -0.817436 0.616868 -1.124151 0.629101 -0.598336 2.109429 0.432257 0.419541 -0.203374 1.517956 -0.304315 -0.377241 -0.790360 -1.486642 0.205301 -0.026455 0.829740 -0.101617 -0.083078 -0.772395 -0.566897 0.334203 -1.769170 -0.678474 0.869444 0.277086
everybody 0.031945 0.117020 -0.093088 -1.145750 -0.485013 -0.834678 -0.268640 0.708339 -1.678516 0.266215 -0.356149 0.480841 0.117933 0.411501 -0.453855 0.030187 0.299940 -0.405746 -0.970132 0.315126 0.647186 -0.187410 -1.265642 -0.429703 0.777212 -0.282850 0.512803 -0.149185 0.376794 0.660115 -0.640183 0.328839 -0.260274 0.245334 -0.268728 1.728011 -1.236797 0.266920 -0.471913 0.179951 0.182405 0.330910 -0.969592 0.223574 0.150433 0.718370 -1.459637 -0.693773 1.343878 -0.526596
na 0.603515 -0.083962 0.391578 -0.814819 0.743569 -1.036488 -0.687718 0.261229 -1.071185 -1.053159 -1.568846 -0.691783 -0.630585 0.253141 -0.141663 0.548794 -1.333567 0.193541 0.755753 -0.055716 0.820039 -1.101163 -0.926720 -1.546552 -0.542655 -0.422029 0.597605 0.069239 -0.420469 -0.183715 -0.334879 -1.648950 1.318923 -0.559851 -0.332963 -0.818327 0.188997 -0.580682 -0.647660 0.621114 -0.863698 0.018177 -0.838725 -0.129571 0.673636 0.225810 -0.705005 -1.618034 0.791857 0.462446
stop -0.039360 -1.142487 -0.970105 -0.174044 0.714917 0.802773 -0.618747 -0.375020 -1.930297 0.365669 -0.459007 0.361101 0.341492 0.044670 -0.178502 -0.041060 -1.378100 -0.003206 0.009044 -0.392569 0.846285 0.096179 -1.513880 -0.278522 0.184248 0.266556 -0.042784 0.904382 0.176923 0.054678 -0.799781 0.584959 -0.421292 -0.156575 -0.574339 -0.664557 -0.912013 -0.025888 -0.395923 -0.734155 -0.269333 -0.080278 0.784897 -1.135255 -0.112057 0.031818 0.809125 -0.368205 1.490986 -1.258355
bag -0.327044 0.203638 0.054543 0.495521 0.543541 -0.891054 -0.127735 -0.324576 1.337059 -0.216656 -0.033845 -0.364244 -0.514832 0.195091 0.852765 -0.377198 -0.334755 -0.150079 -0.117448 -0.354804 -0.785090 1.379701 -0.006439 0.821423 0.950548 0.799908 -0.906127 0.007018 0.007934 1.204340 -0.280755 -0.561842 0.033640 -0.212506 -0.467128 -0.086008 -0.560557 -0.797933 0.107474 0.006541 -1.409138 0.268222 -0.645693 -0.776077 -1.225101 1.618614 -0.725256 0.707667 1.225817 -0.156069
okay -0.790494 0.256783 0.146436 -0.017953 1.545241 -0.067311 0.771049 -0.415164 -1.565803 -0.047223 0.260823 0.594190 1.489483 0.122625 -1.206635 0.347433 -0.071102 -0.111658 -0.060782 -0.113996 0.848760 -0.077634 0.279223 -0.079031 -0.061503 0.761281 0.219763 -1.065331 -0.126734 0.883405 0.191242 -0.083806 0.653165 -0.060517 -0.723372 0.770421 0.352698 0.163165 0.320371 0.232179 -0.309311 -0.037708 -0.670527 -1.446987 -0.356091 0.775847 -1.319729 -0.631405 1.107382 -0.363636
little -1.181309 -0.023335 -0.482570 -0.965859 0.225459 -0.146201 -1.285986 0.021366 -0.033375 0.848554 0.143072 -1.012716 0.097796 -0.994893 0.098031 0.089938 -0.995923 -0.508644 0.925199 0.198201 1.909690 0.272998 -0.363080 -0.166176 1.173486 -0.828204 -0.310920 -0.316498 0.419983 0.792251 -0.411701 -0.219443 -0.053059 -0.221367 -0.037881 -0.522216 -1.448217 0.113072 -0.124159 0.132852 -1.139071 -0.213238 0.176830 -1.170849 -0.978751 -0.732467 -0.196177 -0.320409 -0.039808 -0.827009
rich -0.259913 -0.857212 -0.562315 0.229877 -0.026443 -0.274135 -0.916429 -0.156294 0.123008 0.490681 -0.125221 -1.061071 0.486397 -0.578297 -1.475408 0.154283 -0.770674 0.485046 -0.172081 -0.403731 -0.663834 1.002774 -0.515257 0.289774 0.438866 1.475475 -1.415205 -0.094957 -0.619999 0.648248 -0.368462 -0.314295 -0.532437 -0.866522 -0.499159 0.176427 -1.397393 -0.462356 -0.190885 0.786894 0.189062 -0.627462 -0.730264 -0.451199 -0.067167 0.179906 -1.372823 -1.101278 0.268708 0.581132
shawty -0.498409 -1.332174 0.279127 0.124669 1.126361 -0.019412 -0.874245 0.435422 0.176495 0.015760 -0.147850 -0.593260 1.308224 -0.452095 -0.203179 0.076522 -0.632731 -0.152331 0.572725 0.535366 0.776624 -1.256425 -0.318563 0.182699 0.719982 -0.582811 -1.018327 0.919658 -0.928767 0.156171 0.128285 -0.081554 0.540235 0.144587 0.456529 -0.650260 0.025401 -0.812436 -0.021782 -0.517335 0.599906 0.373911 0.656194 -0.006844 -0.483694 -0.256256 -1.571004 0.759234 1.247874 0.668390
ah -0.682379 0.030409 -0.331006 0.276099 0.926950 0.910534 1.168567 0.768613 -0.600352 0.268564 -1.112400 1.115525 -0.099399 -0.581044 -0.664211 -0.763839 -0.228195 0.717340 1.242283 0.790987 -0.285759 -0.621621 0.110143 0.397645 0.227698 0.999399 -0.286580 0.332605 1.034441 0.647831 -0.356750 -0.453722 0.888936 -0.187027 -0.147154 -0.627300 0.148988 0.012835 -0.151484 0.499408 -0.059939 -0.204496 0.168631 -0.268460 -0.064681 1.540199 -2.477486 -0.277950 0.470245 -0.805469
bust -0.591777 0.323840 -0.556563 0.604765 -0.840956 -0.327037 -0.418192 -0.297072 -0.858270 -0.173773 -0.001518 -1.177826 0.535911 0.670486 -0.093221 0.387812 -1.057281 -0.585418 0.143153 -1.511596 -0.526864 -0.831812 -1.006804 -0.518097 0.051532 0.803693 -1.276893 1.275545 1.060796 -0.317020 1.839906 -0.969054 -0.053536 -0.047890 -0.035435 -1.160944 0.218543 -1.179753 -0.695828 -0.171304 0.175353 0.182402 -0.182445 -0.585350 -0.569424 0.351562 0.214934 -1.456914 -0.950932 -1.375247
dick 0.820013 -1.440056 0.197931 -0.102065 -0.278269 -0.572979 -0.098649 0.093721 -0.552265 0.348617 0.289146 -1.175888 -0.038303 -0.266707 0.204323 0.091347 -0.845802 0.858056 -0.780190 0.059227 -0.583593 -0.523903 0.020577 0.481904 0.741317 -0.091886 -1.157448 0.294842 -0.213099 -0.863443 -0.015646 -1.133320 0.041392 -0.404425 0.143641 -0.142194 -0.924620 -1.228540 -0.050210 0.005587 0.443589 -0.464043 -0.477749 -0.999109 -0.852745 -0.251629 -1.162384 -0.090331 0.537068 0.704835
trap 0.208380 -0.618052 -0.340967 1.537385 -0.479165 0.270131 -0.439216 -0.196068 -0.685023 -0.202560 -0.546377 -0.355189 0.772304 1.838575 -0.807524 -0.135350 -0.963957 0.223213 0.359867 0.722148 0.021023 1.064485 -0.720262 -0.489834 -0.144234 -0.831711 -0.478143 -1.462479 -0.560052 0.699536 0.929836 0.642721 -1.351707 1.061960 -0.483732 0.315489 -0.002749 0.614970 0.672348 -0.033801 -0.129435 -0.594066 -1.321707 0.266257 -1.634160 0.566385 -0.945918 -1.017011 0.860382 1.073408
til -0.397412 -0.413984 0.724866 0.009799 -0.201891 -0.591161 -0.702196 -0.552552 -0.093675 -0.804699 -1.008802 -0.301234 -0.053904 0.449409 0.101027 0.376492 -0.966902 0.854243 0.241890 0.134345 1.381112 0.003584 -0.535947 -1.186471 0.142342 0.817733 -0.868727 -0.830317 -1.120501 -0.948841 -0.370146 -0.502995 0.210944 0.019216 0.059998 -0.615063 -1.606641 -0.395307 -0.728676 -1.194035 -0.892373 -0.645432 0.043851 -0.287417 -0.219057 0.548134 -0.725956 -0.627105 0.835523 0.406892
beat 0.770189 -0.986116 -0.318273 0.088782 0.093153 -0.021277 0.524760 0.771196 -0.349970 0.316379 0.227984 -0.919489 1.064959 0.470616 -0.395329 0.059078 -1.204561 -0.086741 0.434524 0.871579 0.527121 -0.127880 -0.409236 -0.479471 0.496489 -1.239384 -1.056421 -0.169736 1.344602 -0.079341 -0.274735 0.246909 0.442515 -0.467132 -0.499591 0.709668 -0.167846 -0.416560 0.864487 0.697837 0.196136 -0.722285 -0.586081 -1.353325 0.424443 0.639861 -0.464205 0.451698 0.726971 -0.932660
nah 0.874773 -1.545081 -0.179057 0.127046 0.124931 0.085531 0.205568 -0.328848 -0.783172 0.410607 -0.607648 -1.076023 1.793964 -0.084815 -0.500751 0.292677 -0.539365 0.161120 0.611560 -0.262644 -0.061262 0.414807 -1.216496 0.027770 0.794507 -0.312437 0.847574 1.034669 -0.445831 0.187525 -0.392324 0.339516 -0.777675 -0.231330 -0.096243 0.070585 0.280984 0.131292 -0.593053 0.459038 1.195824 1.280054 1.297710 1.034082 0.472512 0.172385 -1.357010 0.409213 0.357568 -1.340686
black -0.134298 -0.329926 -1.324560 0.023196 0.480745 -1.105472 -0.597763 -0.088154 0.085913 0.553072 -0.088363 -0.965839 -0.640943 -0.655495 -0.751763 -0.169896 -0.510231 -0.318640 0.368672 0.792349 2.127621 0.610146 0.247194 1.042810 0.491793 -0.589070 1.317011 0.036084 1.052025 0.968978 -0.201056 0.015346 0.646130 -0.327910 0.250220 -0.289389 -0.479827 0.558086 0.474498 -0.313362 0.034215 -0.356016 -1.114097 -0.878172 -1.075739 -0.299911 0.547400 -0.934572 0.508268 -0.579733
gettin 0.569724 -1.251667 -0.536566 -0.990975 0.067453 0.284545 -0.606552 -0.414068 -1.232455 -0.035704 0.247859 -0.311545 -0.045591 0.039173 -0.883832 -0.702913 -0.448292 0.790435 -0.276705 -0.406300 0.477540 0.816706 -1.175736 0.512489 1.054070 0.963829 -0.090626 0.106567 -0.889252 0.008682 -0.389715 -0.207500 -0.662430 0.081075 0.062236 1.254447 -0.939095 -0.118818 1.211468 0.009229 -0.556588 0.676187 0.084308 -0.199795 0.376499 -0.520748 -0.406185 -0.472590 1.003534 -0.310787
woah -0.005766 -0.303250 0.745454 0.199502 0.380255 1.167961 0.287510 -1.073348 -0.692087 -0.470474 0.393783 0.018751 1.671716 -0.085344 -0.019646 0.428302 -0.680830 0.899557 0.290107 -0.492595 1.545580 0.124203 0.162259 0.858116 0.956212 0.809586 -0.303231 0.673760 0.146301 0.297820 -0.010718 -0.395032 -0.034053 -0.914645 1.288370 1.302076 0.442911 0.076616 0.553928 0.748175 -0.309288 0.611181 0.029202 1.648540 0.212763 1.205439 -0.722492 -0.116046 0.658566 -0.448466
mama -0.015752 -0.255278 -0.468520 0.312859 0.359601 0.000756 -0.951363 0.230344 -0.351510 -0.730785 -0.154893 -1.463561 0.983296 0.773929 -0.019839 -0.767830 0.098150 -0.613755 -0.639331 0.359165 0.948374 -0.702275 -0.018618 0.418537 1.451944 -0.244268 0.010171 -0.297756 -0.016524 0.308539 0.290669 -1.314401 0.701317 -0.576750 -1.664584 -0.456626 -0.355805 -0.829477 -0.121238 0.046517 0.349652 1.031912 -0.186674 -1.277453 -0.402942 0.229446 0.064296 0.278748 0.249816 0.434583
skrrt 0.446887 -1.007906 -1.193510 0.911042 1.236021 -0.001636 -0.035334 0.395517 0.191814 -1.204350 0.837983 -0.501070 0.612907 -1.256354 -0.245514 -0.412021 -0.098104 0.050047 -0.507955 -0.407656 -0.322241 0.576775 0.592790 -0.022866 -0.659322 0.038602 0.117935 1.396746 0.011958 0.136472 0.510315 1.053369 0.361111 0.931930 0.357644 0.972556 0.263429 -1.037993 0.233883 0.898237 -0.596260 -0.412382 0.170722 -0.730520 -1.002221 0.927740 -1.221493 -0.642403 0.878683 -0.219893
party -0.252928 0.509948 -0.729275 -0.366342 -0.857037 0.063956 -1.253797 1.312629 -1.542193 -1.924457 0.686486 0.082740 0.087497 -0.284429 -0.548092 0.441592 -0.273282 0.267910 0.688699 -0.049253 0.421974 0.294120 -0.632359 0.682141 -0.854908 -0.321811 -0.984317 -0.716026 0.478244 0.098492 -0.456925 -1.059943 0.811731 -0.611659 -1.163842 -0.225877 0.114453 0.290041 0.323057 0.142992 -0.079568 -0.066821 -1.096521 -0.313073 -1.444078 -1.185274 -0.866707 0.001742 0.668099 -0.707841
check 0.826288 0.555725 -0.503525 0.238382 0.249288 0.050859 0.019275 0.903635 0.784158 1.018296 0.676308 -0.222164 0.639860 0.189359 0.475589 -0.839546 0.354173 -0.319856 1.567680 -0.414570 -0.445215 0.511296 -1.662592 -0.523495 1.240585 0.539385 -0.206308 0.194054 -0.253568 0.520131 0.295562 0.523686 -0.686768 -0.249684 0.502873 -0.970223 -0.440336 0.217119 -0.372983 0.275698 -1.636666 1.145235 -0.947824 -0.210407 -1.256837 0.354914 -0.921787 -0.808091 0.925723 0.345459
hot -0.181494 0.432004 0.159756 0.933513 -0.254816 0.860726 0.360583 0.336870 0.173544 -0.584628 -1.362805 -0.686402 -0.121373 -0.157030 -0.006891 -0.853807 -0.572720 -0.436985 -0.499430 0.834150 -0.045486 0.684581 -1.066896 -0.295221 0.550627 -1.951579 0.361188 -0.130000 -0.460460 -0.142940 -0.089362 0.284580 0.217469 0.642341 0.482971 0.630507 -0.268488 0.220253 0.354526 -0.800444 -0.460708 -0.051297 -0.552352 -1.291200 -0.732062 1.738532 -0.649483 -0.380585 1.025523 -1.477598
kill -0.224415 -0.635205 -0.290628 -0.123917 0.445960 -0.730389 -0.623192 0.259969 -1.496416 1.138397 -0.104082 0.151351 -0.475431 0.840207 -1.309429 -0.603838 0.491152 -0.162166 0.095409 1.202271 0.111749 -1.085812 0.550567 -1.061973 -0.094225 0.562015 0.335954 -0.037292 1.100291 0.898021 -0.591409 0.103513 0.782816 -0.118379 -0.411156 1.646172 -0.991101 0.020436 -0.259293 0.608185 0.386881 0.296289 -0.102699 -0.095791 0.017050 0.818434 -1.250867 -2.086434 1.417755 0.370814
stay -0.077002 0.109784 -0.238273 0.171994 -0.069696 0.196748 0.872465 0.673905 -0.010148 -0.978119 -1.098573 -1.475203 0.580099 0.859231 -0.692382 -0.065328 -0.568081 0.057943 0.269483 -0.310771 0.607164 1.600208 -0.966909 -0.219787 0.178826 0.029698 0.265701 -1.255009 -0.000507 -0.447915 -0.453194 -0.733575 -0.768263 -0.644254 -0.196847 -0.159228 -0.093624 -0.403270 0.252282 0.417833 0.587712 -0.665860 0.617313 -0.215274 -0.116394 0.852998 -0.817104 0.224758 0.852682 0.626759
talkin 0.519710 0.616057 0.181691 0.942673 0.752205 -0.570740 -0.433830 -0.381165 -0.360918 0.418255 -1.298505 -0.444604 0.583022 -0.109848 0.847148 -0.905187 -0.548428 -0.072414 0.260804 0.488062 0.366733 1.091267 -0.680805 0.883803 1.035329 -0.372984 -0.949932 0.502183 -0.492067 0.600271 0.703815 -0.029280 0.386997 0.010844 0.364184 -0.496486 -0.622421 0.064632 -0.243853 1.151315 0.200745 -0.276438 0.419017 0.017274 0.129772 -0.451456 0.050390 -0.186249 0.564713 -0.898420
lot -0.805904 0.843170 0.820985 -0.285636 0.674845 -1.443871 -1.090188 0.025672 -0.044345 0.421894 -1.135189 -1.773492 -0.303212 1.096233 -0.454608 -0.056250 -0.438230 -0.862696 -0.759622 -0.291923 0.309564 0.553833 -1.007207 -0.075573 0.667067 0.332477 -0.804677 -0.005669 -0.583717 0.217876 -0.453340 0.843753 0.642890 -0.950192 -0.478121 0.048988 0.261865 0.594571 0.609427 0.408347 -0.807912 -0.280095 0.520653 -0.658830 0.199392 -0.126139 -0.130714 0.340138 1.883797 0.871818
bring -0.429643 -0.919864 -0.715467 -0.962645 0.687980 -0.583353 -1.591074 0.366771 -0.500465 1.112048 -0.543048 -1.235350 -0.486755 0.052848 0.227176 -0.079583 -0.110749 0.567187 -0.571099 0.001264 0.362282 -0.298044 -1.009188 0.976478 0.329135 -0.222576 -0.468769 0.232414 0.190770 1.059565 0.027695 0.862542 -0.577858 -0.368196 0.659557 -0.998023 0.529185 -1.202748 0.364955 -1.027336 0.443399 0.193567 -0.501718 -1.277413 -0.095429 0.255976 -1.121667 1.113195 0.643735 -0.206284
change -0.017100 -0.234006 0.025672 0.624115 0.303912 -1.844307 0.672192 0.230318 -0.841082 0.454946 -1.286323 -0.660613 0.924853 0.169705 -0.726040 1.530690 -1.504500 -0.895507 1.044255 -1.055113 0.791744 0.197967 -0.220486 -0.745869 -0.133953 0.072611 0.546763 0.587695 0.458305 -0.042326 -0.102165 -0.558075 0.098199 -0.837906 -0.407110 0.695591 -1.005384 0.082448 0.192030 0.155948 0.178725 0.648902 -0.025764 -0.748980 -0.305053 0.494761 0.952785 -0.885827 0.416454 0.308066
long 0.022338 -0.005018 0.700580 0.359183 -0.158725 0.415215 -1.354109 -0.130025 0.361432 -0.101765 -0.287452 -0.383179 0.919933 0.644239 -1.109015 -0.418810 -0.097669 0.163200 0.417753 -0.262730 0.590932 0.194861 -0.259616 1.114823 -0.573192 0.054229 0.716821 0.443696 -1.485641 0.610537 -0.180304 -1.588131 0.021561 -0.531670 0.614927 0.086113 -1.514424 -1.269119 -0.210304 -0.822630 0.134511 -0.543383 -0.109190 0.483734 0.225160 0.684137 -1.294931 0.536589 1.108539 -0.390744
thing 0.476532 -0.100305 0.080129 -0.020358 0.035622 -1.076809 0.629625 -0.660647 -0.184756 0.371172 0.264034 -0.857092 0.915112 -0.434439 -0.237109 0.266935 -0.699252 -0.599725 1.189318 -0.246524 1.057734 0.018290 -0.762890 0.530439 0.895621 0.274832 -0.622106 -0.564952 -0.136958 -0.025061 -0.664262 -0.246617 0.181163 0.071468 -0.277832 -0.204749 -1.084497 -0.395155 0.037541 0.543173 1.236293 -1.055462 0.927542 -0.339913 -0.371615 0.282713 -0.295980 -0.659915 -0.648075 0.162893
break -0.476286 1.906567 0.623297 0.192112 -0.212381 -0.885390 -1.065811 -0.715843 -0.473646 -0.057804 -1.155556 -1.516010 -0.204601 0.621688 -0.779519 -0.139935 -0.238801 -1.165717 -0.676807 0.302922 0.082102 -0.333841 -0.952031 -0.127203 -0.428048 1.042643 -0.151263 0.472077 0.465245 -1.192683 0.865505 -0.598904 1.099654 -0.822176 0.050216 -0.076238 -0.819189 -0.121463 0.791204 0.040262 -0.057861 -0.018619 0.412960 0.041061 0.264424 1.402954 0.148204 -1.001874 -0.510367 -1.688278
dance -0.332668 0.503643 -0.244148 -1.506191 -1.384944 -0.323255 -1.449583 1.049709 -0.427591 -0.842121 -0.035565 -0.724321 0.539608 -0.328941 0.799092 -1.086000 -0.760470 -0.470347 -0.102363 -0.052091 1.969290 -0.631216 -0.999323 -0.518647 0.733644 0.366626 -0.186671 0.535238 0.767181 0.691402 2.083801 0.549398 0.692342 -0.482952 -0.216977 0.052544 0.719936 -0.892890 0.113240 -0.144227 0.667562 1.238839 0.216540 -0.387924 -0.443723 -0.118982 -0.577222 -0.291175 -0.146460 -0.160959
girls 0.180480 0.560359 -0.397316 0.358163 -0.452535 -0.542816 0.179590 0.489508 -0.743252 -0.429761 -0.022636 -0.735880 -0.206671 -0.472631 -0.302444 0.990435 -1.480700 0.223765 -0.016509 -0.061253 0.929123 0.113718 -0.019323 1.365419 0.458794 -0.417809 0.395545 -1.004042 -0.112562 0.971608 0.784662 -0.102179 -0.447686 -0.840568 -0.165582 -1.007643 -0.459552 -1.073324 0.995708 -0.484479 0.559318 1.064147 -0.491491 -0.499466 -0.321075 0.061078 -0.712995 0.730753 0.117681 -1.390786
whip -0.813670 0.220776 -0.139714 0.642920 0.517749 -0.904085 -0.018110 -0.396732 -1.361465 -0.132128 0.302635 -0.539636 -0.647277 0.371363 -0.885895 -0.364006 0.443542 -0.212882 -0.177618 0.794621 0.089628 0.089261 0.681727 0.635692 0.930849 0.820286 1.009843 0.260933 -0.052299 0.510670 1.740569 0.591278 0.412395 -0.323176 -0.706852 0.871244 -0.195077 -0.707967 1.381245 0.008532 -0.073907 -0.674319 0.472025 -1.028876 -0.523443 0.237531 -1.088530 -1.836226 0.321013 0.717685
straight -0.523340 -0.865730 -0.130333 1.232589 0.075126 -0.458992 -0.624952 -0.347128 -0.643117 -0.157778 -0.391181 -0.622206 0.995372 0.993624 -0.490106 -0.748822 -0.149019 -0.111116 -1.108634 -0.190882 -0.465537 0.636307 -1.262439 -0.602948 -0.262417 0.146534 0.212535 -0.982663 0.219308 0.158305 0.194071 -0.199747 -0.694244 -0.148381 0.196093 0.064330 -0.916598 0.165839 1.128245 0.149339 -0.009288 0.480753 -0.071863 0.161707 -1.148935 -0.153985 -0.908913 -0.208413 0.667753 -0.942123
world -0.206617 -0.505074 -0.549736 -0.091261 -0.051416 -0.106783 0.489411 0.004393 -0.532416 0.410835 -1.550835 -1.308101 0.291777 -0.258670 -0.670455 0.268611 -0.731218 -0.261774 0.125503 -0.860301 1.655047 0.292796 -0.483895 0.185966 0.664096 0.554192 1.446653 -0.252820 -0.381650 0.230855 -0.830484 0.170054 0.956595 0.003427 -0.508384 -0.150069 -0.274585 -0.217049 -0.848482 -0.164511 0.826562 0.884829 0.470499 -0.209469 -0.656767 0.090996 -0.219615 -0.613523 -0.389165 -1.353763
cut 1.317273 0.161690 -0.501916 1.170345 1.438744 -0.379606 -0.192170 0.458178 1.693719 -0.131268 0.921359 0.135456 0.644186 -0.218749 -0.197513 0.176286 -0.345397 0.322538 -0.751812 -0.512361 0.758431 0.919883 -1.009534 -0.357960 0.697393 -0.602714 0.217386 0.266620 0.237739 0.120979 0.576651 0.919494 -0.686630 0.018930 1.245276 0.566092 -0.901878 -0.240922 0.483484 0.421748 -1.742985 0.538118 -0.818312 -0.918448 -0.296412 1.426960 -0.980338 0.449661 0.935275 -0.277298
swear 0.614286 0.043470 -1.124018 -0.083806 -0.694617 -0.691854 1.001470 -0.399704 -0.449941 0.373512 0.638003 -0.670670 -0.125369 -0.446978 0.439985 0.667944 -0.812973 -0.322128 -0.397113 0.605269 1.809984 -0.000152 -1.342416 0.837911 0.429265 -0.035544 1.037526 0.379070 -0.736368 -1.088575 0.135999 -0.114136 0.345935 -0.132269 0.689889 -0.559292 -1.222052 -0.173321 0.374479 0.069297 0.404644 -0.398465 0.115059 0.329546 -0.528947 0.201388 0.159759 0.368866 1.221005 -0.013603
body -0.188377 0.040840 0.131039 -0.252668 0.549327 1.152283 0.029055 0.070703 -0.315985 -0.719970 1.028755 0.131109 0.376474 -0.702516 -0.267325 -0.395851 -1.387765 0.092478 0.046355 0.718287 0.868405 1.068129 -1.126265 -0.009854 -0.156262 0.581298 -0.107785 0.276497 0.479855 -0.069308 -0.726655 -0.052901 1.904010 -0.220151 -0.954325 -0.308876 -0.067033 -0.004342 -0.338150 0.289074 -0.609260 -0.006407 0.046048 0.167529 -0.415455 0.080904 -1.864031 -0.411807 0.175905 -0.602689
city 1.581804 0.978454 0.218614 0.689165 0.363309 0.331948 0.007106 0.105080 0.332684 0.524966 -0.792897 -0.466286 -0.049502 0.490872 1.098160 0.311438 -1.550111 0.441132 0.064773 0.338255 0.589497 -0.759969 -0.241755 0.980815 -1.140123 0.208202 0.545424 0.071204 0.724346 -0.072128 0.011318 0.288195 0.334831 0.285460 -0.210160 0.767650 -0.903436 -0.390727 0.393896 -0.770537 -0.313279 -0.251747 0.083964 -0.514576 -0.175283 0.435497 -1.678290 -0.008197 -0.032612 -0.795310
fucked -0.350788 -0.263837 -0.113144 0.695199 0.615930 0.448090 -0.753700 0.431592 -1.192518 0.571593 0.119931 -0.177262 -0.404907 -0.441893 0.102802 0.416920 0.448084 0.380300 -0.172994 0.614825 1.036227 -0.090548 -0.168133 -0.123877 -0.118489 -0.473116 -0.412439 -0.567778 0.333936 0.088301 -1.486089 -0.576364 -0.301343 -0.651074 -0.260788 0.014946 -1.173722 -0.054599 0.238354 0.774329 -1.028398 1.049451 0.034456 -1.236448 -1.069620 -1.254992 -0.805257 0.416592 0.699072 -0.835169
work -0.309914 0.368952 -0.304815 -0.665479 -0.599436 0.929367 0.379298 0.127325 -1.480986 -0.303414 -0.337907 0.582712 0.875338 -0.171273 -0.685656 -0.881785 -1.372487 0.083915 -0.168843 0.112286 0.166123 0.504344 -0.504265 0.250683 0.039375 1.065977 0.034016 0.997064 -0.290497 -0.179921 -0.724795 -0.397971 0.100266 0.055091 -1.568736 -0.872521 -1.140339 -0.822556 -1.631980 -0.581477 0.171563 -0.541321 0.550602 0.006721 -0.994073 0.339740 -0.852461 -0.661748 0.777045 -0.038361
low -0.777720 -0.983946 -0.127157 0.635927 -0.154154 -0.776991 0.878113 -0.634676 0.023523 0.316802 -0.848269 0.853492 -0.813237 -0.555690 0.773468 0.407267 -0.545039 0.283543 0.824136 -1.133797 0.739791 0.012583 -0.278153 0.376030 0.932137 -0.176186 0.824915 0.019540 -0.181268 -0.517237 0.901446 -0.288163 -0.539610 -0.787466 -0.720215 2.056035 -0.304349 -0.805550 0.369481 0.166424 0.976560 0.001205 -0.367058 -0.885392 -0.714308 1.885931 -0.319507 -0.095403 0.910967 -0.357249
type 0.175213 -0.073946 0.112417 0.116520 0.224887 -0.258864 0.545341 0.042242 0.429172 -0.497616 -0.566582 -1.271398 0.840725 0.136598 -0.827992 -0.131218 -0.795699 0.301214 -0.819584 -0.911320 0.563247 0.103515 0.545315 -1.251788 0.925168 0.329764 -0.314117 -0.009826 0.605460 0.373627 0.217043 -0.751384 -0.917118 -2.209741 0.822777 0.310980 -0.990813 -1.025991 1.633513 1.070718 0.614671 0.385931 -0.267939 -0.402307 0.100241 -0.422742 -1.107093 -1.243292 -0.219795 0.416733
bop -0.519126 1.456258 -0.917874 0.554476 -0.046217 0.178587 -0.540432 -0.449095 -1.058637 0.981268 -0.143505 0.043943 0.041517 0.941422 -0.334550 0.249029 1.428607 0.021554 -0.223832 1.405375 0.275998 -1.090991 -0.554437 0.295922 0.045020 1.437065 0.068521 -0.419448 0.478989 0.551644 0.865811 0.700617 0.974384 -0.038919 0.939049 0.040037 0.438512 0.215834 0.551355 -0.433435 1.352022 -1.022994 0.329384 -0.622292 1.119989 1.187034 -0.574490 -0.839707 0.660275 -0.490640
feelin 1.252435 -0.390330 0.662377 0.372069 0.384704 1.024884 0.950130 -0.567713 0.351597 1.083615 -0.137878 -0.337318 0.948062 -0.279197 -0.580562 -0.443939 -0.071026 -0.620076 1.287190 -0.176524 0.401882 -0.255835 -0.961946 0.119925 0.303493 -0.588059 0.374581 -1.188709 -0.201905 1.023799 0.561479 -0.845962 0.037599 -0.845254 -0.503268 0.047243 -0.039764 -0.621312 -0.280010 0.292117 -0.381609 1.499712 -0.862474 -0.435976 -0.241828 -1.001610 -1.376079 -0.784984 0.437851 0.329283
old 0.262620 -0.553139 -0.047420 -1.071595 0.236262 0.440561 -0.358473 -0.547568 -0.767506 -0.536948 -1.201614 -1.439908 -0.924990 -0.344286 -0.354849 0.002229 -0.534780 0.016891 -1.021169 -0.246541 0.851507 0.847648 0.040123 0.434939 -0.399534 0.138759 1.215373 0.515925 -1.335687 0.434099 -0.348471 -0.849843 0.184027 0.487561 -0.675700 0.171111 -0.934039 -0.254776 -0.233885 -0.439029 -0.010445 -0.385373 -0.604657 -0.395869 0.531340 0.985315 -1.765563 -0.279214 0.571506 0.429082
club 0.834781 0.137147 0.140832 -0.126370 -1.064453 -0.211799 -0.907233 1.396837 -0.731892 0.170751 -0.389835 0.535272 -0.128064 -1.103683 0.458523 -0.118273 0.486047 0.140552 -0.010880 -0.645242 0.922371 -0.228257 -1.250842 -0.644901 0.425998 -0.401155 -0.798151 0.318018 0.290953 0.196807 0.207125 -1.018416 -0.249892 -0.600689 0.289945 -0.581010 0.138019 -0.534983 0.037334 -0.091516 0.742694 -0.252528 0.386318 -0.025049 -1.724906 0.436114 -1.710184 -0.775316 -0.123061 -0.560063
act 0.136975 -0.628250 -0.310311 0.182921 2.106537 -0.123362 -0.693731 -0.231995 -0.366168 0.474127 -0.542671 -0.782456 -1.505887 0.570149 0.075285 0.846822 0.111653 0.134699 -0.370233 -0.450006 -0.369461 -0.486820 -0.454931 0.912423 0.853497 -0.464445 -0.094339 0.006786 -0.377808 0.815570 -0.241572 0.381623 -0.712593 0.483585 0.362717 -1.254325 -0.128466 -1.694142 0.917281 -0.187967 1.036839 0.345894 0.083664 -0.517256 0.715057 -0.328017 -1.460753 1.070766 1.136200 0.090936
home -0.095966 -0.497689 0.139327 0.013762 -0.684156 0.506622 -0.533233 0.488556 -0.082819 -0.840103 -0.809335 -0.918833 0.338826 -0.543702 -0.074478 0.715077 -0.353947 -0.488140 -1.153953 -0.380910 0.319749 -0.094074 -1.881400 0.718081 -0.649918 0.218180 0.573623 -0.684453 0.086567 -0.034404 -0.334906 -0.819407 -0.651693 -0.785388 -0.373531 0.702260 0.581429 -0.435219 0.690572 -0.405327 0.635057 -0.804949 0.030364 -1.323854 0.065705 0.340724 0.166640 0.010686 1.586744 -0.153961
try -0.182567 0.927832 -0.742767 -0.448680 0.015577 -0.615219 -0.221030 -0.219165 -0.684148 -0.020554 -0.432552 -0.215745 1.135076 -0.196624 0.654894 0.299028 -1.027965 0.616157 0.147709 0.825632 -0.467446 0.142673 -1.912942 -0.846080 -0.206299 0.206809 0.685494 0.361066 -0.229759 0.622865 -0.152408 0.055200 0.863813 -0.354800 0.581223 0.372327 0.201134 -0.599181 -0.039301 0.662488 -0.642499 0.079711 0.465270 -0.143496 0.761983 0.179043 -0.596114 -0.567103 0.968257 0.472078
mad -0.061733 -0.325101 -0.334294 -0.663593 1.215538 0.088234 0.471280 -0.536379 -0.909536 0.150205 -0.641364 -0.925674 0.236051 0.546224 -0.693710 -0.151693 0.203349 -0.392130 -1.077325 0.444733 1.219128 0.076821 -0.143245 0.345251 1.106304 0.383391 -0.748490 0.870101 -0.552433 0.930888 -0.931561 -0.523576 -0.490056 0.148865 -0.151352 0.271077 -0.361714 -1.000970 0.137794 0.430332 1.381842 0.377985 -0.677810 -0.669652 0.351993 0.197472 -0.949585 -0.036283 0.455466 -0.351517
friends -0.130528 0.657799 -1.430319 1.114281 -0.016779 -0.793489 -0.583414 1.720833 -0.331870 -0.583139 -0.507665 -1.797644 -0.311165 0.181835 0.509704 -0.791015 -0.557403 0.211347 0.409753 -0.467492 0.864291 0.478169 -0.243796 0.004131 0.402913 -0.292039 0.273780 0.027504 0.026625 -0.090616 -0.519617 0.055141 -1.125936 0.390886 -0.029190 0.255938 0.787169 -0.647189 -0.071375 0.681049 0.206321 -0.237790 0.373252 -0.208744 -0.078307 -0.036173 -1.240323 0.722822 1.351241 -0.232123
gucci 0.262840 0.166864 -1.237083 1.536225 -0.139111 -0.453571 -0.397645 -0.642291 -0.999110 0.626216 0.425638 -0.355148 -0.216143 0.531125 0.819809 -0.387423 -0.717074 -0.475544 -0.475370 -0.059227 -0.004438 -0.187415 0.149870 -0.923617 1.171940 0.811966 0.275327 0.121006 0.277394 1.929395 -1.465979 -0.636344 0.244426 0.148701 -0.275233 -0.194293 -0.203571 -0.659499 -0.707534 -0.516963 -1.377940 -0.070085 0.789100 -0.882802 -0.307679 0.730225 0.713417 -0.215966 -0.347629 -0.315152
house -0.579945 -0.040529 -1.218576 0.455166 0.029148 -0.457150 -0.111344 -0.157817 -1.179385 -1.042862 0.708947 -0.706474 0.355238 1.259141 -0.619302 -0.336181 -0.530354 -0.226759 0.740043 0.689057 -0.296959 0.526554 -0.871845 0.431256 0.239056 0.285794 0.327309 -1.651617 -0.627322 -0.360995 0.921485 -0.921226 -0.812023 0.466603 -0.631825 -0.325115 0.369966 -0.043079 0.669961 0.220730 -0.699450 -1.031790 -0.943739 0.361862 -0.732204 0.756575 -0.055060 -0.708710 1.105092 0.217988
cash -0.066196 -0.490448 0.332597 -0.479927 -0.210263 -1.047716 -0.168169 0.750656 -0.131686 -0.846926 0.385672 -0.547815 -0.219798 0.537854 -0.895341 -0.914909 -0.782647 -0.459774 -0.265825 -0.256802 -1.381214 0.873807 -0.820290 0.798365 1.389354 0.559315 -0.417804 0.318901 -0.313573 1.428237 0.566817 0.782651 0.477160 -0.935425 -0.188494 -0.738865 -0.028309 -1.090456 0.791988 -0.149857 -0.636726 0.072915 0.414996 -0.779303 -0.475150 1.290079 0.082723 0.151084 0.877294 0.127681
diamonds 0.573633 -0.910429 0.144398 1.166277 -0.007067 0.489587 -0.805932 0.876733 -0.009346 -0.506626 1.025491 -0.795238 -0.562036 -0.400646 0.125846 1.286842 -0.253446 -0.030946 -0.104674 -0.498975 0.597356 1.088945 -1.161354 0.262312 0.362186 0.957432 0.207482 0.877081 -0.190412 0.721322 0.143119 0.434525 1.325280 0.161584 -0.165839 0.082469 0.174969 0.377275 -0.389562 -0.443698 -0.239898 0.028518 -0.054610 -0.929048 -1.221211 -0.196917 -0.759640 -0.567295 -0.561427 0.156197
white 0.533885 0.084215 -0.513200 1.180417 0.598628 -0.825329 0.042200 -0.688875 -0.637691 -0.110319 0.972870 -0.491213 -0.344580 0.300093 -0.429815 0.532941 -0.671988 -0.108194 0.345196 0.063206 0.809148 0.425081 0.479474 1.116151 0.891229 -0.883197 0.416018 -0.771734 0.693455 1.051756 0.059610 1.109781 0.650851 -0.789956 -0.271783 -0.354723 -0.267964 0.019232 0.227631 -0.655788 0.444898 -0.805473 -1.131700 -1.167238 -1.215045 -0.598126 -0.109365 -0.200867 0.382696 -0.168755
lookin 0.516967 -0.033672 0.017105 0.298700 -0.426259 -0.056361 -0.498734 0.509320 -0.626825 -0.508300 0.629513 -0.041961 0.221675 -1.033489 0.762764 -0.397193 -0.208435 0.360741 -0.535089 -0.465749 0.862387 -0.342404 -0.617711 0.712295 1.226981 -0.830928 -0.086017 -0.809443 -1.215840 0.597604 -0.140443 -0.662815 1.088259 -0.858388 0.403741 -0.022936 -0.125582 -0.259088 -0.306742 0.224322 0.995792 0.375609 0.494178 0.233206 -1.277714 0.711208 -0.421801 -0.393663 0.548848 -0.473405
broke 0.034248 -0.519554 -0.508785 0.559030 0.204594 0.374297 -0.144178 0.920060 0.110505 0.928448 -0.796932 -1.242013 0.436847 -0.244997 -0.159789 -0.128877 -0.187612 -0.442866 -0.382591 0.760363 -0.209239 0.512491 -1.011316 1.068341 -0.162859 -0.110471 -0.377057 0.805556 -0.700220 -0.093517 0.613023 -0.152177 0.074607 -1.337297 -0.287156 0.093358 -0.762460 0.369163 0.664603 -0.374905 0.163093 0.325737 0.442032 -0.779454 -0.325480 0.743901 -0.386769 0.053143 1.257032 0.322895
crazy -0.413045 0.639710 -0.255671 0.190607 0.731498 0.990796 0.433367 0.873610 -0.298307 -0.679627 -1.632633 -0.432739 0.422603 0.240863 -0.484228 0.110689 -0.679013 -0.623333 0.572483 -0.804981 0.438295 -0.167282 -0.005721 1.309120 -0.001217 -0.182317 0.531954 -0.103005 0.869358 -0.139288 0.462728 -0.309153 0.623048 -0.116560 -0.480355 -0.619257 -0.601221 -0.398888 0.692127 1.075275 0.234341 -0.059330 1.014110 -0.408539 -1.384973 -1.298528 -0.714721 -0.264984 0.667280 -0.039582
heart -0.493304 0.350020 1.219408 0.191881 0.075657 -0.335991 -0.592686 0.305637 0.115936 0.385992 -0.608402 -1.465534 -0.184775 -0.061447 -0.294478 -0.093775 0.597348 -1.127910 -0.139385 0.054386 0.072906 0.593860 -0.890547 1.039695 -0.079959 0.125418 0.701055 0.100467 0.017000 -0.755397 0.630520 -0.890269 0.493990 -0.676727 -0.448886 -0.044554 -0.198145 -0.341709 -1.017016 1.363001 -0.099063 0.356572 -0.024720 -0.792970 -0.694229 0.766557 0.295896 -0.058201 0.938990 -0.811851
different 1.291916 0.359031 -0.489855 -0.398829 0.863816 -0.153571 1.356478 0.269065 0.771900 0.423429 -0.425338 0.045080 -0.467814 0.719864 0.639768 0.327822 -1.060392 0.243018 0.427124 -0.729046 0.385699 0.286959 0.609440 0.514650 -0.190436 0.337449 0.443976 0.709792 -0.351996 0.798097 -0.458083 -0.817542 -0.142174 -0.313345 -0.058794 0.362537 -0.152248 -0.594703 1.398620 0.590207 0.973312 -0.167234 0.211541 -0.809239 -0.883603 -0.715122 -1.348953 -0.061999 1.372910 -0.303431
hope -0.083403 -0.550025 -0.847014 0.803630 0.067296 -0.232317 -0.271530 0.223536 0.231399 -0.345813 -0.957474 -1.372716 0.372166 1.026172 -0.436318 0.738632 -0.780626 -0.165054 0.180881 0.394549 0.414010 0.037179 -1.295003 -0.312106 -0.300635 -0.871590 0.723026 -0.495542 -0.165733 -0.493354 -1.159805 -0.629929 -0.138589 -0.138562 -0.759273 -0.246802 0.602641 0.005761 -0.325978 1.344569 1.065273 -0.352184 1.136227 -0.509507 -0.703238 0.278637 -0.057493 0.991927 0.227214 0.326327
die 0.628260 -1.131010 -0.181764 -0.177873 -0.180305 -1.012062 -0.462120 0.165517 -0.235100 0.569213 -0.092647 -0.411165 0.606577 0.248640 0.200930 -0.120918 0.124817 0.140397 -0.244054 0.360249 -0.028808 0.307615 0.549805 -0.555310 1.284441 1.144003 0.617978 -0.770696 0.560844 -0.286505 -1.115343 -1.022355 0.099249 -0.789013 -0.898774 -0.232461 -0.514367 -1.617056 -0.698396 0.877825 0.046597 -0.379272 1.029171 0.546717 0.184962 -0.022693 -0.051457 -0.007399 1.664974 0.122839
live 0.062035 0.028246 -0.250046 0.274813 -0.054028 -0.894931 -0.727442 0.970587 -0.229317 0.072623 -0.231065 -1.244821 1.475351 0.806431 -0.199558 0.379321 -0.513565 0.625465 -0.238445 -0.910437 0.091333 -0.200709 0.372315 -0.321403 -0.260529 1.535276 0.673699 -0.010681 0.584186 0.243268 -1.413505 0.193615 -0.523927 -1.216462 -0.890268 0.767810 -0.554488 -1.053427 -1.633141 0.247074 0.208681 -0.695948 -0.045095 -0.501533 0.078740 0.285055 -0.124876 -0.906551 0.051832 0.445809
getting 0.000493 -0.224489 -0.332810 -0.404886 -0.397209 0.095098 -0.711748 0.209158 -0.557422 0.126431 -0.572153 0.405489 0.169649 0.678132 -1.282841 0.711057 0.819528 0.050471 -1.140626 -0.025121 1.000048 0.159580 -0.818610 0.283888 1.360502 0.765956 -1.458996 1.006185 -0.661070 -0.049710 -0.873742 -0.231713 -0.131166 -0.216629 0.092961 0.445005 -0.401482 -0.356353 -0.406893 0.165867 0.022454 -0.397913 -1.080155 0.494549 -1.116354 0.779027 -1.384983 -0.382484 1.225403 -0.158191
round 0.493981 0.525600 0.172264 -0.147531 -0.247429 -0.672221 -0.014400 -0.780847 -0.466872 -0.520459 -0.521623 -0.721074 0.371310 -0.449395 0.308355 -1.276630 -0.272744 0.239815 -1.122985 -0.218802 -0.091361 0.335638 -0.292495 0.128970 -0.483007 1.042311 -0.058395 0.497536 0.711664 0.289965 0.477621 -0.034147 -0.752188 -0.325871 -0.008220 -0.615181 -1.297922 -0.747888 -0.983705 -0.678557 0.262138 -0.360907 -0.231925 -1.503054 1.104683 -0.411818 -0.917179 0.148161 1.062090 -0.927574
going -0.715127 0.409448 -0.352201 0.582701 -0.541887 0.328636 -0.104563 0.771964 -0.485070 -0.829329 -0.359747 -0.054325 0.845091 -0.048531 0.711386 1.563304 -0.525450 -0.606265 -0.354500 -1.027050 -0.101973 -0.216776 -2.084990 0.033648 0.029067 0.300543 0.262589 0.314640 -0.873985 -0.085774 -0.077036 -0.135176 -0.953166 -0.927197 -0.177468 0.072219 -0.189772 -0.558968 -0.144621 0.477180 0.158617 -1.199432 0.710435 -1.083381 -0.164085 -0.400409 0.349438 0.577888 1.199282 0.514578
smoke -1.204032 -0.005232 -0.290774 -0.614292 0.057720 0.133225 -0.583245 -0.647759 -0.441902 0.803682 0.224591 -0.758274 -0.801067 -0.431285 0.497555 0.511778 -0.135093 0.342962 0.365546 0.121593 1.486584 -0.015457 -0.620095 -0.418750 0.909500 -0.303880 -0.703443 -0.255397 0.003044 -0.515626 -0.463206 -0.321814 -0.111757 -0.423249 0.835985 -0.543500 -1.137638 -0.084140 0.674841 -0.015284 -0.870143 -0.127822 0.190328 0.209238 -1.086898 -0.155314 -0.652151 -0.799505 1.090071 -0.793237
hop 0.110614 1.134392 -0.158215 -0.206375 1.088277 0.412753 -0.417184 0.346467 -0.787478 0.829760 -0.145613 -0.736738 0.451152 -0.663805 -0.027600 -0.942297 0.345826 -0.213984 1.086297 1.143822 -0.144311 -0.512872 0.374370 0.805574 -0.535014 0.682188 -0.116431 0.334192 1.545836 -0.050516 0.270666 0.440711 0.493548 0.267031 1.154746 0.837104 0.877723 -0.016289 0.206827 -0.867334 0.369868 0.151933 0.954701 -1.196432 -0.839006 0.017379 -1.412829 -0.379585 1.227982 0.656725
hands -0.371058 0.558023 0.224455 -0.430396 -0.299023 -0.074616 -0.190491 2.490386 -0.796497 0.004282 0.218562 0.138411 -0.393485 -0.689116 0.876492 0.005333 -0.819970 0.617349 1.298424 0.513620 -0.180973 -0.807908 -0.767790 0.665947 -0.282403 0.425504 -0.055671 -0.829983 0.945439 0.846234 -0.293075 0.185396 -0.542286 -0.471073 -0.343307 0.657592 -0.185490 -0.124701 0.748832 -0.092498 -0.055777 0.559709 -0.626074 -0.332699 0.168091 1.118905 -0.933934 -0.161019 0.496851 -1.179181
thought -0.644997 -0.218405 1.298248 1.253947 0.654301 -0.385880 0.017200 -0.379442 -0.272520 -0.528070 -0.529666 -0.410940 0.053441 0.217336 -0.221230 0.173356 -0.157935 0.708895 0.159469 -0.033525 0.836387 0.059933 -1.005585 0.884511 0.009073 -0.265826 1.556880 -0.992810 -0.796520 -0.009441 0.012323 -0.704628 -0.069876 -0.495923 -0.670348 -0.550084 -0.809344 -0.127099 0.094535 0.512643 -0.134834 1.020652 0.389748 -0.322098 -0.034900 0.720075 0.573506 -0.337689 0.686294 -0.314514
hate 0.344085 0.569170 -0.628430 -0.017107 0.139818 -1.010527 -0.049484 0.954532 -0.659266 -0.177145 -0.858796 -0.148640 -0.402544 0.990822 -0.344484 -0.274423 -1.322826 0.038813 0.114615 0.154541 0.302710 0.556398 -0.986233 0.118287 -0.189929 -0.958795 0.865555 -0.114213 -0.139378 -0.244612 -0.283366 -0.995593 -0.444792 -0.270853 -0.294795 0.389291 0.011043 0.024538 -1.162775 0.222237 0.423435 -0.155911 -0.312612 -0.330002 -0.301574 0.432892 -0.450091 -0.174441 0.797170 -0.951095
molly 0.729435 0.480128 1.030633 0.147022 -0.480412 1.080897 0.093255 0.278025 -1.497272 -1.350834 0.885453 -0.060552 -0.586764 -0.340682 -0.283202 0.628499 -0.675171 -0.512455 0.527660 0.779278 1.185804 0.600645 -0.390319 -0.397620 -0.531477 -0.633505 -1.372455 0.345938 0.020369 -0.951473 -1.169381 0.090075 0.111459 -0.236860 -0.628526 0.798321 -1.454514 -0.482481 -0.005600 0.994692 -1.283070 0.706827 -0.231289 -0.162076 -1.120074 -0.641356 -0.135074 0.572026 -0.701636 -1.163862
game -0.871395 -0.976588 0.345735 0.177420 0.328210 -0.128185 -0.295808 -0.296836 -0.156856 0.059042 0.562528 0.400933 0.015842 0.419402 -0.529399 0.661360 -0.913301 0.671237 0.190377 -0.394913 -0.651753 1.229814 -1.198028 -0.809553 -0.148658 -1.284821 0.465707 0.131369 -0.241053 -0.093392 -0.085547 -0.871263 0.309987 -0.485289 -0.048369 0.482345 -0.660747 -0.473219 -0.071994 0.130478 -0.589451 0.496462 0.423488 0.375409 -0.761057 0.196383 -1.234104 -0.697122 0.072249 0.484788
mean 0.601623 0.503143 0.656566 0.742690 -0.297293 -0.155664 0.165400 0.194478 0.045725 0.163563 0.075578 -0.273050 0.098467 0.135639 0.369534 0.409908 -0.927420 -0.716268 -0.004041 -0.049706 0.145646 -0.625699 -1.233019 0.482039 1.044069 0.338874 -0.454119 0.257082 -0.735623 -0.094141 -0.883127 -0.404399 -0.692035 -0.504831 0.020345 0.233766 -0.678619 0.056606 -0.545913 0.749877 0.858998 -0.670568 0.182399 0.141150 -0.124728 -0.151664 -0.153746 -0.320748 0.735383 -0.600238
shoot 0.285002 0.226886 0.347244 -0.619234 0.435818 -0.217069 0.570003 -0.451112 -0.193404 0.241123 0.098439 -0.367490 -0.211670 0.259239 1.618528 0.306890 -0.609926 1.059194 0.419120 0.839741 0.167254 0.416792 -0.685997 0.239999 -0.420219 -0.019990 0.517007 -0.115153 0.508541 0.206539 -0.248649 -0.065869 0.213608 -0.162645 1.056410 -0.430370 -0.163836 -0.762633 0.091980 -0.254538 0.093151 -0.747209 0.114043 -0.511002 -0.752492 -0.191105 -0.673923 -0.486197 1.680619 0.421889
block 0.032460 -0.431734 0.200755 -0.949248 0.454532 0.304710 -0.247658 -0.803718 -0.920077 0.391117 -0.507867 -0.800257 -0.801044 0.546644 -0.053033 -0.285162 -0.548586 -0.450099 -0.385031 0.539052 0.594824 0.923079 -0.232901 -0.649697 0.314776 0.083988 -0.185546 -0.975548 0.434652 0.120071 0.081818 0.386084 -0.591777 0.753333 -0.011207 0.419007 -0.773360 0.376545 0.623737 -0.177840 -0.504246 -1.334714 0.279852 -1.428309 -0.689437 0.815956 -0.641506 -0.932865 0.773121 -0.230944
fly 0.740446 0.238413 -0.673909 -0.664411 0.108502 0.140377 -0.226504 -1.436289 -0.145214 0.465599 -0.540460 0.102891 0.610319 0.554034 -0.401895 -0.282575 -0.406306 0.185547 0.470346 -0.560289 -0.749186 -0.609863 -0.218034 0.859256 1.618741 -0.206077 -0.755109 -0.141354 -0.534760 -0.148443 -0.732161 -0.309983 0.244815 -0.291958 0.052429 1.262550 -0.599890 -0.365100 0.914441 -0.720652 -0.723123 -0.988461 0.234304 0.132888 -0.393875 -0.326926 -0.313825 -1.219150 0.733017 -1.220441
o -1.665962 0.493369 -0.107090 -0.819135 1.648070 0.876694 1.868380 -0.254915 -0.581594 -0.950596 0.003368 -0.239997 1.222403 -1.297991 -0.272340 1.049567 -0.146222 0.087909 0.672533 -0.275623 -0.337578 -0.000281 0.228634 -0.528268 0.948796 0.507158 0.932037 -1.250572 -0.292539 -0.028052 -1.071976 0.890654 0.765735 -0.238562 -0.020331 -0.326639 0.227255 1.010002 0.536639 -0.243287 -0.194381 0.219747 -0.942533 -0.330001 0.251421 -0.180501 -0.924660 -0.765679 -0.169668 -1.709333
red 0.424459 -0.439665 0.316700 0.899813 1.913086 -0.747011 -0.595691 -0.083957 -0.093226 0.436895 -1.002303 0.091235 0.644289 -1.013433 1.195367 -0.270771 -0.413027 1.012616 0.199255 -0.890707 0.707600 0.159445 0.109321 0.326612 0.323253 0.463813 0.080388 1.151644 0.486774 1.029892 -0.936631 -0.433737 0.370607 -0.165180 0.537742 -0.553790 0.715645 -0.677903 1.045824 0.224740 0.087444 0.658017 -1.971550 0.446792 -0.140720 -0.331853 0.368074 -0.560792 1.195649 -0.199900
throw -0.117956 0.223989 -0.485271 -0.333647 -0.587556 -0.380427 0.215764 0.734476 0.484850 -1.018074 -0.186315 0.650715 -0.005860 0.892600 0.077515 -0.300397 -1.291051 -0.435105 0.323640 0.730706 -0.357326 -0.217040 -1.409568 -0.348369 0.162667 0.104567 -0.906175 0.446890 0.279413 0.087454 0.274182 -1.032104 0.812178 -0.546525 -0.136405 0.122097 0.722485 -0.811392 0.542709 -0.577970 0.112164 -0.239046 0.810104 -0.543150 -1.001997 0.829128 -0.689177 -0.027853 -0.104735 -0.847680
heard 0.755670 -0.206915 -0.311737 0.928443 1.453549 -1.099877 -0.640106 0.001663 -0.079652 -0.716375 0.129805 -0.460747 -0.015322 0.231147 -0.163913 0.325750 -0.739052 -0.368280 -0.259744 0.209880 0.341534 0.147635 -0.553054 0.301237 0.767736 -0.395826 0.138002 -1.205657 0.327759 -0.043407 -0.111933 -0.261557 -0.484416 -0.981469 -0.573020 -0.343277 -0.553491 -0.078221 0.405479 0.123558 -0.287488 0.671950 0.245650 -0.597989 -0.013121 -0.370954 -0.291121 0.380778 0.348112 -0.253474
shots -0.144518 -0.390831 0.434797 -0.789779 0.347085 -1.395819 -0.311448 0.437328 -2.244869 -0.618834 -0.782784 0.694310 0.779438 -0.264876 1.714697 0.604354 0.170549 0.492352 -0.989503 0.254151 0.137915 0.057479 -0.233879 -0.379765 -0.188947 0.039595 -0.536325 0.063724 1.255739 -0.747538 -0.368712 -0.124611 -0.375672 1.050840 0.656957 0.929942 0.302441 0.535474 0.290159 -0.776339 0.226556 -0.605867 -0.042007 0.148566 -0.130445 0.173069 -1.010209 0.008051 1.127180 -1.435279
swerve -0.423413 1.331529 -0.028998 -0.584175 2.662980 -0.390438 0.980261 -0.404899 0.338127 0.328949 -0.995135 0.251922 0.395140 -0.086928 -0.284685 0.203581 -1.403627 -0.001651 -0.758174 -0.398332 -0.631042 -1.351357 1.060711 -1.120550 0.312847 0.162750 1.114624 -0.878590 -0.707377 -0.266057 -0.965407 0.351989 0.096023 -1.308699 -0.271738 -0.270130 -0.103516 0.068731 0.876172 1.184910 1.744473 -0.293109 -0.601365 -0.453336 0.449081 0.328630 -0.941541 0.462378 -0.827408 -0.605977
best -0.591064 0.155182 -0.469816 0.360221 -0.577974 -0.497225 0.843836 0.426400 -0.902507 0.381738 -0.620647 0.644066 0.199972 0.645519 1.024906 0.737055 -0.661411 0.390841 -0.775402 0.471962 1.055237 -0.646829 -0.800240 -0.037365 0.880248 -0.405173 -0.596314 -0.777235 0.650744 0.709955 -0.485997 -0.093899 -0.798234 -0.643987 -0.147863 -0.572238 0.329483 -0.847043 0.227562 0.206170 -0.610035 0.356401 0.644605 0.008567 -0.712087 0.900163 -1.286059 1.555177 0.132357 -0.263318
took -0.132953 -0.521954 1.063795 -0.314743 0.062156 0.193915 -0.175244 0.600058 0.125175 0.353857 -0.091754 -0.308434 0.299241 0.565770 -0.707908 -0.316557 0.501337 0.413223 0.497792 -1.133569 0.226879 0.292661 -0.419184 1.112946 -0.814749 -0.096794 0.514991 0.028338 -0.851677 0.359379 0.680282 0.019285 0.799274 -0.518054 -0.697378 0.551838 -1.089863 -0.346080 0.123527 0.883300 -1.026549 -0.323386 -0.929897 -0.305079 0.177994 0.394239 -1.044581 -0.961495 0.711209 -1.280364
fucking 0.592127 -0.917116 -0.501630 0.341608 0.195791 -0.654771 -0.267760 -0.180337 -0.238501 -0.176860 -0.750423 -0.181676 -0.353090 0.668755 -0.674303 0.443651 -0.041699 0.486438 -0.472304 0.450677 -0.887101 0.097438 -1.180093 0.783053 0.610707 -0.091292 1.227396 0.422076 -0.277552 0.568143 -0.180466 -0.617569 -0.405800 0.311530 -0.254257 -0.570680 -0.323950 -0.697824 0.089829 0.859244 0.489975 -0.821634 -0.299273 -0.147947 -0.222152 -0.396201 -1.005684 -0.125504 0.012377 -0.400449
wrist -0.261044 0.621772 0.664473 2.694197 -0.004272 0.506786 0.086678 0.080097 -0.171760 0.515543 0.625640 -0.948839 0.023814 -0.078342 -0.363275 0.415630 0.244448 -0.003098 -1.115370 -0.313059 -0.181385 -0.050501 -0.359790 0.248275 1.240148 0.941756 -0.192438 1.080843 -0.504193 0.230088 0.628124 0.360086 0.691525 -0.971611 1.049627 -0.568879 0.111725 -0.106590 -0.291983 -0.716107 -0.377214 -0.160392 0.611528 -1.173646 -1.036474 0.213282 -0.780006 -1.080053 -0.391355 0.717178
ball -1.079259 -1.228939 -0.368218 0.804801 -0.201652 -1.014601 0.102909 -0.372215 -0.640252 -1.902502 0.171556 -1.193175 0.694908 1.304339 -0.000725 -0.476982 0.028356 0.682978 0.680311 -0.015989 -0.309396 0.098157 -0.494457 0.092488 -0.744277 0.411467 0.023258 -0.068369 -0.139640 -0.564855 0.668262 0.849856 0.966038 -0.321156 -0.116807 -0.819651 -2.013119 -0.207360 0.050255 0.874612 0.836398 0.555208 -0.202176 0.747162 -1.371299 -0.289880 -0.325122 0.081313 -0.570251 -0.315298
away -0.599844 -0.592147 0.789388 -1.481323 1.080902 -0.204736 0.269173 -0.204022 0.300461 -0.771958 0.207087 0.364864 0.981384 1.107486 -1.000635 0.053093 -0.025228 -1.354750 1.093591 -0.653423 0.820219 0.699104 -1.280818 -0.244438 -0.579925 0.650177 0.500911 -0.262633 1.430068 0.386390 0.101726 -0.673923 0.721989 -0.584390 0.497110 -1.032171 0.139371 -0.004832 -0.269050 0.274083 -0.110085 -0.632216 0.776517 0.857261 -0.170458 0.601362 -0.439516 0.031690 1.197166 0.238846
ring 0.006059 0.611976 0.184959 1.122731 -0.258859 0.037007 0.138762 0.411931 -0.129266 -1.103437 0.301409 0.303462 0.253320 1.943100 -0.393224 0.116010 -1.745603 -0.225850 0.447161 0.682707 1.079904 0.072526 -0.983089 0.011514 1.215336 0.980827 0.087714 0.175590 -0.810442 0.478874 0.857226 0.587523 -1.175961 1.066255 0.492567 0.559103 -0.274685 -0.332950 0.929778 0.403348 -0.407608 -0.660894 -0.109247 0.436979 -0.767706 -0.485970 1.023437 -0.364278 -1.279049 0.201418
fast 0.254771 -0.819714 0.284575 -0.615585 -0.344167 -0.771241 0.336970 0.226973 -0.124414 -1.282648 0.442243 -0.310456 0.548798 0.730316 0.307327 1.169292 -0.328844 -1.125419 0.570543 -0.504280 -0.216368 0.790612 -0.259940 0.303833 0.227690 1.351466 1.047315 0.692120 0.059784 1.344073 1.027284 -0.466232 0.178062 -0.508903 -0.389806 0.104291 -0.727826 -0.466458 0.712198 -0.679349 -0.581126 -0.090069 0.011407 -1.028054 -0.663636 -0.436121 -0.026897 -0.097007 0.598370 0.677804
blow -0.782895 0.028972 -0.229471 -0.474117 1.679561 -1.436544 -0.021614 -0.746884 1.721034 -0.169177 0.374603 0.352545 -0.203245 0.405839 0.567853 1.034228 0.561069 -0.161202 1.343432 -0.797619 -0.142801 0.975464 -1.049899 0.101499 0.807564 -0.339418 -0.592595 -0.199475 0.303806 0.776889 0.428255 -0.037992 -0.489793 0.704812 0.341545 -0.004913 -0.398413 -0.917624 0.136821 -0.332846 -0.332096 0.505682 0.084092 -0.309925 -0.782575 0.675840 -1.173767 0.057530 1.517805 -0.505153
hell 0.922012 -0.877729 -0.239736 0.310597 -0.291063 1.232718 -0.270917 -0.012320 -0.996866 0.925994 0.011740 -0.088215 1.043010 -0.014023 -0.927485 0.472496 0.005868 -0.398444 0.101510 0.212259 0.544410 -0.169668 -1.437861 0.131351 0.918836 -0.125702 0.942933 0.341395 -0.876640 -0.042658 0.273510 0.918093 -0.677571 -1.224261 0.261367 -0.628924 -0.231356 -0.659160 -0.229630 0.305339 -0.550596 1.102151 -0.369855 0.482393 -0.055268 -0.678058 -0.595119 -0.103497 1.487265 -0.396661
bands 0.418957 1.319002 -0.247889 0.199548 0.027150 -0.289526 -0.584823 1.386429 0.738052 -0.103425 0.697298 0.294605 1.004522 0.030279 0.060085 -1.325159 -0.375870 -0.016538 0.491274 0.433909 -0.031522 0.234862 -0.748585 0.429804 1.105453 0.749066 -0.200246 -0.252018 -0.168752 0.749971 0.741998 1.041289 -0.159405 0.570539 -0.737742 -0.583146 0.608247 -0.022021 0.409146 0.217781 -0.260500 -0.368982 -0.237599 -0.997323 -1.704165 -0.088200 -1.350405 -0.179728 0.036898 0.748966
believe -1.586035 1.468760 0.129304 0.721730 1.762637 -0.554801 0.347764 -0.024259 -0.217134 -0.012404 -0.252911 1.103260 0.430227 0.431834 -0.016634 1.259466 -0.781230 0.536790 0.140101 0.189394 0.836499 -0.237296 -0.419699 -0.305936 1.472027 0.216091 0.703401 -1.446925 -0.300691 -0.098010 0.023375 0.555843 -0.247442 -0.375789 0.018405 -0.624012 -0.228572 0.196475 0.857421 0.866121 0.398932 0.061940 -0.362580 -0.079021 -0.702287 0.297405 -0.347415 -0.247814 -0.460744 -0.783828
catch 0.070500 -0.444111 0.678743 0.103479 0.674323 0.523943 0.972962 0.381116 0.575639 -0.569335 -0.274338 -0.132339 0.220151 0.329786 0.398145 -0.118733 -0.108217 0.814543 -0.115232 1.857765 0.770925 0.730123 -1.047137 -0.598488 -0.470085 0.435322 -0.206379 0.037254 0.767388 -0.583409 -0.491540 -0.071459 0.664253 -0.468474 -0.219238 -0.014061 0.525651 -1.236627 0.491907 0.238840 -0.854120 0.589412 0.869543 -0.808955 0.244957 0.027858 -0.660297 0.185908 0.804112 -0.014879
hood 0.762975 -0.529289 -0.178289 -0.107314 -0.432856 0.116657 0.149529 -0.752954 -0.438453 -0.153500 -1.355991 -0.601602 0.323669 0.398228 -0.456367 0.705620 -0.545925 -0.658845 -0.331637 -0.184597 0.048221 0.498386 -0.066565 -0.683747 0.457336 -0.773932 -0.540284 -0.712597 -0.352182 0.069130 1.044320 0.494343 -0.737297 0.197509 -0.130823 -0.211620 -1.148382 -0.240636 0.168980 0.149557 -0.145390 -0.259844 -0.377317 -0.111716 -1.314343 -0.175955 -1.337836 -0.645922 0.011740 -0.023196
ice -0.304254 -0.746534 0.800815 1.979411 -0.332132 0.146722 -0.155643 0.701740 0.237892 0.645293 0.737549 -1.274687 -0.801894 -0.566200 0.046820 0.645318 -0.221360 0.269058 -0.172983 -0.895724 0.289514 1.165414 0.106328 0.722794 0.616112 0.506617 -0.163980 1.056042 -0.360638 0.438652 -0.035380 -0.407148 0.023529 -0.394604 0.961197 0.676668 0.925501 -1.041519 -0.972506 0.277955 -0.249504 -0.252243 -0.176632 -0.522540 -0.340724 0.085112 -0.497013 -0.223846 0.519255 0.134521
ready 1.602096 -0.134003 -0.428233 0.209371 -0.687446 -0.320368 0.016470 -1.077007 -1.219559 0.228389 0.424356 0.068481 1.477351 0.286404 1.241132 0.549543 0.849210 -0.035760 0.287320 0.488379 -0.105168 -0.411881 -0.856182 -0.317872 -0.273028 0.747316 1.037206 -0.272763 0.242069 0.321745 -0.256537 -0.846478 0.019782 0.298794 -0.083633 -0.891696 -0.111333 -0.046241 -0.178469 0.218464 1.338073 -0.658424 0.245156 -0.366671 -0.803656 0.195882 0.385694 0.473692 1.340070 0.356681
b -1.200403 -1.255640 0.312243 -1.433206 0.503146 0.023061 0.640315 0.459717 -0.147083 0.509010 0.053677 -1.595031 0.347705 -0.357394 0.497798 0.800334 -0.516146 1.194096 0.967437 0.051908 -0.281461 0.368917 -0.846937 0.474246 -0.227305 -0.970518 -1.212809 -0.192524 0.629393 1.202288 -1.227237 -0.245530 0.216088 -0.458116 0.525660 -1.083917 -1.183748 1.140648 0.112008 0.703370 -0.142229 0.595634 -0.468914 -0.631805 0.161427 0.229311 0.114639 -0.247731 -0.912563 0.010672
bang 0.847183 -0.421499 0.274212 -0.657550 1.192621 -0.360270 -0.527912 -1.318089 -1.363932 0.610524 -0.309438 0.090488 -0.326125 -0.469734 0.180972 1.859010 -0.318718 -0.416573 -1.392541 -0.946650 1.153430 0.842047 -0.223989 -1.478692 0.424466 0.121271 -0.197888 0.308344 0.824835 0.664575 -0.922106 0.163498 0.314170 0.567123 0.819788 0.239998 0.245275 0.117316 -0.105260 -0.858411 0.285140 -0.154216 1.441950 -1.478234 -0.464229 -0.449507 -0.627621 -0.598962 0.025209 0.044324
car -0.421311 0.003416 -0.278217 0.017758 0.076858 -0.018844 0.342411 0.159608 -0.943329 -0.495349 0.402840 -1.308306 -0.028708 0.341914 0.981575 -0.588352 -0.398270 -0.269603 -0.345135 -0.100051 0.164096 0.300351 -0.281387 0.925595 0.517922 0.836869 0.614929 -0.090864 0.138585 0.227633 0.207657 0.476527 0.119381 -0.338702 -0.268163 0.704124 0.788750 -0.834450 0.030304 -0.161310 -0.555355 -0.527749 0.164594 -0.165299 -0.727504 -0.499842 -0.454735 -0.840469 0.389871 0.270741
gas 0.301662 0.296944 -1.098535 0.007012 -0.076156 0.019318 -0.782755 -0.614449 -0.959331 -0.560550 0.052418 -1.380004 -0.644531 -0.782438 0.238388 0.944935 0.429537 -0.037363 -0.194642 -0.983106 -0.764216 -0.001599 0.035484 1.464780 -0.700505 0.642332 -1.340490 -0.396881 0.076084 -0.696241 0.676925 -0.547831 1.031643 0.221621 0.277194 -0.336852 -1.801784 0.437360 0.586849 -0.283028 0.068836 0.116305 -1.294589 0.251666 -0.349014 0.705289 -0.933049 0.313028 0.017602 0.225497
slow 0.023045 1.174952 -1.193382 -0.572710 -0.758848 -1.349480 -0.860588 -1.228066 -0.686351 0.032434 -0.292558 -0.271934 0.073633 -0.396774 0.281342 0.998348 -0.392949 -0.468328 -0.152270 -1.064835 -0.984104 -0.283962 -1.507827 -0.295808 0.148773 0.987812 -0.235532 -0.175518 -0.442024 0.686246 0.780228 -0.747052 0.176753 0.082673 -0.357482 0.437267 -0.600770 -1.337342 -0.611972 -0.025111 -0.126974 -0.245832 0.056522 -1.260710 0.461877 0.012883 0.293379 -0.809233 -0.010187 -0.586580
phone -0.059700 -0.121253 0.209374 1.254552 -0.205323 -0.027468 0.428228 -0.227957 -0.015935 0.088275 -0.758945 -0.403884 0.781237 0.975449 0.427442 -0.703995 -1.105992 0.238591 0.010452 -0.810631 -0.205203 -1.058818 -2.112643 1.338629 0.232287 0.780858 -0.325822 -0.256342 -0.345624 -0.763102 0.388585 -0.760327 -1.133341 0.760931 -0.046869 0.738210 -0.991620 0.513038 0.153033 -0.077866 -0.334367 -0.201039 0.111976 -0.348726 0.345498 -0.231653 0.595117 -0.492323 0.856535 -0.269003
lie 0.398702 -0.768441 0.326871 -0.162611 1.334142 -1.202852 -1.370147 -0.521805 -0.331169 -0.306602 -1.465181 -1.231994 0.905251 -0.144814 -0.305080 0.705957 -0.040439 -0.546678 0.432971 0.005248 0.596518 -0.196303 -0.127343 -0.389646 0.572252 0.173343 1.057064 0.446131 -0.794416 -0.083591 -0.438126 -0.700648 1.354424 -0.483039 0.007258 -0.825403 0.269994 -0.338641 0.006198 0.298378 -0.335956 0.204126 1.293261 0.123035 0.385943 -0.129645 -0.169159 0.434083 0.861608 1.325219
lean -0.181382 0.012408 1.050110 0.009277 0.132859 0.334029 -1.436450 -1.358718 -0.979578 0.704975 1.233531 0.143635 -0.414092 0.512254 -0.023762 0.832481 -0.138057 0.560113 0.006580 -0.108560 1.276876 -1.058722 0.069621 -0.632739 1.076409 0.100527 -0.858655 -0.357763 -0.629369 0.202740 -0.654709 0.593541 -0.619928 0.038055 -0.304117 0.653039 -0.216176 -0.088995 0.569611 0.041998 0.318406 -0.330945 -0.853613 -0.721007 -0.802618 0.159741 -0.101089 -0.540761 1.162126 -0.026780
teach 0.385761 -1.398648 1.043875 -0.628657 -0.072650 -0.891229 0.035559 0.424056 -0.837993 0.472767 0.715867 -0.109421 -0.318920 0.081586 -1.011679 0.786661 -1.022326 0.121561 0.906791 0.903876 -0.679373 -0.236339 -0.759219 0.870812 0.178663 -1.568245 0.155977 0.822621 0.700865 0.342943 0.486595 -0.520785 -1.493088 0.665155 0.802795 1.023029 -0.185383 1.342251 -0.673024 0.042546 -0.072210 -0.233370 -0.282348 -0.316488 -0.536948 0.147971 -1.115991 -0.015371 -0.571412 1.119855
find 0.789171 0.504656 0.267217 -0.072668 0.165730 0.389143 0.289404 -0.201137 -0.691711 -2.235991 -0.780541 -0.430750 0.371043 0.540592 -0.061852 -0.310796 -0.473914 -0.283645 0.064610 -0.127076 0.534493 0.307135 -0.916714 -0.096227 -0.790124 0.154689 -0.150730 -0.579349 -0.260410 -0.781188 -0.907321 -0.244063 -0.236935 -0.459211 0.356963 0.228848 -0.611034 -0.905810 -0.708371 0.254141 -0.564714 -0.359255 0.250408 -0.281482 -0.119732 -0.278325 -0.524587 0.845483 0.830456 -0.325598
hol 1.101817 -0.368614 0.493358 0.212971 0.285662 -0.696897 -2.335824 -0.678639 -0.205203 0.380279 0.401957 -1.267042 0.144675 0.326904 -0.497447 1.221124 -0.390921 0.382730 -0.471357 1.109242 0.880474 -1.190523 0.728760 -1.049681 -0.099069 0.870285 -0.792420 -1.409496 -1.586245 0.037798 -0.635023 -0.077778 0.255505 0.658573 -0.808856 0.427229 -0.271459 -0.844632 -0.757520 0.677225 -0.129355 0.585927 -0.195422 0.184946 0.841705 0.974304 0.703336 -1.313537 -0.293716 0.644152
roll -0.330084 -0.338912 -0.379334 -0.385393 0.209529 -0.069027 -0.942152 -0.437957 -1.537167 -0.427313 0.419394 0.385337 -0.031292 -0.576121 0.562816 0.352413 0.013427 0.722103 0.867561 -0.464341 0.222975 -0.292602 -0.116707 -0.164738 -0.186384 0.122603 -0.016237 0.479509 -0.039157 -0.374195 -0.395313 0.212314 0.792996 -0.315334 -0.231874 -0.321066 -1.300895 -0.501284 1.223244 -0.999909 -0.202318 0.346151 -0.168013 -0.222220 -1.423282 -0.130926 -0.181315 -0.514196 1.373041 -0.203803
feeling -0.803289 0.106417 0.020820 0.857358 0.530475 0.451052 -0.398934 -0.417880 -0.053364 0.348967 -0.270703 0.629996 -0.307496 -0.303726 -0.601245 0.226522 -0.178538 0.347192 -0.389625 -0.288961 1.650023 -0.824677 -0.531480 -0.542183 0.214857 -0.305155 1.053692 1.028026 -0.850018 0.524405 -0.717050 -0.430400 0.286870 0.120912 -0.057226 -0.089326 0.065497 -0.403701 -0.156633 -0.248212 0.348181 -0.223849 0.054830 -0.953633 -0.510220 -0.952206 -1.601898 0.122109 0.402606 -0.186968
rock -0.329312 0.435694 -0.465303 -0.106634 0.436458 0.647321 -0.631519 -0.559108 -1.722086 -0.425155 0.610393 0.067340 -0.341957 0.693211 -0.379853 0.565750 -0.378833 -0.094221 0.092697 -0.168405 1.011350 0.478390 -0.393447 -1.006016 -0.089946 -0.769436 -0.520035 -1.159191 -0.165113 0.263330 0.207085 -0.089693 -0.004563 0.588396 -0.061915 -0.232561 0.193057 0.757854 0.563436 -0.150300 -0.985345 -0.304973 -0.922717 -0.319220 -0.922598 -0.018346 -1.287471 -0.800025 0.721574 -0.160628
things -1.322448 0.452772 0.357352 -0.209829 0.255070 -0.320609 0.036284 0.187821 -0.435065 -0.876072 -0.845197 -1.018119 0.729541 0.534969 0.042085 0.530553 -1.565835 -0.651865 0.113008 -0.166851 0.880404 -0.945749 -0.382768 0.006109 0.037418 0.038737 -0.216113 -0.235098 -0.431235 0.448488 -0.302080 -0.376419 -0.341879 -0.855700 -0.342276 0.281152 -0.024846 0.236239 0.221507 0.554902 -0.879501 -0.151540 0.206403 -1.200353 0.180869 -0.224759 1.277161 0.296393 0.706662 0.389050
times -0.607116 0.874814 0.967184 0.207316 0.122642 -0.145118 -0.607545 0.519634 -0.433788 0.147408 -1.510116 -0.695085 -0.266462 1.545902 -0.213694 0.410073 1.133224 -0.326031 -0.546349 0.831803 0.848417 0.030830 -0.827871 0.277548 0.018041 0.506607 -0.719090 -0.724029 -0.172412 -0.548175 -0.394425 0.356274 0.925469 -0.682751 -0.149428 0.045295 0.766638 0.054707 0.334310 -0.277473 -0.654772 -0.618170 0.467335 -0.561364 0.125576 0.103818 -0.442708 0.407478 1.507130 0.646278
