like -0.040862 0.047995 1.370139 -0.075689 0.456857 1.644335 -1.253845 0.083036 -0.338780 -0.721767 1.106934 0.590966 0.235740 -1.325631 0.263931 -0.237423 0.279964 0.509885 1.595454 0.125661 0.082190 -0.221469 0.954731 1.293385 0.261899 -1.207880 -0.397224 -0.003069 -1.405348 0.727924 -0.878283 -0.998685 -0.141138 1.206293 -0.285746 -0.450700 -1.086380 -0.067880 0.584763 0.749722 -0.314242 0.389628 0.924828 -0.752150 0.173374 -0.081816 -0.336310 1.475682 -2.298137 0.215623
got -0.789527 0.263508 0.040905 -1.542345 1.326088 0.474348 -1.382049 -0.428949 -0.131139 -1.281214 -0.467657 1.182526 -0.856027 0.668239 1.205217 0.363625 0.174255 0.373536 0.943702 -0.320544 0.542708 -0.331088 1.203583 1.392219 -0.634425 -0.095037 -0.099218 0.861420 -0.157357 0.753559 -0.235790 0.356337 -0.176323 0.505898 -0.384354 0.533382 0.217912 0.087027 1.077625 -0.102988 -0.223766 1.132922 0.254633 0.506255 0.560534 0.808744 -0.265051 1.521337 -1.148556 0.297708
yeah 0.766172 -0.343618 1.073040 -1.147972 0.681807 0.096032 -0.001167 -0.228442 0.558859 -0.714450 -1.395349 0.441648 -1.152056 -0.457634 -0.635721 0.299959 -1.325986 1.445970 0.308630 -0.457559 0.903091 -0.169906 1.000591 1.448159 -0.723310 -0.299547 0.279499 -0.306133 -0.460354 -0.873579 -0.360202 -1.122171 0.047587 -0.398921 -1.050466 -1.023385 0.047534 1.280517 0.732298 1.104541 -0.875331 0.139830 1.863775 0.627562 -0.256488 -1.009364 -0.935839 0.109265 -0.896928 -0.593346
know -0.473049 0.264600 0.508668 -0.575082 -1.070235 0.220386 -1.475880 -0.246486 -0.220642 -0.286948 -0.380300 0.383479 -0.617746 -0.214724 1.001040 -0.311426 -0.659618 1.583803 0.650549 0.652326 0.651652 -0.147084 0.665833 0.731286 0.017970 1.005931 -0.801035 -0.284127 -1.797098 -0.627096 -0.556559 -1.064946 0.118817 -0.381058 -1.662262 -1.224662 -1.122897 0.189610 0.819874 1.088447 -0.245076 0.162721 0.161898 -0.358154 0.100510 0.231481 0.459535 0.736639 -0.739768 -0.448158
nigga 0.098232 0.046824 -0.211789 -1.081053 0.844584 1.787900 -0.894422 1.072800 -0.255766 0.752354 -0.093828 0.032959 -0.072012 0.292914 0.865488 -0.992842 -0.378898 0.663085 0.833519 -0.592634 0.211883 -1.248685 0.147616 0.952843 -0.839981 0.724496 -0.241485 0.423348 -0.487742 -1.014143 -0.523600 -1.472733 -1.125065 1.086647 -0.224687 -0.722236 0.265656 0.269237 -0.512240 -0.018558 0.804474 0.439516 1.309945 -0.010488 1.036088 0.314069 0.671071 0.330121 -0.689697 -1.090514
ai -0.483110 0.653957 -0.308739 -0.598365 0.197614 1.005328 -0.540927 0.326781 -0.063440 0.094617 -0.237320 0.064344 -0.138094 0.193734 0.200999 0.367234 0.190058 0.372851 0.605976 -0.394585 0.714038 1.241948 0.473239 1.350995 -1.052837 0.094709 0.318558 1.112698 -1.175823 -0.088371 0.976063 -1.369906 -0.376113 -0.053441 1.009124 -0.747860 -0.249316 0.160179 0.863493 0.854440 -0.381368 0.156869 -0.403514 0.846180 0.762406 -0.198654 0.640709 0.792161 -0.575556 -0.124330
bitch -0.288236 -0.361968 1.093215 -1.469856 0.533566 0.010215 -1.025906 0.780123 0.392961 0.439966 0.315717 0.556419 -0.322773 0.027310 0.360000 0.612789 -1.047923 -0.286302 -0.405456 -0.289741 -0.698271 0.144726 1.234651 1.098475 -0.927695 -0.569945 0.463538 -0.690428 -1.440457 -0.506354 -0.383554 -0.894317 -0.426785 -0.575993 0.047860 0.102855 0.142143 -0.394170 -0.177328 1.032091 -0.225947 -0.055641 0.083483 -0.497003 1.481907 0.254269 0.589916 1.720914 0.168536 -0.944951
way -0.033443 0.245744 0.072863 -0.985295 -0.436272 -0.394691 0.037609 0.568531 0.312673 -1.109282 -1.399564 -0.010761 -0.642127 -0.451917 0.925412 0.758478 -0.654642 0.016333 -0.344297 0.085971 -0.022680 0.051779 0.398971 1.850923 -0.461127 -0.323037 0.644895 0.463108 -1.065409 0.043414 -0.255773 -1.334031 -0.228717 0.648380 -0.979013 0.385271 -0.882019 -0.926367 0.398948 1.811352 -1.505542 0.074302 0.208830 -1.087876 0.903335 -0.297405 -0.469913 0.726988 -0.341023 0.071260
love -0.614057 -0.308052 -0.667066 -1.213247 0.502247 0.881810 0.049135 0.528758 -0.821180 -1.493329 -0.706530 -0.986124 -0.876814 -0.085769 -0.188079 -0.584499 0.384723 0.713493 0.455736 0.724664 0.503856 -0.408610 0.671948 1.274999 -0.593126 -0.127560 -0.465490 0.852035 -0.116466 -0.388704 -0.686888 0.696805 0.071178 -0.538964 -0.557120 -1.137441 -0.723314 -0.574669 0.508757 -0.398593 -0.793921 -0.968603 0.144009 0.224155 0.648766 -0.480370 -0.592345 1.533845 -0.388263 -1.334470
uh -0.188281 0.501963 -0.508017 -0.924003 -0.110435 0.517964 -0.344199 -0.848535 -1.063072 -1.357164 -0.088486 0.379987 -0.347507 -1.012072 -0.934021 0.068687 -0.059265 1.617092 -0.286232 -0.978551 -0.084807 -1.905138 0.186099 -0.302909 -0.233122 -0.624894 0.770403 -0.053639 -1.083608 -1.301020 -0.442209 0.027899 -0.625156 -0.237882 0.179819 -0.785108 -0.158063 -0.206515 1.127335 0.117166 -1.501147 0.006075 1.101458 0.423179 0.319675 -1.313728 1.302447 0.545777 -0.378459 -0.482463
wanna 0.155066 -0.226099 -0.044828 -0.126563 0.469333 0.200671 -0.431872 0.213722 -0.453586 -0.480117 -1.035952 -0.944955 -1.458452 -0.828079 0.055112 1.129202 0.314643 1.031795 1.449601 -0.638543 -0.381292 0.188279 0.014783 0.287255 -0.987650 -0.227501 -0.146289 0.788137 -1.116917 -0.883721 -1.946624 0.428358 -0.167486 1.050634 -0.443778 0.089070 0.001496 1.094266 -0.015867 0.037658 -0.570092 1.249233 -0.081468 -0.942739 0.618484 0.191745 1.213466 0.865238 -1.229356 0.394424
let 0.421371 -0.301116 0.343549 -1.570985 0.089162 0.180706 1.045963 0.812693 0.228733 0.539569 0.428425 0.600605 -0.283014 -0.615660 -0.601964 0.149429 -0.111748 0.587141 0.592885 -0.445469 0.724787 -1.184023 0.124446 0.585122 -0.461875 0.324576 -0.625513 1.674621 -0.874148 1.050393 0.095679 -0.012941 0.889567 0.325003 -0.425934 -0.820235 -0.072788 0.524487 0.641577 1.129891 -0.517253 -0.151149 0.708053 -0.623978 0.503604 1.146640 1.061565 1.020699 -0.523985 0.344038
shit 0.949442 0.497519 0.335522 -0.487534 0.759016 0.902736 -0.610489 -0.444583 0.021598 0.463345 0.144888 0.669559 0.724332 -0.433840 0.692367 -0.335880 0.950479 1.134922 0.262087 -0.723029 0.288139 -0.155762 0.740504 1.148357 -0.371895 -0.099515 0.620144 1.354118 -2.128717 -0.443854 0.468315 -0.404603 0.330888 -0.505987 0.199204 0.179904 0.039056 0.180804 0.104154 -0.065005 -0.497623 0.290257 0.604324 -0.426786 0.318329 -0.069491 0.850641 0.717607 -0.450869 0.520737
fuck -0.506484 0.440459 0.379291 0.137755 0.726314 0.193524 -0.656352 0.612497 -0.035529 0.116023 -0.027029 0.308120 -0.677568 0.172856 -0.444914 -0.685536 -0.580506 0.310695 0.191159 -0.172589 0.294029 -0.114962 0.382632 1.447717 -0.835928 0.170116 -0.329464 0.668503 -2.330203 -0.746668 -1.038364 0.088482 -0.251603 -0.657869 0.683909 -0.096895 0.523391 0.591550 -0.930104 0.684782 0.335790 0.501953 0.580505 -0.248377 0.070960 -0.414801 -0.442203 1.356160 -0.818578 -0.043935
niggas 0.046549 -0.096322 -0.064830 -0.321625 -0.481025 0.355799 -0.931303 -0.160534 0.024972 0.624599 -0.262859 0.486285 -0.665868 -0.083981 -0.181523 -0.512848 0.159735 -0.048794 1.073579 -0.445674 1.007600 -1.007172 0.661992 1.202706 -0.619753 -0.900305 -0.024675 1.317030 -1.532114 -0.172647 0.512414 -1.019921 -0.359946 -0.461223 -0.108223 0.157592 0.172253 0.441529 -1.046270 0.163063 -0.362473 0.474443 0.483936 0.137705 0.090424 -0.404611 0.036759 0.870196 0.131815 -0.324207
baby -0.849614 -0.016063 0.398818 0.131250 0.488937 0.736301 0.197749 0.069529 0.473313 -1.678515 -0.621647 0.446857 0.298781 -0.862658 -0.816429 0.592134 0.050809 0.434340 0.075362 -0.107945 0.798334 -0.818905 -0.194664 1.622693 -1.619023 0.872857 0.480581 -0.138650 -0.804223 -0.305247 0.896816 -0.679110 0.474715 -0.365067 -1.455159 -0.856323 0.152508 -0.217068 0.333168 0.543920 -0.071339 0.166406 -0.207814 -0.979880 0.755977 -0.555565 0.171938 -0.488815 -0.629034 -0.406734
oh 0.517145 0.480649 -0.034687 -0.294015 1.305362 -0.391549 0.527036 -0.553607 -1.189979 -1.475986 -0.899983 0.371334 -0.554661 -0.855812 -0.770945 1.058644 -0.604712 0.723293 -0.189304 -1.177986 0.111056 -0.217205 -0.073168 0.191117 1.121737 1.171824 0.577257 0.872917 -0.557819 -0.550761 -0.843642 0.156418 -0.324005 0.616563 -1.033456 -0.508177 -0.434437 -0.476685 -0.586608 1.372301 -0.716577 0.691398 0.278266 0.116704 0.951903 -0.407260 0.160880 1.066695 -0.558979 -0.112258
ayy -1.005009 -0.564936 0.332154 -0.788409 0.157599 0.646929 -0.405820 -0.916942 0.458514 -0.780740 -1.130368 0.519260 -0.284753 -0.469183 -0.156448 0.767911 1.088873 0.700449 -0.864481 -1.055077 0.087364 -0.635063 0.103800 0.658785 -0.302777 -0.080290 -0.416972 -0.806326 -0.994337 -0.511446 0.107043 -0.776881 1.055301 -1.313373 0.256838 0.203326 1.184712 0.167760 -0.429770 0.766629 -0.431841 0.864456 0.533425 -1.461297 0.917324 -0.334711 0.386497 -0.171800 -0.663288 -0.227099
girl 0.339643 -0.015780 -0.402318 -0.129904 0.639118 0.008773 0.474082 -0.229697 -0.257794 -1.001786 -1.041815 0.346405 -0.247910 -0.043466 0.113973 0.370320 0.826071 0.215823 0.411138 1.147238 -0.080854 -0.008557 -0.415571 0.315269 -1.693918 1.006411 0.336683 0.128550 -0.372191 0.794799 0.375562 -0.340866 0.165232 -0.207772 -0.771993 -1.254354 -0.775796 -0.693874 -0.438717 1.779936 -0.785362 -0.109187 0.046847 -0.700642 1.037456 0.504081 0.231734 1.933975 -0.803129 -0.912009
ya -0.172070 -0.158668 -0.590813 -0.601079 0.584225 -0.434232 0.706440 -0.586321 -1.416137 0.201415 -0.369326 0.125169 -1.061630 -0.823825 0.489832 -0.434314 0.123834 0.577629 -1.401054 -1.237371 0.244332 0.163654 0.639060 0.151671 0.457150 0.041817 -1.146061 0.456894 -0.691993 0.415255 -0.673367 -0.821865 0.307546 0.000506 -0.900136 -1.397844 -0.019217 0.139654 0.589068 0.222515 -0.425014 0.690396 0.087540 0.525990 0.979712 -0.490834 1.316861 1.500486 -0.717811 -0.556676
time 0.309052 -0.862893 0.034022 -0.107910 1.194725 0.073740 -0.837808 -0.658959 -0.550088 -0.155187 -0.471880 -0.418713 -0.610800 -0.536028 0.176280 0.203916 0.281993 0.487918 -0.037173 -0.801653 0.826694 0.380365 -0.102395 1.541201 -0.390820 -0.058354 0.922625 0.521451 -0.756100 -0.703414 -0.485293 -0.925228 -0.240020 0.061653 -0.172035 -0.366716 -1.485359 0.796877 -0.040238 0.595036 0.092366 0.821898 0.397410 -0.170531 -0.806008 1.599608 -0.600545 0.731536 -0.194203 -0.752042
man -0.052677 -0.601314 -0.503171 -0.635186 0.693454 -0.369551 -0.477512 -0.451286 -0.619466 -0.085131 0.355643 0.461583 0.469590 0.595479 -0.219094 -0.245960 0.026175 0.442265 0.632933 0.019954 0.515089 -0.101251 0.574194 0.769559 -0.066383 0.982799 0.160850 0.786949 -1.050363 -0.870787 -0.567300 -1.462559 0.403615 -0.204875 0.394075 0.003806 -0.516214 -0.099699 0.560121 0.002579 -0.091655 1.685914 0.190516 0.082791 -0.570070 0.192944 0.486237 1.660360 -0.494555 0.437937
come -0.654304 -0.179783 0.888275 -0.254841 0.704220 -0.352395 -1.283870 0.600353 0.171091 -1.271547 -0.582635 0.252688 -0.071232 -0.825899 -0.006221 -0.663409 0.291323 -0.568969 -0.460018 -0.446167 0.646871 -0.637054 0.117596 1.081309 -0.346125 0.398319 -0.104647 1.488530 -0.398431 -0.665559 -0.708673 -1.174404 -0.232793 0.413173 -0.818047 0.138845 -0.448072 -0.690670 0.218498 0.581796 -0.787482 0.087971 0.456055 -0.018111 0.469920 -0.585238 -0.319359 0.193345 -0.305301 0.012138
ooh 0.234047 -0.006841 1.071056 -0.888161 0.598315 0.462783 0.999342 -0.785985 0.911254 -0.712506 -0.049831 -0.024164 1.339400 0.754080 0.521704 0.197436 -0.781625 0.168109 0.693626 -0.603763 0.769572 -0.013760 0.107131 -0.123812 0.945724 -0.435298 -0.452423 -0.898089 -1.220173 -0.711313 0.120044 -0.312862 1.101337 -0.218246 -1.160881 -0.822579 0.052912 1.010849 -0.170990 1.109529 -0.765865 -1.133964 0.402756 1.637686 1.085607 -0.271157 0.777921 0.349533 -0.738791 0.230088
life -1.679803 -0.337952 1.381341 -0.771057 -0.209941 0.620262 -0.233536 -0.517420 -0.094521 0.819291 -1.608031 0.356573 -1.911498 -0.523897 0.490576 -0.029969 0.820272 0.944558 -0.256914 0.436760 0.031345 0.139141 0.047497 0.431806 -0.798671 -0.100978 -0.127155 0.518432 -0.287452 0.805816 -0.631588 -1.358876 1.349978 -0.137419 1.079866 -0.106788 -0.103215 0.471528 -0.088656 0.151611 0.160641 -0.097760 0.706461 -0.277566 0.232326 0.674622 0.697398 0.014794 -0.474589 -0.490937
ass 0.891977 0.157831 -0.153140 -0.295004 0.295724 0.722260 -0.491970 -0.414719 0.256577 0.393262 0.917445 0.283247 -0.766070 -0.086484 -0.361832 -0.121251 -0.708737 0.598696 -0.113426 -0.796983 -0.188874 -0.690389 0.976497 1.076116 -1.527491 -0.730793 -0.071126 1.170469 -1.306897 1.278857 -0.361949 -0.524906 -0.470814 -0.848853 -0.339904 -0.207068 -1.265973 -0.566543 -0.459857 -0.196402 0.544520 -0.022029 -0.434521 0.046856 0.007563 -0.266799 0.915389 1.573590 1.011660 -0.467335
need -0.187377 -0.889330 0.076538 0.673164 0.816141 0.213069 -0.076814 -0.927812 0.187814 -0.767549 -1.066852 -0.347418 -0.614078 -0.492782 0.984048 -0.568573 -1.210719 0.715222 0.340214 0.082378 1.218945 0.448817 0.596707 0.611783 -0.868020 0.261674 -0.479900 0.785245 -0.707042 0.592620 0.520115 -0.198288 -0.099225 0.275408 -0.814353 -0.827114 -0.618938 -0.730076 -0.118915 -0.033521 -0.790407 0.155403 0.515137 -0.677199 0.147311 0.061222 -0.285942 1.931171 -0.022326 -0.603256
want 0.187333 0.707806 0.020338 -0.747352 1.008802 1.129523 0.150639 0.103438 -0.815943 -1.009486 -0.412169 0.275213 -0.674694 -0.339889 -0.447377 0.629616 0.115571 -0.179542 0.135861 -0.602213 0.255013 0.326261 0.170629 1.424141 -0.197452 0.731483 -0.538800 0.539595 -0.426820 0.065955 -0.576783 -0.159127 -0.169841 -1.270252 -0.625861 -1.682500 -0.267640 -0.361741 -0.082943 0.201858 0.131750 1.209178 0.137610 -1.051105 -0.224158 -0.190429 0.153656 1.237194 0.239767 -0.341588
gon -0.181359 0.504470 0.321557 -0.752388 0.206753 0.080379 -0.108766 0.601123 0.150176 0.196480 0.517081 0.748487 -1.132906 -0.104182 -0.100655 -0.340173 0.471807 0.092369 0.482070 -1.368860 -0.003752 0.615328 0.168712 0.129626 -0.252002 0.123464 -0.149077 0.751802 -1.260030 -1.060438 -0.133598 -1.263979 0.352159 -0.148898 -0.690163 -0.539356 -0.774591 0.410913 -0.275512 -0.593376 -0.189908 0.517194 -0.918611 -0.197555 0.887692 0.204436 -0.674308 0.912391 -1.319301 0.409805
right 0.316722 0.171187 0.268175 -0.155649 0.182274 -0.153436 -1.325438 0.052960 0.341717 -0.751852 -0.377790 0.180075 -0.958569 -0.160358 0.732851 0.524538 0.543403 1.132489 -0.068605 -1.596445 0.079487 0.955397 0.249363 -0.301359 -0.113967 0.735128 0.374569 0.515957 -0.690954 0.241567 -0.797796 -0.776260 -0.796403 0.705657 -0.973778 -1.390741 -0.359404 -0.643476 0.598858 0.506435 -0.363333 0.091628 0.811960 1.399973 -0.131951 1.036683 1.189482 0.021454 -0.114997 -0.276256
money -0.085623 0.618934 -0.164183 0.468105 0.481796 0.128918 -0.553107 0.270547 -0.758681 0.078015 -0.486467 -0.271913 -1.278170 0.100434 0.797892 0.057109 -0.555655 0.605667 0.184932 -0.692608 0.524082 -0.103198 0.504981 1.040889 -0.747281 0.290149 0.321854 1.240383 -1.569289 -0.857223 0.125972 -0.340575 -0.894346 0.460415 0.141230 -0.176637 0.717123 -0.123355 -0.585291 0.782257 -1.003888 -0.001913 -0.748856 0.185145 0.816708 -0.795671 0.470126 0.155390 -0.223972 0.177542
yo 0.721902 0.259180 0.750684 -0.457190 1.255375 -0.465946 -0.925918 0.007617 -0.713347 0.428129 0.706903 0.219031 -0.646534 0.388462 -1.270214 -0.311302 -0.898925 0.337409 -0.389628 0.731227 -0.094821 -0.638434 0.132941 0.579285 -1.539679 0.488999 0.139180 0.609915 -0.257033 0.548128 -0.578240 -0.630818 -0.129908 -0.255877 -0.593937 0.010124 -0.549880 0.613868 0.935743 1.141949 -0.270677 0.704959 -0.962502 -0.863377 -0.485927 0.019222 -0.116967 1.070226 0.032000 0.522835
tell -0.881813 -0.015765 -0.694321 -1.345264 0.516326 0.815754 -0.395957 -0.165985 -0.404717 0.515004 -0.430533 -0.210962 -0.570056 0.015686 -0.338782 -0.391632 0.790914 -0.369483 -0.048744 -0.043705 0.523134 0.477019 0.492637 -0.397209 -0.428589 -0.451658 0.605841 0.210820 -1.472529 -0.120400 0.598794 -0.001211 0.242391 0.255551 -0.646336 -0.914281 -0.304545 0.250508 -0.312204 0.786821 -0.794582 1.116449 -0.393985 0.583573 0.731426 1.346573 -0.136828 1.161587 -1.060455 0.084229
hey -0.706631 0.161119 -0.193061 0.042237 0.270978 0.138216 0.641805 -0.735533 -1.583355 0.014768 -0.156486 0.507061 -1.224880 -1.018679 0.549282 0.086540 -0.973948 -0.351292 -0.564218 -1.348420 0.183765 -0.386146 0.496868 0.142369 -0.051444 -0.232032 -0.002879 -0.118645 -1.397588 -0.415340 -0.064898 -0.286248 -0.057665 1.311163 -0.895313 -0.509245 0.534483 -0.305385 0.062738 1.246010 -1.906962 1.348215 -0.421869 -0.123006 0.262613 -0.925647 1.042241 0.374543 -0.783317 -0.677026
said -0.554698 0.833484 0.925641 -0.489795 0.415949 0.886673 0.436657 0.136300 0.078194 -0.179072 -0.615258 0.957814 -0.407824 -0.203253 -0.072834 -0.796339 0.492724 0.557261 0.179232 -0.358654 -0.240146 0.442164 0.229284 0.451244 -1.321787 0.155630 0.474663 0.843690 0.062615 -1.141307 -0.605733 -0.690877 0.822942 -0.908393 0.040146 -0.795155 -1.148637 -0.206488 0.923186 -1.139621 -0.384910 0.381236 0.349259 -0.200127 0.004786 -0.098411 0.325223 0.829187 -0.917145 0.550104
bitches -0.612794 -0.258165 -0.441384 -0.732109 0.257668 0.781101 -0.355101 -0.182425 -0.661426 -0.371766 0.250335 -0.107885 -1.548591 0.275454 -0.724881 0.023039 -0.795151 0.034351 0.647484 -0.187485 1.045200 0.062478 0.889256 1.342128 -0.339476 -0.924217 -0.139890 0.034655 -1.202833 -0.286679 0.394483 0.021566 -0.435432 -1.229529 0.141428 -0.779965 0.106054 0.762546 -0.648656 0.532891 0.009035 0.046315 0.023796 0.343549 0.143872 -0.226609 -1.041086 1.051996 0.634288 -1.191319
lyrics -0.374012 0.590427 1.298579 -1.580224 0.886243 -0.297791 -0.355497 -0.416227 -0.530173 -0.573046 -0.272007 -0.046328 -0.068942 -0.410075 0.351912 -0.462473 -0.438690 0.205518 -0.015703 0.237259 0.306123 -0.799689 0.632731 0.340486 -0.346338 0.388954 0.306447 -0.355174 -0.696978 -0.129472 0.003320 -0.337464 -0.183447 0.619782 -0.658006 -0.944771 0.113166 0.842472 0.780923 0.092568 -1.415578 0.223636 -0.116102 -0.804881 -0.028603 -0.409488 0.328592 0.967811 -0.212882 0.324702
real -0.096335 0.147967 0.114332 0.201376 1.209304 0.935949 -0.001721 -0.789116 -0.553700 0.438888 -0.633008 -0.179600 0.182711 0.373899 0.960212 -0.220010 -0.479939 0.362739 0.855694 -0.420976 0.917539 -0.839403 0.959242 0.788046 -0.422118 -0.047910 0.256179 1.066677 -0.607627 0.018823 0.392702 -1.180531 0.299911 0.315262 -0.353507 -0.452914 -0.532089 1.026450 -1.002378 0.314327 -0.383468 -0.568385 0.125093 0.628097 0.047944 -0.498300 -0.467166 0.851462 -0.154612 -0.302806
day -1.310358 0.036101 -0.392297 -0.881807 -0.840573 0.394452 0.197712 0.007387 -0.943332 -1.249999 -0.123533 -0.687123 -1.309005 -0.011400 -0.126810 0.450669 -0.954159 0.040943 0.925311 -0.043957 0.029048 -0.609471 -0.288117 0.472258 0.180390 -0.446947 0.179530 1.007682 -0.826893 -1.115739 -0.801489 -0.580063 0.271069 0.189250 0.106577 0.703532 -0.357061 -1.318960 0.557414 0.299066 -0.833258 -0.822179 0.470068 1.304547 0.295854 -0.142494 0.341563 -0.008893 0.272306 -0.272721
good -0.574387 -0.334872 -0.080981 0.063738 0.355363 0.565616 -0.067232 -0.685806 -0.800374 0.152071 0.035575 0.947179 -0.573707 0.183790 0.509934 0.514430 -0.023492 0.858479 1.381286 0.609617 -0.090799 -0.816451 0.138789 -0.145513 -1.002980 1.360447 0.370822 0.930430 -0.505046 0.143776 0.746094 -0.534391 -0.523262 -0.157686 -0.479206 -0.797131 0.235056 0.476094 -0.357210 1.229483 -1.015612 -1.154827 0.772145 -0.102762 0.251086 0.391973 0.273256 1.101220 0.291128 -0.497660
think -0.118808 0.100330 0.486262 0.299322 -0.358753 1.095121 -0.668321 -0.647589 0.573116 -1.087843 -0.332984 0.735501 0.842854 -1.020740 0.571724 0.267187 0.237736 0.442846 -0.249153 -0.664636 1.013236 0.278004 0.654796 0.137063 -0.715566 0.188561 -0.753907 -0.362614 -2.121717 -0.126187 -0.205487 -0.246792 -0.604957 -0.794051 -1.091360 0.177634 -0.299932 0.637650 -0.580006 -0.118206 0.049295 -0.187601 0.253346 0.496543 0.533063 -0.387329 0.758325 1.013209 -0.699147 0.254763
legit -0.501998 -0.029221 -0.310712 0.981981 0.070991 -0.228313 0.846652 -0.535898 -1.174040 0.533688 -0.396425 0.120158 -0.364148 -0.855974 0.014400 -0.023532 -0.422122 -1.014423 -1.069873 -0.487076 0.203787 -0.012057 0.140068 -0.830469 -0.053674 -0.410942 0.264425 -1.372292 -0.393312 -0.229920 0.510132 0.341259 0.176369 1.143128 -1.011710 0.117491 0.475418 0.319557 -0.051536 1.062956 -1.575376 1.510161 -1.374765 -0.210798 -0.261787 -1.091688 0.346958 -0.791020 -0.788668 0.181359
huh 0.047439 0.810767 0.300179 -0.800029 -0.246100 0.786470 -0.394095 0.627387 -0.160767 -0.515866 0.495332 1.183345 -0.972178 0.095272 -0.283562 -0.645097 0.208100 0.672060 -0.091392 -1.330531 -0.343258 -0.034127 -0.025186 -0.179878 -0.844204 -0.683556 0.527941 0.344583 -0.132143 -1.344316 -0.582359 -0.235535 -0.410820 -0.614962 -0.588522 -0.670331 -0.922752 -0.526053 1.180439 -1.742932 -0.283926 -0.530517 -0.403435 0.691404 0.672431 -0.228584 -0.125316 0.636248 -0.765381 0.100178
wake -1.150957 -0.288126 1.610510 -0.285889 0.630945 -1.115260 -1.522879 0.765952 0.509611 -0.874588 -0.732941 -0.008896 0.399734 -0.305782 0.376583 -1.037270 0.250074 -1.796073 -0.751736 -0.264197 0.576032 -0.692489 -0.010664 0.162090 0.508379 0.727418 -0.014323 1.366103 0.283235 -0.425106 -0.489379 -0.923783 0.341760 1.040015 -0.842550 1.040540 0.541375 -0.304154 -0.587942 -0.001268 -0.769906 -0.156451 0.146775 0.508374 -0.228115 -0.946629 -0.647470 -0.609011 -0.256326 0.655517
ta -0.192453 -0.349525 -0.223433 -1.292607 0.760040 -0.867727 -0.939468 0.139389 -0.053804 -0.227516 -0.539884 0.673854 -0.348956 0.518469 0.299660 0.682946 0.037652 0.493765 0.556540 -0.487069 0.124167 -0.762348 1.018172 1.020756 -0.207733 0.584060 -0.761480 1.329761 -0.039070 0.138403 -0.456482 -0.815987 0.846640 0.734129 0.098492 1.259335 0.049596 -0.557550 0.441667 -0.831731 -0.109183 0.176200 -0.027287 0.430423 -0.000923 0.248714 -1.181912 0.963621 -0.378177 -0.366487
feel 0.316728 0.582148 -0.466198 -0.007957 0.370930 -0.744634 0.140108 0.041806 -0.264391 -0.314459 -1.002726 0.400229 -1.015655 -0.056809 0.252723 -0.239058 0.123091 0.023322 0.508112 -0.605759 -0.375964 -0.390621 0.817490 0.387712 0.393106 0.285109 -0.450309 0.621390 -0.654001 -0.494446 0.008360 -0.676487 -0.501232 -0.084097 0.674915 -0.301631 0.337248 -0.097384 -0.391446 1.013083 -0.165503 0.527117 0.532788 -0.642329 0.662501 -0.715732 -0.241012 0.824812 -1.752345 0.483356
gettin 0.424702 0.449687 0.442075 0.086558 1.110121 0.655339 -0.886930 -0.501282 -0.034925 -0.624216 0.317218 -0.154844 -0.277717 -0.783723 0.086612 0.202119 1.449924 1.455914 0.268703 -0.895961 -0.009269 -0.632568 0.035828 0.953865 0.214832 0.832187 0.891043 1.467737 -1.238515 -0.247484 0.766287 0.550016 -0.324063 -0.057768 0.494008 -0.337021 0.475638 -0.458924 0.206405 -0.082219 -0.808016 -0.577163 0.049135 -0.656294 0.947698 -0.259218 0.566075 -0.269379 0.464582 -0.275888
hit 0.502481 0.713169 -0.248887 -0.785489 0.113068 1.021779 0.239325 0.862843 1.406603 -0.273059 0.112386 -0.746978 -0.586061 0.611443 0.535642 -0.033298 0.734652 -0.385150 0.362170 -1.450926 -0.151085 -0.129583 0.114851 1.471559 -0.109696 -0.501168 -0.363131 0.872583 -0.598047 0.801970 -0.302656 -1.058157 0.006472 0.499009 -0.180928 -0.563327 -0.100142 0.384319 0.605857 0.661917 -0.680715 -0.248386 -0.410203 -0.394682 -0.344730 0.059600 -0.494822 0.253950 -0.275316 -0.556526
bad -0.626961 -0.195248 0.801452 -0.324552 0.157744 0.438304 0.396005 1.155854 -0.719129 0.438078 0.907614 0.337255 -1.043296 -0.632377 -0.086681 0.775440 -0.581260 -0.187148 0.491419 0.312282 0.208432 0.917446 0.220417 1.020342 -0.353882 0.210467 0.114380 0.137002 -0.610107 -0.299706 0.284085 0.125723 -1.204679 -0.978704 -0.358926 -0.898102 0.172477 1.041716 -0.621519 0.500367 -0.731754 0.554122 1.241131 0.292414 -0.527156 -1.009443 -0.795899 1.829356 0.936428 0.403100
na -0.082343 0.342148 0.121590 -0.360094 0.225419 -0.330678 0.547204 0.320341 0.025325 0.135842 0.127053 0.815254 -1.411772 0.106300 -0.313552 -0.453199 0.602473 0.260778 0.678813 -1.359602 -0.413460 0.848844 0.119629 -0.696564 0.062149 0.439797 -0.005268 0.355140 -0.702836 -1.398690 0.071021 -1.055262 0.504618 -0.319807 -0.612940 -0.953438 -0.869903 0.354921 -0.159169 -0.623802 0.061440 0.228301 -0.859650 -0.386632 0.938525 0.357282 -0.606952 0.932254 -1.841354 0.725386
fuckin 0.350875 -0.526553 -0.171141 -0.302962 0.856399 0.160442 -0.826725 -0.665899 0.465480 -0.527487 -0.300879 -0.460017 -0.165506 0.625646 0.629421 -0.516643 -1.466519 1.211161 0.012079 -0.221052 0.393226 1.158415 -0.701354 0.304092 0.043310 -0.490719 -0.683521 0.630144 -1.029523 -0.364915 0.238180 -0.901492 0.304740 -0.019176 0.194824 -0.197834 1.438940 -0.366948 0.573946 0.443277 0.102512 0.295476 0.842960 -0.755495 -0.209988 -0.231541 -0.012817 0.798869 -0.291310 -0.208210
run -0.400961 -0.597409 0.234854 -1.295561 -0.361948 0.120915 -0.700536 0.256448 0.170176 -0.048288 -0.181054 -1.015569 -0.324976 -0.344359 -0.957253 -1.084873 -0.357923 0.181005 0.041536 0.344063 1.089473 -1.177133 1.113963 -0.025986 -0.664793 -0.534942 -0.210423 1.596864 0.223812 0.161297 -0.441434 -0.358189 -0.490568 0.771835 -0.894835 -0.856286 -0.512068 0.668208 -0.948207 -0.503946 0.917175 -0.053045 -0.350902 -0.021884 0.988619 0.609505 0.649273 0.463877 -0.142008 0.933511
hoes -0.157309 0.109428 0.603520 -0.461653 0.208829 1.074139 -1.192170 -0.223564 -0.530769 -1.187307 0.670095 0.021594 -0.386476 1.011861 0.722026 0.392546 -0.610035 0.299830 0.475733 -1.693417 0.103974 -0.698209 -0.170956 0.775574 -0.643096 0.523012 -0.623748 0.100851 -0.860838 -0.249220 -0.636437 0.422514 -0.804168 -0.500751 0.059299 -0.504445 -0.194033 -0.138674 1.055388 0.414904 0.036382 -0.674653 -1.105967 -0.433764 -0.001048 0.515091 0.381772 0.115343 0.011304 0.102116
big -0.275885 0.374499 -0.100503 0.180367 0.631875 -0.026008 -0.692462 -0.061406 0.646030 -0.647385 0.153857 0.023300 -0.289278 -0.284819 -0.451409 -1.134525 0.784736 0.138639 -0.909977 0.259213 0.243484 -0.709125 0.477178 0.662451 -1.078191 0.327669 -0.517949 0.264280 -1.229173 0.660399 -0.387055 0.956536 0.142718 -0.616728 1.332349 -0.456835 0.675337 0.412651 -0.335775 0.740466 -0.288771 0.297411 0.227478 0.004482 -0.158534 -0.656056 -0.147641 0.858929 -0.284625 -1.046132
head -0.574113 0.124667 0.066875 0.039002 0.506614 -0.410144 0.227835 -0.041698 -0.243388 -0.336126 0.053988 0.476083 0.372838 0.313530 0.482649 0.048142 0.189618 0.302763 0.218796 -0.910845 0.597085 0.954680 0.170629 0.362730 0.983399 0.081520 -1.269738 0.524474 -0.406003 0.072979 -0.252592 -1.151517 -0.517912 -0.643494 -1.565814 -0.504924 0.371610 1.039153 0.152098 0.019100 0.277234 0.075895 0.104391 0.187631 1.677822 0.379484 0.538909 1.196820 0.001216 0.342683
wo -0.738029 -0.518098 -0.241630 0.058095 -0.154445 0.552760 0.118717 0.644708 -0.052918 -0.845569 -0.335812 0.585859 0.006470 -0.372719 -0.643609 0.346746 0.644491 -0.906008 -0.711035 -1.074197 0.172710 -0.681319 0.033911 1.385307 -1.001877 0.371998 -0.272420 0.594036 -0.355076 -0.463575 0.183846 -1.216082 -0.128951 -1.146900 -0.943985 0.385289 -0.048302 -0.688332 -0.502956 0.791140 0.209187 0.326364 0.016991 -0.775014 0.556222 0.348342 -0.351712 -0.148459 0.080151 -0.216829
night -0.434357 -0.697605 0.653854 -1.416300 0.623565 0.333694 0.293446 -0.598817 1.112681 -1.431454 -0.309205 -0.218641 -0.502778 1.216261 0.587879 -0.082271 -0.734848 0.498471 0.541215 -0.400446 0.869239 -0.073153 0.406375 0.551127 0.317287 0.363511 -0.384781 -0.430430 -0.339781 -0.850038 0.009950 1.226814 0.538904 -0.173029 -0.908571 -0.832132 0.135430 -0.314733 0.843009 -0.217151 -1.142421 -0.572753 0.656105 1.647904 0.327471 0.120807 -0.114874 0.362845 -0.374500 -0.800149
high -0.879120 0.551975 1.166805 0.320966 0.344500 -0.235680 -0.602110 -0.033606 0.458339 0.153752 0.368417 0.654037 -1.656001 -0.997220 0.222185 -0.402253 0.022429 0.515819 0.556077 -1.122586 -0.342323 0.124686 -0.075686 1.242851 0.660110 0.151875 0.354781 0.674741 -0.816178 -0.567034 -0.193590 0.805941 -0.630660 0.253185 -0.064880 -0.082993 0.598557 0.509139 -0.571845 0.132442 -0.301986 0.097936 -0.383468 -1.282190 1.049151 -0.175402 -1.012301 0.089392 -0.019791 -1.398937
little 0.910773 0.381528 -0.540359 -1.127886 0.509074 0.315100 -0.484486 0.244870 0.020520 -1.028984 0.490289 0.313356 0.764007 -0.058691 -0.110821 -0.321005 -0.317571 0.964928 -0.170275 0.375361 -0.329785 0.516199 -0.940120 -0.171203 -0.402462 -0.215572 -0.870301 1.005618 -1.618223 0.441434 -0.609464 0.068327 0.459166 0.303876 -0.037370 -0.615447 0.585645 0.360586 0.431037 0.494687 -0.149487 0.160385 0.497957 0.243302 -0.567758 -0.436937 1.341686 0.848094 -0.922250 0.023290
turn 0.133551 -0.011462 0.020237 -0.318523 0.342531 -0.235025 0.350742 -0.493690 0.098424 -0.044361 -0.586333 0.661969 -1.056161 0.759697 -0.233800 0.129324 0.247892 0.402754 0.974714 -0.839741 -0.935913 -0.330886 0.348301 -1.114758 -0.414504 0.318559 0.205831 0.170666 -0.122807 -0.475606 0.019205 -1.382057 -0.063830 -0.019732 -0.319417 -0.834004 0.104780 -0.099847 -0.960952 1.252172 -0.163652 -0.789233 0.347095 -0.394500 1.290746 0.722104 0.562064 0.660637 -1.031177 -0.355450
better -0.664722 -0.209725 0.401645 -1.262992 0.018286 -0.299005 -0.261249 0.287942 -0.263647 0.140526 0.176559 -0.452587 -0.160414 -0.216686 -1.053059 -0.524564 -0.584298 -0.318696 -0.573489 0.358715 0.307959 -0.721910 0.873550 0.423534 -0.367880 -0.291354 -0.134669 1.546409 0.103065 0.991884 -0.471533 -0.754472 -0.328715 1.041143 -0.869625 -0.625657 -0.131996 0.803627 0.059880 0.195812 0.805923 -0.107446 -0.435052 -0.624606 0.716667 0.840770 0.622429 0.792662 -0.289206 0.424032
look 0.083831 0.336080 0.355286 0.012623 0.688632 0.430419 -0.576703 -0.596108 -0.906597 -0.243516 0.077368 0.358667 0.092311 -0.244381 0.722446 0.213358 0.555155 0.036981 0.462175 0.042269 -0.113136 -0.296181 0.628699 0.592378 0.339735 -0.167402 1.231834 0.313844 -0.261106 -0.144697 0.227003 -0.625121 -1.259513 0.007499 -0.069484 -0.042575 -0.455449 0.244699 0.623615 0.271502 -0.853840 -0.317436 0.782201 -0.093238 -0.093165 -0.301746 -0.013971 0.740394 -0.184376 -0.149458
live -1.186957 -0.110831 0.104317 -0.373477 -0.119852 0.100958 0.296000 -0.363226 -0.843607 -0.249428 -1.633559 -1.059700 -1.880602 -0.797050 0.475034 0.846329 0.071382 0.678121 0.118470 0.289470 -0.204154 0.484871 -0.102287 0.381728 -0.205761 -0.053355 -0.141165 0.776462 -0.519696 -0.186330 -1.623932 -0.104559 0.719174 0.725064 0.304523 0.826960 -0.352668 0.471693 0.241435 -0.165637 -0.795243 0.425341 -0.224926 0.139964 0.322365 -0.005998 0.558042 0.358399 -0.248749 0.013141
play 0.344335 0.063122 0.418057 0.732790 0.131425 -0.150004 -0.520275 -0.344770 0.064243 -0.056966 -1.296339 -0.311197 -0.524633 -0.291897 0.730276 0.342050 -0.060992 0.816951 0.576373 0.578864 -0.404715 0.867473 0.107650 0.609231 -1.043982 -0.274897 0.025197 0.567848 -0.784620 -0.959859 -1.371357 -0.358806 0.389180 0.645334 0.257873 1.380073 -0.626336 0.893792 0.764000 -0.457854 -0.537239 1.068912 -0.178247 -0.341368 -0.007398 -0.136625 0.492065 0.696409 -0.736028 0.401659
b 0.557708 0.264430 0.161264 -0.438289 0.125328 0.295527 -0.606767 -0.349685 -0.716042 -0.790046 0.814095 0.172656 1.107393 0.178939 -0.553122 -0.747807 -0.585705 0.226492 0.656782 0.911831 -0.684047 0.011031 -0.645347 -0.404101 -0.572068 -2.124361 -1.288409 0.020416 0.216306 0.188298 -0.294242 -0.389626 0.728816 -0.382818 -0.227966 -0.290494 1.810324 -0.810506 0.474032 -0.154125 -0.313612 -0.044264 0.476649 -0.989800 -0.164924 -0.741054 1.499084 0.290590 -0.055984 -0.904955
hot 0.540500 0.203751 0.241842 -1.020403 1.510769 0.609031 -0.275151 -0.598196 -0.643337 -0.996754 0.201193 -0.680347 -0.098462 -0.680037 -1.097200 0.773552 1.113142 1.738704 0.032343 -0.081075 -0.005863 -1.412620 -0.402228 0.213122 0.375305 0.514514 0.546118 0.753724 -0.657018 -0.251189 0.369668 0.993826 0.676407 -0.266238 0.424701 -0.853024 0.035555 0.000640 0.523501 0.292881 -0.819041 0.157442 0.377363 -0.932291 0.390106 -0.325805 0.593939 0.092523 -0.110657 -0.036175
new 0.402197 0.911483 -0.585250 -0.841148 -0.568056 -0.572310 -0.557837 0.120376 0.872642 -0.215555 -0.569345 0.366289 -0.038155 -0.909925 -0.749293 -1.021106 0.367472 0.280197 -0.493426 -0.084847 0.802922 -0.898671 0.431671 0.097112 -0.335681 -0.514113 -0.080139 0.391276 -0.440646 0.618828 -0.094171 -0.148896 -0.544846 0.511686 0.767240 -0.442215 0.104148 0.599234 0.429965 1.066988 -0.867336 0.357744 1.294305 0.449122 -0.131635 -0.812132 0.121129 0.219307 -0.952797 -0.356172
o 1.065500 0.359833 -0.655267 0.051862 -0.463994 -0.587093 0.178846 0.927364 -0.256250 0.243745 -0.629343 0.176346 0.947190 -0.834051 0.302754 -0.636424 1.168754 -0.356489 -0.507795 0.613031 1.116603 0.687951 -0.440375 0.206361 -0.492306 -0.078892 0.745398 0.234036 0.849179 0.869274 0.201459 0.803920 -0.232321 0.210692 0.289536 -0.295655 -0.170201 -0.820649 0.406463 1.240295 -1.573606 0.383013 0.456722 -0.268270 -0.747193 0.409272 -0.357356 1.114700 -0.592250 0.031391
chick 0.002360 -0.411462 0.733228 -0.458795 -0.292127 -0.085150 0.337882 0.922696 -0.347565 1.061383 0.446194 -0.157505 0.193546 -0.589609 0.510988 0.541470 -0.085218 -0.601216 0.254192 1.411597 -0.106014 1.253500 -0.488769 0.379129 0.258449 0.523118 0.806567 -0.284650 0.207257 0.195257 0.349192 0.769724 -0.937379 -0.364667 -0.241166 0.002676 0.475929 0.593620 -0.349191 1.326515 -1.111554 0.433622 1.385676 0.319610 -0.839983 -0.327204 -0.504992 1.648860 1.234566 0.517878
til -0.429597 -0.769447 0.296438 -0.874004 -0.244855 0.158837 0.367696 -0.353713 -0.277135 -0.053903 0.338193 0.718107 -0.744460 0.216521 -0.334821 0.162955 -0.246135 -0.359810 1.586328 0.152676 -0.550778 -0.972151 0.232092 -0.227482 -0.364151 -0.827326 0.072150 0.698818 -0.370625 -0.470066 0.136014 -0.880533 1.065750 -0.281163 0.146822 -0.555399 0.457969 -0.937292 -0.626834 1.307722 -0.766050 -0.684105 0.952180 -0.523944 0.636687 0.717410 0.627342 0.434841 -0.112236 -1.252200
crazy 0.246020 -0.068526 0.556605 -0.489067 -0.548019 0.420743 -0.539056 -0.249755 0.868622 -0.835677 -0.410245 0.656560 0.304128 -0.407702 0.769210 1.015343 -0.804635 0.125234 -0.428593 -0.004341 0.164642 0.568832 0.864040 0.665065 -0.890676 0.009799 -0.235051 -1.451989 -1.496816 -0.208319 -0.371782 -0.097162 -0.307994 -1.406192 -1.320987 0.369834 -0.458897 -0.575401 0.126411 0.664279 0.184332 -0.568474 0.044676 0.630695 0.875755 -0.428497 0.917060 0.843330 0.050838 0.034836
dem -0.356494 0.082965 -0.443398 -0.218745 -0.160182 -0.274031 -0.438037 -0.678127 0.219485 0.265236 -0.135926 -0.050411 0.907722 0.752039 0.229023 0.338420 -0.202679 -0.605446 -0.761250 1.044217 -0.563043 -0.216366 0.318392 -0.043494 0.791111 0.277504 0.798492 -1.042511 -0.784485 0.275971 0.279786 0.610300 -0.165811 0.152312 0.484660 0.759537 -0.433674 -0.564729 -0.012288 0.889600 0.247343 0.659004 -0.070806 0.940005 0.452708 0.317491 0.477872 0.510523 0.103460 0.305681
ah 0.321750 0.326190 -0.578906 -1.568581 0.473880 0.228024 0.471678 0.406005 0.006577 -1.346142 0.209939 0.393867 0.657251 -0.086482 -0.842402 -0.083131 -0.124450 0.783929 -0.216125 0.381685 -0.063015 -0.153024 -1.632803 -0.467751 -0.027905 0.370141 -0.464185 0.588468 -1.174782 0.376478 -0.134862 0.659534 1.165407 0.445000 -0.641470 -0.836502 0.078755 0.282865 0.677786 0.501804 -0.416439 -0.169392 -0.155129 0.208106 0.558678 0.000820 1.055483 0.222215 -1.198966 0.104245
pussy 0.218049 0.293710 0.453641 0.407910 -0.064481 -0.153521 -0.618426 -0.514401 -0.909229 0.303300 0.523488 0.362304 0.590273 0.306790 -0.224880 -0.229825 0.454771 -0.033781 1.932500 0.112190 0.068204 0.022746 -0.559014 0.416029 0.012572 -1.365684 -1.207335 0.378738 -0.528069 -0.587623 -0.417393 -0.852123 -0.017016 -1.319210 -0.598144 0.109601 1.018907 0.448861 0.125457 0.344219 -0.227136 0.161931 -0.083824 -0.846314 0.934232 0.432250 1.069102 0.448932 0.227312 -0.507900
cause -1.094539 0.086140 -0.672241 -0.290335 0.242906 0.713167 -0.087044 0.303221 -0.806388 -0.035055 -0.275804 0.021337 -0.208077 -0.214855 -0.229352 0.454486 0.837086 0.448109 -0.089958 0.184796 0.103528 0.236977 0.352161 0.531526 -0.245625 -0.013273 -0.614135 1.106312 -0.133221 0.320789 -0.285056 -0.944780 0.804036 -0.314734 0.597580 -0.216776 -0.484650 -0.512099 -0.307650 -0.186596 0.215012 0.524046 -0.180527 -0.115582 0.691100 0.053067 0.005852 0.532524 -0.191838 -0.405700
ho 0.541982 0.142309 0.617042 -0.502719 0.196665 0.067890 -0.011392 0.078990 -0.636821 -0.213579 0.928350 -0.328460 -0.540843 0.190493 0.149386 0.911152 -0.959445 -0.805780 0.116865 -0.931063 0.136440 0.566174 -0.084616 1.196807 0.039863 -0.084617 -0.374985 0.055708 -0.611798 -0.085566 -0.259547 -0.306090 -0.077591 -0.078472 0.742302 -1.296394 -0.280895 -0.600274 0.188793 0.283514 -0.191441 0.581372 0.143548 0.167365 -1.592785 0.914219 -0.023808 0.460160 0.288971 0.096196
la 0.512760 0.062793 -0.318467 -0.206812 -0.428547 -0.238850 -0.020659 1.039998 -0.509005 0.004439 -0.428782 -0.886745 -0.448574 -0.469457 -0.031555 0.751479 -0.921696 -0.428941 0.220818 0.648296 0.644999 -0.167476 -0.924218 0.119050 -0.565055 0.444342 0.390517 0.939824 0.457239 0.587205 0.234487 -0.890899 -0.255919 1.544565 -0.587847 0.476216 -0.315791 -0.296250 0.145899 1.880147 -0.420242 0.489003 -0.922948 -0.347458 0.317200 0.371752 0.424369 -1.230569 0.057739 1.245659
tryna 0.947510 0.577823 -0.627648 -0.128859 -0.565396 -0.102053 -0.280798 0.836978 0.363018 -0.068889 -1.046764 0.232719 0.633947 -0.047150 0.975255 -0.558231 0.336939 -0.215460 -0.038477 0.471594 0.498404 0.060158 0.281952 1.063378 -0.444836 0.014747 -0.049547 -0.035722 -0.398760 0.287960 -0.050507 -0.207483 -0.597853 0.196214 -0.346707 0.103699 -0.615290 -0.889624 -0.312018 0.800709 -0.954810 0.490065 0.665187 -0.672302 0.413021 -0.150940 -0.120636 1.058393 -0.499022 -0.728516
watch -0.053600 -0.394825 -0.185977 -0.992628 0.226546 -0.375455 0.135994 0.577905 1.273661 -0.659040 -0.600892 -0.619232 0.037526 0.769515 0.066310 0.429809 -0.869019 0.462879 -0.467420 -0.567498 -0.380776 -1.003531 0.467769 1.042867 0.178201 -1.305884 0.357452 -0.380114 -0.855080 0.258250 -0.980619 -0.958908 0.216722 0.480028 -0.096051 0.443138 -1.057150 0.046439 -0.093481 0.518530 -0.004707 -0.289055 0.468349 -0.368306 0.737503 0.729824 -0.006681 0.200432 -0.118944 0.423965
quit -0.398430 0.005678 -0.421273 1.044954 0.260953 -0.167285 0.548113 -0.807315 -1.052619 0.436009 -0.516961 0.271116 -0.388207 -0.714079 0.399127 -0.284449 -0.519695 -1.052717 -0.846153 -0.635341 0.596249 -0.096874 0.589338 -0.584872 -0.147988 -0.426419 0.238647 -0.536322 -0.361562 0.552238 1.034114 -0.029476 0.161761 1.288679 -0.722434 0.094241 0.277243 -0.426428 -0.220844 0.910426 -1.412387 1.241741 -1.267761 -0.070886 -0.312288 -0.757850 0.196356 -0.450108 -0.667596 0.088622
shake 1.078304 0.682468 0.029005 0.068141 0.140079 -0.236720 -0.267516 -0.792654 -1.239207 -0.062149 1.151380 0.042283 0.381748 -0.741954 -0.781824 -0.008289 -0.468715 0.663642 -0.623631 -0.860608 -0.667437 -0.659638 0.566904 -0.088407 0.447492 -0.910200 -0.010684 0.355516 -0.194732 1.795457 0.038152 -0.735373 -0.554387 0.895292 -0.113032 -0.254614 -0.738636 -0.163105 -0.414085 0.179088 0.168744 -0.077228 -0.469896 -0.819305 -0.223281 -1.256636 0.586723 0.682639 0.107517 0.330346
game -0.159928 0.431532 0.302726 -0.168429 -0.295521 0.976750 -0.102979 0.022116 -0.100114 -0.421509 -0.131232 0.376674 -0.588591 -0.386792 0.381157 -0.009533 0.258664 0.202613 0.931051 0.029191 0.457323 -0.127969 0.749803 0.661006 -0.564244 -0.223875 0.214997 0.705270 -0.698649 -0.230039 0.050410 -0.103584 0.267878 -0.402144 0.433617 -0.186667 -0.649055 -0.051201 0.363542 -0.519836 0.127559 -0.594018 0.172308 0.403231 -0.031743 0.408368 -0.267927 0.101210 -0.540759 -0.113349
long 0.142857 -0.104115 -0.219595 -0.869383 0.657659 0.182115 -0.186353 -0.151056 -0.254022 -0.473552 -0.328525 -0.292951 -1.456453 -0.226165 -1.209400 -0.232085 -0.283036 0.920975 0.859085 -0.088591 0.516478 0.084436 -0.101113 0.145832 0.641444 -0.066123 1.100276 0.216256 -0.636198 -0.641670 0.032466 0.153989 0.429500 -0.380965 0.038968 -0.674521 -0.883189 0.624603 -0.158452 0.119722 0.228573 -0.222617 -0.169657 -0.597029 0.172903 0.442463 -1.686073 0.528729 -0.400549 -0.609050
god 0.283503 0.842378 0.325570 -0.679746 0.113589 0.266205 0.136683 0.021986 -0.335258 -0.457565 -1.505674 0.767877 0.523261 -0.706772 0.441062 0.428510 0.037074 -0.308035 0.925933 -0.120231 0.679205 -0.614574 0.888936 -0.162774 0.804791 1.312151 -0.706714 -0.325731 -0.174079 0.479107 -0.091746 -0.124530 0.591088 0.087416 0.699814 -0.777997 -0.589996 -0.512207 -0.715349 -0.401336 0.019185 0.788040 0.770332 -1.131450 -0.974167 0.741261 -0.041304 -0.123380 -0.348636 -0.215913
mind -0.097984 -0.254707 0.648040 0.042205 0.574041 -0.719156 0.231478 -0.740893 -0.503199 -0.717201 -0.630023 -0.276240 -0.573239 0.254594 -0.053066 -0.197228 -1.190635 -0.311865 0.221960 -0.528653 0.219413 0.578554 0.160488 0.991129 0.004565 0.181081 -0.746878 0.631285 -0.404915 -0.815532 -0.154441 -0.873431 0.197347 -0.077201 0.891369 0.524026 0.330536 -0.718469 0.582332 0.311090 -0.046079 0.064799 0.962313 0.007025 -0.873681 -0.036143 -0.088877 0.294450 -0.057975 0.224517
stop 0.832309 0.085994 -0.141748 0.553717 -0.247594 -0.059062 -0.524375 -0.247976 -0.411734 0.234307 -0.391931 0.145243 0.020991 -0.694323 0.598686 0.109264 0.493616 0.945651 -0.376172 -0.705877 0.845934 0.445944 -0.044500 0.545035 -0.695343 0.046020 0.129681 0.727004 -0.711770 0.118820 -0.166033 -0.686879 0.037473 -0.470085 0.330416 -0.032351 -0.732039 -0.109837 0.294276 0.663482 0.158675 -0.420274 -0.186676 0.300776 0.060347 0.536724 0.491272 0.597688 -0.233191 -0.180735
woo 0.367852 0.235783 0.459076 -0.522665 0.044785 0.311700 -0.513515 1.182850 0.875536 0.256857 -0.362645 0.506362 0.001629 0.555448 0.537606 0.801435 -0.101629 -0.041342 -0.163488 -0.135452 -0.352060 0.115207 0.448538 0.738815 -1.176920 -0.177741 0.132933 -1.164697 -0.524075 -0.202097 -0.724166 0.240904 -0.525865 0.023570 0.099572 1.062837 0.318874 -0.042390 0.130141 -0.462424 0.091860 0.179237 0.557281 0.441204 0.166295 -0.102784 0.121161 0.580440 -0.590904 -0.693811
boy 0.018707 0.512448 -0.392592 0.165668 -0.603269 0.153639 -0.356983 0.938534 -0.264656 -0.395730 0.408366 -0.156796 -0.392479 -0.805952 0.598238 -0.126988 -0.547371 0.226403 -0.025455 0.875266 0.402412 0.462232 -0.035374 0.007096 -1.220957 0.491067 -0.593849 0.315920 -1.196160 -0.359494 -0.578080 0.310100 -1.175768 -0.090937 -0.747110 -1.127405 -0.680042 0.177831 -0.268914 0.061145 -0.288808 -0.130335 0.837757 1.429860 -0.118310 -0.405858 0.089168 1.208575 -0.543973 0.517945
everybody -0.034014 0.482858 0.122825 -0.086726 -0.032597 -0.419515 -0.822303 0.096748 0.591761 0.441494 0.442266 0.731096 -0.635070 -0.320037 0.191237 -1.340020 0.476458 1.117856 0.519792 -0.531557 0.651948 0.694275 -0.490649 0.422005 1.060781 -0.170218 -0.134931 0.875035 -0.796917 -0.242849 0.357320 0.257331 0.067766 -0.639698 -0.614961 -0.458862 -0.253225 0.596761 0.328303 0.111692 0.262850 0.058099 -0.174545 -1.237718 1.291135 1.106640 -1.022820 0.617522 -0.309358 -0.453066
feelin -0.648071 -0.153036 -0.438496 0.292791 -0.244611 0.045211 -0.375773 -0.761715 -0.049304 -0.725852 1.257855 -0.066532 0.462939 -1.087174 -0.108803 -0.291129 -0.325525 1.301709 0.183310 0.352375 0.142269 -1.672689 -0.269915 -0.113648 -1.112244 0.373945 0.277425 0.889971 -0.205257 -0.106618 0.526169 0.642465 -0.658365 0.278957 -0.211268 -0.576913 0.158849 -0.345719 0.823741 -0.309865 -0.468383 0.253956 1.097917 0.040389 -0.612152 -0.706202 0.621359 0.412758 0.286782 0.914692
lil -0.205944 -0.516178 0.772706 -0.546702 0.464903 0.270578 -0.109916 1.340528 0.259000 0.746202 0.755608 0.734137 -0.138449 0.003249 0.562679 0.621316 -0.380011 -0.643182 -0.603462 -0.354949 -0.978184 0.079022 0.577598 0.776912 -0.624165 -0.253443 1.053174 -1.071928 -0.036169 -0.614067 -0.055182 -0.856198 -0.997896 -0.275721 -0.264379 0.554728 -0.109416 -0.436388 0.392770 -0.549699 0.230318 0.085269 0.180822 -0.095698 0.787311 -0.450739 0.246821 1.152929 0.038535 -0.405789
mama -0.446556 0.385809 0.698611 -0.279183 0.155957 0.282841 0.585707 0.826058 -0.430128 -0.031080 0.567935 0.797169 -0.772126 -0.602964 -0.073551 0.104682 0.255477 -0.047514 -0.859495 -0.754722 -0.480120 0.938554 -0.086032 -0.055251 -0.517766 -0.166417 0.934423 -0.513205 0.112798 -1.067889 0.003477 -0.369886 -0.099953 -0.330126 -0.597546 -0.767248 -0.877102 -0.237467 0.808186 -1.227692 -0.635146 0.559621 -0.267992 0.099605 0.264141 -0.633348 -0.253105 0.960679 -0.862231 0.468338
yi 0.005877 -0.505884 -0.425914 -0.576119 0.302679 0.150137 -0.039915 0.009928 -0.049766 -0.474952 -0.420779 -0.460804 -0.351114 -0.374768 0.255607 -0.026172 0.541941 0.794267 -0.090145 0.048286 0.346252 0.522319 -0.382180 -0.894566 0.141572 0.317449 -0.737148 0.429433 0.613168 0.647627 -0.649536 0.566779 0.517793 0.660181 -0.906421 -0.832228 0.086467 0.099876 0.786238 -0.049613 0.306673 0.132393 0.220012 0.291676 0.191969 1.190294 0.678110 -0.208962 -0.443547 -0.070394
damn -0.082097 0.486665 -0.337462 -0.451907 0.123023 0.156520 -0.058185 0.263718 0.128025 -0.361040 0.273499 0.464181 0.293020 0.413108 0.801229 0.179148 0.378009 -0.181191 0.588719 0.040311 -0.170599 0.640690 0.465102 0.547464 -0.428107 0.423934 -0.103916 0.209358 -0.672733 -0.176468 -0.308411 -0.137364 0.062892 0.020418 0.621669 -0.383756 -0.537041 -0.258440 0.746911 0.015189 -0.362566 0.397376 0.262515 0.547263 -0.683245 0.476255 0.534946 0.837364 -0.480319 -0.111509
home -1.314235 0.252522 0.384151 -0.295072 0.582954 0.102667 0.032750 0.131520 -0.318608 -0.066173 0.789737 0.860433 0.891550 -0.876814 0.874158 0.635740 0.643706 0.637861 0.042156 0.293451 0.064855 -0.249808 0.408093 0.079873 0.020408 1.755953 -0.687257 0.357938 0.361040 0.109856 0.722012 -0.172102 0.555460 0.160625 -1.222284 -0.713309 -0.826362 -0.481365 0.055357 0.440137 -0.439420 0.318003 -0.020017 0.276938 0.044095 0.477649 -0.742658 0.469809 0.688432 -0.412821
check 0.639574 0.577373 1.008299 0.131746 0.671251 -0.179606 -0.340749 -0.696570 -0.906894 -1.273204 -0.368148 -0.207258 -0.751327 -0.292786 -0.406405 0.637442 0.268283 1.037954 -0.915044 0.806867 -0.445148 -0.095648 0.673577 0.219855 -2.073429 0.012243 0.270378 -0.939354 -0.559741 -0.845351 0.295272 0.475065 -0.176284 0.214625 1.237702 -0.518982 0.679283 0.552889 0.498961 0.556524 -0.662831 0.111470 -0.729769 0.143215 -0.868442 -0.293362 0.073444 -0.336170 -0.407568 -0.577491
club 0.000618 0.618041 -0.223246 -0.022056 -0.373737 -0.119742 -1.113680 0.292474 -0.173224 0.126561 0.191786 -0.183671 -0.247037 0.664128 0.249628 -0.601312 0.071369 -0.026209 0.815833 0.293780 0.482912 -0.004457 -0.153463 0.716606 0.576931 -0.367508 -0.313775 0.282629 -0.749458 -0.578309 -0.382274 0.406753 -0.946395 -0.556777 -0.623861 0.107885 -0.488049 0.549857 0.406424 0.235486 0.181838 0.003779 -0.653201 -0.238808 1.239608 0.522167 0.000717 0.370304 0.419110 -0.397816
dance 0.171262 0.006792 0.419441 0.822323 -0.245410 0.603177 -0.544229 -0.914634 0.002624 -0.329258 -1.352588 -0.601688 -0.544593 -0.701761 0.482570 0.745409 -0.329022 0.475352 0.833216 0.239365 0.127129 0.310665 0.277350 -0.058045 -1.225902 0.471496 -0.258811 0.287791 -0.621407 0.191805 -1.330311 0.731434 -0.383338 0.549782 -0.301070 0.822757 -1.067004 1.135687 -0.152077 -0.505959 0.023475 0.550041 -0.859025 -0.618404 -0.125392 0.222564 0.593879 0.870426 -0.117341 0.161197
hard -1.239266 0.226754 -0.454519 0.142123 0.193254 0.438970 -0.497939 -0.309424 -0.641862 0.102927 -0.004231 0.530183 0.678976 -0.553552 0.295703 0.586682 0.276988 1.293825 -0.468603 -0.031392 0.457115 -0.397800 0.496070 0.031029 -0.014785 0.475787 -0.148587 1.087423 -0.113972 -0.577020 0.045456 -1.649511 1.265251 -0.042545 0.690009 0.103857 -1.139785 -0.341091 0.195500 -0.215586 -0.255750 0.329947 0.129237 1.006518 0.096371 -0.334034 -0.476687 -0.067072 0.190923 -0.253091
low -0.963143 -0.269522 1.354783 -0.818144 -0.615398 0.273934 0.303186 -0.441394 0.061027 1.004165 -1.053905 0.757124 -1.843722 -0.435337 -0.338467 0.167801 0.244255 0.605567 -0.459549 0.020572 -0.834894 0.232146 0.347646 -0.158046 -0.669116 -0.157048 0.118753 0.315221 0.673562 0.628634 -0.501108 -0.905774 1.340256 -1.040956 0.976232 -0.098983 -0.511405 -0.224677 -0.001788 -0.020705 0.078098 -0.357707 0.333314 -0.217725 -0.370610 0.079829 0.605127 -0.183887 0.551014 -0.749208
die -0.514878 0.286028 -0.062246 -0.228506 -0.227403 0.823652 -0.042520 0.835813 -1.087819 0.053603 -0.300398 -0.767125 -1.374046 -0.063627 0.047774 0.359458 0.064670 -0.164924 1.443353 -0.182114 0.580234 -0.115688 -0.335075 0.516631 -0.168113 -0.417673 0.176683 0.959359 0.038867 -0.886410 -0.669240 -0.458485 -0.165813 0.695169 -0.128386 0.283169 0.810727 -0.288490 -0.474155 0.251917 -0.383718 -0.113109 -0.339626 0.029769 0.570875 0.376824 0.197465 -1.168752 -0.234714 0.350402
mi -0.375679 -0.171249 -0.790655 -0.547019 -0.082856 0.210126 0.790763 0.179081 -0.247335 -0.007468 0.111595 -0.112294 0.688514 0.313452 -0.694244 0.031703 -0.064048 -0.274783 -0.198045 1.087415 -0.304050 -0.405526 -0.798661 -1.122996 0.186892 0.563013 1.098902 -0.202520 -0.077241 0.110905 0.747089 0.647745 0.451232 0.579303 0.039437 -0.155505 -0.238613 -0.702839 0.149691 0.949480 -0.751714 -0.569710 0.179805 0.812711 0.604024 0.601951 0.071537 0.178687 -0.254194 0.335318
roll 0.335238 0.171575 -0.162743 -0.460748 -0.100249 0.207025 0.136330 -0.041512 0.575640 -0.035363 -0.022135 0.300002 -0.492237 0.422840 0.287329 0.682824 -0.554367 0.435827 0.712993 -0.464764 -0.820876 -0.322152 0.318339 0.789530 -0.088425 0.315427 -0.473654 0.144266 -0.350529 0.579830 -0.408061 -0.415983 0.425498 0.555262 0.090181 0.912735 -0.913925 -0.778560 -0.082138 -0.454076 0.610266 0.051995 0.510340 0.091331 -0.190052 0.230570 0.036575 0.447658 -0.271995 -0.256600
things -1.117268 0.088056 0.925559 0.046116 0.150258 -0.118848 0.604822 0.192532 -0.301048 0.125114 0.165081 0.814112 0.119775 -1.051257 0.622320 0.547357 0.422477 0.523346 0.057164 0.184338 0.641087 0.467793 0.261282 -0.163986 0.377463 0.563428 -0.683496 0.567362 -0.173040 0.292486 0.651305 -0.947608 0.087006 -0.050026 -1.229195 -0.579275 -0.557354 0.869048 -0.611185 0.258952 -1.127920 -0.250033 0.971483 0.604943 0.583456 -0.653055 -0.764670 0.665987 0.285553 0.342038
hol -0.059055 -0.637372 0.468018 -0.483536 0.276544 -0.174923 -0.024164 0.861842 0.045378 1.190881 0.981540 0.357212 0.231339 0.682971 0.497682 0.587663 -0.991433 -0.990664 -0.755339 0.156885 -1.299986 0.335111 0.565927 0.005571 -0.119014 -0.481677 0.781658 -1.744974 0.241398 -0.481426 -0.053059 -0.255078 -0.870054 -0.397564 0.407362 0.908566 0.455196 -0.382330 0.119683 -0.119585 0.347353 -0.171675 -0.284619 0.164110 0.615145 -0.495723 0.337555 0.981422 0.681583 -0.369245
beat 0.410843 0.020789 0.670957 -0.030759 0.078558 -0.586314 -1.138735 -0.215088 -0.677805 -0.203455 0.320321 0.246532 0.910219 0.228764 -0.203616 -0.599846 0.299191 -0.305894 1.388505 0.472705 -0.272947 0.031073 -0.143035 0.107090 -0.559735 -1.120658 -1.162666 0.396495 -0.315588 -0.606976 -0.482089 -1.207755 0.215936 -0.880839 -0.466877 0.011016 0.912533 -0.672607 0.066943 0.352088 -0.716498 0.155931 0.081892 -0.827740 0.338391 0.163065 1.000476 0.493486 0.014935 -0.719791
bump 0.455865 0.051189 0.794006 0.996966 0.314273 0.133380 0.301698 -0.093711 0.732491 -0.126487 1.406281 -0.336432 0.943040 -0.326412 0.394519 -0.076232 -0.540310 0.285932 0.632792 0.557328 -0.633641 -1.090135 0.108599 0.009439 0.122130 -0.793291 0.305152 -0.834006 0.219471 0.662265 -0.180449 0.187101 1.027374 0.381511 0.411433 0.259709 -0.712401 -0.032464 0.448899 -0.059570 -0.611459 0.008179 0.610110 -0.667281 -0.556347 -0.252464 -0.698232 0.608910 -0.670996 1.059870
fire 0.021580 -0.259664 0.553843 -0.924248 -0.299049 -0.121095 -0.482908 -0.059562 0.061981 -0.278375 -0.436350 -0.711266 0.467021 -0.500450 -0.610506 -0.443185 -0.256980 -0.256269 -0.636871 0.492736 0.334535 -0.574657 0.574857 -0.716895 -0.306392 -0.466178 -0.014165 0.964047 1.479578 1.558737 -0.844022 0.462205 -0.382523 1.886441 -1.020867 -0.053061 -0.251646 0.230763 0.078012 -0.973946 1.027259 -0.030603 -0.254142 -0.418161 0.058567 1.166337 0.496293 -0.025534 -0.120210 1.031784
ha 0.438198 0.298972 1.110803 -0.466639 0.368048 -0.161951 -0.382420 0.187388 0.139791 -0.312363 1.112857 -0.621864 -0.424027 -0.163814 0.656300 0.168927 -1.575699 -0.292088 -0.383022 -0.273689 -0.055831 -0.069440 -0.484247 0.203894 -0.091779 -0.114855 -0.511297 -0.582535 -0.371356 -0.407016 -0.541050 0.219147 -0.388115 0.845776 0.255846 -1.580919 -0.017449 -0.575949 0.238301 -0.388227 -0.461190 -0.097147 0.505031 0.814872 -1.150214 0.665830 -0.016413 -0.288724 -0.245298 0.196248
di -0.037819 0.176839 -0.822283 -0.397266 0.232087 -0.181329 -0.465568 -0.640541 -0.660802 -0.339975 -0.111405 -0.269941 0.691139 0.548466 -0.467737 0.332780 0.220313 -0.014433 -0.350444 1.107920 -0.336483 -0.242584 -0.660471 -0.296067 0.652381 0.609830 0.241446 -0.025115 -0.170438 0.045194 0.000701 1.168108 -0.131587 -0.169880 0.369459 0.487942 0.131538 -0.479526 0.375805 0.541895 0.021160 0.615960 -0.447108 0.333556 0.603171 0.016201 0.756223 0.439914 0.326305 0.012246
believe 0.110588 0.424312 -0.159652 -0.632741 0.448562 0.297491 0.186333 1.228419 -0.730180 -0.485040 -0.193984 -0.292496 0.775290 -0.158121 -0.007000 -2.029045 0.316495 -0.474666 -0.318314 0.671288 0.555868 0.180164 -0.079582 0.372129 -0.855719 0.009433 0.203970 0.297007 1.515288 -0.051864 -0.487260 -0.061015 -0.683612 0.227420 -0.591489 -1.005567 -0.662336 -0.547241 0.644381 -0.554048 -0.545890 0.006210 0.209088 -0.633247 -0.003859 -0.048520 -0.462749 0.891771 -0.787121 -0.635880
girls 0.185309 -0.534474 0.248388 0.993716 0.646203 0.000536 0.301401 -0.459569 0.627964 -0.340736 0.229871 -0.713931 0.293239 -0.297205 0.439253 0.254845 -0.478449 0.773091 0.748289 0.658555 -0.333070 -1.278098 0.411080 0.207872 -0.269103 -0.114017 0.721326 -0.315046 -0.146661 0.426059 -0.029703 0.261914 0.829169 0.783822 0.327490 0.450366 -1.078563 -0.146933 0.280998 0.207079 -0.699091 0.265213 0.699080 -0.496841 0.175834 0.112408 -0.236316 1.068164 -0.724448 1.013681
fall -0.077604 -0.073868 -0.409000 -1.610643 0.281313 0.332039 0.274840 -0.062592 -0.453595 -0.891219 0.460762 -0.195968 0.009303 0.542122 -0.850199 -0.426677 -1.610138 0.454234 0.726119 0.388090 0.399985 -0.136332 -0.315214 -0.328931 0.460349 -0.570749 -0.433182 0.089105 -1.034473 -0.728726 -0.018312 0.162998 0.858212 0.159453 -0.524711 -0.806183 0.460717 0.300134 0.447482 0.307639 -0.535667 -0.226645 0.274506 0.763855 -0.349830 -0.381937 0.073688 0.309388 -0.359941 -0.905792
pumps 0.398370 0.067728 0.488987 1.288360 0.320575 0.170845 0.327669 -0.021545 0.672819 -0.215237 1.268669 -0.390933 1.079731 -0.295456 0.300673 -0.109570 -0.420223 0.084476 0.432303 0.529394 -0.620772 -1.071548 -0.087562 0.025876 -0.060464 -0.909690 0.361312 -0.845624 0.284731 0.502194 0.045272 0.161322 0.808079 0.314842 0.262962 0.505251 -0.530145 -0.261525 0.299988 -0.211779 -0.391240 -0.033180 0.388150 -0.722485 -0.393722 -0.449086 -0.495975 0.193305 -0.540797 1.026321
ride 0.223835 -0.057738 0.335958 -0.202120 -0.176092 0.532850 0.102940 0.959010 0.157039 -0.279532 -0.493210 0.022500 -0.824736 -0.883277 -0.701537 0.775770 -0.227466 0.070079 0.602249 -0.297562 0.522838 -0.552485 -0.544797 0.666771 -1.138634 0.187401 0.292432 0.414471 -0.232701 -0.680774 -0.146850 -0.110185 0.025876 0.615706 -0.956204 0.134242 0.553704 0.534490 -0.340706 0.419253 0.115646 0.779483 -0.409138 -0.647459 0.606530 -0.328371 0.343877 -1.461583 -0.554707 0.412923
hands 0.321484 -0.554518 -0.260754 0.324629 0.902668 0.538592 -0.517644 -0.539163 1.118421 -0.460559 -0.118771 -0.442547 -0.347866 0.167009 0.965056 -1.098041 -0.497310 1.076576 0.164353 -0.195292 0.510743 1.485531 -0.388387 -0.468173 -0.150778 -0.718333 -0.599662 0.196317 -0.120074 0.285568 -0.050629 0.381733 -0.225962 0.107737 -0.524632 -0.590288 0.428692 -0.045219 0.761418 -0.267402 0.523310 -0.042910 1.016463 -0.296410 -0.253684 0.567890 -0.742942 0.866959 -0.533948 -0.587233
miss 0.054418 0.146723 0.240243 -0.727009 0.212932 -0.318174 -0.169340 0.678073 0.046905 0.290006 0.633776 0.708522 -0.655547 -0.095817 -1.245311 -0.387354 -0.102534 0.103651 -0.721947 -1.203047 -0.491643 -0.167693 -0.007561 -0.167217 0.387452 0.051635 0.550545 -0.082281 -0.263870 -0.073219 0.284317 -0.844789 -0.029459 -0.391986 -0.848245 -0.462942 -0.076242 0.377678 -0.350914 0.126095 0.652156 0.147907 -0.989978 -1.716066 1.591609 0.277217 -0.323400 0.171542 -0.453893 0.285336
shorty -0.779994 0.202904 0.137310 -0.596155 -0.498976 0.797846 0.622934 0.526579 -0.716616 -0.378306 -0.291560 -0.546151 -1.135805 -0.298939 0.064694 0.486980 0.199866 0.170686 1.134900 0.294078 0.122765 0.184018 -0.229782 0.124333 -0.719419 -0.378171 0.308734 0.661294 0.972044 -0.464848 -1.030012 -0.027715 0.691456 0.222699 -0.071235 0.094894 -0.419113 -0.758581 0.509716 -0.718761 -0.671830 -0.541368 0.074105 0.417676 -0.412957 0.259934 0.079380 -0.627488 -0.069303 0.354225
touch 1.281945 -0.007117 0.420418 0.233912 0.257504 -1.012510 -0.587191 -1.071441 -0.252613 0.731273 0.262221 -0.423654 -0.150956 -0.032510 -0.336646 -0.516323 0.360746 0.814589 -0.350696 -0.003504 0.327683 -0.360511 0.082694 0.649971 0.067417 0.874203 0.509085 0.854701 -0.713973 -0.010592 0.049521 -0.458162 0.033303 -0.947541 0.344054 -0.179288 0.149245 0.954555 1.015493 0.428396 -0.059110 0.015597 0.030088 -0.400376 -0.980377 0.142937 0.324618 -0.130328 0.557053 0.368204
getting -0.339845 0.326980 0.644475 0.522197 0.353104 -0.690516 -0.647917 -0.336811 0.581451 0.673390 0.840336 0.643158 -1.218685 -0.456585 0.390383 -0.549012 -0.465549 0.559259 0.614234 -0.728452 -0.278488 0.544104 -0.203639 0.851597 1.178716 -0.079227 0.039548 0.205033 -0.726584 0.065619 -0.267313 1.168651 -0.643568 -0.191286 0.038642 -0.066114 0.203518 0.858035 -0.665379 -0.016849 0.270651 0.317786 -0.293555 -1.312958 0.593390 0.551877 -1.238467 0.743272 0.563826 -1.281770
nah 0.499200 0.236715 -0.426553 0.567999 0.053310 -0.927484 0.267921 -0.272118 0.086417 0.639949 -0.726282 -0.073533 -0.240299 0.535597 0.243891 -0.117353 -0.448407 -0.310104 0.231965 0.435603 -0.514025 0.437240 0.359301 0.562932 0.500466 0.457653 0.127446 0.075469 -0.940998 -0.832054 0.286542 -0.127715 -0.259785 0.030666 0.959996 0.597923 0.093095 0.106856 -0.123101 1.034724 0.580581 0.994439 -0.260292 0.015997 0.845971 -0.387613 0.341941 0.597470 -1.144915 0.974067
try -0.997078 -0.086968 -0.874393 -0.153393 0.111184 0.125754 -0.741606 0.110570 -0.751815 0.020552 0.176144 -0.050341 0.009339 -0.275432 -0.110190 0.685907 0.193903 0.742958 -0.800570 0.174153 0.179643 -0.198031 0.284304 0.178366 -0.229913 -0.076947 -0.585406 0.817147 -0.166657 -0.353016 -0.415265 -1.221089 0.870381 0.073965 0.461176 -0.085186 -0.544257 -0.311632 -0.226123 -0.202543 -0.002881 0.556155 -0.192423 0.793571 0.601058 0.267498 -0.440677 0.075183 -0.037588 -0.256906
bone -0.468836 0.389315 -0.165976 -1.383651 0.700081 -1.050837 -0.161712 -0.362055 0.594930 0.351234 -0.056489 -1.167503 0.207597 0.595609 0.597085 -0.920449 0.369270 -0.485311 0.180347 -0.379692 0.245068 0.026778 0.162919 0.041770 0.226546 -0.118007 -0.493785 -0.368416 0.042652 0.260053 0.415903 0.162985 0.012228 1.143344 -0.427503 -0.403057 0.275416 1.018397 0.692860 -1.413355 -0.458362 -0.015138 -0.609287 -0.445957 -0.202625 0.532446 0.175809 -0.153134 0.341988 0.466058
dick -0.142631 -0.622251 0.490300 0.007417 0.534539 -0.162361 -0.318619 -0.771812 -0.122876 -0.064743 0.153894 0.266650 -0.096629 0.137807 0.301037 -0.069393 -0.301069 -0.496863 1.007198 -0.117858 -0.684698 -0.149057 0.437500 0.189833 -0.444416 -0.859067 -0.434871 0.662413 -0.999933 -0.189307 -0.319688 -0.712731 0.926036 -0.338405 0.522711 -0.042333 0.621255 -1.044861 -0.780498 1.144253 -0.708624 -0.087961 0.463103 -0.952416 0.271368 0.334488 0.936462 0.942415 -0.025516 -0.967143
young 0.019823 0.521995 -0.469070 -0.408645 0.307972 0.398576 -0.347374 -0.087913 -0.310172 -0.052348 0.018671 0.150324 -0.227472 0.375738 -0.212446 -0.742141 -0.173254 0.654594 0.029904 -0.558910 0.480325 -0.799901 0.076123 0.380968 -0.488987 0.120164 0.522182 0.569077 -0.951001 -0.931244 0.099471 -0.066643 -0.434457 -0.162558 0.126806 -0.549845 0.235284 0.177899 -0.079052 -0.132408 -0.081097 0.043882 -0.180482 -0.049904 0.213006 -0.313732 0.067914 -0.027467 -0.151754 -0.141078
body 0.565225 0.178364 -0.371461 0.011037 0.997121 0.151698 0.043239 -0.417699 -0.671581 -0.363914 -0.465455 -0.282325 -0.021001 -0.257860 -0.536069 0.683993 1.493927 0.251094 -0.701859 0.216107 -0.153438 -0.156966 -0.228321 0.114514 -0.614987 0.030558 -0.435614 0.236087 0.322187 0.751187 -0.064886 0.858116 -0.063064 -0.729461 0.269970 -0.645374 0.136157 0.114592 -0.035624 0.441090 -0.072148 0.872649 -0.397894 -1.177580 0.818655 -0.185504 0.598562 0.942161 -0.226377 -0.438704
hold -0.768907 -0.479123 0.254944 -0.077993 0.544489 -0.017926 -0.136161 -0.172928 -0.087124 -0.230958 0.346237 0.493799 0.676269 -0.630303 0.625015 0.757576 0.154434 0.871604 0.671658 0.371353 0.144014 -0.444489 0.314705 0.309216 -0.389160 1.609946 -0.863797 0.821862 0.050872 -0.089298 0.320537 -0.061908 0.286031 0.288838 -1.340761 -0.254474 -0.705149 0.008673 -0.272088 0.612429 -0.337916 0.201750 0.208863 -0.224539 -0.354356 0.626324 -0.443269 0.722875 0.773817 -0.717955
swerve 0.390155 0.016880 -0.252526 0.118107 -0.154535 -0.188010 0.886069 0.912672 -0.155819 0.210690 -0.052746 -0.396232 1.059133 0.017078 0.349823 -1.265933 0.276570 -0.908591 -0.362909 1.364662 0.132111 0.494978 -0.446690 -0.410302 -0.284965 0.018260 0.135792 -0.471307 1.824848 0.794585 0.318672 0.622940 -0.464596 0.411430 -0.697856 -0.284535 -0.629215 -0.418864 0.026095 -0.017654 -0.600192 -0.555783 -0.159395 -0.636353 0.047179 -0.076848 -0.737663 0.620020 -0.018691 -0.340748
hear 0.799220 -0.021178 -0.633060 -0.279241 -0.189908 -0.579883 0.181523 0.245206 0.187577 0.277359 -0.663681 -0.123924 -0.138225 -0.824113 -0.288512 -0.464043 0.324882 0.665484 -0.123115 -0.255459 0.833162 -0.025938 -0.107200 0.444566 -0.271508 0.022409 0.123981 1.051013 -0.527392 0.394811 0.043203 0.187362 -0.078769 0.525079 -0.065020 -0.353718 0.068303 0.273800 0.606289 1.244963 -0.626994 0.326200 0.638955 -0.067965 0.354011 0.169923 0.755015 0.434287 -0.627637 0.128436
black 0.246274 -0.329608 -0.843193 -0.251882 0.491083 -0.254133 -0.460441 0.423005 -0.171491 -0.008223 0.678230 0.121501 0.421239 0.079938 0.129322 0.104917 0.245141 0.582152 0.422310 0.009738 0.286392 -0.107979 -0.173684 0.087380 -0.142496 0.569729 0.253118 0.405928 -0.143726 0.039125 -0.233794 -0.335034 -0.663856 0.600990 0.831723 -0.808017 -0.402233 -0.708208 0.330175 0.291593 0.034682 0.694648 1.012395 0.774274 0.005809 -0.128089 -0.103055 0.660466 -0.242259 0.022329
came 0.716570 -0.269528 0.016330 0.054053 0.249432 -0.394237 0.312084 0.137345 0.602149 0.571772 0.373648 0.348755 -0.547611 0.018250 0.198304 -0.215842 -0.241571 0.197597 0.710529 -0.380730 -0.063192 -0.382140 0.582253 0.436200 -0.200628 0.536279 -0.115261 0.467969 -0.793940 0.284882 0.453845 -0.310467 0.150767 -0.068401 0.214186 0.004797 -0.492492 -0.234109 0.008476 -0.011007 0.001948 0.174814 0.153350 -0.291727 0.382055 0.060850 0.426593 1.016396 -0.191602 0.567093
inside -0.649387 0.060558 -0.126826 0.726871 0.559902 0.152744 -0.034271 -1.167014 -0.567458 -0.640721 -0.781079 -0.360765 0.132721 0.420574 0.687471 -0.084660 0.292398 0.437248 0.112766 -0.214570 0.489552 0.587739 0.339715 0.716579 0.763792 -0.596159 -0.988313 0.492755 -0.116364 0.135993 -0.256114 -0.089997 -0.131037 -0.888919 0.189030 0.683259 0.771972 0.288079 0.535622 -0.639323 0.295060 -0.052682 0.436912 0.134892 0.391807 -0.017506 0.014822 0.468484 -0.149172 0.406341
pop 0.919946 0.028900 0.496330 -0.325654 0.427663 0.434756 0.443199 0.109448 -0.259858 1.590467 0.532420 1.011191 -0.471004 -0.514287 -0.076082 0.301726 0.537442 0.631384 -0.314323 0.072072 -0.120082 -0.335809 0.000470 0.309122 -1.292651 -0.588180 -0.483186 0.581960 -0.024793 0.695872 0.106436 -0.792815 1.050702 0.019900 -0.016192 -0.477121 -0.203433 0.469783 0.603364 -0.048934 1.221631 0.752986 0.286417 -0.133147 0.685078 0.680914 0.682526 -0.349680 -0.344079 -0.018534
work -0.512709 0.204192 -0.164573 0.278995 0.013853 0.545993 -0.340305 0.258850 -0.282914 0.157502 0.407746 0.066714 -0.048990 -0.187891 -0.081193 0.091895 0.255132 0.257109 0.641132 0.042627 0.223751 -0.056570 0.214326 0.777930 -0.766452 0.047648 0.058801 0.438403 -0.603102 -0.713414 -0.108133 -1.055580 0.310538 -0.112615 -0.054866 0.037604 -0.806021 0.017305 0.282875 -0.149735 0.088241 0.159237 -0.225649 0.218408 0.025583 0.095147 -0.231816 0.031593 -0.390578 -0.225364
face 0.190230 0.111628 -0.432186 0.182186 -0.131237 0.403925 -0.334765 -0.062280 -0.186547 -0.077580 0.275670 -0.109352 -0.061281 -0.076744 0.201026 0.080045 -0.028839 0.307420 0.341308 -0.071993 -0.055486 0.108592 0.175541 0.161813 -0.406349 -0.413535 -0.090738 0.311173 -0.832128 0.130706 -0.172812 -0.259712 -0.303808 -0.310039 0.021892 -0.724457 -0.729472 -0.343659 0.068031 0.176532 0.147949 0.175129 0.214559 0.068831 0.450920 0.238801 0.304263 0.800990 -0.243372 -0.358718
going -0.933199 0.100758 0.397236 -0.285361 0.657301 0.401995 -0.082495 -0.049944 0.103271 -0.280369 0.797466 1.090353 1.614448 -0.873174 0.613953 0.719558 0.790374 0.817042 0.073404 -0.042967 0.062307 -0.749200 0.207168 0.342051 -0.264324 1.730985 -0.627586 0.524861 0.106811 0.021385 0.922570 -0.517532 0.454379 0.181275 -1.416491 -0.302508 -0.080212 -0.157989 -0.123675 0.450816 0.115814 0.219098 0.648736 0.124570 0.070837 0.063486 -0.309782 -0.205146 0.452029 -0.065117
rap 0.000876 0.639590 0.441167 -0.491566 -0.177384 0.566235 0.128449 0.505476 -0.374963 0.118023 -0.614503 0.331730 -0.078676 -0.898590 0.273282 0.514860 0.257927 -0.180291 1.076877 0.350475 0.086140 0.139845 1.038625 0.105854 0.106718 -0.033970 0.106044 0.212476 -0.495236 0.706725 -0.427374 0.198653 -0.048342 0.177168 1.070595 -0.252235 -1.041956 0.371771 -0.171596 -0.573042 0.262423 0.116971 0.485325 -0.650167 -0.825085 0.641780 -0.106171 0.431448 -0.392745 0.015919
bring 0.815761 0.915087 -0.268604 -0.095131 0.545086 0.343558 0.076249 0.220948 0.440338 0.122696 0.764836 -0.467829 -0.066732 -0.128958 -0.804335 -0.063454 -0.101487 0.157062 0.142483 0.040621 -0.341846 -0.947930 0.136153 0.835586 -1.085282 -0.460552 -0.204294 1.217711 -1.030830 0.818291 -0.429362 0.204575 0.368444 -0.168162 0.093400 -0.107369 -0.342145 -0.011494 -0.341158 0.167825 0.080174 0.453045 -0.672044 -0.405128 -0.291993 -0.520920 0.720630 0.606279 0.080849 0.292731
drop 0.920679 0.254341 0.262683 0.131999 0.399554 -0.089556 0.212749 -0.618744 -0.258225 1.386011 0.457164 0.813523 -0.429309 -0.567513 -0.254587 -0.035213 -0.103068 0.746979 -0.494945 -0.165906 -0.282272 -0.449008 0.551935 0.000485 -1.030788 -0.440008 -0.099229 0.826174 -0.072852 0.629246 0.228774 -0.762859 0.429743 0.101241 0.010581 -0.355820 -0.284939 0.482310 0.248957 0.192827 0.699041 0.628660 0.225009 0.195148 0.404211 -0.223701 0.727756 -0.019104 -0.082796 0.009179
kick 0.161824 0.886545 0.772123 -0.194370 -0.490975 0.632819 -0.730758 -0.378313 -0.473533 -0.406152 -1.656382 -0.317800 -0.645405 -1.119748 -0.035267 0.425117 0.291905 -0.186487 0.960906 0.528237 -0.471402 0.260449 0.116066 -0.551892 -0.100551 0.556317 0.459446 -0.580515 -0.669759 -0.491312 -1.320533 0.750676 -0.155381 0.651163 0.923794 0.173756 -0.650140 0.803583 -0.374604 -0.485396 0.042573 0.702852 -0.474905 -1.609235 0.064025 0.242387 0.190440 0.158641 -0.467996 -0.119038
light 0.232198 -0.512350 -0.032543 -0.111969 0.354392 1.297347 0.386309 -0.051574 0.240265 0.132384 0.054013 -0.115345 0.871058 -0.323831 -0.001912 0.290540 0.364643 0.447857 0.847766 -0.637168 -0.308039 -0.924455 -0.092268 0.864129 -0.116703 0.214511 0.064399 0.349255 -0.193224 0.140283 -0.132282 -1.076922 0.191929 1.176230 -0.080214 0.159426 0.125358 0.901728 -0.084228 0.287169 0.347327 0.139342 1.378434 -0.759146 -0.015795 0.117836 0.141667 -0.703576 -0.740573 -0.680032
livin -0.959319 -0.112448 0.615574 -0.175811 -0.297611 0.700155 -0.128598 -0.531239 -0.026961 0.568697 -0.765551 0.126577 -0.858435 -0.715521 0.154742 -0.201309 0.734419 1.108440 -0.033117 0.232851 -0.499396 -0.030642 -0.162759 0.020853 0.117004 -0.267003 -0.211642 0.337433 -0.019984 0.649609 -0.189621 -0.666929 1.010054 0.155352 1.172941 0.398637 0.212424 0.070150 -0.266601 -0.001953 0.509164 -0.290111 0.848819 -0.819492 0.203027 -0.019562 0.536591 -0.137810 -0.489444 -0.384664
poo 0.657679 0.045739 0.616377 -0.124986 -0.126011 0.521376 0.029127 -0.366522 0.584346 -0.486839 0.806284 0.021032 1.187174 -0.194244 -0.171500 -0.392570 -0.390042 0.528544 0.580942 0.056817 0.336577 0.091657 -0.283817 -0.293765 0.828466 -0.765817 -0.580171 -0.779995 -0.977766 -0.307339 -0.268441 0.092095 0.296120 -0.136527 -0.273263 -0.406200 0.284894 1.081396 0.135705 0.077188 -0.027921 -0.515699 0.984055 0.541718 -0.566600 -0.543271 0.181881 -0.249300 -0.596214 0.182471
yuh -0.282224 -0.052881 -0.413637 -1.000678 0.076884 0.220159 -0.061918 -0.771863 -0.307275 -0.684756 -1.043132 -0.205776 -0.115110 -0.035561 -0.612025 0.573780 0.756162 0.635836 -0.829256 0.883680 0.127112 0.043065 -0.414695 -0.723220 -0.179541 0.563754 -0.152351 -0.429863 -0.203329 0.388596 0.181179 1.348528 0.702103 -0.345451 0.057749 -0.352046 0.205387 -0.258980 0.493277 0.715838 -0.560987 0.368515 -0.210373 0.022573 0.226800 0.412011 0.634329 0.220623 -0.285106 -0.264657
mad -0.572227 0.114529 -0.242875 0.624070 0.505154 0.502061 -0.694666 -0.278044 -0.240699 -0.608355 -0.229750 0.039812 -0.222265 0.275832 -0.365958 -0.385528 0.616519 0.196437 -0.527008 -0.305751 -0.112276 0.325571 -0.207729 0.706343 -0.600996 0.140571 -0.580971 0.263339 -0.813027 -0.458647 -0.379566 0.096801 -0.152237 -1.282655 0.954260 -0.119917 1.000591 -0.176799 0.090106 -0.116082 0.336666 0.807694 0.312453 -0.643100 -0.050770 -0.394955 0.021211 0.624861 -0.187549 0.109746
mean 0.285372 -0.159974 -0.119636 0.463137 -0.513049 -0.387837 -0.913230 -0.083832 0.592744 -0.428906 -0.343126 -0.102926 -0.348500 0.097957 0.370423 -0.115807 0.158950 1.091452 0.535846 -0.097460 0.850474 -0.013983 0.302526 0.355792 -0.115609 1.002734 -0.876212 -0.064762 -0.582814 -0.286417 -0.810325 0.156585 -0.009977 -0.692949 -0.430287 -0.988556 -0.672463 -0.308020 0.528287 -0.734994 0.489414 0.203611 0.328028 0.385540 -0.407311 0.453744 0.213273 0.215221 0.019838 -0.439602
talk -0.038950 -0.342574 -0.251938 -0.648056 0.242814 0.923802 -0.004915 0.369762 0.185273 -0.209941 -0.193034 -0.171892 -0.007439 -0.102693 -0.232890 0.490858 0.135170 0.742897 0.248947 -0.706644 0.453299 -0.652400 0.223480 0.600513 -0.293627 0.122831 -0.332222 0.946383 -0.768083 0.440412 -0.702406 0.004085 0.158868 0.361311 0.109441 -0.242337 0.027728 0.241473 -0.428084 0.077019 0.437110 0.110936 0.770431 -0.351897 0.308195 0.659604 0.623592 0.053964 -0.146088 -0.018904
wait -0.555684 -0.863105 0.797306 -0.556138 0.156579 0.059928 0.088724 -0.605969 -0.172868 0.295578 -0.036464 0.699292 -0.192145 -0.135420 0.211011 0.475794 0.087715 -0.091233 0.499723 -0.050305 -0.538171 -0.108460 0.382520 0.192033 -0.470841 -0.608544 -0.229640 0.215217 -0.236310 -0.293481 -0.040613 -0.921949 1.310786 -0.822169 0.543644 -0.230613 0.664842 -0.772832 -0.420369 1.201212 -0.701019 -0.265410 1.082724 -0.439143 0.101083 0.372885 0.815693 0.241783 0.307687 -1.321389
world 0.687233 0.050224 0.302654 0.515616 -0.494184 -0.051710 0.073647 -0.254491 0.653717 0.373976 0.042203 -0.010673 -0.918142 -0.764115 -0.047986 -0.002126 0.155439 1.505897 0.344052 -0.320454 -0.078501 0.385870 -0.256035 -0.092963 -0.063191 1.055649 0.640793 0.465184 -0.928540 0.566472 0.601314 -0.180219 0.408242 0.087953 0.380729 0.057727 -0.950823 -0.121353 0.184595 0.625265 0.465453 -0.400479 0.209220 0.095325 -0.056822 0.266629 0.582376 0.177221 -0.151467 0.566057
yes 0.152850 1.095548 0.779025 -0.617962 -0.471338 0.616456 -0.376500 -0.304702 -0.659555 -0.268041 -1.620603 0.389369 -0.141899 -1.098957 -0.001851 0.789544 0.313016 -0.766854 0.348282 0.143983 -0.399739 0.312599 0.377613 -0.718318 0.536175 1.025854 0.238157 -1.301927 -0.073592 0.219680 -0.803340 0.560510 -0.038452 0.176025 0.811988 -0.392360 -0.633448 0.043072 -0.569885 -0.378370 0.077651 1.002879 -0.140388 -1.622996 -0.302775 0.263792 0.100202 0.170156 -0.065838 -0.222773
away -1.346820 -0.174004 -0.642598 -0.128657 -0.602567 0.082859 -0.227652 0.147807 -0.360436 0.000841 -0.168913 -0.089597 0.422236 -0.189110 0.500161 0.840367 -0.161117 0.340675 -0.314437 0.865805 0.136960 0.049569 0.780806 0.421527 0.183413 -0.042283 -0.298782 0.567035 0.113353 0.079071 -0.228901 -1.448636 0.898523 0.092043 0.668695 0.282793 -0.828069 -0.977613 0.011417 -0.028104 0.190024 0.127235 0.314400 0.950053 0.849139 0.097608 -0.216152 0.160715 0.355134 -0.147468
bang 0.958587 -0.087477 0.564215 -0.257819 0.190290 0.090310 1.029551 0.623824 -0.059395 0.874654 1.096146 1.320422 -0.965783 -0.392367 -0.762407 0.294458 -0.154003 0.247889 0.441797 -0.593044 0.258419 -0.342899 -0.354274 -0.063586 -0.818647 0.346157 0.064715 0.737011 0.713861 -0.531111 0.793959 -0.305238 0.500327 0.216135 -0.573887 -0.347309 -0.081881 0.928353 0.109458 -0.335362 0.826225 0.579900 -0.782975 -0.260849 0.320918 0.021956 -0.530421 -1.324500 -0.884896 0.599255
find -0.197797 0.329354 -0.427496 -0.441384 -0.817873 -0.311688 -0.996775 0.454647 0.201089 -0.407928 -0.468022 -0.046755 -0.131225 0.377444 0.756355 -0.538378 0.692319 0.227125 0.261418 0.947139 0.212965 -0.006693 0.116442 0.796007 0.115065 -0.088835 -0.253875 0.433098 -0.218321 -0.148047 0.112364 -0.556455 -0.457026 -0.141532 -0.582056 0.227138 -0.975294 -0.663654 0.385460 0.300586 -0.523720 -0.386856 -0.323399 -0.711971 1.148310 0.327647 -0.408493 0.409796 0.025156 -0.591078
knock -0.498457 0.594618 0.458666 -0.286688 -0.071284 0.285858 0.330625 0.650042 -0.287952 0.319005 0.493304 0.959360 -1.117240 -0.115906 -0.521779 -0.618428 0.456794 0.327628 -0.126801 -0.967528 -0.795980 0.761740 -0.163141 -0.889412 -0.612414 -0.186308 0.612612 0.120472 0.323457 -1.540673 -0.312302 -0.677524 0.502490 -0.459114 -0.094213 -0.771290 -1.048278 -0.254417 0.597204 -1.819422 -0.084320 -0.011204 -0.880981 -0.076133 0.404177 0.055515 -0.433170 0.348994 -1.029476 0.449679
mediocre -0.396749 0.144296 0.067189 -0.787959 0.344299 0.428234 0.440137 0.627497 -0.148391 -0.321033 0.508064 0.028687 -0.699637 1.085354 -0.252944 0.850245 -0.292715 -1.037789 -0.035771 -0.821248 0.175908 0.818910 0.192339 1.416958 -0.048825 0.441716 -0.574245 0.210161 0.313134 -0.045000 0.323533 -0.088543 -0.403789 -1.419948 0.012045 -0.804909 0.504580 0.127280 0.289904 0.114420 0.243284 0.367188 -0.592350 -0.017398 -0.474292 0.166032 -0.721380 0.471876 1.259052 -0.167660
pull 0.441685 -0.184588 -0.649702 -0.196244 0.038005 -0.314314 -0.045026 0.383951 0.606340 0.180668 0.210694 0.219629 -0.042451 0.395845 -0.009804 -0.077982 -0.412709 0.204265 0.048360 -0.694824 0.283026 0.015331 0.473162 0.989034 -0.132658 -0.111672 -0.275373 1.003170 -0.537149 0.362890 -0.181189 -1.089037 -0.045219 -0.257547 -0.201896 0.166169 -0.664620 -0.317022 -0.130050 -0.053049 0.279958 0.360035 0.294901 0.327195 -0.230182 0.068292 -0.459750 0.846928 0.413768 -0.144163
ball -0.402490 -0.261712 0.343411 -0.874963 -0.687697 0.426871 0.382605 -0.072811 0.277974 -0.868173 0.446724 0.442854 -0.885731 0.394525 -0.526255 -0.058980 -0.853059 0.191318 1.443949 0.657373 0.526753 -0.070671 0.187419 0.304324 0.096281 -0.644613 -0.109914 -0.419943 -0.595035 -0.520164 0.787664 -0.190581 1.362468 -0.754173 -0.178590 -0.839691 -0.120787 -0.261420 0.401645 0.683152 -0.162941 -1.250495 0.581648 0.472094 -0.402706 0.143156 -0.975206 -0.480664 -0.499320 -0.943451
biggie -0.544648 0.073645 -0.725059 -0.005887 -0.182919 0.301673 -0.343974 0.501104 -0.968198 -0.381423 0.279292 0.546822 0.204400 0.083637 -1.192808 -0.480063 0.053397 0.592674 0.166119 0.200200 -0.033896 -0.787560 -0.521989 -0.607661 0.075216 0.016037 0.867682 0.191746 0.511719 -0.795671 -1.084727 0.748351 -0.719940 -0.479665 -0.256779 0.098224 -0.547590 -0.361440 0.648970 -1.161862 -0.372330 -1.333477 0.294814 0.665424 -0.374569 -0.420068 -0.630047 0.400573 0.248442 -0.175441
blow -0.099896 0.232019 -0.387125 0.311150 -0.427684 -0.875996 -0.562956 0.149212 -0.144009 0.321993 0.914766 -0.111530 0.065936 0.482371 -0.626583 -0.389434 -0.227393 -0.045891 0.218926 0.346705 0.061834 -0.705963 -0.216929 0.602991 1.003627 -0.521060 -0.583288 0.539672 -0.228501 0.326707 -0.657636 -0.128130 -0.490782 -0.116331 -0.939239 -0.249773 -0.555918 1.327718 0.555453 0.249669 1.033682 0.112757 0.035604 -0.585907 1.345875 0.870731 0.532427 0.281944 0.304534 -0.139751
dat 0.281539 -0.142140 -0.117060 -0.210465 0.243380 -0.318236 -0.032463 -0.677579 -0.544290 0.523010 0.418065 0.056417 0.036636 -0.141708 -1.075831 0.027352 -0.201770 0.591155 -1.413875 0.011032 -0.495349 -0.663980 0.445018 -0.549697 -0.284563 0.101471 0.146350 0.359057 0.441109 1.486407 0.314990 -0.209643 -0.096648 -0.152473 -0.488760 -0.434213 -0.587045 -0.131510 -0.163876 0.075041 0.540398 0.046673 -0.490711 -0.219209 0.449014 -0.443265 0.694538 0.574442 0.735423 0.304592
dog -0.000270 -0.442795 -0.154115 0.381392 -0.152865 0.149416 -0.136858 -0.360220 0.464724 0.893468 0.192671 0.049893 -0.900635 0.152674 -0.370942 -0.722219 -0.809816 -0.194404 0.096928 -0.358018 0.391459 -0.280524 1.115832 0.831370 -0.913038 -1.019829 -0.028136 1.071361 -0.184849 0.897209 0.277561 -0.893859 -0.248067 -0.756775 0.277112 0.189077 -1.007090 -0.349150 -1.010370 -0.890384 0.968585 0.074862 -0.222709 -0.095301 -0.127672 -0.130350 -0.463398 0.979269 1.323981 -0.250466
left 0.143865 -0.063190 -0.099660 -0.181599 0.171585 0.126476 -0.551161 -0.040329 0.330249 -0.714153 -0.345845 0.294637 -0.274398 -0.095196 -0.281718 0.335856 0.347814 0.586265 0.210994 -0.774628 0.566761 -0.921726 0.306124 0.943026 -0.692905 1.093130 -0.285860 0.470034 -0.161700 0.429656 0.086362 -0.013977 0.001424 -0.180998 -0.411057 -0.907400 -0.114370 -0.404060 0.383427 -0.084984 0.521565 0.458221 0.052187 -0.145044 -0.158878 0.406275 -0.029043 -0.547659 0.151022 -0.496634
okay 0.947734 0.433275 -0.478598 -0.402542 -0.438344 -0.433237 0.012082 0.329523 0.276687 0.162991 -0.684837 0.237546 0.585221 -0.595041 -0.161946 -0.435724 0.749072 -0.029663 -0.784820 -0.060854 0.707904 -0.302446 -0.025982 -0.105988 -0.539170 -0.317063 0.503960 -0.266122 0.283153 0.747623 0.107468 0.176898 -0.609538 0.550105 0.200534 -0.544539 0.257471 0.203544 0.024435 1.063861 -1.253604 0.416502 1.116754 0.398355 -0.870648 -0.254337 0.397488 0.401287 -0.515884 -0.132136
shot 0.036569 -0.490292 -0.263808 -1.336149 0.532687 -0.532916 0.438568 0.472819 0.564789 -0.242192 0.165593 -0.226195 0.107073 0.664826 -0.557833 -0.321999 -0.994599 0.220813 -0.978591 -0.570119 0.271749 -0.387344 0.120048 0.626904 0.780254 -1.179365 0.118126 0.218330 0.129006 0.626444 -0.042208 -0.813348 0.016834 0.246572 -1.367501 -0.243589 0.329184 1.195633 0.742715 0.063015 0.374388 -0.247603 0.480451 -0.270152 1.072496 0.403551 -0.045991 0.463012 -0.106176 0.206616
thing 0.661085 -0.213471 -0.622607 0.005425 -0.392574 -0.956097 -0.947283 0.021349 0.246453 -0.622347 -0.467079 0.041984 0.023809 0.323807 0.255735 0.261416 0.231201 0.652345 0.708641 -0.127191 0.744314 -0.289284 0.334818 0.573572 0.196452 1.595185 -1.243832 0.538900 -0.052641 0.567195 -0.679341 -0.173834 0.263713 -0.215044 -0.141701 -0.627209 -0.416058 -0.781679 0.846104 -0.440113 0.313870 0.488979 0.198584 0.014381 -0.943009 0.576366 0.065982 0.442793 0.215604 -0.512030
addams 0.146460 -0.253487 0.074405 0.614629 -0.376927 -0.104322 0.363753 -0.218091 -0.149232 -0.049557 -0.886167 -0.530516 -0.146821 -0.332564 -0.035625 0.828996 -0.318155 0.235280 0.264085 0.437346 -0.083413 0.355910 -0.385411 -0.540870 0.095430 0.204184 0.030958 -1.116157 -0.200621 -0.672459 -0.697538 0.895316 0.029392 0.038645 -0.635774 0.439592 0.185302 1.030586 -0.164532 0.441478 -0.388620 0.441815 -0.277128 -0.103949 -0.126239 -0.565058 0.253385 -0.549615 -0.243019 0.335317
leave -0.200799 -0.248801 -0.487033 -0.163102 0.510499 0.175897 0.041764 -0.128962 -0.697186 -0.255224 -0.339383 -0.302091 -0.776056 -0.285415 -0.089426 -0.642048 0.203924 0.103709 -0.293308 -0.199593 0.151254 0.110986 0.338657 0.244874 -0.299165 -0.186422 -0.387336 0.534673 -0.100434 -0.055378 -0.275778 -0.001128 -0.094584 -0.557176 -0.490103 -1.063227 -0.291101 -0.532258 0.074398 -0.560245 -0.170682 0.014064 -0.236129 -0.229737 0.376584 -0.218658 0.022394 1.179792 0.037147 -0.715199
shook -0.402326 -0.449489 -0.120494 -1.117809 0.595384 -0.672827 -0.305135 -0.498962 0.087351 -0.892695 -1.588164 -0.012016 -0.512304 0.624560 1.344501 0.546267 0.243301 -0.361091 -0.371796 0.738871 -0.220690 0.570260 0.288381 0.102226 -0.548419 0.405158 0.462894 -0.539070 1.231360 1.314944 0.145495 0.619738 -0.044409 0.486423 -0.501829 0.742606 0.082280 -0.429716 0.622107 -0.037133 -0.579331 0.402259 -0.867243 -0.319952 0.448860 0.495834 0.002985 0.646916 0.398830 -0.148290
street -0.173222 -0.596155 0.310237 -0.118824 0.145769 0.177816 -0.058748 0.439109 0.644958 -0.395245 0.294404 0.391032 1.586137 -0.805806 -1.022264 0.323759 0.710507 -0.139562 -0.220953 -0.289000 0.532934 -1.257042 -0.337927 0.835684 -0.720849 0.627773 -0.053774 0.562224 -0.359428 0.153477 0.339737 -0.525799 0.434974 0.058192 -0.587532 0.177021 0.373809 0.117638 -0.145226 0.725142 0.188307 -0.242768 0.386503 -0.511610 0.095950 -0.203236 0.491522 -0.877455 -0.124653 0.167523
gyal 0.186909 0.273204 -0.014536 -0.628523 0.545619 -0.324681 0.250577 0.077680 -0.183804 -0.434729 0.068945 0.945166 -0.240504 0.075002 -0.616108 0.247771 0.220161 0.162076 -0.220556 -0.891355 -0.463044 0.207652 -0.540355 -1.007108 0.868277 0.853577 0.490049 -0.079319 0.319247 -0.097675 0.152346 0.324779 0.182556 -0.005460 -0.704729 -0.558042 0.269262 -0.063997 -0.155993 0.031555 -0.071725 0.180149 -0.428086 -0.456121 0.851961 0.444316 -0.094993 0.124417 -0.421674 0.175302
sit -0.304041 -0.983652 0.658140 -0.693473 0.729452 0.054548 -0.018696 1.079081 0.115053 0.811741 0.971812 0.401592 0.365012 0.340295 0.332207 0.847818 -0.651052 -1.049910 -0.669589 -0.296605 -1.045027 0.354380 0.303791 0.195215 -0.164808 -0.467445 0.813580 -0.969870 0.066151 -0.299564 0.066361 -0.863029 -0.684323 -0.078807 -0.352000 0.919746 0.724131 0.116122 0.286883 0.023009 0.318407 0.032932 0.149879 0.106738 0.809794 -0.201623 0.542364 0.995180 0.266491 -0.157380
smoke -0.275381 0.448314 0.226530 0.054705 0.025414 0.045767 -0.088348 0.208003 0.070007 0.075023 0.011464 0.180095 -0.873446 -0.510387 0.430460 0.436996 -0.164284 -0.252060 0.483236 -1.243481 -0.335647 -0.133990 -0.073309 0.736932 0.754018 0.224293 0.246253 0.880510 -0.421795 -0.155723 -0.267277 -0.051066 -0.522244 0.841240 -0.014890 0.526391 0.362501 0.263638 -0.551098 0.239045 -0.377029 0.292908 -0.171554 -0.548462 0.285070 -0.316605 -0.457110 -0.253322 0.004917 0.095341
straight 0.097018 -0.177671 0.037387 -0.080442 0.347363 0.152495 0.281480 -0.351400 0.060610 0.338188 0.149750 0.358996 0.026008 -0.186608 0.019662 0.105191 -0.113861 0.734786 0.120830 -0.427296 -0.135437 -0.051743 0.070649 0.279167 0.184728 0.310343 -0.055036 0.283495 -0.432518 -0.296179 0.411845 -0.467002 0.300905 -0.253050 0.288665 0.053138 -0.173847 -0.424812 0.013019 0.331964 0.282889 0.211278 0.863220 0.174267 0.078557 -0.179431 0.329153 0.319761 -0.034665 -0.370101
da -0.067921 -0.172975 0.413251 -0.207824 -0.312558 0.322723 -0.992884 1.226731 -0.075495 -0.594861 -0.488289 -0.955538 -0.451964 -0.651618 -0.048170 -0.050785 -0.338199 -0.596031 0.623160 0.174475 0.799032 -0.588148 -0.731790 0.218594 -0.461717 -0.267158 -0.176650 0.651419 0.747693 -0.368247 -0.913691 -0.335578 -0.652702 1.195025 -0.678946 0.618091 0.428399 -0.172771 -0.422688 0.361827 0.072700 0.151696 -0.474583 -0.412865 0.478301 0.084162 0.147561 -1.709035 0.105151 0.463930
dreams 0.532417 0.302785 -0.253554 -0.442894 0.350656 -0.002197 -0.775863 -0.523234 -0.055131 -0.911363 -0.192007 0.156148 0.653438 0.047612 -0.002739 -0.540982 -0.218389 0.890503 -0.362361 0.390915 0.010003 0.726118 -0.667336 -0.235634 0.122800 -0.998061 -1.104962 0.228057 -0.395545 0.314668 -0.110488 -0.262275 0.600673 -0.179561 0.504502 -0.543095 1.980427 -0.099365 0.505932 0.343854 -0.282927 0.305087 1.423761 -0.130004 -0.588919 -0.809616 0.935854 0.280756 -0.552172 -0.543285
house 0.168208 0.478439 -0.307535 -1.050683 0.552419 0.577765 -0.192236 0.161047 0.062456 0.665470 -0.293303 -0.132635 0.075063 0.520003 0.228953 -0.672749 0.251755 0.055024 0.423092 -0.768414 -0.119099 -0.743775 0.500916 0.039124 0.222531 0.362660 0.083034 0.096407 -0.117984 -0.000846 -0.314469 -0.581069 -0.348468 0.354432 0.146961 -0.897739 -0.358853 0.345966 -0.483134 -0.955811 0.641661 0.159667 0.438540 -0.203006 0.064193 0.759514 0.609252 0.023813 0.302339 -0.172709
thug -0.625650 -0.023862 0.140197 -1.114498 0.085756 0.315704 -0.331201 0.016191 0.160140 0.467680 0.278067 -0.653305 -0.384395 0.174999 -0.226783 -1.493633 0.592975 -0.111921 0.427791 0.328004 -0.115999 -0.475485 0.397028 0.140802 -0.022356 -0.537690 -0.290113 0.584481 0.312624 -0.166779 0.045567 -0.082186 -0.104448 0.625795 0.242747 -0.523471 0.117494 0.604467 -0.525474 -1.107225 0.549209 -0.543204 -0.396231 -0.577713 0.285219 -0.009044 -0.007957 0.327344 -0.261089 -0.173741
understand 0.494288 -0.292995 -0.712263 -0.253198 0.612665 -0.991168 -0.205981 -0.267965 -0.852876 0.097804 0.558958 0.218721 0.180565 0.427658 -0.444638 -0.392294 0.059378 0.358258 0.354561 -0.093100 0.395020 -0.066791 0.324708 0.281864 0.243664 1.133222 0.040521 0.105191 -0.859192 -1.090242 -0.439044 -0.882989 0.500241 0.017490 0.394778 0.402114 -0.548261 0.104625 0.460425 -0.467972 0.156849 1.544407 -0.746826 0.167931 -1.250098 -0.049449 0.100101 0.815027 -0.395561 0.299428
kill 0.227180 -0.453650 -0.454605 -0.542533 0.771852 -0.816674 -0.267394 -0.345370 -0.455526 0.240955 0.481175 -0.060540 0.046810 0.653267 -0.323583 -0.388187 0.141764 0.008373 0.671169 -0.262717 0.321542 -0.400036 0.489704 0.474444 0.248232 0.763560 0.132370 0.474466 -0.702030 -0.790260 -0.346288 -1.000351 0.477946 0.562554 0.758505 0.496418 -0.415433 0.464805 -0.015498 -0.301578 0.281511 1.430056 -0.594551 -0.114166 -1.339964 0.443426 0.068980 0.670781 -0.480524 0.663140
lookin 0.219310 0.519583 -0.357164 0.522669 -0.626065 0.257553 -0.235971 0.598829 -0.292397 -0.188576 0.820949 -0.270573 -0.584801 -0.943711 0.383913 -0.152824 -0.447335 0.400986 -0.009109 0.273981 -0.089157 0.067214 -0.315915 -0.228119 -0.745663 -0.014222 -0.223581 0.475314 -0.979041 -0.130983 -0.352766 0.252094 -0.763122 0.281582 0.060802 -0.951867 -0.702971 -0.221427 0.080956 -0.154402 -0.095751 -0.014645 0.909089 1.124630 -0.240334 -0.350723 0.232825 0.639261 -0.642281 0.678116
people -0.174009 0.269662 -0.215723 -0.680224 -0.248966 0.012210 -0.070747 -0.154625 -0.329815 0.087967 -0.751589 -0.322171 -0.463731 -0.350109 -0.297472 -0.057616 -0.411671 0.362451 0.186404 0.369909 -0.148201 -0.879125 0.429244 -0.272355 0.188633 -0.444657 0.756275 -0.487856 -0.672108 0.383797 -0.486477 -0.230876 0.039414 0.415571 0.668666 0.105633 -0.949756 -0.161467 0.242259 0.269365 -0.318596 0.272532 0.271521 -0.480459 -0.706067 0.352119 0.454780 -0.079320 -0.429676 0.013530
start -0.154643 0.126307 -0.437630 0.172895 -0.106658 -0.363406 -0.358004 -0.192012 0.026176 -0.467184 -0.193435 0.291084 0.414861 0.331886 0.537085 0.288175 0.618086 0.032756 0.501164 -0.314920 0.106561 0.549812 -0.440377 0.886606 0.625328 -0.492492 -1.107399 0.024316 -0.054919 -0.087030 -0.252888 -0.524135 -0.068638 -1.175397 -1.260862 0.214951 0.637342 0.149257 0.180125 0.385573 0.423544 0.458709 0.007245 -0.620249 1.169919 0.417938 0.231379 0.181933 0.353435 -0.480870
told 0.473883 0.027400 0.038148 -0.156742 0.095510 -0.530380 -0.333721 -0.368994 -0.312144 0.053521 -0.010389 0.158127 -0.284984 0.112414 -0.596819 -0.448601 -0.167824 0.287799 0.474767 -0.180438 0.324178 -0.327669 0.108210 0.242299 -0.270185 0.362617 0.178481 0.527133 -0.684264 -0.731831 -0.346343 -0.659078 0.144886 -0.411658 0.107027 -0.075410 0.057272 0.486971 0.418561 0.021526 -0.253302 0.443482 0.095573 0.305699 -0.615598 -0.121197 0.367813 0.184446 -0.186919 0.147423
care -0.551849 0.038860 -0.127712 -0.299482 -0.119557 0.170373 -0.214409 -0.151261 -0.160873 -0.486758 0.156966 -0.154562 -0.198129 -0.646714 -0.172861 -0.157152 -0.366094 0.713012 0.197813 0.355063 0.067050 -0.200621 0.045038 -0.206345 0.407374 -0.794350 0.611066 0.380436 -0.485775 0.087762 -0.214552 -0.462199 0.338329 0.264738 0.228123 -0.018684 -0.985868 -0.831067 0.469379 0.159862 -0.517403 -0.430698 0.816120 0.282727 0.064661 0.238186 -0.156478 0.391780 -0.096991 -0.052125
cold -0.065343 0.029138 -0.285022 -0.161112 -0.772082 0.085767 -0.487934 0.226914 -0.715723 -0.546709 -0.236649 -0.464298 -0.716217 -0.824956 0.054588 0.997776 0.194753 0.417102 0.607908 -0.243648 -0.053695 0.268191 -0.379661 0.189653 0.214150 -0.336654 0.760342 0.288192 -0.409278 -0.359149 -0.651793 -0.456369 -0.450064 0.343945 0.058193 0.154711 -0.580426 -0.668688 0.674695 0.674921 -0.813850 -0.057568 0.720683 0.755628 -0.667991 0.262310 0.476044 -0.120724 0.184272 -0.138645
motherfuckin 0.329287 -0.217860 -0.046539 0.411517 -0.086597 -0.294610 -0.610991 -0.178131 0.978784 0.328662 -0.123203 0.201634 -0.495940 0.758911 1.038654 -0.764857 -1.027304 0.818878 -0.146326 -0.035326 0.055205 0.875924 0.418023 0.051105 -0.079560 0.013268 -0.300995 -0.357315 -0.903847 -0.472808 0.283412 -0.082916 -0.516317 -0.268616 -0.395995 0.112229 -0.264729 -0.510128 -0.238626 -0.248216 0.438839 -0.536436 -0.288260 -0.260411 1.047753 -0.010291 -0.250978 1.044649 -0.169565 0.247873
word -0.223339 -0.132542 0.186151 -0.163827 -0.091175 0.326047 -0.328882 0.236927 -0.455724 -0.026524 -0.141066 0.122314 -0.686419 -0.231259 0.032462 0.167121 0.154417 0.261982 -0.073857 0.525498 -0.080686 -0.055344 0.333777 0.392320 -1.143447 0.041019 -0.189811 0.247152 -0.364547 0.153594 0.026154 -0.405985 0.052997 0.041577 0.534862 -0.208400 -0.048352 -0.162403 0.193648 0.272995 -0.208155 -0.168111 -0.059816 0.011782 -0.128399 -0.026615 0.260221 0.416941 -0.256943 -0.403650
wrong -0.010632 0.383849 -0.549645 -0.194125 0.264118 0.079952 0.109844 -0.141888 -0.626088 -0.564053 -0.059270 -0.035849 -0.653927 -0.023758 -0.730794 0.509782 -1.069864 0.571370 0.530275 -0.356248 0.534968 0.479340 -0.501752 -0.183880 1.088289 0.185675 -0.079045 0.699562 -0.338873 -0.495958 0.305828 -0.355085 0.383843 0.268315 -0.431144 -0.428531 0.455401 0.023674 -0.343730 1.031979 0.424634 0.651560 -0.032558 0.202218 0.122397 0.105888 -0.718517 -0.426973 -0.480349 0.332914
crossroads -0.302534 -0.456012 -0.259178 0.929561 -0.549700 -0.088138 0.742009 0.074559 -0.061523 -0.362930 -0.055738 0.492868 0.471627 -0.002552 -0.878792 0.444551 -0.094316 -0.947116 -0.853663 -0.492788 -0.160052 -0.709293 -0.352141 0.345013 -0.329393 0.154093 -0.202620 0.000034 0.357460 -0.226207 0.514098 -0.469847 0.030774 -0.891602 -0.274238 0.930837 0.635571 -0.488205 -0.730502 0.705375 0.381784 0.229952 0.072819 -0.313930 0.069987 -0.369337 -0.253236 -0.947753 0.332730 0.061504
pay 0.060107 -0.094350 -0.071727 -0.450448 0.402242 -0.095833 0.010524 -0.497981 0.030465 -0.310718 -0.319529 -0.081262 -0.259986 0.439313 0.019251 0.149487 -0.617404 0.224341 0.133250 -0.158351 0.245621 0.247050 0.058573 0.514907 -0.109620 -0.465983 -0.147761 -0.060394 -0.729452 -0.447400 -0.050149 -0.686809 0.527863 -0.375118 -0.051796 0.031332 0.050775 0.184790 0.120665 0.159826 -0.079134 0.400506 0.007898 0.057586 -0.110263 -0.000474 -0.246641 0.594019 -0.117024 -0.304373
relax 0.368757 0.039897 -0.331309 0.327317 0.098804 -0.635318 1.113740 -0.266510 -0.161645 -0.169305 -0.779924 -0.093689 0.134830 0.051008 0.091120 0.308759 0.569462 -0.317031 -0.287679 1.368846 -0.152553 0.227493 -0.783116 -0.683547 -0.826835 0.860822 0.556291 -0.417716 0.697383 0.818444 0.925527 0.554540 0.165554 0.048468 -0.406061 -0.699885 0.038537 -0.460424 -0.226136 1.355883 -1.000290 -0.157749 -0.438988 -0.497296 0.728732 0.256373 0.341168 0.760272 -0.063233 -0.557713
settle 0.280759 0.097080 -0.530847 0.456279 0.151932 -0.724565 0.917050 -0.307305 -0.278762 -0.201929 -0.770470 -0.110318 0.272455 0.261227 0.158598 0.154396 0.568382 -0.456022 -0.248924 1.544823 -0.086402 0.291638 -0.665126 -0.614497 -0.775828 0.908200 0.514964 -0.399937 0.871729 0.876153 0.835554 0.509151 0.086471 -0.009642 -0.330370 -0.519400 -0.167898 -0.610327 -0.106206 1.169693 -0.951595 -0.027458 -0.667312 -0.446231 0.653033 0.224828 0.140759 0.955750 -0.013900 -0.539287
stay -0.493843 0.194193 -0.062293 -0.249652 0.047624 -0.084071 -0.437939 0.073909 0.126230 -0.008479 -0.074124 0.550708 -0.621037 0.093646 0.441703 -0.134836 0.312252 0.466459 0.273027 -0.443214 -0.246326 -0.364178 0.294676 0.626640 0.240279 0.528677 -0.070994 0.732928 -0.235996 -0.476545 0.051396 -0.384704 -0.018327 0.129119 -0.191736 -0.112818 -0.234753 -0.430103 -0.166312 -0.010023 -0.011552 0.135324 0.149367 -0.224473 1.034690 0.180849 -0.478712 0.450148 -0.292592 -0.598717
twerk -0.350084 0.213349 -0.174774 0.626412 -0.368550 -0.398702 -0.471071 -0.161294 -0.028558 0.149086 0.371385 0.100987 0.611329 0.334794 0.514592 -0.498348 0.676959 -0.047665 1.073341 0.309810 0.614601 0.692577 -0.604783 -0.140762 1.467824 -0.174040 -1.046203 -0.321467 -0.012789 -0.114322 -0.078406 0.411113 -0.220965 -0.517368 -1.107733 -0.036175 0.167479 1.056963 0.130016 0.042951 0.512069 0.410297 -0.362362 -0.459802 0.908717 1.161189 -0.277271 0.050972 -0.091927 0.019496
bit 0.968603 0.301353 -0.482726 -1.085307 -0.015275 0.210430 0.114971 0.165810 0.084877 -1.011511 0.699138 0.380032 1.070499 -0.431404 -0.532996 -0.153577 -0.189608 0.930634 -0.081118 0.350975 -0.294353 -0.010477 -1.287880 -0.821474 0.252819 -0.425389 -0.686120 0.473089 -1.059037 0.535811 -0.360841 0.552733 0.665350 0.426124 -0.246388 -0.486131 0.519256 0.351171 0.741060 0.493703 -0.496780 -0.153555 0.672402 0.199229 -0.366178 -0.429852 1.447153 0.080535 -0.924305 0.163640
clothes 0.171617 0.081512 0.000445 -0.821303 0.688749 0.560842 0.045157 -0.171534 -0.559868 -0.714492 0.343988 -0.147907 -0.286734 -0.549709 -0.687327 0.702534 1.168439 1.369267 0.436539 -0.993510 -0.304562 -1.460536 -0.510654 -0.317167 0.103116 0.707055 0.010276 0.821346 -0.616590 -0.592000 0.058124 0.888698 0.316556 0.003471 -0.060620 -0.629313 0.150140 0.125518 0.133712 0.056013 -0.678781 -0.082120 -0.136530 -1.043245 0.798833 0.096284 0.836319 -0.038728 -0.518857 0.146503
drank -0.339353 -0.482266 0.321970 -0.196004 0.171989 -0.451835 0.140628 0.799147 0.071490 0.388176 0.448836 -0.450000 1.106792 0.259552 -0.062012 -0.309670 -0.183031 -0.946078 -0.910937 -0.207801 -0.144275 -0.008241 -0.558973 -0.786356 1.015011 0.009433 -0.039837 -0.281810 0.871236 0.176254 0.075712 -0.496597 -0.442120 0.696670 -1.279797 0.574918 0.958569 0.870585 0.100480 -0.490068 0.421131 -0.274640 0.060413 0.128483 0.443040 -0.011848 0.431447 -0.675359 0.404616 0.350422
gone -0.182873 0.271887 0.178118 -0.621620 -0.106597 0.089903 -0.623107 0.079923 -0.055030 -0.054126 -0.134263 0.205258 -0.954918 -0.473842 -0.580985 -0.380911 -0.014603 0.245568 0.551268 -0.040071 0.134370 0.433051 0.066816 -0.591595 0.533136 0.411057 0.417487 -0.323110 -0.478933 -0.501893 -0.032994 0.157031 0.229320 -0.353023 -0.240132 -0.628842 -0.797062 0.495088 -0.383073 -0.472038 0.673028 0.107677 -0.898718 -1.170029 0.516993 0.719213 -1.212378 0.560725 -0.432528 -0.015060
lot -0.734942 -0.347869 0.526557 0.144610 0.309746 -0.591178 -0.032483 -0.058049 0.088206 0.159222 0.092745 0.038178 -0.172652 0.148807 0.703767 -0.087580 -0.219983 0.044897 0.523349 0.183944 0.889747 0.859018 0.234503 0.487031 0.566335 0.281782 -0.898466 0.779544 0.221427 0.394698 0.295580 -0.137569 -0.598987 -0.109066 -0.925759 -0.200187 0.167097 0.906813 -0.258355 -0.226345 -0.434032 0.172559 0.530426 0.357718 0.184545 -0.071257 -0.675745 1.071899 0.880218 0.327340
swear -0.695133 -0.216976 -0.356490 0.111960 -0.081550 0.343556 -0.208174 0.009282 0.079485 -0.152729 -0.318385 0.584721 0.447167 -0.208732 -0.143947 0.190969 0.621163 -0.311165 -0.422185 -0.021143 0.006654 -0.618654 0.581221 0.641245 -0.428919 0.251717 0.004783 0.021663 -0.464659 -0.020024 0.195879 -0.763703 0.097424 -0.777812 0.372238 0.669885 -0.250129 -0.526160 -0.753702 -0.147260 0.382742 0.481024 0.418600 -0.423202 0.523892 0.030446 -0.287207 0.402196 -0.128774 -0.010322
ayyy -0.532530 -0.228971 0.101499 0.240684 -0.387773 0.132211 0.357287 -0.238005 -0.346420 0.189825 -0.913326 -0.425134 -0.413515 -0.430155 0.029766 0.335273 -0.019265 0.017822 -0.284369 0.566996 -0.046323 0.161983 -0.056118 0.008920 -0.206826 -0.326912 -0.121980 0.035253 0.213467 0.372384 -0.432313 -0.195326 0.463387 0.107241 0.517446 0.359162 0.175223 0.103254 -0.180238 0.290004 -0.177515 0.113665 0.276877 0.056655 -0.139907 -0.213136 0.391063 -0.337503 0.309611 -0.297203
brain 0.010503 0.326085 0.246042 -0.843420 0.082921 0.672104 -0.443375 -0.357535 0.251691 -0.709609 0.282232 1.066938 0.334211 -0.181049 0.805089 0.822889 0.173121 -0.269010 0.323702 -0.636518 -0.464939 0.361146 0.182027 1.108156 -0.091598 -0.479328 -0.537716 -0.469300 0.421736 0.163081 -0.391292 0.256670 0.091623 -1.031525 -1.502381 0.661276 0.571828 -0.453824 0.315169 -0.229456 0.711655 0.524865 0.051691 -0.254594 0.300147 -0.144422 0.138095 -0.277586 0.368861 0.486497
cash -0.385857 -0.223755 0.814163 0.135786 0.702884 -1.008636 -1.347678 0.386276 0.494600 -0.836122 -0.217789 0.063401 0.456062 -0.012515 0.030438 -0.917072 0.166652 -1.329220 -0.837226 -0.385961 0.671635 -0.590940 -0.045770 0.225966 0.147832 0.424574 0.084066 1.276923 -0.072284 -0.262827 -0.251836 -0.429052 0.194592 0.522344 -0.506349 0.662131 0.427665 -0.565920 -0.243415 0.302366 -0.696288 -0.281014 -0.136955 0.827906 -0.361174 -0.814314 -0.397410 -0.484498 -0.133740 0.503949
city -0.250447 -0.032221 -0.018704 -0.315045 -0.030127 0.183245 -0.325336 0.211700 0.441727 -0.030568 -0.190519 0.328702 -0.170765 -0.144527 -0.162254 -0.070945 0.190810 0.454290 0.152067 -0.358641 0.234475 -0.906928 0.422868 0.681347 -0.339560 0.668644 -0.025877 0.364055 -0.163146 0.412894 -0.302728 -0.259360 0.026439 0.168052 0.287749 -0.246181 -0.325302 0.086367 0.049901 -0.369724 0.612208 0.389848 0.635040 0.082008 -0.216184 0.226205 -0.191709 -0.045184 -0.113699 -0.039909
deep 0.300517 0.193291 0.738777 0.550521 0.348727 -0.133218 0.466099 -0.216235 -0.231813 0.463272 -0.557645 0.512926 0.047701 -0.253791 -0.326015 0.309592 0.524128 0.391734 -0.006127 0.438326 -0.328618 0.184771 -0.402727 0.484995 -0.392432 -1.133990 -0.781270 0.365639 0.054769 0.317412 -0.465272 -0.339096 0.835388 -0.481847 -0.145795 0.472444 0.243609 0.481304 0.433288 -0.154210 0.426485 0.604791 0.475825 -0.761225 0.741819 0.093092 -0.040369 0.192325 -0.524390 0.194292
g 0.185584 0.001868 -0.182461 -0.480569 -0.082312 0.165157 -0.363337 0.090801 0.018696 -0.639269 -0.371805 0.347399 0.460913 0.117917 -0.138725 0.261137 -0.287033 0.088293 0.307003 0.160742 0.428753 -0.003987 -0.144755 0.612432 -0.391642 0.011765 -0.423841 0.102148 0.099701 0.099514 -0.167642 -0.449176 0.271554 -0.145862 -0.102943 -0.043357 0.339219 -0.272427 0.568576 0.289648 -0.084246 0.336797 0.421288 -0.144933 -0.267748 -0.167050 0.193409 -0.167616 -0.028016 -0.477386
heard 0.390265 0.079443 0.044995 -0.102064 -0.294512 -0.070461 -0.222597 0.303050 0.361438 0.387722 0.132521 0.785060 -0.281911 0.437813 0.566256 -0.297466 -0.549757 0.528091 -0.412963 -0.188111 -0.493860 0.267937 0.569705 -0.041073 -0.453996 0.110605 -0.198681 -1.028984 -0.843364 -0.845870 -0.029186 -0.461726 -0.265846 -0.617494 0.029292 -0.378796 -0.287528 -0.600589 0.050862 0.068569 0.066981 -0.083808 -0.078873 -0.101108 0.774432 -0.182612 0.485915 0.732258 -0.494526 -0.142318
party 1.003042 -0.737249 0.316350 0.788966 0.470665 -0.013091 0.988716 -0.115096 0.722475 0.614104 0.934980 0.303084 0.067565 -0.620751 0.086733 -0.285382 -0.111076 0.890841 0.787594 0.444342 -0.071184 -0.584390 0.220401 -0.126448 -0.543980 0.764018 0.057362 0.608758 -0.354287 1.386309 1.285961 0.254156 1.023035 0.350352 0.171252 -0.229668 -0.673023 -0.432144 0.154288 0.193956 -0.150568 -0.395442 0.237583 -1.131104 0.341542 0.493849 0.370727 1.320397 -0.342826 0.710649
