like -0.723494 -0.949550 0.244778 1.161883 0.443127 0.067555 0.152145 1.051718 0.222326 0.032021 0.060036 -0.312236 0.143389 -0.016690 -0.020874 0.124461 0.476956 -0.099056 0.051485 0.305769 -1.119985 -0.723814 0.164730 0.179135 0.595649 0.643852 -0.437083 0.073444 0.951303 0.522133 0.438569 -0.340119 0.035627 1.009697 -0.677158 -1.362117 1.043986 0.373296 0.000381 -0.685841 -0.191070 0.828771 -0.166037 1.086188 1.299023 -0.721622 -0.616631 0.449532 -0.542235 -0.667095
got -0.807224 -0.239873 -0.074424 0.552047 -0.873316 0.567107 0.179543 0.300777 -0.743392 0.263777 0.756536 0.536423 -0.218365 0.710800 0.445112 0.281896 -0.157123 -0.152977 0.708226 0.101304 0.624347 0.814436 1.060848 -0.007806 0.308688 0.670088 0.299685 -0.455470 0.401996 -0.097435 0.820342 0.556784 -0.331350 0.447465 -0.272999 -1.069702 0.840332 0.098145 1.138891 -0.490591 -0.237586 0.054216 -0.520598 -0.190569 1.394907 -0.333603 -1.263419 0.054356 0.659023 0.440171
know -0.176416 -0.660723 -0.386322 0.727202 -0.151597 1.009992 -0.402116 0.401671 -0.454219 -0.041217 1.023416 -0.501934 0.259313 0.630092 0.073886 1.135768 -0.285612 0.461486 0.044756 -0.187708 -0.548329 -0.452331 0.019709 -0.393214 0.170198 0.173720 -0.514977 0.803691 0.538789 -0.320364 0.717849 0.018677 0.468545 -0.349877 -0.535819 -0.275009 0.248443 -0.316953 0.184276 -0.012316 -0.359455 -0.747847 -0.470626 0.718513 1.568144 0.048839 -1.039801 -1.397285 -0.423176 0.073418
nigga 0.127581 -0.057985 -0.618902 0.547782 -0.294548 0.519245 0.406163 -0.480450 0.107785 0.534422 1.118253 0.711534 0.832242 0.244236 -0.356376 0.476058 0.704405 -0.943979 -0.346010 0.752564 -0.582075 0.007892 -1.092185 -0.014872 0.732786 -0.166646 0.268264 0.468933 -0.736891 -0.073466 -0.058256 -0.676004 0.885767 1.341167 -0.581901 -1.031434 0.721287 -0.415496 1.169592 0.034800 0.868064 0.082324 -0.110030 0.319991 0.088975 -0.321317 -1.476160 -0.325969 -0.171893 2.162702
yeah 0.042166 -0.197594 -0.432690 0.455243 -0.472252 0.207096 1.005356 -0.695379 0.489100 -0.870221 0.453623 -1.263409 0.791715 0.190213 1.254410 0.330173 0.345753 0.317118 0.071183 -0.128857 0.048182 -0.931322 0.028295 -0.297078 -0.106575 0.035693 -0.720083 -0.153799 0.077985 -0.891442 0.226895 -0.095318 -0.544878 0.688129 -0.792685 -0.836735 -0.546129 -0.556790 1.278996 -0.851162 0.383444 1.079063 -0.160716 0.961432 0.579398 0.232959 -0.610929 -0.739541 -1.367823 0.101561
love -0.164553 -0.443272 -0.689805 0.532697 -0.228382 0.533811 0.422361 0.114651 0.194568 -0.744999 0.833405 -0.916113 1.446114 0.239237 -0.121198 0.358446 0.022821 -0.004832 0.928082 -0.591281 -0.163845 -0.590287 -0.971051 0.133390 -0.101965 0.887734 -0.822589 -0.086844 -0.327849 -0.178274 0.727537 0.299546 -0.896395 0.508855 -0.616324 -0.603116 0.111271 0.708921 0.903091 -1.868953 -0.573591 0.130221 0.473861 0.026685 0.762733 0.292605 -0.658648 0.003823 -0.733783 0.496881
bitch -0.559534 -0.682628 0.741009 0.432234 0.660979 1.001464 0.507986 -0.373036 0.261754 0.328040 0.777235 0.219093 0.185711 0.776437 0.242808 -0.691339 -0.319658 0.170180 -0.313893 0.014672 -0.320977 0.218309 -0.480078 -0.714862 0.413552 0.199129 0.788271 0.987751 0.697553 -1.402566 0.621551 0.266338 0.355545 0.369811 -0.701661 -0.508827 0.844267 0.746382 0.091322 -0.630620 0.932475 0.201094 -1.033286 0.641177 0.635647 -0.086021 -1.160107 0.029640 -0.670899 -0.967502
uh -0.596096 1.238111 -0.216148 -0.222917 -0.057716 -0.175724 0.615986 -0.611341 1.609879 0.327844 0.243167 -0.340738 0.152989 -0.658988 0.151406 1.123527 0.375376 -0.920123 0.932201 0.015033 -0.224057 -0.254164 -0.172457 -1.049855 -0.435703 0.560934 -0.278862 -0.492933 -0.079906 -0.190548 0.827923 0.063371 -0.329996 0.885787 -0.471226 -0.130986 -1.012766 0.084454 0.672032 -1.285130 -0.406499 -0.508261 0.339278 0.561550 0.633990 -1.523084 -0.883003 -0.789925 -0.406874 0.376095
oh -0.176620 0.530228 0.873455 -0.196768 -1.097602 -0.075011 -0.589302 -0.309458 -0.048900 -1.404151 0.468273 0.862770 -0.282998 0.992805 0.105192 0.656070 1.094196 0.221951 0.877447 0.307058 -0.333787 -0.164357 0.249199 -0.146472 0.417216 0.819445 0.202855 -0.666414 0.323356 0.002374 0.298515 0.125911 -0.770387 -0.219013 -0.787393 -0.401129 -0.040178 0.091054 0.388908 -0.185766 0.343120 -0.676815 0.328585 -0.473229 1.219223 -1.221411 0.242085 0.020417 0.013009 -1.119837
let -0.179891 -0.615179 0.747536 0.621315 -0.183478 0.071618 -0.304507 0.529919 1.180894 0.116861 0.514339 -0.110441 0.327858 -0.784421 0.214787 0.199448 -0.728499 -0.092990 -0.231766 0.877064 -0.331822 0.329796 0.420800 -0.260254 -0.269516 -0.917929 -0.039319 -0.791775 -0.549669 -0.529497 1.241893 -0.228660 0.724435 -0.061393 -0.910905 -1.124601 0.033704 0.729210 -0.138115 -0.525926 0.240042 -0.360261 0.876456 1.118705 0.596398 0.000318 -0.023889 0.099630 0.647122 -0.765877
way -0.292977 -0.397543 1.009973 0.155454 0.268451 0.234913 -0.112683 -0.743776 0.870887 -0.204951 0.139808 0.728013 -0.314561 1.745724 0.099806 -0.486139 -0.005906 0.162775 -0.730728 0.124922 -0.643101 -0.108611 0.238612 -0.749375 0.425332 0.423897 0.391715 0.735638 0.861205 -0.967595 0.296458 0.458394 0.299068 0.329909 -1.057957 0.232913 0.363346 0.683899 0.806553 -0.393558 1.432692 0.076830 -0.191659 -0.159384 1.095434 -0.606223 -0.862278 0.320850 -1.033772 -1.543459
wanna -0.281609 0.698063 0.958316 0.011729 -0.664449 0.037717 -0.514513 -0.098814 0.619656 -0.329740 0.282822 0.228155 0.643378 0.757636 0.594244 0.848186 0.069647 -0.894657 0.265941 0.062050 -0.661089 -0.324785 1.291305 -0.225215 0.027776 -0.014777 0.184969 -0.060675 0.356477 -0.373885 0.589079 0.742958 -0.309171 0.404604 -0.301739 0.323264 -0.146166 0.044167 1.017931 -0.058892 0.072352 -0.154708 0.466703 -0.238353 1.168252 -0.837449 -0.496464 -0.505654 -0.061754 -1.127545
girl -0.005243 -0.772302 0.001374 0.332608 -0.859245 -0.304796 -0.651601 -0.003617 0.636147 -0.994771 1.121826 -0.391226 0.775659 0.624818 -0.235916 0.477666 -0.917221 0.288092 0.450118 -0.273821 -0.461846 0.053124 -0.038973 -0.213041 -0.170576 0.565891 0.268917 -0.243730 0.008973 0.007416 0.451660 0.654050 -0.235142 -0.186773 -1.336651 -0.670748 0.769857 0.591102 0.186012 -0.634656 0.246459 -0.482873 1.011193 -0.441615 0.178294 -0.272428 0.066546 0.557495 -0.397923 -0.322598
ai -1.149104 -0.665406 0.573459 0.597430 -0.024996 0.282167 0.411583 0.602406 -0.424769 0.371576 0.127530 -0.107363 0.742379 0.080228 0.261546 0.323988 -0.051814 -0.440322 0.026473 0.130873 -0.733396 0.184355 -0.396481 -0.148342 0.319534 0.114927 0.373030 0.107726 0.311291 -0.549126 0.644298 0.352537 0.522068 0.385917 -0.080130 -0.736342 1.032107 -0.238481 0.684926 -0.096310 0.097588 -0.496540 -0.511292 0.415418 0.483675 -0.210575 -0.354200 -0.140403 -0.187647 0.592476
shit -1.164040 -0.002937 1.443180 0.277809 0.461324 0.276845 -0.288472 0.372551 0.057567 0.781754 -0.392716 0.276322 0.629408 -0.864130 0.403142 0.160147 1.502289 -0.678390 0.797024 0.419982 -0.838339 -0.471618 -0.734760 -0.249926 -0.472032 -0.464684 0.373838 -0.233672 -0.002504 -0.790202 0.857294 -0.194447 0.471004 0.113301 0.302233 -0.318026 0.794792 -0.200996 0.404772 -0.219717 0.184357 -0.679544 -0.392195 0.576411 0.896026 -0.518558 -0.420565 0.038799 0.325375 0.128315
ooh 0.114959 -0.659104 -0.394760 -0.098212 0.712896 -0.558961 0.841829 -0.258359 0.480011 -0.759007 0.054613 -0.971417 -0.001924 -0.496018 0.274982 -0.212234 -0.388457 0.702408 -0.164615 0.450470 -0.945297 -0.339258 -0.530764 0.128622 -0.325488 0.298295 -0.185165 0.682679 0.833237 -0.005281 0.103218 -0.617695 1.206136 -0.159467 0.236903 -0.350619 -0.903895 -0.051431 -1.115657 0.123585 -0.477726 -0.867515 -0.555382 0.440768 -1.290481 0.402154 0.765905 -0.614761 -0.445366 0.257284
niggas -0.347356 -0.035633 0.371307 -0.146359 -0.009013 0.493119 0.235765 0.553373 -0.465991 0.431892 -0.041697 0.307077 0.994529 -0.122647 -0.095443 0.234187 0.192280 -0.600067 -0.209598 -0.172335 -0.410614 -0.782074 -0.493089 0.015015 -0.091841 -0.188164 -0.208337 0.257669 0.266408 -0.448341 0.454132 0.465768 0.262563 0.415045 -0.300161 -0.393785 0.925825 -0.526882 0.765637 -0.387626 0.232050 0.610147 -0.251389 0.321856 0.312830 0.035057 -0.619182 -0.648171 -0.286964 0.411331
ass -0.940543 -0.027071 0.634679 -0.006942 0.145528 0.866640 0.609509 1.040163 -0.400610 0.581559 -0.548768 0.693775 0.933210 -0.742063 -0.589173 0.082512 -0.485853 -0.086229 -0.078844 1.016406 -0.051409 0.142458 -0.616637 0.633851 0.585068 -0.204143 0.210016 -0.742337 -0.144927 -0.283999 0.345444 -1.076156 -0.106078 -0.035594 0.166739 -0.808219 0.438028 -0.093016 0.744900 0.119279 0.080334 0.091880 0.111288 0.553060 -0.185901 -0.498482 -1.080787 -0.040857 -0.279556 -0.298899
dem -0.261639 -0.663577 0.052138 -0.784137 0.341035 -0.629824 -0.104153 0.151641 -0.312169 0.418311 0.572696 0.861806 -0.836908 -0.198431 0.006499 -0.512395 0.656146 0.602365 0.303713 -0.516726 0.189228 0.456298 -0.328008 -0.296823 0.067720 0.720503 -0.157207 0.082863 0.735325 0.327128 -0.358876 0.740338 -0.001907 -0.125652 0.216466 -0.247778 0.902052 -0.097550 -0.653744 0.152706 0.258321 -1.032751 -0.569605 -0.446555 -0.492404 -0.381923 0.169654 0.286831 -0.269589 0.490417
need -0.060058 -1.059663 -0.068818 1.217431 -0.817638 1.256814 -1.029711 -0.298263 -0.327592 0.004307 0.221392 -0.885481 0.149989 0.739279 0.583254 0.698977 0.246298 0.447111 -0.362104 0.093798 -0.010782 0.043560 -0.064994 -0.759737 -0.138967 -0.094937 0.594073 -0.511565 -0.425038 0.055502 -0.416585 -0.973079 0.175956 0.028523 -0.100526 -0.696724 0.159046 -0.097036 0.931206 0.105232 -0.052636 0.069834 0.123555 0.105868 1.223585 -0.363331 -0.651006 -0.140386 0.089682 0.073999
right -0.692949 0.024687 -0.043129 0.462439 -0.924924 0.231938 -0.643313 1.042945 -0.425779 -0.719552 0.155665 -0.622640 -0.343215 1.182046 0.203974 0.456233 -0.898114 0.647401 0.440528 0.095665 -0.162663 0.444636 0.666289 0.507839 0.418705 0.267021 0.002721 0.358400 0.257015 -0.537007 0.448821 0.585110 0.202782 -0.365073 -0.081045 0.297874 -0.044024 -0.505043 0.992293 0.365707 0.070069 -0.887772 -0.222115 -0.240593 1.315235 -0.202554 -0.930933 -0.955344 0.157173 -0.601165
chick 0.329998 -0.774070 -0.137073 0.178498 0.510325 -0.836445 0.236809 -0.089887 0.483139 -0.675635 -0.934748 -0.071364 -0.506590 0.161941 0.434363 -1.199408 0.276949 -0.101892 0.279602 -0.216922 -0.762469 0.591317 1.512778 -0.427305 0.254990 0.370249 -0.216647 0.258721 -0.008747 -0.488433 -0.648574 0.983998 -0.600526 -0.038323 -0.321273 0.761477 0.615312 -0.200831 -0.599962 0.828059 0.226321 -0.138033 -0.223951 0.341201 -0.576339 0.543776 1.020046 1.038748 -0.471004 -0.546621
fuck -0.411443 -0.232551 0.304549 0.143455 -0.412844 0.471214 0.431782 -0.262688 -0.328631 0.001696 0.285860 -0.016649 0.664727 0.358022 0.456127 0.123785 0.618746 -0.222950 0.026873 -0.167283 -0.011729 -0.591597 -0.443419 -0.301551 -0.193416 0.012634 -0.070129 0.149232 0.224560 -0.691187 0.488981 0.185014 0.026005 0.668159 -0.456170 -0.526823 0.490669 -0.192690 1.180416 -0.693310 0.621991 0.564864 -0.415027 0.372074 0.856415 0.142059 -0.636485 -0.423932 -0.525081 0.201864
yi 0.034398 -0.530717 -0.128769 0.352807 -1.021848 0.003278 -0.567465 0.353953 0.236911 -0.466251 0.686164 -0.794086 0.194102 0.193804 0.111741 0.480429 -0.988026 0.339181 0.232215 -0.106645 0.459791 0.975771 1.259741 -0.106616 -0.134810 -0.272256 -0.010500 -0.547736 -0.532667 0.032062 0.251779 0.513561 -0.192109 -0.116419 -0.217807 -0.331315 -0.524676 0.409566 0.206588 0.046491 0.001354 -0.236179 0.608584 0.024689 0.640139 0.114010 -0.109049 -0.051937 0.387953 -0.311575
tell -0.959356 -0.904324 -0.002224 -0.167582 -0.315576 -0.024138 -0.015324 0.523252 -0.490265 -0.058169 1.198418 0.169347 0.426820 -0.109703 0.541520 0.115978 -0.342239 0.063255 0.464325 -0.357633 0.072382 0.533801 0.235107 -0.525477 0.114373 0.652852 -0.025482 0.235440 0.629883 -0.573336 0.623496 0.746052 -0.148341 0.182937 -0.667181 -0.363473 0.980440 0.126648 -0.027290 -0.266790 0.367806 -0.774576 -0.119304 0.162224 0.429421 -0.355184 0.012555 -0.219421 -0.504777 -0.018113
hot -0.311247 0.573873 0.677748 0.146660 0.066305 -0.109549 -0.349887 -0.247446 0.867515 -0.067933 -0.152898 0.014345 0.517484 -0.830916 0.135966 0.502838 1.457286 -0.243867 1.766598 0.033595 -0.336850 -0.440587 -0.322262 -0.486752 -0.820466 0.288826 -0.408839 -1.033860 -0.917026 -0.223477 0.570447 -0.165046 -0.641891 0.487395 -0.232143 -0.283090 -0.302654 0.557824 0.314414 -0.846440 -0.401218 -0.639995 0.676589 0.592598 1.048349 -1.012808 -0.287062 0.189991 0.031751 -0.592804
baby -0.179342 -0.245594 0.245762 -0.322256 -0.581965 -0.334620 -0.612107 -0.315784 0.915980 -0.164543 -0.217284 -0.063438 -0.085322 0.102259 -1.003847 0.213815 0.209561 0.279288 0.024699 0.140315 -0.327299 0.398001 -0.892768 -0.756831 -0.537354 -0.018184 -0.082323 -0.580678 -0.066409 -0.313646 0.715932 -0.129371 0.071616 -0.283627 -1.141505 -0.707079 0.449773 0.469113 0.392735 -0.611965 0.725427 -0.088372 0.420197 -0.173270 0.472683 -0.762225 0.209611 0.648442 0.097619 0.289819
hoes -0.889733 0.463148 -0.072431 -0.205993 0.132935 0.672586 0.734392 0.354878 -0.001494 0.229845 -0.397491 0.521313 0.335634 0.207689 0.599665 -0.397063 -0.823766 -0.361213 0.373999 0.607450 0.420018 -0.002459 0.313914 0.539983 0.971908 0.302288 -0.349227 0.030095 0.949074 -0.205125 0.832655 0.001543 0.448769 0.094831 0.508100 -0.328267 0.481047 0.173779 0.920623 -1.002726 -1.379775 0.218843 -0.850594 -0.254075 0.546197 0.069257 -1.123364 -0.656708 0.776698 0.805817
yo 0.295134 -0.176322 0.565447 -0.091793 -0.338896 0.419576 0.522855 0.193982 -0.322276 -0.303930 -0.350271 0.449094 0.332444 -0.372986 -0.719727 -0.228660 0.127418 0.552310 -0.352643 0.678956 0.401613 -0.133141 -0.358909 0.568787 0.348736 -0.178862 -0.101146 -0.539835 -0.123714 -0.242507 0.082334 -0.869336 -0.419017 -0.361047 -0.293453 -0.850110 0.399048 -0.160850 -0.051782 0.352532 0.350561 0.526267 0.311609 0.982748 0.048850 0.025912 0.224262 0.144936 -0.246707 -1.055862
mi -0.353817 -0.439518 -0.507858 -0.291806 0.007366 -0.795933 0.025466 -0.235525 0.282721 -0.275199 1.062953 0.190030 0.165733 -0.725189 0.267092 -0.248431 -0.477632 0.360566 0.601864 -0.278930 0.708147 0.639460 -0.385679 -0.561005 -0.395938 0.581441 0.087040 -0.230763 -0.177852 0.015550 -0.168226 0.229710 -0.122538 -0.041254 -0.514564 -0.318029 0.496239 0.372076 -0.792084 -0.354612 -0.055231 -1.401408 0.620121 -0.339165 -0.814426 -0.349774 0.998153 0.238238 -0.077216 0.416577
bitches -0.044785 -0.596898 -0.632540 0.398493 -0.378938 0.644808 0.623222 0.002745 -0.475145 -0.363785 0.240856 -0.601884 1.177136 0.231729 0.489499 0.145502 -0.129580 0.355969 0.500881 -0.510804 0.342709 -0.595084 -0.365703 0.085413 -0.399969 0.340515 -0.503111 0.076279 -0.286096 -0.522194 0.195276 0.350104 -0.734774 0.308170 -0.355912 -0.396649 0.282290 -0.209382 1.218185 -0.781900 -0.100528 0.931483 -0.157930 0.244978 0.487881 1.117902 -0.951423 -0.603072 -0.792975 0.473269
day -0.860114 0.524835 -0.672264 0.031658 0.113883 -0.033896 0.765549 -0.844425 0.898596 0.649077 0.260497 -0.115380 -0.070111 -0.377040 -0.133782 1.209418 -0.484644 -0.211084 0.398103 -0.359959 0.251770 -0.105647 -0.350012 -0.791688 -0.568652 1.124536 0.219454 0.273358 0.253247 0.486689 0.435407 0.382768 -0.605736 0.844731 -0.177080 0.141465 -0.506333 0.415726 0.213289 -0.907605 -0.570680 -0.012607 0.289583 0.062363 0.423687 -0.518121 -0.788783 -0.512511 -0.592784 -0.104816
come -0.272458 -0.183706 0.024166 0.121555 -0.287806 0.232280 -0.114349 -0.162990 0.472692 -0.165873 0.462471 -0.430555 0.496603 0.113242 -0.124364 0.184099 0.468385 -0.241460 0.128630 -0.305114 -0.349474 -0.450006 -0.865396 -0.461122 -0.202295 0.044495 -0.077967 -0.059678 0.150083 -0.358088 0.434377 0.054502 -0.018053 0.320457 -0.554546 -0.732020 0.335129 0.194577 0.577399 -0.895653 0.250826 0.231559 -0.048545 0.176542 0.601441 -0.226516 -0.322993 0.113730 -0.275146 0.712454
di 0.124983 0.147548 -0.058095 -0.432137 0.051500 -0.375692 -0.028982 -0.136587 -0.210467 0.188719 0.361391 0.601545 -0.219911 -0.354576 -0.332079 -0.107019 0.533574 0.322680 1.096788 -0.477776 0.470175 0.451146 -0.154649 -0.058183 -0.374755 0.526386 -0.205745 -0.606011 -0.231252 0.543443 -0.273911 0.311447 -0.631403 -0.009194 0.214404 -0.195622 0.177078 0.309233 -0.532963 -0.213790 -0.391342 -0.748977 0.081824 -0.315740 -0.336968 -0.400796 0.051139 0.277714 0.179968 0.543535
good -0.442108 -1.043947 0.183885 0.759151 -0.839965 0.211414 -0.069227 -0.078276 0.341816 -0.630557 0.663197 -0.457139 1.063371 0.085781 0.383224 0.305149 -1.131940 0.208382 0.038973 0.169582 -0.209599 0.166514 -0.273404 -0.246016 -0.344058 -0.099705 0.835292 -0.400186 -0.324806 -0.267277 0.095878 -0.072430 0.245330 0.038095 -0.894852 -1.104378 1.040627 0.087527 0.738367 0.093579 0.305598 0.237600 0.614511 0.071925 -0.015838 0.029353 -0.417191 -0.054981 -0.295087 0.164146
money -0.198903 0.121443 1.316427 -0.077763 -0.313987 0.143186 -0.205600 -0.311494 -0.133546 0.091080 -0.200274 0.729059 0.623582 1.081420 0.769905 0.287661 0.778905 -0.840500 -0.543172 -0.038230 -0.678400 -0.777232 0.512547 -0.175659 0.120425 0.008019 0.002616 0.114410 0.914898 -0.494601 0.207989 0.001631 0.348298 0.565412 -0.099067 0.347757 0.328436 -0.415933 1.129274 0.005976 0.268697 0.153464 -0.196340 -0.494830 0.881750 -0.545025 -0.413502 -0.567791 -0.335907 -0.495148
ah -0.121901 0.109149 -0.034978 0.452840 0.154138 -0.661055 0.097286 0.178663 0.664428 -0.233837 0.666879 -0.200700 0.483581 -0.322422 -0.304193 0.305123 -0.903084 -0.345262 0.388892 0.062175 0.434906 0.345396 0.997990 -0.719882 -0.253967 -0.203287 -0.779378 -0.687658 -0.641426 0.231138 0.551097 -0.101181 -0.535742 0.073602 -0.843344 -1.222041 -0.437869 1.080724 -0.378030 -0.925608 -0.280733 -1.402429 1.112311 1.016876 0.358784 -0.663682 0.871333 0.237747 0.467727 0.029286
gon -0.546980 0.385609 0.046729 0.116677 -0.191296 0.203854 0.103974 0.708271 -0.461215 0.018441 0.238686 -0.304016 1.066359 0.052902 0.484867 1.192660 0.261359 -1.252344 -0.732331 0.342766 -0.822305 -0.907057 0.196444 0.026687 0.776789 -0.066590 0.637156 0.806604 0.570294 -0.219196 0.541729 0.573684 -0.266210 0.250986 0.245984 -0.152671 0.360832 -0.456114 0.232345 -0.053396 -0.296015 0.311802 -0.271901 0.405911 0.376427 -0.172477 0.773507 -0.469005 0.075035 -0.001245
want 0.127200 -0.135448 0.342897 -0.157097 -1.120588 0.662939 0.196381 0.236314 -1.157541 -0.568815 0.394065 0.042117 -0.038440 0.081628 -0.169330 0.887395 1.090826 0.097517 0.165543 0.187594 -0.284644 -0.165389 -0.399912 -0.043486 0.704014 -0.069122 0.032086 -0.301299 -0.176214 0.017188 0.733199 -0.246092 -0.598037 -0.072317 -0.487683 -0.643761 0.046904 -0.171583 0.315569 -0.169703 0.396561 0.459330 0.326578 0.741495 0.878027 -0.010880 0.374508 -0.312820 -0.261769 -0.516217
feel -0.168571 0.499944 0.570210 -0.013847 -0.554501 -0.282120 -0.150277 0.055214 0.518856 -0.565147 0.288339 -0.054963 0.153350 0.267439 1.126342 0.359935 0.361858 -0.630793 -0.232875 0.175056 -0.757724 -0.749018 1.140308 0.023233 0.246879 -0.298447 0.094706 -0.028176 0.487943 -0.511916 0.323892 0.548888 -0.457611 0.365852 -0.506059 -0.204386 -0.144325 -0.357723 0.652325 0.044281 0.370201 0.609935 0.191776 0.239104 0.635566 -0.651732 -0.019368 -0.228033 -0.312369 -0.769908
ya -0.595981 0.455837 0.906234 0.213171 -0.461598 0.142741 0.079839 0.626134 0.295288 -0.277307 0.489248 0.527541 0.590695 -0.018055 -0.023126 0.199504 -0.704955 -0.041000 0.299703 0.618282 -0.002367 0.450193 1.214949 0.234665 0.356648 -0.246158 0.094180 -0.801976 -0.083781 -0.431381 0.634263 0.112769 -0.632917 -0.241601 -0.528004 -0.751108 -0.077015 0.215836 0.610148 -0.003415 0.339037 -0.205502 0.616649 0.396698 0.569845 -1.018727 -0.798525 0.001961 0.130053 -1.005168
man -0.287226 0.216743 0.145817 0.381014 -0.056359 0.218057 0.456740 -0.044623 -0.748999 0.324027 0.530925 0.486075 -0.267281 0.453929 -0.369282 0.642742 1.164104 -0.216001 0.567340 -0.133087 -0.075348 0.129177 -0.213550 0.097444 0.205656 0.753925 0.275606 -0.285444 0.335549 0.549271 0.276466 0.541973 -0.558482 0.702153 0.009217 -0.712753 0.358095 -0.306238 0.031108 -0.244439 -0.032322 0.790231 -0.397614 -0.204637 0.634928 -0.266128 -0.462652 0.239130 -0.140366 0.046838
o 0.692259 -0.273506 -0.612986 -0.532547 -0.273953 -1.191803 -0.017860 -0.376212 0.749722 -0.314518 0.685755 -0.665537 -0.235319 -0.264778 0.021952 0.117178 -0.718770 0.008452 -0.407916 -0.674491 0.031836 -0.228900 0.174066 -0.249111 -0.381178 0.123644 -0.471176 0.011541 -0.076367 0.367509 -0.170172 0.745930 0.068307 0.164845 -0.764846 -0.240553 -0.655244 0.249174 -0.820942 -0.530918 0.319739 -0.597267 0.831347 0.066129 -1.022549 0.362674 1.101909 0.361627 -0.406491 0.440756
think -0.518654 -0.301190 -0.388589 -0.023468 0.867493 0.472678 0.427349 0.221256 -0.245184 -0.041923 -0.109355 -0.796751 0.236392 -0.206002 0.707150 0.854243 -0.190139 0.718609 -0.173655 0.395804 -0.353522 -0.340980 -0.317699 -0.301127 0.644760 0.235386 -0.832122 0.122557 0.922422 -0.405777 0.233029 -0.755363 0.697385 -0.536095 -0.003586 0.188147 -0.233812 -0.339086 0.354942 -0.256007 -0.708851 -0.400201 -0.660135 0.402789 0.092091 -0.370618 -0.737432 -1.046611 -0.754812 0.379983
club 0.392493 -0.444735 -0.004206 0.012699 0.120627 0.786388 -0.031268 0.557168 -0.583256 0.568453 0.204515 0.443488 0.691314 0.308546 -0.291314 0.221005 0.260642 -0.306086 0.253703 -0.512205 -0.201413 -0.685039 0.292464 0.164748 -0.121153 -0.116728 -0.588818 0.288068 0.424230 0.420068 0.196058 0.031448 0.159867 -0.183828 0.279485 0.033086 0.339680 -0.143877 0.141855 0.023360 -0.636734 0.221281 -0.383545 0.118972 0.580683 0.311408 -0.647848 -0.745270 -0.158622 0.654186
time -0.433825 -0.083883 0.113650 0.443314 -0.204653 0.343495 -0.149616 0.140059 -0.378165 -0.021607 -0.013266 0.394036 -0.028078 0.905759 -0.180019 0.506357 0.387383 -0.076123 0.030398 0.139218 -0.512612 -0.071451 0.258403 -0.116061 0.396231 0.454508 0.030552 0.219023 0.276512 -0.017686 0.184237 0.061542 -0.090503 0.193458 -0.283739 -0.078235 0.343733 -0.123523 0.857466 0.053613 0.275672 -0.058547 -0.081559 0.085044 1.030853 -0.400906 -0.705842 -0.179748 -0.446346 -0.244658
gettin -0.555051 0.627200 0.957833 0.015687 0.230802 -0.053152 -0.418981 -0.087298 0.739330 0.320530 -0.363572 0.170621 0.392761 -0.975091 0.486359 0.286769 1.904252 -0.582387 1.419735 0.339411 -0.698414 -0.473515 -0.731220 -0.337374 -0.666269 -0.102483 0.086781 -0.665955 -0.538745 -0.407287 0.466487 -0.343425 0.139391 0.277742 0.272331 0.005114 0.023657 -0.034758 0.359017 -0.483371 -0.224380 -0.875594 0.160333 0.190138 0.664785 -0.875253 -0.231300 0.125330 0.356083 0.059582
look -0.368972 -0.037959 0.215742 0.145831 -0.082077 0.021546 0.513779 0.231335 -0.220241 0.102090 -0.195973 0.062380 0.183845 0.061402 0.185043 0.030299 0.165845 -0.215496 0.161319 -0.090657 -0.513465 -0.092066 -0.032825 -0.100985 0.004171 0.167152 -0.128208 -0.051267 0.314590 0.121145 0.083875 0.186205 0.075136 0.453586 -0.182972 -0.248237 0.574655 -0.256333 0.595426 0.118162 0.260928 0.181787 -0.249798 0.057441 0.292865 -0.268813 -0.301399 0.087358 -0.323777 0.182848
shake -0.933098 0.041507 0.828522 0.521297 0.472359 -0.165463 0.716752 0.749202 0.166521 0.290384 -1.400140 0.449020 0.266536 -0.711077 -0.936479 -0.530517 -0.179791 0.343186 -0.602457 0.694105 0.094260 -0.224748 0.134100 0.621951 0.397778 0.041686 -0.617373 -0.537428 0.260878 0.437945 -0.281341 -1.124873 -0.433613 -0.145202 -0.051830 -0.696983 0.757692 -0.374072 0.423157 0.515518 0.430029 0.502488 0.318645 0.968634 0.232657 -0.770600 -0.498348 0.788068 -0.465804 -0.793027
swerve 0.746689 -0.047609 -0.714153 -0.106522 0.018558 -0.257492 -0.112069 -0.198864 0.022821 -0.313023 0.179310 -0.354351 0.062069 0.004717 -0.545317 -0.329655 -0.728832 0.294818 0.022684 -0.181100 0.459073 0.364835 -0.316108 0.198618 -0.245042 -0.106527 0.019583 0.003746 -0.480109 0.247134 -0.271663 -0.054294 -0.035189 -0.466455 -0.009327 0.424822 -0.265002 0.300098 -0.448685 -0.039940 -0.160715 -0.087792 0.370319 -0.449164 -0.741058 0.620355 0.388140 0.339315 0.245468 0.555874
til -0.242997 -0.102311 0.544846 0.555828 -0.134598 0.364852 0.045484 -0.927806 1.453662 -0.465150 1.367444 -0.313005 0.446737 -0.101539 0.178891 0.662443 -0.950900 -0.038007 0.346604 0.240167 -0.233612 0.042027 -0.527963 -0.333062 -0.609165 -0.285192 1.440559 0.512450 -0.098301 -0.104232 0.773498 0.214384 0.295200 0.380785 -0.709668 -0.713414 0.018321 0.903717 -0.667097 -0.378633 -0.023440 0.707239 0.176595 0.009296 0.108537 0.220355 -0.682960 -0.038262 0.048491 -0.772721
turn -0.532265 -0.213984 0.566406 0.237585 -0.963232 -0.164739 -0.485929 -0.187766 0.534362 -0.979076 0.826260 -0.279121 0.650616 0.276835 0.502580 1.076213 -1.140391 -0.296751 -0.526880 0.447947 -0.381616 -0.356939 0.517718 -0.067729 -0.103824 -0.535760 1.187661 0.484456 0.292689 -0.333641 0.406075 0.468763 0.007024 -0.294336 -0.739450 -0.502928 0.451418 0.150970 0.006122 0.527318 0.433434 0.136605 0.389919 0.022447 0.230880 -0.156452 0.460843 -0.141664 0.049678 -0.889552
lyrics -0.200469 -0.174622 0.149636 0.499664 0.209176 0.067923 0.296096 -0.089531 0.119742 -0.240603 0.166628 -0.076325 0.431588 0.292746 0.325613 -0.131169 0.131043 -0.141474 0.464369 -0.106716 -0.397354 -0.219456 0.365747 -0.345611 -0.049377 0.284198 -0.450982 -0.039092 0.162724 -0.316026 0.247562 0.115029 -0.375858 0.299992 -0.361359 -0.269325 0.180317 0.258692 0.387062 -0.463564 -0.134215 -0.036107 -0.014115 0.438791 0.751798 -0.327589 -0.330979 0.035471 -0.374203 -0.120311
pussy 0.637697 0.094220 0.508795 0.253168 0.852273 0.962305 0.116215 -0.114569 0.129621 0.237422 0.600561 0.715373 0.626665 0.520069 -1.028724 -0.172816 0.046972 -0.907958 -0.030195 -0.310284 -0.609386 -1.154152 0.029717 0.477522 -0.150797 -0.396448 0.415072 1.052649 0.821790 0.411188 0.159246 -0.064798 0.128084 -0.018728 0.409449 -0.182342 0.000637 0.329528 -1.353982 -0.109603 -0.648732 1.232933 -0.568488 -0.043206 -0.130420 0.381147 -0.681672 -0.313895 0.232769 0.414652
fuckin 0.094345 -0.715121 -0.436738 0.858282 -0.540621 1.125711 -0.348693 -0.507840 -0.375691 0.242521 0.420244 -1.185713 0.201078 0.531259 0.497278 0.518387 0.284615 0.295408 -0.290673 -0.441571 0.569613 -0.135487 -0.241378 -0.906747 -0.272444 -0.035942 0.525223 -0.176968 -0.305891 -0.088325 -0.403120 -0.293251 -0.157624 0.706433 0.094949 -0.525089 -0.136152 -0.135943 0.566647 -0.310189 -0.108403 0.270008 -0.469112 0.281260 0.946277 -0.106682 -0.337413 0.037925 -0.102874 0.391058
head 0.386991 -0.728688 -0.182155 0.688767 0.049432 1.094574 -0.340362 0.076571 -0.563201 0.237662 0.267106 0.400325 0.183292 0.933576 -0.766257 0.364269 -0.497231 -0.215753 -0.673669 -0.291904 -0.073296 -0.633016 0.949339 0.135349 0.063740 -0.548385 -0.211676 0.648601 0.134913 0.430385 0.024171 -0.512130 0.301555 -0.421608 -0.270428 -0.199787 0.159470 -0.225647 -0.140914 0.593709 -0.143542 0.786930 -0.154091 0.244770 0.574827 0.368574 -0.794543 -0.505252 -0.105289 0.537884
b 0.526890 -0.172050 -0.173784 0.342869 1.140335 0.271316 0.381484 -0.516763 0.554428 -0.109685 0.589423 -0.047192 0.053018 -0.061472 -0.988678 -0.587318 -0.151707 -0.209569 0.138638 -0.755091 -0.138506 -0.631570 -0.340443 0.256950 -0.461479 0.191795 0.110939 0.814601 0.453583 0.869840 -0.374783 0.100466 -0.586696 0.334125 0.464438 -0.079660 -0.566119 0.979096 -1.891713 -0.614802 -0.674314 1.248826 -0.239005 -0.114998 -0.706484 0.539808 -0.329758 0.495161 -0.038242 0.233200
bad 0.152190 -0.779627 -0.344528 0.368360 0.424130 -0.631220 0.588727 0.036062 0.356761 -0.751604 -0.905034 -0.228914 0.028352 0.136720 0.398309 -1.031503 0.258343 -0.082256 0.452164 -0.198803 -0.649725 0.431103 1.236257 -0.256765 0.297347 0.594608 -0.423472 0.073257 -0.158145 -0.659232 -0.547585 0.855437 -0.887358 0.190847 -0.399681 0.451810 0.762985 -0.339783 0.050870 0.554471 0.126926 0.150012 -0.216592 0.498840 -0.364742 0.633964 0.516949 0.803999 -0.801717 -0.312101
dat -0.407157 0.229883 0.167580 -0.106886 -0.115244 -0.006393 0.431339 0.391576 0.059929 -0.039342 -0.571022 0.520396 0.340670 -0.718329 -0.727824 -0.313152 -0.387388 0.552894 0.025990 0.397564 0.509389 0.346060 -0.034896 0.443489 0.115714 -0.012168 -0.394705 -0.907046 -0.307104 0.127102 -0.215510 -0.899208 -0.521657 -0.479990 -0.066317 -0.447010 0.423271 -0.464869 0.244321 0.427301 0.128357 -0.112461 0.575110 0.372634 -0.387752 -0.605191 -0.353425 0.375456 -0.315775 -0.297342
ayy -0.013167 1.086861 0.984626 0.081750 -0.003308 0.158108 -0.234593 -0.420552 1.106681 -0.146422 0.767317 0.092444 0.276894 -0.147568 0.708394 0.142506 0.524032 -0.515124 1.409344 0.000930 -0.528045 -0.302250 0.490444 -0.023536 -0.593245 -0.150948 0.905204 0.032367 -0.181344 -0.627146 0.720867 0.613023 -0.495699 0.280414 -0.116366 0.077062 -0.269015 0.626211 -0.153564 -0.499062 -0.389285 0.237060 0.112366 -0.132063 0.545316 -0.669661 -0.728540 0.044200 0.390238 -1.096153
gyal 0.112776 0.384430 -0.037986 0.074857 -0.769049 -0.393528 -0.117122 0.314307 -0.188199 -0.725491 0.084382 0.252255 0.149122 0.003729 0.175416 0.302408 -0.074250 -0.427896 -0.008421 0.386369 0.195170 0.044913 0.920414 0.136067 0.382210 -0.221144 0.219902 -0.057595 -0.210597 0.137096 0.067807 -0.036038 -0.348066 -0.453848 -0.043442 -0.251615 -0.010846 -0.052562 -0.372535 0.263568 -0.179040 -0.654837 0.491039 0.105738 0.091672 -0.217074 1.236787 0.061775 0.689640 -0.220463
huh -0.705175 0.214601 0.099327 -0.284725 0.515256 0.752509 0.837393 0.563854 0.307619 0.630420 -0.100121 -0.212093 1.049622 -0.583695 -0.453506 0.473132 -0.273043 -0.544519 0.349514 0.037303 -0.038425 -0.250738 -0.592423 -0.034177 0.252199 0.476637 -0.524841 -0.148212 0.397069 -0.099725 0.754022 -0.249463 -0.100803 0.288636 0.261679 -0.232724 -0.479366 0.416912 0.624556 -1.296640 -0.865824 -0.001484 -0.153532 0.334962 0.312094 -0.566940 -1.013960 -0.659315 -0.663900 0.307673
yuh -0.022448 0.168516 -0.293887 -0.047021 -0.122814 -0.167031 -0.346082 -0.066940 0.087275 -0.274845 0.623502 0.090608 0.065042 -0.147413 0.140519 0.034845 -0.164669 0.415861 1.358933 -0.339449 0.431484 0.404063 0.007453 -0.211070 -0.543506 0.566039 -0.288882 -0.368889 -0.433700 -0.038492 0.220291 0.298974 -0.445166 -0.100509 -0.485289 0.122854 0.013264 0.399560 -0.122579 -0.511831 -0.464707 -1.169095 0.522573 -0.260407 0.207372 -0.478911 -0.047314 -0.024902 0.130870 -0.037118
believe 0.725118 -0.136680 -1.184850 0.337028 0.321280 -0.178899 0.323315 -0.106264 -0.197274 -0.233305 0.620912 -0.504022 0.468257 0.028584 -1.026017 -0.223418 -0.271987 0.262788 0.410499 -0.372504 0.371838 0.158564 -1.019255 0.516080 -0.122960 0.349824 -0.478327 0.030487 -0.528615 0.595289 -0.152435 -0.213013 -0.267274 0.050089 -0.137180 0.097326 -0.316116 0.594436 -0.192946 -0.754371 -0.372149 0.154844 0.395121 -0.369417 -0.354190 0.513025 -0.180287 0.433609 -0.224824 1.265770
hey 0.075977 0.241391 1.059372 -0.017791 0.072825 0.039894 -0.314456 -0.624566 0.254311 -0.178876 -0.092812 0.632496 -0.062878 1.352592 0.636641 0.104395 0.155186 -0.184596 -0.518359 0.052276 -0.644312 -0.500034 0.465546 -0.074286 0.254487 0.220062 0.229736 0.565208 1.078146 -0.414142 -0.003133 0.117934 0.393570 0.218759 -0.151110 0.740004 -0.045307 -0.064329 0.556496 0.161585 0.096470 0.046822 -0.325411 -0.893696 0.607816 -0.234456 -0.458655 -0.375046 -0.288620 -0.974115
new -0.047780 0.683397 -0.587536 -0.108600 -0.401441 -0.902447 0.656725 0.030428 1.443002 -0.247164 0.403532 -0.854552 -0.244140 -0.798186 1.371169 -0.057971 0.006377 -0.574475 0.061195 -0.093593 -0.029443 -0.736524 0.566280 -0.215497 -0.315167 -0.286080 -0.687642 -0.531442 0.078442 -0.596470 0.159322 0.366485 -0.079406 0.946682 -0.792085 -0.566444 -0.701761 -0.676952 0.507786 -0.840581 0.312284 0.400103 0.233865 0.783235 -0.231756 -0.391543 0.144990 -0.302791 -0.479399 0.449434
real -0.349319 -0.678874 0.036132 0.787629 -0.401594 0.600103 -0.162225 0.124389 -0.133913 0.275752 0.016211 0.084586 0.679911 0.087577 -0.053035 0.132520 -0.181628 -0.100157 -0.435542 0.495834 -0.158923 0.039160 -0.595440 -0.049510 0.136839 -0.177531 0.544693 -0.377479 -0.494838 0.046820 -0.408426 -1.022776 0.419541 0.321189 -0.228441 -0.844787 0.799916 -0.295291 1.051714 0.393076 0.385836 0.166614 0.271661 0.209613 0.094281 -0.362636 -0.950371 -0.055148 -0.091234 0.710118
god 0.463887 -0.753999 0.084259 -0.302126 -0.568287 0.126264 -0.583189 0.022883 -0.875056 -0.203400 0.111118 -0.264598 -1.556811 -0.101708 0.038309 -0.083325 0.535974 0.300903 -0.030513 0.020214 -0.527140 0.533647 -0.142407 0.139312 0.333509 -0.489101 0.163765 0.122399 -0.259296 0.238272 0.473384 0.139657 0.222360 -0.672335 -0.104127 0.046622 -0.307711 0.445522 -0.656068 0.508482 0.563489 0.991052 0.185212 0.300061 0.315985 0.979808 0.292270 -0.086426 0.210247 -0.363677
na -0.416770 0.463590 0.341601 -0.180627 -0.479772 -0.156166 -0.368985 0.488443 -0.175966 -0.601838 0.290934 -0.438389 1.017359 0.192562 1.205051 1.187555 -0.159587 -1.353096 -1.105128 0.364954 -1.049310 -1.067909 1.021261 -0.066906 0.707248 -0.581156 0.885866 1.076712 0.839241 -0.485291 0.396416 0.881070 -0.305279 -0.177005 0.227750 0.291832 0.154091 -0.622788 0.026397 0.556688 -0.158485 0.222432 -0.214178 0.150484 0.146688 -0.148167 1.288128 -0.615393 0.251639 -0.530725
beat 0.132065 0.283006 0.682181 0.224902 0.895924 0.858304 0.325056 -0.374800 0.459910 0.112964 0.809869 0.313633 0.727750 0.296691 -0.884460 -0.262958 0.146710 -0.843968 0.168615 -0.411457 -0.532760 -1.051149 -0.678412 0.329816 -0.196828 -0.125830 0.796272 0.925290 0.780579 0.200885 0.127988 0.159292 -0.211340 0.482068 0.485971 -0.390536 -0.065139 0.677386 -1.177182 -0.713134 -0.366516 1.504721 -0.640594 -0.191472 -0.205839 0.275620 -1.033328 0.149966 0.072422 0.344517
twerk 0.910332 -0.773105 -0.632532 0.361057 0.261974 0.601494 -0.530672 0.251802 -0.522878 0.443225 0.275616 0.282795 -0.222651 0.718907 -0.675531 -0.082242 -0.163846 -0.132262 -0.243608 -0.818068 -0.104862 -0.382030 0.980332 0.032062 -0.112345 -0.164538 -0.556261 0.719917 0.347634 0.827069 -0.199291 -0.016517 0.238071 -0.442577 0.033405 0.307623 0.041501 -0.084580 -0.929771 0.592008 -0.516085 0.381325 -0.315483 0.075026 0.357074 0.578658 -0.050970 -0.392595 0.033211 0.540864
body -0.121571 0.759351 0.430465 0.056333 -0.140305 0.011472 -0.300441 0.165216 0.299312 -0.190943 0.319087 0.252892 0.599265 -0.274019 -0.203419 0.354389 0.061393 -0.028734 1.255713 -0.113092 -0.235330 -0.095295 0.337417 0.198839 -0.347218 0.269674 -0.023295 -0.765149 -0.428070 0.044983 0.472042 0.164409 -0.617237 -0.086412 -0.381100 -0.082707 0.033220 0.254071 0.203972 -0.364675 -0.374940 -0.268931 0.791966 0.040637 0.186780 -0.996638 -0.605951 0.236115 0.084974 -0.548831
ho -0.879019 -0.062699 0.090684 0.544359 0.486772 0.348489 0.354295 0.469130 -0.411454 0.653002 -0.365242 0.299397 -0.122054 0.475215 -0.085331 -0.046982 -0.061466 -0.221602 0.147351 0.229090 -0.325745 0.051665 0.034598 0.441211 0.652223 0.767384 0.316044 0.466487 0.557796 0.126150 -0.026064 0.216884 0.052952 0.167469 0.371111 -0.026446 0.463669 0.085687 0.193250 0.104898 -0.474580 0.446578 -0.493201 -0.180209 0.502607 0.034246 -0.278150 0.170916 -0.265036 -0.400374
better 0.401013 -0.083464 0.539341 0.348868 0.019992 0.296276 0.003166 0.653341 -0.030118 0.355403 -0.223717 0.400715 0.336303 -0.306077 -0.780675 -0.025647 -0.479212 0.096712 -0.752512 1.096655 0.608486 -0.024136 0.042518 0.783375 0.265190 -0.455338 -0.006041 -0.363549 -0.341817 -0.039444 0.200543 -0.686073 0.438706 -0.297954 -0.318871 -0.661649 0.281009 0.426662 -0.287470 0.234385 0.187083 0.260124 0.335546 0.541794 0.329104 0.144618 0.214551 0.583311 0.688145 -1.183798
monster 0.178859 -0.599513 -0.346452 0.327091 0.108046 0.530512 -0.545156 -0.233178 -0.526098 0.064253 -0.375389 -0.656676 -0.177008 0.714796 0.530236 0.190186 0.018815 0.345809 -1.098941 -0.462364 0.194830 -0.220030 0.303161 -0.739781 0.090873 0.061643 -0.010609 0.138186 0.401726 0.004812 -0.941399 -0.649959 0.012662 -0.148546 0.195765 0.255416 0.072772 -0.376549 0.248722 0.319294 0.278498 0.129211 -0.517460 0.148182 0.201761 -0.400324 -0.015921 0.013517 -0.384374 -0.341630
badder 0.560633 -0.377783 -0.434798 -0.045367 0.356652 -0.728167 0.264722 -0.149276 0.248841 -0.578693 -0.839977 -0.074321 -0.421603 0.009215 0.074702 -0.890017 0.189800 0.003363 0.165546 -0.186557 -0.244455 0.349778 1.017408 -0.033542 0.157804 0.307359 -0.271130 0.011936 -0.182883 -0.206502 -0.706062 0.470933 -0.583552 -0.186294 0.022796 0.705252 0.189124 -0.287959 -0.460352 0.735310 -0.039871 0.057281 -0.034729 0.127142 -0.864322 0.618688 0.911401 0.714867 -0.361404 -0.118060
crazy -0.140194 -0.511137 -0.655597 0.140919 0.697293 0.256839 0.318581 0.097398 -0.285160 -0.348066 0.092070 -1.067557 0.087698 -0.046734 0.513636 0.789387 -0.229436 0.949472 0.028853 0.107687 -0.382285 -0.350482 -0.235474 -0.230167 0.309807 0.304559 -0.928003 0.334230 0.719889 -0.214607 0.215247 -0.502624 0.589294 -0.699066 -0.007893 0.225959 -0.521390 -0.271225 -0.068771 -0.132087 -0.807566 -0.575753 -0.560421 0.425182 0.123083 0.134849 -0.308181 -1.091354 -0.733517 0.395115
fall 0.080160 -0.240151 -0.795419 0.512512 0.094417 0.030434 0.562344 -0.418248 0.614848 -0.142287 0.704890 -1.030188 0.433097 -0.408529 -0.011337 0.251926 -0.391150 0.165575 0.444764 -0.429503 0.743144 -0.153853 -0.455673 -0.332430 -0.715777 0.053395 -0.370830 -0.311267 -0.651520 0.197840 0.265852 0.089955 -0.501596 0.779385 -0.331039 -0.766331 -0.616329 0.600612 -0.021120 -1.144195 -0.370223 0.302222 0.519835 0.565985 0.109317 0.347443 -0.123864 0.070193 -0.340496 0.541861
hands -0.051322 -0.611826 -0.439466 0.692627 -0.731377 1.153316 -0.549640 -0.182686 -0.691239 0.180251 0.349050 -0.923541 0.223651 0.549941 0.314636 0.637451 -0.196204 0.239715 -0.301635 -0.179278 0.579665 0.396733 0.291746 -0.579186 0.067960 -0.012299 0.742892 -0.259684 -0.291545 0.043195 -0.596539 -0.322696 -0.125617 0.299545 0.415951 -0.357007 -0.197886 -0.222990 0.600935 0.266972 -0.325430 0.012629 -0.496216 -0.155494 0.644598 -0.272276 -0.495840 0.049915 0.264460 0.507522
said -0.232422 -0.361393 -0.149542 0.275685 -0.380635 0.538424 -0.041006 0.393396 -0.510945 -0.093905 0.408218 -0.592775 0.196586 0.133424 -0.025593 0.734960 0.155564 0.217952 0.032190 -0.133440 -0.282167 0.067734 -0.293841 -0.129933 0.231426 0.288040 -0.253299 -0.037407 -0.005660 -0.080963 0.616770 -0.036498 -0.164279 0.061382 -0.231741 -0.293228 0.158777 0.129301 0.488473 -0.610965 -0.189913 0.031890 0.086950 0.243458 0.803916 -0.048932 -0.343404 -0.309116 -0.205217 -0.076336
little -0.324608 0.230965 -0.207116 0.305761 0.338281 -0.772968 0.515956 0.408591 0.430833 0.167726 0.397480 -0.423268 -0.053107 -0.706734 -0.171038 0.240632 -0.684521 -0.280359 0.250085 0.103371 0.427529 0.454297 0.549669 -0.477061 -0.059059 -0.117437 -0.745891 -0.529902 -0.586427 0.365518 0.409196 -0.099092 -0.288877 0.357511 -0.427288 -1.012447 -0.589407 0.686612 -0.257283 -0.807431 -0.175372 -1.038254 0.753944 1.153315 0.167097 -0.484513 0.620418 0.093597 0.289110 0.137118
long 0.042693 -0.084390 -0.323203 0.037895 -0.398885 0.264904 0.423443 -0.524660 -0.116500 -0.408811 0.028917 -0.528073 0.688271 -0.031063 0.502538 0.279266 0.731713 0.268630 0.651235 -0.397865 0.396291 -0.682158 -0.622414 -0.090226 -0.547625 0.342440 -0.527919 -0.368554 -0.445167 -0.227513 0.094745 0.086493 -0.798279 0.572779 -0.242465 -0.301991 -0.385591 -0.065631 0.940249 -0.849587 0.029689 0.720270 0.054402 0.226482 0.566482 0.504203 -0.415203 -0.309258 -0.751272 0.060118
okay 0.368107 0.320035 -0.520940 -0.443028 -0.460028 -0.936920 0.259472 -0.333676 1.141401 -0.267484 0.647960 -0.649715 -0.223741 -0.499847 0.901814 -0.009855 -0.519445 -0.222927 -0.173069 -0.309278 0.069727 -0.388107 0.377182 -0.229332 -0.286213 -0.189924 -0.399405 -0.215598 -0.066360 -0.285814 0.021751 0.560906 0.251877 0.554886 -0.723079 -0.321270 -0.776766 -0.209773 -0.065154 -0.633644 0.301626 -0.212663 0.537213 0.335115 -0.831385 0.064764 0.516625 -0.085586 -0.289719 0.471399
yang 0.571833 -0.038866 -0.821467 -0.159017 0.325414 -0.957082 -0.451628 0.536937 -0.301053 -0.144956 -0.655658 -0.101561 -0.946625 -0.103378 0.552190 -1.076148 0.464951 0.353345 0.773783 0.148790 0.102294 -0.149763 -0.667507 0.635795 -0.286263 0.250898 0.083802 0.073615 0.159424 0.157483 -0.476476 -0.295472 0.715432 -0.107042 0.413110 0.972781 0.611801 -0.143839 -0.571925 0.057735 -0.594923 0.066302 -0.204275 -0.665397 -0.696554 0.327285 0.707855 0.215731 0.698085 0.194838
boy 0.129990 -0.194230 -0.275645 0.522501 0.780641 -0.017102 0.095817 0.211498 -0.042536 0.171632 0.301676 -0.755263 0.416134 0.402233 0.116000 0.711969 -0.149918 0.420399 0.154340 -0.227515 -0.436674 -0.329364 -0.091228 0.144040 0.606731 0.747484 -0.854744 0.827354 0.353845 -0.017728 -0.045744 0.335007 0.279522 -0.266396 0.207910 0.781579 -0.634021 0.113217 0.363513 -0.778075 -0.931990 -0.555348 -0.210540 -0.467390 0.423610 0.234562 -0.463757 -0.884522 -0.835544 0.054426
li 0.422462 0.500733 -0.277671 -0.295691 0.052385 -0.078320 0.082107 0.016522 -0.174620 0.031920 -0.487850 -0.253637 -0.045103 -0.216429 0.132511 -0.060141 0.030352 -0.415109 -0.349835 0.043674 0.128346 -0.163358 0.240150 0.222752 0.031848 -0.453947 0.158538 0.150846 -0.200751 0.040350 -0.322040 -0.082164 0.112875 -0.212550 0.601666 0.600467 -0.458042 -0.273214 -0.404263 0.436404 -0.217980 0.291780 -0.156839 -0.049242 -0.702981 0.474556 0.685919 -0.070567 0.386980 0.259709
motherfuckin 0.118755 -0.492361 -0.242453 0.462552 0.304979 1.074689 -0.655808 -0.104852 -0.640699 0.512647 0.258297 -0.435010 -0.144583 0.623286 0.004770 0.093812 -0.242941 0.227956 -0.963548 -0.393516 0.265917 -0.080777 -0.256480 -0.661629 0.146332 0.075444 0.285132 0.388287 0.490623 -0.268993 -0.384757 -0.744685 0.179024 -0.327926 0.245746 -0.056666 0.095834 0.003758 -0.251215 -0.051852 0.200232 -0.202091 -0.935078 0.288926 0.372014 -0.266947 -0.528196 -0.329678 0.159136 -0.195228
party -0.077710 -1.017301 0.251113 0.974674 -0.049499 -0.217911 -0.663222 0.573017 0.488240 0.401875 -0.154618 -0.149339 -0.168793 -0.870388 0.445743 -0.112180 -0.000209 0.418223 -0.363316 0.776940 -0.205928 0.725855 0.283343 -0.341628 -0.134864 -0.558847 0.072779 -0.697845 -0.611958 0.418389 0.203966 -0.681229 0.469669 -0.155250 -0.021904 -0.764081 0.413354 0.366060 -0.574193 0.000145 0.016375 -0.656476 0.878911 0.625125 0.187238 0.017207 0.756072 0.460025 0.888000 -0.338955
stop -0.276946 -0.113777 -0.083051 -0.080295 0.257747 0.091314 0.044328 -0.051235 -0.136498 0.243381 0.080176 -0.041001 0.085647 -0.120085 -0.277279 0.464585 -0.584524 0.114929 -0.474218 0.142517 0.052728 -0.073047 -0.126198 -0.160910 0.200754 -0.174793 -0.401193 0.002192 0.118837 0.087056 0.037123 -0.358557 0.131253 -0.286228 -0.360395 -0.468575 -0.125845 -0.065474 -0.035997 -0.009617 0.165582 -0.274960 0.098708 0.252697 -0.079482 -0.390978 -0.450398 -0.370512 -0.256482 0.451536
tryna 0.499982 -0.405184 -0.352613 -0.085372 -0.325129 -0.353353 -0.142675 -0.127290 0.306486 -0.391794 0.859998 -0.265985 0.167026 0.330551 -0.195711 0.021119 -0.452892 0.059283 -0.003349 -0.238083 -0.297541 -0.052772 -0.407938 0.108278 0.071618 0.268054 0.132037 0.174003 0.022955 0.150397 0.059750 0.464085 0.182457 0.110403 -0.675152 -0.285384 0.198489 0.341247 -0.246481 -0.497934 0.224384 -0.153551 0.505717 -0.368086 -0.424465 0.291394 0.058357 0.377287 -0.276777 0.342196
watch -0.018893 -0.329873 0.231235 -0.391785 0.413871 0.313297 0.005129 -0.621609 0.552013 0.274248 0.636062 0.648526 -0.637014 0.906132 -0.317186 -0.707457 0.124972 0.022346 -0.533782 -0.221309 -0.197343 -0.094136 -0.715698 -0.421803 0.298659 0.170271 0.557763 1.130023 0.435447 -0.427031 0.204090 0.641507 0.427052 0.449028 -0.484545 0.095922 0.149805 0.774805 0.099808 -0.377561 1.118127 0.165981 -0.201905 -0.146430 0.266104 -0.135368 -0.761725 0.331895 -0.654526 -0.376844
dick -0.095027 0.107011 0.877446 0.415281 0.391305 0.623313 -0.088531 -0.755889 0.947250 -0.107512 0.988649 -0.030271 -0.040821 0.285233 0.065537 0.112464 -0.073343 0.008992 0.384111 -0.011680 -0.468213 -0.074648 -0.628492 -0.174040 -0.356284 -0.139563 1.355538 0.798554 0.339314 -0.082014 0.454650 0.095912 0.249154 0.389010 -0.212581 -0.296136 0.086643 0.892522 -0.854933 -0.348688 -0.067389 0.931313 -0.434947 -0.284695 0.328897 0.047471 -0.846438 0.170235 -0.007783 -0.973638
ie 0.314567 0.491756 -0.292189 -0.297699 0.086414 -0.110263 0.064799 0.043289 -0.184012 0.059627 -0.399121 -0.256590 -0.013602 -0.258522 0.199957 -0.013658 0.033846 -0.410907 -0.267238 -0.004063 0.124341 -0.148694 0.239164 0.182532 0.007475 -0.384437 0.167240 0.127370 -0.169591 0.058904 -0.329953 -0.006792 0.069542 -0.169611 0.595625 0.582419 -0.405802 -0.292887 -0.373499 0.410159 -0.257250 0.211200 -0.178908 -0.086985 -0.693731 0.395646 0.631424 -0.083029 0.352941 0.316242
life -0.531434 -0.409490 0.092798 0.155886 -0.451737 0.033899 0.087263 0.412768 -0.240151 0.092576 0.003583 -0.230607 0.347607 0.041045 0.116785 0.152578 -0.135524 -0.119917 0.077551 -0.114075 -0.292650 0.198078 -0.484531 -0.013749 0.011919 0.178022 0.057938 0.049710 0.003201 -0.205509 0.332399 0.611735 0.316360 0.432534 -0.326328 -0.315237 0.735222 -0.396035 0.911032 -0.213528 0.367518 -0.080157 0.018390 0.001682 0.175284 -0.021977 -0.277208 -0.229693 -0.215295 0.407523
wid 0.516078 0.202871 -0.276341 -0.635971 0.540065 -0.271846 0.075965 -0.259522 -0.387688 0.546063 -0.519005 0.334536 -0.782088 -0.139873 -0.455279 -0.452468 0.555364 0.226215 -0.016595 -0.431878 0.331209 0.230759 -0.247777 0.214047 -0.056427 0.065674 -0.213937 -0.005132 0.047232 0.589339 -0.735472 0.126470 -0.144298 -0.033576 0.852358 0.624864 -0.356736 -0.053595 -0.586555 0.342052 -0.124883 0.079868 -0.530916 -0.384834 -0.793321 0.423691 0.173476 0.165704 0.156809 0.615767
ying 0.650141 0.036195 -0.830114 -0.223086 0.343266 -0.940132 -0.410168 0.333319 -0.227284 -0.127888 -0.624383 -0.121985 -0.922770 -0.149084 0.480573 -1.035836 0.487130 0.334115 0.780927 0.022657 0.161010 -0.136457 -0.639280 0.517578 -0.402440 0.176512 0.052328 0.072514 0.039864 0.185284 -0.549564 -0.287501 0.626565 -0.132416 0.460031 1.015322 0.401293 -0.156731 -0.652414 0.107073 -0.572048 0.013089 -0.177937 -0.655208 -0.787407 0.345324 0.722902 0.181805 0.645588 0.303392
naked -0.633849 0.705578 1.104771 -0.276168 0.596909 -0.530263 -0.135822 -0.054014 0.698937 0.541406 -0.809740 0.347329 0.141076 -1.346242 0.491119 -0.168563 1.794337 -0.687042 1.173975 0.420069 -0.640877 -0.371369 -0.594602 -0.216134 -0.737842 -0.363333 0.130203 -0.562872 -0.382687 -0.379379 0.381153 -0.166860 0.309186 0.263127 0.499260 0.206577 0.030884 -0.210574 -0.095664 -0.248187 -0.031830 -0.916626 0.047721 0.268646 0.018839 -0.584656 0.339905 0.349551 0.477285 0.062005
p 0.540126 -0.245178 -0.133131 -0.072027 0.142464 0.728030 -0.734822 -0.271702 -0.455957 0.072564 0.354449 -0.326150 -0.208115 0.657316 0.117911 -0.239167 -0.524514 0.265353 -1.084320 -0.368038 0.305171 -0.135894 -0.375954 -0.401127 0.134755 -0.138317 0.346707 0.431170 0.474256 -0.660812 -0.359869 -0.474296 0.327472 -0.667565 0.295428 0.428371 -0.219867 0.144687 -0.571893 -0.074342 0.285851 -0.305628 -0.757387 -0.093451 -0.144347 0.257525 -0.051576 -0.428364 0.297683 -0.402199
waan 0.212659 -0.059472 -0.141348 -0.648158 0.135240 -0.356732 -0.153605 0.033308 -0.407668 0.274921 0.194890 0.475588 -0.712848 -0.099402 -0.016776 -0.540987 0.421628 0.318374 0.233450 -0.302673 0.368798 0.480443 -0.123866 -0.032047 0.064464 0.261158 -0.001388 -0.030860 0.155919 0.127323 -0.367417 0.475108 -0.058567 -0.138387 0.446895 0.259186 0.128477 -0.042179 -0.356964 0.173438 0.057713 -0.571254 -0.321977 -0.489409 -0.538479 -0.040622 0.302948 0.117750 0.215418 0.437064
ball -0.043216 -0.401513 -0.825466 0.570105 -0.323312 0.290470 0.289129 -0.830463 0.445366 -0.484013 0.797341 -1.269787 0.392698 -0.104298 0.547859 0.801564 -0.651976 0.802977 0.671416 -0.456487 0.626777 -0.305761 -0.724931 -0.266644 -1.007689 0.130470 0.191841 0.227631 -0.436990 0.026360 0.323343 0.293142 -0.191015 0.389260 -0.378690 -0.298022 -0.534165 0.247336 0.213505 -0.667768 -0.435795 0.744824 0.209740 0.077877 0.411962 1.008459 -0.728343 -0.690824 -0.485052 0.108197
clothes -0.315321 0.872599 0.890394 -0.015491 -0.031795 -0.085423 -0.360394 -0.150656 1.177970 -0.112673 0.023241 0.106810 0.519382 -0.569212 0.200726 0.624408 0.867973 -0.653454 1.346836 0.200296 -0.546552 -0.344928 0.097135 -0.401130 -0.559319 0.088733 -0.015639 -0.696001 -0.569568 -0.297991 0.821438 0.134840 -0.420516 0.357304 -0.208714 -0.074443 -0.414483 0.664004 0.283105 -0.799400 -0.452248 -0.539714 0.657887 0.260467 0.938226 -1.010403 -0.298459 0.037729 0.284690 -0.835532
everybody 0.422670 -0.456201 -0.331332 0.526498 0.081237 1.052352 -0.340002 0.192395 -0.663366 0.499120 0.359945 -0.006436 0.365577 0.627860 -0.396072 0.533637 0.059704 -0.202827 -0.303849 -0.556465 -0.142407 -0.587859 0.534645 -0.181857 0.018581 -0.221777 -0.395245 0.477750 0.304138 0.470624 -0.067478 -0.265428 0.101152 -0.215303 0.120566 -0.124120 0.036555 -0.347814 -0.063114 0.317901 -0.449399 0.159246 -0.460668 0.343417 0.782578 0.100967 -0.615564 -0.717428 -0.097198 0.623141
hit -0.575090 -0.177013 0.144403 0.271455 -0.211999 0.179119 0.237857 0.282983 -0.195857 0.269801 0.037921 -0.013608 -0.039074 0.284231 0.011632 0.216733 -0.196699 0.051477 -0.142608 0.003373 0.102951 0.037904 0.122282 -0.029829 0.245085 0.330255 -0.031980 -0.094428 0.328201 0.008705 0.281754 0.172096 -0.010532 0.491142 -0.167358 -0.410736 0.358621 0.014724 0.638218 -0.264246 0.100550 0.130049 -0.041970 0.128509 0.641247 -0.333741 -0.497238 0.058975 -0.166754 -0.242357
miss 0.254293 0.323335 -0.078545 -0.030784 -0.231838 -0.264109 0.271724 0.530097 -0.189389 -0.279493 -0.734345 0.189677 0.193819 -0.418634 -0.107081 -0.019938 -0.054807 -0.264431 -0.799443 0.580865 0.216159 -0.268071 0.727610 0.439748 0.550358 -0.466684 -0.187709 -0.006456 -0.022823 0.216064 -0.226244 -0.616928 -0.194967 -0.601323 0.373890 -0.105453 -0.032540 -0.477487 -0.476158 0.614790 -0.242423 -0.143483 0.313988 0.509098 -0.304988 0.060445 1.220225 0.097169 0.337671 -0.322514
floor -0.144911 0.029630 0.261496 -0.329649 0.021412 0.649179 0.190054 0.823791 -0.832845 0.066221 -0.385839 0.547325 0.204252 -0.368964 -0.520330 0.388261 -0.160674 0.284563 -0.367122 0.583628 0.053932 0.343818 -0.310495 0.373448 0.798869 -0.052243 0.071051 -0.638305 0.074673 0.012162 0.125951 -0.777115 -0.203921 -0.393177 0.265821 -0.142110 0.040228 -0.115321 0.088021 0.451125 -0.123453 0.101063 -0.081365 0.184220 -0.355573 -0.093923 -0.124820 0.097051 -0.057208 -0.418028
fi -0.155126 0.116552 0.082522 -0.491559 -0.367313 -0.450227 -0.394576 0.088817 -0.177465 -0.333363 0.616186 0.592453 -0.365235 0.225426 0.382865 -0.244442 0.035929 0.249627 0.555772 -0.191834 0.352060 0.511172 0.297368 -0.106107 -0.043262 0.437233 0.246520 -0.108670 0.081039 -0.127262 -0.182903 0.576847 -0.162560 -0.237096 -0.004139 0.152707 0.193767 -0.137595 -0.151871 0.140873 0.070865 -1.146888 0.031672 -0.762650 -0.271277 -0.534662 0.354383 -0.045174 0.250220 0.033198
rap -0.327518 -0.667434 0.191886 -0.016966 -0.084052 -0.109112 0.008459 0.533648 -0.733376 0.142407 -0.458550 0.031602 -0.989315 -0.285259 0.050513 -0.355616 0.695860 -0.063241 0.104066 0.140938 -0.535433 0.465489 -0.047795 0.474897 0.446815 0.194314 -0.088847 -0.124377 0.081957 0.262544 0.316696 0.271147 -0.179894 0.035571 -0.036958 -0.319797 0.379083 0.216087 0.026405 0.230403 0.476301 0.882202 -0.137169 0.459223 0.395889 0.367374 -0.160640 0.348315 -0.182863 -0.459574
ha -0.186152 0.132173 0.227231 0.583267 0.644719 -0.039337 -0.180241 0.283724 -0.158141 0.399941 -0.006319 -0.158232 -0.098962 0.800882 -0.008747 -0.081334 -0.092708 -0.063414 0.207432 -0.099376 -0.209210 -0.019021 0.469464 0.498182 0.504786 0.584747 -0.291934 0.763151 0.305483 -0.123116 -0.162819 0.514799 0.115573 0.065023 0.400160 0.599224 -0.475070 0.073469 0.246027 -0.256543 -0.468622 -0.184460 -0.289705 -0.376013 0.390243 0.102828 -0.410175 -0.401875 -0.321736 -0.404892
light 0.236716 0.112412 0.027850 0.118941 0.010964 -0.008329 0.022372 -0.159899 0.342374 0.217758 0.098911 0.584145 0.087729 0.033439 -0.471263 -0.416004 0.239114 -0.298731 -0.530857 0.555791 -0.229893 0.272231 -0.485659 0.160800 0.084099 -0.451024 0.153821 0.139299 -0.284513 -0.036548 -0.120079 -0.328886 0.515401 0.518463 -0.265708 -0.511214 0.540016 -0.075122 0.246102 0.462854 0.876790 0.217668 -0.023264 0.136236 -0.306833 -0.090960 -0.240531 0.339723 0.290860 0.693357
street -0.086418 -0.132063 0.230208 -0.565813 -0.176556 -0.485358 -0.566066 -0.237580 0.684333 -0.150387 -0.279848 -0.259175 -0.098474 -0.561257 -0.685679 -0.246289 0.194862 0.495704 0.126305 -0.112368 -0.041534 0.329101 -1.231303 -0.525872 -0.701981 -0.360983 0.061480 -0.431955 -0.225644 -0.193572 0.319679 -0.053891 0.132631 -0.465271 -0.489021 -0.430528 0.347863 0.518164 -0.381793 -0.423352 0.463955 -0.101831 0.260418 -0.180626 -0.337626 -0.229732 0.751103 0.723083 0.289726 0.357939
york 0.104534 0.796603 -0.594183 -0.227313 -0.336738 -0.798507 0.746951 -0.318172 1.459677 -0.199228 0.404067 -0.733698 -0.021216 -0.859083 1.103542 -0.056163 -0.121993 -0.627890 0.243474 -0.202219 0.209537 -0.587934 0.500489 -0.358936 -0.538079 -0.336550 -0.567626 -0.493387 -0.234207 -0.496968 0.116446 0.341846 -0.242825 0.783450 -0.623457 -0.382799 -0.924749 -0.437674 0.301115 -0.812889 0.136755 0.239459 0.323866 0.652458 -0.412260 -0.250899 0.193349 -0.352878 -0.383784 0.570546
area -0.119165 0.499054 -0.283431 -0.715079 0.143338 0.097207 0.534357 0.047761 -0.213726 0.247071 -0.998644 0.735602 -0.455366 -0.147284 0.551768 -1.176748 -0.495952 -0.067618 0.106348 0.441915 0.785872 0.268631 0.488778 0.583490 0.569821 -0.138913 -0.294098 -0.107611 0.491988 0.039760 0.011335 -0.129088 0.460057 -0.209135 0.901144 0.398202 0.278915 -0.115508 0.269842 -0.129390 -0.972831 0.186203 -0.753593 -0.547991 -0.494278 0.487615 -0.201779 -0.130398 1.043627 0.894977
codes -0.182124 0.468104 -0.390801 -0.628436 0.078214 0.059819 0.527817 -0.017640 -0.200360 0.233987 -0.946021 0.594301 -0.448327 -0.103720 0.643020 -1.096460 -0.521968 -0.000928 0.135509 0.406479 0.843033 0.303187 0.508248 0.486704 0.544260 -0.045659 -0.333142 -0.112530 0.455325 -0.020904 0.016888 -0.108102 0.429882 -0.172153 0.822296 0.385929 0.281639 -0.142690 0.391699 -0.203404 -0.924853 0.126648 -0.719920 -0.487121 -0.407613 0.452080 -0.215294 -0.175054 0.962048 0.863297
damn -0.381029 0.021048 0.185533 0.408091 -0.302861 0.081602 -0.194502 0.347258 -0.810059 0.229998 0.310735 0.355374 -0.394825 0.706447 -0.097239 0.280351 0.203997 0.066991 0.142051 -0.050833 0.149742 0.462098 0.515156 0.207045 0.250052 0.504426 0.394105 -0.168286 0.298259 -0.010975 0.239766 0.398195 -0.346002 -0.012257 0.042664 -0.167356 0.332880 -0.108657 0.385018 0.151953 0.097481 0.127680 -0.347782 -0.354931 0.690046 -0.052403 -0.378280 0.235056 0.299384 -0.152615
girls -0.239793 -0.560303 0.182261 0.503484 -0.007044 -0.109538 -0.344797 0.219218 0.078109 0.356367 -0.016265 0.331995 -0.352481 -0.295037 0.217515 -0.261479 0.287463 0.305459 0.015544 0.349229 0.059635 0.546525 0.121785 -0.272768 0.001809 0.074895 0.095890 -0.450342 -0.181703 0.294013 0.009143 -0.279003 0.085479 0.142445 -0.015880 -0.508405 0.523560 0.291619 -0.163028 0.010330 0.126650 -0.327995 0.355163 0.142748 0.348122 -0.250756 0.159208 0.462768 0.358279 -0.334033
shawty -0.116850 -0.199320 0.109691 0.138405 0.042045 0.574440 0.155970 0.573980 -0.732147 0.336036 -0.191285 0.280756 0.310943 0.163069 -0.396211 0.133227 -0.052347 -0.034145 -0.196482 0.159562 -0.076795 -0.027514 -0.123554 0.294239 0.416146 0.050548 0.065056 -0.041591 0.188086 0.028753 -0.014444 -0.328522 -0.017537 -0.047934 0.292733 -0.160262 0.307909 -0.036772 0.240743 0.191433 -0.164734 0.166201 -0.257340 0.168313 0.149581 -0.037444 -0.227281 0.024565 -0.093928 -0.014183
suh 0.305799 0.299349 -0.327582 -0.414097 0.135710 -0.147942 -0.017346 -0.030982 -0.242072 0.048001 -0.196914 -0.337683 -0.088041 -0.134955 0.330072 -0.051134 0.084991 -0.391470 -0.338665 -0.096843 0.063433 -0.138980 0.052331 0.064421 0.000781 -0.304987 0.281479 0.288896 -0.042204 -0.037099 -0.362010 0.206885 0.179639 -0.099074 0.549779 0.618822 -0.319915 -0.283563 -0.421660 0.397153 -0.120919 0.220983 -0.362682 -0.233816 -0.767484 0.507324 0.717748 -0.101852 0.274096 0.422122
talk -0.273704 0.078857 0.508737 0.242800 -0.256281 0.261959 -0.377827 0.449813 0.342862 0.180782 0.040566 0.100222 0.099853 0.026252 0.071924 0.189858 -0.194533 -0.278182 -0.249133 0.240732 -0.246816 0.188144 0.297680 0.081216 -0.004365 -0.402472 0.087123 -0.289131 -0.201689 0.175933 0.327885 0.119759 0.303603 0.058776 0.002232 -0.376574 0.040435 0.047508 0.459246 -0.004407 0.021632 -0.164912 0.382028 0.125552 0.598959 -0.374155 -0.398709 -0.095923 0.321260 -0.599963
whistle 1.137133 -0.397770 -0.486373 0.186779 0.480185 0.758579 -0.405964 -0.025884 -0.536682 0.423505 0.241200 0.385278 -0.175792 0.691248 -0.784537 -0.041195 -0.014574 -0.148127 -0.397399 -0.685861 -0.203017 -0.655418 0.445924 0.096017 -0.146320 -0.392199 -0.386320 0.932603 0.269482 0.641115 -0.338781 -0.182780 0.376260 -0.621993 0.276301 0.523785 -0.170753 -0.258066 -1.047486 0.714077 -0.492794 0.291691 -0.440819 0.029214 0.028712 0.718791 -0.073983 -0.636793 -0.018493 0.583194
bed 0.253759 -0.418929 -0.418788 0.353809 0.134322 0.568369 -0.234844 0.011560 -0.569112 0.162619 -0.450543 0.067454 -0.407262 0.590161 -0.388940 0.032493 -0.476713 0.257368 -0.693364 -0.178642 0.195442 -0.131849 0.523360 0.124009 0.211294 -0.220129 -0.186613 0.289683 -0.034011 0.397530 -0.529275 -0.763706 0.213099 -0.419478 0.048088 0.271922 0.106026 -0.156410 0.030709 0.602636 -0.067771 0.605212 -0.086739 -0.009537 0.131491 0.165773 -0.458906 -0.041466 -0.095503 -0.151018
care -0.350775 -0.029885 -0.524238 -0.120648 0.161402 -0.042214 0.274186 -0.238620 0.300379 0.356211 0.275449 -0.225483 -0.345362 -0.351095 -0.258061 0.552296 -0.004621 0.011578 0.249104 -0.397710 0.048409 0.063007 -0.543362 -0.520575 -0.243826 0.610642 -0.093158 0.244408 0.104982 0.214685 0.352444 0.258565 -0.117339 0.385479 -0.162920 0.073545 -0.256428 0.201700 -0.005549 -0.523260 -0.107420 -0.189904 0.213649 0.295355 0.202258 -0.275525 -0.296416 -0.255829 -0.523055 0.089754
face -0.308899 -0.308403 0.221603 0.373555 0.290355 0.207157 0.126918 0.245812 -0.052508 0.247839 -0.077205 -0.245170 0.267384 0.009585 -0.018504 0.236780 -0.027945 0.085948 -0.140229 0.073060 -0.280452 -0.135306 -0.104486 -0.010031 0.269420 0.209518 -0.106362 0.134245 0.274010 -0.112587 0.070448 -0.153906 0.166379 0.085392 0.073009 -0.105403 0.139220 0.034187 0.231857 -0.211186 -0.191811 -0.077402 -0.149657 0.225568 0.335918 -0.203898 -0.291030 -0.120788 -0.369805 -0.222809
heart -0.168350 -0.348626 -0.365987 0.328886 0.059712 0.094363 0.099498 0.075595 -0.068160 0.186664 -0.275097 -0.237847 -0.173557 -0.145619 -0.307966 0.382145 -0.298619 0.323700 -0.413631 -0.060268 -0.083605 -0.040189 0.053960 0.017905 0.040957 0.111411 -0.209866 0.024037 0.024980 0.502284 -0.301334 -0.221506 -0.123136 0.140297 0.012207 -0.079378 -0.054137 0.012636 0.067492 0.204778 -0.100094 0.050511 0.130114 0.268550 0.195679 0.151831 -0.038272 -0.052929 -0.251689 -0.223233
high -0.020825 0.401017 0.749176 -0.254755 -0.210829 -0.035776 -0.270937 -0.181790 -0.047556 -0.134335 -0.484795 0.576650 0.002699 0.773571 0.481987 -0.020769 0.371254 -0.368550 -0.419452 0.034470 -0.382544 -0.406892 0.497828 0.053397 0.227374 0.026313 -0.043766 0.146040 0.629921 -0.218072 -0.177656 0.042026 0.115241 0.269367 0.039828 0.596370 0.158643 -0.328225 0.779085 0.373815 0.291140 0.098792 -0.040632 -0.566212 0.425729 -0.424456 -0.194473 -0.303745 -0.190979 -0.593437
live -0.017332 0.205081 0.587582 -0.140072 -0.259047 -0.090257 -0.220282 -0.497859 0.065893 -0.380162 0.044850 0.581747 0.016499 0.992746 0.324752 0.034420 0.248180 -0.117206 -0.089186 -0.051749 -0.077890 -0.124299 0.445247 -0.202888 0.075377 0.315753 0.113803 0.045606 0.383996 -0.274235 -0.018575 0.284631 -0.213644 0.151182 -0.308685 0.376181 -0.032916 0.048842 0.576217 -0.015478 0.418461 -0.248255 0.048390 -0.589955 0.538777 -0.299135 -0.000728 -0.026240 -0.252504 -0.717765
lookin -0.045999 -0.174144 0.000688 0.552489 0.881401 -0.140616 0.219502 0.474631 0.020147 0.442060 -0.183845 -0.580326 0.211908 0.124818 -0.080750 0.293950 -0.058201 0.327130 0.181965 -0.186154 -0.414408 -0.233040 0.051434 0.284412 0.486749 0.779325 -0.810109 0.687141 0.327688 0.114657 -0.129130 0.266084 0.157427 -0.013275 0.391924 0.645968 -0.562777 0.146564 0.246967 -0.742611 -0.844684 -0.377364 -0.184346 -0.274525 0.377258 0.107107 -0.376706 -0.584322 -0.763553 -0.274084
nah 0.145299 -0.022343 0.057966 -0.215558 0.374116 -0.087212 -0.028559 -0.065928 -0.546686 0.210137 -0.183863 0.341974 -0.436534 0.137754 -0.171335 -0.099075 0.931806 0.224181 0.170344 -0.213390 -0.002324 0.076901 -0.288805 0.146866 0.106418 0.361192 -0.059831 -0.057895 0.288669 0.478294 -0.366224 0.231876 -0.240393 0.087786 0.570628 0.140633 0.074417 -0.102862 -0.365419 0.211169 -0.118773 0.161355 -0.601296 -0.314774 -0.071291 0.216308 0.048870 0.229569 0.027169 0.142371
wish 0.088975 -0.173482 -0.354938 0.028907 0.370911 -0.767570 0.426953 0.037823 0.081745 -0.267537 -0.889427 -0.068093 -0.356322 -0.366281 0.433165 -0.729162 0.409136 -0.152318 0.422177 -0.219779 -0.511117 0.554761 0.774137 -0.269810 0.053846 0.223582 -0.523198 0.015100 -0.347456 0.159584 -0.677020 0.650584 -0.268584 0.163969 0.062641 0.757937 0.303518 -0.439279 -0.415260 0.573067 -0.203709 -0.375907 -0.167318 0.002679 -0.468655 0.193070 0.846476 0.584711 -0.232837 0.213553
yoo 0.295685 -0.168617 -0.281916 -0.284997 0.420140 -0.594679 0.385121 -0.152822 0.247171 -0.508811 -0.241166 -0.492407 -0.145549 -0.481049 0.113755 -0.260106 -0.127471 0.427321 -0.062137 0.338851 -0.413999 -0.045883 -0.239789 0.202848 -0.205882 0.110836 -0.154452 0.181814 0.263143 0.132562 -0.157836 -0.380472 0.621526 -0.263526 0.362258 0.055948 -0.702512 -0.075597 -0.784221 0.267944 -0.357981 -0.638394 -0.145998 0.052153 -1.106348 0.301364 0.855541 -0.179912 -0.036715 0.166144
big -0.288923 0.446446 -0.218623 -0.220685 -0.177796 -0.485978 0.447773 0.133591 0.707916 -0.141385 0.194736 -0.370627 -0.259165 -0.524918 0.814811 0.129388 0.090145 -0.258395 0.103978 0.020275 -0.105967 -0.313719 0.449021 -0.161670 0.061871 -0.058143 -0.565566 -0.322154 0.234819 -0.399080 0.228987 0.253932 -0.029958 0.353219 -0.393549 -0.294512 -0.436362 -0.465922 0.412925 -0.424584 0.112649 -0.079797 0.007671 0.487288 -0.001286 -0.333139 0.029332 -0.322470 -0.353361 0.307635
bit -0.054691 0.323739 -0.413260 0.033438 0.301588 -0.986934 0.478358 0.051202 0.701384 -0.012109 0.284974 -0.446059 -0.133059 -0.817257 -0.094285 0.059199 -0.716811 -0.249964 0.307512 -0.049378 0.508615 0.529533 0.556187 -0.542834 -0.284849 -0.113771 -0.688223 -0.570923 -0.706622 0.331945 0.148819 0.001347 -0.404580 0.211890 -0.398242 -0.633097 -0.760892 0.643360 -0.475155 -0.665019 -0.177688 -0.975160 0.825497 0.834407 -0.351105 -0.308961 0.849905 0.218020 0.235930 0.271090
cold -0.461379 0.704704 -0.019253 -0.158138 -0.014503 -0.391827 0.342454 -0.485310 0.631178 0.126678 -0.205329 0.288051 -0.430793 0.263085 0.053017 0.512606 0.110895 -0.276405 0.302293 -0.219973 -0.329843 -0.060427 0.407635 -0.417270 -0.174632 0.679999 -0.072457 0.193369 0.257623 0.248940 0.173336 0.604200 -0.423005 0.535215 -0.142054 0.621475 -0.466980 0.115496 0.393986 -0.338429 0.022063 -0.148873 0.309230 -0.169925 0.482149 -0.509311 -0.364805 -0.178934 -0.525268 -0.501147
dance -0.322106 -0.085254 0.010356 -0.308824 0.515107 0.538592 0.279034 0.683440 -0.560915 0.080350 -0.469015 0.052007 0.196351 -0.328087 0.100212 0.274507 -0.403799 0.365814 -0.335870 0.443292 -0.048794 0.162707 -0.122193 0.176708 0.789987 0.114160 -0.342489 -0.172342 0.686992 -0.092621 0.137985 -0.623819 0.293457 -0.487672 0.417509 0.151476 0.082309 -0.144387 0.109358 0.156196 -0.647777 -0.164778 -0.497386 0.174435 -0.291157 -0.129711 -0.362543 -0.359892 -0.101026 -0.061323
home 0.120900 -0.619254 -0.155139 0.046475 -0.044956 0.062644 -0.383707 -0.254886 -0.210042 -0.057769 0.193836 -0.098609 -0.553669 -0.277153 -0.294349 -0.105202 -0.298771 0.310151 -0.293002 -0.110027 0.031217 0.232341 0.401713 -0.194944 -0.057226 -0.213472 -0.027251 0.055780 -0.351153 0.305842 -0.016374 -0.196671 0.263162 -0.454215 0.006132 0.102288 -0.449729 0.382346 -0.626762 0.438032 0.015549 0.174125 0.229470 0.250980 -0.028354 0.724939 0.044619 0.005434 0.058753 0.245928
lord 0.206568 0.291857 0.270163 -0.485837 -0.844037 -0.171096 -0.021613 0.061418 -0.569359 -0.779354 -0.076865 0.244738 -0.709638 0.014475 0.170094 0.051484 0.521410 0.077209 0.363269 0.077987 -0.094493 0.355465 0.352395 0.074073 0.363142 -0.169683 0.153774 -0.097343 -0.194688 0.208897 0.078577 0.300612 -0.332046 -0.466801 -0.110214 0.205539 -0.238129 -0.037939 -0.329449 0.400186 0.396875 0.011416 0.190303 -0.045395 0.042520 0.131288 0.853736 0.054720 0.270963 -0.495528
mercy 0.228803 0.361415 -0.430760 -0.578491 0.026865 -1.028003 0.284979 -0.175463 0.440963 -0.038511 -0.317085 -0.142089 -0.600957 -0.635958 0.316356 -0.173621 -0.262258 0.066794 0.069187 -0.235229 -0.003659 0.163911 0.321822 -0.087887 -0.313308 0.023557 -0.367423 -0.104663 -0.227203 0.443026 -0.421601 0.479230 -0.008234 0.139205 0.053127 0.528098 -0.532712 -0.064046 -0.601356 0.112475 -0.048894 -0.444771 0.350049 -0.106934 -0.978356 0.210473 1.038008 0.246622 0.036080 0.178731
run -0.148519 -0.101460 -0.328901 0.150197 -0.017156 0.354388 0.198307 0.097485 -0.227955 0.199592 -0.294084 0.047833 -0.133622 0.206318 -0.401669 0.000057 -0.308076 0.190538 -0.164067 -0.242065 0.132211 -0.083867 0.060659 0.057863 0.027930 0.104038 -0.249574 -0.008308 -0.081022 0.163197 -0.107413 -0.491775 0.017284 -0.026714 -0.077030 -0.118545 0.250082 -0.183796 0.413678 -0.011698 -0.022548 0.472821 0.028292 0.121801 0.157673 -0.054355 -0.722095 -0.024038 -0.320504 -0.034673
salt -0.811228 -0.046951 0.606174 0.456940 0.636453 -0.659612 0.611736 0.625298 0.388912 0.132614 -1.308432 0.160200 -0.174279 -0.612404 -0.623510 -0.524591 0.084818 0.461147 -0.452672 0.321685 -0.024344 -0.308987 0.418917 0.323008 0.355222 0.419907 -0.937378 -0.319550 0.507257 0.619422 -0.435014 -0.606484 -0.479417 0.150773 -0.180715 -0.401260 0.597711 -0.235044 0.183577 0.252887 0.368339 0.253170 0.233694 0.832534 0.310522 -0.837422 -0.152643 0.903583 -0.616080 -0.780804
thang 0.618407 -0.012839 -0.780800 -0.285284 0.149340 -0.910785 -0.335925 0.191428 -0.127216 -0.151355 -0.410035 -0.075071 -0.843868 -0.068925 0.401340 -0.895917 0.415334 0.267479 0.670390 -0.044538 0.187260 -0.023392 -0.476382 0.421030 -0.354121 0.165943 0.093107 0.077006 -0.042100 0.192928 -0.510100 -0.031842 0.503657 0.015930 0.339455 0.836482 0.278862 -0.069588 -0.520210 0.093981 -0.372049 0.044364 -0.071941 -0.664464 -0.718533 0.363520 0.686461 0.259261 0.485922 0.382889
wait 0.008104 0.273812 0.842983 0.150733 0.398478 0.415895 -0.112014 -0.882523 1.130833 -0.076151 0.999608 0.064784 -0.088807 0.111145 0.113524 -0.050137 -0.271056 -0.021098 0.375895 0.012551 -0.348340 0.110510 -0.705581 -0.241986 -0.435798 -0.289260 1.427634 0.869181 0.133779 -0.313527 0.536980 0.257200 0.343872 0.192743 -0.272411 -0.099458 0.089592 1.027952 -0.963855 -0.337782 0.057380 0.636514 -0.342365 -0.315910 0.025011 0.181027 -0.586823 0.200840 0.144691 -1.008875
bang 0.724730 0.217501 -0.186039 -0.265173 -0.098770 -0.034630 0.057244 -0.065733 -0.121683 -0.125217 -0.452641 -0.200214 -0.189383 -0.146513 0.175279 -0.116908 0.050221 -0.331285 -0.632083 0.100427 -0.115139 -0.208097 0.173781 0.175284 0.139711 -0.608605 0.134664 0.349363 -0.103272 -0.003195 -0.171215 -0.064013 0.203910 -0.280603 0.553816 0.511691 -0.454272 -0.255806 -0.424790 0.500022 -0.062258 0.443266 -0.066935 0.113346 -0.565872 0.659793 0.789686 -0.161356 0.470220 0.089673
game -0.395928 -0.024168 -0.146748 0.223367 -0.048876 0.220124 0.301361 0.045917 -0.123692 -0.015530 0.193505 -0.292088 0.163575 0.123073 0.268680 0.387020 0.268070 -0.058408 0.440711 -0.069042 -0.093262 -0.007812 -0.036247 -0.042372 0.093476 0.414171 -0.173027 -0.088932 0.121836 -0.153716 0.364002 0.160646 -0.214758 0.288623 -0.078955 -0.248691 0.036847 0.022639 0.595887 -0.529070 -0.256450 0.175643 -0.197873 0.026357 0.542007 -0.088831 -0.523397 -0.144112 -0.229165 0.223397
leave -0.212216 -0.033637 -0.213009 0.127602 -0.173049 0.232738 0.009374 0.168271 -0.018546 -0.023332 0.403594 -0.322007 0.440882 -0.039921 0.064391 0.407447 -0.180012 -0.053814 0.234230 -0.271020 -0.009581 -0.192276 -0.139066 -0.113769 -0.176467 0.221941 -0.136296 0.068641 -0.077863 -0.030804 0.298087 0.226791 -0.230744 0.184185 -0.184592 -0.146947 0.103660 0.072258 0.289153 -0.525808 -0.173921 0.022684 0.125548 0.081403 0.320640 -0.065102 -0.359263 -0.264887 -0.170690 0.145501
men -0.103510 0.020798 -0.443089 -0.046813 0.248031 -0.767140 0.532885 0.060275 -0.059095 -0.068298 -0.759491 -0.166237 -0.396098 -0.492780 0.408902 -0.440513 0.299993 -0.086812 0.463254 -0.335188 -0.424383 0.503049 0.392122 -0.202586 -0.067585 0.289344 -0.514239 -0.023522 -0.392723 0.413841 -0.624795 0.691563 -0.112410 0.279169 0.225874 0.751374 0.125557 -0.449453 -0.331360 0.389831 -0.298234 -0.564352 -0.133215 -0.107265 -0.497549 0.098177 0.822918 0.394825 -0.235770 0.509010
roll -0.308009 -0.273398 0.129628 -0.141297 0.298421 0.281282 0.145874 0.498711 -0.415613 0.382414 -0.274283 0.685115 0.010808 -0.018514 -0.938068 -0.257129 -0.351908 0.240882 0.079590 0.381032 -0.188713 0.078158 -0.460922 0.394349 0.378163 0.507648 0.020538 -0.170954 0.069411 0.261596 0.003075 -0.516036 -0.013770 0.041195 0.008774 -0.200719 0.313110 0.377436 -0.206458 0.109320 0.105380 0.101970 0.101857 0.003036 -0.296663 -0.173746 -0.278270 0.422452 -0.325537 -0.249190
start 0.784371 -0.248888 0.140457 0.223869 0.240847 0.847541 -0.271767 -0.082927 -0.262125 0.277234 0.346334 0.782607 0.171115 0.889735 -0.830899 -0.132463 -0.111628 -0.437579 -0.555616 -0.522148 -0.211447 -0.814470 0.734602 0.219828 -0.064177 -0.544127 -0.082963 0.871847 0.338129 0.402262 -0.114329 -0.020923 0.106216 -0.335100 -0.000283 0.181581 -0.009781 -0.149897 -0.626932 0.586372 0.024780 0.750571 -0.231982 0.021475 0.225358 0.429181 -0.456096 -0.404308 -0.119001 0.239518
tonight 0.235488 -0.084900 -0.052951 0.216790 -0.158162 -0.329581 -0.157458 0.479339 0.132421 -0.147572 -0.050016 -0.209671 0.242160 -0.356297 0.454038 0.283095 -0.214368 -0.674774 -0.869068 0.419121 -0.481952 -0.151452 0.655296 0.116645 0.409764 -0.648516 0.386343 0.474133 0.017877 0.150877 0.092248 0.194668 0.102632 -0.200032 0.312131 0.036593 -0.045181 -0.113581 -0.656444 0.424371 -0.145114 0.142769 0.251539 0.308914 -0.340097 0.393949 1.244123 -0.018484 0.614059 -0.164756
cause -0.446666 -0.169144 0.025491 0.266066 -0.128766 0.164484 0.081891 0.576179 -0.043502 0.046223 -0.102262 -0.024013 0.255070 0.037073 -0.278592 -0.049838 -0.215726 -0.001741 0.064959 -0.131745 -0.132860 -0.076239 -0.130333 0.303622 0.128578 0.344735 -0.311996 -0.225686 0.041264 0.246567 0.132664 -0.004888 -0.176043 0.329110 -0.098212 -0.460594 0.384421 0.024628 0.513024 -0.404431 -0.114681 0.237572 0.205031 0.083260 0.292640 -0.263556 -0.426126 0.193258 -0.265362 -0.281582
drop -0.489678 0.430775 0.576136 -0.060324 0.049189 0.344651 0.256079 0.423857 0.071669 0.236177 -0.345867 0.517090 0.503466 -0.648211 -0.558047 0.059506 -0.150359 -0.174223 -0.176691 0.600821 0.055647 0.114612 -0.275608 0.423973 0.256109 -0.387982 0.310652 -0.611555 -0.238924 -0.015771 0.095615 -0.687085 -0.236838 -0.096944 0.283077 -0.396878 0.073834 -0.237559 0.258595 0.332037 0.199706 0.228603 0.193957 0.181137 -0.348029 -0.337054 -0.559574 0.228926 0.086155 -0.097801
holy 0.354647 0.655467 0.159200 -0.240836 0.377839 -0.765104 0.125554 -0.519171 1.150074 -0.095787 -0.171130 -0.045018 -0.083851 -0.659117 0.075453 -0.219722 -0.652888 -0.265276 0.390769 0.162827 0.291712 0.223485 0.202082 -0.234078 -0.562501 -0.255773 0.459876 -0.150709 -0.286652 0.279883 0.011518 0.000748 0.055935 0.043432 0.241671 0.626962 -0.732940 0.253615 -1.219745 0.203115 -0.514256 -0.494514 0.190953 -0.069222 -1.154452 -0.155017 0.816244 0.139766 0.427067 -0.376899
looking 0.123396 0.152611 -0.443512 0.248376 0.060907 0.136294 0.210626 -0.223261 0.117746 0.276532 0.334214 -0.089574 0.149275 -0.265812 0.077213 0.286915 0.311237 -0.354539 -0.177257 0.146246 -0.055080 0.012462 -0.314518 -0.109876 0.114272 -0.274391 0.175706 0.100466 -0.577552 0.039231 -0.268304 -0.129345 0.175831 0.530317 -0.022989 -0.196363 -0.054787 -0.295155 0.195174 0.121380 0.234477 0.112671 0.027951 0.284251 -0.158230 -0.047144 -0.286599 -0.077597 -0.069493 0.803717
lose 0.461156 -0.317198 0.104537 0.278577 -0.251027 0.241917 -0.358393 0.464205 -0.274486 0.258902 -0.028748 0.235814 0.037658 0.014132 -0.668955 0.175488 -0.479389 0.326000 -0.557682 0.699012 0.591691 0.135636 0.102181 0.493562 0.097251 -0.279579 -0.036527 -0.189902 -0.278354 0.075594 0.168783 -0.404595 0.429763 -0.478722 -0.341399 -0.402834 0.278015 0.284969 -0.188997 0.308449 0.117111 0.078327 0.208610 0.138900 0.432074 0.293955 0.189820 0.392866 0.717836 -0.593319
mean -0.247423 -0.237709 -0.184286 0.386204 -0.155314 0.583907 -0.416683 0.479355 -0.501239 -0.068753 0.136047 -0.612209 -0.020661 0.607559 0.156306 0.666173 -0.171137 0.532161 0.061862 -0.156077 -0.281059 -0.156061 0.020630 0.015527 0.194811 0.209772 -0.243815 0.421602 0.295622 -0.280974 0.244162 0.041992 0.267884 -0.232756 0.001124 0.258875 0.022758 -0.347440 0.498801 0.076118 -0.247447 -0.366094 -0.413056 0.025472 0.909806 0.020982 -0.749053 -0.858072 -0.238088 -0.167390
ta -0.478435 -0.096196 0.006783 0.288496 -0.344870 0.335129 0.162794 0.184972 -0.478051 0.259035 0.188416 0.308636 0.055303 0.331340 0.038509 0.116518 -0.020541 -0.042281 0.088611 0.122415 0.237257 0.386531 0.169796 0.037832 0.269643 0.331460 0.133878 -0.196411 0.110936 -0.096055 0.252142 0.061732 -0.126653 0.271833 -0.074125 -0.425800 0.504380 -0.165304 0.781063 -0.122647 0.151471 -0.007724 -0.217380 -0.043408 0.556363 -0.265723 -0.697721 0.042362 0.081759 0.218483
told -0.080527 0.189361 -0.125672 0.072020 -0.046380 0.225785 0.371820 -0.174314 -0.043571 0.164762 0.363378 0.054387 0.139899 0.154621 -0.150729 0.347063 0.307735 -0.321500 0.193870 -0.164890 0.042706 -0.222513 -0.162933 -0.087630 -0.059128 0.178580 0.036021 -0.021213 0.150850 0.069714 0.225022 0.297460 -0.121505 0.435022 -0.146110 -0.331622 0.051378 -0.191747 0.144713 -0.373055 -0.032398 0.552013 -0.087779 0.010745 0.213703 -0.042044 -0.411770 -0.123503 -0.209944 0.360943
wi 0.111913 0.224472 -0.266127 -0.281468 0.235730 -0.063321 0.006704 -0.012473 -0.139782 0.199683 -0.105027 -0.332159 0.027159 -0.094458 0.294139 0.021603 0.047473 -0.383964 -0.251343 -0.113465 -0.027192 -0.143510 -0.014927 0.006919 -0.039077 -0.197756 0.208310 0.295963 0.000657 -0.092242 -0.199811 0.257871 0.159927 0.060666 0.412080 0.496041 -0.233633 -0.182133 -0.184995 0.175442 -0.117145 0.201565 -0.343947 -0.152548 -0.529564 0.369087 0.392333 -0.134853 0.129745 0.399967
woo -0.250284 -0.160204 -0.217462 0.128497 0.224517 0.374428 0.124000 0.044924 -0.026699 0.127941 0.317044 -0.609291 0.039712 0.046150 0.344955 0.571915 -0.290421 0.320383 -0.078017 -0.009557 -0.051421 -0.054857 -0.151497 -0.350787 0.210746 0.173864 -0.283428 0.070147 0.419716 -0.283708 0.325547 -0.121824 0.344925 -0.117863 -0.184436 0.001229 -0.239400 0.066093 0.210672 -0.430862 -0.275734 -0.235538 -0.243972 0.193175 0.337380 -0.181138 -0.529673 -0.553442 -0.312578 0.009563
death -0.036823 -0.089953 -0.338144 0.112290 0.185535 -0.412906 0.372278 0.140705 -0.159346 -0.155339 -0.576213 -0.094289 -0.263699 -0.289146 0.417505 -0.348208 0.222858 0.028495 0.369396 -0.159033 -0.344311 0.446266 0.502084 -0.179055 0.055152 0.216463 -0.509720 0.009778 -0.324128 0.254392 -0.461630 0.534100 -0.098170 0.125199 0.011864 0.541248 0.234392 -0.363861 -0.231376 0.361500 -0.262591 -0.432702 -0.192546 -0.027605 -0.143426 0.109986 0.505535 0.330695 -0.154495 0.168094
find 0.294165 -0.088568 -0.174605 0.059271 0.045470 0.450066 0.102364 0.028620 -0.153102 0.030795 0.419216 -0.124828 0.540313 0.249210 -0.141836 0.029494 0.100265 -0.351609 0.136483 -0.404833 -0.156747 -0.518238 -0.332847 0.093913 -0.095768 0.044683 -0.060350 0.318599 0.179083 0.120927 0.059736 0.103539 -0.018152 0.154076 0.086265 -0.060613 0.130979 0.087735 0.033814 -0.339077 -0.257988 0.427307 -0.242149 -0.169802 0.087312 0.356205 -0.386433 -0.131132 -0.092131 0.596677
matter -0.140149 -0.278109 -0.586345 0.118072 0.664812 0.507523 0.083705 0.093499 -0.339362 -0.020560 0.236902 -1.142002 -0.043439 0.011692 0.336290 0.909382 -0.278727 0.942267 0.041571 -0.095212 -0.151381 -0.119947 -0.464611 -0.342099 0.271154 0.294200 -0.575906 0.415324 0.510488 -0.261301 0.148056 -0.364215 0.509414 -0.614030 0.146327 0.530435 -0.614034 -0.098275 -0.091853 -0.207501 -0.767350 -0.544936 -0.563907 0.173520 0.218181 0.076640 -0.525549 -1.060974 -0.617703 0.145213
shaker -0.711666 0.016242 0.629112 0.374318 0.563392 -0.578600 0.578774 0.452554 0.354468 0.134299 -1.244463 0.182624 -0.173561 -0.567726 -0.586991 -0.472449 0.116367 0.451616 -0.482841 0.275708 0.003267 -0.312132 0.332849 0.256984 0.267901 0.327890 -0.891465 -0.304453 0.432829 0.514900 -0.396447 -0.614085 -0.443568 0.090694 -0.172930 -0.321208 0.507952 -0.293195 0.226314 0.288631 0.431571 0.214893 0.236094 0.780499 0.286758 -0.768175 -0.159760 0.768212 -0.611619 -0.719237
fame -0.238101 -0.446651 -0.065040 0.097610 -0.241327 -0.159717 0.024904 -0.203266 0.108539 -0.341216 0.584897 -0.216735 0.392670 -0.172592 0.286069 0.034317 -0.717180 0.244956 0.053938 -0.040843 0.190495 0.226326 -0.278615 -0.188140 -0.236552 0.011001 0.452304 -0.127923 -0.131937 -0.155373 0.000890 0.076799 0.195662 -0.090803 -0.367516 -0.322220 0.392490 0.190799 0.005815 -0.000728 0.132369 -0.126597 0.312846 -0.174914 -0.354982 0.134641 0.121344 0.019892 -0.153130 0.115275
foot 0.269231 0.363561 0.338821 -0.444117 0.384861 -0.780588 -0.138471 -0.113418 0.047946 0.245617 -0.799239 0.318324 -0.337354 -0.485344 0.185449 -0.687679 0.321580 -0.080621 0.142636 0.098942 0.049392 0.295222 0.103261 0.018626 -0.412653 -0.254344 -0.231983 -0.356901 -0.494639 -0.086103 -0.313366 -0.216667 0.224943 -0.241527 0.592869 0.711978 -0.260686 -0.023998 -0.500184 0.533201 -0.103547 -0.718194 0.236066 -0.127552 -0.598122 -0.090207 0.850318 0.388567 0.472320 0.154208
gimme -0.068617 -0.111700 -0.145024 -0.475544 0.299131 -0.370310 0.042733 0.018758 -0.021975 0.265531 0.221365 0.351786 -0.470513 -0.514506 -0.058399 -0.528677 -0.046050 0.410860 0.360255 -0.232095 0.489107 0.449255 -0.170941 -0.163259 -0.202214 0.224809 -0.091636 -0.156680 -0.007451 0.126176 -0.290418 0.044660 -0.072781 -0.219744 0.226454 0.067818 0.171933 0.155246 -0.712736 0.022090 -0.041730 -0.634918 -0.059844 -0.171982 -0.656868 -0.204119 0.227216 0.257523 0.001768 0.239054
mind -0.061592 -0.031932 0.146252 0.134339 -0.118026 0.388683 0.193786 -0.203948 -0.302725 0.109295 0.000504 -0.006216 0.249506 0.317222 0.256448 0.081944 0.249763 -0.107839 -0.056869 -0.057424 -0.019619 -0.239535 -0.122264 -0.107804 -0.036401 -0.064338 0.019456 0.132986 0.025134 -0.266320 0.068197 0.093308 0.042763 0.280108 -0.062161 -0.017836 0.162771 -0.118905 0.617086 -0.176678 0.250851 0.434155 -0.261060 0.035638 0.394035 0.138731 -0.384123 -0.166505 -0.185488 0.020813
pon 0.036567 0.159423 -0.093055 -0.222464 -0.184154 -0.523112 0.185974 -0.047450 -0.135753 -0.517450 -0.340102 0.147106 -0.359619 -0.199906 0.406123 -0.104224 0.456375 0.150340 0.648423 -0.145898 -0.211269 0.298833 0.457226 -0.155568 -0.029607 0.291654 -0.418393 -0.232684 -0.275281 0.306312 -0.296654 0.478909 -0.411034 -0.029902 -0.150059 0.449589 -0.093794 -0.217689 -0.261632 0.234461 -0.114819 -0.461814 0.109548 -0.132616 -0.084623 -0.070668 0.678999 0.228476 -0.159086 -0.180497
ride -0.123617 0.403489 0.618482 -0.182355 -0.030510 -0.016709 -0.277228 -0.378791 0.282411 -0.038825 0.112268 0.410286 0.196814 0.653478 0.175727 0.232355 0.095379 -0.454901 -0.155562 -0.117071 -0.211237 -0.217514 0.493429 -0.236456 0.024118 0.011453 0.225522 0.206630 0.437090 -0.158782 0.121838 0.304137 -0.025486 0.133743 -0.091958 0.388463 -0.059621 0.122040 0.276774 0.041346 0.124364 -0.245598 0.022154 -0.426981 0.393832 -0.375488 0.013622 -0.226138 -0.028552 -0.621684
shimmy 0.141820 0.341015 0.422764 -0.152119 0.064574 -0.461249 -0.174055 -0.085924 0.500663 0.021915 -0.218209 0.399737 -0.248467 -0.511600 -0.078160 -0.326399 0.016131 -0.151859 0.045085 0.409925 0.017755 0.399101 0.139768 0.075659 -0.284149 -0.461923 0.218467 -0.341329 -0.388533 -0.047310 0.080629 -0.051859 0.220290 -0.145980 0.060439 0.044100 -0.106452 0.093051 -0.417916 0.348858 0.250562 -0.404653 0.278268 0.083342 -0.428418 -0.101834 0.488132 0.432089 0.600957 -0.172036
track 0.049505 0.117455 -0.022195 -0.032501 -0.215695 -0.176367 0.317363 -0.365738 0.135736 -0.217241 0.022129 -0.406365 -0.011610 0.161233 0.264292 -0.236246 0.331598 0.155579 0.113076 -0.286931 0.263736 -0.387201 -0.188975 -0.012798 -0.155593 -0.027285 -0.149716 -0.037966 -0.094495 -0.185251 0.061994 0.203825 -0.298240 0.479038 -0.177610 -0.064973 -0.227794 -0.254712 0.479608 -0.262430 0.422064 0.570166 0.019989 0.262790 0.132642 0.169049 0.015761 -0.081446 -0.567398 0.026539
work -0.363127 0.106397 0.329017 0.152354 0.157436 0.257111 0.135207 0.163671 -0.014640 0.274150 -0.002480 0.091612 0.459676 0.091989 -0.283927 0.461221 0.293022 -0.275391 -0.015965 0.072963 -0.440154 -0.312040 -0.266073 -0.048575 0.171363 0.137520 0.130675 0.281276 0.235167 -0.115153 0.343251 0.117865 -0.096110 0.183539 -0.041271 -0.120578 0.195165 0.009784 0.308016 -0.183321 0.030108 0.161591 -0.145532 0.138768 0.428539 -0.281005 -0.295963 -0.181707 -0.325205 -0.135579
away -0.108417 -0.240576 -0.393516 0.042724 0.263444 -0.086811 0.149625 -0.101083 -0.029479 0.280560 -0.023427 -0.160732 -0.173428 -0.157366 -0.450514 0.335353 -0.010945 0.191049 -0.015788 -0.289758 -0.001149 0.217721 -0.491276 -0.294871 -0.233489 0.442358 -0.170402 0.124830 -0.049995 0.165543 0.016650 0.041539 0.130321 0.211286 0.042734 -0.019640 -0.031012 -0.155832 -0.004510 -0.119313 -0.066599 -0.257474 0.032019 0.303251 -0.079395 -0.113180 -0.130535 -0.076481 -0.418671 0.157848
bound 0.268694 0.180946 -0.741566 -0.105501 0.360792 -0.116451 0.535660 -0.420922 0.459525 -0.225170 0.265526 -0.713776 0.262968 -0.461543 -0.283404 -0.119690 -0.214284 0.044602 0.435397 -0.608695 0.564933 -0.265493 -0.628131 0.063828 -0.618438 0.212391 -0.460129 -0.076340 -0.383744 0.292690 -0.003609 0.073179 -0.615985 0.310441 0.180134 0.017632 -0.828451 0.490672 -0.404263 -0.901498 -0.576476 0.288410 0.301604 0.005032 -0.564421 0.410282 0.125746 0.107058 -0.310938 0.543427
friends 0.067434 -0.393959 -0.297512 0.199553 0.318572 0.168578 -0.193683 0.065409 -0.343087 0.007291 -0.186676 -0.222547 -0.197629 0.466503 0.173175 0.170815 -0.243148 0.220861 -0.523215 -0.244333 -0.089840 -0.182799 0.429688 -0.178948 0.195037 0.148630 -0.258738 0.320836 0.402678 0.134676 -0.425982 -0.262008 0.154358 -0.261599 0.040405 0.361076 0.041406 -0.199473 -0.079247 0.314659 -0.072556 0.054060 -0.205492 -0.002214 0.050053 -0.140688 -0.178415 -0.166998 -0.364495 -0.217434
getting -0.113415 -0.092994 -0.081541 0.242527 -0.102258 0.509278 -0.119512 0.140097 -0.501071 0.109702 -0.134764 -0.055376 0.047463 0.443355 0.039605 0.158837 -0.042607 0.142328 -0.106829 0.049270 0.003421 -0.018988 -0.002017 0.021648 0.163095 0.016637 0.079565 0.085332 -0.034443 -0.152002 -0.089355 -0.166799 -0.024703 -0.078532 0.071855 0.038405 0.085138 -0.186995 0.583924 0.081797 0.074409 0.195459 -0.212403 -0.020078 0.335221 0.091512 -0.549987 -0.239880 -0.191689 0.022981
lit 0.118972 0.189830 -0.070690 -0.127231 -0.190575 -0.193304 -0.138688 0.250488 -0.137480 -0.227563 -0.033080 -0.225602 0.368151 -0.034778 0.529652 0.409853 -0.130415 -0.774839 -0.799939 0.207663 -0.467203 -0.381432 0.458669 0.087377 0.435823 -0.470766 0.564522 0.719107 0.286407 -0.059032 0.016613 0.425704 -0.014129 -0.194534 0.434941 0.373575 -0.037373 -0.353171 -0.322381 0.483711 -0.150236 0.226182 -0.122571 -0.045954 -0.377326 0.325540 0.997778 -0.224285 0.388608 -0.014580
m 0.434604 -0.094871 -0.004117 -0.111224 0.148331 0.581806 -0.677226 -0.242395 -0.382829 0.130081 0.252053 -0.151773 -0.214882 0.452555 0.055451 -0.230850 -0.360016 0.173179 -0.886067 -0.249084 0.250496 -0.104115 -0.391775 -0.263454 0.048912 -0.224942 0.397314 0.359603 0.344876 -0.517359 -0.268491 -0.403145 0.329077 -0.624080 0.351161 0.404052 -0.139560 0.119801 -0.543182 0.031251 0.259563 -0.278024 -0.619969 -0.130598 -0.171027 0.232478 -0.013502 -0.311743 0.402835 -0.335584
outta -0.106228 -0.262625 -0.193420 0.316814 0.213612 0.071083 0.217775 0.235681 -0.172406 0.254536 -0.606995 -0.083979 -0.078016 -0.300884 -0.243186 -0.079090 0.037840 0.187282 -0.288924 0.223581 -0.030371 -0.066924 -0.042653 0.295741 0.102993 -0.059562 -0.255791 -0.164445 -0.010582 0.263656 -0.197804 -0.395408 -0.030896 0.120069 0.176874 -0.143246 0.061608 -0.074669 0.142960 0.183087 -0.094183 0.201946 -0.007099 0.391885 0.097601 0.210119 0.065990 0.072380 -0.035014 -0.134218
play 0.051100 0.045414 -0.051053 0.094897 0.030220 0.282420 -0.009961 -0.014764 -0.373741 0.150522 -0.021328 0.114843 -0.084853 0.285675 -0.196319 0.325164 0.404510 0.116212 -0.007425 -0.006051 -0.081656 -0.032275 -0.188410 0.075409 0.115360 0.300656 -0.070629 0.036900 0.169728 0.287675 0.008959 0.005852 -0.059506 0.101692 0.157474 -0.013006 -0.059022 -0.054462 0.142017 -0.025676 -0.163078 0.278251 -0.217398 -0.070304 0.399556 0.095172 -0.347377 -0.137991 -0.045038 -0.072900
pop -0.207119 0.244380 0.368974 -0.161246 -0.225412 0.014324 0.167721 0.017367 0.097024 0.092546 -0.008890 0.366227 0.353585 -0.399332 -0.252469 0.128697 0.245723 -0.057876 0.135373 0.437775 -0.076600 0.278376 -0.116407 0.137943 0.161995 -0.260136 0.266250 -0.369162 -0.203318 -0.150647 0.232424 -0.120172 -0.127523 -0.001313 -0.067083 -0.217005 0.098975 -0.188277 0.246999 0.100191 0.472432 -0.034816 0.325320 0.118199 -0.164510 -0.287552 -0.098381 0.132104 0.070239 -0.117172
skeet 0.261420 0.061978 -0.174921 0.140619 -0.365566 -0.219323 -0.461863 0.177059 -0.888524 0.085206 0.400476 0.247403 -0.604040 0.738611 -0.469214 0.153322 0.276970 0.274747 0.249100 -0.473614 0.381869 0.751362 0.589716 0.134843 -0.064167 0.482859 0.426290 -0.420115 -0.145053 0.107161 -0.122175 0.555270 -0.614433 -0.315259 0.178651 0.258904 -0.121289 -0.046223 -0.301754 0.384269 0.070555 0.063663 -0.147698 -0.742042 0.093222 0.413243 0.325379 0.549348 0.472100 0.095315
walk -0.318501 -0.547516 -0.091418 0.192235 -0.048387 0.164516 0.124496 0.237080 -0.291610 0.027867 0.150711 0.017730 0.161370 0.032554 -0.176694 0.040348 -0.288793 0.191234 -0.168881 -0.022137 0.028672 0.126140 -0.194017 0.017358 0.099165 0.222196 0.042631 0.113397 0.155077 -0.061275 0.086267 -0.004059 0.087668 0.162130 -0.160553 -0.394037 0.495055 0.015082 0.165047 -0.028369 0.171640 0.105444 -0.070404 0.235730 0.123947 0.016831 -0.216131 0.083326 -0.248888 -0.039818
wall 0.153703 0.149993 -0.294694 -0.031746 0.023577 -0.124576 0.273452 -0.187194 0.041530 0.008365 -0.062997 -0.241756 -0.056704 -0.264015 -0.005242 0.012593 0.160831 0.089546 0.198834 -0.059538 0.222319 -0.065238 -0.223152 0.089883 -0.165454 -0.020335 -0.045843 -0.188146 -0.172387 0.090148 -0.081086 -0.029544 -0.227868 0.156902 0.117977 -0.010713 -0.206551 -0.080873 -0.101421 -0.120283 -0.088940 0.334279 0.119096 0.041630 -0.257067 0.150110 0.199342 0.018221 -0.106431 0.115849
woman -0.139162 0.031558 0.490136 -0.034376 -0.106401 -0.093415 -0.233589 -0.251508 0.358007 -0.348222 0.009609 0.509225 -0.153961 0.805386 -0.081559 -0.077020 0.026481 0.068053 -0.108621 0.036037 -0.274312 -0.168155 0.288637 -0.100838 0.167761 0.322529 0.199379 0.136871 0.444327 -0.136729 0.044074 0.241302 -0.055127 0.010619 -0.408126 0.088499 0.170488 0.190989 0.273864 -0.016461 0.479968 -0.099492 0.110765 -0.273920 0.442537 -0.412183 -0.181608 0.200467 -0.337840 -0.752121
yes 0.544058 0.250985 0.048101 -0.784846 -0.401922 -0.293216 -0.076412 0.036821 -0.534626 -0.424813 -0.222286 0.262002 -0.985700 -0.287283 -0.120141 -0.307539 0.609799 0.120741 0.233323 -0.053377 0.073116 0.281094 -0.116180 0.163415 0.190891 -0.383435 0.093415 0.060683 -0.231886 0.308453 -0.081904 0.160608 -0.080578 -0.632861 0.174545 0.486173 -0.308475 0.100217 -0.859698 0.416179 0.334811 0.184968 0.154891 -0.076669 -0.529759 0.449527 1.119154 0.205476 0.359248 -0.227103
boo -0.044664 -0.241660 -0.509800 0.018629 0.835269 0.371724 0.203888 0.141816 -0.233954 0.073249 0.145119 -0.917121 0.070752 -0.088310 0.190198 0.797090 -0.304210 0.751089 -0.019698 -0.031461 -0.200262 -0.227997 -0.378803 -0.223746 0.366066 0.291838 -0.730575 0.477645 0.564647 -0.143371 0.171882 -0.313596 0.539481 -0.665038 0.194870 0.571073 -0.640083 0.003305 -0.158012 -0.299017 -0.856867 -0.484823 -0.473687 0.178191 0.101977 0.121007 -0.424692 -1.020772 -0.655783 0.189034
came -0.121713 -0.493571 0.170009 0.490638 -0.025295 -0.042444 -0.180545 0.438305 0.187166 0.260239 0.000565 -0.098896 0.113719 -0.493070 0.441100 0.025283 0.087549 0.122708 -0.093879 0.443656 -0.271954 0.298227 0.099826 -0.090954 0.020013 -0.295699 -0.053229 -0.254022 -0.248942 0.063394 0.335743 -0.182939 0.342891 0.020215 0.011178 -0.412694 0.279948 0.116069 -0.109069 -0.140631 -0.054062 -0.332813 0.336390 0.406625 0.210859 0.109037 0.286751 0.021097 0.423155 -0.080108
city -0.061049 0.121446 -0.100878 -0.076831 -0.176354 -0.144842 0.046150 0.235940 0.061556 -0.005378 -0.037972 0.043299 -0.095175 -0.085709 0.117602 -0.132217 -0.242975 -0.130564 -0.117250 0.045682 0.145763 0.149319 0.238162 0.077454 -0.014020 -0.114107 -0.098429 -0.174944 -0.035507 -0.020820 0.070453 0.168954 0.074049 0.029220 -0.075592 -0.130909 0.062950 -0.137688 0.232497 -0.021731 0.069167 -0.028289 0.083603 0.018140 -0.114582 -0.015152 0.035686 -0.010342 0.147326 0.086563
comes 0.534894 0.227299 -0.069475 0.011938 0.436457 -0.122047 0.069586 0.167496 -0.238846 0.168376 -0.550923 0.423950 -0.071608 -0.458595 -0.877833 -0.520803 -0.028431 0.214256 -0.158312 0.467121 0.577181 0.261094 -0.186666 0.660735 -0.010927 -0.329168 -0.158841 -0.270067 -0.422101 0.405082 -0.320823 -0.766309 0.117474 -0.452568 0.407626 0.232717 -0.169071 0.177636 -0.585644 0.456964 -0.273504 0.108624 0.225071 -0.025142 -0.524544 0.303752 0.385322 0.396244 0.479836 -0.098750
crunk 0.145596 -0.188798 -0.174152 -0.100901 -0.002346 0.094316 0.040013 0.351870 -0.496138 0.146884 -0.144373 0.175934 -0.087925 0.026403 -0.067691 -0.094934 0.062256 0.189802 0.061625 -0.037554 0.099566 0.091889 -0.131388 0.211895 0.137403 0.103029 -0.024355 -0.087731 0.008298 0.068820 -0.124287 -0.093226 0.022096 -0.046877 0.241875 0.136694 0.115436 -0.009394 0.037954 0.137215 -0.138717 0.081926 -0.137775 -0.114620 -0.167799 0.263596 0.046808 0.065307 0.004507 0.088397
flow -0.166542 -0.014157 0.159882 0.197822 -0.055451 0.082687 0.124667 -0.022893 0.258858 -0.124536 -0.138718 -0.256093 0.256771 -0.377845 0.143948 0.203439 0.497837 0.103753 0.440939 0.041150 -0.022969 -0.353395 -0.184444 -0.141761 -0.215327 0.151025 -0.287315 -0.482091 -0.251210 -0.027436 0.190119 -0.208916 -0.382167 0.382143 -0.194178 -0.471971 -0.039021 0.152357 0.247211 -0.456847 -0.109975 0.187028 0.260051 0.639885 0.545892 -0.287416 -0.107331 0.075247 -0.263911 -0.472030
gun -0.263718 -0.292416 -0.117284 0.386373 -0.024933 0.379974 0.091651 0.075760 -0.183267 0.282123 0.200181 0.007193 0.169695 0.152747 -0.201393 0.355537 -0.002920 -0.034888 -0.292594 0.073204 0.003174 -0.104838 -0.203850 -0.063191 0.195242 0.122709 0.078653 0.098147 0.129592 0.017848 0.109970 -0.128341 0.046065 0.367413 -0.151005 -0.431114 0.302727 -0.037150 0.410706 -0.162950 0.140151 0.189835 -0.146006 0.298935 0.458211 -0.108343 -0.453723 -0.085192 -0.173540 0.105868
hear -0.026955 0.331621 -0.266635 -0.049172 -0.259612 -0.299778 0.280830 -0.065395 0.906062 -0.128768 0.345747 -0.439047 0.000678 -0.362061 0.584797 0.055759 -0.378196 -0.213224 0.008673 -0.034497 0.111771 -0.268733 0.357539 -0.182446 -0.256920 -0.203753 -0.347153 -0.325155 -0.103530 -0.381390 0.300375 0.225800 0.014033 0.347943 -0.483612 -0.301313 -0.520596 -0.129909 0.272131 -0.602548 0.094202 0.024427 0.284991 0.387808 -0.060566 -0.138325 -0.029863 -0.220960 -0.146274 0.157767
hood 0.246762 -0.352900 -0.291403 0.137221 0.300437 -0.678626 0.341024 0.038279 0.347755 -0.466720 -0.833759 -0.197073 -0.338265 -0.124719 0.273194 -0.789481 0.325437 -0.059602 0.347883 -0.123549 -0.372715 0.297252 1.017046 -0.133655 0.056377 0.227450 -0.376669 -0.029983 -0.144111 -0.111513 -0.558232 0.534647 -0.556582 0.125189 -0.119066 0.418935 0.245995 -0.319835 -0.318968 0.553843 0.006003 0.078449 -0.113638 0.290623 -0.390175 0.374473 0.687404 0.674929 -0.331468 -0.168728
lisa 0.352277 0.060610 -0.238004 -0.429892 0.204811 -0.453872 0.014139 0.041132 -0.183015 0.162817 -0.230938 0.335758 -0.250813 -0.372774 -0.314866 -0.534567 0.058701 0.075228 -0.224982 0.192212 0.040277 0.030713 -0.242398 0.381380 -0.156903 -0.090741 0.042318 0.035972 -0.072805 0.541593 -0.509209 -0.539177 0.509219 -0.227180 0.562736 0.102633 -0.440615 -0.098982 -0.704111 0.522862 -0.119730 -0.530740 -0.110944 -0.364506 -1.038272 0.195231 0.597037 0.160477 0.458130 0.524591
listen 0.358805 0.386301 0.090263 -0.172361 0.151867 -0.331895 -0.025349 -0.063419 0.384872 0.149288 -0.214889 0.451880 -0.260176 -0.457096 -0.460679 -0.514778 -0.078067 -0.057917 -0.223854 0.415740 0.208007 0.423864 -0.247451 0.313625 -0.329440 -0.539370 0.133553 -0.233185 -0.442996 0.295638 -0.134448 -0.234596 0.308375 -0.048847 0.146575 -0.140891 0.029330 0.099176 -0.416676 0.446891 0.281419 0.006614 0.237285 -0.038457 -0.723301 0.072031 0.376635 0.465267 0.607087 0.234516
lot 0.164096 -0.246928 -0.226291 0.376415 -0.308236 0.799231 -0.378537 -0.007863 -0.737770 0.108389 -0.141384 0.171578 -0.358415 0.811743 -0.205529 -0.031203 -0.327703 0.100476 -0.175148 -0.179492 0.366589 0.191136 0.558354 0.130309 0.031150 -0.147788 0.220674 0.059054 -0.237888 0.171459 -0.273240 -0.476521 0.136321 -0.218653 0.201245 0.067790 0.019348 -0.158860 0.380988 0.382473 -0.107137 0.460449 -0.182102 -0.279378 0.378743 0.225275 -0.741505 -0.138407 0.225908 0.166304
motherfucker -0.057916 0.068903 0.184759 0.217887 -0.151228 -0.208583 -0.235806 0.185357 -0.590940 0.213672 0.195203 0.338677 -0.362888 0.550310 -0.368269 0.097976 0.301763 0.049451 0.005985 -0.188733 0.154583 0.489586 0.447704 0.172144 0.018870 0.330981 0.426533 -0.284020 0.125461 0.081572 0.086537 0.370366 -0.340615 -0.170477 0.159950 0.005381 0.172837 -0.111818 -0.163363 0.338422 0.101822 0.187412 -0.234079 -0.479559 0.202117 0.227430 0.135289 0.468719 0.444444 0.042717
people -0.102095 -0.398537 -0.200189 -0.271054 0.150946 -0.048687 -0.006471 -0.088255 -0.065506 0.170395 0.169760 0.055202 -0.798444 -0.046111 -0.061431 -0.254212 0.063803 0.122216 -0.045205 -0.240708 -0.040156 0.253547 -0.272654 -0.151784 0.096969 0.267014 0.056956 0.374950 0.199281 0.121237 0.203609 0.350026 0.065502 0.137865 -0.142113 0.068643 -0.041234 0.463852 -0.260288 -0.103031 0.337877 0.228008 0.014020 0.104971 0.041654 0.138700 -0.107507 0.163967 -0.289191 -0.202629
shot 0.178738 -0.070854 0.152741 0.247034 -0.210041 0.059926 -0.194026 0.466312 -0.129775 0.156240 -0.045306 0.434146 0.043752 -0.204113 -0.343865 -0.057509 -0.451063 0.080226 -0.265132 0.645398 0.583897 0.401220 0.491703 0.421217 0.123025 -0.310994 0.071525 -0.454682 -0.271957 0.127386 0.179819 -0.427319 0.208152 -0.455427 0.009224 -0.469220 0.224585 0.233906 -0.226647 0.260582 -0.170051 -0.324648 0.318957 0.097059 0.084333 0.074960 0.260193 0.340464 0.822873 -0.315075
sound 0.592712 0.287066 -0.532507 -0.040394 0.536894 -0.114763 0.184609 -0.035905 -0.388280 0.074346 -0.360821 0.182865 0.028873 -0.264247 -0.827113 -0.635151 -0.028106 0.156527 0.017595 0.116663 0.464814 0.270131 -0.562163 0.588845 -0.037408 -0.264164 -0.141630 -0.039126 -0.439026 0.416452 -0.434486 -0.590913 0.056117 -0.398634 0.537084 0.608109 -0.292023 0.154296 -0.432933 0.255138 -0.352310 0.241260 0.035913 -0.289057 -0.666801 0.437155 0.181165 0.256707 0.276411 0.650963
teeth 0.337149 0.338294 -0.422402 -0.027785 0.479030 0.149624 0.209995 0.042302 -0.498114 0.310044 -0.475312 0.112689 -0.072322 -0.343406 -0.688973 -0.434956 -0.076656 0.152641 0.132636 0.125947 0.638202 0.378425 -0.503475 0.423194 -0.069942 -0.196804 -0.195800 -0.175409 -0.534697 0.315312 -0.340480 -0.670061 -0.024611 -0.304940 0.582802 0.499752 -0.294256 0.045399 -0.239011 0.204458 -0.311217 0.162510 -0.031447 -0.320465 -0.420121 0.284641 0.000058 0.124964 0.336601 0.505592
wet -0.258821 -0.040492 0.136596 0.202994 0.401017 -0.457029 0.432145 0.374597 0.163238 0.144228 -0.958730 -0.046021 -0.214078 -0.349568 -0.294504 -0.481326 -0.075027 0.186393 -0.459147 0.209605 0.037435 -0.169015 0.254167 0.334469 0.222222 0.082969 -0.554183 -0.010849 0.191693 0.425212 -0.437640 -0.251282 -0.154829 -0.106062 0.054883 -0.021136 0.171578 -0.204371 0.008733 0.300968 0.140910 0.433182 0.078308 0.367858 -0.091193 -0.063552 0.151586 0.451420 -0.328913 -0.458974
world -0.180046 -0.139675 0.284830 0.107318 -0.071077 -0.230034 -0.206019 0.108524 0.199658 0.214038 -0.232857 0.071927 0.092187 -0.418146 0.363672 -0.064129 0.453226 -0.021437 0.179568 0.249771 -0.139313 0.133600 -0.198209 -0.097191 -0.258908 -0.196833 0.016473 -0.375303 -0.225390 -0.045498 0.104189 -0.119254 0.146374 0.111159 0.040767 -0.097909 0.187974 -0.167810 0.201547 -0.122139 0.220656 -0.392850 0.285518 -0.003045 -0.036362 -0.051296 0.198563 0.099580 0.178062 -0.016249
benz 0.276264 0.464040 0.516457 -0.419059 -0.194238 -0.348035 -0.326564 -0.265856 0.099254 -0.402665 -0.311838 0.549662 -0.388685 0.624279 0.439720 -0.186750 0.291689 -0.208016 -0.206824 0.082183 -0.195162 -0.130739 0.755397 0.114487 0.220705 0.109301 0.005634 0.099005 0.465701 -0.037449 -0.286697 0.151321 -0.094492 0.045281 0.169907 0.740034 -0.236899 -0.110435 0.036537 0.449075 0.086381 -0.051826 0.105664 -0.638535 0.031876 -0.369914 0.288233 -0.035091 -0.011720 -0.615062
black 0.141037 0.011917 -0.200072 0.074238 0.286844 0.101554 0.287181 -0.053907 -0.218622 0.119478 -0.041396 0.195480 0.166704 -0.087917 -0.371582 -0.224375 0.092730 -0.043279 -0.097865 0.140086 0.105724 -0.112564 -0.484101 0.219470 0.080229 -0.147573 -0.180161 -0.019486 -0.257902 0.047460 -0.232681 -0.335014 0.121419 0.103997 0.139798 -0.147643 0.132827 -0.229585 -0.054836 0.132888 0.055228 0.330501 -0.100590 0.153497 -0.406690 0.205792 -0.036870 0.112953 -0.118802 0.405469
blow 0.286256 0.088233 0.079776 0.114759 0.172164 -0.114542 0.008292 0.420865 -0.127081 0.184982 -0.288835 0.380098 -0.015223 -0.409307 -0.448967 -0.173431 -0.154000 0.059846 -0.345152 0.489916 0.391738 0.099338 0.181488 0.466354 0.145213 -0.294685 -0.042801 -0.156739 -0.268798 0.244147 -0.144069 -0.383842 0.198143 -0.316579 0.148277 -0.099053 0.186692 0.000679 -0.436202 0.415475 -0.159687 -0.126060 0.246507 0.163730 -0.233052 0.138112 0.445474 0.254766 0.441557 -0.347031
coast -0.134448 -0.249937 -0.012101 0.265636 -0.354952 0.334270 -0.602644 0.508749 -0.501492 -0.197235 0.131980 -0.179571 -0.223958 0.832934 0.037722 0.148595 -0.427115 0.371410 -0.258131 -0.106152 -0.210505 0.079868 0.252938 0.213013 0.160812 -0.043020 0.198685 0.602870 0.309874 -0.270246 0.021269 0.240668 0.367395 -0.291107 0.113364 0.341205 0.252858 -0.432159 0.190654 0.586296 0.138891 -0.385970 -0.422169 -0.234426 0.586846 0.153089 -0.399967 -0.527097 0.147767 -0.241217
d 0.116464 0.450769 0.705953 -0.336784 -0.238868 -0.119923 -0.446059 -0.474302 -0.036184 -0.420843 -0.042558 0.831717 -0.298191 0.940549 0.190027 -0.032002 0.340893 -0.141181 -0.070015 -0.005990 -0.111414 -0.136273 0.526726 0.070166 0.125044 0.223561 0.421467 0.117419 0.412028 -0.122018 -0.124188 0.258339 -0.087228 -0.191668 -0.024216 0.708678 -0.103318 0.012142 0.080882 0.371149 0.300196 -0.159528 -0.098802 -0.839013 0.264092 -0.225692 0.191650 -0.024291 0.111699 -0.913949
