6169 50
like -0.559054 0.237431 0.398268 -1.303733 -0.501326 -1.386155 2.431324 -0.800427 -1.210640 -0.627413 0.457060 -0.474338 -1.057207 0.592694 -0.195467 -0.270858 -0.208114 -0.855845 -1.050789 0.006572 0.140796 -0.440790 0.406327 -0.035204 0.809338 -1.247463 -1.061669 -0.414782 -1.104852 -0.441190 1.195222 0.076882 0.301903 1.399666 1.093960 0.130227 1.034404 -0.033153 0.512442 0.438724 -0.818502 1.100736 0.608786 0.720852 0.877735 -0.682467 0.105163 0.938290 0.342869 -1.849412
got -0.103293 -0.379548 -0.135370 -1.588944 -0.136728 -0.172791 1.646547 0.367016 0.152896 -1.414315 1.883628 -0.466229 0.588201 -0.053889 -1.601760 0.253196 -0.004049 -0.195787 -0.545799 -0.592870 0.866471 -0.531025 0.180986 1.137920 0.456256 -1.497242 -0.369380 -0.997679 -1.075553 -1.530801 0.139255 -0.458512 -0.797413 0.401766 0.116719 -0.163803 0.518791 0.234859 -0.578713 1.672719 -0.700325 0.688255 -0.270034 1.226894 0.296073 -0.743265 -0.951915 -1.334543 -0.684962 -0.615698
know -1.513127 0.244918 0.866242 -0.470269 -0.721548 -0.579922 1.134207 0.615080 0.053312 -1.730485 1.237518 -1.330862 -1.135798 -0.153470 -0.350106 0.231094 -0.333991 -1.501932 -0.415364 -0.242440 0.305963 -0.731648 -0.037905 0.974128 0.097651 -0.606750 0.142050 -1.405007 -2.150108 -0.539665 0.747113 -0.912383 -0.396457 0.907810 0.234967 -0.179938 0.097934 -0.073716 -0.716429 -0.158169 -0.311280 -0.393886 -0.150754 0.253890 0.109256 -0.309394 -0.672180 -1.227779 0.196084 -1.071242
come -0.003153 -0.795999 0.177251 -1.094174 -0.080965 -0.333325 2.065694 0.465504 -1.803767 -0.205717 0.073274 -0.133075 0.751084 -0.209578 1.586573 0.533322 0.149074 -0.739100 -0.755090 -0.391236 0.666846 0.483371 -0.342808 1.123099 -0.429282 -0.162118 0.675120 -1.357451 -1.297901 -0.954843 1.272161 -0.367275 -0.820121 1.121393 1.045807 0.323880 0.965220 -0.162189 -1.150060 1.139727 1.052399 0.080484 -0.269559 1.185951 -0.262832 -0.859592 -1.142046 -0.562351 -0.052565 -0.928521
yo -0.363338 -0.436674 -0.106238 -1.229226 -0.897837 0.170560 0.230453 1.139237 0.498125 -0.392971 1.716404 -1.677703 -0.403598 0.130404 -0.854627 -0.341065 -0.227288 0.029126 -1.242661 0.598697 0.366648 -1.205422 0.473936 -0.176266 -0.080193 -0.196160 0.073786 -0.474466 -1.722775 0.479239 1.419621 0.033840 -0.704074 0.311795 0.891796 1.225855 0.825185 0.151077 -1.251268 0.747844 -0.582877 1.275095 -0.226824 1.372802 0.344005 -0.978975 0.307696 0.225049 0.181327 -0.300943
man -1.556942 -0.021676 1.051832 -1.116650 -0.627689 -0.074588 1.127925 0.706448 -0.493189 -0.496527 0.934542 -0.869108 -1.348162 -0.186829 0.096540 -0.401709 0.334786 -1.594735 -1.026029 0.473596 0.591811 -0.496838 -0.059106 0.368077 0.337224 -0.763535 -0.213812 -1.016438 -0.407592 -0.729380 1.811540 -0.124645 -0.266510 -0.440262 -0.224545 0.690798 -0.481128 0.446813 -0.593125 -0.016763 -0.427652 0.477386 -0.221134 1.395774 1.520592 -0.637993 -0.918538 0.257277 -1.268431 -0.057489
ai -0.178248 -0.275999 0.062559 -1.422022 -0.189013 -0.345197 0.260911 0.820753 -1.063956 -0.723874 1.293985 -0.828015 -0.473225 0.055190 -0.577456 0.554058 0.410056 -1.399181 0.148938 -0.232191 0.687702 -0.793903 0.056521 0.660681 -0.173540 -1.279356 -0.323166 0.192355 -0.490375 -0.300651 -0.737561 0.144908 0.321603 -0.094806 0.434891 -0.515834 1.778792 0.659582 -1.104237 0.192638 -0.648646 -0.411239 -0.255609 2.283093 -0.010233 -0.566449 0.046000 -0.002560 -0.006491 -0.463329
yeah 0.307204 -0.449774 -0.884419 -1.543215 -0.148002 -0.755210 1.979681 0.275187 -0.375049 -0.408774 0.985930 -0.594223 -0.494079 -0.122864 0.799394 0.096468 -0.679636 -0.441040 -0.293281 -0.230129 1.049638 -1.004248 0.596817 0.572206 -0.364072 -0.360375 1.275007 -0.596344 -1.523160 0.251823 1.088716 -0.360566 -0.276026 0.506804 1.413412 0.826065 -0.421714 -0.114579 -0.986909 0.384071 -1.742341 -1.235516 -0.096216 1.198263 1.752644 0.238126 -0.300934 -1.041182 0.074049 -0.115975
shit -0.509593 -0.045494 -0.022115 -1.264820 -0.580966 -0.315578 0.374112 0.635209 -0.216002 -1.241185 1.430682 -0.047148 0.104641 0.014844 -0.472807 0.012910 0.225549 -1.642044 -1.182633 0.176755 0.239873 -0.285033 -0.341678 0.093767 0.364881 -1.727966 1.251340 -0.958800 -1.018644 0.437852 0.714587 -0.490062 0.802862 0.085885 0.656218 0.641975 0.914457 0.863693 0.177794 0.361254 -1.458112 -0.169719 1.264600 1.020517 0.361137 -1.012329 0.089896 0.158856 0.207982 -0.680951
nigga -0.076512 -0.840067 0.481849 -0.734100 -1.016496 -0.172238 1.688360 0.368974 0.293228 -0.709387 2.359982 -0.692274 0.751044 -0.755501 -0.249365 -0.215073 -0.910946 -1.382447 0.002788 0.330868 -1.164797 0.284247 0.245749 0.728966 1.233179 -0.989363 0.724611 -1.056687 -0.576703 -0.045299 0.564383 0.071346 1.012059 -0.171124 0.338958 0.904742 1.642921 0.456696 0.370133 0.450677 -0.695769 -0.739607 -0.310905 0.980877 -0.344010 0.151374 0.033711 -0.417550 -0.066086 -1.466322
let -1.394858 -0.562357 -1.326025 -0.791765 -0.407853 0.489926 1.119210 -0.179104 -0.642794 -2.103906 0.190577 -1.334911 -0.398442 -0.877708 0.231697 -0.092791 -0.599332 -0.086990 -1.871797 -0.560534 0.122048 -0.213107 1.030786 0.202373 0.640451 -1.566077 -0.029752 -0.884248 -1.886484 -0.311203 -0.323248 -0.224630 -0.744667 0.935026 0.423322 -0.251766 1.057312 -0.091343 -0.201817 0.836276 -0.195768 -0.784938 -0.230083 0.540529 0.224732 -0.581219 -0.152603 -0.032710 -1.297031 -0.095662
ya -0.222772 -0.756980 1.073166 -0.336734 -0.740277 -0.867068 1.442836 0.150769 -0.595497 0.243214 1.363572 -1.098029 -0.269945 -0.110318 -0.932829 0.145278 -1.083116 -0.855407 -1.258062 -0.615110 0.284389 1.857822 0.160910 -0.254160 -0.926709 -1.033238 -0.281443 -0.638253 -1.388233 0.576228 0.620943 0.000457 -0.677109 0.077344 0.834747 -0.111019 1.095020 0.663510 -1.346117 0.388699 -0.572945 -0.475557 0.272453 -0.261663 0.201666 -0.025327 -0.145933 -1.093917 -0.118383 -0.637122
niggas 0.008691 -0.500076 0.511176 -0.482882 -0.074819 0.234095 0.908359 -0.741005 -0.381089 -1.866359 1.664717 -0.399973 0.207664 0.427212 -0.068597 -0.054078 0.254681 -2.085693 -0.331979 0.382040 0.091211 -1.012588 -0.589364 -0.204812 0.130856 -0.762699 0.159227 0.022170 -1.319746 -0.223132 0.355432 -0.495179 1.193082 -0.047420 1.068318 0.276251 1.098178 0.491883 -0.359212 0.625310 -0.250338 -0.726687 0.712238 0.775417 0.220748 -0.191965 0.051042 -1.033402 0.000359 -0.620176
time -0.562977 -1.708008 0.893955 -0.422685 -0.686226 -0.499658 1.877924 0.869170 -2.406268 -1.228153 0.078660 0.410813 -0.073466 -0.396958 -0.386929 -0.270763 -0.392573 -0.711142 -0.506563 -0.027095 0.490627 -1.199159 0.166799 0.591287 0.419174 -0.467806 -0.330122 -0.363506 -1.214539 -0.000656 0.606462 0.103230 0.615085 0.538264 1.619569 0.735980 0.304254 0.068364 -0.701852 0.008488 -0.251695 -0.050039 -0.480502 0.366759 0.196680 -0.477349 -0.633269 -0.369783 -0.074550 0.189055
love -0.037994 -0.460776 0.757183 -0.193926 -0.458597 -1.178257 0.815545 0.926178 -1.360680 -1.081173 0.653750 -1.228960 -0.226047 0.655196 0.228778 0.948816 -1.139101 -0.177919 -0.092710 0.480302 -1.005411 0.496948 -0.242020 0.210622 -0.348969 -0.574796 0.058695 -0.953777 -0.289179 0.258828 0.056367 -0.578276 -0.982827 -0.055946 1.031271 -0.460268 0.471312 0.121735 0.375696 0.032747 -1.794417 -0.162417 -0.173934 2.330944 0.735092 -0.008000 -1.301259 -1.145989 -1.266010 -0.156961
fuck -0.149452 -0.955981 0.609550 -0.445729 -0.074559 0.764911 0.656444 -0.001411 0.411715 -0.703742 1.011351 -0.688181 -0.311169 -0.197725 0.739272 -0.069766 -0.101537 -1.527299 -0.276120 -0.300756 -0.046994 -0.789713 -0.296735 0.664718 -0.255006 -0.459869 0.211245 -1.040935 -0.683641 -0.250016 0.556914 -0.644575 0.456644 -0.230536 1.426802 0.418266 1.802598 1.291320 -0.617958 1.045699 -1.103881 -0.811945 -0.638811 1.248607 0.751791 -0.587808 0.331521 -0.131076 -0.099183 -1.281247
right -0.643878 -0.797191 0.158141 0.154841 -0.483618 -0.734340 1.630004 1.295033 -1.049365 -0.955603 0.917042 -1.437227 0.487094 -0.437180 -0.047915 -1.052325 0.848795 -1.559063 -0.729212 -0.458599 0.746738 -0.763293 1.185100 0.529511 -0.452831 -0.731764 -0.190150 -1.771916 -0.062190 -0.225741 0.684233 -0.188953 -0.395852 -0.133594 0.247815 -0.342262 0.960301 0.022396 -0.589683 -0.087432 -0.394044 -0.980023 0.163569 1.307816 0.057811 0.228477 0.019878 0.085871 0.278862 0.109840
cause -0.878707 -0.306341 -0.319374 -1.068637 0.379982 0.136788 0.571603 0.839191 -0.557678 -1.112569 0.844838 0.145953 -0.404905 -0.360714 -0.760798 -0.876283 -0.140068 -1.307281 -0.149003 -0.510685 0.390009 -0.073672 0.042048 -0.055919 0.821206 -0.380631 0.097941 -0.954003 -0.730845 -0.621232 0.114111 0.238692 -0.223030 0.656385 1.194958 -0.468596 1.083595 0.120413 -0.497441 0.087397 0.226601 -0.097260 -0.390061 1.370460 -0.326522 -0.402714 -0.078351 -0.068840 0.344630 -0.764873
baby -1.720114 -0.402151 -0.531775 -0.403498 0.223933 -1.197203 0.956574 1.021290 -1.668209 -0.037280 0.326520 -0.748078 -0.625599 0.247967 -0.041093 -0.119114 -0.703808 0.471339 -0.253652 -0.829996 -0.620914 -0.408690 0.578072 1.282936 -0.481320 -0.349204 0.857196 -0.743104 -1.118645 -0.901939 0.923346 -0.447190 -0.726690 0.782914 0.303539 -1.325699 0.291782 -0.168523 0.096592 1.272986 -1.390647 -1.090140 -0.010385 0.946037 -0.166023 -1.026280 -0.677113 -1.077334 0.914920 -0.782334
wanna -0.193937 -1.499198 -0.154502 -0.819724 0.739339 -0.518875 0.587641 -0.252570 -1.121572 -1.158487 1.301695 -1.408643 -0.248984 -0.202949 0.028408 -0.555327 0.438118 -0.846905 -0.290541 -0.790538 -0.549585 0.412891 -0.830423 1.506790 0.566799 -0.482887 0.524731 -0.344340 -1.245959 0.019621 1.567496 0.228712 0.774192 0.239347 0.546749 -0.443689 0.783674 0.970057 -0.843455 0.859959 0.105012 0.406825 -1.022659 0.056146 0.916303 -0.760615 -0.157584 -0.990420 0.589733 -0.696523
oh -1.256999 0.123813 0.244351 -1.325058 -1.329736 -0.128070 0.363144 1.518051 -0.641260 0.207991 -0.649065 -0.672032 -1.760484 -0.221801 -0.325949 -0.513770 -0.501467 0.372760 -0.658463 -0.062824 0.335461 0.438565 0.521116 0.568979 -0.484623 -1.114642 1.967271 -1.901132 -0.658436 -0.729209 -0.031060 -0.309691 0.453247 0.177529 0.039659 0.481941 0.895400 -0.142496 -0.389434 1.225312 -0.992222 -0.046492 0.356067 0.291575 0.601540 0.108090 -0.401961 -1.089346 -0.810987 -1.241316
ta -0.020765 0.496972 -0.017989 -1.127040 -0.382989 0.717800 1.114056 0.661514 0.027620 -1.467326 1.385164 -0.209433 -0.356455 -0.381635 -0.694900 0.297850 0.230152 -0.084391 -0.302442 -0.918283 0.175494 0.369957 0.331866 -0.025475 0.649934 -0.677373 -0.841290 -0.532029 -0.994493 -0.917168 0.083385 -0.431816 -0.788772 -0.136709 0.052930 -0.322416 1.481140 -0.148868 -1.039781 1.521346 -0.312728 0.246357 -0.056488 1.657359 1.163555 -1.267616 -1.638166 -1.394867 -0.813245 -0.050004
want -0.446768 -0.301407 -0.002149 -1.488316 -0.808155 0.067558 0.409017 0.215949 -0.576550 -1.266430 -0.111887 -1.285092 -1.088178 0.565839 -0.291614 -0.302371 -0.682943 -1.526702 -1.160652 0.359740 0.138050 0.374728 -0.189519 1.561090 1.398828 -0.306344 -0.218126 -0.386387 0.462825 -0.517089 1.306441 0.863908 -0.367188 0.190595 0.559839 -0.528814 -0.287397 -0.187938 -0.996799 0.026997 -0.168263 0.179977 -0.532047 0.809273 0.534460 -0.995537 0.350961 -0.989575 -0.203320 -0.673362
na -0.692752 -0.549535 0.748759 0.068228 -1.056382 -0.002837 0.529080 1.532265 -0.563761 -0.168728 0.875888 -0.538787 0.423411 1.207070 1.430037 -0.884391 -0.636179 0.012061 -1.182854 -1.615087 -0.062780 -0.079626 0.166068 -0.066416 0.352091 -1.778706 0.788071 -0.662905 -0.443043 0.288365 0.803393 -0.292964 0.349768 0.376212 0.279071 -0.694283 0.889040 -1.203147 -1.410850 -0.738397 -0.772106 0.331675 0.032648 1.054861 0.753101 -0.281081 0.541028 -1.237033 -0.741458 -0.313145
gon -0.435015 -0.634632 1.146322 -0.243959 -1.176108 0.106858 0.724552 0.753145 -0.732495 -0.241818 0.861167 -0.596082 0.664624 0.848319 1.061212 -1.009591 -0.443257 -0.268777 -1.048758 -1.614793 -0.185482 -0.242005 -0.045511 0.282356 0.503148 -1.973185 0.440886 -0.706371 -0.654263 0.249271 0.923429 -0.445683 0.438659 0.406319 0.537444 -0.753485 1.026409 -0.857906 -1.566209 -0.501121 -0.709403 0.303644 -0.048160 1.244201 0.671603 -0.142197 0.345044 -0.950402 -0.470661 -0.460441
lyrics 0.391367 -0.089479 0.066528 -0.803768 -0.327262 -0.374120 1.575584 0.633726 -0.887658 -0.530763 0.803576 -0.874043 -0.561697 0.419097 0.487240 0.302144 -0.316278 -0.030645 -0.632906 -0.107379 0.532243 0.128105 0.625108 0.155535 0.239252 -0.536405 0.395276 -0.919158 -0.574805 0.816017 1.260998 -0.701320 0.216637 -0.035736 0.272400 0.472955 0.336963 0.142114 -0.280508 0.832157 -0.730469 -0.041094 -0.619425 0.762196 0.772890 0.104549 0.318785 -0.486017 -0.492322 -0.516999
way 0.274555 -0.589187 -0.535200 -2.364010 -0.174202 -0.674910 0.789885 0.925859 -0.939226 -0.618313 0.610430 -0.624441 -0.915582 0.037817 -0.610264 -0.755724 0.005201 0.017179 -0.584711 -0.388438 -0.633762 -0.266569 -0.508697 -0.052056 -0.108695 -0.303461 0.168079 -1.132370 -1.017852 -1.009726 0.018314 -0.892984 -0.505679 -0.151595 0.958729 -0.683244 1.116908 0.279241 -0.009603 -0.585660 0.322041 -0.577102 -0.151293 0.884229 1.118790 0.079599 -0.453178 -0.519539 -0.360209 -0.562993
ass 0.137540 -1.543563 1.019423 -0.946157 0.234699 0.602838 0.735714 0.109596 -0.296943 0.572499 1.150094 -1.108277 0.889515 0.349275 -0.658946 -0.057098 0.414738 -1.040194 -0.869592 -0.209436 0.016350 -0.010255 0.145827 0.786988 0.022454 -0.597638 0.420093 -1.428467 -1.423394 -0.251986 -0.991525 0.056703 0.709330 0.243692 1.283789 -0.387269 0.582113 1.044676 -0.877597 0.647270 -1.150780 -0.083258 -0.125633 0.005244 0.395154 -0.393754 0.128099 0.440868 0.427778 -0.295067
tell -0.481186 -0.969762 0.917687 -1.206374 0.643645 -0.688868 1.248563 -0.464165 -0.264151 -1.729289 -1.200085 -1.404400 -0.310163 -0.728864 0.263146 0.555885 -0.077936 -0.568212 -1.053788 0.276254 0.730755 -0.684001 -0.385075 0.284886 0.014010 -0.913245 0.381884 -0.278853 -0.744728 0.604484 0.472245 -0.734730 -0.514030 -0.271548 -0.230487 0.137435 1.660498 -0.454194 -0.916407 -0.812211 -0.313915 -0.021882 -0.406350 1.048432 -0.295367 -0.285069 -0.711141 -0.323566 -0.170128 -1.416731
dem -1.471018 0.596638 1.495982 -1.083527 1.314766 -0.656167 0.259768 -0.146145 -0.067099 -0.143372 -1.060271 -0.005069 -0.171640 -0.955635 -0.369601 0.728238 0.397651 -0.297711 -1.279526 2.716760 0.103127 -0.049592 -1.040275 0.085083 0.145786 -0.450776 0.531080 -0.690998 0.216848 0.095483 1.081146 0.521187 -0.084289 1.446411 -0.364990 -0.483854 0.070281 -1.759085 -1.526282 -0.111990 0.837192 -0.431988 -1.327572 1.684691 1.139209 1.107687 -1.075136 -0.258396 -0.275714 -0.526649
uh -0.175772 -0.912185 -0.416110 -0.258283 -0.996925 -0.996169 0.670957 0.072539 -0.792977 0.220095 0.823146 -0.928491 -1.211011 1.083620 0.320741 -0.743268 -0.234517 0.695043 -0.748843 -0.009152 -0.140337 0.265715 0.250275 -0.162895 0.053110 0.757717 1.285092 -1.077053 -0.830048 -1.102691 0.176585 0.261620 -0.099013 -0.247665 1.014450 -0.098178 0.837011 0.137914 -0.862004 1.310834 -0.684069 -1.032690 0.125413 0.260363 1.967760 -0.183815 -0.093838 -1.264524 1.141746 -0.384370
life -0.122417 0.639639 -0.499260 -0.126718 -0.802828 0.099548 1.931827 -0.184775 -2.322875 -0.200743 2.006543 -0.605773 -0.480896 0.197406 -1.187243 -0.765148 0.410799 -0.350092 -0.302392 -0.109145 -0.965376 -1.684582 -0.453416 0.082686 -0.092883 -0.849828 1.375799 0.111149 -0.185961 0.799239 0.089501 -0.680660 -0.293169 -0.105665 0.412179 0.055697 1.230558 0.098586 -0.483910 -0.329927 0.356252 -0.425623 0.658207 1.200142 -0.627231 0.173635 -0.855883 -0.270707 -0.780095 -0.428043
real -1.012134 0.364324 0.569170 -0.707031 -0.692063 0.197582 1.780187 -0.121724 -1.412716 -0.802872 1.581838 -0.649407 0.443301 -0.399627 0.121991 1.214485 0.119351 -0.474741 -0.480793 0.565510 0.622859 -0.273602 -0.512206 -0.167262 0.414586 -0.208606 0.385175 -1.460210 -0.495191 0.466318 0.674912 -0.496561 0.436805 0.294574 0.709935 -0.365023 0.275739 0.677862 -0.688799 -0.109819 -1.851700 -0.250736 -0.382099 0.491953 -0.746309 -1.442045 1.272227 -0.418806 0.087403 0.437388
said -1.053212 -0.551004 0.513561 -1.180657 -0.849662 -0.054108 1.033771 0.593683 -0.205887 -0.693599 0.185268 -1.733982 0.461668 -0.588784 -0.441257 -0.657765 -1.189600 0.731520 -0.203485 -1.416054 0.708074 -0.727884 0.202698 -0.325301 -0.119442 -0.363738 0.672075 0.299765 -0.907768 -1.188983 0.251501 0.391598 0.256733 0.164580 0.083167 -0.092341 0.603753 1.159741 -0.215616 -0.267240 -0.262887 -0.208067 0.401441 1.449848 0.673073 -0.254002 -0.255229 0.198468 -0.051176 -0.309564
money 0.022531 -0.254916 1.028928 -0.907125 -0.633717 0.964759 0.614656 -0.421002 -1.176522 -0.595245 0.829377 -0.691381 0.217904 0.877051 -0.488585 -0.074752 0.228499 -0.320957 -0.076055 0.621960 0.374221 -0.189615 0.799073 0.391290 0.640346 -0.387339 -0.828582 -1.369007 -0.259899 0.450534 0.050755 0.240217 -0.013651 -0.810581 0.875171 -0.351765 0.528770 0.173933 0.132332 -0.656734 -1.179605 -0.359320 0.488605 0.281300 1.328254 -1.241125 -1.408338 -1.635955 -0.923279 -1.208319
bitch 0.084895 -0.910277 0.391031 -1.210764 -0.697722 0.813072 0.399559 0.180655 0.454506 0.046995 0.855310 -1.622318 -0.074750 -0.134857 -0.446733 0.298212 -0.357884 -1.061383 -0.984587 -0.729121 0.138417 -0.749781 -0.979237 1.258583 -0.287399 -0.409932 0.045110 -1.057675 -0.214983 0.265922 0.093013 -0.293704 1.061807 0.573325 0.980334 0.421080 0.445220 0.281243 0.083840 0.332410 -0.458047 -0.985773 0.603163 1.072347 0.411485 -0.434223 -0.396849 0.139653 -0.709243 -0.883206
need -0.863824 -0.499551 0.429420 -1.189086 -0.449477 -0.401843 1.102699 0.158156 -0.934082 -0.740438 0.196233 -1.351680 -0.930444 -0.486207 0.149146 0.302208 0.117038 -0.793149 -0.446707 -0.557268 -0.143485 -0.354755 0.401088 0.980620 1.046122 -0.067650 0.106214 -0.111341 1.263568 -0.509182 1.138769 0.010765 -0.143225 -0.669872 1.203235 -0.413658 0.379954 0.607563 -0.711059 1.510697 -0.710259 -0.031590 0.734300 0.942788 -0.454483 -0.065477 -0.563136 -0.598900 -0.949798 0.190154
stop -1.011145 -0.592644 0.438774 -0.529268 -0.382662 0.214551 1.012618 0.895916 -0.662974 0.037645 0.523682 -0.313585 -0.322839 0.079425 -0.920506 0.703439 -0.853293 0.024299 -0.829758 -0.585500 0.923734 0.686719 -0.774113 -0.424134 2.187801 0.597747 0.438402 -0.843866 -0.819714 0.708063 0.855158 -0.262781 -0.128270 -0.829772 1.216417 -0.632578 0.936555 -0.735202 -0.747046 0.079330 -0.206221 0.177501 0.050557 1.176344 0.700841 -0.233453 0.657307 -0.432325 0.727808 -0.324567
hit 0.211306 -0.825579 0.119174 -0.541414 -0.935769 -0.390756 0.948970 0.982648 0.011515 -0.873973 0.461383 -0.300070 0.666445 0.087326 -0.760589 -0.330313 0.397055 -0.852446 -1.472160 -0.259707 0.244848 0.249821 -0.299970 0.222135 0.721366 -0.802280 -0.372046 -0.597827 -0.809896 -0.676158 1.008389 0.123902 0.076209 0.632683 0.359814 0.456620 0.031756 0.685312 -0.399336 0.688057 -0.421787 -0.244124 0.800257 1.355783 0.350678 -0.333412 0.035694 0.479900 0.295111 -0.731123
think -0.890478 -0.475859 0.989177 -2.399500 -0.498908 -0.763507 0.780747 -0.081013 -0.907539 -0.201922 0.785556 -0.168848 -0.300849 -0.128802 0.390788 0.258798 -0.445167 -0.593139 0.411943 -0.231581 -0.214682 -0.713767 -0.618789 0.767726 0.264489 -0.685798 -0.085839 -0.604940 -0.771587 -0.710067 -0.056743 -0.896137 0.248238 0.252608 0.601386 0.022680 1.174331 0.256072 -1.731409 -0.384935 -1.206704 0.980827 0.748815 -0.019571 0.105244 0.423203 0.273506 -0.323268 -0.020645 -0.175788
black -0.722891 0.014051 0.511789 -0.378288 -0.036566 0.277627 0.542661 0.519362 -0.286888 -0.446796 1.408727 -0.325897 0.082678 -0.176936 0.100454 0.318790 -0.974833 -0.279439 0.066305 0.075502 -0.137366 -1.323739 -0.453703 0.845781 -0.031898 -1.008273 -0.152642 -1.426956 -0.325351 -0.802029 0.795516 0.404946 -2.066202 0.178563 0.822560 0.480618 1.659821 1.153397 0.233617 0.405228 -0.559386 0.885870 -0.937452 0.488975 0.883472 0.578580 0.280740 0.336774 -0.288639 0.027005
check -0.026001 -1.105056 0.099123 -1.170040 0.499838 0.186872 1.400350 0.897025 -0.253617 -0.728744 1.067760 -1.482807 -0.752256 1.169707 0.150319 -0.284928 -0.064742 0.249427 -0.069781 0.441421 0.718313 -0.379129 0.562658 -0.078295 0.204135 0.448691 0.726886 -1.430575 -1.150534 0.298033 0.734272 0.019192 0.129939 -0.203172 0.691218 1.802924 -0.121994 0.216604 -1.145526 0.787988 0.444898 0.197431 0.572468 0.674646 -0.048791 -1.234014 0.604461 -0.006292 0.304193 -0.345745
good 0.045303 0.072503 1.046223 -1.737745 -0.306928 -0.385290 0.939171 -0.318125 -1.707112 -0.954946 1.068229 -0.831364 -0.691367 -0.154042 0.073075 0.237043 -0.043394 0.362806 -0.594948 -0.998408 -0.085517 -0.795752 -0.136838 0.120514 0.891202 -0.655899 1.181622 -1.669264 -0.107948 -1.082420 0.428389 -0.595504 -0.374581 0.576479 0.628944 0.069870 -0.295870 -0.185089 0.304084 -0.268167 0.123949 -0.802971 -1.063742 0.950823 -0.486386 -0.783884 -0.346864 0.583933 -0.385238 0.371964
new 0.405582 -0.588873 0.341790 -0.569939 0.303089 -0.528659 1.547414 1.045789 -0.673817 -1.186767 1.016038 0.403411 -0.673268 0.905366 -0.722319 0.129963 -0.944367 -1.043206 -0.875250 0.429866 0.699892 0.215726 0.588567 0.548857 -0.125630 -1.386672 1.164319 0.138415 -0.132449 -0.520416 0.127937 0.367484 -0.969788 -0.164698 1.332169 -0.093542 0.395833 0.757526 -1.009718 -0.550456 0.589312 -0.498488 0.689106 -0.716043 1.333141 -0.768003 1.019280 -0.178277 -0.285511 0.283560
girl -1.124778 -1.297927 -0.110588 -0.947725 -0.517310 -0.383271 1.451266 1.520530 -0.250567 -0.901453 -0.365429 -1.948067 -0.489809 -0.476943 -1.277397 1.553703 -0.050241 0.653537 -0.466474 -0.728457 -0.214486 -0.290427 -0.078894 1.007667 -0.678447 0.059774 -0.790307 -0.514293 -0.143677 -0.014811 0.137047 -0.727055 -0.375087 -0.551638 0.877438 -0.476395 -0.221573 -0.851357 -0.410974 -0.013116 -0.248165 0.276022 -0.475921 1.327853 0.557004 0.061813 0.098530 0.297969 0.145505 -0.678894
world 1.113675 -0.452691 -0.224098 0.015898 -1.157079 -0.604268 0.323099 1.135099 -1.789538 -0.813073 0.391971 -0.858930 -1.030483 -0.826956 0.117638 0.607360 -0.429026 -0.330135 0.453699 0.618642 -0.148360 -0.103322 -0.079595 1.132016 0.020418 -1.348926 -0.375836 -0.465061 -0.667109 0.185226 0.378851 -0.516167 -1.074546 -0.127370 0.769284 0.256289 0.260822 -0.437863 -0.479992 0.337681 0.538612 -0.019067 0.916584 0.912612 1.058785 -0.102865 1.614142 -0.278979 -0.787218 -1.375564
little 0.051392 -0.074197 0.285730 -1.220367 -0.658905 0.291733 1.667874 0.152048 -0.582580 -1.220410 0.282238 -0.686618 0.526715 0.827809 -0.024434 0.105157 -0.305214 -1.152561 -0.101089 -1.423983 -0.276062 1.200216 0.252711 1.025160 -0.168574 -0.822910 0.466486 -0.338341 -1.197040 -0.371185 0.272147 -0.832110 -0.733805 0.552018 0.197044 0.734445 -0.379304 0.839797 -0.167152 -0.627206 -0.972553 0.613794 -0.387614 0.187687 0.651643 -0.012014 0.105716 0.298257 0.560188 -1.077270
day 0.521088 -0.570833 0.745134 -0.836372 -1.117478 -0.591318 1.283544 1.160276 -1.161730 -0.410697 0.463193 -0.439246 0.058541 -0.619976 -0.825176 -0.631032 -0.251321 0.237062 0.153828 0.404599 -0.849990 -0.448692 -0.229834 -0.084860 0.671903 0.204999 0.890548 -0.321342 -0.067231 -1.014981 0.919200 -1.614498 -0.319594 0.602812 0.620435 -1.532498 1.379186 0.397109 -0.050984 -0.335396 -0.395596 -1.302955 -0.417523 -0.027660 1.273543 -0.018745 -0.823690 0.260728 -0.683875 -0.186257
rock 0.172961 0.709159 -0.491834 -0.666348 0.232005 -0.894610 1.428173 0.459439 -0.983546 -0.502529 0.601467 -1.528991 0.844345 0.049154 0.421436 -0.543676 0.138988 -0.397321 -0.350279 -0.707145 0.939642 0.217026 -0.204608 -1.303312 1.262930 -0.557881 -0.102324 -0.911871 -1.225081 -0.609689 -0.126480 -0.396197 -0.539794 -0.198207 0.601892 0.412565 -0.109459 -1.233049 -0.360003 1.446307 -0.335815 0.187621 0.559978 0.675368 1.663489 -0.205398 0.706554 -0.796025 0.909912 -0.140985
better -0.651446 0.062778 0.789878 -1.511070 -1.051918 1.085177 0.568547 0.428152 -0.929801 -1.286069 0.443111 -0.330253 -0.516635 0.013660 0.375249 0.056637 -0.410656 -1.257054 0.409964 -0.599105 -0.349197 0.454803 0.028496 -0.455364 0.598959 -0.777164 -0.370481 -0.955915 -1.690822 0.736721 0.367005 -0.386105 -0.276706 -0.147081 1.503787 0.545001 0.548707 0.080430 -1.071808 0.619362 0.334125 -0.947301 -0.397672 0.708000 -0.546507 0.332519 0.435853 -0.125731 0.031805 0.095720
big -1.487998 0.008782 -0.238077 -0.566776 -0.539912 0.000280 1.143840 -0.075769 -0.486747 0.237972 1.598455 -1.547936 -0.343977 -0.022028 -0.204561 0.648913 0.080046 -1.051000 -0.054075 1.056528 0.785432 0.725790 0.166057 -0.193380 0.231921 -0.791963 0.393549 0.201582 -0.033252 -1.310660 -0.040861 -0.030508 -0.466666 0.302362 1.250780 0.099475 0.124238 -0.114826 -0.036219 -0.466355 0.061120 0.349926 -0.659855 0.517252 0.664835 -0.801662 -0.277347 -0.169388 0.523157 -0.747952
feel -1.612154 -0.420581 0.115525 0.155794 -1.221234 -0.946065 0.531342 0.854366 -1.324756 -0.818401 0.752047 -0.383176 -0.496469 -0.087367 0.774126 0.567567 0.107364 -0.183672 -0.058650 -0.079153 -0.522045 0.262840 -0.533014 -0.926763 -0.286503 -0.935048 0.434600 -1.474931 -0.640501 -0.202472 0.590490 0.212161 0.570291 -0.360700 1.173994 -0.656235 -0.068688 0.845552 -1.487182 -0.008081 -0.976533 -0.431756 -0.714362 0.497134 -0.256278 -0.853142 0.352239 -0.221437 -0.612533 -0.601531
look -0.694806 0.571547 -0.187088 -1.180799 -1.625175 -0.436675 1.091232 -0.205587 -1.367812 -1.027590 -0.010001 -0.638515 -1.174735 -0.000884 -0.799776 0.681882 -0.025944 -0.700860 0.131920 -0.089617 0.805182 -0.225469 0.141253 0.318255 -0.295474 0.884323 0.520166 -0.732858 -0.905704 -0.427258 0.157901 0.155531 0.863904 -0.871360 0.023573 0.430409 0.923918 -0.112384 -0.810777 0.191742 -0.341789 -0.359135 -0.649758 1.377347 0.581575 0.606619 -0.361161 -0.249915 -0.115751 -0.225971
hey 0.497870 -0.403082 0.528960 -1.164536 -0.187742 -0.674013 0.123498 0.250034 -0.753406 0.347364 0.100237 -1.510857 -0.881473 -0.361117 -0.274504 -0.305057 -0.759361 -0.325292 -1.167892 -0.393338 1.124010 -0.030299 1.049265 -0.846215 -0.624905 0.337905 1.864365 -1.164868 -0.746181 0.198518 1.271291 0.353630 -0.308886 0.122392 0.684169 -1.141067 0.878758 -0.039342 -0.288029 0.217244 -0.344755 0.733258 -0.323132 0.031979 0.516385 -0.362572 -0.669329 -0.645619 -0.186314 -0.553792
di -1.434114 -0.129913 0.228476 -0.348193 1.343238 -0.100740 0.903527 0.936517 -1.208520 0.839057 -0.713748 -0.969281 -0.245606 -0.255258 -0.499052 1.379084 -0.495281 -1.096288 -0.743107 2.102571 0.410115 0.595883 -0.679582 0.060622 0.054409 -0.045788 -0.098461 -0.985142 -0.256418 -0.028523 0.638430 -0.799362 -1.079645 0.322056 -0.653844 -0.286037 -0.003428 -1.787338 0.475925 0.111413 0.897051 0.013478 -0.658045 0.146629 0.755434 0.297797 -0.393980 0.552346 0.274083 0.578602
people 0.790039 0.057577 -0.406397 -0.107467 -0.327082 -0.003504 -0.097165 0.059711 -1.690194 -1.549411 0.434796 -1.392453 -0.469292 -0.856106 0.105569 -0.059673 -0.477747 -0.737395 -0.423234 0.425607 0.326374 -0.433484 -0.124859 0.098281 0.488082 -0.573018 0.039068 -1.410495 -0.779560 -0.383955 0.925249 0.961755 -0.672632 1.195439 0.391462 0.117414 0.032260 0.594631 -1.294574 -1.109892 -0.180753 0.560305 0.218304 0.866464 0.401657 1.209328 -0.099140 -0.819140 -0.258827 0.167608
try -0.481645 -0.749303 0.697633 -0.791223 0.118161 -0.682603 0.705538 -0.017797 -0.103451 -0.821060 0.674022 -0.610874 -0.676420 -0.571118 -0.613774 -1.447523 -0.006589 -0.557711 -0.705482 -0.131688 -0.017855 0.811220 -0.863947 0.358380 0.053730 -0.528663 -0.293825 -1.032421 -0.644487 0.034659 0.295471 -0.063825 0.535154 1.317451 0.216663 0.080421 1.597213 -0.438425 -0.831532 0.126648 0.822649 0.151787 -0.534874 0.855082 -0.173034 -0.058851 -0.150750 -0.040169 0.063744 0.361581
run -1.096750 -0.554661 1.755000 -0.312480 -0.284184 0.613695 0.366058 0.286003 -0.624150 -1.158188 0.267963 -0.621101 0.028850 0.285906 0.245208 0.157813 0.180884 -0.271169 -0.612979 1.049952 -0.271955 1.116014 -0.028353 0.018963 -0.027870 -2.012650 0.708603 -0.087637 -1.562184 0.142522 0.280940 -0.403307 -0.532272 -0.608026 0.673993 0.711936 0.931522 0.113793 -0.006602 0.204164 1.648671 -0.756385 -0.945687 1.111696 0.560692 -0.627563 -0.443672 -0.361944 0.223156 -0.422079
ha 0.374956 -0.286884 -1.443229 -1.391747 -0.371731 -0.603091 0.415203 -0.052930 0.112987 0.029041 -0.292455 -0.238126 -1.315269 0.196370 -0.170174 -0.359821 0.433503 -0.714479 -0.192606 0.786814 1.965535 0.272999 0.725749 0.243173 0.659684 0.255567 -0.015041 -0.751022 -1.249762 0.501449 1.188034 0.064943 1.502799 -0.230073 -0.251459 -0.628553 0.286497 -0.070091 -1.239810 -0.730296 -1.133570 -1.981876 -1.014980 -0.328134 0.284556 0.223291 0.319926 -0.882018 0.415496 -0.186975
mi -1.663550 -1.145363 0.285101 -0.202133 -0.538611 -0.229411 0.715588 0.180985 -0.559995 0.208276 -1.452092 -1.269959 -0.361895 -0.806895 0.094734 0.541311 -1.066312 -0.714459 -0.904403 1.855204 0.243075 1.253825 -0.508297 0.165574 -0.410365 0.127364 0.030854 0.004191 0.108674 -0.323099 1.132181 -0.190825 0.531241 0.973790 -0.840772 0.231854 0.112849 -1.111366 -0.091696 -0.556485 -0.065577 0.700380 -0.732873 0.507291 0.553415 -0.399382 -1.644499 0.432907 -0.987608 1.242779
style -0.001875 0.555167 -0.017252 -0.559830 1.631383 -0.559119 1.232501 1.418715 0.571883 -0.652305 0.473988 -0.208884 -0.976964 0.764258 -0.495187 -0.404685 -0.276155 -0.532809 -0.662767 0.363847 1.523989 0.904099 -0.577761 -0.249301 0.866335 -0.418066 0.189520 -0.778514 -0.128885 0.166546 0.329305 -1.177056 0.008257 0.706211 1.201227 -0.103104 1.461707 0.900031 -0.693438 -0.421586 0.443659 -0.202922 -0.230668 -0.133797 -0.155062 -0.809313 0.940475 -0.100285 -0.635072 -0.496396
bring 0.189759 -0.663695 -0.393861 -0.836039 -1.114596 -0.529891 1.360002 -0.300274 -0.063960 0.001752 0.486221 -0.620396 -1.288095 -0.180352 0.674668 -0.952531 -0.097927 -1.173338 -1.108947 0.769613 0.390998 0.271365 -0.052922 0.324501 1.500846 -0.268695 0.248385 0.393939 -0.688687 1.264004 -0.171294 -0.428686 -0.441166 1.126034 1.562066 -1.266697 0.132462 0.496269 -0.250465 0.766738 0.268024 0.457404 -0.022915 1.075104 -0.364675 -0.062856 -0.197746 -0.867776 0.050078 0.176678
live 0.191198 0.769454 -0.141048 -0.438107 -0.688084 0.252267 1.332946 0.246001 -1.880978 -0.472020 1.604598 -1.219949 0.108307 -0.320751 -1.021933 -0.722688 0.374821 -0.818208 0.253908 0.136771 -0.757625 0.411884 -0.487861 0.901966 1.212245 -0.031624 0.591782 0.241152 -0.710605 -0.046718 1.051472 -0.562951 -0.045032 0.040045 -0.326250 -0.709781 0.797352 0.112785 -0.605006 -0.300681 0.493128 0.152836 0.304278 0.078775 0.823163 -0.956453 0.068590 -0.280623 -1.077613 -0.724600
head -0.346936 -0.756813 -0.646035 -0.289400 -0.079695 -0.101814 1.953009 0.193139 0.120843 0.438547 0.386794 -0.969298 0.165226 0.250598 -0.738270 -0.025616 -0.059345 0.071675 -1.255274 0.241756 -0.315258 0.452853 -0.536409 -0.325184 -0.192937 -0.258656 -0.766906 -0.756873 -2.218513 -0.999841 1.164757 1.031299 0.650439 0.470913 0.763861 -0.024548 0.401007 0.115206 0.114702 0.164897 -0.118046 -0.370998 1.106499 1.167733 -0.233871 0.950045 0.421772 -0.236287 -1.472598 -0.760423
woo -1.344124 -1.912585 -1.408613 -1.815128 0.317825 -0.355244 -1.144668 0.684974 -1.295809 0.200268 -0.490721 0.936240 0.044840 -0.164773 1.865379 0.457749 -0.389167 -0.494379 -0.019205 0.043470 -0.139519 -0.167606 0.683140 0.517341 -0.408385 0.616804 0.804413 1.122290 -1.740639 -0.362912 1.327282 0.602832 0.315266 -0.347124 1.810608 -0.644566 -0.052354 -0.404533 -0.357223 0.901938 0.884847 0.418678 -0.356476 -0.278134 0.140836 0.023392 -0.403964 -1.107896 1.058504 0.218754
g -0.022967 -1.706079 -0.336266 -1.325686 -0.477959 0.752778 0.706940 -0.008024 -1.027108 -0.867028 0.565851 -0.633191 0.075423 -0.341396 -0.515482 -0.024537 -0.906692 -1.133873 0.141232 1.048506 0.700198 0.320413 -0.308084 -1.003666 0.267157 -0.129033 0.409285 -0.246140 -0.430498 -0.749046 0.258535 -2.031229 0.312918 -0.278523 -0.926317 0.288907 0.352578 0.332449 -0.310731 0.342936 -1.178609 0.494679 0.467286 0.485052 0.024368 -0.426433 0.031823 -1.047219 0.099125 -0.026770
flow -0.063696 0.166523 1.087121 -1.178723 1.005641 -0.156698 0.516637 0.955700 -0.221192 -1.215701 1.043281 0.055243 -0.676419 -0.575594 0.241373 0.179880 0.622694 0.468273 -0.358849 -1.255090 0.544118 0.997643 0.956894 -1.005595 0.727554 -0.030615 -0.846458 -1.102462 -1.064955 -0.286354 -0.094343 0.040055 -0.407029 0.995313 0.121217 0.872609 0.372879 1.034427 -0.653101 0.840104 0.467200 -0.375472 0.801716 -0.014470 0.516735 -1.115306 -0.156678 -0.410520 -0.773881 -1.676005
huh -0.047291 -0.869282 -0.130415 -0.537535 -0.432639 -0.990412 0.337978 -0.281466 -0.906311 -0.043966 1.136106 -0.895991 -0.078114 1.440833 0.876423 -1.524926 -0.789236 0.955413 -0.798133 -1.039793 -0.234716 0.032420 -0.409439 -0.276360 -0.178270 0.513002 0.841967 -0.338490 -1.061152 -0.696703 0.218642 0.328326 0.288050 0.496249 -0.233800 -0.058384 0.485997 0.320146 -1.067784 0.428834 -0.485876 -0.807158 0.290861 0.569873 2.155488 -0.348146 0.076906 -1.164784 0.634244 0.453229
game -0.420129 -0.595927 -1.103172 -0.827726 -0.111407 0.117024 0.342451 -0.153752 -0.457748 -1.412612 1.840738 -0.669966 0.386236 0.018043 -0.562109 0.260721 -0.110060 -0.229492 0.641889 0.451238 -0.495885 -0.101629 -0.149051 0.621615 0.334344 -2.147440 -0.181219 -0.912688 -0.512688 0.320933 0.033393 -0.268054 0.271878 -0.137485 1.194526 -0.033678 0.730240 0.943947 -0.748177 -0.926709 -0.074909 -0.493098 0.419281 0.179653 0.316707 -0.147178 -1.083941 0.075930 -0.168945 0.413729
mind -0.930129 -1.142584 -0.611570 0.071463 -0.532028 -0.763124 1.386117 -0.255284 -0.739707 -1.976852 -0.253494 0.399390 -0.760655 -0.040575 -0.905477 -0.214931 -0.446056 0.475452 -1.253483 -0.151629 0.438291 -0.469467 0.121509 0.638633 -0.216972 -0.271456 -0.035332 -1.233079 0.229085 0.218920 0.123879 -0.259316 0.320057 -0.321136 1.030602 0.208891 0.499066 -0.110451 -0.136904 -0.731183 -0.290012 0.213698 0.550216 0.440477 0.271280 -0.351746 -0.439148 -0.948777 -0.837527 0.299925
ride -1.638749 -1.097355 -1.263318 -2.215738 -0.626092 0.153625 0.604985 -0.340849 -1.159263 -0.115553 0.317533 -0.323412 1.654137 0.036795 0.995493 0.006239 -0.608111 -0.508535 -0.109697 0.102524 -0.023158 0.043430 -0.471247 0.471347 -0.547981 -0.125762 0.785036 0.606473 -1.180236 -0.039119 1.280364 0.236835 0.178973 -0.646617 0.282309 -0.803494 0.041173 -0.396629 0.173183 0.492903 0.880845 0.147715 -0.205450 0.275957 -0.425132 -0.835362 0.299828 -0.442856 0.403128 -0.167788
wo -0.980069 -0.585343 -0.382467 -0.037786 0.050404 0.013834 0.569983 0.637097 -0.257424 -1.339352 0.253918 -0.733205 -0.713498 -0.736825 -0.707329 0.134877 0.115162 0.166321 0.665166 -0.936972 0.316833 1.112191 -0.044809 0.401878 0.385462 -0.161247 0.501889 -1.365796 -0.443811 -0.536257 0.841686 -0.115263 -0.255013 -0.009815 0.651698 0.059333 1.670869 -0.236747 -0.989612 -0.231566 -0.395319 0.143777 0.684631 1.058268 -0.403547 0.419315 0.266085 -0.880853 0.330918 -0.678998
e -0.289995 -0.668503 -0.046968 -1.580390 1.228783 0.731431 0.583521 0.971349 -1.450937 -0.258163 -0.160120 -1.183439 -0.589218 -0.279682 -0.462329 -1.666242 -1.015056 -0.511260 -0.790863 0.518124 -0.152007 -0.543632 -0.981591 -0.695248 0.640221 -0.566086 -0.306279 -0.974240 0.663256 0.189193 0.209811 -0.719736 -0.040712 0.752880 -0.206857 1.340973 -0.681818 0.999280 0.084227 0.316631 -0.659760 0.071572 0.049750 0.541413 0.241086 0.858600 0.473100 -0.880366 1.047770 -0.736225
play -0.144598 0.075128 -0.171584 -0.436041 0.134289 -0.349522 1.034502 1.048207 -0.522757 -1.342909 0.395282 -1.403147 0.345407 -0.165089 -0.513643 -0.488576 -0.168773 -0.418408 0.265621 -0.258592 -0.754298 0.277226 -0.173003 1.047275 0.236887 -0.519679 0.114972 -0.816363 -1.278579 0.158835 0.385515 -0.256008 0.676576 0.776566 0.493652 -0.348268 1.006118 0.822274 -0.462991 -0.601085 0.173572 0.551709 -0.595203 -0.576116 0.971478 -0.256266 -0.310937 0.489211 0.060697 0.017173
watch -0.656665 -0.308084 0.121982 -0.736419 -0.377443 -0.153082 1.134887 0.817820 -0.043966 -0.347535 0.663313 0.046490 -0.332714 -0.348306 -0.243925 -0.013699 0.114346 -1.252086 -0.695761 0.275997 -0.527100 0.660734 -0.582714 0.533708 0.783970 0.413409 0.248684 -0.614343 -2.050771 0.902294 -0.315966 0.229752 -0.719679 0.884280 1.244063 -0.102027 0.367987 -0.214334 -0.100358 0.694295 0.290473 0.369594 0.585434 0.677082 0.286752 0.186843 -0.438840 -0.638497 -0.166118 -0.109939
boy -1.004202 -0.199145 -0.172410 -0.310753 0.186059 1.099521 0.903999 0.469804 -0.837059 0.376021 0.754968 -0.767469 -0.776963 0.561232 -1.042526 -0.050102 -0.894996 -0.635426 -0.117020 -1.041500 1.163284 -0.362385 -0.005834 0.054418 0.729619 0.851979 0.672197 -0.617594 -0.695194 0.280660 -0.090720 -0.718097 -0.418483 0.192916 0.648768 0.113925 0.784611 0.850141 -0.958168 0.490699 -0.486345 0.170170 -0.999333 1.068799 0.416625 0.453034 0.222187 0.729258 -0.424123 -1.119603
word 0.176704 1.098746 1.056373 -0.762306 -0.145943 0.184140 0.765439 1.002541 -0.676070 -0.890842 0.843434 -1.241094 -0.413584 -0.135413 0.111858 -0.464737 -0.182682 -0.228640 -0.996235 0.392879 -0.131493 -1.104968 0.444135 0.087914 0.232181 0.477113 0.358433 -0.214037 -1.035718 0.047698 1.048093 -0.921191 0.643886 0.174889 0.198803 0.092668 1.075041 0.806894 -0.164399 0.053145 -0.336489 -0.010322 0.482275 0.378858 0.323790 -0.397607 0.942117 -0.364532 -0.971102 0.944861
da -0.138023 -1.759014 -0.342771 -0.950794 -0.984352 -0.306536 -0.214313 0.927638 -0.753193 0.145615 1.229813 -0.663300 -0.242410 1.245182 1.280744 0.169872 0.563327 -0.226749 -0.891831 1.128649 0.639897 0.138776 0.983090 -0.339597 1.168296 -0.734850 -0.076016 -0.275785 -0.449685 1.987890 1.171949 -0.738905 -0.206537 1.455945 -0.835172 -1.500598 0.179892 0.631923 0.855839 1.258118 1.290842 -0.971812 -0.166784 0.433325 -0.330660 0.111859 -0.910909 -0.674399 -0.006900 -0.050129
rap -0.038139 0.016981 -0.366346 -0.842555 -0.123314 -0.569804 0.559723 -0.219342 -0.713947 -0.972296 1.668055 -0.487398 -0.401488 -0.501912 -0.187325 -0.019865 -0.302018 -0.009822 -0.050911 -0.267981 0.591121 0.111610 -0.553519 -0.428635 0.477022 -1.005609 -0.835577 -1.141870 -0.316862 0.316367 0.117939 0.150849 0.201846 -0.045413 0.641575 -0.085960 0.638682 1.264041 -0.298544 -0.619589 0.429029 0.214849 -0.074220 0.424331 0.233681 -0.919725 0.643923 0.260046 -0.236918 -0.589262
ah -0.373639 -0.744254 0.090567 -2.419264 0.230870 -1.214358 -0.333210 0.082979 -1.243970 0.544130 0.426310 0.365812 -0.160876 -0.203670 0.220740 0.455172 0.290186 0.373621 -0.948816 0.343863 -0.241151 -0.050395 0.119683 -0.082019 0.484589 0.359440 1.869469 -0.395872 -1.219290 -0.336335 1.655318 -0.465223 0.089624 0.740519 -0.313572 0.465811 0.580223 -0.694114 -0.753514 -0.504966 -1.818538 -0.235097 0.829408 -0.193807 -0.219583 0.659522 -0.279138 -0.531835 0.086629 0.947503
hear 0.647873 -0.815445 0.215412 -0.181404 -0.155736 -0.510256 0.575017 0.839785 -1.117706 -0.870762 0.238365 -0.878784 -0.764353 -0.855164 -0.256575 0.850367 -0.927722 -0.526185 -0.096590 0.330122 0.343440 -0.333787 0.242133 -0.693032 0.013996 -0.683693 0.549703 -1.156629 -1.178427 -0.323777 1.250139 -0.106597 -0.351271 0.759041 -0.250211 -0.924545 0.413907 0.408200 -1.160224 0.322184 0.497729 0.438292 0.331401 -0.591869 -0.031872 -0.028012 -0.823093 -0.525537 -0.228415 0.305491
hard 0.210744 0.805766 0.826874 -0.476151 -0.580563 -0.310631 1.452208 -0.167456 -0.835737 -1.058024 0.048883 -0.307059 0.387579 -0.091421 0.031496 -0.297392 -0.063317 -0.454772 -0.373687 -0.444189 0.258256 -0.826124 -1.629537 -0.367917 -0.122406 -0.194348 -0.054717 -1.080209 -0.604016 -0.509755 0.447908 -0.781733 0.291865 0.753905 -0.050675 -0.753194 1.203840 0.237556 -0.416059 0.726746 0.159974 0.126960 0.273986 1.406169 0.819820 -0.346909 0.173751 0.475576 0.065694 0.040196
die -0.912373 -1.127703 0.295802 -0.576660 -1.109132 0.410786 0.545423 -0.373430 -0.914601 0.301153 0.663744 -0.572141 0.356338 -0.411791 -0.440797 -1.498905 -0.006857 -0.945817 0.682970 0.860668 -1.203899 -0.375796 -0.488801 0.532757 0.158473 -0.221604 0.735716 -0.160977 -0.741777 0.348387 1.510359 -1.028969 0.212852 0.494920 -0.199635 -1.342209 -0.042011 -0.938228 -1.030620 0.543426 -0.667464 -1.271226 -0.274987 0.308587 0.137476 -1.146480 -0.483078 -0.092044 -1.992407 -0.365638
yes -0.789598 -0.473431 0.164323 -0.416226 0.195519 -0.178186 0.010923 0.858840 -1.140059 0.355242 -0.174311 -0.134163 -0.368293 0.347460 -0.166247 -0.519008 0.050435 0.362518 -0.298886 -0.059621 1.802637 0.645613 0.544903 0.116801 1.662579 -0.769250 0.222263 -1.776517 -0.402014 -0.427718 1.238033 -1.502452 -0.498589 -0.303765 0.043168 0.815680 0.198244 -0.319725 0.024385 -0.182677 -0.753807 -0.117254 -0.230215 0.727215 0.172941 0.000811 0.233534 -0.153907 -0.470353 -0.078483
roll 0.294131 0.780425 -0.769631 -0.649872 -0.931968 -1.265980 0.175894 1.118481 -0.719566 -0.806585 0.484142 -0.824915 1.363685 -0.478269 1.076450 -1.093830 -0.093415 -1.607188 -1.239635 -0.395871 -0.372496 -0.345147 0.759135 -0.571035 -0.254170 -0.029726 -0.659899 -0.558354 -0.653304 -1.043908 -0.412607 0.073239 -0.156346 0.052692 0.836977 0.046265 0.136649 -0.961420 -1.107854 1.035544 -0.481850 -0.039430 -0.699902 0.204372 0.088529 -0.839383 0.047712 -0.916244 -0.247843 -0.662004
d -1.227128 -0.407096 0.366579 -1.065513 0.663437 0.936385 0.418862 0.339074 -1.092276 -0.885670 -0.163586 -1.987923 -0.605117 0.130563 -0.165898 -0.608232 -0.891662 -0.557498 -0.816758 1.598848 0.328610 0.541861 0.032210 -1.046297 0.283619 -0.490291 -0.798655 0.064785 -0.098882 -0.423501 0.412010 -1.652031 0.158677 1.115085 -0.790958 0.857101 -0.658046 0.237590 -0.437517 -0.054369 0.390382 -0.154022 -0.216054 0.964716 0.236910 0.143674 -0.642086 -0.967362 0.953265 -0.423377
high 0.099561 -0.381236 0.262421 -0.622693 -0.758410 -0.762735 0.882671 -0.005865 -0.047629 -1.468030 0.797587 -0.455954 0.058926 0.862497 -0.916500 -0.082007 0.273218 -0.465366 -0.025653 0.943672 -0.629532 -1.559006 -1.405935 -0.555933 0.622766 -0.010367 0.876307 -0.540168 -0.045770 0.283339 0.216084 0.547586 0.170528 0.620404 -0.488009 -0.628819 -0.068876 -0.874305 -1.760380 1.341607 -0.023366 -0.206707 -0.793461 -0.692819 1.218039 0.090154 0.712840 -0.001148 -1.350138 -1.941859
la 0.534508 0.245924 -0.377552 -2.639538 0.004716 -0.825947 0.493066 0.485345 0.092373 0.200358 -0.007322 -1.417510 0.013261 0.977904 0.548483 -0.670505 -0.088332 0.076513 -0.066819 1.476484 -0.052648 -0.173373 0.667710 -1.205890 -0.063535 -0.608385 -0.001146 0.999177 -1.076122 0.764730 0.814714 0.000373 -1.880966 -0.203181 -0.502622 -0.713542 -0.213045 -0.467434 0.739340 1.074423 -0.067317 -0.457977 -0.964273 0.789154 -1.080190 0.540107 1.079452 -1.110502 -0.598046 -0.368050
everybody 0.061433 -0.495456 0.205728 0.825758 0.099224 -0.062565 -0.914248 0.044951 -1.677771 -0.677438 0.522796 -0.268308 -0.636011 0.011941 -0.331487 0.053685 -0.113248 -0.083561 -0.264948 -0.252485 1.051240 -0.553075 1.507311 0.817634 0.766297 -0.991831 0.369885 -0.292168 -1.926725 -0.399502 1.179083 -0.356986 0.358652 0.341228 1.152676 0.148574 0.532633 -0.227221 0.183521 0.135511 -0.444823 0.392762 -1.359912 0.761104 0.683713 0.006991 0.314710 -0.682560 0.279107 -0.756966
de 0.118416 0.414883 -1.530637 -0.689968 -0.096059 -0.950812 0.550541 1.228936 -0.652587 -0.315333 -1.138906 -0.612660 0.109229 0.670637 1.029354 -0.517612 -1.146384 -0.299297 -0.550429 0.265964 0.732336 0.512112 0.506444 -0.179746 0.380229 0.621111 -0.029487 0.166711 -0.079715 0.662331 1.192731 1.897396 -1.837359 0.164884 -0.836433 0.386534 1.631504 0.047370 0.049758 -0.078788 0.639462 -0.308225 0.149103 0.411709 0.348355 0.929194 -0.804782 -1.161821 0.324263 -1.390020
body -0.797144 -0.753450 -0.370695 -0.355374 1.173497 -0.343967 1.344815 -0.512278 -1.082141 -0.591114 -0.781848 -1.198265 -0.140314 0.197269 0.852565 -0.891331 0.402323 0.030012 -0.299364 0.042685 -0.210851 0.820512 -0.078277 -0.443681 0.019266 -0.210637 -0.243655 -1.533610 -0.970747 -0.442753 -0.017298 0.268673 -0.269011 -1.066371 0.968677 -0.718166 0.231314 -0.571929 0.538408 1.172362 -0.841453 0.012667 0.213923 1.321145 1.187448 -0.187825 0.659251 -1.251481 1.020834 0.947882
mc -0.308975 -0.547196 1.586418 -0.294441 0.881834 -0.807230 0.951886 1.262843 -0.780466 -0.579167 0.741337 0.438697 -0.427823 -0.114388 -0.137125 -1.109604 -0.671343 -0.371910 0.214996 0.365216 1.267465 -0.025726 -0.424282 0.110490 1.204765 0.268420 -0.291687 -0.137287 -0.611506 0.457959 -0.940407 -0.385322 -0.080719 0.872369 0.158846 0.299720 1.058639 0.610845 -0.194538 -0.307466 -0.091000 0.104529 -0.400566 0.201104 -0.137425 -0.921317 1.365192 -0.805302 -0.348359 -0.136544
talk -0.844995 -0.851837 -0.133023 -0.388013 0.442942 -0.079529 -0.651398 -1.125037 -1.254202 -1.266786 0.948634 -0.204467 -0.804923 0.034298 -0.098043 0.397636 -0.077482 -0.268935 -1.155866 0.049565 0.420526 0.411321 -0.125509 0.237933 0.154206 -0.025804 1.139885 -1.028874 -0.447572 -0.821805 0.301185 0.360952 -0.131323 1.147038 0.300598 -0.725019 1.143329 -0.067140 0.639253 -0.972124 -0.190422 -1.279404 0.127558 1.936837 0.441890 -1.144014 0.349325 0.415291 -0.866744 0.264942
comin -0.829194 -0.129606 0.495025 0.188381 -1.297202 -0.544398 0.521230 1.339789 -0.453230 -0.013932 0.716589 -0.023724 0.013111 0.507773 1.217970 0.635570 -0.389020 0.257784 0.350796 0.897935 -0.088139 -0.755892 -0.002953 -0.926109 0.091612 -0.612401 0.120255 -1.189124 -1.426580 -0.758315 0.557080 -0.267331 0.238870 -0.542165 0.937392 -1.094699 0.374163 1.007837 -1.539803 -0.312587 0.317495 -0.076640 0.570078 0.526551 -0.675540 -0.578248 -0.354041 -1.275953 -0.070731 -1.529777
mic -0.189670 -0.821313 0.386781 -0.227917 0.371430 -1.133645 0.787464 0.851396 -0.697440 -0.434639 0.410361 -0.752235 -0.330458 0.494794 0.705980 -1.000843 1.063420 -0.464224 -0.285653 0.530139 0.812596 0.292863 -0.495849 -0.194301 1.179141 -0.155874 0.170958 -1.314251 -0.747452 0.506170 -0.088960 0.457327 -1.403343 0.255966 0.409749 1.613962 0.790170 -0.176328 -0.448308 0.378026 0.039791 0.240043 0.062923 -0.030648 0.218855 -0.292648 0.280665 0.338622 -0.595276 -0.309768
party 0.630684 -1.121780 -0.800844 -0.288472 -0.058418 -0.039969 -0.119061 0.610931 -1.621707 0.422920 0.829427 -1.975455 0.185606 -0.196552 1.236160 -0.221338 0.940920 -0.163966 -1.077039 -0.426451 1.265200 0.223211 0.709832 0.351875 0.662598 -0.533054 0.746863 -0.898032 -1.306255 -0.846999 -0.830673 -0.193380 0.185482 0.872384 0.191919 -0.146287 0.217604 -0.841664 0.309354 -0.568457 0.061908 0.328061 0.257777 0.886389 1.505788 0.146812 0.901820 -1.128268 1.595358 0.487548
hip -0.030772 0.614831 -0.623166 -0.578025 -0.057906 -0.776668 0.465356 0.507612 -1.058161 -0.484894 0.340990 -0.668454 0.789590 -0.900150 -0.171645 -0.729447 -1.324020 -1.117354 -0.425563 -0.316516 1.590248 0.188693 -0.769642 0.205141 0.567154 0.310058 0.516344 -1.272566 -0.720380 0.687377 0.232603 0.259948 -0.290249 -1.304694 -0.178159 -0.331442 0.223274 0.829179 0.324447 0.326056 -0.529556 -0.499775 0.315618 -0.075664 0.052809 -1.854731 0.483649 -0.574352 -0.319948 -0.145064
break -0.626189 -1.935764 1.341225 -0.575231 0.269845 -0.404945 1.121956 0.562809 0.359417 -0.253078 1.375639 0.166131 -0.314742 -1.099003 0.461050 -0.459756 -0.214428 0.106839 -0.254126 -1.276789 -0.672224 0.626417 0.739940 -0.335322 0.131791 0.240926 -0.483630 -0.122840 -2.037160 0.646897 0.157877 -0.466398 -0.295567 0.338074 0.634607 0.282041 0.612510 -0.210891 -0.350314 0.010104 0.207405 -0.783155 0.868090 0.592704 0.349709 -0.736318 0.751035 -0.590991 -0.637896 -0.608372
fuckin -0.386092 -1.064338 0.211769 -0.507619 0.215027 0.918258 1.138357 -0.411107 0.436503 -0.292022 -0.047148 -1.332871 -0.287927 0.641133 0.338569 0.395288 -0.291340 -0.496213 -1.675918 0.456291 -0.481852 -0.765172 -0.768749 0.639866 0.126184 -0.251062 0.617043 0.186260 -0.385082 0.285363 0.171168 -1.161724 0.529444 -0.005236 0.247315 0.279213 1.043467 0.812305 -0.394263 -0.180702 -0.692019 -0.567203 0.028117 0.516358 -0.517595 -0.612083 -0.165025 0.138113 -0.741600 -0.586507
kick -0.508201 0.151059 -0.651514 0.447808 0.793431 -0.829506 0.583134 0.015094 -0.905769 -0.486900 0.332006 -1.395945 0.898368 0.484618 -0.514409 -0.329082 0.180883 0.238121 -0.704318 -0.010425 0.974681 0.533592 0.196186 1.162233 1.306630 -0.615722 -0.018296 -0.714531 -1.546406 0.095145 0.197656 -0.759831 0.530072 0.440155 0.234263 1.185463 0.294144 0.955435 -0.895858 0.164807 -0.709540 0.404204 0.058377 0.438830 0.683877 -0.766598 -0.225116 1.083780 -0.678588 -0.708202
night -0.387984 -1.146542 -0.073680 -0.274940 -0.867020 -0.137605 0.884863 0.949658 -0.935534 -1.493509 0.372532 -0.979412 0.598511 0.389031 -0.572084 -0.529040 0.543535 0.250450 -0.108286 0.120052 0.141635 0.006487 1.141117 0.568826 0.055422 0.773729 0.827038 -0.556234 0.750025 -0.455253 0.252037 -0.671874 0.060039 1.275106 0.143238 -0.399246 1.091065 0.071835 -0.137797 -0.425501 -0.721627 -0.001866 -0.254801 0.558424 0.727051 -0.189222 -0.014056 -0.427763 0.648017 -0.467641
hop -0.120897 0.712132 -0.451399 -0.729532 -0.271489 -0.758773 0.525110 0.305932 -0.999681 -0.619812 0.517803 -0.543443 0.930025 -0.750250 -0.424520 -0.376473 -1.686323 -1.070212 -0.471256 -0.407934 1.448128 0.525665 -0.589781 0.018025 0.872084 0.193417 0.765019 -0.978777 -0.514715 0.615060 0.413306 0.198464 -0.515785 -1.385225 0.041196 -0.725666 0.272765 0.629251 0.334411 0.188298 -0.427179 -0.432311 0.353810 -0.106596 0.166518 -1.976090 0.550365 -0.512174 0.000830 -0.163158
turn -0.309184 -0.980771 -0.175009 -0.321094 -0.836368 -0.546040 0.461163 0.865647 -0.520590 -1.047711 0.096823 -0.159197 -0.538993 0.348327 -0.320110 -0.078059 0.300511 -0.478956 -0.599880 -0.181218 0.019459 0.963730 -0.968226 -0.258590 0.914625 -0.521034 1.137544 -0.216339 -1.372780 1.144228 -0.093693 -0.106052 -1.088705 0.331832 0.582719 -0.648060 0.042603 0.143416 0.853136 1.284497 -0.207375 0.807149 0.340462 1.228988 0.217717 0.438844 -0.108510 -0.509747 -0.324086 0.160480
god 0.467278 0.873926 0.514412 -0.484076 -1.179708 -0.307929 0.549913 0.058493 -0.012478 -0.662838 0.180836 -1.145248 -1.160952 0.243141 0.728431 -1.088631 0.316363 0.489230 0.748090 0.433436 0.198337 -0.600939 -0.619004 1.091631 0.877487 -0.881029 0.480028 -0.547504 -1.214198 -0.049137 0.996056 -0.454726 -0.013100 0.230163 0.254813 0.212809 1.200208 0.078486 -0.133351 0.129421 -0.398543 -0.342678 0.176567 0.715678 -0.533108 -0.634523 0.449873 -0.615369 -0.905857 1.238785
sound -0.118670 -0.834004 -0.101330 -1.083505 0.219626 -0.250756 0.015713 0.307261 -1.355314 -0.647448 1.113817 -0.124058 0.233082 0.859129 0.007193 1.227458 -0.905044 0.290473 0.317467 0.394455 1.109789 0.136568 1.215034 0.464270 0.903823 0.063793 -0.419122 -1.336958 -1.021438 -0.102863 1.409890 -0.106008 0.706406 0.898799 0.630736 0.258244 0.668974 0.701430 -0.246520 1.132165 0.624658 -0.109872 0.074295 0.360445 -0.122799 0.609498 -0.187469 0.418659 0.135425 1.054914
hold -1.390389 -0.257673 -0.271582 -0.462922 0.933338 -0.580934 1.148606 0.693913 0.046564 -1.528301 -0.251008 -1.289776 0.499291 -0.302783 0.719564 -0.721381 0.547805 -0.252817 -0.090778 -0.595182 -0.359334 -0.374809 -0.153301 -1.192664 0.133763 -1.072271 0.756945 -0.856937 -1.046394 0.017133 -0.117115 -0.389195 -0.962048 -0.647843 0.601507 0.156543 0.771217 -0.952396 -0.093055 0.419256 -0.447216 0.157940 -0.172402 0.178413 0.521405 -1.177336 -0.241497 0.358998 -0.726246 -0.008152
gettin 0.686750 -0.331610 0.307990 -0.029102 -0.494975 0.344761 1.088201 0.153574 -0.446212 -1.353421 0.829208 -1.003186 0.381309 0.834641 -0.519056 0.083303 0.916132 -0.166827 -1.024094 0.587588 -0.496031 -0.539194 -0.271980 0.122284 0.694600 0.616581 -0.145335 -0.565600 -0.030992 -0.757229 -0.744863 -0.950748 -0.201631 0.628719 0.687709 0.377511 0.783821 -0.059611 -1.296430 0.103039 -0.560118 -0.111306 0.138761 -0.004851 0.244398 -0.577220 0.490935 -0.466785 -0.168792 -0.730138
mad -1.147049 -0.307391 -0.195243 -0.281332 0.547729 -0.879210 0.488010 -0.474370 0.664591 -0.404754 1.180266 -0.604228 0.949899 0.283957 -0.415915 -0.544430 -0.292745 -0.442020 -0.163856 0.524224 1.581513 -0.721409 -0.531015 0.988734 0.813382 -0.262953 -0.084824 -0.236914 -0.518171 -0.899322 -0.124078 -0.857400 -0.788690 0.549020 1.298603 0.535296 -0.093815 0.839283 -0.788110 -0.077980 -0.280521 -0.354729 0.396966 0.427306 -0.394146 -0.061418 -0.365514 -0.758422 -1.313498 -0.540287
long -0.193725 -0.793714 0.344033 -0.340442 -1.074615 0.355886 0.882322 0.965167 -0.946183 -1.238560 0.432380 -0.424596 0.174660 -0.763488 -0.840417 -0.200258 0.758117 0.566317 0.566516 0.371213 -0.025163 -0.536168 0.088531 0.879163 0.107948 -0.538433 0.993840 -0.559921 -0.432719 -0.108601 1.140137 0.095727 0.228802 1.276978 0.807942 0.132775 0.521094 -0.254780 0.401394 -0.432264 0.274165 -0.065667 0.056202 0.795095 0.047658 0.276378 0.445966 -1.232144 0.005296 -1.111118
ready -0.499676 -0.772243 -0.114340 -0.856769 -1.656821 -0.045529 0.104531 1.111199 -0.565967 0.036260 0.682170 -1.027188 0.261340 0.297798 0.848126 -0.880904 0.195583 -1.808346 0.253063 -0.096278 0.661784 0.162920 0.550458 -0.012538 0.002044 -0.910138 0.417965 -0.752319 -0.533435 -0.725342 0.759535 -0.144235 0.497646 0.078308 0.919010 0.700292 0.180729 -0.873393 -0.456314 0.389615 0.568427 0.445523 -0.212662 -0.172447 -0.059930 -0.472460 -0.479105 -0.053570 -0.092704 0.042016
beat 0.061148 -0.626880 0.276094 -0.184869 0.090861 -0.864286 0.482600 1.466142 -0.692828 -0.509843 0.413563 -0.450716 -0.606239 -0.166784 -0.294108 0.381639 0.080654 -0.179124 -0.933541 -0.870906 1.140188 0.090742 0.151934 -0.184569 0.888067 0.110532 -0.538654 -0.444751 -1.634383 -0.016755 -0.520108 -0.916221 0.657689 -0.647028 0.818863 -0.534757 0.340104 0.934605 0.137206 0.155877 0.695583 -0.137766 -0.221239 0.483633 0.845611 -0.271810 0.214560 0.071563 -0.114838 -0.144995
damn 0.841715 -0.075223 0.452175 -0.997149 -1.084624 -0.451020 0.995463 0.371893 -0.503604 -0.442284 0.910754 -0.892591 -1.239250 0.337071 -0.018019 0.321873 0.124998 0.091801 -0.666173 -0.697238 0.244319 -0.223689 -0.484935 0.917500 1.508729 -0.982795 0.183122 -0.972648 -0.201094 -0.490527 -0.186900 -0.505900 -0.141565 -0.219799 -0.015640 0.520975 0.553929 0.127010 -0.204373 -0.705262 0.174908 -0.552919 -0.281988 0.870207 -0.112342 -0.139112 -0.282306 0.562310 0.836440 0.875818
leave -0.476892 -0.571832 0.283971 -0.303511 -0.772360 -0.772240 0.651190 0.678507 0.051084 -0.675097 0.386634 -0.097292 -0.323503 -0.665708 0.028071 0.213944 -0.182420 -0.986382 -0.671517 -0.498034 -0.034737 0.724208 -0.952312 -0.173931 0.816206 -0.047188 0.000866 -0.230419 -1.199567 0.421396 -0.526151 -0.036899 -0.102529 -0.377644 0.946327 -0.408793 0.843145 -0.196965 0.020055 0.943803 -0.571791 1.392821 0.486493 1.056542 0.409106 0.231929 -0.673962 -1.170849 -0.085872 0.440414
thing 0.279925 -0.347969 0.599467 -2.109366 -0.260660 -0.059437 0.245742 0.354031 -1.083181 -0.277249 0.551635 -1.026697 -0.891088 -0.134998 -0.834954 0.112868 0.385494 -0.215631 -0.556734 -0.295920 -0.114045 -0.388874 -0.585542 1.087872 0.048727 -1.475640 -0.366087 -0.708296 -0.790283 0.795955 0.108346 0.271298 -1.404505 -0.371316 0.029593 -0.789696 0.218331 -0.469488 -0.524750 0.032937 0.142212 -0.725895 0.040237 0.782240 -0.057672 0.095466 0.743313 -0.514122 0.804049 0.376811
jump -0.471753 -0.474594 -0.270575 -0.095209 -0.726328 -1.083339 -0.526779 -0.732430 -0.914557 -0.191350 0.560145 -2.087356 -0.250554 1.081500 0.116338 -0.019850 0.157009 -0.312266 0.447071 -1.082603 0.679791 1.898658 0.231025 -0.063135 -0.512746 -0.787723 0.216269 0.294784 -1.516979 -0.202575 0.369494 0.332951 0.564000 -0.197540 -0.531944 0.195954 -0.250472 0.585523 -0.871504 1.245814 -0.040484 -1.002127 -0.096720 -1.205174 1.321385 0.388548 0.467844 0.050849 0.401751 -0.939566
girls -0.089422 -0.261006 0.226404 -0.471775 -0.159699 -0.648222 0.496733 -0.698980 -0.968858 -0.821782 -0.617183 -1.167205 -0.680400 -1.388014 -0.425710 1.375812 -1.017522 -0.515909 0.379286 0.938143 0.217516 0.612802 -0.058379 0.444082 0.165165 0.028904 0.164509 -0.377805 -0.153527 -1.158635 0.617222 0.574177 -0.748066 1.606331 0.178205 -0.520761 -0.004728 -1.275230 0.101953 0.577087 -0.347075 0.542591 0.133099 1.074488 1.123658 -0.047279 0.591594 -0.235945 0.628131 -0.669648
o -0.258030 -0.990869 -0.322467 -0.593629 0.552089 1.003221 0.422651 1.172005 -1.811811 -0.347528 -0.148233 -1.139636 -0.159616 -0.799727 0.143434 -0.984662 -1.452114 -0.097598 -0.524555 0.592971 0.366699 -0.494877 -0.497038 -1.070100 0.195433 -0.989368 -0.276266 0.197767 0.224254 -0.587366 0.525871 -0.398304 0.167975 0.579204 -0.750947 1.251474 -0.228795 0.728182 -0.341334 1.043065 0.254278 -0.500174 0.327315 0.073573 0.503904 -0.343606 -0.305134 -1.349561 0.722211 -0.189726
hot -0.157739 0.132032 0.835284 -0.244219 -0.101562 -0.109018 1.382435 0.233975 0.413488 -0.541472 0.552180 0.657340 -0.499408 1.261034 -0.826912 0.625338 -0.495259 -0.368168 -1.101957 -0.080081 -0.013352 0.855762 -0.396704 0.126033 0.770532 -1.199659 1.439193 0.051915 -0.415716 -1.193171 0.048439 -0.219216 -0.840225 -0.724140 0.370847 0.468776 0.475369 -0.065071 -0.523268 1.086716 0.545007 -0.866830 -0.199935 0.969917 1.301621 -0.553341 -0.781918 0.822996 0.618015 0.675442
left -0.342257 -1.039321 -0.135225 -0.004785 -0.944785 -0.453378 1.351986 0.664783 -0.928644 -0.755105 -0.166678 -0.826778 0.898463 -0.214828 -1.054674 -1.801840 0.701045 -1.199692 -0.414337 -0.097721 0.847958 -0.274842 1.015292 0.849179 -0.756112 -0.294121 -0.651431 -0.172002 -0.324442 -0.532289 -0.061470 0.232289 0.568582 -1.123749 -0.095274 0.173027 0.121906 -0.613755 -0.216155 -0.020784 0.025631 -0.714355 -0.352209 1.305746 -0.751147 0.177525 0.704654 -0.236983 0.299955 0.583974
face -0.789639 -0.780957 0.682099 -0.014996 0.047550 -1.106037 0.292537 1.625371 -0.065052 0.019819 -1.039406 -0.535718 -0.489791 -0.495358 -0.015088 0.124457 -0.470160 -0.349237 0.424445 0.462893 0.138469 -0.211644 -0.861338 0.578968 0.660522 -1.034309 0.194499 -0.602271 -1.519286 -0.838766 -0.141479 0.221459 0.414728 -1.002588 0.569965 -0.380724 1.246285 0.741045 -0.348171 -0.118251 -0.874185 0.038573 -0.020085 0.891014 -0.143199 -0.419597 -0.455467 0.123910 -0.721020 -0.106279
work -1.487730 0.268961 0.331948 0.205658 0.857887 -0.000642 1.343583 0.091346 -0.212827 -1.023042 0.328750 -0.677015 0.472854 -0.111245 -0.549495 -0.431447 1.019661 -0.327856 0.214077 -0.377140 -0.267211 0.352363 0.172244 0.136236 -0.738649 -0.034301 -0.168840 -0.318321 -0.221298 1.374970 0.719183 -0.894536 0.577500 0.997790 0.256178 -1.293482 0.422755 -0.402728 -0.881056 0.779485 -0.304533 0.144746 1.668318 0.948212 1.417681 -0.466756 -0.893590 -0.315185 1.489912 0.641564
bad -1.002871 -0.470236 0.105242 -0.755576 -0.093063 0.332663 0.419035 -0.815933 -1.013866 -0.022540 1.017993 -1.156911 -0.479293 0.747840 -0.007734 0.275374 -0.748294 0.010122 -0.329519 -0.434924 0.813776 0.189736 -0.605103 0.186250 0.070048 -0.041899 0.660941 -1.159362 -0.292977 -0.387969 -0.582800 -0.573525 -0.448087 0.245220 0.850568 0.436891 -0.427918 0.571373 -0.873904 -0.227207 0.407958 -0.095541 -1.229760 1.011970 0.291768 -0.008802 0.165481 0.744235 -1.553849 -0.787516
brother -1.053124 -0.153800 0.569913 -1.279041 -0.446897 -0.506894 0.180853 -0.026104 -0.646128 -1.076803 0.672205 -0.401483 -0.667511 -0.531446 -0.010764 -0.669478 0.472761 -0.112679 -0.381978 -0.147272 0.062521 0.154500 -0.075448 -0.134854 0.095967 0.389742 0.100696 -0.817363 -0.255519 -0.508687 -0.194675 -0.339443 -0.843684 0.000461 0.126072 -0.293379 0.450733 1.581800 -0.476294 -0.559883 0.005070 0.511929 -0.436267 0.943775 0.252557 0.143111 -0.349247 0.094919 -0.176449 -0.419844
ho 0.205335 0.415704 -0.479305 -0.689930 -0.538136 0.392765 0.129216 0.720947 0.119261 -0.108048 0.023477 -1.698609 -0.366057 0.458914 0.256079 -0.034689 -1.021470 -0.381916 -0.897857 -1.311836 1.106713 -0.710706 0.046883 0.136059 0.326938 0.331622 1.112311 -0.667765 -0.250142 0.198506 -0.347432 1.389659 0.057562 -0.295993 -0.041153 -0.138273 1.553780 0.819687 0.027965 0.078100 0.315862 -0.727255 0.435205 0.059303 0.136882 -1.052492 -1.347433 -0.435423 0.522304 -1.401384
gangsta 1.328819 -0.946819 -1.314171 -1.266579 -0.980788 -0.138174 -0.276501 -0.020407 -0.261265 0.016726 2.253567 -0.865099 -0.873125 0.171647 0.835908 1.009659 0.364723 -0.397915 -1.062850 -0.332246 0.004732 -0.157599 -0.487086 -0.321518 -0.453042 -0.974641 0.497414 -1.083879 -0.082289 -0.426269 -0.916461 -1.313260 0.948603 -0.198510 -0.902498 -0.717472 1.003025 -0.362285 1.430678 -1.775578 -0.506137 -0.506882 0.163892 0.624897 0.242423 -0.889194 0.528216 0.024106 -0.346270 -0.234231
straight 0.506672 -0.538747 -0.121135 0.139630 0.495541 0.627107 1.092749 1.066764 -0.064138 -1.066600 0.221177 -0.062335 -0.617000 0.257487 0.026348 0.344236 0.216457 -0.971455 -0.440840 -0.233516 0.073548 0.227536 -0.049333 -0.311824 0.011492 0.118769 0.214897 -0.066746 -0.782209 -0.905409 0.896895 -0.484914 0.470593 -0.271959 0.740755 -0.553346 0.643116 0.606799 -0.148347 -0.208812 0.184876 -0.283053 -0.113107 0.946232 0.002389 -0.794746 0.398492 -0.379578 -0.489911 -0.858754
house 0.504746 -0.440760 -0.075154 -0.613417 -1.009991 -0.479393 0.653027 1.236958 -0.061751 0.158474 1.169266 -1.224400 0.522361 -1.254368 0.568762 0.052368 -0.533617 -0.536880 -0.295501 0.263160 0.525653 0.001802 0.995249 -0.000483 1.119644 0.054191 0.876607 0.045879 -0.353060 -0.491574 -0.223587 -0.764288 0.504821 -0.004942 0.736641 0.317530 -0.571278 0.349243 0.216507 0.141663 0.708585 0.500388 -0.238469 0.755857 0.546370 0.259002 -0.881592 -0.689605 -0.087020 -0.836990
drop -1.077563 0.400204 0.070241 -0.383430 -0.836691 -0.708628 0.849315 1.110807 -0.534036 -0.105994 0.103242 -0.047860 0.633050 0.901358 -0.060204 0.063339 0.011661 0.704106 -0.708752 -0.116130 0.735500 0.456667 -0.903926 0.406444 1.472157 -0.521102 -0.290033 -0.348066 -0.486871 1.090697 -0.422653 -0.420376 0.245768 0.350161 0.790722 0.523606 0.264647 0.383392 -0.698767 0.383734 0.434374 -0.983078 -0.600515 1.108456 0.268425 -0.271036 -1.226119 0.023134 0.441230 -0.638494
stay -0.396867 -0.377595 -1.384596 -0.986316 0.137780 0.145292 1.401995 0.630824 -0.038025 -1.689275 0.451302 0.339028 0.234862 -0.409860 0.015968 -0.202691 -0.013703 -0.715167 1.406751 -0.001854 -0.515022 -0.397425 -0.636563 0.295406 0.332257 0.015660 -0.090703 -0.470425 -0.510020 -0.264232 1.034018 -0.568937 -0.717537 0.265229 1.185618 -0.441724 0.935061 -0.222179 -0.967296 -0.725901 -0.407902 0.027692 0.001162 0.198121 0.355032 -0.294669 -0.253754 -0.338886 -0.457708 0.291945
rhyme -0.476125 -0.431824 0.670945 -0.493745 -0.182751 -0.930658 0.832505 0.693214 -0.898951 -1.026528 -0.029734 -0.886614 -0.748493 0.377456 -0.934508 -0.876238 -0.715424 0.507247 -0.548842 -0.368220 0.772369 -0.358869 -0.584477 -0.294846 0.163912 0.437671 -0.314646 -0.843722 -0.687488 -0.691434 -0.581677 0.351229 0.172060 -0.274430 0.201205 1.198860 0.416002 0.410811 -1.097457 -0.182606 1.286158 0.185947 0.557485 -0.170407 -0.266708 -0.885003 0.161178 0.152917 -0.226574 -0.472552
smoke -0.022456 -0.267606 0.352595 -0.812487 0.178004 -0.546027 0.204333 0.363523 -0.222169 -1.121950 0.184184 -0.440910 1.099378 0.384727 -0.461541 0.548157 0.155365 -0.629594 -0.464213 0.214688 -0.076238 0.093258 0.454705 -1.036241 0.115094 -0.557024 0.891293 0.918270 -0.279330 -0.979173 0.344402 0.071281 0.105410 0.961579 0.393823 0.543514 1.611811 -0.123121 -0.963994 1.136592 -1.582764 0.756230 -0.498704 -0.580093 -0.219267 0.488054 -0.126598 -0.061246 -0.696420 -0.131840
step -0.644133 -0.807114 0.026500 0.039520 0.733778 -0.225372 0.645745 0.433416 -0.504437 0.193605 0.700445 -0.958953 -0.378101 -0.749275 -0.214539 -0.440610 -0.542557 -1.321987 0.277350 -0.240393 0.280507 1.483503 0.367736 1.121925 0.956055 0.080721 -0.309240 -0.087951 -1.308076 0.041522 0.307500 -0.372821 -0.125881 0.776871 0.476224 0.074139 0.311546 -0.076634 -0.558957 0.912941 -0.306498 0.188158 0.322441 0.758948 -0.219591 -0.256600 0.394387 -0.054598 -0.006685 -0.003135
start -0.542825 -0.805951 0.233432 -0.021638 -0.632805 -0.466437 0.274867 0.418466 -0.369398 -1.242203 0.258764 0.154945 -0.358906 -0.344936 0.198988 -0.268096 0.221355 -1.300498 -1.015117 -0.528451 0.110188 0.422108 -0.043060 -0.538672 0.661239 0.162041 0.346981 -0.101478 -1.524227 0.204038 -0.236866 -0.049402 0.110013 0.610587 0.722160 -0.117743 0.356801 0.469095 0.035319 0.441790 0.008623 0.953925 0.249749 0.733010 -0.128016 0.646757 -0.215979 0.024709 -0.436377 0.380113
choo -1.029382 -0.973819 -0.742874 -1.965599 -0.255536 -0.528247 0.170638 -0.813134 -1.515198 0.886584 -0.048124 0.861739 1.189032 -0.547017 1.912646 0.890765 -0.101479 -0.069742 0.375836 0.571467 -0.396496 0.516252 -0.860838 0.426827 -0.723135 0.515176 0.432091 0.697954 -0.823720 -0.385359 1.493213 0.305016 0.130101 -0.288584 0.706387 -0.412624 -0.255677 -0.374028 -0.411106 0.980496 1.172469 0.950722 -0.347095 -0.187475 -1.095185 -0.443657 -0.039006 0.070389 0.285864 0.189343
ooh -0.114817 0.390754 -0.618648 -2.177383 -0.860923 -1.085820 0.920924 -0.226887 -0.322981 0.052195 -0.566897 -0.921152 -0.831884 0.390834 0.564946 0.990878 -0.616905 0.640528 -0.090334 0.017652 0.760482 0.746800 0.568893 0.206141 -0.187814 -0.793357 0.707651 0.556539 -0.978169 -0.716417 0.938213 0.129111 -0.594541 0.049891 0.271078 -0.357496 -0.517146 0.360996 -0.423489 -0.105141 -1.812653 -0.728773 0.808483 0.153341 -0.095706 0.458367 1.529638 -0.593751 -0.592256 0.019875
kid -0.882091 -0.105112 0.401887 0.516786 -0.071366 -0.229747 0.592547 0.392008 0.213550 -0.126707 1.074429 -0.720945 -0.186222 0.274550 -0.732003 -0.552507 0.206799 -0.663494 -0.495080 0.246396 0.110964 0.144525 -0.475928 1.095951 0.747142 -0.111121 0.268503 0.242252 -1.618738 -0.730616 0.302543 -1.069273 -0.784405 0.626933 0.575504 0.203713 0.259470 0.236408 0.013627 -0.019793 -0.315084 0.601454 0.424015 0.420187 0.040850 -0.339405 0.435423 -0.090967 -0.832615 0.147701
away -0.613759 -1.225673 0.641074 -0.280545 -0.864969 0.190512 0.863786 0.029524 0.030475 -1.358675 -0.321129 -0.775326 -0.095280 -1.235354 -0.418010 -1.034496 0.685996 0.401746 1.708027 -0.401454 0.609358 0.213570 -0.251830 -0.588553 -0.866428 -1.453113 1.282198 0.193405 -0.513492 -0.236421 0.551298 0.259705 -0.104465 0.806643 1.369319 -1.198806 1.145380 0.289029 0.379368 0.782852 0.201121 0.067331 -0.237713 0.808121 1.182403 0.394683 0.351683 -0.364986 0.029713 0.477030
bust 0.252401 -0.693729 0.324220 0.020815 -0.265549 -0.662479 0.591291 -0.082267 0.119088 -0.240962 1.005317 -0.253001 -0.230843 0.878373 -0.395304 -0.226945 -0.841123 -0.295130 -0.402840 0.073295 0.414994 0.010041 -1.287977 -0.309031 -0.187181 -0.634011 -0.323658 -1.091378 -1.788101 -0.301151 0.953432 1.309157 0.449059 0.249989 1.032878 0.536457 0.770322 -0.001839 0.054408 0.456239 -0.015273 -0.108550 -0.317103 0.643767 -0.797639 -0.704713 0.290763 -0.199810 -0.319303 0.144969
bitches -0.063802 -0.240997 -0.383636 -0.778970 -0.815071 0.761796 -0.699644 -0.766828 -0.095468 -0.045808 0.660846 -1.031099 -0.084050 -0.205622 -0.028111 0.433207 0.283602 -0.778615 -0.113918 0.861256 0.047745 -0.541020 -0.794233 0.849035 0.151269 -0.154891 0.792948 -0.326645 -0.479420 0.165948 -1.160419 -0.046827 0.122587 0.730679 1.401631 0.357685 0.761784 -0.013616 -0.054312 -0.024072 -0.802275 -0.071247 0.434666 0.640443 1.002818 -0.940297 -0.377762 -0.149377 0.075251 -1.250814
home -0.347594 -0.603581 0.267468 -0.456382 -0.963844 -0.297745 0.469009 -0.356391 -0.429925 -0.980784 0.541143 -0.781427 0.386030 -0.497171 -0.458639 -0.824194 0.587297 0.069255 0.081301 0.231815 0.143397 0.446628 -0.239400 1.520081 0.047258 -0.506239 0.123832 0.074619 -0.107556 -0.073201 -0.138343 -0.657125 -0.480759 0.146858 1.173710 -0.411750 -0.395254 0.751838 0.003464 0.489915 0.646931 0.655908 -0.536908 1.183746 0.212800 -0.223003 0.270556 -0.624866 0.627711 -0.558225
comes 0.269917 -0.046289 1.590025 -0.719974 -0.295577 0.535533 0.318736 1.234312 -0.856922 -0.377855 0.584830 0.093129 -0.583901 1.793940 -0.887631 -0.545384 0.323643 0.293167 -0.304825 0.365196 1.108565 0.172484 0.718469 0.041183 0.376572 -1.205120 -0.679107 -0.217721 -0.220626 1.300825 0.396665 0.294454 -0.397562 1.141246 1.256305 -0.090944 0.957437 0.213359 0.393209 -0.350880 -0.303658 -1.257826 -0.520212 -0.112399 0.157092 -1.027442 -0.627513 -1.195028 -0.737475 -0.105999
music 0.491141 -1.231229 0.067230 -1.217657 -0.295504 -0.845297 0.420570 0.152537 -0.773838 -0.962678 0.206206 0.402717 -0.664658 0.891259 -0.546799 0.092375 -0.201352 0.928945 -0.525243 -0.221153 -0.499194 -0.597938 0.364106 -0.422676 0.541257 -0.339164 0.390299 -1.384932 -0.361177 1.358179 0.554374 0.128488 -1.570258 -0.282235 -0.469673 -1.847641 -0.757099 0.837544 0.343696 1.399882 -0.064524 0.794001 -0.216972 0.464828 0.511246 0.458440 0.600987 0.111217 -0.102636 -0.497226
buck 0.135815 0.696706 0.675294 0.695461 0.939144 0.844940 0.933455 0.204748 -0.095014 0.833143 0.607497 -1.524295 0.760048 -1.613767 -0.159718 0.781950 -0.238641 -1.246038 -0.925334 0.552953 0.346101 -0.284348 -1.039068 -0.935445 0.222563 -1.047241 -0.542953 -0.279186 -0.417767 0.711355 1.156558 -1.130559 0.309616 0.001223 1.315098 0.162099 1.755056 1.225573 0.042236 -0.275832 -0.198454 -0.136759 -0.041661 -1.224992 0.379958 0.884728 -1.114790 0.087651 -0.564160 -0.045864
dick -0.811324 -0.128282 1.002720 -1.789849 0.181731 0.328285 0.069517 0.928105 1.181340 -0.248634 0.261345 -1.710501 0.103325 0.514441 -0.068253 1.040067 0.533554 -0.646996 -0.701085 -0.373041 0.342845 -0.061027 -1.252075 0.707690 0.289592 -0.442406 1.484976 -0.140012 0.302210 -0.196226 -0.570738 -0.481708 0.827985 0.141930 0.740809 0.417255 0.796262 -0.309464 1.113002 0.855232 -0.153453 -1.442419 1.008813 0.186416 0.557338 -0.464095 0.494289 0.281299 -0.084929 -0.640523
crew -0.300959 -0.692210 0.458909 -0.563241 0.280757 -0.344738 0.412391 -0.337677 0.369691 -0.128699 1.105498 -0.248426 -0.217949 -0.391947 0.360052 -0.739815 -0.764016 -1.172760 -0.317302 0.897034 0.499885 0.442314 0.647775 0.238281 0.087538 0.258492 -0.074200 0.496136 -1.071205 -0.457316 0.916710 -0.848824 -0.864262 -0.211958 0.528379 0.140237 0.970185 0.297833 -0.767857 -0.628780 0.098466 0.271594 -0.433826 0.750940 0.856889 -0.361196 0.547673 -0.190158 0.145143 -0.245759
song 0.900605 0.109107 0.294554 -0.608307 -0.826978 -0.123716 0.180052 0.701221 -1.576404 -0.146495 0.389407 -0.478250 -0.988092 -1.137194 -1.006236 -0.203333 -0.966786 0.196248 0.352044 0.358806 0.236624 -0.079813 1.186057 1.526083 -0.244095 -1.070490 1.452119 -1.196710 0.372270 0.783244 -0.012962 -0.346437 -0.128836 0.755741 0.783262 0.350150 -0.068232 -0.061668 -0.293740 1.338787 0.336222 0.251719 1.348291 0.318850 -0.158435 0.253450 1.464996 -0.358874 -0.172234 -0.516337
true -0.635330 0.548115 -1.152979 -0.652382 -0.269789 -0.195215 1.342301 -0.349768 0.360953 -0.098577 0.203074 -0.665309 -0.689771 -0.164635 0.732010 -1.069140 -1.118430 0.144306 0.906141 1.030708 0.567524 -0.245466 -0.215817 0.623883 -0.481373 -0.823470 0.500630 -1.379421 -0.086373 1.657468 0.316527 -0.032756 -0.384081 0.703998 0.351216 -1.207233 0.750283 0.108276 -0.826254 -0.448184 0.427999 0.709091 0.295267 1.670261 0.479867 -0.648011 -0.072359 -0.441744 0.037828 0.535001
dat -0.183182 0.561201 -0.519698 -1.259876 -0.376846 -1.014217 0.679999 0.138867 0.057613 0.883454 0.277189 -0.582226 0.346527 -0.819430 1.016393 -0.656437 -0.418098 -0.688369 -0.100587 1.309627 1.176330 -0.538012 0.366205 0.294706 -1.550306 0.079871 -0.348203 -1.228172 0.104502 1.189071 -0.049444 -0.832625 1.061890 1.408687 0.746339 -0.994509 0.841140 -0.114775 -0.023117 1.021077 0.649415 0.680017 0.009819 0.850741 1.548194 -1.051217 -0.770844 0.672495 0.320250 0.266663
crazy 0.331080 -0.001268 0.316460 -0.168384 0.107792 -0.308189 0.260864 0.198070 -0.338191 0.525024 0.273325 -0.144883 -1.069162 0.179370 -0.919614 -0.660453 -0.193464 0.196718 -0.634276 -0.910868 0.068115 0.273702 -1.419051 0.344848 -0.894219 -1.281382 -0.049302 -0.838838 0.263814 -0.232254 -0.238276 -1.668809 0.283894 0.892738 1.585863 -0.344613 0.022218 0.516471 -0.409681 0.718515 -1.424647 -0.311970 0.170018 0.697429 -0.164740 0.057286 0.002822 -0.740733 -0.239233 -0.092632
funk -0.054968 -0.262348 -0.117595 -1.476310 -0.548698 -1.272040 -0.222072 0.251751 -0.624140 -0.791392 1.496111 0.124877 0.601018 0.476391 0.116971 0.058183 -0.638765 -0.233122 -0.901501 0.003432 0.853014 0.528462 0.309072 -0.562096 0.996033 0.187167 -0.653624 0.408345 0.061417 0.738297 -0.035861 -1.034843 -1.014341 0.991194 -0.499586 -0.565004 -0.420393 0.475177 -1.111018 0.965960 0.114083 -0.070742 0.201203 -0.359641 0.301371 -1.081964 0.896138 0.456755 -0.856856 -0.161781
eyes 0.343610 -0.433022 -0.025750 -0.201409 -0.577959 0.071355 0.710155 0.084562 -0.692284 -1.221665 -0.376254 -0.691228 0.059357 0.489055 -1.296406 -0.142121 0.041497 -1.114768 0.444276 0.541167 -1.136460 -0.041869 0.435853 0.022778 -0.207098 0.492812 0.595064 -0.394230 -1.039861 0.263635 0.539159 0.209677 -0.564680 -0.361275 -0.549346 -0.311123 0.781214 -1.003691 -0.876347 0.162090 -0.728838 -0.201646 0.183310 0.973343 -0.166982 0.180973 0.021153 0.842856 -1.166404 -0.630638
rhymes -0.328441 -0.228459 0.420400 -0.819902 0.685591 -1.402795 0.624265 -0.097577 -0.744409 -0.679042 0.618714 -0.359550 0.101976 0.755059 -0.544763 -0.987523 -0.686453 0.138735 -0.097369 0.271957 1.190398 0.068118 -0.782860 -0.990113 0.774935 -0.614569 -0.173348 -0.320964 -0.607739 -0.069472 -0.456083 -0.457671 0.133334 1.123098 0.810836 0.865715 0.113374 0.299722 -0.650234 0.129338 0.332474 0.117465 0.380489 -0.054705 -0.498478 -0.389596 0.153913 -0.090423 -0.290550 -0.371024
em -1.026811 0.234082 -0.026902 -0.275527 0.099860 0.450999 1.427023 0.405830 0.463227 -0.413480 0.092766 0.242007 1.037079 0.220775 0.829495 -0.314438 -0.987517 0.232336 -1.749028 -0.349302 0.546650 -0.776953 0.120079 0.204184 0.942879 -0.970011 -0.687260 -0.321639 -0.950049 -0.095133 -0.187477 -0.988188 1.360536 -0.509382 0.309797 -0.128357 1.334451 -0.305433 -0.041980 -0.254118 0.429110 0.180206 -0.472870 0.338557 0.775046 0.454183 0.820617 -0.585510 0.195156 0.027198
freak 0.409343 -0.943183 -0.214427 -0.998971 -0.393895 -0.254547 -0.239266 -0.319457 -1.436825 -0.293979 0.048171 -0.397767 -0.723989 0.083894 0.393128 0.156632 0.626423 0.626517 -2.427995 -0.499659 -0.074475 0.588702 -0.474609 1.108380 -0.985348 1.260138 -0.880137 -0.527569 0.287982 -0.020058 0.320422 -0.703928 0.432193 0.185707 -0.250034 -0.012649 0.776441 0.663826 -1.105324 1.306036 -0.066287 -0.690938 0.207604 -0.045347 1.196389 -1.228623 1.104130 -0.771186 0.821365 -0.150336
things -0.586749 0.420616 0.344742 -0.555671 -0.325637 0.657166 0.512657 -0.814361 -1.701397 -0.573872 -0.002462 -0.488610 -0.718743 0.794896 0.012467 0.106321 0.500450 0.178318 -0.803197 -0.700275 0.328087 0.196082 0.420709 0.627179 0.004307 -1.097437 0.209577 -0.538514 -0.650920 -0.727964 0.255857 -0.724570 -0.424765 -0.015599 0.191974 -0.425179 -0.209429 0.100313 -0.902959 -1.539092 0.075041 -0.709407 -0.453688 1.410326 -0.142827 0.702322 0.227998 0.312066 -1.347680 -0.133198
streets 0.146231 -0.710207 0.183584 0.158377 -0.695372 -0.340818 0.704769 0.251122 -0.721572 -1.596866 1.691124 1.053871 0.326250 -0.070163 -0.291415 -0.227265 -0.680920 -1.081624 0.431276 0.960139 -0.048522 -0.089986 -0.286843 -0.112240 -1.071940 -0.097037 0.074739 -0.077528 -0.720722 -0.815889 0.169227 -0.667497 -0.094637 0.472983 0.005491 0.201770 0.662215 0.421675 0.413411 0.215456 -0.102638 -0.540672 -0.448851 1.722155 0.739961 -0.483196 0.532585 -0.361751 -0.161628 0.550929
believe -0.183476 0.141355 0.686277 -0.337080 -0.260106 -0.398666 -0.279330 -0.992622 -0.921474 -1.314398 0.179570 -1.092757 -0.685932 0.353342 0.093675 0.029085 -1.270212 -0.168224 0.948329 -0.009103 0.060829 -0.698929 0.682537 0.610854 1.851509 -0.212100 -0.089572 -0.813460 -0.566392 0.024375 -0.205009 -0.627885 0.053880 -0.287678 0.757101 0.566666 0.690940 -0.623807 -0.779963 0.675021 0.040614 -0.345506 0.834338 0.884575 0.054508 0.688385 -0.504583 -0.231895 -0.418805 0.472889
fi -0.789038 0.056921 0.756313 -0.609147 0.295195 -0.348448 0.688158 -0.243165 -0.773632 0.143204 -0.107259 -0.906409 -0.232501 -0.223388 1.013087 1.693512 0.429838 -1.132798 -0.829229 0.804195 0.985777 0.917809 -0.788464 0.535877 -0.363746 0.290621 0.184326 0.071450 -0.121659 0.168601 0.908533 1.066851 0.081147 0.366182 -0.634419 0.592956 0.940718 -0.997415 -0.471768 -0.916569 0.766408 0.662045 -0.198802 1.100945 0.190174 -0.168658 -1.406851 -0.082125 -1.286236 0.750676
came 0.631440 -0.302998 0.225134 -0.496374 -1.353798 0.222390 0.229570 0.615524 -0.818525 -0.801515 0.213073 -0.892628 1.227272 -1.028814 -0.802650 -0.549118 -0.249285 -0.239649 -0.266593 0.240188 0.382291 0.225854 -0.376993 0.208452 0.025858 -0.261603 0.824515 -0.194957 -0.757768 -0.033652 0.264440 -0.113105 0.116098 -0.687725 0.506877 0.274195 -0.328845 0.847073 -0.764039 -0.600989 0.565699 -0.371312 0.510123 0.647546 0.447366 -0.545813 0.270467 0.004275 -0.042791 0.297016
wit -0.133187 0.070751 0.175826 0.211504 0.323640 0.152856 -0.045835 0.699972 0.103994 -0.580686 1.290076 -1.037628 0.160924 0.294074 0.508564 0.341154 -0.603095 0.029647 -0.375931 0.236945 -0.985941 0.480771 -0.156247 -0.399431 -0.623020 -0.127648 -0.330890 0.002596 0.040899 0.358823 0.259177 -0.311863 0.271544 0.400392 0.499247 0.489276 0.545652 0.933845 -0.656273 0.644556 -1.480896 0.071430 -0.483111 1.295978 -0.388697 -1.375218 -0.114156 -0.829368 -0.544049 -0.651390
listen -0.193084 -0.639428 -0.661776 -0.318061 -0.441239 -0.117976 -0.130669 0.027096 -0.937413 -1.038701 0.064436 -0.946634 -0.310912 1.359390 -0.636652 -0.187823 -1.144361 -0.410492 0.001583 -0.019037 1.343270 0.410420 0.047433 0.652936 0.423009 0.398761 0.536026 -0.613291 -0.289434 0.102355 -0.422424 -0.653997 0.119734 0.440683 0.271206 0.236605 1.554358 0.303889 -0.539062 0.906349 0.313224 0.471726 0.173814 0.503372 0.106716 0.319619 -0.533958 -0.071808 -0.377455 0.281244
hand -1.112552 -0.628048 -0.172786 0.099859 -0.323194 -1.237099 0.635261 0.107570 -1.218692 0.001146 -0.529779 -0.326913 -0.438705 -1.054084 -0.017796 -0.620945 0.886946 -1.116564 -0.655934 -0.245317 1.735844 0.115569 -1.356927 0.532201 -0.254916 -0.869470 0.224297 -0.810721 -0.501988 -0.213290 -0.378603 -0.126245 -0.939346 -1.446205 -0.594705 1.210733 0.233480 0.295104 0.242827 0.024294 -0.337743 -0.690708 0.359503 -0.151496 0.565193 -0.558485 -0.417599 -0.141243 -0.711363 -0.266984
pop -0.137733 0.380141 -0.159707 -0.506004 -0.452633 -0.189609 0.201269 -0.340173 -0.214973 -0.429226 0.274358 0.347743 1.266361 -0.373924 -0.694568 -0.227010 -1.329938 -0.804528 -0.795132 -0.799327 1.402953 0.685162 -0.657667 -0.228365 0.848459 -0.004917 1.090226 0.339797 -0.900762 1.320282 0.878296 0.405671 0.088205 -0.857322 0.260478 0.000261 -0.279938 -0.290020 -0.251562 0.838136 -0.254996 -0.673269 -0.188431 1.229235 0.305624 -1.422728 -0.194691 -0.221006 0.537227 -0.005296
kill -0.745026 -0.449636 0.241478 -0.680841 -0.281330 1.178422 0.718183 -0.181795 -0.272388 0.166773 1.011678 0.517343 0.421876 -0.297490 -0.044749 -0.477739 -0.165480 -0.695802 0.061955 0.349109 0.343833 0.106135 -0.231606 0.367658 0.896665 -1.257414 -0.769231 -1.043132 -0.336026 -0.303760 1.226947 0.094081 0.955044 0.891315 -0.043848 -0.601680 -0.006982 0.521232 -1.343893 0.425055 -0.493448 -0.682929 -0.665652 0.384877 0.505715 -0.455378 -0.749822 0.225353 -0.666774 1.270697
place -0.566018 -0.620199 1.006249 -0.218915 0.317555 -0.844287 0.755362 1.485084 -0.811917 -0.313051 -0.349781 -0.531938 0.006272 -0.373483 0.652186 0.417525 0.221320 -0.651972 0.414757 0.139638 0.258711 0.299457 -0.251345 0.669877 0.579956 -1.277902 0.221487 -0.130409 -0.731125 -0.465236 -0.031821 -0.795205 -0.655676 -0.197082 -0.048116 -0.059054 0.261985 -0.004275 -0.262239 0.229826 0.047078 -0.221423 0.229504 0.964851 0.529132 0.290792 -0.394286 -0.110110 -0.503934 0.398640
wake 1.007609 0.892793 0.825456 -0.695787 -0.817763 1.092958 1.253508 0.171135 0.019262 -0.537664 0.185967 0.575820 0.707371 0.759002 1.070803 0.625385 1.107824 0.059799 -0.941404 0.313954 -0.962320 1.189970 1.452117 -0.102412 -0.464641 1.739439 -0.232489 -0.655443 -0.486580 -0.638542 -0.439251 -0.807251 -0.440073 0.579152 1.416110 0.408071 1.102137 -0.029041 -1.029421 1.021259 -0.423880 -0.896521 -1.314767 1.243090 -0.593284 -0.567651 0.649714 -0.251551 0.064431 -0.149074
block -0.519947 0.374991 -0.077850 -0.288040 -1.165651 -0.223411 0.434183 0.060155 -0.213979 -0.972208 0.253987 -0.057484 0.954787 -0.497391 -0.230538 0.540381 -0.625695 -0.604175 -0.313596 0.078489 0.681393 -0.549206 -0.548855 -0.249445 1.481561 -0.405252 0.171699 0.480020 -0.684995 -0.399158 -0.061740 -1.479122 -0.207314 -0.547503 0.381131 -0.219087 0.975052 -0.131545 -0.463254 0.917906 -0.009296 -0.003354 0.118824 0.584518 1.427349 0.802813 -0.163365 0.388987 1.063823 0.391941
going -0.222905 -0.064298 0.369640 0.182759 -0.332964 -0.996835 0.135420 -0.144738 -0.716370 -0.066690 0.430676 0.431454 -0.613512 -0.350558 0.192967 0.262068 1.050776 0.227221 -0.887764 -0.688414 0.923664 0.017181 -0.342891 0.196684 0.625312 -0.651621 0.288476 -0.090327 0.284545 -0.663132 0.609565 -1.384842 -0.345567 -0.147269 0.955160 0.213466 -0.135761 0.427117 -1.057460 0.346272 -0.980844 -0.712277 -0.039270 1.141654 0.362901 1.419487 0.781664 -1.007259 -0.978422 -0.959669
shut -0.466424 -0.972742 -0.713762 -0.561372 0.233857 1.337769 0.058111 0.377547 0.140983 -0.732702 0.274472 -0.312162 0.412227 -0.502773 2.136235 0.296972 -0.163199 -0.672336 -0.989116 -0.003930 -0.305326 -1.142845 0.075948 0.635726 0.298698 0.795150 0.670735 0.273685 -1.197498 1.293650 -1.002996 0.197048 0.220720 0.228724 0.889823 0.837740 1.522283 -0.194664 0.016630 0.702554 -0.098690 0.621338 0.400834 0.670385 1.427019 -0.593769 -0.183550 0.269592 -1.474120 1.125118
son -0.756628 0.583004 0.172961 -0.359161 -1.069873 1.401164 1.362708 0.851089 -0.462714 -0.769429 0.381747 -0.783086 -0.241115 0.966766 -0.602198 -0.068665 0.205654 0.094759 0.301555 -0.372874 0.650625 -0.035426 -1.165713 0.275780 -0.818775 -0.799034 0.104741 0.666937 -0.454105 0.156713 0.635320 0.176455 0.607086 0.510533 -0.204995 0.768676 0.754399 0.324192 -0.406351 -0.123393 -0.466054 0.382079 -0.462033 0.652204 0.123847 -1.077106 0.669599 -0.559894 -0.858969 0.278586
told -0.839946 0.066276 0.956822 -0.839932 -0.208316 -0.166214 1.644530 0.401750 -0.193924 -0.937840 -0.169191 -0.693087 -0.596233 -0.799968 -0.488455 -1.238746 -0.830574 -0.643298 0.060040 -0.309270 -0.658486 0.019658 0.354737 -0.116287 0.128825 -0.208892 0.673816 -0.154821 -0.803660 -0.470655 -0.156547 -0.299085 0.032316 -0.335285 -0.022753 -0.023376 0.363950 0.676120 -0.285120 -0.409903 -0.554498 -0.114318 0.010270 0.712263 -0.213860 0.563319 -0.211485 -0.614585 0.076642 -0.082128
goes 0.222817 0.321344 0.634866 -0.441863 -1.131895 0.381714 0.185137 0.382967 -0.859690 -1.304137 0.778356 0.471447 -0.109187 1.273503 -0.779756 -0.951644 -0.019163 -1.100404 0.043184 -0.254186 0.251191 -0.493145 0.779287 -0.086693 -0.949976 -0.492986 0.513304 -0.562179 -1.121887 0.778858 0.340035 -0.174052 0.200644 0.391603 -0.070166 0.837787 1.054989 -0.443504 1.308033 0.438028 -0.439202 -0.123508 -0.270393 0.606943 0.238422 -0.312465 -0.202023 -0.652319 0.168110 0.386771
went 0.504499 -0.753244 0.300814 -0.139417 -0.427344 -0.008137 0.951747 0.567411 -0.028168 -0.593233 -0.637069 -0.341523 1.222604 -0.026951 -0.515244 -0.510425 -0.403754 0.189157 -0.696881 0.634927 0.283703 -0.460795 0.087513 0.674422 -0.221308 -0.555916 1.461427 -0.140168 -0.880433 -1.118106 -0.805073 -1.016169 -0.020914 0.684385 0.492629 -0.274935 -1.354327 1.073485 -0.486017 -0.765901 -0.457115 0.208282 0.540818 0.722419 0.323350 -0.776750 -0.354039 -0.288603 0.897970 -0.427005
bang 0.390531 -1.504687 -0.830071 -0.723722 -0.722775 -0.093825 0.657107 -0.247792 0.839715 0.930756 1.919600 0.871804 -0.049538 0.569741 0.307290 0.295758 0.293816 -0.118439 -1.077080 -0.046174 -0.014641 0.021797 -0.462853 -0.194029 0.183071 -1.585372 0.127265 0.235185 -0.890826 1.092212 1.584551 0.721466 -0.108327 -0.739031 -0.374527 0.154897 0.172725 -0.416078 0.274573 -0.118273 0.310884 -0.574303 -0.194591 1.293429 0.953116 0.082950 -0.961354 -0.339459 0.244354 -0.965866
old 0.707364 0.320349 0.727222 -0.999669 0.453613 -0.177444 0.705292 -0.061788 -0.483356 -0.660892 0.278833 -0.557342 -0.262521 -0.910492 -0.914767 -0.245702 -0.442786 -0.846787 -0.492321 -0.525823 0.245825 -0.705992 0.225868 1.165191 -0.375416 -0.524356 1.090132 -1.090490 -0.506459 -0.044917 -0.182468 -0.832292 -0.219131 -0.373361 1.306626 0.186649 -0.171513 0.346836 0.045520 0.691758 0.766640 0.036213 0.221233 -0.125651 0.809554 -0.223244 0.324531 0.298133 -0.293126 -1.043574
best 0.109960 -0.840907 0.794085 -0.509046 0.814441 -0.868162 0.524037 -0.772107 -0.646742 -0.162743 0.779906 -1.329815 -0.780094 -0.482535 -0.259127 -0.518310 -0.708532 0.185833 0.554213 -0.106507 -0.141550 0.154094 -0.166135 0.801363 0.385295 -0.679470 0.166030 -0.272011 -0.981768 -0.244963 0.076991 -0.027239 0.849450 -0.945893 -0.242015 0.828372 0.585972 -1.148416 -0.524458 0.236659 0.548773 -0.067078 -0.629720 0.739243 -0.077524 -0.125848 0.317314 -0.722155 -0.486110 -0.180996
light -0.682614 -0.549617 -0.081534 -0.029910 -1.024901 0.207571 1.650441 1.091598 -0.067347 -1.281322 -0.015973 -0.919319 -0.358197 0.704320 -0.402535 0.344683 0.385363 -0.922569 -0.095202 0.247287 0.572581 0.476579 -0.291506 -0.267569 0.719963 0.175728 0.935214 0.173218 1.202038 -0.052294 0.612848 0.732159 -1.081526 1.119879 -0.176803 0.453630 1.785258 -0.209916 0.734152 0.885717 -0.455300 0.088567 -0.063374 -0.250483 -0.117220 1.049405 -0.329341 -0.459577 -0.323157 0.541520
act -0.344940 -0.034659 0.590780 -0.092562 -0.750689 0.022709 -0.057286 -0.925218 0.341284 -0.747524 -0.033184 -0.666135 -1.701974 0.445003 -0.382163 -0.462888 0.091654 -1.451767 -0.453941 0.032154 0.601670 -0.338169 -0.753155 0.083892 0.963574 -0.393937 -0.764647 -0.506816 -0.250148 -0.147234 0.737092 -0.388214 0.426185 0.914583 1.614620 -1.508764 -0.022237 0.285338 0.216841 -0.252546 0.171067 0.454459 -1.039135 0.484218 -0.427072 -1.280994 0.462950 0.140578 0.376124 -0.832337
fly -1.006530 -1.059134 0.377043 -0.978761 0.065933 -0.269224 -0.073519 0.217256 -0.129159 -1.015005 0.549620 -0.684376 0.181539 0.564819 -0.756166 -0.404937 0.445258 -0.619722 0.147211 0.044372 0.167227 -0.726187 -0.414548 0.688539 -0.117156 0.146008 0.102940 -0.851376 0.089099 0.030681 0.637094 0.177611 0.104893 0.524565 -0.524443 -0.348360 0.297905 0.009937 -0.377471 0.824657 -0.376750 0.616005 0.226081 0.019336 0.922002 -0.523333 0.572786 0.575948 -1.069897 -0.568098
til 0.069223 -0.976066 0.380154 0.229834 -0.567212 -0.530422 0.780984 0.440628 0.035397 -0.132398 -0.083761 -0.694389 0.154811 -0.495804 -1.418183 -0.395726 0.424239 -0.118318 -0.472812 -0.018980 -0.889874 0.335964 -0.591783 -0.033231 0.565143 0.079407 0.654690 -0.239007 -0.540668 -0.591027 0.693278 -0.467930 -0.191257 -0.425822 1.024333 -0.290072 0.205584 -1.019724 -0.616843 0.519798 -0.206511 -0.908528 0.303963 0.772377 0.048462 -0.821722 0.024756 0.767269 -0.278021 -0.687483
hood 1.014698 -0.394046 0.467308 0.002666 -0.948351 0.720092 0.786070 -0.170815 -1.100343 0.134454 1.119687 0.804608 0.342694 -0.022867 0.159911 -0.336013 -0.148316 -0.685445 -0.368065 0.102496 0.160073 -1.932690 -0.300730 -1.045019 0.417087 0.235312 0.127736 -0.369403 -0.589219 -0.569495 0.723988 -1.169195 -0.619032 0.172403 0.396603 -0.686825 0.455233 0.779819 0.216662 0.122867 0.437659 -0.658502 -0.725834 1.310028 0.379161 -0.511517 -0.772179 0.493060 0.569673 -1.045941
shot -0.134005 -1.246658 0.831316 -0.285073 -0.317065 0.938024 1.344190 -0.147430 0.514417 0.429776 0.043441 -1.150063 0.020933 -0.300621 -0.590268 0.090313 -0.022956 -0.284862 1.143023 -0.055626 1.877937 0.495011 -1.196140 -0.816754 0.297287 -0.885724 0.616974 0.101629 -0.759459 -0.465615 0.430488 0.630609 0.258767 0.369036 0.616395 0.338265 0.411084 0.249667 0.246762 0.006545 -0.156904 -0.001772 -0.104004 0.975626 1.367040 0.640991 -0.342525 -0.071702 -0.260239 -0.038460
walk -0.575425 -1.439842 -0.576734 -0.614514 -0.590381 -0.361587 0.411090 -0.005143 -0.169651 -1.232436 0.780110 0.340666 -0.817910 -0.245161 0.039152 -0.265677 0.957393 -0.804952 0.000713 -0.078977 0.202537 0.127990 -0.981521 0.185707 -0.261738 -0.358386 0.717252 -0.218162 -0.653839 -0.887377 0.060240 0.133920 -0.636595 0.441650 -0.165471 -0.292700 0.506422 -0.245892 0.706219 -0.671831 0.390737 -0.893413 0.026526 0.834013 0.924597 -0.232440 0.553638 0.267039 -0.477159 0.244079
b -0.444831 -1.769796 -0.730094 -0.158028 0.101959 1.127680 1.119704 0.127004 -0.962143 -0.007540 0.109713 -0.892482 -0.469273 1.693620 0.264727 -0.777596 -1.278543 -0.575669 -0.005954 0.616798 1.309645 0.131241 -0.156432 -0.039583 0.682716 0.085133 -0.155176 -0.989204 0.480561 0.019349 0.161663 -0.548109 -0.046327 0.534387 -0.931113 -0.186924 0.464295 1.280844 -0.201209 0.808743 -0.534892 -0.466906 -0.215403 0.410488 0.244925 0.079598 -0.076930 -0.599110 0.734915 -0.304231
brothers 0.272519 0.576349 -0.055712 0.106296 -0.808871 -0.051278 0.180239 -0.787768 -0.463209 -1.441252 1.081425 -0.057500 -0.724836 -0.462164 -0.250856 -0.324895 -0.056892 -0.653925 -0.332263 -0.297853 0.536286 0.026190 0.107765 -0.448343 -0.066556 0.284169 -0.738549 -0.504631 -0.727431 -0.715409 0.231784 -0.415804 -0.656741 0.027689 0.276920 -0.019462 0.799311 0.599823 0.419037 0.165208 0.177607 0.495068 -0.394506 1.033210 0.952141 0.650155 -0.055738 -0.731310 -0.356037 -0.037132
motherfuckin 0.766788 -1.220444 -0.329397 -1.272609 -0.767127 0.164756 0.104685 0.525137 -0.158924 0.526320 1.134095 -0.787330 -0.307852 -0.857092 0.526209 0.136966 0.496598 -0.958849 -0.785424 1.003693 1.006931 0.363932 1.128014 -0.195509 0.999079 0.400690 0.664740 -0.440162 -0.340848 0.946041 -0.306273 -1.187901 0.885705 -0.025629 0.145893 -0.047875 0.997770 0.920260 0.349619 -0.656621 -0.901792 -0.224817 -0.275440 0.526252 -0.219624 0.528748 -0.165192 -0.587065 0.055746 -0.153608
touch -0.724440 -0.839390 0.303084 0.036638 -0.808312 -1.601733 0.891979 1.254678 0.080698 -0.621678 -0.246215 -0.317036 -1.544428 -0.052628 0.214942 -0.037359 -0.275268 -0.646263 -0.551189 0.424412 -0.544405 1.168964 -0.632780 -0.091445 0.995216 1.233382 0.663304 -0.284334 -1.127641 0.974483 -0.900439 0.066191 -0.081031 0.063395 1.024384 -0.443815 -0.355458 -0.021260 -0.810349 0.888665 -0.290707 0.330658 -0.342768 0.807130 -0.162224 0.067758 -0.115148 -0.080641 -0.492410 0.721834
slow -1.391707 1.009203 -0.011219 -0.057524 0.756028 0.160922 1.122526 0.797780 -0.805068 -0.302960 -0.376463 -1.324243 -0.052262 0.177463 0.219154 0.001224 0.135705 0.035981 0.430147 -0.688718 -0.506243 0.251322 0.947017 -0.620483 0.481437 0.185541 -0.422784 -1.208079 -0.797262 -0.335174 0.302420 -0.519068 0.167414 0.024217 0.760903 0.129782 0.411964 -1.203901 0.447414 0.971594 -0.637653 -1.221065 0.042527 -0.622369 0.291991 -0.519931 -0.337660 -0.784677 0.923100 -0.946078
gun -0.928386 -0.714000 0.449624 -0.201011 -0.481307 -0.037905 0.712792 -0.194302 -0.205477 -0.104901 0.264567 -1.012578 0.210005 -0.088807 0.368269 0.015928 0.082106 -0.736763 0.433596 0.315334 0.706723 1.184690 -1.249137 -0.301928 -0.527563 -0.847864 0.426703 0.382771 -0.973043 -0.167763 0.641688 0.364695 0.640723 0.234896 0.049092 0.046298 1.371055 -0.044247 0.296724 -0.111813 0.005955 0.020683 -0.478352 0.332350 0.798755 -1.059276 -0.897343 0.486726 -1.484722 0.716867
heard -0.319634 -0.286795 0.926088 -0.814118 -0.615101 -0.585674 0.191871 0.224649 -0.247238 -0.094633 0.770699 -0.637813 -0.309413 -0.420080 -0.516706 0.117053 -0.682027 -0.129155 -0.114316 -0.504747 0.867854 -0.603961 -0.205166 0.045587 -0.021440 -0.093554 0.263212 0.097371 -0.751483 -0.316820 0.613421 0.379352 0.026486 -0.001210 0.733360 0.585312 0.605965 1.245554 -0.289421 0.481813 -0.139815 -0.307429 0.468115 0.440907 -0.417963 -0.180775 -0.144351 0.201652 -0.052658 0.351603
dead -0.683261 0.381969 0.667908 -0.871614 -0.146829 0.700956 1.098145 -0.542017 0.084563 -0.248433 -0.033006 -0.259631 0.132350 -0.350501 0.335504 0.156077 0.063286 -0.090207 -0.581799 0.981732 -0.049938 -0.153599 -0.498375 -0.036216 -0.194848 -0.317964 0.180610 -0.563463 -1.369327 -0.515204 0.886182 1.047638 0.487967 -0.339112 0.273867 -0.122292 0.297873 0.227107 -0.020456 0.040840 -0.030346 -0.157414 0.087556 1.726812 -0.030544 0.539976 0.409801 -0.430100 -1.381905 0.587472
l -0.135100 -0.306786 -0.519970 -0.890134 0.849152 0.293046 1.171648 1.287102 -1.108328 -0.731169 0.131398 -1.056160 0.076502 0.798240 -0.304258 -1.329580 -1.100796 0.252617 -0.055232 0.388629 -0.069059 -0.888277 -0.582540 -2.140282 -0.089167 -0.836679 -0.166850 -0.013908 0.043354 0.189984 0.131067 -0.287594 0.012155 1.141098 -0.204257 1.816260 -0.675726 0.011496 -0.031711 1.190794 -0.456015 -0.223688 -0.105747 0.017388 -0.341566 0.567170 0.823864 -0.972643 0.969753 -0.129931
nah -1.444790 0.645001 0.489703 -0.327518 -0.165946 -0.399223 -0.170983 0.692617 -0.434759 0.696623 -0.403518 -1.133307 -0.873168 -0.998798 -0.370584 0.700846 0.745422 -0.483617 -0.781476 0.114660 0.957481 0.131332 0.212005 0.248597 0.320269 -0.610795 1.516776 0.698019 -0.665301 -0.561841 0.282599 -0.355388 0.364581 0.131855 0.452076 0.736817 0.567472 -1.554859 -0.400604 0.043463 -0.362169 0.277110 -0.797968 -0.074776 0.115951 -0.014527 -0.879620 -0.452919 -1.397267 0.014010
thought -0.028410 0.103382 0.894185 -0.493307 -0.644615 -0.398792 1.573855 -0.234086 -0.809018 -0.401870 0.175672 -0.039588 -0.409601 -0.523541 -0.593055 -0.922028 -0.542369 -0.376449 -0.445441 0.404137 0.118433 -0.136025 0.030224 -0.060987 -0.541058 -0.423729 -0.220178 -0.491858 -0.466060 -0.848146 -0.480331 -0.702653 -0.253122 -0.147961 -0.273842 -0.092600 0.831416 0.929375 -0.051311 -0.784855 -0.462690 0.609586 0.247435 0.949656 -0.225772 0.051326 0.327353 -0.123158 0.213214 0.275539
type -0.425178 0.070883 -0.141376 -0.189772 0.338828 -1.493531 -0.746770 0.100547 -0.606076 -1.590462 1.494776 -0.051550 -0.135579 -0.171291 -0.417645 -0.186672 -0.087595 -0.434561 -0.144536 0.324387 -0.548661 0.606524 0.117172 0.581588 0.583169 0.022223 0.184896 -0.924085 -0.037236 -0.300645 -0.313869 0.490740 0.190508 0.504035 -0.098853 0.364096 0.811682 1.105774 -1.041788 -0.333194 -0.391852 -0.032224 0.265734 0.490412 0.750710 -0.025413 0.164186 -0.061444 0.285834 -0.222301
young -0.273003 -0.978662 1.096362 -0.112019 -0.653328 0.881801 0.501514 -0.798363 -0.588107 -0.522587 0.389439 -0.627460 -0.337418 -0.959502 -0.327429 -0.408887 -0.292523 -0.855459 0.934938 -0.263833 0.337220 -0.266467 -0.221414 0.393359 -0.865845 0.196259 0.772471 -0.309168 -0.341594 -0.388432 -0.160330 -0.553040 -1.291759 0.155821 0.766528 0.521991 0.600226 0.164029 1.015969 0.297453 -0.304851 0.472206 0.033099 0.521714 1.324402 -0.041051 -0.073905 -0.072211 -0.371414 -0.712767
find -0.751337 0.053949 0.612195 -0.437339 -0.904087 -0.641430 0.829289 0.244799 -0.441871 -0.828439 -0.276698 0.097524 -0.429721 -0.167701 0.389062 -0.353273 -0.483589 -0.145993 -0.336545 -0.180011 -0.258840 0.259349 -1.034888 0.912230 0.010979 -0.492455 -0.585834 -0.198055 0.033288 -0.084959 -0.526266 -0.190143 0.641220 0.300694 0.080754 0.199149 0.759394 -0.326227 -1.063268 0.289475 0.268804 -0.030050 0.152515 1.017061 0.751270 0.070827 -0.611612 -0.727624 0.238279 0.576606
set -0.153511 -0.969832 -0.373327 0.525227 -0.695186 0.360571 0.359988 0.651182 0.128446 -0.887408 0.408493 -0.140699 -0.060551 0.496695 0.471288 -0.678529 -0.155596 -0.731193 -0.670738 -0.387730 -0.628185 -0.101664 -0.045219 0.377336 0.865977 -0.497336 -0.011447 -0.168447 -1.520441 -0.415555 -0.047023 -0.503877 0.701649 0.124290 0.917431 0.231267 -0.561657 -0.380701 -0.755362 -0.492395 0.275895 0.451408 -0.187860 0.738523 -0.039383 -0.976480 0.847532 0.142392 -0.168539 -0.514371
coming -0.235417 -0.860466 0.046846 -1.177254 0.276033 -0.443601 -0.228904 0.152217 -0.401783 -0.475041 0.157308 0.459721 0.240488 0.264213 0.402380 -0.446018 0.184191 -0.564459 -0.285037 -0.672347 0.352813 0.283861 0.353261 0.409337 0.211197 0.539683 -0.391103 0.177037 -1.416017 -0.276297 1.049920 -0.986696 0.566408 0.061957 -0.305076 -0.182775 0.374252 1.155453 0.103442 -0.636680 -0.369836 0.299492 0.601068 1.178489 -0.387613 0.422771 -0.168566 -0.024251 -0.132430 -0.479057
town -1.145500 0.042505 -0.231559 -1.216095 0.906143 -0.405684 -0.381378 0.943082 -0.932866 -0.648599 1.014771 0.153122 0.479424 0.239647 0.197446 0.939968 -0.202576 -0.703678 -0.756690 0.049367 -0.240376 -0.145180 0.911323 0.379211 -0.855873 1.347508 -0.089497 0.471210 -0.208831 -0.138543 1.333274 0.436632 0.838922 0.062012 0.068212 0.642797 1.329648 -0.365911 -0.548389 -0.696469 0.865234 0.312511 0.568936 0.159978 1.087886 0.861313 -0.399151 -0.970449 -0.481290 -1.149264
dope 0.156607 -0.994430 0.363698 -0.953525 0.048243 -1.498792 0.310953 0.320425 0.002314 0.408814 1.006001 -0.403435 -0.630103 0.516905 0.051948 0.688330 -0.843608 -0.108162 -0.828999 0.099153 1.220358 -0.061437 -0.299364 0.029091 0.651564 -0.217625 -0.692817 -0.136962 -0.151839 -0.644479 -0.877479 -1.525167 0.638070 0.003906 -0.387844 -0.080259 1.315377 0.105518 0.040167 -0.379719 -0.368398 0.093360 0.227918 -0.292787 0.084332 -0.730257 -0.034717 0.287008 -0.752986 -0.007627
catch -0.470658 -0.044852 -0.498056 -0.716746 0.344936 -0.277532 0.770567 0.008380 0.239088 -0.609033 0.254653 -0.373109 0.243565 1.061417 -0.185551 -0.707449 0.140785 -0.489172 -0.851190 0.086659 -0.386004 0.781387 -0.498740 0.508338 0.506201 -0.664280 0.035730 -0.819554 -1.025251 -0.068003 0.423544 -0.262110 -0.206310 -0.585970 -0.037262 -0.088224 1.012205 -0.649281 -0.402399 0.693481 0.929428 0.091353 -0.428198 0.327074 -0.272500 -0.007103 0.145537 0.025492 0.599255 0.243364
hell 0.486755 -0.099208 0.675991 -0.412193 -0.605168 -1.285421 0.606646 -0.254111 0.063899 -0.687201 0.494658 -0.325208 0.260482 -0.597896 -0.382539 -0.299813 -0.049478 -0.304795 -0.567594 -0.191591 0.091330 -0.726244 -0.070967 -0.456243 -0.004417 -0.536894 1.277278 0.328983 0.040981 -0.362215 0.350264 -0.479066 0.427895 0.259576 0.307180 0.596353 0.345052 -0.960643 -0.970912 0.713392 -0.153433 -0.075032 0.082075 0.709710 0.631579 0.547626 -0.162460 0.085225 -0.673729 -0.683191
soul -0.143613 0.454847 0.336187 -0.898271 0.560325 -1.796336 1.195480 -0.751890 -0.616147 -0.949821 0.006913 0.042257 0.750521 -0.505625 -0.473105 -1.014670 -0.576291 0.434384 -0.643946 0.345531 -0.260616 0.464900 0.611851 0.118181 0.048414 0.375089 0.271550 -1.076974 0.113743 1.009414 0.536103 0.175956 -1.117069 -1.365662 0.680702 0.310895 0.624313 -0.044428 0.880873 0.232419 0.002213 0.493411 -1.643636 1.153120 -0.173400 0.591548 0.205231 -0.413321 -0.459106 -0.701688
sayin 0.138708 0.050826 0.582329 -0.435775 0.096099 -0.065914 0.595211 0.847657 0.122147 -1.034386 0.953126 -1.369354 -0.556733 0.505956 0.252748 0.043183 0.157571 -0.795991 -0.619297 -0.120822 0.078734 -1.210581 0.539190 -0.025208 -0.530227 -0.246089 -0.059734 -0.367579 -1.298561 0.393288 0.155669 -0.249151 -0.569697 0.307696 0.138787 -0.351115 0.097904 0.159852 0.047265 -0.363110 -0.110731 -0.525194 -0.452028 0.270031 0.123024 -0.611023 0.003878 -0.555682 0.315547 -0.016298
gone -0.465115 0.126260 0.887782 -0.275286 -0.189162 -0.818555 0.622621 0.375389 -0.644118 -1.019789 0.169884 -0.020626 0.714087 -0.216785 -1.071981 -0.478092 0.262662 1.200420 0.104535 0.046956 -0.320764 0.901405 0.768545 1.109783 -0.078696 0.054817 0.628675 -0.625066 0.176660 0.762711 0.688569 -0.727260 1.105673 -0.317956 0.934900 0.444478 0.169360 -0.706756 0.287276 -0.070041 -0.230836 1.121007 -1.115873 2.061597 -0.282359 0.023526 0.249358 -1.023978 -1.128245 -1.173410
lot -0.151864 0.202537 -0.279545 -0.127262 -0.523796 -0.711863 -0.209188 -0.563026 -0.661524 -1.151418 0.843118 -0.342072 0.344758 0.627463 -0.528241 -0.005669 -0.509592 0.090758 -0.380791 -0.235352 -0.100834 0.129986 -0.468225 0.340306 0.775213 -0.794309 0.606528 -0.654197 -0.066028 -1.116725 -0.349882 0.625829 -0.093065 0.898615 0.752445 -0.121060 -0.424197 0.477147 -0.536515 -0.400075 -0.648697 0.252847 -0.144230 0.913355 0.422322 -0.150761 -0.328076 -0.005220 0.544972 -0.423651
