6406 50
like 0.006383 0.688294 -1.341181 -0.449371 0.424504 -0.290409 -0.919899 -0.527482 -0.650147 -0.120496 0.181765 -0.864234 -0.173258 -0.290094 0.485419 -1.201983 1.484772 0.503311 0.597441 0.159508 0.803731 0.330797 -0.653562 -0.584973 0.494851 1.466082 0.738296 -0.867243 -1.175392 -0.847442 -1.419813 0.089139 -0.381100 0.574215 1.871563 -0.798267 0.299048 1.969707 -0.628716 -0.621328 -1.028988 0.331950 0.210092 -0.505400 0.857444 -1.001709 0.268843 0.851003 2.136683 0.225953
got 0.596310 0.688516 0.271244 -0.567456 0.113247 -1.018876 0.297351 -1.026700 -0.532150 0.329542 -1.061794 -0.120539 -1.404280 -1.095974 0.231558 0.069905 -0.023024 -0.388497 0.714821 -0.137626 0.679055 0.723466 -0.733503 -1.648670 1.437167 0.691023 -0.509620 -1.700350 -0.075829 0.265798 -1.704616 0.567949 -0.784015 -0.871370 -0.379449 -0.427463 0.626642 1.018394 0.050232 0.137491 0.001203 -0.776986 0.802134 0.347851 0.638705 -0.255799 -0.891640 1.091831 1.697313 0.397706
know 0.982626 0.071300 -0.179866 0.104615 -0.092442 -0.081539 -1.396445 -1.161405 -0.906036 -0.533533 -0.981334 0.460922 -0.684550 -0.071864 1.367291 0.171928 0.445266 -1.379143 -0.400532 -0.025502 0.226451 0.462699 -0.750304 -0.462970 0.972796 1.409821 0.122834 -0.414754 -0.706818 0.358458 -1.107122 0.722400 -0.730905 -0.240524 0.817973 0.022529 0.645509 0.684450 0.547385 -0.761750 0.746513 -0.772834 0.695214 0.517643 0.174535 -0.371510 0.058852 2.006889 2.237161 -0.102960
come 0.557994 1.116060 -1.220618 -0.969887 -0.777124 0.822986 -0.213623 -1.026500 -1.028300 -0.324915 -1.570737 -0.110206 -1.178359 -0.135758 0.324549 0.470637 -0.208485 -0.696153 0.768620 -0.802718 1.342553 0.313557 -1.017697 -0.480014 1.319957 1.605250 0.313188 -1.728490 -0.296523 0.168920 -1.328698 0.840947 0.186064 0.364478 0.813859 1.641661 -0.735084 0.521788 -0.081122 -0.254839 -0.021027 1.001960 -0.010559 -1.176390 -0.911120 -0.114795 0.686290 0.917757 0.263078 -0.337348
yo 1.793447 0.034397 -0.867145 -0.605887 -0.940420 -0.050881 -0.528878 0.482642 -0.530517 -0.187763 -0.682538 -0.386732 -0.576100 -0.383746 1.013037 -0.419081 0.790350 -0.990736 0.292048 0.423453 0.212757 1.149556 0.080817 -0.557372 0.703117 0.293036 -0.267782 -1.222287 -0.028884 0.891754 -0.104517 0.433708 -0.101098 0.396022 0.963197 -0.493654 -0.496389 2.098454 0.347589 -0.281722 -0.015760 -0.725887 1.572965 -0.277565 -0.666033 0.419120 -0.541460 0.346804 1.971382 0.161808
yeah 0.915335 -0.428852 -1.440677 -0.636528 0.289353 -0.125287 -0.130546 -1.118190 -0.264091 -1.634421 -0.314746 -0.490798 0.195191 -0.017296 1.065840 0.220051 0.758482 -0.448890 0.154555 1.015986 1.512209 0.149520 -0.900755 -0.265762 1.513118 1.564346 -0.031554 -1.131587 -0.018281 0.795203 -1.074929 0.904031 1.050346 -0.719579 0.275587 0.020802 0.758817 0.632363 0.133439 -0.806860 -0.004762 0.506169 0.952732 0.060530 -0.113375 0.888625 -1.170541 1.485775 1.318331 0.639157
man 0.074922 1.322859 -0.060684 -0.238505 -0.152457 -0.269654 -0.093739 -0.099386 0.002784 0.121958 -0.060741 0.628550 -0.927349 -0.591652 0.902740 -0.089126 1.094702 -1.565007 0.694511 -0.350088 -0.840195 1.165286 -1.216113 -0.914499 1.062962 0.037912 0.088593 -0.057466 -0.813855 0.756698 -0.254995 0.601759 0.000847 -0.269558 1.407963 0.421893 -0.424237 1.360661 -0.406543 -0.387581 -0.282070 -0.131960 1.210569 0.167250 -0.405270 -0.062219 -0.054064 2.689887 1.516277 -0.066392
ai 1.635720 1.173348 -0.959997 1.056180 0.080587 -0.580695 0.851589 -0.629433 0.295867 1.167762 -1.172643 0.626233 -0.343553 -0.797895 0.843157 -0.035987 0.451912 -0.675288 0.315637 0.178064 1.480539 0.167244 -1.213120 -0.112962 0.695639 0.399569 1.012143 -0.889387 0.621509 0.941442 -0.369723 0.516177 -0.067295 -0.054129 0.489011 -0.945685 -0.288979 0.465481 0.622331 -1.057476 -0.454582 -1.658537 -0.117792 -0.099055 -0.149364 -1.155590 0.115061 0.232624 2.445356 0.824835
shit 0.327454 0.784204 -1.274807 -0.755674 0.670324 -0.574181 0.263496 -0.391071 -0.177541 -0.214883 -0.641386 -0.404011 0.099473 0.362412 0.096855 0.659907 1.143175 0.042736 -0.143264 -0.298910 0.493953 0.310297 -1.046414 0.205397 1.949352 0.115544 0.111807 -1.473898 -0.065624 0.667602 -0.602921 0.504063 0.117917 -0.814811 0.978783 0.066328 0.216904 0.796650 0.952109 -0.863880 0.083000 -1.232648 1.110932 1.287541 0.257276 -1.368022 0.744941 0.743538 1.450172 0.260013
nigga 0.440544 0.511147 -1.039285 -0.624114 0.147186 -0.177155 0.255119 -0.220506 1.071049 -0.556490 0.262775 0.195711 -0.652460 -0.653040 0.595121 -0.707784 0.622011 0.100505 -0.670874 -0.021230 0.531185 1.710160 -0.764647 0.331371 0.884911 0.086402 -0.590487 -1.990194 -0.344555 -0.179298 -1.285667 1.444040 -1.291807 0.008382 0.388001 -0.113905 0.349433 0.380516 -0.791125 -1.998023 0.397835 -0.684054 0.959217 1.022096 0.141638 -1.315251 0.881285 0.383015 1.332495 0.285273
ya 1.800432 1.569421 -1.601411 -0.007477 -0.931394 0.256655 0.155727 -1.424365 -1.885937 -0.102721 -0.565594 0.805213 -0.279801 -0.641417 0.125073 -0.845837 1.683709 0.146215 -1.063464 0.008309 0.597782 1.105667 -0.350771 -0.605572 0.878199 0.171904 0.047506 -0.271104 -1.174012 0.936549 -0.351597 0.622781 -0.505076 1.084290 0.078267 -0.082531 0.681167 -0.261821 0.083524 -0.546214 -0.777946 -0.400514 0.817078 0.932056 0.930842 0.468230 0.782576 0.800037 0.967769 -0.426976
let 1.072969 -0.193357 -0.615842 -0.391161 -0.584736 -0.088639 0.328086 -0.640545 -1.202149 0.528648 -0.520749 1.694321 0.084470 -0.412287 -0.393876 0.022929 0.082400 -0.167668 -0.008918 0.629929 0.705780 0.090793 -1.011239 0.065945 1.643946 0.838924 -0.593455 -1.173766 -0.779970 -0.224204 -1.090417 -0.176357 -0.081429 0.250211 1.892135 1.287654 0.845584 1.023980 0.257362 -0.820544 -0.523469 -0.545795 0.477373 -0.120440 0.001102 -0.664491 -1.518660 0.929328 1.638092 -0.213779
niggas 1.319065 0.296278 -0.723120 -0.977688 -0.059541 -0.069131 0.482912 0.036943 -0.255263 0.055801 -0.485593 -0.794332 -1.094787 -0.442511 0.170111 0.349576 0.780461 0.305498 0.560523 -0.764738 0.482653 0.372214 -0.538876 0.839129 1.396762 -0.107315 0.150187 -0.627068 0.046992 0.387804 -1.271257 0.718589 -0.229120 -0.059664 0.615621 -0.341171 0.429725 0.234862 0.742757 -1.490519 0.229129 -1.469935 0.205732 0.434961 0.034875 -1.115777 0.343474 0.661280 1.596266 1.455020
time 1.329911 1.465317 -0.277827 -0.473944 -1.466109 -0.875221 -0.659122 -0.769943 1.080943 -0.016329 -1.154096 0.106726 -1.129523 -0.293322 0.288144 -0.537418 0.537473 -0.074186 -0.540482 -0.095585 0.282655 0.182900 -1.053541 -0.224702 1.235637 1.382542 0.361923 -0.720832 -0.274276 0.511696 -0.364477 0.653383 0.959326 -0.307385 1.600589 -0.150471 0.139602 0.733940 0.164731 -1.339032 0.418270 1.267833 0.196193 0.157129 0.456901 -0.725458 -0.746210 0.398484 0.722823 0.025355
love 0.721979 0.628612 0.262597 -1.336379 0.011185 0.297587 -0.068588 -2.195300 -0.194292 -0.446782 -1.173349 0.064371 -0.972176 -0.054555 -0.373516 -0.526077 0.283249 -1.333014 -1.014876 1.025315 1.313456 -0.682134 -1.225493 -1.008826 0.918127 0.171792 0.581515 0.150839 0.288743 -0.281589 -0.816976 0.946062 -0.346387 0.502095 0.405372 -1.112681 0.406117 -0.290170 -0.321257 -1.346294 -0.811204 -0.721109 0.720172 0.378834 -0.828794 1.007548 0.077354 0.573989 1.544054 0.239777
fuck 1.244947 0.592971 -1.058787 -1.052345 -0.021280 0.656032 0.105414 -0.631049 -0.853423 -0.378635 -0.271046 -0.330298 -0.187793 -0.085564 0.111137 0.465681 0.547850 0.132941 0.559718 0.200566 0.789010 0.418259 0.048531 -0.373854 1.812236 -0.187607 -0.486646 -1.044556 -0.220320 0.769846 -0.033767 0.980437 -0.723713 -0.602905 0.290858 -0.284667 -1.205339 0.121167 -0.288170 -1.003697 0.558333 -0.649988 -0.088726 0.241601 0.137891 -1.529771 0.011286 0.768794 1.811709 1.134290
right 0.420890 0.395612 -0.374249 -0.221240 -0.464570 0.343559 0.432909 -0.987518 -0.254244 0.126406 0.965745 0.029621 -0.785598 -0.573438 0.079949 -0.224056 0.491477 -2.173958 -0.356775 -0.370946 1.068062 1.390373 -0.144419 -0.123447 0.949227 1.246598 0.578338 -0.154360 -1.207700 1.110849 -1.401034 1.000880 0.290408 -0.271806 1.029182 0.008583 0.198661 0.089262 0.034640 -1.425752 -0.610193 -0.632476 -0.314234 0.317956 -0.417741 -0.514190 -1.391042 0.625993 0.347691 -0.282122
wanna 0.480661 0.532957 -1.072396 -0.440664 0.220618 -0.909559 -0.244322 0.009076 -0.586524 -0.387789 -0.842228 0.689653 -1.183244 0.496844 -0.647664 0.071076 0.422680 -0.236949 -0.278176 -0.808672 0.343357 0.169012 0.213921 -0.023707 1.257662 0.977568 -0.978332 -1.068741 -0.501212 1.219989 -0.904486 1.215577 0.624872 1.031924 0.116294 -0.666892 0.522677 0.459146 -0.546085 -1.235143 -0.482755 -0.189124 -0.200308 -0.885793 0.381737 0.022213 0.278370 1.190096 1.886511 0.151563
cause 0.857980 0.277804 -0.953414 -0.466198 0.457845 -0.823000 0.343718 -0.808517 -0.117433 0.507149 -0.454346 0.214974 -0.841156 -0.426092 0.397293 -0.105180 0.151599 -0.644988 0.261999 -0.824948 0.276346 0.597930 -1.001219 0.185257 1.048305 0.614178 0.371845 -0.984342 -0.104104 0.122460 -0.762312 -0.143328 -0.469828 0.240265 1.464594 0.085048 0.160763 -0.061532 -0.258302 -0.418128 0.537346 -0.325706 -0.827366 0.191152 0.167348 -0.293154 0.435904 0.551762 1.658491 0.077936
oh 0.106386 -0.363233 0.116527 0.096726 -0.978864 -0.165237 -0.217738 -2.062035 -0.654652 -1.201968 -0.445646 0.001736 0.525961 -0.581872 -0.156751 0.401621 0.748166 -1.203502 -1.801880 -0.145959 1.213603 0.631729 -0.747344 0.301657 1.253116 1.004915 -0.171693 -1.118117 0.057188 0.068579 0.137547 -0.003343 0.604276 -0.282326 -0.124715 2.216180 -0.071477 0.723318 -0.247798 0.139208 -1.081397 -0.809717 0.792309 -0.291184 0.730920 -0.284230 0.660163 1.591374 1.764594 0.132847
ta 0.751372 0.325785 0.192500 -0.624367 0.025092 -0.530757 1.130875 -0.927109 -0.263137 0.734731 -1.145824 0.690557 -1.434619 -0.902958 0.747788 -0.119628 -0.375217 -0.109607 0.506438 -0.252870 1.140219 0.379686 -0.632166 -0.903854 1.507235 -0.456889 -0.411288 -1.049761 -0.666432 0.000514 -1.169369 0.845693 -0.639488 -0.789337 0.158056 0.180029 0.656368 0.172978 -0.120910 0.543248 -0.398727 -1.412200 0.433956 -0.408435 0.639042 1.020852 -0.767082 0.849743 1.667024 -0.252928
baby 0.242543 0.950549 -0.284240 -0.933510 -0.598625 -1.231667 -0.276538 -1.565016 -0.820418 -1.314406 -0.210744 1.171191 0.473476 1.029529 0.334325 0.239959 0.486835 -0.947610 -0.297723 0.716480 1.421447 -0.173251 -0.709850 -0.468414 0.673604 1.664596 0.750649 -0.984772 -0.599728 0.327326 -1.120490 -0.277882 -0.373059 -0.238231 -0.662410 0.466239 0.697072 0.835434 -0.290846 -0.434293 0.064034 -0.319868 -0.932958 -0.466438 -0.295750 -0.374735 0.027922 1.089964 1.550895 -0.639807
gon -0.414108 0.688314 -0.734331 -0.996446 -0.657703 -0.664011 -0.123051 -1.084892 -1.206760 0.525893 -0.032760 -0.215829 -0.150629 -1.100180 1.165812 -0.359605 -0.148073 0.523852 -0.625665 -0.765740 1.895678 0.489449 -0.121743 -0.611017 1.484085 0.455763 0.168652 -0.215457 -0.325054 0.736682 0.887781 0.958596 1.307678 0.156345 0.255268 -0.562343 -0.310694 0.804048 -0.623726 -1.245255 -0.214292 -0.858018 0.428654 0.174124 -0.656896 -0.912259 -0.274868 1.062400 1.751329 -0.978269
na -0.548962 0.128164 -0.675871 -1.278014 -0.189008 -0.672492 -0.134136 -1.124610 -1.367049 0.176780 0.060028 0.125088 -0.003000 -0.946853 1.341433 -0.177318 -0.242168 0.307849 -0.914875 -0.941555 1.910182 0.623371 -0.181285 -0.567370 1.244640 0.600154 0.240274 0.115318 -0.324668 0.754895 1.205834 0.743865 1.753838 0.058587 0.085994 -0.268428 -0.334330 0.839929 -0.658108 -1.229845 -0.077365 -1.312395 0.689363 0.560371 -0.635996 -0.633867 -0.068331 1.004156 1.368367 -1.077089
want -0.115942 0.287929 0.015520 0.162984 0.140203 -0.909637 -0.178769 -0.312093 -0.631655 -0.807046 -0.829582 -0.176076 -0.921564 0.622438 -0.691835 -0.115191 0.589049 -0.799529 0.586476 -1.330074 1.468205 1.509150 -1.013573 -0.353402 0.986011 0.227844 -0.774393 -0.214494 -0.147815 0.620048 0.537379 -0.637398 -0.640109 0.029661 1.230308 -0.491702 0.066867 0.127929 -0.041515 -1.183294 -1.374496 0.203084 0.359323 0.159293 0.052059 0.361418 -0.221672 2.340286 2.153626 0.150813
way 1.208414 0.752119 -1.036976 -0.857760 1.196132 -0.812912 -0.220741 -0.810047 -0.471281 -0.207321 -0.753348 0.056244 -1.944969 -0.767585 -0.007730 -0.400765 0.526483 -0.686203 0.379535 0.579622 0.280687 0.005207 -1.601367 0.844632 1.219069 1.209317 0.308287 -0.699446 0.376390 -0.137637 -0.456068 -0.117167 0.125607 -0.275892 -0.780289 0.969813 0.489892 -0.002697 -0.738692 -0.674079 -0.442557 -0.420467 0.535452 -0.101487 -0.213588 0.336609 -0.884396 0.873819 1.201922 -0.666606
lyrics 0.672036 0.590388 -0.847308 -0.716761 -0.225588 0.708666 -0.408650 -0.752337 -0.133782 -0.544659 -0.139099 0.280339 0.696677 -0.642504 0.303872 -0.230807 0.383420 -0.544649 -0.131705 -0.287654 1.417852 0.845665 -0.862540 -0.839092 0.878938 0.072587 0.183373 -0.933290 -0.251263 0.838869 -0.298183 0.524700 -0.045026 0.093103 0.458736 -0.125608 0.987877 1.111934 -0.442102 -0.417157 -0.153351 0.264911 0.937785 -0.096701 -0.256596 0.073756 -0.462175 0.603316 1.197588 0.377876
tell -0.221927 0.054661 0.470366 0.247529 0.664921 0.648622 -0.153439 -1.012743 -0.272383 0.075584 -2.077681 0.423298 -0.229766 -0.699598 0.846275 -1.402315 1.119563 0.654180 -0.433657 0.825329 0.696834 0.495137 -0.963774 -0.482519 1.451272 0.360821 0.373403 -0.377252 0.097878 1.520979 -1.196981 0.277551 0.344439 0.711350 1.038589 0.313161 -0.334139 0.266542 0.306894 -1.353570 -0.866713 0.412392 0.521726 -1.325282 0.102708 -0.821085 -0.228742 0.591425 1.551327 -0.388090
ass 1.005330 0.845130 -0.631020 -0.595398 0.429391 -0.404958 -0.306770 0.115686 0.087665 0.356019 -0.044426 0.273305 -1.496576 -1.266708 -0.614534 0.496460 1.176299 -0.290681 -0.446990 0.145614 1.114510 0.377072 0.900121 0.551717 1.259539 1.143731 0.260118 -1.132889 -0.864751 0.908675 -0.342848 0.605561 -0.795397 -0.131253 -0.332187 -0.454906 -0.779016 0.980299 0.232216 -0.928758 -0.058072 -0.184013 0.789366 -0.338244 0.675885 -0.573958 0.156451 -0.227617 1.289319 0.800687
uh 1.415038 0.156513 -1.541002 -1.896664 -0.200450 -0.741670 -0.182893 -0.732093 -0.848866 -0.384306 0.591283 0.091646 0.452226 0.446794 -0.305010 0.156773 0.860465 -0.857124 -1.431098 -0.656734 1.206807 0.554465 -1.207291 0.293452 0.615071 0.625993 -0.083488 -0.311078 -0.628311 0.060519 0.157044 -0.113867 0.077103 -0.256723 -1.446221 0.964874 0.252032 0.441431 -0.371976 -0.250223 -0.050538 0.438173 0.271417 -0.768160 0.584518 0.693362 -0.394871 1.298049 1.542619 0.866535
real 0.194245 1.319428 -0.651321 -0.333911 0.700134 0.048510 -0.215422 -0.405762 -0.477140 -1.223540 -0.656687 0.108647 -0.364950 -0.869161 0.486980 0.485754 0.667442 -0.440253 -0.323096 -0.644642 1.403244 -0.397453 0.182001 -0.107878 0.177574 -0.226967 0.470724 -0.536095 -0.276718 1.444770 -1.078936 0.423325 -0.737977 -2.091758 1.410974 -0.194664 0.124801 1.517170 0.610824 -1.725708 -0.255696 -0.065168 0.547305 0.225019 -0.110523 -0.383342 -0.281541 0.549435 0.793289 -0.186691
dem -0.181574 -0.462921 0.868443 0.395157 0.269199 0.679574 0.886994 -1.342553 0.042472 -0.661080 -0.877848 0.132234 -0.514852 -1.285341 1.053381 0.343873 0.129953 0.301731 0.305755 -0.244094 -1.374372 0.148143 -0.424459 0.354960 1.681144 0.466713 -0.406144 0.506525 -0.062829 0.057990 -0.472100 0.144911 -0.576804 0.950824 0.660811 -0.195122 -0.304534 1.422620 0.321941 -1.001605 -1.369058 0.886637 -0.406885 -1.740007 -1.666625 0.719380 0.878422 1.283188 -0.025968 0.120620
life 0.118700 0.583023 -0.159426 -1.039481 -0.586560 -0.506849 0.312355 -0.440125 0.121852 -0.334161 -0.272895 -0.528150 -0.735972 -0.997037 0.176482 -1.262914 0.974003 -1.474523 0.851967 0.283158 0.255848 -0.950758 -1.256134 0.574837 0.601802 -0.603763 -0.035633 -0.366923 -0.499507 0.468383 -0.282183 0.496957 0.822957 -0.713364 0.043034 0.563925 1.459591 0.712581 0.130621 -1.472023 -0.454288 -0.490368 -0.660083 0.551263 -0.366761 -0.664134 0.236769 -0.359789 1.637358 0.130830
said 0.623615 -0.514285 -0.512097 -0.306575 -0.524546 -0.605560 0.395002 0.822963 -0.568975 0.427771 0.340234 -0.183261 -1.424482 -0.546678 0.918265 -0.558219 1.155487 -0.427993 -0.595801 1.372800 1.252742 -0.318420 -0.389186 -1.322922 1.490786 0.700890 -0.119123 -0.551477 0.403369 0.759027 -0.120835 -0.690421 -0.060488 -0.130417 0.427292 0.732330 -0.066971 1.027052 -0.563519 -0.662980 0.318464 -0.103265 -0.235099 0.590534 0.837286 -0.120791 0.344080 1.111104 1.454143 -1.297117
money 0.154513 0.928763 0.858958 -0.541221 -0.554239 -0.069059 -0.689439 -0.971210 0.568903 0.064480 -0.282237 -0.417796 -0.819587 -0.202331 -0.961580 -0.450046 1.067806 0.747699 0.534069 -0.564251 1.171479 0.332859 -0.359656 -0.433870 0.388675 0.052167 -0.133497 0.127145 -1.003529 -0.127055 -0.858481 0.708040 0.166197 -1.005505 0.058730 0.040347 -0.786747 -0.461586 0.002272 -1.455419 0.696883 -0.712419 0.990091 -0.425172 0.236073 0.605571 -0.189372 1.142829 2.732117 0.519660
hit -0.344898 0.189853 -1.263343 -0.779053 -0.281179 -0.314959 0.560277 0.019274 0.196956 0.877671 -0.328953 0.014326 -0.908415 0.268527 0.068137 0.622319 0.494739 -0.624793 -0.601433 -0.142005 0.458238 0.845594 -0.744079 -0.761815 1.632895 0.078434 0.188026 -1.099861 -0.676130 0.212895 -1.216979 -0.171609 -0.263159 0.389819 0.931825 -0.289557 0.474131 0.890314 0.526040 0.066181 -0.226473 0.633523 0.760242 1.250988 0.198470 -0.867518 -0.024958 0.327863 1.263880 -0.217160
bitch 0.242130 0.347376 0.319710 -0.379916 -0.059244 -0.056723 0.017945 -0.300794 -0.126871 -0.006068 0.403289 0.223186 -0.836405 -0.566483 -0.493246 0.936939 0.597258 -0.122366 0.791847 1.017212 0.575695 0.286746 -0.424117 0.285528 1.509870 0.651711 0.349574 -1.156269 -0.565310 0.917553 0.208150 0.198380 -1.085230 0.028308 0.033135 0.194296 -0.650025 1.123181 0.238465 -1.158707 0.280811 -0.759297 1.004453 0.115487 -0.273099 -1.189156 0.557795 0.227454 2.010245 0.433288
need 0.856898 0.510973 0.455616 0.725611 -0.003074 -1.007840 -0.510226 -1.474840 0.398789 -0.698125 -0.545925 -0.579212 -0.649051 0.053864 -0.786294 0.430299 0.705795 -1.287070 -0.017631 0.347812 1.760012 0.487410 -0.815123 -0.233249 1.305408 -0.502640 -0.532157 -0.898614 -0.767443 0.043428 -0.372650 0.639242 -0.357713 -0.276777 0.742612 -0.312298 -0.172389 -0.062383 -0.824358 -0.319803 -0.919797 0.254126 0.047819 0.398524 -0.807709 -0.232232 -0.042998 1.093011 1.443138 -0.418484
girl 0.784171 1.082042 0.328536 0.711710 -0.252640 0.015490 -0.110255 -1.384594 -0.606928 -0.126920 -0.423336 0.633151 -1.297131 0.215790 0.187912 -0.582960 0.423051 -1.226243 0.009950 1.261700 1.108273 0.567407 -1.351129 0.013194 0.730851 0.356441 -0.056517 -1.189394 0.585409 1.134753 -0.041244 -0.679133 -0.939700 0.077357 -0.152442 -0.717205 -0.581756 1.660505 0.144071 -0.160931 -1.234448 0.483136 -0.247486 -0.023016 -0.123552 -0.399734 -1.592639 0.495286 0.482745 -0.263240
check 1.892700 0.292723 -0.795992 -0.622908 -0.147957 -0.207367 -0.834304 -0.254169 0.138953 -1.032985 -0.215469 -0.490522 -0.311873 -0.184831 -0.302956 -0.283858 -0.230320 -0.515426 0.015708 -0.437801 0.911770 1.017656 -0.519827 -0.451548 -0.384185 0.282572 -0.439815 -1.636203 0.047972 1.924299 -0.057251 -0.748298 0.290030 0.660696 0.881569 0.558356 -0.087999 1.533878 0.784550 -0.142087 0.713092 -0.150483 0.896961 -0.596214 0.211535 0.364404 -0.116468 0.156574 1.268507 0.598467
think 0.664571 1.411626 -1.422862 0.636737 0.788609 -0.477873 -0.025416 -1.302812 -0.565254 -0.327564 -0.569119 -0.343293 -1.125571 -0.524845 0.476503 -0.256877 0.855003 0.262292 -1.130188 -0.366391 0.181301 -0.516900 -0.251994 0.373740 0.534340 -0.022887 0.042908 -0.552587 -0.043455 0.230974 -0.445106 -0.199218 0.684779 -0.789849 0.690882 -0.193997 -0.676832 1.025988 -0.769867 0.221247 0.072404 -0.019441 0.643143 0.139391 -0.687758 -1.307295 -0.144215 0.968200 2.069020 0.820291
stop 0.160838 0.387820 -0.701810 -1.053889 -0.248911 -0.035631 -0.212622 -1.432034 -0.437866 0.500095 -0.628735 0.837569 0.014160 -1.095019 0.313420 0.328048 0.852506 -0.031668 -0.368472 -0.485770 0.599314 1.117233 -0.344875 1.298898 0.657321 -0.417656 -0.015976 -2.429565 -0.161153 1.075900 -0.083277 -0.702009 0.116342 -0.556172 0.615720 -0.972702 -0.872308 0.857259 -0.822076 -0.409277 -0.318041 0.637623 -0.208478 0.217695 0.486265 1.454116 -0.075708 1.132684 0.983863 -0.400492
black 0.407342 0.236734 -0.763927 -0.961349 -0.042169 -0.398167 0.864166 -0.566653 -0.205056 1.026527 -1.223310 -0.610263 0.435387 -0.667293 0.348588 -0.293419 0.629267 -1.415706 -0.251545 0.365745 -0.473646 0.873594 -0.805781 -1.392271 -0.778170 1.381259 -0.518939 -1.181167 -0.397144 -0.008191 0.584371 1.132026 -0.730969 -1.118883 0.780451 0.137947 0.184519 0.626454 -0.380744 -1.457268 -1.377069 -0.113120 0.074269 -0.089254 -0.122713 -0.293098 -0.293909 0.399382 0.983238 0.574941
little 0.270818 1.192834 -0.852261 0.297598 0.757576 -0.017762 0.120573 0.273854 -0.982653 -0.776229 -0.640231 0.436090 -1.027737 0.110391 -0.309761 -0.463194 0.509898 -0.681662 -0.301202 1.007192 1.485454 0.684563 0.580590 -0.955791 0.765040 0.697822 -0.081002 -0.956711 -0.292062 -0.226828 -0.855026 0.033073 1.152535 -0.508353 1.024972 -0.056872 -0.089487 0.641007 -0.748250 -0.246124 0.261739 -0.984553 0.742557 0.271252 1.169466 -0.033731 0.771473 1.197588 0.512972 -0.015375
day 0.658181 0.873095 -0.277671 -0.605768 0.647773 0.744700 0.352722 0.234004 -0.116629 -0.128601 -0.241456 -0.723731 -0.535459 -1.342758 -0.511718 -0.981292 0.079492 -0.828318 -1.024421 -0.141720 0.465961 -0.862084 -1.074185 0.441419 1.340446 1.370555 0.382393 -1.250458 -0.715068 0.023424 -0.760105 0.099622 -0.023180 -0.618558 -0.782965 0.220406 -0.155077 -0.184751 -1.296026 -0.844045 0.005641 -0.196218 -0.241996 1.004511 -1.049341 0.313057 -1.122383 1.018110 1.082512 -0.924645
better 0.916700 0.802239 -1.103146 0.105714 -1.279513 -0.045776 0.018834 -1.052075 -0.071797 -0.532588 -0.415606 -0.158177 -0.374918 -0.726392 0.730845 0.668566 -0.518053 0.025498 -0.058245 -0.328744 0.795646 -0.381978 -0.334052 0.659340 0.175253 -0.452194 0.082337 -1.375237 -0.858549 0.554284 -0.918476 -0.119844 -0.161700 0.262623 1.890488 0.686551 -0.182200 0.362482 -0.962388 -1.152189 0.218098 -1.112121 0.152181 0.185819 -0.065545 -0.100460 -0.537309 0.397807 1.298137 0.215249
good 0.571196 1.337994 -0.359749 -0.726947 0.690382 -0.321968 0.467706 -1.055055 0.797089 -0.955698 0.493663 0.091489 -0.568321 -0.595312 -0.927721 -0.306728 -0.290599 -0.339147 0.287055 0.057768 -0.072721 -0.641172 -1.436714 -0.685473 0.686780 1.080011 -0.273085 -0.385174 -0.016649 0.738765 -0.333419 0.617504 0.106712 -1.210255 0.940271 0.658130 -0.172324 1.292026 -0.676500 -0.850187 -0.849957 -0.674539 0.030565 0.150118 0.270397 -0.259539 -0.123872 0.439573 1.231223 -2.272660
world 1.295765 1.420409 0.852243 -0.471085 -0.182931 1.592123 -0.123707 -0.943775 -0.965869 -0.325877 -0.679536 -0.110512 -0.412197 -0.037013 0.688501 -0.775263 0.769055 -0.998072 0.465909 -0.663153 1.696171 0.698937 -0.953458 0.443890 0.369400 -0.234366 0.149872 -1.346676 0.722736 -0.644634 0.031763 0.001750 1.054778 0.508441 0.773707 -0.660894 0.877323 0.888463 0.281736 -0.403352 -0.713665 0.030359 0.412541 0.847313 0.209194 -0.685236 -0.244514 0.547219 0.583662 -0.367554
new 1.586931 1.089072 -0.486918 -0.292654 0.610553 -0.455101 1.169879 -0.088082 -0.433373 -0.382107 -0.651725 -0.609547 -0.083299 -1.310120 -0.147374 0.746655 1.368355 -0.227689 0.211747 -0.593302 0.268651 0.631951 -0.387920 -0.460741 0.292929 1.081572 -0.434460 -0.308024 -0.616183 0.119879 -0.290436 -0.547687 1.605576 0.330316 0.331030 -0.228901 0.319258 -0.201525 0.473763 -0.563145 -0.731857 0.651678 0.747596 1.205794 0.833942 -0.020423 -0.413017 0.384773 0.980522 -0.243269
hey 1.467587 -0.649837 -0.617840 0.027186 -0.336287 -0.101735 -0.767856 0.246774 -1.312855 0.004337 -0.693970 0.809402 0.214221 -0.505827 -0.223697 -0.470197 2.171065 -0.092550 -0.168576 -0.846598 1.310075 0.653792 -0.941109 -0.033733 0.880293 0.605085 0.469764 -0.357361 -0.205364 1.239154 -0.199790 0.381593 -0.225009 -0.580993 -0.837930 1.097696 0.503133 0.847928 -1.159589 0.016725 -0.707484 0.652361 0.594787 -0.422689 -0.975125 0.346459 0.031725 0.627993 1.059260 -0.586326
run 0.272616 0.022054 -0.205929 -1.219644 -0.949973 0.342316 0.371282 -0.637855 -0.026531 0.018892 -0.591357 0.739051 -0.989155 -1.210988 0.876978 0.667163 -0.538150 -0.240091 0.693716 -0.127177 0.782629 -1.161649 -0.634300 -0.575202 0.037288 0.287801 -0.410070 -0.672350 -0.307971 0.700428 -1.317512 -0.298078 0.187026 2.350644 0.627458 0.734319 -0.366918 -0.191454 -0.869843 -2.166379 -0.826404 -0.104379 1.131887 -0.268762 0.285787 -0.487752 0.300430 0.812264 0.888963 0.833617
feel 0.453532 1.375175 -0.714531 -0.977578 -0.657631 -0.501480 -0.497948 -0.635709 -0.930106 -1.322103 -0.493248 0.873721 0.143509 -0.510647 0.558093 0.048280 0.364912 -0.944991 -1.316207 -0.836425 0.715825 -0.490488 -0.286762 0.202722 0.624033 0.006054 -0.595009 0.051890 -0.082984 0.002211 -0.397643 0.524991 -0.340715 -0.391459 0.705832 0.321494 -0.480520 1.275213 0.246013 -1.439083 -0.699622 -0.323123 0.195951 0.266587 0.813432 -0.647325 -0.484412 0.276169 1.031512 -0.824837
big 0.986859 0.555592 -0.633839 0.541502 0.687246 -0.343589 0.105404 0.095454 0.543052 -0.679331 -0.702578 0.352271 -0.097536 -0.657409 0.650921 0.200745 1.249045 -0.285630 0.425520 -0.428375 0.539184 0.126626 -0.729976 -1.133143 -0.369194 -0.082375 -0.088540 -0.427927 -0.395757 -0.697478 -0.980663 0.937126 -0.403455 0.521874 -0.160329 0.304785 -1.257697 1.673181 0.128304 -1.056081 -0.937891 0.177781 -0.767535 0.353000 0.711146 -0.194354 -0.193963 1.229126 1.372427 0.144213
rock 0.156169 0.530496 -0.873901 -0.674400 0.999015 -0.907450 0.415139 -0.678571 -0.532801 0.776743 0.570253 -0.122349 -0.353295 -0.061129 0.319350 0.077705 1.180410 0.065557 -0.727161 -0.524431 1.026197 0.203726 -0.317444 -0.529122 0.530196 -0.490150 1.269794 -2.069725 0.021437 -0.248113 -0.471137 0.432223 0.695995 0.799435 0.215833 0.520945 0.532447 1.982228 0.362510 -0.273360 0.149441 -0.426991 -0.055667 -0.051654 0.129731 1.829093 -1.306120 0.966866 0.325429 -0.037869
try 0.760331 -0.588126 -1.152742 0.305768 0.200313 -0.183475 0.531151 -0.793351 -0.320098 0.365039 -0.566892 -0.261335 -1.074973 -0.746059 0.168572 -0.111260 -0.903645 -0.288486 -0.336044 -0.360511 0.040516 0.011147 -0.586237 0.364292 1.449817 0.467296 0.836916 -0.402862 -1.135940 1.189814 0.242888 0.950609 -0.278654 0.853818 1.415414 -0.133811 0.750919 0.659583 -0.245941 -0.948785 -0.471784 0.202205 -0.334181 -0.811070 0.804642 -0.497347 0.323407 0.828142 0.626927 -0.074565
look 1.042562 0.086126 0.355601 0.847790 -0.628929 -0.215195 -0.071519 -0.568241 0.301245 -1.055358 0.305203 -0.320230 -0.217456 -0.714905 1.699921 0.079428 0.634170 -0.736374 0.064063 0.209554 1.004558 0.725061 -1.687412 0.416999 1.410386 0.134924 0.601222 0.020422 -0.241828 0.525422 -0.656391 -0.347842 0.104289 -0.847157 0.465855 0.590861 -0.442612 0.776069 -0.980329 -1.111589 -0.584270 -0.704316 -0.136748 -0.657086 0.862673 0.778443 0.560268 -0.131299 1.190529 0.506255
people 1.187830 0.208286 -0.365144 0.290090 -0.366313 1.018679 0.307623 -0.065188 -0.604874 0.267158 -1.186628 -1.094913 -0.355395 0.241804 0.049250 0.665258 0.845531 -0.821346 -0.505657 -1.133828 -0.232384 0.952300 -0.695867 -0.260364 0.000453 0.177480 -0.091181 -0.331875 0.601607 0.136483 -0.886101 0.031037 0.453359 -0.150703 0.799401 -0.279871 1.034056 0.782415 -1.091245 -1.609955 -0.537583 -0.688620 0.156801 -0.863451 -0.759957 0.043042 -1.052697 0.826966 1.243421 -0.794599
di -0.144889 0.344702 0.459672 -0.032291 0.793771 1.381186 0.380609 -1.444046 0.019428 -0.622484 -1.063537 1.938483 -0.448541 -0.801119 -0.045027 0.272946 0.776765 -0.439186 0.735984 -0.045013 -1.000225 -0.116728 -0.712507 -0.422104 0.355612 -0.172544 0.466649 0.496851 -0.476213 0.297700 -0.571620 -0.628386 0.093115 1.068670 -0.038374 -0.106439 -0.563165 1.952713 -0.007232 -0.945337 -0.689962 0.790944 -0.932028 0.255680 -0.915383 1.156830 -0.177773 1.142977 -1.120361 0.426597
live -0.193808 1.372290 -0.005811 0.214265 0.343547 0.228113 -0.521202 1.160797 -0.143916 -0.230715 -0.884022 -0.096654 -0.693478 -0.924862 -0.206382 -0.670631 0.398590 -0.838821 0.143203 -0.783011 0.534698 -0.863539 -0.789021 0.055161 0.462418 -0.056899 -0.527696 -1.342846 -0.797888 0.591010 -1.187480 0.236412 1.263124 0.276870 -0.130338 -0.242408 1.231362 0.624013 -0.654175 -1.204576 0.161737 -0.972839 -0.569569 0.772515 -0.158855 1.132281 0.637758 0.925733 1.580366 -0.216685
ha 0.170336 -0.868533 -1.337520 1.460543 -0.264606 0.368666 0.180066 -0.531073 0.851328 -0.408193 0.812096 0.573245 1.806400 -0.003982 1.227625 0.501741 0.899718 -0.121365 0.464569 -0.805866 1.208597 0.652916 -0.647629 1.004875 0.893346 -0.164453 -0.428037 0.111477 -0.694352 1.755340 -0.994176 -0.488868 -0.061308 -0.125705 -0.307933 -0.160291 0.961998 0.452620 0.064350 -0.930231 0.852275 0.475334 0.477452 -1.249277 0.832781 0.303363 -0.252035 0.895892 0.975367 0.591488
head 0.498381 0.291580 -1.174173 -0.305298 -0.965171 0.046788 0.025328 -0.565671 -1.554035 -0.261169 -0.251018 -0.481476 -0.735965 -0.639561 -0.105720 -0.783292 -0.150769 0.412014 -0.332700 1.218029 0.077050 1.701637 -1.043452 0.230055 0.233778 -0.647037 -0.118248 -0.753368 -0.524545 -0.227099 -1.270390 0.133407 0.592161 0.188936 -0.591198 0.051232 0.010797 1.342532 0.631697 -0.065246 -0.438668 -0.393247 0.010801 0.441779 0.149707 -0.799781 0.459090 1.195757 0.477750 -0.084454
huh 0.832678 0.090688 -1.988288 -1.714970 -0.352703 -1.086868 0.299895 -0.283397 -0.490595 0.007119 0.707553 -0.601888 -0.231801 0.560495 0.329377 -0.343312 0.244732 0.078308 -1.186060 -0.058275 0.805169 0.233956 -0.359641 -1.037628 1.447441 0.270990 0.067943 0.371049 -0.665338 0.261944 0.801734 0.447771 0.741705 0.276443 -1.205920 0.500191 0.975610 0.729710 0.260589 -0.644664 0.716740 0.127360 0.101546 -0.771087 0.547240 0.908813 -0.286296 1.484289 1.711048 -0.493008
style 0.519832 0.356119 -1.291390 -0.277830 1.940014 0.034549 0.048294 -0.637159 -0.599571 -0.016117 -0.614188 -0.020657 1.061520 -1.811778 0.794962 0.738546 0.492113 -0.832308 0.646680 -0.117408 -0.382454 1.099252 -0.582178 -0.608778 0.569258 -0.182724 0.168277 -1.021225 -1.050538 1.000001 -0.063002 -0.434159 0.358836 1.201124 1.291444 0.570385 0.084480 -0.477433 0.212070 -0.074884 0.076405 0.015238 -0.291366 0.382083 0.837215 0.266780 0.515983 -0.484268 1.379251 -0.612385
bring -0.080776 -0.060591 -0.998502 -0.912807 -0.472681 -0.611579 1.076787 -0.200132 -0.048752 -1.489066 -1.677008 -0.307454 0.282462 -0.239524 -0.391955 -0.222601 1.408884 -0.148474 1.118758 -0.199990 1.500639 0.966160 -0.215193 1.257450 0.703724 -0.101435 -0.080130 -0.035198 -0.197864 0.443276 -0.663000 0.503749 -0.353507 1.035059 1.798647 -0.740390 0.142827 0.655595 -0.796221 0.331224 -0.065531 -0.044616 -0.186028 0.137934 0.578822 0.031462 -0.391774 0.399205 1.397099 0.041291
wo 0.113005 0.062525 -0.079855 0.476468 0.060829 0.104417 0.124435 -1.614456 -1.280479 0.744648 -0.676635 0.566430 -0.444599 -0.383362 0.069110 -0.420908 0.134690 -0.569889 -1.625098 -0.705355 0.271514 1.488885 -0.152961 0.359085 0.564563 0.263858 0.101268 -1.848308 0.320050 0.714908 -0.945637 0.427393 0.093127 -0.525128 0.423573 0.022089 0.356300 -0.557036 -0.732079 -0.401797 -0.320536 0.529843 -0.553334 -0.660151 0.062054 -0.617052 -0.036578 0.494816 1.438742 -0.335667
mi 0.120072 0.130925 0.237671 0.617875 -0.538418 0.858442 0.090929 -0.399001 -0.096761 -0.800355 -1.252163 1.173788 -0.373143 0.474881 -0.408373 -0.404849 0.061498 -0.013946 -0.696799 -0.464635 -0.721617 -0.189115 -1.254207 -0.300426 0.661369 -0.511250 0.947951 0.665903 -0.381852 0.089523 -0.437190 -0.272745 -0.225216 0.837194 0.612705 0.638070 -1.676682 1.161072 -0.501787 -0.617980 -0.995915 0.907221 -0.405995 -0.136958 -1.094008 0.031037 -0.297231 2.415394 -0.251416 0.661167
game 1.164604 0.922474 -0.461668 -0.020128 -0.001793 -0.387034 0.817589 -1.094169 -0.158837 0.449910 0.415209 -0.329053 -0.456793 -0.662952 0.616809 -0.269458 0.778239 -0.692449 0.465944 -0.331976 -0.691097 -0.462354 0.013998 -0.582708 0.569802 0.218436 -1.336774 -0.306297 0.416162 -0.374490 -1.627729 0.477496 -0.035223 -0.248627 0.628937 -0.313406 0.340248 -0.047723 0.023751 -1.973175 0.912210 -0.754693 -0.046297 -0.581553 0.304685 -0.650852 -0.046012 -0.050416 1.646383 -0.442612
mind 0.956580 0.919714 0.948682 -0.664092 -0.070588 -0.679268 -0.584309 -0.399695 -0.588689 -0.337902 0.237570 0.328517 -0.280910 -0.534403 -0.239902 0.144316 0.278247 -0.304204 -0.526363 0.260733 -0.227126 0.624277 -1.426034 -0.321004 1.246468 -0.073410 0.440823 0.383387 0.239776 0.254031 -0.947668 -0.611238 0.488999 0.128501 0.636945 -0.036571 0.536175 -0.413157 -0.339670 -0.628204 0.292825 1.244906 0.541894 -0.170075 0.489527 -1.247580 -1.827222 0.114419 1.703215 -0.068577
play 1.048331 0.413756 -0.294417 0.813273 0.268686 -0.139590 -0.823899 0.138801 -0.286637 -0.077314 -0.633236 0.206821 -1.282059 -0.285306 -0.340578 -0.377557 0.015307 -0.593062 -0.726660 -0.072227 -0.127566 0.036860 0.003725 -0.197548 1.278113 0.800559 -0.583887 -0.943090 -0.761931 0.643732 -0.609906 0.275075 1.095236 -0.121490 0.447829 -0.601367 0.197784 1.046760 -0.462103 -1.265814 0.463417 -0.494823 -0.627861 -0.008350 0.287218 0.504223 0.149622 0.136251 0.776626 -0.494364
da -0.972660 0.145133 -1.108758 -0.383348 -0.933549 0.406818 0.623514 -0.365019 0.008552 -1.156729 -1.042410 1.487213 0.510437 -0.802094 -1.423500 -0.594849 -0.087070 -0.874471 1.739236 -1.601429 0.696393 0.736642 0.367805 0.818597 0.509924 1.103637 0.263663 0.394262 0.517328 0.323099 -1.065379 0.595136 -0.315421 2.259039 -0.465510 -0.325690 0.508486 0.879806 -0.301616 -0.553424 0.907325 0.198747 1.686368 -0.062777 -0.377800 -0.433204 -0.257933 -0.440026 1.133184 -0.815488
ride 0.065899 -0.165813 -0.813367 -0.661782 -0.820312 -1.037647 0.116240 -0.167543 -0.627907 -1.083079 0.498363 2.070820 -1.094115 -0.066179 0.016313 -0.541274 -0.316681 -0.492666 0.967760 -0.404996 0.492555 -0.393205 0.895494 0.477243 0.712107 0.474482 -0.347597 -1.190522 0.179393 0.285286 -1.587925 0.138459 1.300181 0.593124 0.349755 0.190104 -0.716398 0.601885 0.199673 -0.664348 -0.146445 0.506812 -0.035789 -0.097745 -1.562914 -0.213648 0.627782 0.763109 0.769183 0.324457
g 0.598367 0.019323 -0.684565 0.055660 0.384245 0.355163 -0.143753 -0.366165 0.515799 -1.769907 -0.791560 0.000992 -0.953488 -0.267121 0.013931 -0.784624 0.714670 -0.135802 -0.026193 -0.617671 -0.051219 0.731667 1.157730 -0.212358 1.283225 -0.673535 1.685760 -0.880868 1.083354 0.228326 -0.985456 0.025159 0.024226 -0.479863 -0.284609 0.527255 -0.089307 0.273581 -0.479785 -1.031591 -0.730133 -0.221342 0.393691 0.234666 0.740997 -0.298505 -0.867568 0.886534 1.218367 0.060611
wake 0.365215 1.142973 -0.608974 -1.677575 -0.065291 1.328525 0.106158 0.741236 -0.466904 -0.654437 -0.441501 -0.407983 -0.904329 -0.644499 0.402693 0.727903 -0.962229 -0.392701 -0.063919 -0.849691 2.892201 0.251527 -0.133179 -0.917173 0.270909 0.199538 0.206540 -0.360955 -1.229260 -0.176671 -1.048437 0.953012 -1.422182 -0.834586 0.941267 1.848390 -0.180443 -0.234357 -0.083284 0.801661 -0.293305 -0.298389 0.405767 -1.118443 -1.087658 -0.046788 0.195519 -0.680621 -0.261384 1.231117
die -0.510080 0.711420 0.576031 -0.363420 -0.121712 0.035784 0.814547 0.342691 -0.231925 -1.082911 -0.596179 0.542081 -0.029978 -0.626754 -0.242285 -1.729623 -0.260544 -0.404192 -0.563135 -0.608038 0.312220 -0.782946 -0.552240 1.306626 0.845914 0.237255 -0.747100 -0.735633 -1.553363 0.731526 -1.243311 0.792627 0.450064 0.265116 -0.271417 0.245137 -0.352664 0.198085 -0.063465 -0.964563 0.964995 -0.457174 0.343028 -0.243365 -1.214922 -0.602365 0.146123 1.540058 1.636050 -0.074077
flow 0.689080 0.257396 -1.264659 -0.747578 0.671326 0.536695 -0.467986 -1.070086 -0.353706 0.437247 -0.850095 0.218345 -1.139856 0.107257 0.135495 -0.402595 0.448183 0.298915 -0.134938 -1.352744 0.306193 0.265561 -0.638563 -0.657736 -0.193460 0.430538 -0.284810 -0.649168 -1.165308 0.426912 -0.761651 -0.087419 -0.482666 0.276210 0.768298 1.531852 0.833317 0.581390 0.443821 1.079214 -0.074687 -1.024968 0.445252 0.155571 2.049895 0.148490 -0.225869 0.042032 1.031885 -1.009437
hard 0.137973 0.632032 -0.983765 0.230215 0.582687 0.390207 0.582035 -0.173699 -0.899778 0.799163 -0.795071 -0.430622 -1.303116 -1.108472 0.102371 -0.487273 -0.163411 -0.182664 0.186176 0.050355 0.520647 -0.395476 -0.892939 0.109215 1.668079 -0.151072 1.430866 -1.039778 -0.429089 -0.046523 0.221666 0.777604 -0.342364 -0.709460 0.886945 0.119656 0.413799 0.884109 0.154844 -0.586535 -0.002120 0.783617 -0.707727 0.552127 -0.187188 -0.055990 -0.269173 0.672736 0.677098 -0.802739
boy 0.320662 0.019009 -0.647404 -0.279638 0.270429 0.693304 -0.408025 -0.761922 -0.279576 -0.216346 -0.363670 0.865923 -0.078656 -0.653351 0.397298 -0.374318 0.642876 -1.027207 0.711357 0.470404 0.245699 0.409938 -0.115805 -0.084659 0.946545 0.576880 -0.344738 -1.372107 -0.852343 0.515234 1.149338 -0.163983 -0.230893 -0.646183 0.520248 0.137086 -0.420395 0.674176 -1.007283 -0.816174 -0.153989 -0.271227 -0.679406 0.664618 0.965728 0.690766 0.079245 -0.166596 1.391104 0.241585
woo 1.395711 -0.563579 -1.187814 -0.674532 -1.194552 -1.006425 0.382222 -0.915494 0.654648 -0.679405 -0.420797 1.995874 -0.197594 1.337138 0.642776 0.928209 0.077994 -0.542164 0.333435 -1.067861 0.255119 -0.968718 -0.111117 0.577727 0.104995 1.282100 -1.085631 -0.648603 0.386189 -0.332660 -0.704554 0.107981 2.008825 1.113957 0.150005 0.367873 -0.846004 0.105442 -0.283114 0.776928 0.225684 1.284061 -0.748472 -0.748245 -1.415964 0.509550 0.463485 -0.763332 1.111014 0.530611
word 1.256662 -0.168846 -0.372818 -0.836284 0.396934 0.425411 -0.702553 0.524493 0.028356 -0.607777 -0.070678 -0.574443 -0.435469 -1.141704 0.022542 -0.000051 0.578629 -0.480914 -0.370274 0.276223 0.130122 0.547958 -0.776247 0.032177 0.484530 -0.403232 0.266751 -0.325803 -0.447787 1.349389 -0.543962 0.343322 0.132122 -0.479498 0.784473 0.368879 0.867604 0.707603 -0.140755 0.054272 0.121703 -0.318980 0.155719 0.509770 -1.428047 -0.155601 -0.316262 0.363606 1.758516 -0.422282
watch 0.416612 0.256190 -0.743937 -0.822357 -1.154923 -0.393534 0.452701 -0.858357 -0.705851 -0.614037 -1.594743 -0.098607 -0.605534 0.169378 0.328204 0.603084 0.675630 -0.078705 0.226606 0.220043 -0.154225 0.687791 -0.643997 1.075602 0.518422 0.038697 0.373999 -0.692576 -1.152115 0.356771 -0.981038 0.604980 -0.106492 0.292870 0.688947 -0.375109 -0.272032 0.837792 -0.623222 -0.104034 -0.243358 -0.343822 0.035480 -0.410206 0.476644 0.662564 0.000909 -0.056246 0.684904 -0.001352
e 0.372486 -0.491742 -0.754656 -1.138267 0.978803 -0.352756 -0.345171 -1.514417 0.999838 -0.622313 -1.252998 -0.427972 -0.647110 0.170184 -0.712890 -0.535468 0.987994 -0.971841 0.022998 -0.195119 -0.831041 1.001375 1.619788 -0.469858 0.255712 -0.128259 0.898165 -1.249541 -0.002175 0.300926 0.514083 -1.337416 -0.339068 0.316467 0.364874 0.876757 1.086692 1.078291 -0.601785 -1.157889 0.051668 -0.236264 0.071845 -0.156003 -0.893261 -0.807913 -0.265009 1.106637 0.481554 -0.021051
yes -0.485950 0.831337 -0.313152 -0.606257 0.680027 0.336488 -1.007516 -1.575476 -0.404704 -0.486436 0.173645 0.326474 0.621698 -1.257820 -0.456632 0.559165 0.350739 -1.046880 -0.252035 -0.904815 -0.070088 0.852649 -0.588044 -0.581440 0.840122 -0.361102 -0.357341 -0.813912 1.197977 0.524689 -0.269152 0.199443 0.585127 -0.047353 0.400825 0.245359 0.359088 1.373728 -1.059781 -0.489665 0.559060 0.059166 0.723196 -0.724440 0.821009 0.157127 -0.077278 0.913195 0.018987 -0.295993
la -0.489828 -0.374491 -0.878372 0.337644 0.943050 -0.438595 1.190314 -0.383193 -0.985560 -0.509020 -0.699535 1.079269 -0.235354 -0.753333 -0.249455 -1.044299 0.399848 -0.383344 0.581336 0.337765 0.911081 0.196572 -0.228329 1.030631 -1.237590 0.238095 -0.294326 -0.945598 0.347832 0.274665 -0.862932 -0.328672 0.378887 1.841897 -0.219432 0.073688 1.370149 1.268007 -0.020223 0.409671 0.418926 -0.658101 2.168300 -0.237773 -2.266933 0.455031 -0.212155 0.389221 0.721111 0.119240
hear 1.608637 -0.486867 -0.150673 0.627702 -0.627110 1.020675 0.110086 -0.685079 -0.413684 -0.343090 -1.441630 -0.096996 0.027486 -0.298206 -0.518280 0.037861 0.616977 -0.048490 -0.503528 -1.307510 0.231293 -0.406979 -0.724650 -0.035615 0.808965 1.045275 0.028341 -0.369653 -0.132394 0.437747 -1.064962 -0.181005 0.126072 0.200478 -0.060651 0.289600 0.509366 1.012474 -0.370406 -0.365916 -0.260779 -0.555592 0.133503 0.780627 -0.272266 0.221524 -0.739796 1.243538 0.469547 -1.142968
roll 0.354302 0.294720 -1.018883 0.064896 -0.088002 -1.723324 -1.196787 -0.056767 -0.193058 -0.572484 0.038383 0.432701 -0.673463 -0.045743 0.715364 -0.538236 0.268081 0.519481 -0.245401 -0.904404 1.519551 0.629450 -0.653830 -0.665797 1.567210 0.161509 0.444906 -0.595264 -0.096544 -0.158519 -0.480382 1.239403 0.484427 0.551447 0.688670 1.113776 0.028307 0.276455 0.856421 -0.089273 -1.198187 -1.051265 -0.673196 1.184203 -1.022063 0.388545 -0.660416 -0.897693 0.324038 -0.078370
rap 1.230515 0.236455 -0.232705 -0.703970 0.605109 -0.078539 -0.423403 -0.439844 -0.191546 0.682546 -0.107339 -0.233059 0.257829 -0.654266 0.342312 -0.608826 0.631942 -0.402622 0.355044 -1.186347 0.242698 -0.605532 -0.122639 -0.628250 0.053909 0.523561 0.229125 -0.770236 0.363147 0.873275 -1.020472 -0.324758 -0.318078 -0.212286 1.139301 -0.781454 0.100206 0.428171 -0.315792 -0.894195 0.075155 -1.207661 0.149708 -0.206780 0.903253 -0.552477 0.291055 0.331289 0.787847 -0.454037
everybody -0.082503 0.390060 -0.197030 -0.800913 -0.337106 0.545147 -1.122518 -0.375637 -0.278303 0.717375 -0.445600 0.792265 -0.146999 0.402338 0.525432 1.126207 0.957387 0.381143 0.738431 -0.927033 0.887821 0.392294 -1.212052 0.016150 -0.118929 1.621204 -0.913798 -0.623447 0.676707 0.224583 0.041691 0.702903 0.709186 -0.020336 0.316363 -0.280402 0.982277 0.980596 -1.312457 -0.900407 0.114669 -0.834722 -0.866486 0.205409 0.569888 -0.362037 -0.616468 0.670453 1.347111 0.296719
kick 0.036919 1.111915 -0.589670 -0.535963 0.541745 -0.054406 -1.859753 0.082321 -0.431157 0.150443 -0.370905 0.241361 -0.021483 -0.265343 -0.533725 0.455167 0.662923 -1.056558 -0.754390 -0.277799 -0.278550 0.636050 -0.481544 -0.998616 1.212918 0.157156 -1.366520 -0.896408 0.382306 0.537761 -1.049750 0.299395 0.476363 0.704251 0.263973 -0.204733 0.347269 1.556767 0.405965 -0.890211 0.282015 -0.471139 -0.472334 -0.906474 1.099731 0.110050 0.236290 -0.221712 0.498010 -0.070170
ah -0.220208 -0.127280 -1.604213 -0.353447 0.083507 0.169124 0.618699 -1.241044 0.295389 -1.418148 -0.487246 0.611541 -0.159772 1.332616 0.525434 0.199536 0.611774 0.165363 -1.580508 -0.470381 -0.427393 -0.437778 -1.291744 0.535547 1.081232 0.233111 -0.525185 -0.257380 -0.277971 1.242827 -0.590483 -0.231304 1.297878 -1.282259 -0.166081 0.305879 0.525855 1.559008 -0.921694 0.171431 -0.169461 0.276921 1.100337 -0.877710 -0.833673 0.272931 0.625340 0.204964 0.570273 0.396815
high -0.463622 0.477308 0.335428 -0.236690 0.192189 0.318550 -0.314719 0.512153 -0.132581 -0.623383 -0.167943 -1.205849 -0.121086 -0.670545 1.044833 -1.315893 -0.121591 -0.459293 -0.388287 -1.278569 -0.169141 -0.190939 -0.886141 0.908708 2.138671 0.470503 -0.920115 -1.068278 -0.563971 -1.060807 0.213541 -0.388101 -0.625932 0.751155 0.402874 -0.217990 0.706869 1.057641 1.588439 -1.095944 -0.617320 0.006303 1.135945 -0.043931 0.085294 1.186188 0.170519 0.385982 1.457073 0.465208
comin 0.480046 1.102744 -1.339087 -1.216211 -1.212975 -0.151360 -0.789790 -0.223282 -0.646358 -0.782803 -1.170394 0.317212 -0.443644 -1.433879 1.435987 -0.404649 0.709973 -0.447852 -1.048214 -0.837127 0.890415 0.009653 0.242998 0.529144 -0.128958 0.543263 -0.216755 0.235211 0.853148 -0.694743 -0.783400 0.398253 -0.382046 -0.206587 -0.117100 0.945704 -0.698280 0.240686 1.071582 -0.553333 0.192331 -0.225292 0.239644 0.861240 -0.379557 -0.416478 -0.070151 0.635462 1.041778 -0.802604
d 0.585288 -0.287457 -0.243297 0.021979 0.164832 -0.040624 0.288672 -0.911985 0.631316 -1.253736 -1.315473 0.441924 -0.808303 -0.263108 0.721802 -0.623500 0.647647 -0.360767 0.938751 -0.441362 -0.972771 0.572876 1.120744 -1.419697 0.791857 -0.656915 1.097618 0.033996 0.230502 -0.066184 0.126285 -0.859989 -0.431405 1.420947 0.028094 1.304729 0.431152 1.376298 -0.159301 -1.282158 -0.123838 0.049668 -0.334501 -0.398524 0.058218 -0.508194 -0.622905 1.219678 1.113666 -0.256606
mc 0.073910 -0.306222 0.147086 -1.146348 1.183592 0.121645 -0.672702 -0.592239 -0.137774 0.007728 -0.681176 -0.336045 -0.521810 -1.196766 0.305409 0.209523 0.450189 -0.466585 -0.483501 -1.122208 0.130068 -0.253442 0.204402 -0.090262 -0.183971 0.504974 1.142318 -0.642011 -0.851231 1.566676 -0.190253 0.073098 0.168184 0.664289 1.469773 -0.434785 0.040740 0.026397 0.020398 -0.191062 0.427100 0.198531 -0.198572 1.087511 0.871847 0.106229 -0.021011 -0.082905 0.998174 0.730775
talk 1.606867 -0.405137 -0.608190 -1.017123 0.713857 -0.092505 0.479186 0.002718 -0.406166 -0.212829 -0.386622 0.817265 -0.143631 -0.819689 -1.274156 1.027804 -0.509225 0.090100 0.563668 -0.242944 0.245336 0.171793 -1.379726 0.542425 0.647949 0.629294 0.409067 0.734486 -0.112956 0.077718 -0.963387 0.202146 0.070772 -1.000500 0.511738 -0.089294 -0.233335 0.492491 0.264206 -1.361352 -1.296985 -0.114794 -0.101752 -0.845746 0.207466 -0.777327 0.188082 1.133410 1.601661 -0.929142
body 0.321134 0.606552 0.244928 -1.736152 0.575753 -0.778005 0.156250 -1.209473 -1.162967 -0.080827 0.513194 1.360904 -0.514024 0.542907 0.068298 0.014645 0.553535 -0.419817 -0.692945 0.089428 0.724474 0.368960 -0.638230 -0.041192 0.268663 -0.980025 1.296851 -0.743418 -0.587980 0.040313 -0.024986 0.648510 -0.126591 0.803567 -0.186554 0.486568 0.259739 1.423178 -0.338582 -0.731350 0.679488 0.799222 -0.434271 -0.934787 0.192492 0.139204 -1.219482 0.576790 0.519055 0.282797
de 0.088715 -0.462369 0.213561 0.302901 -0.012950 0.175587 0.910527 -0.232121 -1.622791 -0.227848 -0.510906 1.183340 0.215340 0.705856 -0.143910 -0.354067 0.514711 0.749582 0.272120 -0.231567 0.234779 2.591674 -0.424454 -0.786901 -0.016659 1.072188 1.403683 -0.735928 0.871235 -0.361241 -0.895769 -1.235498 1.106108 0.700643 0.462818 0.179273 -0.059733 0.399113 -0.742547 -1.267182 0.966175 0.050918 0.709398 -0.109054 -1.284973 1.527721 0.888360 -0.069550 0.091433 -0.345412
fuckin -0.207551 0.802541 -0.500998 -0.572121 0.728031 0.793010 -0.126075 0.378787 -0.436498 -1.253867 -0.664780 0.567510 -0.741427 0.068806 -0.345270 -0.611961 0.183074 0.193619 0.473233 1.606626 -0.417102 0.983956 -0.085524 -0.168469 1.365837 -0.023331 -0.254746 -0.180867 -0.357753 0.653727 0.061755 0.518013 0.422064 0.224970 0.632401 0.564592 -1.226290 -0.753541 0.420421 -1.162470 -0.290049 -0.680415 0.381313 0.740370 0.106737 -0.783082 -0.402516 -0.024799 1.921986 0.113345
gettin -0.179432 1.429403 -0.452121 -0.831253 0.374945 0.741004 0.123492 0.600942 -0.369546 -0.169825 0.128433 -0.621374 -1.562015 -0.107701 0.194530 -0.342602 -0.084798 -1.005724 -0.231652 -0.474624 0.364278 0.708598 -0.215648 -0.316135 0.531632 -0.396386 -0.446802 -0.802344 -0.610227 -0.083212 -0.564564 -0.242553 -0.068405 -0.245883 0.153674 0.669569 0.027931 0.284992 1.116079 -0.935550 -0.727442 -0.528454 0.385179 -0.472066 0.627904 -0.013110 -0.652146 -0.816711 1.603762 0.473266
mic 0.835808 0.592079 -0.373019 -0.708626 0.559574 -0.084167 -0.310462 -0.813175 -0.688429 0.432582 -0.793078 -0.462626 0.123951 -0.472140 -0.528300 -0.221374 0.538877 -0.447259 0.025229 -0.559735 0.283684 1.020771 -1.082180 -0.012707 0.143243 -0.026124 0.339999 -0.824078 -0.718842 0.626276 -0.265761 0.122343 0.724799 0.892898 1.759542 0.265887 -0.426844 1.582392 0.049799 -1.007100 0.810649 -0.285338 1.259364 -0.791034 0.576349 0.575342 -0.159927 -0.132721 -0.741678 0.346485
party 0.734666 -0.200213 -0.480103 -0.990297 0.446684 1.165523 1.223354 -0.524500 0.160880 0.692145 0.516684 0.784869 -0.264607 1.079265 0.173793 1.163528 0.874962 -0.753928 -0.040385 -0.813614 1.246572 0.112555 -0.463585 -0.094596 0.141388 0.865354 0.970162 -0.851518 0.354893 0.600759 0.251571 0.862981 1.148424 1.005836 -0.674932 0.100280 0.265861 1.919942 -0.328003 -1.137068 0.618828 -0.508054 0.256679 -0.640167 0.873374 0.098765 -0.862530 0.264685 0.806750 -0.627913
break 1.058851 0.491267 -1.206517 -1.436597 -0.354200 0.937635 -0.285407 -1.525494 -0.905690 -0.280070 0.116253 0.117353 -1.710651 0.349723 1.021886 -0.962717 0.085522 0.619720 0.019029 -0.227483 0.481205 0.460534 -0.679442 0.898558 0.134488 0.536263 0.029373 -0.657297 -1.097206 1.275500 -0.263273 0.619718 0.105275 0.725300 0.511692 -0.287630 0.103691 -0.090455 -0.091819 0.480210 0.451806 -0.642970 0.498371 0.794573 1.098104 -0.113510 -0.300322 0.580817 0.503197 -0.789461
long -0.057350 0.127876 1.230261 -0.611927 -0.525373 0.341809 0.262456 -0.163599 0.149877 -0.068972 -0.959322 -0.119422 -0.725906 -0.295084 0.944763 -0.366149 -0.212534 -0.829800 -0.467998 -0.438528 1.164034 0.658802 -0.866395 -0.129206 0.086204 1.337196 -0.051441 -1.531861 0.347118 0.002010 -0.858751 0.282055 0.759380 0.050741 -0.112766 -0.377959 0.828863 0.994781 -0.358831 -1.055730 0.279829 0.442200 -0.438776 0.421807 -0.161968 -1.112786 0.366718 0.401720 0.967976 -0.012985
god -0.303064 0.151419 -0.321270 -0.286292 0.384185 -0.053648 0.363106 -0.153081 -0.830375 -0.424684 -0.805597 -0.696155 -0.274968 -0.466133 -0.330398 0.099743 -0.336307 -0.841467 -0.635442 -0.021817 0.440156 0.219710 -1.733420 0.078537 0.016037 -0.584718 -0.441339 -0.309017 0.648231 1.159121 0.012950 1.333244 0.221013 -0.139173 1.307101 0.598539 0.335730 0.748450 -0.014236 0.128598 0.871405 -0.237921 -0.294032 0.388397 -0.643116 -0.510596 -0.174579 0.324333 1.851759 -0.759628
hip 0.750790 0.410231 0.072741 -0.560654 0.003125 -1.377445 -0.652381 0.077265 -0.958467 0.093149 0.565367 0.743590 1.088766 -0.508266 -0.956165 -0.096238 1.452143 -0.423106 -0.125481 -0.999920 0.144884 -0.064242 0.397410 -0.124000 0.735503 0.134666 1.315233 -1.770725 0.689114 1.196309 -1.316915 -0.028663 0.360712 -0.739426 1.271013 0.273110 -0.131441 -0.393853 0.774006 -0.824027 -0.192119 -0.486161 0.441673 0.211186 -0.069977 0.872328 0.643811 1.051195 0.357783 -0.438845
ready 0.494791 0.804719 -1.097621 0.496709 -0.723633 -0.476898 -0.029689 -0.216362 0.290994 -0.291912 0.043566 0.784468 -0.410498 -0.152085 0.092829 -0.162430 0.084393 0.149817 -0.067751 -1.575602 0.699410 0.714464 -0.995763 -0.372111 0.270705 0.184948 -0.221179 -0.805686 -0.367956 0.347639 0.301646 1.612743 0.390522 0.522266 0.418174 1.087051 -0.810257 1.278485 -0.146791 -0.501879 0.120593 0.146539 0.482652 0.890685 -0.212923 -0.757162 -0.708726 0.704407 0.464977 0.314344
night 0.517914 0.838215 0.540128 -0.614769 0.105931 0.354080 0.907164 0.605615 -0.275060 -0.386487 0.219641 -0.157973 -0.122481 0.386372 -0.186047 -0.394995 0.343579 -0.834296 -0.929916 -0.563617 1.021073 1.098359 -0.735641 -0.817899 1.396832 1.158308 0.563442 -0.644913 -0.149440 0.412616 -0.521714 -0.407696 0.124920 0.001476 -0.157424 0.038902 0.249902 0.591834 -0.697514 -0.742700 0.221359 -0.269332 -0.500256 0.062867 -0.413517 -0.386765 -0.821775 -0.566865 0.992419 0.240427
ooh 0.269669 0.434692 -1.286381 0.916540 0.396823 -0.482040 0.600227 -1.067333 -2.102225 -1.244753 -0.485833 0.312053 0.489865 -0.448318 0.018126 -0.585451 0.697728 0.217914 -0.521069 1.213466 2.006817 -0.319641 -0.707245 -0.069535 -0.549279 -0.099033 -0.506322 -0.224560 0.694083 0.206272 -0.552891 -0.746626 1.266104 -0.988760 0.165628 0.493312 0.669011 0.974981 0.267589 0.191902 -0.373029 0.539827 1.464033 0.371163 -0.200686 -0.294698 0.170740 1.117089 0.678251 0.115427
mad -0.212834 0.085191 -0.045414 -0.317068 0.633284 -0.431696 -0.970675 -0.549309 -0.902744 -0.479433 -0.449595 -1.591945 -0.867440 -0.594314 0.476593 0.506405 0.304852 -1.004596 0.769246 0.001979 -0.817597 0.701700 -0.078895 -1.333971 1.157778 0.405739 -0.869422 -0.524673 -0.166340 0.564071 -1.287699 0.522693 0.128222 0.371069 0.534291 -0.182838 -0.884650 -0.246766 0.696525 -0.641345 -0.125742 -0.475036 -0.123276 0.660745 0.876720 -0.080060 -0.386245 0.317459 0.719596 0.406940
beat 1.006819 0.419387 -0.793387 -0.795226 0.127753 0.309287 -1.253039 -0.774764 0.230497 1.323838 -0.763263 0.639727 -0.120740 -0.616758 -0.666216 0.699104 0.804173 -0.923595 -0.007771 0.285256 0.616823 0.646945 -0.724261 0.352034 0.561678 0.081782 0.095610 -1.314863 0.149652 0.084165 -0.878328 0.016980 0.936565 0.045008 0.125103 -0.603770 -0.493728 0.544268 0.070871 0.663322 0.302557 -0.243717 -0.458727 0.788775 0.879699 0.154269 -0.161712 0.590182 0.571443 -0.684101
hold 0.338580 0.055030 0.082388 -0.432046 0.933507 -0.715376 -0.114434 -0.383375 -0.807214 0.499782 -0.376729 0.384860 -0.481198 0.092558 0.166971 -0.406607 0.384855 0.148300 -0.811113 1.011145 0.467455 0.182445 -0.982003 0.084391 0.588320 -0.561894 -0.143403 -1.244486 -0.655623 -0.003792 -1.066769 0.748209 0.289743 0.654160 1.235770 0.866369 -0.302292 0.709181 0.514263 -0.549043 -0.022066 -0.519611 0.019960 -0.236710 -0.303920 -0.005342 -1.657513 1.045526 0.012637 -1.112636
hop 0.882663 0.364004 -0.137239 -0.472478 0.029413 -1.273211 -0.428018 -0.029198 -1.212591 0.026708 0.581148 0.959772 0.706129 -0.570220 -0.810795 0.095506 1.188704 -0.384929 -0.150315 -1.193226 0.194107 -0.142452 0.456853 -0.216885 0.376667 -0.329588 0.996900 -2.067371 0.522696 0.925278 -1.011481 -0.042971 0.084775 -0.864441 1.012878 -0.124220 -0.074387 -0.524885 0.589193 -0.950808 -0.269427 0.019245 0.672776 0.522819 -0.273281 1.220892 0.526842 1.028448 0.572408 -0.522669
damn 0.023449 0.897325 -0.666227 0.005529 0.528792 -0.135857 1.122678 -0.452888 0.981391 0.217531 0.433906 -0.342195 -0.479677 -0.315477 0.142770 0.539330 0.121165 -0.932386 -0.042438 0.277500 0.375613 0.430833 -0.819644 -0.355671 0.427918 0.289137 0.474483 -0.265064 0.723935 0.761176 -0.239891 -0.071490 0.677258 0.107055 1.019871 -0.405417 -0.416037 0.577633 -0.389046 -0.412423 -0.133647 -0.292476 0.668680 -0.551098 0.560718 -0.336205 0.099677 0.328531 1.606605 -1.740640
turn -0.257700 -0.628026 -0.199555 -1.273949 -1.212786 -1.013111 0.749796 -1.387168 -1.252448 -0.446622 -1.329314 0.285454 0.018429 0.194031 -0.478187 0.121480 0.647282 -0.991915 0.730569 -0.177490 -0.228442 -0.126846 -0.579601 0.571480 1.160661 -0.348182 0.741214 -0.985687 0.032979 -0.074534 -0.497302 0.678610 0.577181 0.340833 0.301023 -0.874573 -0.076820 1.184219 -1.032260 -0.099432 -0.071277 -0.002086 0.641052 0.569231 0.681198 0.287407 -0.282855 -0.082474 0.733615 -0.157814
sound 0.519079 0.193079 -1.727458 0.537693 -1.036106 0.111126 -0.065390 -1.045393 -0.157181 -0.381766 -0.070078 0.418261 -0.853013 -0.590593 -0.978146 0.021196 -0.383957 -0.115948 0.376508 -0.984778 -0.184643 1.045949 -0.589748 -0.834631 0.043098 1.753756 -0.149808 -0.064293 0.759218 0.423433 -0.534151 0.101693 0.415012 -0.404430 0.739038 -0.148158 0.776041 1.484953 -0.468105 -1.011261 0.697882 0.372443 0.139864 0.225242 0.622675 0.991531 0.143728 -0.689580 1.265430 0.307440
thing 0.281875 0.895978 -0.172175 0.995518 -0.130742 -0.428564 1.087204 -1.704348 -0.268102 -0.009448 0.102698 -0.055269 -1.105345 -0.170096 -0.067550 -0.042268 0.496875 -0.644608 0.511170 -0.061915 -0.058271 0.192278 0.308434 0.803946 -0.047818 0.483829 0.731390 -0.740686 0.484576 0.778035 -0.399750 0.510909 0.602498 0.263783 0.490318 -0.891624 0.617059 0.309408 0.465586 -0.565717 -1.398579 -0.297880 0.666412 -0.556796 -0.240935 0.301808 -0.394012 0.688627 1.600093 -1.176470
leave 0.353819 -0.269783 -0.005659 -1.140263 -0.500187 -0.508490 0.407254 -0.961067 -0.446902 0.007127 -1.241699 0.936846 -0.885120 0.158566 -0.010862 0.353506 0.713955 0.164586 -0.508183 0.165802 0.654051 0.027902 -0.453771 0.668930 0.888260 -0.779597 0.518664 -0.477928 -0.022119 -0.111382 -0.554696 1.054529 -0.020922 0.120360 0.963824 -0.840168 -0.551126 0.331725 -0.888720 0.167829 -0.273709 -0.366223 0.350088 0.298401 1.000238 0.769979 -0.210575 0.385939 0.561287 0.323395
o 0.843993 -0.405879 -0.417048 -0.704775 -0.889373 0.173106 0.188427 -0.701657 1.130105 -0.283200 -0.701568 -0.622143 -0.331180 0.282259 -0.373880 -0.213088 0.983193 -0.083997 0.476936 -0.747465 0.195912 0.118528 1.328579 -1.009780 0.924733 0.087189 0.932206 -1.052900 0.279261 -0.098155 0.110973 -1.239054 0.292134 1.006373 -0.159829 1.863337 0.815388 0.847992 -0.173536 -0.695068 -0.286984 -0.752949 -0.456287 0.216686 -0.360982 -0.555325 -0.479936 1.863713 0.399576 -0.480424
bad 1.084077 0.699295 -0.139583 -0.755516 0.456568 0.391077 -0.444532 -0.649749 -0.665598 -0.553167 -0.288491 0.876522 -0.089243 -1.918545 -0.463002 -0.164659 -0.184213 -0.722351 0.925458 0.206945 0.584637 -0.441123 -0.215886 -0.603854 0.996794 0.376080 -1.115579 -0.079321 -0.110843 0.598815 0.783578 -0.121683 -0.151079 -0.470124 0.806211 0.398684 -0.958308 0.790649 -0.421270 -0.766798 -0.809082 -0.749918 -0.011567 -0.160178 0.855930 0.083244 0.314953 0.301311 0.876298 0.714969
girls 1.338540 0.437849 0.883273 0.328188 0.782717 0.392301 1.128808 -0.144591 -0.288704 -0.936025 -0.693894 0.921980 -0.685019 0.217032 0.242002 0.155848 0.626319 0.688810 -0.535950 -0.356579 1.409434 0.020261 -0.611400 -0.232395 0.358540 0.461116 0.123691 -0.268080 0.259741 -0.936274 -0.632050 -0.761645 -0.730048 0.267981 0.603533 -1.037006 0.414053 1.927032 -0.312959 -0.840948 -0.796237 0.679545 -0.410362 -0.503247 -0.186406 0.364104 0.622300 0.896332 0.062638 -0.224719
brother 0.915543 0.471132 -0.382157 -0.665100 0.993804 -0.605036 0.204607 0.034128 -0.246705 0.008287 -1.227238 0.312167 -0.779671 -0.844851 -0.027103 -0.562756 1.254963 -1.177779 -0.499377 0.273417 0.377576 -0.138077 -0.379250 -0.094056 0.766234 0.179226 0.012098 0.357986 0.374299 0.027985 -0.411707 0.154991 -0.101441 -0.543499 1.290240 0.649051 0.179170 0.337390 -0.742889 0.244488 -0.146665 -0.792519 0.287412 -0.415084 0.540204 -0.069147 0.101739 0.466625 0.214580 -0.212128
rhyme 1.858778 0.077551 -0.322471 -0.385174 -0.352270 -0.606055 -1.378080 -0.392191 0.232786 0.554292 0.086394 -0.475862 -0.577396 -0.749776 0.006805 -0.446480 -0.281358 -0.478230 -1.086836 -0.345936 0.014188 0.029307 -1.168863 -0.687926 0.287577 0.296293 0.287172 -0.900668 -0.251954 1.529127 0.222774 -1.670736 0.266114 0.826429 0.907733 0.663612 0.086033 0.651830 0.305056 -0.303240 0.014030 0.190248 0.226884 -0.001224 1.130297 -0.131393 0.097205 0.098027 0.969586 -0.374289
straight 0.816287 0.661156 -0.439304 -0.679471 0.461481 0.280040 -0.254363 0.752089 -0.391285 -0.859757 -0.894980 -0.135671 -0.539767 -0.555124 0.818649 0.462617 -0.511124 0.056148 0.067601 -0.051312 0.366981 0.917361 -0.088962 -0.131688 0.670111 -0.010481 0.827754 -0.874715 -0.034754 0.367542 -0.336174 0.484967 0.585252 0.023605 -0.045155 -0.431231 -0.561008 -0.539657 0.349647 -0.130828 -0.484403 0.041015 0.026215 0.692301 0.125689 -0.623357 -0.348784 0.460429 1.287005 -0.944491
face -0.306468 0.109366 -0.368794 -0.361642 -0.416442 -0.058814 -0.458188 -1.010711 -0.108033 0.588234 -1.338300 0.205095 -0.355552 -0.431977 0.493965 0.259846 0.420063 -0.776223 -1.635326 0.745366 -0.125365 -0.050735 -1.189343 0.259198 0.258274 0.203887 -0.421258 -0.397076 0.657273 0.766590 -0.391355 0.303470 -0.230651 0.356365 0.289589 0.005137 -1.261242 0.092689 0.043887 -0.994676 -0.704263 0.056930 -0.161030 0.538436 0.791316 -0.477250 -0.193259 0.611398 0.887991 -0.540197
work -0.298916 1.424149 0.423232 0.120647 0.079142 -0.345417 0.283148 -0.564573 -1.356952 -0.463900 -0.125925 0.221548 -0.487576 0.840702 0.821954 -0.594085 0.704769 -0.114248 -0.045794 -0.367326 -0.356365 0.645066 -0.040812 0.075214 1.927233 0.262667 1.025161 -0.457845 -0.811277 0.387812 0.162827 1.187080 -0.580669 0.475471 -0.354704 -0.466832 0.309609 0.558447 1.107700 -0.306278 1.380181 0.166236 -1.997628 0.246951 -0.217124 0.316455 -0.873768 -0.174256 1.140207 -0.352806
jump 0.622483 0.090340 -1.541856 0.863862 -0.743474 0.361162 -0.579131 -0.304838 -1.283037 0.427452 0.373049 1.144633 0.356530 0.656266 -0.619908 -0.074693 1.088129 -0.558890 -0.956009 -0.861050 1.021578 -0.430131 0.682152 -0.559597 0.642464 -0.906098 -1.074689 -0.371933 -0.256696 -0.489396 -0.262576 0.299502 0.884563 1.373412 -1.038648 0.236622 0.743166 0.326829 0.313557 -0.284181 -0.136081 0.355699 0.527152 0.249327 1.378054 0.206540 0.186689 0.983917 0.822566 0.358005
left -0.087091 -0.272570 0.122291 0.017002 -1.052644 -1.204701 0.598652 0.003805 -0.021352 -0.287163 0.932594 -0.054437 -1.595524 -0.121632 -0.105488 -0.476571 0.326603 -0.773168 -0.389550 -0.239896 0.862710 1.069520 -0.396399 0.395172 0.172606 0.458220 0.720772 -0.212195 0.130762 2.005527 -1.138811 0.543774 0.569393 0.047602 0.628301 0.282631 0.534259 0.330107 0.282283 -0.888312 -0.991378 -0.025460 -0.647204 0.710813 0.423548 -0.876089 -1.162001 0.402119 -0.161796 0.747696
hot 0.646778 1.103659 -0.161877 -1.108630 0.134760 -0.447723 2.092630 -0.380676 -0.007038 -0.609660 0.149888 -0.011152 0.155524 -1.610379 0.462692 1.130438 0.066062 -0.400991 0.145362 0.427971 0.190463 0.224736 -0.653685 -1.176637 1.418811 -0.122310 -0.143946 -0.405887 -0.495616 -0.496787 -0.335304 -0.341091 0.271225 0.430237 0.112942 -0.059568 -0.774147 0.371647 0.007518 -0.033098 -0.541287 0.506535 0.687702 -0.329996 1.448411 0.812605 0.788335 0.731229 0.764826 -0.310944
stay 0.761279 0.713980 -0.459295 -0.174276 0.524153 -0.427974 0.387028 -0.485862 -0.722285 -0.508562 -0.617827 -0.348876 -0.901775 -0.065874 0.828723 -0.874362 -0.656169 -0.921311 -0.204885 -0.303672 0.165979 0.464810 -0.638613 0.075487 0.791510 0.271895 -0.762940 -0.978616 -0.060503 -0.070803 -1.022020 0.118619 0.165141 -0.753304 1.156944 -0.324809 0.314851 -0.570602 -0.080380 -0.923006 0.223332 -0.104136 -0.515631 0.025274 -0.358883 0.692346 -0.825694 0.491425 0.596124 0.509153
away 1.140066 -0.776143 0.352937 0.332429 -0.746542 -0.216689 1.397041 0.352088 -1.531677 0.345025 0.666836 -0.339499 -1.257675 -0.264774 0.248028 -0.517582 -0.458167 -1.454044 -0.608365 -0.111904 1.024104 -1.280469 -0.857536 0.065382 1.055272 -0.279581 0.555321 -1.060796 -0.157732 -0.094740 -0.626767 0.998270 0.057527 0.566920 0.441770 -0.240613 0.781154 0.416839 -1.069410 -1.016892 0.240037 1.173553 -0.601379 0.318218 0.841552 -0.505098 0.022665 1.086224 0.445487 0.151062
smoke -0.328860 -0.592903 -1.208967 0.481153 -0.259980 -0.225435 0.675358 0.295657 -0.554006 -0.130515 -0.824068 -1.228346 -0.082716 0.444816 0.022695 -0.715838 0.039428 0.212963 -1.377228 -0.619686 0.194773 0.026686 -0.169567 -1.130857 1.585691 0.274673 0.104608 -0.694819 -0.981902 -0.293821 -1.031805 0.369206 0.244289 0.079738 0.448504 0.303589 -0.471369 0.490443 -0.572801 -0.398466 -1.341890 -1.493139 0.861159 0.040459 -0.005375 0.489779 0.275600 -0.794785 0.768863 1.443773
drop -0.394373 1.183454 -0.344068 -1.136437 -0.739402 -0.405884 -0.220549 -0.922676 0.183224 -0.055173 -0.784969 -0.097779 0.819423 -1.270624 0.154439 0.522610 0.075499 -0.204972 -0.316947 -0.438904 0.485320 0.583216 -0.130418 -0.169243 1.126010 0.536756 0.204515 -0.651055 0.167713 0.553023 -1.509985 -0.764647 -0.181922 0.803396 -0.016268 -0.217790 -1.282026 0.674779 0.647230 -0.097022 0.124502 -0.159803 -0.469418 -0.186209 0.579394 0.131774 -0.265198 -0.009444 0.868063 -0.263220
house -0.168643 -0.167818 -0.365589 -0.496514 -0.545391 0.521485 -0.060870 0.092518 1.085416 -0.423435 -0.442033 -0.233586 -0.052854 -0.751719 0.071198 0.557394 1.561981 -0.061996 0.009403 0.073244 1.044588 0.081944 -0.610372 -0.553998 0.561214 0.669763 -0.271997 -1.312363 1.192596 0.355133 -0.734109 1.006751 -0.136784 1.287184 -0.260316 0.766552 -0.282627 0.688885 -1.024267 0.154298 -0.082541 -0.422886 0.174324 1.487025 0.043180 0.309895 -0.978622 0.094763 0.658499 -0.057484
ho 0.607086 -1.237727 0.100626 -0.276417 -0.066633 -0.422908 0.087445 0.194478 -0.719293 0.811555 0.067524 1.239390 -0.649425 0.058909 -0.771982 0.170264 1.775722 -0.166378 0.342540 0.166895 1.120664 1.143605 -0.186562 -0.732979 0.578789 0.641624 0.503648 -0.791724 0.377782 0.690710 -0.254621 -0.319801 0.347457 -0.513302 -0.162149 1.396644 -0.723688 0.117185 0.394882 -0.845634 0.556488 -0.321505 0.264345 0.165014 0.483469 0.842631 1.150242 -0.142543 1.793633 -0.833972
step 0.980692 0.371191 -0.431699 0.099503 -0.058164 -0.055624 -0.337518 -0.158876 -0.189344 -0.556305 -0.896786 0.620578 -0.554504 0.204674 0.611621 1.204115 0.364883 -0.236767 -0.015054 -0.126679 0.281590 0.595825 0.141047 -0.180765 0.115161 -0.233081 0.576588 -1.101268 -1.288963 0.986343 -0.735339 0.581805 -0.351203 1.011203 0.447495 -0.701473 0.469716 0.842164 -1.039068 -0.377873 -0.150106 -0.229290 -0.504427 -0.055362 0.977114 0.136113 -0.055550 0.170045 0.329724 -0.250351
buck 0.199347 -0.092359 -1.656014 -0.054292 0.287429 1.806249 -0.131932 0.154518 -0.226961 0.989393 -0.369018 -0.668742 -0.057224 -0.308486 -0.256172 0.229148 1.900016 0.652014 -0.210385 0.219591 -1.264296 -0.012059 0.020308 -0.326392 0.068070 -0.384422 -0.269256 -0.684599 -1.198957 1.483898 -0.682137 1.281193 -1.400836 0.134581 -0.069274 0.910646 0.263319 -0.748239 -0.289301 -1.674306 -0.804829 -0.522585 -0.562070 0.695297 -0.992537 0.082065 -0.289749 0.876998 0.138230 0.334896
bust 1.299953 -0.062085 -1.475201 -1.093948 -0.704162 -0.595611 -0.867394 -0.612243 -0.842632 -0.083541 -0.149372 -0.292273 -0.602425 -1.370547 -0.315656 -0.237966 -0.654500 0.389239 0.616001 -0.091870 -0.204380 1.005993 -0.899378 -0.221120 0.315724 -0.177320 0.023903 0.006565 0.014077 0.954161 -0.762314 0.334728 -0.451525 0.121011 0.247655 -0.894732 -0.149191 0.871384 0.267473 -0.873795 -0.137534 0.001836 0.137009 0.536044 0.430583 -0.416797 0.355149 0.535194 0.108952 -0.088649
gangsta 1.075177 -0.711114 -0.348500 -0.854360 2.170622 0.743724 0.318949 -0.290106 0.673730 -0.132117 0.493267 0.676580 -0.221017 0.009927 0.057337 -0.166960 -0.123526 -0.890198 0.948713 -0.531415 1.381416 -0.594829 -1.045086 0.223066 0.989583 0.453200 1.342234 0.294061 0.775089 0.272032 -0.141274 0.353992 0.498976 -0.987002 -1.253529 -0.777396 -0.435138 0.803364 0.126274 -1.440915 0.223686 -1.421917 2.147015 0.201897 0.847366 -1.310456 0.535997 -0.113611 0.818040 -0.702095
crazy 0.259907 1.618700 0.325788 -0.059102 0.140492 -0.469573 -0.249447 -1.021669 -1.051471 -0.724430 0.224052 -0.549990 -0.100211 -0.816158 0.232129 1.034142 0.148161 -0.674453 0.257523 0.752349 -0.292415 -0.447575 0.574686 0.361545 1.056340 0.525316 1.548869 -1.011217 -0.462503 0.250297 0.775360 0.731926 -0.372834 0.311520 -0.405089 0.286819 0.702858 0.072720 -0.185618 -0.121672 0.121438 -0.582254 0.480935 -0.472622 0.684547 -1.105424 -0.247145 -0.062231 1.452411 0.031769
kid 0.268283 0.580687 -0.572236 -0.600453 -0.118374 -0.163791 -0.628302 1.069384 -0.805777 -0.507473 -0.725357 -0.588356 -0.582515 0.131989 0.670975 0.865879 0.118985 -0.750039 0.333147 0.872834 -0.528619 0.235056 -0.704332 -0.549783 0.252525 -0.376772 0.340076 -0.392086 -1.147481 0.316481 -0.456756 0.632974 0.118447 -0.050027 0.498097 -0.488669 0.525500 0.885926 -0.806799 -0.417082 -0.019412 -0.861214 0.366683 0.356356 1.011694 0.076277 -0.169798 0.719561 0.757803 -0.176951
home 0.106626 1.279499 0.581245 -0.533817 -0.106273 -1.151045 0.852210 0.827047 -0.465247 -0.378996 -1.366044 0.087730 -0.840881 -0.066928 0.246658 0.000969 0.793890 -0.126182 0.079849 -0.192872 0.902688 -0.070012 -0.091124 -0.147208 0.518601 0.676345 -0.322564 -1.190780 0.632275 0.302318 -0.025887 0.609507 -0.415095 0.836612 0.813096 0.031604 0.310853 0.185882 -0.256844 0.166378 -0.159627 0.166815 -0.655631 0.047339 0.543492 -0.945231 -0.151466 0.672803 0.672857 0.246571
bone -0.012252 0.917176 0.981452 -0.678793 0.835534 -0.282954 -0.549583 -0.408071 0.276313 -0.438419 -0.337189 0.903990 0.726287 -0.474486 -0.322495 -0.876170 -0.425781 0.954706 -0.553566 -0.788001 0.829415 0.226016 -0.390468 -1.156175 0.845022 -0.413960 0.246604 -1.530605 0.945448 0.417545 -0.199192 2.146087 -0.796436 1.558454 0.579916 0.577668 0.212746 -1.699753 -1.543572 -0.577034 -0.130966 -1.288860 0.569049 0.335620 -0.360852 0.549105 -0.127151 -0.392059 -0.279993 0.273110
legit 0.409707 -0.379035 -0.882469 1.003164 -0.212551 0.602959 -1.263633 0.674877 -0.822369 0.428322 -1.226962 0.872174 0.876589 0.018889 0.832824 -0.194797 1.967203 0.388150 -0.115015 -0.151900 -0.259996 -0.570791 -0.717420 0.163954 1.356845 -0.514676 0.355613 -1.079274 -0.707785 1.654524 0.175308 0.235261 0.089111 -1.704979 -1.154250 0.262482 1.424657 0.507127 -0.212728 -0.508454 -1.499333 0.890608 -0.051398 -0.058915 -1.155550 0.160075 0.943856 -0.946513 0.585212 -0.724593
start 0.589307 -0.170705 -0.330350 -0.488916 -0.698945 -0.254231 -0.051011 -0.080791 -0.680153 0.149729 -1.090939 0.175330 -0.727737 -0.137280 -0.215842 0.232289 0.725531 0.307334 -0.364112 -0.160263 -0.208221 0.904956 -0.483500 0.867122 1.328600 -0.043253 0.639708 -0.096366 -0.168810 -0.127540 -0.633681 0.565445 0.335520 -0.217290 1.294308 -0.652086 -0.238091 0.816950 -1.100865 0.270621 0.011413 -0.806458 0.369178 0.503151 0.381259 -0.152335 -0.367299 0.166274 0.048913 -0.203512
bitches 0.645905 -0.182634 -0.204848 -0.331718 0.372696 -0.089503 -0.114696 0.025836 -0.005036 -0.230001 -0.634760 -0.035525 -0.832678 0.156848 -0.648123 0.713675 0.893483 -0.618481 0.153481 0.399594 0.637197 -0.298983 -0.106442 0.768362 0.762001 0.150466 -0.811762 -0.333338 0.691342 -0.950723 0.227527 0.807859 -0.133226 -0.291339 0.060527 0.081383 -0.864959 0.737423 1.164561 -1.069697 -0.284332 -0.518969 0.357465 -0.346861 0.259786 -0.182815 0.734775 -0.047651 2.161071 1.130423
things -0.117778 1.438800 -0.292472 0.356116 -0.417440 0.083905 -0.222509 -0.440262 -1.341293 -0.548420 0.051350 -0.211262 -0.512009 -1.401960 0.094300 0.165785 -0.707061 -0.359762 0.674272 0.720599 0.217446 -0.178544 -0.682671 0.145794 0.033569 0.632003 0.476564 0.464331 0.125082 0.304987 -0.002777 -0.399454 1.254229 -0.663410 0.863370 0.788792 0.255003 -0.040278 -0.740918 -0.813109 -1.261451 -1.340332 0.231452 -0.960758 0.077024 -0.260057 -0.133181 1.035133 1.183612 -0.428471
comes -0.436344 1.113635 0.124779 -0.115108 -0.406975 -0.480498 -0.071212 -0.600120 0.242263 0.013736 -1.431503 -0.534524 0.217042 -1.546838 -0.532062 0.292996 0.231249 0.473469 -0.140772 -0.991042 0.733932 0.778668 -0.453045 -0.337933 -0.718684 1.424019 0.828483 0.323124 -1.102001 0.469517 -0.105029 0.735993 0.015292 0.553142 0.317444 0.615292 0.267075 -0.524876 0.794550 -0.830844 0.513829 -0.107712 0.965655 0.218229 0.443245 0.218394 -0.617209 -0.123787 2.129641 -0.466532
choo -0.510457 0.443333 -0.948178 -0.463192 -1.211528 -0.223262 -0.017269 -0.404303 -0.424764 -1.456178 0.057226 1.166106 -0.944163 -0.085080 -0.402426 -0.093663 -1.129657 -0.190689 0.789370 -1.354770 0.003213 -1.287541 0.326430 0.142429 -0.094874 0.194621 -0.914738 -0.910074 0.106830 -0.197303 -1.515137 -0.017698 0.895264 0.344558 0.516942 0.295108 -1.193690 0.586465 -0.625912 0.920356 -0.179559 1.299519 -0.225901 -0.564208 -1.940214 -0.299127 1.373680 0.203254 -0.036615 0.510470
crew 0.822621 0.152293 -0.963470 -0.435182 -0.027468 0.197600 0.165418 0.097994 -0.238090 -0.319365 -0.514178 -0.117125 0.217955 -0.389060 1.073252 -0.441210 1.227106 0.348619 0.588219 -0.131525 -0.370712 0.547862 -0.543134 -0.698144 0.274560 -0.042632 -0.076647 -0.203610 -0.325090 1.158065 -0.810115 0.149357 0.713367 0.313046 0.073736 -0.325053 -0.698212 -0.017063 -1.175364 -0.061506 -0.063142 -0.335304 -0.584513 0.393842 0.081090 0.106183 -0.309519 0.600952 0.971191 1.072269
true 0.689491 -0.665152 -0.131597 -0.114294 0.168364 0.071806 0.890945 -1.325635 -1.598027 -0.780178 -0.236624 -0.892165 0.890811 -0.908360 0.263966 -0.664978 0.908777 -1.238992 0.875159 -0.365332 0.482055 -0.037255 -0.137209 -0.127877 0.145803 0.020753 -0.422943 0.231009 1.112629 0.598914 -0.469912 0.963364 -0.236773 0.437955 1.077623 -0.099688 -0.262071 0.294584 0.241734 -0.197949 0.930108 -0.123372 -1.721748 -0.056886 -0.806350 0.015099 -1.113135 0.830108 1.059581 -0.239699
kill -0.489730 1.465339 -0.829018 -0.015634 -0.948666 -0.045181 1.372527 0.238275 0.581382 0.088379 -0.457828 0.311846 -0.121415 -1.072075 0.270599 0.425697 -0.139767 -0.135660 0.112094 -0.629593 -0.289364 0.241916 0.213618 -0.255750 0.591746 0.162344 -0.561565 0.167048 -1.227670 0.812605 -0.307344 0.432162 -0.199875 -1.052555 1.121104 0.202558 -0.203367 0.870166 -0.493371 -1.324618 1.272269 -0.497904 0.215100 -0.417390 0.177809 -0.258155 -0.093495 1.772041 0.384663 0.120675
streets 1.090746 0.909192 -1.206742 -0.380814 0.017897 0.300988 0.898387 0.924671 0.255742 -0.786631 -0.878400 0.603623 -0.759051 -1.117676 -0.042069 -0.089802 -0.753710 -0.430128 0.145256 0.230167 0.009799 0.097622 -0.991621 -0.289847 0.752775 -0.158368 1.162757 -0.219452 0.837654 -0.049269 -0.786145 1.166021 -0.165860 -0.251220 0.435785 -0.495224 1.421734 -0.127388 0.387043 -0.672732 -0.700028 0.384423 -0.417867 1.318332 0.090642 -0.521816 -0.113036 0.566806 0.545011 0.917034
music 0.194705 -0.016626 0.162878 -0.975206 -1.104224 -0.836765 0.014667 -1.447790 -0.812419 -0.369218 -0.084531 -0.168319 0.753243 0.011916 -0.554630 -1.204512 0.335390 -0.855774 0.970102 -0.956765 -0.360777 -0.312494 -0.378102 0.239343 0.683949 0.863439 0.234119 -0.513113 -0.013240 -0.586041 -0.479729 -0.661755 -0.274935 -0.086431 -0.257213 -1.455971 1.155027 0.931552 -0.963711 0.639966 -0.679588 0.165856 1.669983 -0.071913 -0.543237 0.751937 -1.065407 -0.379266 1.391889 -0.631198
dick -0.644134 -0.677447 -0.487944 0.166821 1.179634 -0.153375 0.219105 -0.845237 0.177559 -0.088616 0.460104 0.060339 -0.874191 -0.410743 -1.127224 1.793839 0.164732 -0.077127 0.176956 1.390706 0.580963 0.226334 -0.783230 0.848120 0.936190 0.134979 -0.246908 -1.050179 -0.136601 0.878114 0.203959 -0.221576 -0.348798 0.578645 -0.318190 0.537463 -0.747521 0.782070 1.074822 -0.754253 -0.288492 -0.504627 0.636994 1.117069 -0.417931 -0.135344 0.859603 0.201146 1.113236 0.182854
song 1.825478 0.272864 1.571018 0.363593 -0.944856 0.743926 0.433803 -1.115689 0.155447 -0.973332 -0.158347 -0.840934 0.970764 -0.261739 -0.630542 0.080607 0.934628 -0.920118 -0.132965 -0.334987 1.331998 0.709980 -0.318572 0.207399 -0.016989 0.339508 -0.219087 -1.925009 -0.584397 0.065917 0.435920 0.157021 1.001524 -0.380993 0.292739 -0.225937 1.800276 1.562311 -0.162916 0.268434 -0.373796 0.031763 0.042722 0.596683 0.254694 -0.622140 1.155591 0.144279 0.624884 -0.225292
funk 0.053312 0.417848 -1.082468 -0.148686 0.761194 -0.349079 -0.726581 0.034044 -0.201567 -0.570372 -0.519485 0.517986 0.289485 -0.751936 -0.509255 -0.633763 0.149438 -0.854795 0.809065 -1.787729 0.524764 0.064625 0.584716 -0.179668 1.244300 -0.486696 0.242489 -0.567338 -0.806728 -0.065541 -0.624369 -0.341209 0.003243 0.696767 0.280876 -0.372738 0.416671 0.425692 0.759667 0.946982 -1.019217 0.136459 0.771485 0.933857 0.497698 0.231652 -0.874298 -0.429475 0.951849 -0.628168
eyes -0.057550 0.162214 0.790813 -0.043311 -0.683648 0.448843 -0.354763 0.132903 -0.069274 -0.595080 -0.867756 -0.235046 -0.158367 -0.296223 1.376959 -1.211403 -0.161781 -0.561938 -0.321494 0.007571 0.300040 0.560100 -1.184091 0.568165 0.915675 -0.657131 -0.007454 -0.439896 -1.348099 0.123494 -1.009484 -0.344831 -0.068134 -0.404469 -0.232168 -0.278361 -0.441319 0.062113 -0.849762 -1.395156 -0.612735 -0.167128 0.434086 -0.255904 -0.445887 0.048103 -0.403985 -0.645556 1.359021 -0.489444
came 0.179069 0.282073 0.326848 -0.592671 -0.567298 -0.153796 0.503195 0.816262 0.067767 0.337376 -0.143250 -0.312786 -0.987237 -0.059174 0.666523 0.398245 0.981103 -0.612598 -0.262218 -0.698679 0.599031 -0.409208 -0.165726 -0.220171 0.627752 -0.136293 -0.112752 -1.307328 0.297420 1.201398 -0.386863 -0.315338 -0.007294 0.059891 0.450427 0.466345 0.378280 -0.716806 -0.595845 -0.864733 -0.037428 0.199489 0.460083 0.839959 0.041842 -0.020647 -0.334217 0.338290 0.541494 -0.498939
believe 1.368086 0.228435 0.799417 0.338642 -0.025161 0.490360 -0.543984 -1.097708 0.749696 0.013646 0.133567 -0.850079 -0.114235 -0.203292 -0.068302 0.776033 -0.200356 0.157787 -1.202924 0.215362 0.640068 0.308218 -0.793802 -0.179895 0.868422 -0.535278 -0.163412 -0.675439 0.011699 -0.557174 -0.088209 0.355366 0.177112 0.413390 1.704651 -0.511348 0.631229 0.314311 -0.869587 -0.701465 0.717197 -0.579051 -0.283305 -0.207305 -0.258924 0.842383 -0.112008 0.508686 1.778030 -0.005013
dat 0.416950 0.019225 -0.923364 0.558671 -0.231728 0.672381 0.223541 -0.540125 -0.504420 -0.528914 -0.374610 -0.091438 0.672151 -0.718400 -0.690686 -0.388916 1.083395 -0.113199 0.962554 -0.535719 0.316133 0.086714 0.343502 -0.135702 1.145737 0.911934 0.749807 -0.041953 0.675925 -0.038136 -0.127488 2.338941 -0.259028 0.460551 0.415293 0.103436 -1.019456 1.421294 0.946472 1.025190 0.086171 0.465709 -1.434774 0.025383 -0.535345 -0.139263 -1.189147 0.559035 0.671615 1.015465
rhymes 0.967009 -0.096265 -0.980093 -0.482912 0.768431 -0.913656 -1.167923 -0.725742 -0.210199 0.139254 -1.164231 -0.900288 -0.257400 -1.364836 -0.131047 -0.397620 0.472338 0.391844 -0.261690 -0.423151 -0.372947 0.179999 -0.186881 -0.566122 0.411217 0.035492 0.533790 -0.362533 -0.392267 0.579644 -0.795907 -0.682207 0.089684 0.699624 0.602873 -0.005137 0.385513 1.009463 0.282579 -0.186001 0.348820 0.197533 -0.271243 0.253506 0.503325 -0.144443 -0.131709 -0.027169 0.273309 -0.033770
mama -0.666467 0.814671 -0.237797 -0.411311 -0.934733 -1.125902 0.910522 0.679504 -0.174173 -0.405799 -0.813165 -0.689449 -0.240841 -1.316855 0.378084 -0.700175 0.550921 0.281178 -0.922861 0.868598 1.185347 0.302366 -0.222553 -0.399852 0.710014 1.293058 0.284132 0.874247 -0.343619 0.704890 1.053668 0.882823 -0.564453 -0.587855 -1.174425 -0.067176 0.858728 0.632275 -0.469177 -0.260957 -0.187565 -0.700059 0.089934 -0.140983 0.375876 1.118674 0.673601 1.404297 0.368241 -0.366019
em -0.458101 -0.476988 -0.499925 -1.712666 0.542348 0.433425 -0.721805 -0.235615 0.689257 1.084482 -0.057017 0.903009 -0.323449 -1.368464 1.098038 0.201781 0.217199 1.206870 -0.603717 0.409285 1.084234 1.609871 0.559464 -0.010327 0.759035 -0.011939 -0.334597 -0.689887 -0.601874 0.347085 -0.401585 -0.344794 0.780538 -0.343452 0.974386 0.133038 0.298192 0.277631 0.283241 -0.281494 0.131096 0.064343 -0.583633 -0.013237 0.114801 -0.466774 -0.307769 1.245864 0.513976 -0.107489
freak 0.940831 1.451829 -0.871543 -0.453842 0.073495 -0.268711 0.152163 0.048316 -0.284929 -0.557927 0.415428 0.706370 -0.004557 1.207036 -1.270913 -0.163692 0.291513 -0.289372 0.446535 -0.593729 0.608205 0.980344 -0.098891 -0.159863 1.687610 0.036779 0.154909 -0.078563 -0.645620 0.461573 1.148242 0.222175 0.599661 0.364361 -0.822283 0.543694 0.343646 -0.052308 1.674431 0.418671 -1.105082 0.992135 -0.329532 -1.543850 0.310138 -0.055620 0.270278 0.235424 1.782341 -0.566535
block 0.385361 0.515059 -0.625216 -0.210186 -0.403531 0.409748 0.648893 0.461720 0.585954 0.716646 0.086113 -0.392388 -0.144565 0.035525 0.719172 0.516556 0.784410 -0.489043 -0.808036 0.125057 0.133151 0.765656 0.171388 0.492889 1.543406 -0.168960 0.291483 -1.319955 0.431810 -1.654341 -0.748642 0.598190 0.069620 -0.042589 0.845986 -0.221710 -0.440316 0.010085 -0.107125 -0.543461 -0.339680 -0.307993 -0.349716 0.082481 0.649045 1.221617 -0.309940 1.287896 0.340082 0.040203
pop 0.197094 0.359378 -0.021796 -0.926443 -1.273828 -0.980735 0.148815 0.722414 0.006853 -0.286049 0.146878 0.100284 1.869842 -0.160020 0.183579 -0.025416 0.037763 0.619844 -0.542934 -0.599302 0.056513 -0.036231 0.093411 0.107342 0.756516 -0.291318 0.884454 -2.097287 0.631540 1.221457 -1.166375 0.243588 -0.515092 0.180362 0.449653 -0.471382 -0.243532 -0.330531 1.088557 -0.443842 -0.538890 -0.103180 0.278776 -0.630288 0.468770 1.238285 0.507730 1.133658 0.782690 -0.155172
wit 0.352508 0.414745 -0.122156 -1.464635 0.469667 0.096488 0.580929 -0.105411 0.077305 -0.668787 -1.121295 0.451380 0.266962 0.168448 0.460826 0.025224 0.086980 -0.289102 -1.113103 0.635155 0.466296 -0.412278 0.729035 -1.670904 0.336743 -0.726815 -0.178505 -0.468337 -0.431122 0.332843 -0.108255 1.225162 -0.339843 0.517620 0.445833 0.114188 0.249050 -0.008892 1.105414 -0.348172 -0.205262 -1.072413 -0.037497 0.112503 -0.586581 -0.071137 0.142410 -0.525775 2.144683 0.181901
hand -0.262183 1.133173 0.582079 -0.539910 -0.181602 -0.205513 -0.326896 -0.429905 0.124832 0.261573 0.321868 0.286866 0.313792 -0.394733 -0.233275 0.000751 1.472427 -1.315815 -0.069604 0.230781 -0.141447 0.272041 -0.512776 0.113753 0.949321 0.134535 0.786568 -0.112898 0.141789 0.966556 -1.235264 0.308230 0.807464 0.445363 0.879504 0.941269 -0.415930 -0.065431 0.827997 -0.901559 -1.054123 -0.513997 0.415975 -0.833798 1.475921 -0.087526 0.120692 1.570898 -0.823162 0.053434
listen 0.509305 0.123268 -0.221656 0.303524 -0.581317 0.090838 -0.553115 -0.389518 -0.675826 -0.047488 -0.459752 -0.081579 0.108221 -0.652678 -1.049984 -0.250098 0.057394 0.030050 0.067590 -0.151480 0.125925 1.238283 -0.826793 -0.295057 1.482737 0.257762 0.819509 -0.437082 0.173640 0.354623 -0.141236 -0.535886 0.496577 0.164572 0.083183 0.349435 -0.185667 0.587491 -1.104257 -0.335309 0.376877 -0.720617 -0.695109 0.017219 0.540013 0.621597 -0.526671 -0.254624 1.241557 0.567454
place -0.585183 1.680903 -0.428308 0.491908 -0.202311 0.390072 0.430479 -1.182219 -0.204928 0.321764 -1.296751 0.115489 -0.883456 -0.399933 0.615902 0.794798 0.686102 -0.519524 -0.392566 1.028510 0.260942 0.044986 -1.189010 0.045930 0.320663 0.411306 -0.121801 -0.217261 0.448818 0.361489 0.064688 0.361728 0.071912 1.195766 0.617837 0.110281 0.523412 0.493215 -0.554027 -1.254861 0.159813 -0.175572 0.233307 0.080743 0.282158 0.390888 -0.457229 0.935985 -0.531182 -0.339090
touch 1.178616 -0.207705 -0.288774 -1.104018 -0.572744 -0.352638 -0.039480 -1.075934 -0.306097 -1.513250 -1.079591 0.742052 -0.146428 0.176936 0.259017 -0.245357 0.215829 -1.024791 -0.800033 -0.079678 0.311296 0.367363 -1.408262 1.373222 1.353390 -0.214943 0.092794 0.262669 -0.442217 0.506096 0.676072 -0.052174 -0.519793 0.483510 1.557023 -0.853890 -0.637227 0.828495 -0.493938 0.462027 -0.028889 0.745613 0.674108 0.685030 0.997116 1.114053 0.165589 -0.094834 -0.054177 -0.466563
told 0.709268 -0.369025 0.002369 -0.366783 -0.151690 -0.493351 0.219846 -0.261558 -0.283248 -1.053695 -0.456204 0.017654 -1.169953 -0.517258 0.544718 -0.877839 0.841153 -0.494388 -1.143801 0.791759 0.112127 0.553491 0.162834 0.191346 0.895930 0.537630 -0.410670 -0.303476 0.255800 0.685259 -0.066882 -0.104379 -0.211658 -0.120513 1.268766 0.323193 0.656047 -0.105533 -0.873902 -0.431053 -0.230851 -0.271526 0.049433 0.557962 0.528027 -0.390186 0.480531 0.720857 0.451910 -0.403491
fi -0.135036 -0.216161 0.331388 0.810253 -0.642476 1.328978 -0.062707 -0.525635 -0.631322 -0.000427 -0.671079 0.415411 -0.392010 0.327654 0.129580 -0.032442 -0.411703 -0.126786 0.497549 -0.234028 -0.497082 0.335857 -1.619745 -0.765549 0.316242 -0.526428 1.360849 0.482216 -0.368989 0.803753 -0.186919 0.586517 0.479981 0.226934 0.937381 0.504477 -1.435205 0.885304 -0.079207 -0.991204 -0.719581 0.422659 0.005424 -1.029044 -1.091863 0.990573 1.092773 1.153354 0.219961 0.556599
going -0.132276 1.728423 -0.126777 -0.249633 -0.055866 0.024934 -0.373669 -1.050208 -1.043349 -0.274745 0.497778 -0.786905 0.357732 -0.551025 1.096395 0.767088 0.785477 0.293286 0.375617 0.379043 0.518875 -0.498324 -1.035495 0.370424 1.358233 0.112209 0.429903 -0.576490 0.121750 0.104171 0.326808 0.399323 0.377783 -0.206791 0.233581 -0.274341 1.140234 0.386843 -0.682337 0.435086 -0.116049 -0.131777 1.176105 -0.424162 0.253407 -0.753894 -0.434489 1.229988 0.120113 0.735592
goes -0.081010 0.001562 -0.040784 -0.351515 -0.709776 -0.336451 0.242875 0.835118 0.041070 -0.631012 -0.708425 0.399816 -0.049248 -0.552774 -0.212503 0.235129 -0.349965 0.025036 -0.118915 -0.267907 0.739984 0.381687 -0.921459 0.395418 0.021259 0.370920 1.581588 0.093901 0.017040 0.359012 -0.214283 1.301450 0.506306 -0.462176 0.736273 0.880588 1.758032 0.621322 0.733600 -0.855119 0.929758 -0.280449 0.490154 0.329793 0.747521 -0.108235 -0.048052 0.115329 1.264673 1.100590
son -0.378880 0.631538 0.344243 0.019556 -0.370652 -0.295612 0.206562 0.875974 -1.085307 -0.640035 -0.472888 -0.039716 -0.336794 -0.995013 0.614178 -0.243752 -0.774086 -0.439571 -0.124862 0.349631 0.675421 -0.265760 -0.331762 -0.596267 -0.223639 -0.574550 1.044854 -0.924351 -0.238443 1.172679 0.308144 -0.206547 0.349965 -0.257465 0.335096 0.235549 -0.078547 1.095770 0.070837 -0.848256 0.542744 -0.359790 0.335542 0.334613 0.488567 -0.144039 -0.023987 0.823329 1.400870 0.940612
cash -0.006648 0.647953 0.448582 -0.962956 -0.159823 0.016276 0.181618 0.360943 0.296739 0.318136 -0.799889 -0.763990 -2.042142 -0.531415 -0.217244 0.314980 -0.019989 0.642466 0.689419 -1.156838 2.148563 0.207195 -0.343004 -0.694002 0.019724 0.804829 -0.040665 -0.476132 -1.327628 0.283661 -0.758263 0.999267 -0.840368 -0.721468 -0.084201 1.482321 0.245255 -0.389953 0.815154 0.703199 0.048005 0.402943 1.066917 -0.987945 0.147103 0.503492 -0.318734 -0.099546 1.068593 0.600496
fire 0.355043 -0.015396 -0.891076 -0.088444 -0.367393 0.187700 0.046984 -0.412298 -0.421344 -0.391232 -0.148269 1.032521 -0.071010 -1.288542 1.018873 0.457469 -0.414657 0.403264 0.044979 -0.526291 0.777836 -1.279713 -0.224777 -0.584516 1.674248 -0.710502 -0.337510 -0.184855 -1.713889 -0.126940 -1.033706 -1.379240 -0.620297 1.092151 0.528574 0.883487 0.123393 0.381988 -0.659141 -0.891068 -1.487057 -0.183293 0.661960 0.661175 -0.669012 0.191320 -0.574382 -1.207452 -0.494818 0.081547
old 1.254161 1.162023 1.009067 0.010742 0.412477 0.197902 0.020790 -0.197812 -0.824601 -0.093598 0.253659 -0.047878 -0.611639 -0.614038 -0.741574 -0.155738 0.956769 -0.055674 0.601976 0.044321 -0.407604 0.402949 -0.449914 0.406679 0.479561 1.777068 0.384241 -1.953090 -0.431780 0.262584 0.708410 0.629703 0.162756 -0.129680 0.319511 0.553187 0.396111 0.324725 0.044221 -0.075773 -0.244997 -0.001355 0.532289 0.512370 0.421389 -0.252380 0.514964 0.468579 0.546690 0.128585
til -0.074702 0.617542 0.543776 -0.843883 0.130550 -0.006091 0.664708 0.238240 -0.234447 -0.051456 -0.263622 -0.528304 -0.408100 0.301464 0.082384 -0.924752 0.311686 0.099322 -0.680394 -0.174894 0.643347 0.271413 -1.269292 0.866885 0.975314 0.165466 -0.310700 -1.776537 -1.347267 0.988241 -0.235167 -0.046992 -0.202705 0.167568 -0.410038 -0.111756 -0.846560 0.253250 0.239592 -0.461947 -0.601578 -0.216154 0.054023 0.633673 0.246879 -0.411580 0.210161 0.635163 -0.155464 -0.636469
shut 0.939163 -1.385996 -0.036947 -1.197472 -0.549734 0.399344 -0.251830 0.542857 0.182173 -0.843179 -0.176947 -0.070499 -0.766662 0.330582 0.146161 0.661939 0.141720 1.905792 0.925688 0.450265 0.220298 1.007592 0.182762 0.210799 1.341327 -1.010910 -0.576190 -0.288239 -0.138472 0.069633 -0.457070 1.445152 0.865105 -0.412959 1.394735 0.230400 -1.476308 0.479117 -0.463096 -0.740814 0.530857 0.062039 -0.492760 -0.584842 -0.663188 0.332353 -1.148734 0.088574 0.949167 -0.546368
best 0.706449 0.320003 0.108602 -0.307071 0.121254 0.482840 -0.791105 -0.951980 -0.186047 -0.645745 0.163079 0.030855 -1.071927 0.096221 0.001871 -0.276233 -0.332228 1.460616 -0.550481 -0.505939 -0.352728 -0.029994 -1.140463 -0.138930 0.004266 0.208349 -0.104638 -0.579717 0.635869 1.625803 0.274834 0.510221 0.130995 0.669411 0.259540 0.008543 0.843742 0.722612 -0.784369 -0.584067 -0.612765 -0.376470 -0.568319 -0.119359 0.623503 -0.356606 0.299243 0.911555 0.657466 0.799111
shot 0.765959 -0.648366 -0.478184 -0.200372 -0.589360 0.806964 0.518000 -0.120254 -0.470406 0.285190 0.705356 -0.544930 -1.125142 -0.971744 -0.172895 -0.216280 0.339181 -0.936402 -0.738990 0.071104 0.044161 -0.070652 -0.480964 -0.628733 0.767852 -1.387467 0.060070 -0.443366 0.653144 -0.174630 -0.325023 0.799974 -0.763658 0.498396 -0.118049 -0.181931 -0.465757 1.088207 0.119826 -0.945717 0.513260 1.565865 -0.085410 0.180641 1.508432 0.192680 0.908505 1.668030 0.750590 0.244485
gone -0.590950 0.890223 1.918034 -1.011301 0.051275 -0.141717 -0.314087 -0.342307 -0.827936 -0.617882 0.312052 0.761995 -0.543470 -0.889328 0.600062 -0.339272 -0.217107 0.009764 -0.540254 -0.422445 0.827641 0.580468 -1.180538 -0.618464 0.404390 0.510462 -0.490229 -1.050390 1.445972 0.682729 -0.329681 1.168680 0.408201 0.882228 0.512830 -0.406725 0.400181 0.637474 -1.128597 -0.158521 -0.176154 -0.048599 -0.203188 -0.288691 -0.321391 -0.904211 0.550576 -0.347487 0.690561 0.452914
went -0.068238 1.082619 0.301355 -0.454036 -0.240207 -0.045906 1.240531 0.619097 -0.841159 -0.698291 -0.122083 -1.157150 -1.065722 0.741234 0.289196 0.729164 1.220047 -0.307296 -0.433580 0.784535 -0.269821 0.289625 0.308349 -0.161300 0.280433 1.677809 0.272583 -1.037275 1.043997 0.305185 -0.924090 -0.761788 -0.353159 0.084464 0.013387 0.561087 -0.309745 0.090140 0.183838 -0.250234 0.783400 -0.365067 0.557349 0.061379 0.397160 -0.127222 -0.162146 0.216857 0.328134 -0.930587
act -0.399993 -0.036659 -0.333736 0.041622 0.475053 -0.285476 -0.509386 0.160380 -1.013899 -0.523935 -0.442321 -0.447041 -0.249731 0.027839 -0.000874 -0.204943 0.261106 -0.579461 1.349157 -1.053110 0.404444 0.416276 0.190216 1.089679 0.103840 0.725716 -0.040162 0.420124 -0.657499 0.012331 0.138763 0.073634 -1.180577 -0.171713 1.351743 -0.800679 -0.798857 0.300061 -0.324636 -0.750737 -0.330057 -0.592199 -0.350843 -0.370499 1.769810 -0.701840 -0.154722 1.050681 1.773427 -0.529596
light -0.182607 -0.109675 0.705698 0.437734 -0.075168 -0.511782 1.280607 0.101774 -0.572065 -1.149299 -1.298196 -0.315662 1.036543 -0.155819 -0.692485 0.272192 -0.283109 -0.694719 -0.538916 0.103955 0.211800 1.345607 -1.562550 -0.699544 0.924403 0.048529 1.308062 -0.890433 -1.437419 -0.547552 0.039044 -0.033072 -0.219040 0.409862 0.410315 0.186362 -0.419701 1.010075 -1.264542 -1.586518 0.398026 0.272310 0.613448 1.028248 -0.035248 -0.030304 -0.213403 -0.397850 0.318037 0.197239
bang -0.129017 0.090534 -1.195559 -1.138418 -0.979094 0.069818 1.205825 -0.362070 0.665293 -0.282213 0.500507 0.107119 0.278575 -0.207775 0.796949 -0.749445 0.126646 0.449803 1.944936 0.304802 0.386982 0.756584 -0.449687 -0.267037 0.945781 -0.084305 -0.188600 -0.127822 0.427226 0.406823 -1.132488 1.529580 0.581168 0.630583 -0.951739 -0.989233 -0.114402 0.785222 0.956415 -0.122396 -0.220330 -0.708944 1.227007 -0.651087 0.127266 0.182326 1.120271 0.589727 0.273382 -0.627035
motherfuckin 0.119035 -0.469081 -0.742553 0.119372 0.077719 1.211165 0.460724 -0.215058 0.950571 -0.756134 -0.563809 0.033538 0.649890 -0.380109 -0.170096 0.190045 1.633718 0.065143 0.342491 -0.356899 0.959059 0.557691 0.104749 0.559413 0.956424 0.174764 0.133571 -0.225193 0.970106 1.402244 -0.314847 0.591237 -0.199999 -0.041574 -0.170896 -0.230154 -0.397316 0.576760 -1.076080 -0.802710 0.578137 -1.092176 1.094396 0.295560 0.425329 -0.305658 -0.454795 -0.643229 0.893736 0.267896
dead 0.413723 0.056387 0.987763 -0.961229 -0.389051 0.033846 0.375304 0.236347 -0.701759 0.066305 -0.332466 0.399926 -0.547698 -1.516223 0.570680 -0.423485 -0.036079 -0.236929 -0.354256 0.722373 -0.105296 1.031809 -0.736151 0.314655 0.318275 -0.751672 -0.294166 -0.042315 -0.604365 -0.158086 -0.553274 0.165103 1.018722 -0.050139 0.544434 0.606583 -0.512658 1.060693 0.236387 -0.176861 0.242942 -0.437693 0.063352 -0.351861 -0.539385 -0.730096 0.955461 1.472016 0.719487 0.523526
fly -0.655702 0.198956 0.342108 0.251525 0.446954 -0.192969 -0.043850 -0.264558 -0.262439 0.475823 -0.179667 0.184354 -0.718618 -0.177808 -0.416703 -0.934800 0.204266 -1.157819 -0.371348 -0.569399 -0.393835 0.303501 -0.183922 0.263989 1.327282 0.689983 -0.355935 -0.592044 -0.960282 0.062335 0.270358 0.110763 0.237769 0.093451 0.488096 -0.362293 -0.104147 1.086017 0.889381 -0.197107 -0.139739 0.077006 0.361626 0.390698 -0.098923 0.345139 0.096383 0.216670 1.551599 0.630345
brothers 0.885861 -0.528300 -0.366538 -0.256926 0.404840 0.018832 0.139181 0.439369 -0.460449 0.691789 -0.928782 0.092650 -0.703591 -0.805770 0.087150 0.194485 0.458237 -0.254085 -0.153467 -0.005166 -0.013001 0.336994 -0.369589 0.035536 0.380487 -0.069716 0.657215 0.028942 0.482054 -0.839037 -0.462348 1.089230 0.222244 -0.834769 0.763436 0.009925 1.388106 0.100970 -0.522123 0.092912 -1.177565 -0.357057 0.125013 -0.309451 0.833829 0.064110 -0.609630 0.738876 1.138819 0.414458
heard 1.270416 0.179235 -1.096991 0.228093 -0.899074 -0.526898 -0.164896 -0.086460 -0.179966 0.260408 0.015958 -0.454255 -0.332012 -0.464375 -0.121671 -0.095539 0.692767 -0.215696 -0.069091 0.570318 -0.119899 -0.382034 -0.883812 -0.650949 0.367553 0.236850 0.119158 -0.318544 0.296856 1.174507 -0.473210 -0.224356 -0.102654 -0.108302 0.362921 -0.511207 -0.104724 0.621909 -0.223203 -0.086515 0.454586 -0.069509 0.467047 0.495996 0.135125 -0.021752 0.877626 0.307871 0.975225 -0.281251
hood 0.320080 0.878500 -1.348796 -1.570986 -0.668563 1.477602 0.119602 -0.019417 0.969984 0.250927 -0.595282 -0.341472 -0.112838 -0.860265 -0.591772 -1.339384 -0.183262 -0.356211 1.410526 0.340576 0.612259 -0.560466 -0.179166 0.183902 1.143452 0.836056 0.154386 -0.817322 0.371574 -0.124933 -0.445785 0.351030 -0.474926 -1.328526 0.254354 -0.286005 0.221715 -0.231896 0.080984 -0.312898 -0.199306 0.033862 -0.243304 0.742785 -0.430142 -0.044612 -0.049014 0.460468 0.785317 -0.314219
walk 0.598326 -0.064283 -0.403790 -0.374184 0.525037 -0.359784 0.842652 0.398186 -0.031782 -0.246840 -0.191376 0.134781 -0.516672 -0.234374 -0.063624 0.381739 -0.519368 -1.445750 0.485020 0.094739 -0.367830 0.084916 -1.292278 1.040231 0.540709 0.244344 0.785305 -0.330989 -0.369573 -0.398733 -1.188196 0.297111 0.894239 0.095570 -0.286058 -0.137885 -0.245780 0.224897 0.170471 -0.864187 -0.641378 0.339170 0.059783 -0.346746 0.820609 -0.880934 -0.052836 1.073479 0.595934 -0.388369
young 1.161166 0.169120 0.679555 -0.726631 0.121711 0.672916 0.688832 0.506099 0.015530 -0.411033 -0.326863 0.327104 -1.147304 -0.240843 -0.819277 -0.799570 1.044375 -0.823757 -0.265349 0.666227 0.599467 0.075747 -0.075838 0.044751 0.507107 0.374859 0.002766 -0.237127 0.023924 -0.533762 0.395991 1.536763 -0.148354 -0.614136 0.725560 0.204490 0.336082 0.359039 -0.082150 -0.675169 -0.193527 0.325904 -0.012273 0.060408 0.920851 -0.017310 0.701441 0.756244 0.547155 0.401855
hell -0.191350 0.274509 0.173884 0.485061 -0.074626 -0.342318 0.401897 0.389378 -0.196241 -0.520516 0.001404 -1.065772 -0.005167 -1.058553 0.961826 -0.288577 0.859925 0.133649 -0.537443 0.009741 0.299259 -0.184855 -0.563802 0.427931 1.687918 0.890351 0.275528 -0.919840 0.390994 -0.066576 -0.114363 1.165635 0.419102 0.146008 0.130798 0.250495 0.017248 0.768650 0.187720 -0.379950 -1.067109 -0.586830 0.787776 0.163435 -0.115400 0.195368 0.154018 0.153183 0.212460 0.061425
slow 0.126400 0.115622 0.294374 0.513844 0.398462 -0.740431 -0.926235 -1.252920 -0.205655 -0.650460 0.466862 1.009907 -0.025051 0.826921 0.821690 -0.093594 0.371771 0.603462 -0.638119 -0.051144 1.132725 0.418517 -0.628587 -0.541886 0.072031 -0.548351 0.789447 -1.170146 -1.463317 -0.070889 -1.148981 -0.042669 0.103918 -0.098706 -0.176776 1.531775 -0.055127 1.436798 -0.309296 -0.408469 1.227728 -0.262914 -1.139965 -0.008956 0.245194 -0.118880 -0.457197 0.270828 0.833365 -0.405935
b -0.152307 0.828575 -1.024869 -0.428037 -0.170400 0.246269 -0.274744 -0.219729 0.487069 -1.054704 -0.282273 0.360602 0.640470 -0.633098 -1.109735 -0.372609 0.068537 -0.486329 0.783613 -0.391356 0.698816 1.198532 0.670049 -0.764189 1.268257 0.127340 1.283693 -0.029852 -0.096640 0.392689 0.383355 -1.328100 -0.693294 0.569860 -0.273628 0.782531 0.140003 0.527798 -0.612091 -1.336347 1.199707 0.131813 -0.416009 -0.010007 0.545513 0.076545 -0.717137 0.947267 0.857331 0.647225
find 0.164426 0.543318 -0.019620 0.015064 -0.119623 -0.442557 0.197109 -1.167439 -0.259847 0.153816 -0.547032 -0.353449 -1.006385 -0.527222 0.793418 0.757299 -0.530559 0.082161 -0.251766 0.203560 0.515202 -0.022156 -0.694578 0.003881 1.650535 0.220642 0.569071 0.330247 0.154367 0.045325 0.530294 0.007094 0.028481 0.883667 0.604240 0.122005 -0.169839 -0.024179 -0.273236 -0.305181 -0.266844 -0.254184 -0.636046 -0.239618 -0.143344 -0.153530 -0.463432 0.890365 0.630315 0.318919
gun 0.337312 -0.482288 -0.154681 0.131154 -0.100012 0.643590 0.103101 0.368902 -0.819435 0.405217 -0.502509 0.735764 -0.332608 -0.329068 -0.266180 -0.583057 -0.583113 -0.282005 -0.248774 -0.300196 -0.318269 -0.988330 -1.060882 -0.592473 0.586738 -0.854475 1.015828 -0.261792 -1.150681 0.294661 -1.132539 1.096331 0.651226 0.418501 0.370685 0.105431 -1.483433 0.749914 -0.200110 -1.155526 0.178274 -0.102627 0.245365 0.409879 0.736244 -0.186019 0.517389 1.698042 0.472105 0.977680
thought 0.952254 0.185429 0.075059 -0.596220 -0.034315 -0.181368 0.340224 -0.064959 0.295542 -0.193923 0.187920 -0.567395 -0.411646 -1.029139 0.571356 -1.071936 0.257933 -1.055991 -0.862732 0.433935 0.141753 -0.287011 -0.023605 -0.410104 0.521442 0.727536 1.059030 -0.068661 0.345656 0.806243 -0.625619 -0.356456 -0.227178 -0.253711 1.083066 -0.405484 0.521383 -0.049411 -0.758375 -0.295777 -0.386952 -0.173700 0.442712 -0.077618 0.467276 -0.943918 0.577171 0.590801 0.472237 0.245101
dance 0.303432 0.417084 0.086262 0.495417 0.341202 0.077862 -1.270200 0.531477 -0.904149 0.301135 -1.034471 1.145524 -0.914222 0.785748 -0.239425 0.530648 -0.054822 -0.541718 -0.842017 -0.067286 0.393088 -0.090509 0.002621 -0.471002 1.051323 0.676162 -0.493119 0.297589 -0.213630 0.570934 -0.176859 0.019130 1.877322 1.354124 -0.242661 -1.144460 0.607259 1.383648 -0.427440 -0.606471 -0.237811 -0.897837 -0.572298 -0.739190 -0.387997 0.966702 0.199128 -0.077965 0.218610 -0.831254
set 0.132614 0.209437 -1.080301 -1.090802 -0.406765 0.182257 -0.366545 0.149657 -0.531631 -0.434482 0.311599 -0.041348 -0.695995 0.219729 0.922798 0.403340 -1.059223 -0.139622 -0.234679 -0.322242 0.143457 0.299576 0.119020 0.278601 0.441940 -0.124148 -0.590691 -0.589561 -0.271431 0.400336 -0.085731 0.078383 0.638164 0.337371 0.851768 -0.748156 -0.495773 0.524019 0.044516 -0.685827 -0.246493 -0.272521 0.659520 0.156482 0.698069 -1.033450 -1.221596 0.379253 1.145389 -0.741576
town 0.884661 -0.616753 -0.051297 -0.197932 -0.157233 0.135615 0.109876 -0.381808 -0.949015 -0.023996 0.087131 0.753298 -1.452080 0.487253 1.382841 0.060491 1.274659 0.576266 0.722304 -1.120319 -0.898451 0.777481 -0.619238 -0.765589 0.649295 1.117515 0.131677 0.153017 0.011576 0.414122 -0.341650 -0.030227 0.919277 0.072643 -0.250713 0.349769 0.145500 0.407783 -0.591070 -0.211108 -0.619077 0.432208 0.158423 0.298728 -1.685650 0.167434 0.937348 -0.918486 1.073019 0.866908
catch 0.083854 0.175061 -0.741835 -0.405380 0.144077 -0.789870 0.595258 -0.284728 -0.429855 0.260518 0.017689 0.891738 -0.471402 -0.983729 0.033978 -0.024225 -0.387830 -0.335726 -0.021154 0.068275 0.272868 1.157326 -0.178153 0.259778 1.030562 -0.387952 0.128831 -0.605919 -0.622659 0.586399 -0.553754 0.287940 0.465724 0.539535 0.761490 -0.046573 0.175302 0.739863 0.042008 -0.146295 -0.063784 -0.270806 -0.019319 -1.047112 0.476485 -0.070650 0.329138 0.481005 -0.110547 0.021723
dope 0.845403 -0.043685 -0.948977 -0.223250 1.281677 0.496388 -0.599063 -0.926174 0.767390 0.874259 -0.323001 -0.208621 0.677736 -0.832594 0.027335 0.092939 0.482349 -0.609701 -0.297657 -0.225810 0.017108 -0.751190 -1.079692 -0.957928 1.012155 0.417053 0.891084 0.198641 -0.135937 0.255400 -0.614988 -0.236780 0.005431 0.169547 0.141333 -0.341140 -1.017254 0.333074 0.048616 0.384014 0.283353 -0.501290 0.813727 0.462007 0.301980 -0.234719 0.632086 0.099002 1.137771 -0.001573
l 0.148117 -0.659683 -0.845453 -0.462043 0.082116 -0.769732 0.186355 -0.786246 0.716082 -0.568824 -0.688317 -1.084147 -0.293010 -0.060360 -0.255323 -0.875353 0.155552 -0.539226 -0.607380 0.142773 -0.339214 0.230018 1.613205 -0.656051 0.106925 0.118006 1.480191 -1.395080 -0.167605 0.021085 0.291280 -1.112821 0.470674 1.525981 0.315679 1.276046 1.477066 1.620166 0.493956 -0.712147 0.235678 -0.795570 0.720951 0.145628 -0.705237 -0.130621 -0.638995 0.483901 -0.011357 0.211878
nah -0.641499 -0.784967 0.813905 1.111321 -0.212641 0.170898 -0.802399 -0.004289 -0.381113 -0.397597 -0.378858 0.798333 0.091165 -0.371357 0.814242 0.617263 0.209243 -0.142011 -0.779141 -0.199533 -0.050169 -0.461137 -1.353199 0.420859 0.619117 0.894669 -0.236949 -0.369962 0.076730 0.714934 0.019972 0.602293 0.138127 0.170588 0.577935 1.106485 -1.051236 1.399836 -0.606916 -0.294071 -1.547395 -0.703868 0.520886 -0.243875 0.041088 0.685005 -0.090165 1.432417 -0.062306 1.024050
