3799 50
like -0.248686 0.534536 -0.667325 0.438084 -1.306643 0.190165 0.996057 -0.199377 -0.254982 0.131212 0.622301 0.172463 1.252860 0.420642 0.566296 1.013409 1.483239 -0.064364 -0.390340 0.333981 0.118464 1.013161 -0.016011 -0.226240 -0.254139 0.504916 -2.209831 1.411959 -0.545235 0.469032 -0.509667 0.347590 -0.972578 0.507432 -0.447058 0.627821 0.575652 0.793725 -0.502802 1.065680 1.629161 -0.676916 -0.078841 -1.242738 -0.394788 -0.192266 -0.751273 -1.585019 -0.742140 -0.253114
yeah -0.512447 -0.406307 -0.135169 -0.925544 0.034845 -0.679392 -0.195212 0.593815 -0.900505 0.250478 -0.522708 1.358706 0.084952 -0.427298 -1.208531 2.660263 0.353991 1.248899 0.041266 -0.279723 0.227957 -0.479866 -1.105777 -0.634559 -0.422802 0.446985 -2.127365 0.549787 -0.278414 1.163935 -0.062521 -0.037956 0.376713 0.515605 -1.453485 0.229171 1.147744 1.347674 -1.477966 0.796534 2.198165 0.251354 -0.121344 0.393066 0.749887 -0.448506 -0.787327 -1.107658 -0.559832 -0.594649
got 0.557991 -0.391306 0.449394 -0.269402 -1.416301 0.707987 -0.447432 -0.660922 -0.085357 0.441080 1.382140 0.400568 -0.594973 -1.208056 -0.345439 1.515728 0.583020 1.551859 0.328007 -0.197404 0.575506 0.634692 1.595874 -0.761890 -0.627291 -0.279207 -1.312652 1.301110 0.663425 0.184521 0.183185 -0.186697 0.252124 -0.580207 -1.402212 -0.189421 -0.455392 1.117359 -0.805849 0.598567 0.774205 -0.880469 -0.308812 -0.689069 -0.196565 0.039664 0.529735 -2.478714 -0.630976 0.017967
nigga -0.425141 0.469208 1.132887 0.612716 -0.718469 1.181168 -0.735005 1.010307 -0.650355 0.967155 -0.093992 -0.333411 1.027614 0.050387 -0.703442 0.432130 0.273122 0.949315 -0.831987 -0.619872 0.043671 1.555963 0.606852 0.130406 0.531281 -1.404136 -1.241536 1.636746 -0.409776 1.594892 -0.944746 -0.336665 0.883155 0.498936 0.261116 0.194136 0.698336 1.104998 -0.073016 0.153975 1.821507 -0.252208 0.486532 -1.015732 0.680298 -0.813784 0.253070 -1.672539 -0.736364 0.092521
know 0.188974 -0.525346 -0.739053 -0.782763 0.422893 0.381104 0.632733 0.373212 0.459506 1.151731 -0.018108 0.464710 0.818402 0.652271 -1.364460 1.847560 0.116561 0.930022 -0.649220 0.126815 0.300540 1.218396 0.005750 -0.658901 -0.493492 -0.958133 -1.560558 1.094569 0.008519 0.463348 -0.690853 -0.385849 -1.070881 -0.096687 -0.856854 -0.694283 0.631230 0.379344 -1.085292 0.992593 0.362721 -0.710562 -0.833798 -0.866987 0.643205 1.165304 0.982418 -1.207357 0.020061 -0.378278
bitch 1.117119 -0.139634 0.040454 -0.545427 -0.744240 0.017555 0.101578 0.529994 -1.139056 2.114471 0.369746 2.247571 0.614048 0.091917 -0.529968 0.938877 1.094869 0.192480 -1.281992 -0.412546 0.727485 1.627914 0.807757 -1.434889 -0.555585 -0.052999 -1.490786 0.635043 0.443217 -0.417601 0.508751 -0.734723 -0.116831 0.974616 -0.173204 -0.095537 0.375170 1.812389 -0.013313 -0.056652 0.365362 -0.293360 0.241678 -1.435717 0.009617 -1.106180 -0.124030 -0.874528 0.102181 0.272731
ai 0.737012 -1.089289 0.641313 -0.178211 0.431605 0.509456 0.546107 0.347159 0.230459 0.735901 -0.131068 0.814676 0.954538 0.174864 -0.433627 0.153084 -0.051338 0.940409 0.382480 -0.293826 -0.268858 0.847333 0.384383 -1.363499 -0.399788 -1.370024 -1.861217 1.921931 -0.611360 0.680484 -0.417046 -0.101385 -0.896016 0.302112 -1.336433 -1.384173 0.599319 1.342456 -0.617795 -0.572086 1.281935 -0.759673 -0.184609 -1.279956 -0.022954 -0.190082 0.111775 -0.619115 -1.042866 0.762061
fuck -0.058607 0.107685 0.647622 -0.136384 -1.091180 0.439701 0.524630 0.450781 -1.020660 0.202749 0.478769 0.450644 0.468523 -0.378640 0.122055 1.300314 0.390312 0.261144 -0.662369 -0.423383 0.542967 2.597316 0.160849 -1.809369 -1.038832 -0.250704 -0.756815 0.750432 -0.452996 1.396503 -0.749073 0.363890 0.716995 0.294658 -0.900517 0.901720 -0.869274 1.151472 0.718702 0.223946 2.280166 -1.020548 -0.800749 -0.900853 0.853847 -0.442940 -0.269236 -0.018948 -0.005269 -0.069052
shit 0.258412 -0.060032 -0.075741 -0.258339 -0.326708 -0.405131 -0.723059 0.170780 -0.422629 0.737836 1.746079 0.517107 0.316347 0.103558 -0.989032 0.573738 1.500934 0.209839 0.025554 -0.284867 -0.027342 2.326284 -0.696243 -0.738596 -0.170267 -1.591115 -1.410763 1.270738 1.056755 0.792340 -0.592785 0.614698 -0.145972 0.527320 -0.321983 -0.140800 1.238504 1.416557 -0.866156 0.637454 0.814025 -0.280872 -0.282507 0.368354 0.523484 0.015463 1.043377 0.101991 -0.322255 0.392206
niggas 0.678555 0.006342 1.088452 0.045501 -0.314410 -0.475635 0.510519 0.164340 0.169484 0.273299 0.081226 -0.321556 1.189902 1.010479 -1.024114 1.556838 0.535296 0.555483 0.117274 -0.051843 0.843619 1.667554 -0.141779 -0.450706 0.266187 -0.238424 -1.490981 0.496310 -0.159491 0.340042 -1.099310 -0.789236 0.904621 0.984675 -0.538354 0.096795 -0.532443 1.164467 0.230912 -0.943224 0.960845 0.608498 0.533825 -0.578526 0.631077 0.283983 0.439256 -1.916510 -0.411171 0.495380
love -0.824401 -1.247104 -1.023164 0.520477 -1.307466 0.377262 0.585669 0.595702 0.887719 1.138561 0.590062 0.738932 0.190496 0.559193 -0.806410 1.599904 -0.058327 0.670402 1.253861 0.108590 0.729956 1.805755 0.218652 0.699372 -0.698778 -0.672015 -0.686105 1.136213 -0.662116 -0.539833 0.430692 0.023235 0.243615 0.142833 -0.942985 -0.288025 0.159209 -0.233073 -1.115375 0.525717 1.664982 0.162763 -0.679349 -1.847055 0.994350 -1.093532 0.526872 0.286897 -1.279900 -0.278196
baby 0.534572 0.189562 0.551899 -0.022731 -0.391095 -0.320831 -0.089784 -1.119424 0.874837 1.736187 -0.714456 0.496205 0.063623 -0.956183 -1.118400 0.086572 -0.579084 -0.238327 0.097777 0.599745 -0.202525 1.043884 -0.380279 -0.501010 -0.877259 0.313231 -1.618730 1.233550 0.094131 1.458618 0.350235 0.137434 -0.279385 -0.607105 -0.415786 0.401587 -0.834583 0.323564 -1.735617 1.319606 1.272203 -0.411523 0.011928 -1.330996 -0.006246 0.098472 0.268674 -0.019741 -0.677949 -0.751059
want 0.120381 0.024642 0.604859 -0.559965 -0.200442 -0.544531 1.749922 -0.098896 -0.414908 1.479132 -0.040454 0.771383 0.825059 -0.629651 -1.017250 1.265010 0.320578 0.747160 -0.026263 0.149122 0.781496 0.756785 -0.000251 0.179281 0.114638 -0.419417 -0.234293 0.961139 0.434095 0.300699 0.129751 -1.411571 -1.116272 -0.677500 -1.645036 0.662717 -0.395022 -0.029210 -0.098668 1.049560 1.377737 -1.282756 0.498762 -0.742443 1.384477 -0.140783 0.237334 0.012337 -0.876506 -0.267347
money -0.511202 -0.510521 -0.148296 0.210049 -0.519882 0.152354 -0.756461 -0.391596 1.492350 -0.434624 0.112459 0.764083 1.380969 -0.130410 -0.146469 0.342925 1.099227 0.445591 0.431425 0.226682 0.183428 0.893335 -0.033878 -0.207686 -0.616404 -0.757898 -2.147894 -0.078024 0.261385 0.572882 -0.304662 -1.478830 0.762074 0.375492 -0.928960 -0.148567 -0.911412 1.024960 -1.019005 0.066906 1.428198 -0.891453 0.517373 -0.296966 0.571988 -0.503076 1.574310 -0.882364 -1.343689 -1.023392
oh -0.715150 0.091580 -0.262279 -0.232373 -0.190023 -0.448697 1.292670 1.006234 0.063793 0.372890 0.425869 -0.379977 -0.525097 -1.022728 -0.753940 0.850672 0.506431 0.895339 -0.359095 0.192951 0.049433 0.321541 -0.355301 -1.339008 -1.644364 0.149292 -1.324846 1.742810 0.548815 0.629808 -0.039484 0.403764 -0.468058 -0.168820 -0.265996 0.191385 0.380164 1.378577 -0.603906 0.542099 0.634848 1.937137 1.074662 -0.292424 0.212009 -0.985415 1.372240 0.298558 -0.943499 -2.017682
let 0.018688 0.589063 -0.158545 0.268017 0.478952 0.994761 0.105706 0.066414 -0.699373 -0.189599 0.054409 0.181186 0.581697 -0.059658 -0.685405 1.446288 -0.491124 -0.102924 0.303787 -0.495232 -0.473938 0.530944 -0.404479 -0.186768 -0.810716 0.225476 -1.426014 0.881848 1.530167 1.212585 0.161907 -0.765121 -0.122617 0.347659 -0.180196 0.899270 -0.613664 1.319834 -1.608569 0.901541 1.276705 0.211485 -0.505490 -1.826930 -0.279139 0.573851 1.350185 -0.082553 -0.381086 0.479208
gon 0.404878 -0.888117 0.448810 0.376852 -0.961952 -0.520631 -0.953794 0.657807 0.314845 0.482560 -0.489995 0.478938 1.044615 -0.875710 -0.105049 1.495628 -0.294164 -0.927593 0.821201 -0.180488 -0.362480 0.891514 -0.305677 -0.596250 -0.332924 -0.250419 -1.735693 1.397301 1.073017 0.520669 -0.968351 -0.183362 0.292224 -0.091012 -0.996895 0.944541 0.440106 0.680873 0.128069 0.837855 -0.528382 -0.175207 -0.510013 -1.384221 1.655515 -0.461653 0.777976 -0.716858 -0.530404 -0.127533
wanna -0.605686 0.541864 1.107709 -0.968978 -0.250049 -0.980460 0.341098 1.031588 -0.321078 -0.165552 0.113166 0.569452 0.356837 -1.315970 -0.240099 1.765566 0.489939 0.259376 0.686341 1.186754 0.465434 1.489388 0.142055 0.110193 -0.658394 0.054543 -1.239159 0.819117 0.483674 0.993332 0.331363 -1.173293 -0.675113 0.160753 0.298119 -0.063384 0.411809 0.342790 -0.837171 0.510938 1.330513 -0.578297 -0.977327 -1.611740 1.132480 -0.361594 -0.729767 -0.817046 0.040737 0.670079
right 0.474662 0.887088 0.752886 -1.254322 -0.623401 0.007102 0.276326 0.923540 0.473628 -0.264114 -0.950293 -0.081321 -0.136506 0.938106 -0.439693 0.136111 0.683063 -0.184014 -0.869490 -1.204071 -0.064698 0.845164 -0.922464 0.055055 -0.983286 -0.590487 -0.970135 0.534570 -0.001268 -1.161408 -0.008680 -0.025530 -0.154232 -0.326797 -0.302796 0.039158 -0.438066 1.539725 -1.625317 0.738771 1.512322 -0.661939 0.214792 -1.664665 0.957109 0.425800 0.022794 -1.179669 -0.707740 0.388832
girl -0.690141 0.285381 0.780873 0.233392 0.307739 -0.986747 1.513253 0.114814 0.113898 0.591042 0.720133 0.131942 -0.304852 -0.298335 -1.033012 0.271655 -0.748264 0.020828 -0.192265 -0.272287 0.598571 1.487001 -0.274060 -0.304868 -1.166328 -0.257808 -0.953869 0.839052 0.011323 0.661802 0.606160 0.266031 -0.001410 -0.526892 -1.247907 0.010916 0.682422 -0.054744 -0.794722 1.595458 0.379928 -0.934869 -0.968485 -0.631832 0.183999 -0.258531 0.727256 -1.674788 -0.874767 -0.481186
ooh -0.033156 0.157076 0.304584 1.309053 -0.367694 -0.471292 -0.128762 0.935795 0.771065 0.343019 -0.316801 -0.180114 1.022747 -1.298275 -1.381888 0.346484 0.680677 0.664135 -1.050453 -0.332158 0.391091 -0.789624 1.449558 0.076119 -0.513672 0.959204 -1.084688 0.427809 -0.036588 0.057629 0.877623 0.493972 0.992012 -0.145443 -1.129069 -0.620620 1.410484 1.924042 0.203388 0.944298 0.428771 -0.393682 -1.040543 -1.228294 0.587285 0.982228 -0.125506 0.837573 -0.776229 -1.444418
need -0.127953 -0.023809 0.457215 -0.347273 0.453624 0.452449 0.219498 -0.025836 0.124446 0.714890 -0.158394 0.642653 0.151132 -1.238722 0.182199 0.333839 0.145509 -0.550432 -0.682751 0.370210 1.358340 0.309539 -0.757120 0.327428 -1.295130 0.193019 -1.455752 0.542923 -0.254590 -0.260980 -0.296717 -1.069117 0.387418 -0.745331 -0.887467 0.101254 0.300198 0.127173 -0.196996 1.381191 1.773191 -0.622967 0.147195 -0.761297 0.592360 -0.651431 1.270646 -1.047083 0.150935 -0.471988
time 0.364098 -0.196608 0.433900 -0.418426 0.213140 -0.173991 0.587704 -0.232107 -0.474679 -1.425079 0.466201 0.583946 1.265111 -0.375283 0.326575 -0.141271 0.157130 0.830898 -0.703534 0.551925 1.318167 0.736825 -0.424606 -0.253130 -0.868281 -0.546557 -1.528858 0.670411 -0.285610 0.256583 -0.064657 0.360410 -0.656160 0.691526 -0.809424 0.467031 0.023012 0.306666 -1.891105 0.056623 0.568666 0.259149 -0.938846 -1.593881 1.179176 -0.514810 1.054610 -0.367245 -0.406885 -0.270803
tell 0.461638 0.076967 0.188007 -0.224208 -0.670237 -0.615140 0.503776 -0.242063 -0.856777 0.469892 0.150344 0.506500 -0.399069 -0.345295 -0.805728 0.795691 -0.420644 -0.013885 0.429511 -0.884434 1.306982 1.472325 0.287581 0.727747 -0.513732 0.125549 -0.316746 0.746800 0.209587 0.879722 -1.388446 -0.821568 -0.557127 -0.029101 -1.520806 -0.491938 0.047962 0.910773 -0.985946 0.692795 1.216116 -0.354125 0.477383 -0.984251 0.828450 0.480011 -0.088009 -0.251101 -0.934743 0.136920
hit 0.082194 0.136310 -0.233673 0.194955 -1.410702 -0.704252 0.442869 0.246144 -0.571936 0.595087 -0.426843 -0.017700 1.039351 -0.494172 -0.598441 0.443616 0.867000 0.095275 -0.637650 -1.304279 0.832433 -0.051243 0.881198 0.879151 -1.318899 -0.785497 -0.928150 0.445962 0.344406 1.400173 -0.948781 0.411795 0.644901 -1.019861 -0.699466 0.108535 -0.271175 1.344707 -0.779872 0.877726 0.575280 -0.633799 0.360895 -0.413566 1.219875 -0.744801 0.117764 -0.024216 0.066111 1.358376
uh -0.028998 -0.007257 0.486328 -0.921832 -0.803171 -0.520782 -0.131052 0.272366 0.146606 1.314155 -0.511595 -0.844994 1.402306 -0.303389 -0.447289 1.350728 0.352001 0.037214 0.075975 -1.042421 0.558825 0.341130 0.429249 -0.893495 -1.589859 0.026874 -1.239586 0.779599 -0.435898 -0.020884 1.301112 0.207358 0.268401 2.141694 -0.287433 0.494812 -0.129324 0.216454 -0.967225 0.527453 0.852379 0.544516 -0.383210 0.735440 -0.054947 0.174326 0.050107 -0.011425 -1.204100 0.193024
way -0.067084 -0.800339 0.163132 0.081661 -0.863341 0.066840 0.956859 0.629845 -0.078506 -0.739245 0.003828 0.961420 1.280377 0.174145 -0.712301 0.075429 -0.284382 0.803916 0.227743 -1.840183 1.213855 0.497809 -1.168500 0.144461 -0.373022 -0.548428 -3.033897 1.456435 0.861776 -0.028135 0.755166 0.883939 -0.193812 0.060178 -0.013784 -0.692970 0.234280 -0.073392 0.255638 1.293308 0.813046 -0.796345 -0.008510 -0.417835 0.059886 -0.048547 0.639604 0.008243 0.246819 -0.416238
ass -0.127864 1.076549 0.671646 -1.726274 -0.904007 -0.473215 0.681760 0.068153 -0.229398 0.532474 -0.202170 1.378819 0.961459 0.491552 0.536159 1.256550 0.435221 -0.323808 -0.337929 -0.110890 0.162909 0.575175 0.675410 0.111702 -0.851290 -0.430525 -0.237368 0.633579 -0.523226 1.777463 -0.026536 0.198981 0.638129 0.507898 -0.322381 0.639237 0.701961 0.559923 -0.917489 0.125656 0.075619 -0.603367 1.355230 -1.062358 -0.377265 0.202456 1.446174 -1.122973 -0.399473 0.405600
man 0.252708 0.406671 0.155375 -1.203929 -0.507379 0.480917 -0.030507 -0.394159 0.561092 0.936769 0.958961 -0.233949 0.871817 0.393450 0.787616 0.944129 0.040875 0.297934 0.122007 0.101749 1.785464 0.107281 0.711580 -0.392667 -0.423747 -0.697315 -1.455359 1.450203 -0.222363 0.803299 0.978195 0.076284 -0.401154 0.491522 -0.419396 0.190709 0.561322 0.629919 -0.102775 0.726891 1.445560 0.593702 0.810539 0.021910 1.746103 0.165080 0.484417 -0.915981 0.286234 0.680772
bitches -0.728004 -0.715985 -0.423193 -0.208691 -0.214938 0.220960 0.283507 -0.448146 0.607190 -0.214182 0.595710 1.372694 1.581647 0.106999 -0.991002 1.207631 0.266212 -0.193412 0.341211 -0.161901 1.009871 1.528893 0.813891 -0.255363 0.138235 -0.014987 -0.165905 0.291849 -1.443557 0.559286 -0.454091 -0.204636 0.915754 -0.279222 0.139591 0.102245 -0.534283 1.439316 -0.552170 0.094663 1.072579 0.168962 -0.450860 -0.921952 0.204132 -0.086302 0.248181 -0.199674 -1.405123 0.812388
lyrics -0.490857 0.441086 0.421175 0.054057 -0.568560 -0.226018 0.514646 0.000377 -0.055670 1.048713 0.553042 0.828893 1.256623 -0.337727 -0.078737 0.735765 -0.307150 0.728051 -0.434317 -0.281631 0.050884 0.561442 -0.322234 -0.334637 -0.974090 -0.571761 -0.691826 0.421451 -0.339397 0.295391 0.078533 0.246115 0.096791 0.226102 -0.606390 0.151473 0.829620 0.880685 -1.065912 0.798121 1.164833 1.127823 -0.094521 -0.555741 0.367098 -0.012553 -0.021201 -0.091772 0.007172 -1.058606
ayy -0.247970 0.066761 -0.473478 -0.127682 -0.593323 -0.525769 0.313078 -0.558051 -1.189447 0.698727 0.323832 0.742533 1.967619 -0.611757 -0.977536 0.595190 0.542124 -0.032200 -0.715084 -0.311346 0.127954 0.690401 0.277167 -0.695166 0.812771 0.935830 -0.901260 -0.339145 0.013299 0.627920 1.328064 0.584683 1.246955 -0.101412 -0.869108 -0.345570 0.471975 0.601624 -1.596965 -0.387655 0.448674 0.545725 -0.146182 -0.643054 1.141923 0.071082 0.072266 -0.224223 -0.513117 -0.537676
said -1.037735 -1.486111 0.380630 0.057736 -1.806716 0.052057 0.939547 0.367484 1.421392 0.969084 -0.728336 0.003563 0.366216 0.949118 -1.905218 0.452964 1.026032 0.208125 -0.836748 -0.600104 0.708821 0.807043 -0.419972 -1.020682 -1.120693 -0.518429 -0.569187 0.311803 0.865129 0.128794 0.080442 -0.334791 -0.471699 0.230424 -1.359926 0.660111 0.410324 -0.629146 -0.978363 0.222639 0.563741 0.347711 -0.297950 -1.348126 0.558652 -0.439254 0.006679 -0.208722 1.739220 0.503635
watch -0.430435 0.570199 -0.573171 1.198904 -1.501565 -1.590277 -0.803484 0.821306 0.588246 0.825985 -0.872205 -0.039847 0.048963 0.090113 -1.071546 -0.046986 1.229788 1.289646 -0.872084 0.335675 1.090364 0.594060 -0.211592 0.618030 -1.024097 -0.183507 -0.962554 0.333967 0.365527 0.891763 0.661314 -0.529791 0.892675 -0.082550 -1.463493 0.910557 1.334560 0.827237 0.163829 0.222969 0.718425 -0.171219 0.198979 -1.369201 -1.162254 0.936132 -0.098222 0.764474 -0.223083 1.096841
ta -0.308067 -0.920929 0.458680 0.320666 -0.765929 -0.346416 -0.920470 0.286281 -0.372256 0.255626 0.984239 -0.121231 -0.701645 -0.932090 -1.081542 0.153888 0.806691 0.313836 0.094116 -0.431136 0.811904 -0.556430 0.377497 -0.825419 -1.367650 -0.393015 -1.432635 0.900422 0.605192 1.186779 0.279849 0.042604 -0.238133 -0.582438 -1.024310 -1.369382 -1.082567 0.573856 -0.651937 0.590637 0.470448 0.482180 0.309937 -0.924321 -0.141088 0.410312 0.096705 -2.234312 -0.836475 0.272853
new 0.931294 1.228956 1.547287 0.312967 -0.392947 0.084243 1.076581 -0.957387 -0.101433 1.715848 0.820188 0.487521 0.199648 -0.260226 -0.312984 1.088666 1.457557 0.276970 -0.141039 -0.295578 0.501220 -0.238389 -0.354338 0.308089 0.439742 -0.378288 -0.944937 0.912352 1.030379 -0.791735 -0.088901 -1.554527 0.695474 0.302744 -0.300663 0.224949 -0.621631 0.935858 0.454408 0.160592 1.390172 -0.299111 -1.511631 -0.411841 -0.105825 0.309899 0.329795 -0.005066 -0.968691 -0.589125
la 0.381229 0.894262 -1.145057 -0.078027 -0.525863 -0.530631 1.789551 -0.537813 1.181130 0.657690 0.498577 0.273992 0.628049 -0.553749 0.715111 0.138723 -0.806011 1.944893 2.488474 -1.120286 -0.383203 -0.020326 -1.006120 0.095835 -1.547626 -0.354159 0.386355 -0.839464 -0.173572 -0.671076 -1.110782 -0.228367 0.098390 0.602695 0.574603 0.008220 0.383208 0.410414 0.489995 0.020943 0.202736 0.233901 -1.303929 -0.950769 -0.148074 0.700187 -0.305519 -0.160139 0.115466 -0.650546
pussy 0.910444 0.102043 0.809560 -0.612469 -0.747750 0.722494 1.016500 0.456835 0.138294 -0.132093 0.673320 1.172030 1.295483 -0.292960 -1.347492 0.203878 0.659666 -0.783352 0.221174 -0.417653 0.030939 0.957791 1.365149 -0.409858 -0.742706 1.420757 -0.086006 1.653852 0.540439 0.116977 -1.154685 0.327785 0.655752 0.588971 -0.479964 0.155971 1.721948 -0.367363 -0.871802 0.261261 0.933771 0.053938 1.433767 0.109738 -0.049430 0.495689 0.212634 -0.772627 -0.212650 0.805510
look -1.105899 1.191761 -0.803353 0.356015 0.308158 -0.997381 0.170824 0.491166 -0.084946 0.046204 0.260925 0.683676 0.525914 -0.218563 -0.227126 0.350708 0.796526 -0.167860 -0.431880 -0.623585 1.040912 0.745639 0.385602 -1.301285 0.900414 0.083391 -1.000639 0.730592 -0.289409 -0.374026 0.721250 0.477542 -0.082740 0.077582 -1.154260 0.558166 0.224429 0.242906 -1.225756 1.165563 1.098028 -0.347770 0.956569 -1.464990 -0.225093 0.506428 0.199924 -1.078528 -0.065560 -0.506694
tryna 1.512393 -0.051192 0.326325 0.393020 -0.625604 -0.691635 0.587107 0.263047 -0.773769 -0.198266 0.891570 -0.251980 -0.143625 0.318193 -0.542887 -0.312835 0.169656 -0.117245 0.211636 0.393329 0.601436 0.229514 -0.085137 -0.676665 -0.278804 -0.569234 -0.917992 0.778587 -0.347854 0.485783 0.361754 -0.772089 0.367084 0.529860 -1.023585 -0.128923 -0.613330 0.255018 -0.861316 1.080811 1.313427 0.153068 -0.010485 -0.338803 1.354710 -0.278948 0.187189 -0.640041 -0.607598 0.725619
come 0.434309 -0.362095 -0.239805 0.506932 -0.013355 -0.046974 0.276893 0.149420 -0.925218 0.125887 0.668170 0.084424 1.552880 0.100295 0.146944 0.886087 0.741357 0.226773 0.614409 0.468960 1.074167 0.730311 -1.303563 0.834077 -0.710111 -0.305369 -0.109031 1.304401 1.405262 0.603704 -0.363275 0.615902 0.566114 -0.274314 -0.306348 -0.085987 -0.081158 0.821411 -1.379214 0.836540 0.461303 -0.177908 0.014303 -0.523223 0.742398 0.202390 0.104092 -0.866206 0.035960 -0.195802
feel -0.557178 -0.141629 0.216647 -0.231070 -1.171761 -0.931783 0.819367 0.431104 -0.574261 -1.053769 0.635833 0.630884 0.031279 -0.127980 0.211682 0.748519 0.275283 0.793522 0.386593 -1.140738 0.181454 0.752675 -0.227938 -0.161274 0.800290 0.333713 -1.561766 1.247318 -0.544784 -0.313102 -0.118537 0.040989 -0.656440 0.088611 0.456364 0.164271 0.166934 0.141498 -0.603540 1.349661 1.075272 0.251795 -0.973324 -1.313163 1.016116 0.127806 0.604909 -0.317548 -0.416114 0.086353
real -0.020369 0.343603 -0.038998 0.640948 -0.029840 -0.523729 0.232184 0.564405 0.155740 1.056948 0.560638 0.039624 0.254253 0.614232 -0.457870 1.433047 0.302341 0.767164 0.065198 -1.206150 0.800905 0.751351 0.049991 -0.968926 0.988193 -0.851021 -0.222318 1.722681 -0.376114 1.065354 0.191181 -0.557558 0.475356 0.158475 0.327669 0.200223 -0.518420 -0.000113 -1.251886 0.598919 0.874520 -0.083128 1.001205 -0.458530 0.667699 0.720661 0.955592 -0.737549 0.317704 -0.769664
hey -0.705867 0.857412 0.071102 0.585560 -0.639029 -0.482375 0.054316 0.727526 -0.091400 1.282872 0.609640 0.143982 0.202432 0.279314 0.496792 -0.116043 -0.278453 1.396519 0.372159 -0.459176 -0.141050 0.586529 -0.197188 -1.058238 -1.220193 1.728054 -0.470634 1.020019 0.724113 0.247872 -0.168270 -0.036009 1.068143 -1.071020 -1.227982 0.634669 0.082394 1.216680 -1.805092 0.864811 1.262596 -0.079264 -0.568286 -0.335152 0.887286 0.417905 0.031784 1.029434 0.585953 0.212348
lil -0.097243 -0.540218 1.389478 0.778364 -1.048740 0.203628 0.462291 0.525584 0.047743 1.301833 -0.471278 0.920182 1.012083 -1.119299 -0.228735 0.398698 1.010366 -0.800357 -0.299385 0.290267 1.086973 0.459864 -0.567995 -0.596849 -0.106863 -0.694483 -0.843389 0.082144 -0.919033 0.931928 1.192756 -0.820338 0.416522 0.073127 -0.414951 0.133145 0.820746 2.067065 -0.464060 0.324801 -0.313123 -0.472846 0.066198 -1.052578 -0.015535 0.585111 0.281995 -0.300821 0.785042 -0.142166
good 0.275778 0.737659 -0.063979 0.604720 -0.497604 -0.397235 -0.057010 0.390259 0.619360 0.604355 0.639554 1.072238 -0.062550 -0.279271 -0.764655 0.437277 -0.491106 0.048885 -0.158877 -0.355556 1.390478 0.184570 0.038183 -1.300229 0.371132 -0.585963 -0.127904 0.758953 0.047932 -0.389784 -0.810933 0.567546 0.174599 0.598557 0.822448 0.664195 1.159288 0.580366 -1.588454 0.604048 1.362758 -0.544707 -0.224690 -0.968656 1.215482 0.751613 0.805528 -0.890556 0.207528 -0.805616
ya -1.081377 0.928716 -0.253897 0.292676 -0.342923 -0.353050 -0.081344 0.900836 1.560257 0.020398 0.748433 0.418360 0.912212 -1.489847 -0.587975 0.870998 -0.204761 0.427211 0.026266 -0.400814 0.607008 0.293263 -0.393318 -0.785264 0.077674 -0.512965 -1.278931 1.444322 0.124813 -0.347319 -0.169556 0.905220 0.358304 -0.314019 -0.295983 0.003134 -1.287393 -0.476494 0.657164 0.837555 0.155849 0.424614 0.830508 -1.796545 0.327404 0.388307 -0.191897 -0.405746 0.040472 0.883425
think -0.429361 -0.420913 0.370352 -0.791815 -0.404131 -0.441040 -0.453636 -0.191184 -0.111446 -0.010027 -0.008694 0.345552 0.681947 -0.002211 0.098124 0.210704 -0.113937 0.633548 -0.817847 0.482484 1.778121 0.764211 -0.000418 -0.886213 0.451489 -0.601735 -0.617674 1.400870 0.641384 -0.717539 -0.550655 -0.277104 0.359679 -1.125009 -0.228284 -0.237259 0.392071 -0.524673 -1.288646 0.197633 1.106863 0.382588 -0.229476 -1.264143 -0.362577 -0.722512 0.961355 0.129414 -0.599040 0.249614
life 1.034783 -0.894424 0.051517 -0.169229 0.338497 -0.546347 -1.320622 -1.002225 0.471325 -0.183103 0.258916 -0.058304 0.971286 0.096240 -0.022711 1.214368 0.260032 0.513662 -0.947039 -1.103670 0.763244 0.160944 -0.344330 -0.445670 -0.319544 -0.401919 -0.021783 1.273753 0.201537 -0.107663 -0.470467 0.678819 -0.464841 0.224420 0.331769 -0.040608 -0.589000 0.403233 -0.560727 1.731483 2.053520 -0.359413 -0.271255 -1.477961 0.672632 0.738412 -0.269350 -0.312424 0.541106 -0.425840
boy 1.110720 -0.070770 0.316403 0.497399 -1.134001 -0.212865 0.390380 0.645919 0.488254 0.149918 0.300975 0.244097 1.101703 -0.921203 -0.075928 -0.194782 -0.210900 -0.229961 -0.136699 -0.291680 0.048258 0.444703 -0.098448 -0.607138 0.147187 0.936147 -0.418229 1.198797 0.132832 -0.614890 -0.539836 -0.484320 0.258178 0.431884 -1.456355 -0.418219 0.857880 0.931591 -0.772118 0.132609 1.369211 -0.300795 1.547030 0.045102 -0.032039 0.732233 0.196657 -0.453237 0.864489 0.404094
ho 0.930902 -0.233427 0.913566 -0.763286 0.411567 -0.127128 0.619386 1.240266 -0.213203 0.212081 -0.329993 0.235582 0.651291 1.133727 1.031063 0.485837 -1.088026 0.789536 1.251134 -0.578810 1.635207 0.890346 0.702385 -1.245088 -0.892019 0.597987 -0.702089 0.721908 0.443242 0.717165 -0.172201 -0.344753 0.635117 0.631392 -1.060224 -1.511884 1.087670 0.934539 0.293401 1.136014 0.566565 -0.966210 0.728553 -0.616202 -0.237141 -0.017649 0.270356 0.291947 -0.056990 0.204282
big -0.521437 -0.233943 1.384862 1.119257 -0.513308 0.064816 -0.762489 0.849380 -0.314600 0.453750 -0.077296 0.795003 1.014025 0.044272 -0.152315 0.985550 0.292813 -0.828131 0.447978 -0.247646 1.299238 0.539582 0.203849 0.068303 -0.089165 -0.531331 -0.925891 -0.935484 0.810472 0.755928 0.631149 -0.419025 -0.881555 0.746285 -0.940949 -0.456544 1.071140 0.654079 0.127577 1.179883 0.780678 -1.127990 1.153359 -0.466174 -0.318593 -0.241635 0.123468 -0.359664 -0.084435 -0.336397
told 0.722663 -0.294575 0.136249 0.686900 -1.097749 0.669733 1.073897 0.252429 0.111620 0.606799 0.361457 0.083061 1.201517 -0.201359 -0.602468 0.440743 -0.250702 -0.707679 -0.936773 -1.256597 0.633743 0.057495 -0.721822 -0.688739 0.040053 -0.098046 -1.495808 0.998086 0.804455 1.172812 0.728288 -0.163306 -0.278545 0.155960 -0.719023 -0.993362 -0.414737 0.370082 -1.252274 0.153328 0.346647 -0.348991 0.555670 -1.182894 1.493414 0.194743 -0.245811 0.538516 0.348114 0.720745
fuckin 1.239125 0.098549 -0.474947 0.895637 0.581015 1.423893 0.864164 0.620166 -0.569351 0.898603 -0.042369 1.531330 1.093351 -0.166687 -0.151154 1.479964 -0.541674 -0.671586 -0.592109 -0.411377 -0.070914 0.937746 0.111542 -0.077669 -0.446439 -0.331489 -0.252902 -0.383051 -1.062520 0.793070 1.173544 -0.036083 -0.205111 0.114300 -0.659936 0.072293 -0.395157 1.354628 -0.133387 1.069438 0.772380 0.301303 -0.545828 -0.250210 -0.411731 -0.124789 1.229644 -0.717851 -0.958050 1.084401
hoes 0.424688 1.227635 0.084114 -0.433070 0.347951 -0.501949 -0.560908 0.106833 0.291753 -0.070652 0.699214 0.637929 0.844238 -0.011228 -0.273361 0.768576 -0.485772 0.010642 0.212093 -0.702180 1.108634 1.190438 0.445958 -1.261494 -0.367660 -0.439139 -1.219156 0.978742 0.104956 0.180790 -0.194630 -0.312641 1.010841 -0.897637 -0.149219 0.127978 0.264609 0.627724 -0.519346 -0.417356 0.837409 -1.062997 -0.333479 -0.228901 0.215646 -0.627808 -0.234595 0.669215 -1.323051 1.217625
pull -0.248373 0.176435 0.142976 -0.266906 0.235835 0.227915 -0.170443 0.099374 -0.527220 0.880306 -0.574593 -0.157731 0.327198 -0.626649 0.322044 1.391762 1.117501 -0.264781 -0.246489 -0.224171 0.230744 1.238130 -0.583169 -0.439560 0.881816 -0.596534 -1.374030 0.829507 0.495704 -0.043313 -0.412624 -0.407571 1.618428 -0.292305 -1.309999 0.279219 0.052253 0.586931 -0.741984 1.279132 -0.367975 -0.052916 0.246309 -0.394564 -0.273791 -0.679289 -0.637726 -0.235688 -0.403049 1.463970
bad -0.672439 -0.599382 0.714321 -0.433853 -0.427538 -0.091245 0.635897 -0.175896 0.311919 0.299995 0.300950 1.204113 0.829282 0.211080 -0.792487 0.595768 0.218659 -0.662307 -0.023915 0.098190 1.942068 -0.230706 1.027466 -1.135127 -0.240866 -0.714311 -0.045502 0.768781 -0.203793 -0.590444 -0.209436 -0.597905 0.457677 -0.251581 0.586418 0.245935 0.218072 1.856968 -1.007186 0.419315 0.068128 -0.879059 -0.309469 -0.720398 -0.354841 0.668924 0.198083 -0.561483 -0.743932 -0.594727
gang 0.078453 -0.803367 1.731847 0.078748 0.761175 -0.040911 -1.056294 -0.307041 -0.246886 0.847072 1.481013 0.296887 0.461825 0.246388 -0.723583 1.249853 0.804556 0.940721 -1.402354 0.162711 -0.848735 1.163946 -0.172360 0.297335 -0.832143 -0.016842 -0.757227 0.562016 0.655549 -0.331224 0.375217 -0.920293 0.870480 0.262865 0.339502 -0.365853 0.933803 1.122952 0.003262 0.498628 -0.309491 -0.793939 0.743355 -0.688433 0.741249 0.542518 -0.898348 1.652226 -0.492973 -0.382923
huh -0.096105 -0.535297 0.652631 -0.424401 -0.428043 0.975013 0.053238 -0.304507 -0.362482 1.053275 -0.143330 -0.364750 1.386407 0.101071 -0.772889 0.554627 1.385580 -0.027969 -0.182602 -0.701946 -0.269907 0.603457 -0.013005 -0.344269 -0.310921 0.555524 -0.568281 0.217237 0.086107 0.125861 0.317581 -0.097570 0.774093 0.410394 -0.276399 0.087221 0.746256 0.847851 -1.530855 0.787338 0.984798 0.868295 -0.490259 0.680689 0.480084 -0.494159 -0.103293 -0.204318 -0.699210 -0.269113
cause -0.049645 -0.162567 0.986225 -0.638804 -0.378824 -0.442312 -0.555005 0.650572 0.658027 -0.169118 0.359250 -0.680024 1.199548 0.536372 -0.621621 0.537249 0.217226 -0.697358 0.048011 0.209222 0.765924 1.478899 0.239963 -0.629034 -0.634092 -0.290467 -1.487979 1.129144 -0.393632 -0.409550 0.209394 0.279868 0.174405 -1.223151 -0.508165 -0.981805 0.286609 0.026067 -0.078161 -0.004254 0.665727 -0.446433 -1.312281 -0.021989 -0.092690 0.276060 0.913081 -0.964816 -0.646469 0.373192
woo -0.911499 -0.118915 -0.685976 -1.343836 -0.353475 0.740317 0.314340 -1.079706 0.418543 0.419200 -0.141307 0.693225 0.259967 -0.300982 -1.043906 -0.540740 0.040975 -0.123242 -0.242848 -0.762853 0.714907 -0.611234 0.642048 -0.523366 1.135185 0.325924 -1.159463 0.801436 0.995592 0.632489 0.018189 -0.228540 0.892345 0.339875 -1.744404 0.711039 0.847489 0.515897 0.637842 0.536877 1.212732 0.564212 -0.672657 -0.571510 1.196492 -1.129834 0.432141 -0.301293 -0.566021 0.498011
yo -0.889827 1.112012 -0.128240 -0.112618 0.790589 0.386888 1.143287 0.992823 1.109506 0.284792 0.574663 0.188573 0.604275 -0.798421 -0.503202 0.694297 0.412843 -0.400809 -0.218243 -0.878251 0.178657 0.653252 0.456518 -0.047624 -2.221974 -0.929199 0.358848 0.373993 0.793432 0.259039 0.790399 -0.134307 0.693761 1.306443 -0.396280 -0.062301 0.054854 0.017803 -0.413440 0.397791 0.365981 -0.285130 0.211488 -0.757261 -0.105391 -0.180730 0.238503 -1.062412 -0.403382 0.787578
night -0.103927 -0.403818 0.711352 -0.048917 -1.394175 -0.217259 0.930372 0.268640 -0.486085 -0.312241 -0.248615 0.825149 0.626960 0.365627 -0.239715 0.143075 0.159480 -0.655292 -0.769242 0.441066 -0.790883 0.079308 0.139523 -0.326523 -1.268525 0.665797 -1.440654 0.741231 0.844892 -0.743973 -0.956594 0.433596 -0.610840 -1.274565 1.056093 0.280418 -0.197507 -0.028484 -1.001691 0.855816 1.345784 0.297315 -0.229268 -0.479713 1.052126 1.147922 1.245483 -0.567636 -0.439316 0.455804
day -0.725035 -0.636574 0.103048 0.899893 -0.034466 -0.770935 1.371169 0.332795 -0.510872 0.288285 -0.209564 -0.008233 -0.076017 -0.128716 0.507843 1.017809 0.608831 -0.349142 -1.114743 0.902573 0.397893 -0.212926 -0.319484 -0.540111 -0.668952 -0.597667 -1.393396 1.189686 1.695290 -0.640716 -0.102827 -0.151186 0.740506 0.828660 0.543807 0.007398 -0.309937 0.227529 -0.045402 -0.732206 1.322818 0.083947 -0.252295 -0.382120 0.980251 0.491514 1.588245 -0.531261 -1.202855 0.235096
turn -0.434437 0.404778 0.361743 -0.650704 -1.027971 -0.984069 0.116081 0.875981 0.165840 0.486252 0.496494 0.099680 1.502258 0.422552 0.130759 -0.044010 -0.240834 0.200096 0.547595 -0.530657 0.705861 0.915968 -0.168743 0.881425 -1.559497 1.542552 0.345177 0.677719 0.828575 -0.541671 -0.369765 -0.074269 -0.003214 -0.327318 -0.885358 -0.279296 0.092806 1.917944 0.104429 0.586231 0.715034 0.293902 -0.412873 -1.195687 -0.029364 0.467808 0.644062 -0.752125 -0.326663 -0.477892
mind 0.185867 -0.066080 0.245527 0.172701 0.105621 0.260073 -0.174268 -0.115916 0.723377 -0.864503 0.780807 0.651573 0.848685 -0.920269 -1.001095 -0.454175 0.437421 1.432630 -0.246687 -0.155946 -0.419534 1.283784 -0.348451 -0.455019 -0.739081 1.244803 -0.451977 0.527865 0.570545 -0.388944 0.803697 -0.956677 -0.541060 -0.579382 -0.539354 0.660354 -0.038104 0.484448 -1.389922 0.241031 1.426804 1.072054 -1.128898 -1.215306 0.570371 0.536764 0.741176 -1.424297 -0.446348 -0.183897
drop -0.057623 0.393327 -0.029628 -0.021688 0.257783 -2.046687 -0.011392 -0.287574 0.208188 0.593424 -0.223176 0.555571 -0.453102 0.128347 -0.718611 0.486700 0.188529 -0.483961 -1.079400 -0.760969 -0.532810 0.825543 0.630727 0.860199 -0.104523 0.077325 -1.254010 1.389955 0.055917 0.375821 -0.545495 -0.451732 2.481325 1.445682 -0.970804 -0.502692 0.671175 0.522213 -0.750716 0.716394 -0.270871 0.360584 -0.125488 -0.512873 -0.326891 -0.325629 0.731857 -0.128583 0.144729 0.341240
da -0.194044 0.926796 -0.536049 -0.113532 -0.335275 -0.654868 0.671001 -0.086708 0.568863 0.408058 -0.177208 -0.715787 0.341927 -0.473951 0.632498 -0.814628 -0.565894 1.289979 1.955540 -0.681629 -1.264565 0.297066 -0.970182 -0.042089 -0.539052 0.138239 -0.291917 -0.765686 0.981165 0.112407 -0.782486 -1.304332 -0.026858 0.891798 0.639315 -0.259083 1.207086 0.670544 -0.020034 0.206967 1.810713 0.231578 -0.342407 -0.078730 0.691265 -0.037455 -0.426951 -1.441623 0.335747 -1.446270
god -0.261242 -0.625905 0.603020 0.151798 -0.389909 0.300846 0.215779 -0.324252 -0.998885 0.256002 -0.585758 -0.618063 -0.274453 -0.738127 0.934485 1.228156 0.888924 0.208423 1.062621 -0.418726 0.720416 0.633456 -0.922649 -0.952233 -0.190452 -1.317187 -1.135272 0.565565 0.310849 -0.699967 1.198681 0.124267 -0.049917 -1.307003 -0.588877 1.221065 1.120799 0.175264 -0.675959 -0.392514 1.038131 1.236944 1.240581 -0.004026 0.202813 0.298324 0.869918 0.032882 -0.609539 -0.190926
leave 0.295405 -0.968967 0.688606 -1.219453 -0.776118 -0.324263 0.272157 -0.430408 -1.075257 -0.271337 -0.260165 -1.054164 0.135419 -0.516094 -0.445140 0.828803 -0.195255 -0.847860 -0.725039 0.714203 0.232686 0.980029 -0.955834 -0.209275 0.221211 0.299709 -0.830639 1.102123 0.047557 0.924203 0.780958 0.148388 0.983773 0.148278 -1.396282 -0.998462 -0.015301 -0.030710 -0.072094 0.228877 0.294505 0.542120 0.072228 -1.452447 -0.548733 -0.851523 0.207569 -0.951986 -0.370560 -0.084500
aye -0.711001 -0.223071 0.004702 0.509733 -1.390457 0.439008 1.317436 0.448089 0.470743 -0.388331 -0.273401 0.544177 0.522091 0.535870 -0.879774 -0.663790 -2.865332 1.444819 0.090407 -0.768663 0.614492 0.560171 -0.997909 -0.447333 -0.137635 0.476120 -1.096087 1.002368 0.930012 -0.001855 0.179224 0.365637 1.028996 -1.011382 0.267488 0.407445 -0.664764 0.394710 -0.715607 2.011992 0.299257 0.112320 0.587396 -0.599833 0.285138 0.385716 -0.904650 0.432514 0.253386 0.254137
pop -0.175161 -0.382448 -0.590054 -1.225207 -0.901608 0.190419 0.349031 -0.263977 -1.470889 -0.092301 0.206670 1.113312 0.733004 -0.313074 -1.667820 -0.564833 0.342764 -0.033339 0.468606 0.024474 -1.013697 1.225778 1.153377 0.126115 -0.314573 -0.907416 -0.976043 0.887609 0.370708 -0.960217 0.081082 -0.217952 1.848535 -0.056540 -0.023010 0.180772 1.095250 0.414430 -0.185004 1.270870 0.194683 0.709134 1.170833 -0.438593 0.609218 0.797088 -0.013016 -0.150059 0.407998 0.609980
talk 1.097396 0.431556 1.111223 -0.077875 -0.736432 0.639229 0.793156 0.168352 1.049071 -0.088228 0.775679 -0.158356 1.864097 -0.753389 -1.051460 0.148223 0.902855 0.211737 0.719745 0.147489 0.058406 1.346294 -0.910702 -0.616019 0.326426 0.621134 -0.246153 0.851708 0.245695 0.662840 -0.516151 0.080996 0.242263 0.872321 -0.514487 0.183007 0.885548 -0.318797 -0.967082 -0.186737 0.872510 0.254509 0.457815 0.185142 -0.061318 0.626032 0.697591 -0.224478 -0.664836 0.845116
ride 0.766662 0.182310 0.837642 1.092093 -0.472137 0.055863 0.016053 0.372106 -0.230089 1.120349 -0.682291 0.935964 0.347921 0.809013 -0.990575 1.779253 -0.043963 -1.164041 -0.405089 -0.059562 0.207947 0.242078 -0.471299 0.082176 -0.227527 0.248076 -0.865696 0.489154 1.166885 1.014948 -1.147387 -0.230651 -0.619156 -0.182615 0.047761 0.603892 -0.401210 -0.724628 0.138803 0.765479 0.202133 0.690284 -0.161045 -1.395637 0.497230 0.247738 -0.242105 -0.603883 -1.389008 -0.630043
better 0.355107 0.407672 0.647961 -0.130065 0.258092 -0.484416 -0.389338 0.724019 -0.004647 0.498041 0.364994 0.468780 0.980532 -0.031279 -0.373363 -0.683072 -0.361166 0.278232 0.332694 -0.384973 1.317130 1.125304 -0.206591 -1.542475 -0.167501 0.875071 0.433691 1.141580 0.648556 -0.299326 -0.057711 0.043000 0.772432 -0.309064 -0.437475 0.626239 -0.435958 1.141121 -0.245125 0.471334 1.108640 -0.125668 0.423115 -1.474897 0.759271 -0.095433 -0.024702 0.069269 -0.416738 0.828212
play -0.428875 -0.077828 0.584076 0.015996 -0.243044 -0.592630 0.808403 0.260114 -0.371882 0.825000 0.591861 -0.432194 0.908540 0.597559 -1.217244 0.315459 -0.979338 0.152689 0.138907 0.032832 -0.626197 0.692298 -0.590528 -0.522450 -0.613245 -0.341045 -1.585855 0.424416 -0.252321 0.148947 -0.694173 -0.209738 0.157445 0.517137 -0.050658 -0.326608 -0.533750 0.458957 -0.017050 0.127189 0.786695 -0.314939 0.313484 -0.716663 0.650668 -0.367976 1.400478 -0.001934 0.048146 0.662544
left -0.511291 1.050007 -0.143930 -0.990347 -0.469757 -0.392754 0.108066 1.079758 0.157164 0.015234 -0.784005 -1.260001 0.008766 0.910590 0.137910 -0.014913 0.759803 1.141076 -0.364872 -1.913571 0.207889 -0.468447 -0.406168 0.430622 -1.219566 -0.749509 -1.003648 0.073236 0.150763 -0.529260 0.501270 0.798043 0.607607 -0.796962 -1.103586 -0.305103 -0.449630 1.190887 -0.908891 0.573597 0.358524 -0.532309 0.819010 -1.810190 0.227404 0.162556 0.320168 -1.017808 -0.021627 0.386867
came -0.592722 0.600017 1.099186 -0.523677 -0.177829 0.187047 -0.234241 0.773185 -0.359526 0.245685 0.332613 0.523238 0.237485 1.308984 -0.711337 1.093660 0.003613 -0.273434 -0.209379 0.871783 -0.392269 0.049671 0.683357 1.035590 0.276952 -1.147113 -1.045622 1.188285 0.344783 -0.386152 0.586993 0.423405 0.143328 -0.391257 -1.835408 -0.348201 -0.492984 1.089239 -0.041319 -0.072348 0.717225 -0.043543 -0.321577 -0.161259 0.407380 0.282523 0.059591 -0.341894 1.040279 -1.454886
damn 0.816378 0.130460 1.056755 0.302762 -0.726321 -0.108107 0.282726 -0.065171 -0.693231 -0.441945 -0.582942 -0.246544 -0.169880 -0.230336 0.311837 0.344568 -0.031269 -0.221771 -0.373829 -0.559864 0.639103 1.553710 0.464165 -0.838120 -0.387733 -0.506507 -1.413404 0.228775 -1.347480 -0.119804 0.873970 0.895501 0.612238 -0.507452 -0.294978 0.162751 1.008753 0.745695 -1.597184 -0.064660 0.333545 0.407131 0.316539 -0.661668 0.053467 -0.085540 0.215482 -0.005296 0.116826 -0.372102
face -0.362912 -0.923257 0.381533 0.250155 -0.859154 0.080462 1.008966 0.430762 -0.711341 -0.333434 0.078735 -0.407538 -0.692576 -0.111354 0.298146 1.275740 -0.153375 0.406238 0.196320 -1.160559 0.562589 1.488964 0.209569 -1.206551 -0.432099 0.802562 0.248799 0.299686 0.253063 0.436961 -0.245045 0.092966 0.802115 1.194000 -1.079309 0.079282 0.676785 0.883470 -0.205728 0.222543 0.588352 -1.399501 1.081418 -1.210998 -0.481434 0.734273 0.430297 0.009309 0.421267 -0.097971
hold 0.906774 0.614166 0.921496 -0.683079 -0.553331 1.178299 -1.099658 0.919965 -0.367642 0.282868 0.764324 0.537659 0.501855 0.392056 -0.817201 1.006154 0.580651 -0.115373 -0.110753 -0.618913 -0.382189 -0.087920 -0.609314 -0.255394 -1.201413 -0.069910 -0.631088 0.227737 -0.560849 0.360545 0.183328 0.617702 -0.772401 0.152729 -1.574662 0.707111 -0.626032 -0.135299 -0.551026 0.801345 0.326230 0.786917 -0.276244 -1.225674 -0.153490 0.670332 0.093366 0.075558 -1.102812 -0.114607
wo -0.791082 -0.525983 0.329719 -0.581294 -0.581174 0.061125 0.275019 0.686945 -0.811279 0.801956 0.364920 0.238438 -0.417913 0.269582 -0.963329 0.803301 0.142370 -1.167208 0.528577 -0.067597 -0.028622 0.942970 -1.506064 -0.048229 -0.211256 0.059005 -0.473571 0.833882 -0.394354 -0.134649 0.001102 0.518351 0.530887 0.032633 -0.418850 0.332316 -0.808815 0.677219 -0.860198 0.220974 0.313664 -0.486148 1.059260 -0.731884 1.347572 1.444012 0.864104 -0.410637 -0.051694 -0.412143
walk 0.191360 0.736843 0.548649 0.224826 -0.617910 -0.115377 -0.394711 0.085778 -0.208570 -0.010801 -0.207415 0.677795 1.736547 0.036843 1.353761 -0.309980 0.787513 2.268840 -0.233133 0.123933 0.183570 0.040155 0.134595 0.148693 -0.183447 -0.058981 -1.584260 -0.043986 -0.003416 0.590379 0.758199 -0.308643 0.681963 -0.174996 -1.275403 0.969318 0.813505 -0.091229 -0.935572 -0.104520 -0.316107 -0.325343 -1.058346 -1.076752 0.170240 1.309351 0.453507 0.717377 -0.724954 1.121016
run 0.817579 0.711004 -0.234638 -0.210602 0.366734 -0.385883 0.067560 0.384489 -0.786371 0.398945 -0.195075 0.183368 1.108364 -1.228684 -0.723673 0.408192 0.781118 0.483945 1.119654 0.297113 0.228751 0.999001 -0.508389 -0.215042 0.210576 0.004177 -0.641326 -0.001546 -0.221273 0.067778 0.091207 1.553880 0.710252 0.754068 -0.899681 -0.021720 -0.535751 0.260052 -0.456669 1.305219 0.280972 -0.035657 0.897118 -1.552081 -0.271503 -0.198290 0.555237 -0.823240 -0.183764 -0.054510
bag 1.325035 0.610866 1.056925 -1.105510 -0.056132 0.563160 -0.039567 0.112525 0.544612 -0.374326 0.512856 0.264156 1.217146 -0.636770 -0.778309 0.740292 0.975571 0.225012 -0.198301 0.575637 1.071978 0.501371 0.759372 0.189509 0.479793 0.151306 -0.386860 -0.202312 -0.295537 0.892468 -0.060709 0.261427 0.379163 1.956049 -1.540565 -0.291033 -0.073352 0.028661 -1.468035 0.298656 0.031940 -0.890509 0.189547 0.315940 0.536226 -0.720542 0.372378 0.217743 -0.253613 -0.977262
hard 0.975766 -0.165283 -0.410307 0.513883 -0.317533 -0.452664 -0.839166 0.223752 -1.855586 0.727307 -0.277887 -1.105122 0.883367 0.010883 -1.055485 0.084009 0.125577 -0.169620 0.142259 0.715827 0.152579 0.678579 0.267607 -0.915058 -0.884350 -0.966338 -1.179998 0.000329 -0.767126 -0.463130 0.131611 -0.304274 0.106674 -0.577602 -0.509512 -0.446015 0.474766 -1.261473 -1.018971 -0.233653 1.855654 -0.296990 0.091990 -0.903258 0.539131 0.733492 0.252488 -0.270832 -0.295553 -0.135359
young -0.097973 -0.129423 1.076310 0.578867 -0.812130 -1.056575 -0.156784 0.031790 0.077973 0.646370 0.315048 0.028097 0.976818 0.216786 -0.689292 1.057586 -0.643685 0.587753 -0.812574 -0.342596 -0.500614 0.946122 0.139782 0.243800 0.601974 -0.587551 -0.882238 0.507818 -0.505925 0.188230 0.696895 -0.162559 0.300590 0.316902 -0.046896 -0.129917 -0.166070 0.960657 -0.260853 0.958192 1.404596 0.810265 0.446162 0.337110 -0.131577 -0.933469 0.733625 -0.821374 -0.066744 0.308808
head 0.210803 0.441292 -0.716868 0.120958 0.044816 0.653999 0.251670 0.005861 -0.115542 0.031951 -0.015644 0.040305 0.264958 -0.183615 -0.649431 0.145652 0.910444 -0.772516 -0.279508 -0.709361 1.020656 1.173017 0.338449 0.367658 -0.139589 -0.485363 -0.315270 1.668318 0.183304 0.076306 -0.380549 -0.783298 -0.007427 0.283727 -1.065811 0.956233 -0.467153 0.203645 -1.075616 0.026877 -0.273114 0.807750 0.091119 -1.342809 0.437041 0.277924 -0.310239 -1.190805 1.093209 0.477415
stop -0.408348 -0.485766 -0.328508 -1.218107 0.355843 0.290975 0.303644 -0.151948 -0.334588 -0.512674 0.208430 0.730244 0.664319 -0.043736 -1.098631 -0.173461 -0.131560 -0.818897 -0.761043 0.194040 -0.178047 0.929799 -0.474346 0.446503 -0.720707 -0.476091 -0.563721 1.846584 -0.070148 0.059736 0.261708 -0.282655 1.721575 -0.508188 -0.201141 0.022299 0.905764 0.908227 -0.496898 0.481213 0.007635 -0.244820 1.407294 -0.084846 1.042912 1.605959 -0.280748 -1.020892 -0.151881 0.617352
shawty -0.898387 -0.139241 0.494707 0.771854 -0.192760 -0.236779 1.237674 0.828596 -0.619443 0.662237 -0.291718 0.834808 0.652331 -0.396288 0.191178 0.525724 0.511288 -0.111556 0.597583 0.378374 0.685853 0.046718 -0.132920 -1.007374 -0.204867 0.295633 -0.964026 0.713158 -0.329053 0.547279 -0.891947 0.198010 0.200620 -0.537160 -0.065952 0.223373 0.167338 0.077606 -2.171403 0.006403 -0.979754 -0.971445 -0.756644 -0.915091 0.564052 0.544551 -0.397622 -0.452477 -1.061933 0.397683
high -0.411499 0.108669 -0.014125 -1.164256 -1.549461 0.026161 -0.190652 -0.290099 -0.756172 -0.252275 0.755103 1.167206 0.596703 0.555469 -1.099298 -0.687656 -0.858817 0.406077 -0.110543 -0.466912 0.824951 0.993322 -0.861527 -0.347917 -0.462462 -0.358923 -0.859000 0.305388 0.241935 -0.926164 -0.071308 -0.377725 -0.181486 -0.228052 -0.885289 1.062989 -0.462104 -0.211053 -1.441877 0.938695 0.836938 -0.494955 -0.093708 0.107608 -0.583751 -0.928196 -0.185853 0.153960 -0.073814 -1.088080
na 0.283642 0.365206 0.108852 0.642332 -1.542387 -1.313611 -0.661630 0.681735 0.979223 0.366841 0.503552 0.748630 0.778760 -0.332836 0.164836 1.520998 -1.565854 -0.734093 0.609884 0.429980 -0.589318 0.361605 -0.432261 -0.464167 -1.180270 -0.020255 -0.547307 1.534223 0.675021 -0.362731 -1.276493 0.667920 -0.005785 -0.395774 -0.390643 1.059237 0.200236 -0.380415 0.796796 0.209725 0.049934 0.483975 -0.254247 -1.371484 1.628414 0.363591 -0.103283 0.076689 -0.655455 -0.430416
everybody 0.875323 -0.438335 -1.082139 -0.110405 -0.756184 -0.182471 -0.092510 1.180819 0.069378 -0.101629 -0.919377 0.563528 -0.172073 -0.546268 0.621430 0.343118 -0.657859 0.368570 -0.697436 0.355258 0.735770 1.235776 -0.001035 0.815215 -0.399248 -0.373040 0.022124 0.750536 -1.013158 -0.152693 0.255120 -1.001608 0.498032 -0.268978 -0.658742 -0.021719 0.041463 1.257882 0.388943 0.599642 1.364205 0.728639 -0.365040 -0.206170 1.149613 0.593938 1.256245 -0.584443 -0.207110 0.146115
bust -0.085330 0.226247 0.475946 -1.057879 0.083393 -2.368448 -0.507918 -0.633233 -0.188314 0.735790 0.934809 1.016092 -0.104555 -0.237055 -0.601728 -0.052767 1.117445 -0.721192 0.406149 -0.298157 -1.243187 1.327968 -0.163744 0.824874 -1.733637 0.896231 -0.899382 0.733358 0.264394 0.970892 1.052116 -0.446544 0.310698 0.489228 1.456270 -0.943670 0.482668 0.039029 0.407897 0.809529 -0.347281 -0.443498 0.695608 -1.544872 -0.062068 0.283558 0.056597 1.199605 0.331306 -0.055913
rich 0.231994 0.344737 2.246053 -0.155073 -1.448960 -0.081793 -0.831340 1.282155 -0.302877 -0.050182 0.971881 0.917187 0.517655 0.620681 -0.000631 0.686802 0.846972 0.702163 0.055753 0.225393 0.344219 0.262181 0.645106 0.215795 -0.112742 -0.357754 -0.940275 0.643814 -0.676064 0.288907 0.750778 -0.428835 -0.136210 0.069165 0.357034 0.069332 -0.202914 0.426447 -0.715341 0.677598 1.040044 -0.729089 0.564987 0.156600 0.558723 0.625613 0.165014 -0.181704 -0.225754 0.906219
little -0.108179 0.646188 0.228859 -0.742176 -0.507499 0.411925 0.404450 -0.459544 0.466534 0.015832 0.512497 0.188017 0.606169 -0.366048 -0.626238 0.237504 -1.194986 0.370559 0.048664 1.707803 -0.019624 0.786752 0.407536 -0.548267 0.340692 -0.948939 -1.339795 -0.489804 0.354470 -0.653925 0.493524 -1.118390 0.114477 0.331150 0.053136 -0.432590 0.230721 1.205421 -0.488700 1.566396 0.511190 0.379840 1.495857 -0.833226 1.105125 0.317383 -0.368754 -0.184455 -0.358360 0.204500
okay 1.461865 0.144888 -0.201377 0.661269 -0.824327 -0.988836 0.065503 0.599594 -0.503483 -0.198912 -1.019625 -0.402450 0.060788 0.278776 -1.282361 -0.331225 0.082631 -0.121244 -0.823911 0.335788 1.554269 0.203464 0.423076 0.151459 -0.722562 -0.077968 -0.934261 0.713675 0.250099 0.089119 0.788592 0.372848 0.402489 1.071498 -0.615461 0.979151 0.390431 0.813055 -0.879477 1.275845 0.676641 0.893547 -0.445949 -0.500421 -0.286458 0.797523 0.398262 0.671618 -0.720382 0.486247
ah -1.048109 0.860897 -0.123764 1.162630 0.869038 -1.349305 0.505329 0.972752 -0.004269 0.213430 0.214250 0.085984 1.169121 -0.365028 -0.896104 -0.603186 -0.192570 0.674816 -1.179306 -1.224955 0.139380 0.115695 0.908865 -0.442116 -1.391748 0.506853 0.448876 0.871576 -0.063867 0.206007 0.044238 0.344386 0.024944 0.482569 -1.265734 1.795915 1.013816 0.653446 -0.488789 0.912416 0.031299 0.189336 -0.517193 0.181843 -0.138327 -0.848132 0.411873 -0.582164 -1.354245 0.409748
dick -0.119819 -0.224577 0.766000 0.421897 -0.861537 0.403470 0.009894 1.017316 -1.342381 0.796156 -0.107761 1.054268 0.526823 0.744042 -0.623794 0.650891 0.269275 -1.613384 0.748801 -0.208153 0.736298 1.219206 0.847756 0.058927 0.256215 0.329549 -0.905746 -0.045079 -0.216094 0.092996 -0.622313 0.164081 -0.192973 -0.368597 -0.119696 -0.226890 0.192631 -0.063758 -0.906797 0.708113 0.605020 -1.169380 0.016600 -0.280374 0.504065 -0.715257 -0.494838 0.182573 -0.445027 0.048482
beat -0.443093 -0.479265 0.759821 0.610510 0.703708 0.696925 0.016711 0.500138 0.012431 0.699185 -0.145199 0.510072 0.393836 -0.885996 0.248672 0.760234 0.425237 -1.118488 0.321346 -0.335109 1.194412 0.474257 0.125961 0.425155 -2.161106 0.669957 -0.807079 0.717699 -0.578524 -0.684741 -1.267884 -0.117810 1.020909 -0.031384 0.027364 -0.415710 0.935099 0.978019 -0.878294 0.384932 0.684869 0.583117 0.196449 -0.492721 -0.636103 -0.257137 -0.292572 -0.423970 0.847994 0.131051
woah -0.105404 -0.796728 -0.107957 0.178960 -0.978991 -0.662367 0.728748 0.490778 0.246086 -0.425376 -0.162755 1.957048 -0.236452 0.207656 -1.099664 -0.539606 0.947776 -0.133446 -0.216398 -0.742022 0.084136 -0.193175 -1.030765 -0.823707 -0.023064 -0.200072 -0.518356 0.616950 -0.164671 -0.791340 0.425584 -0.665141 -0.616259 1.005307 -0.759163 1.115599 -0.766540 1.138844 -1.000215 0.515079 0.178514 0.441990 -0.115778 0.679578 -0.343594 0.080982 0.549240 -0.287353 0.237892 -0.870976
trap 0.166196 0.224947 0.481520 0.851790 -1.056986 -1.547559 0.469975 -0.237400 -0.227184 1.040783 -0.073239 -0.292644 1.100322 -0.150437 -0.198480 1.140677 0.370777 1.255601 -0.456002 0.375684 -0.037438 -0.224990 0.658924 1.350900 0.428838 -0.701198 -1.151275 -0.140330 -0.691162 -0.637470 -1.080220 0.653994 0.709463 -0.163825 -0.905040 -0.747477 -0.703129 1.047246 0.042520 -0.384242 1.032025 -0.225397 0.049687 0.643214 -0.841827 -0.122044 1.801128 -0.206988 0.831259 1.234632
black -0.383121 0.420177 -0.756377 -0.032236 -0.310846 -0.302278 -0.244888 -1.010383 1.571441 0.238990 0.352240 -0.220329 0.589988 0.082787 0.823546 0.943323 -0.913036 -0.435063 -0.499591 1.003356 0.619078 0.585368 0.222378 0.140123 0.560640 0.012551 -1.010798 -0.033118 1.053426 -0.274824 0.888903 0.212761 -0.706503 -0.351807 -0.854889 -0.467552 0.271040 1.755552 0.123890 0.972801 0.754163 0.456363 1.507024 0.215480 1.021472 0.544438 0.084160 0.197083 -0.250783 0.931414
til 0.434944 -0.272644 0.231514 0.009225 -1.513871 -0.873022 -0.411819 -0.043745 -0.798961 -0.236044 -0.225444 0.859556 1.337540 0.305484 -1.160220 0.588327 -0.601154 0.194799 -0.260684 0.631381 0.107130 0.237421 -0.754055 0.735715 -0.863517 -0.375802 -0.798671 0.524954 0.917331 0.500566 -0.562811 0.953836 0.208699 -0.523616 0.233204 0.785355 -0.652136 -0.213514 -0.085181 -0.345484 0.647460 -0.643525 0.613269 -0.332105 1.144570 -0.480650 -0.508572 -1.878292 -0.606572 -0.473967
party -0.986036 0.730170 -0.947659 -1.230337 -0.762298 -0.322424 0.055587 0.118927 -0.421443 -0.388665 -0.381732 -0.400663 1.314566 -0.817060 -0.197493 1.056633 -0.912365 -1.020383 0.624414 1.646726 0.021213 0.321711 1.459258 -0.158885 -1.585194 -1.059734 -0.942371 0.368937 0.752304 0.079995 0.429491 -0.490360 -0.424966 0.405977 0.556066 0.342085 0.454050 0.576100 -0.423288 -0.102617 1.743392 -0.249941 -1.267077 -0.131976 -0.054598 0.453807 0.121401 0.220172 0.762091 0.357539
hot 0.157812 0.837202 0.111869 0.498875 -0.313920 0.380182 0.822068 -0.300551 0.358232 0.941154 0.866075 0.475761 0.435269 -1.181882 0.302766 -0.613258 -0.444215 0.958730 -0.497779 -0.151591 0.073899 1.646484 -0.573363 1.295876 -0.708787 0.047854 -0.942129 1.124522 -0.565640 0.069967 -0.226221 0.854341 1.713490 0.012565 -1.260875 -0.479528 0.661251 0.009516 -0.323841 -0.150040 0.289596 0.736163 -0.124036 0.376419 -0.009894 -0.339653 0.762780 -0.860670 1.302526 -0.549443
nah -1.033249 -0.693652 1.041660 0.027838 0.243473 0.340350 0.947355 0.855676 0.289384 0.302496 0.598845 1.186466 -1.262426 0.194137 -0.623653 -0.311727 -0.512772 -0.157814 0.661652 -0.734656 -0.998094 0.981560 -1.160360 -1.164082 -0.183345 -0.047792 -1.465952 0.778994 -1.338496 0.605391 0.161071 -0.342200 -0.508233 -0.167903 -0.454812 -0.421201 -0.475714 0.697703 -0.563145 -0.239650 0.355239 0.641606 0.602166 0.320635 0.840248 0.120233 0.262458 -0.598237 -1.452740 0.662215
skrrt -0.031364 0.764852 0.288568 0.487450 0.539410 -0.188130 0.033068 0.401133 -0.299118 1.084835 0.620316 1.060536 0.322090 -0.405305 0.743437 0.064403 0.860674 0.126556 -0.519329 0.013990 0.184478 -0.155383 -0.160449 -0.451815 0.892498 0.642686 -1.449938 0.467974 0.331936 -0.021000 0.730276 -1.064281 1.655699 0.375099 -1.809066 -0.505611 -0.092301 -0.038929 -1.039435 0.788797 0.215611 -0.119356 -0.870233 0.457657 0.718406 -0.227196 -0.643981 0.896305 0.747192 0.878738
mama 0.206612 -0.334196 0.396175 0.275796 -0.858508 -0.603015 -0.072523 0.526524 0.526965 0.907078 -0.891733 -0.812867 0.803592 -0.604973 0.089454 -0.046862 -0.249735 -1.363359 0.243075 0.266084 0.768467 0.947281 -0.190400 -0.752733 0.099024 -0.407044 -0.822069 0.552773 0.614746 1.153103 0.757922 -0.837760 -0.735469 0.091854 -0.329476 -1.384665 0.405592 0.657404 -0.840443 0.168406 0.281692 -0.925471 -0.382582 -0.093590 0.700288 0.661053 0.085531 0.245052 -0.050827 -0.675502
stay -1.148067 -0.191315 1.745385 0.220248 -0.176444 -1.163421 0.508190 0.182544 -0.296930 0.260350 1.024799 -0.436072 0.822450 -0.386045 -0.438924 0.290006 -0.228534 -0.117583 0.493162 -0.612599 0.319223 -0.278552 -0.823082 -0.363448 0.401050 -0.729882 -0.465235 1.059015 0.119949 -0.335440 -0.096980 -0.047305 0.402887 -0.083067 -0.363123 -0.407024 -0.753686 0.055206 0.515049 -0.034376 1.842536 0.233782 -0.324521 -0.812778 0.094398 -0.002323 1.547298 -1.405243 0.236325 -0.207432
kill 0.718623 -0.640680 -0.660803 1.132870 -0.873064 -0.854891 -0.711812 1.601263 0.050810 -0.262106 -1.510708 0.720017 -0.101865 -0.132876 -0.769519 1.005001 0.100536 0.454430 -1.226605 -0.493414 0.472060 1.149102 0.469921 0.898028 -0.466282 0.718884 0.065820 0.591076 0.605789 0.035007 0.423391 -0.254021 0.397856 -0.930834 -0.738743 0.796304 0.162215 0.977075 0.584976 0.620356 0.183778 1.304959 -0.244008 -0.392734 0.353123 1.090842 -0.036939 0.020543 -0.826419 1.367324
check 1.092667 0.841821 0.582676 -0.564584 0.418327 0.314214 -0.025652 0.327539 0.522943 0.926549 -0.966098 0.099755 -0.463665 -0.716092 -0.754322 0.164513 0.908491 0.804957 0.404286 0.373601 0.937179 0.609898 1.221563 0.020106 -0.609708 0.743532 -2.371280 0.077862 -0.641343 0.059106 -0.252964 0.933670 0.673347 0.639419 -0.296324 0.719059 -0.285549 0.016588 -0.514651 -0.070334 -0.362468 -0.146171 -0.146808 0.571142 1.017507 0.535685 1.432797 -0.230149 -0.278960 -0.025896
gettin 0.056745 0.033770 0.393467 -0.581070 -1.050616 0.473372 -0.890113 0.999180 0.126035 -0.743426 -0.297867 1.409215 -0.170023 -0.160699 -0.256783 -0.103230 0.245426 -0.587814 -0.009231 -0.155407 0.629379 0.455966 -0.510596 0.651054 -0.346432 -1.263658 -0.690977 0.571928 -0.493653 -0.333579 -0.214869 -0.998590 0.656543 -0.050543 -0.505257 0.212765 -0.106996 0.611157 -0.781771 -0.368940 1.206279 -0.850402 0.926665 0.474295 0.343924 0.027818 0.625459 -0.129705 -0.788910 0.704672
talkin 0.552854 0.054913 -0.066004 -0.204728 -0.411683 -0.631938 1.414938 -0.121994 0.695744 -0.184559 0.001993 -0.122705 1.013576 -0.055526 -0.569504 -0.350268 0.864488 0.281073 1.046147 -0.024391 -0.280286 1.237626 -0.316965 -0.849140 0.211595 -0.018126 -0.503310 0.901373 -0.015783 0.607411 -0.426465 -0.356763 0.322530 0.968263 -0.499986 -0.567455 0.566661 1.063647 0.486463 -0.434233 0.596257 0.541512 0.133773 -0.323224 -0.609327 0.160025 -0.085848 -0.986560 -0.923507 -0.023572
lot 1.100376 0.847244 0.207108 -0.910099 -0.918535 -0.319783 -0.226235 -0.458205 0.489216 -0.432948 0.408045 -0.467245 -0.025817 -0.926012 -1.087469 1.144953 0.889660 -0.305507 -0.490432 0.527394 0.534643 0.497549 -0.558450 -0.215339 0.137155 -1.117871 -0.976118 -0.396120 0.127956 0.099328 -1.050245 0.019448 0.227207 -0.509023 -0.832829 -0.713062 -0.206006 0.289822 0.024886 -1.199719 0.017884 -0.281996 0.631464 -1.606527 0.821683 1.168714 0.191578 -0.052501 -1.313921 -0.468793
break 0.602814 0.407952 -0.768631 -0.041184 -0.600332 -1.608401 -0.946396 -0.230838 0.040186 0.224888 1.256982 -0.015727 -0.469389 -1.108138 -0.634054 -0.998017 0.548657 -0.204672 -0.330756 -0.688422 -0.408583 0.992907 -1.141969 0.845434 -1.422809 -1.056396 -0.442317 0.181094 0.611433 0.140804 0.485741 -0.859895 -0.424109 0.351254 -1.085165 -0.666943 1.184216 0.424844 0.844567 -0.496560 0.096451 -0.016728 0.510882 -2.129565 1.090160 -0.510766 -0.408209 -0.134537 0.058390 -0.762467
bring -0.232110 0.849994 0.552499 -1.229159 -1.117415 0.012317 0.067133 0.440618 -0.109514 0.339131 -0.036511 -0.387819 0.900873 0.662704 1.102624 0.642879 0.270839 -0.242512 0.023242 -0.735717 0.600173 0.431892 0.704950 -0.824505 -0.781067 -0.125520 -0.710365 -0.810878 0.203978 0.547479 -0.913803 -0.195927 0.758869 0.305274 -0.099289 -1.255641 -0.697084 0.453913 -1.533450 1.153772 -1.253861 -0.260453 0.570309 -0.897531 0.483874 0.427187 -0.289329 -0.185673 -1.190558 0.210249
change 0.769970 -0.996808 0.608826 0.783577 -0.042192 -0.562674 -0.916000 -0.724848 1.662692 -0.267316 0.619749 -0.009731 0.552293 -0.124943 -0.438428 1.496558 0.337870 -0.496370 -0.593699 -0.761780 0.617410 0.744853 -0.231786 0.481779 -0.333838 0.161119 0.094681 0.520890 -0.304932 -0.174049 0.577354 0.602905 -0.090599 0.226370 0.497936 0.118693 -0.247992 0.318122 -0.294517 0.780323 1.035981 0.764031 0.945057 -1.366166 1.652556 0.221362 0.433560 0.101079 0.280995 -0.425417
whip 0.767114 1.195753 -0.461850 0.296626 -0.894317 -0.250500 -0.921043 0.480495 0.454174 0.562304 -0.911478 0.247781 -0.793434 -0.301261 -0.602441 -0.032292 1.158826 0.256982 -0.344901 -0.372065 1.002635 0.357577 0.498459 0.661500 1.238389 -0.583915 -0.706871 1.485105 1.288138 0.600473 0.411567 -0.056360 -0.092591 -0.268193 -1.084316 0.137466 0.215466 1.102378 0.581660 0.518931 0.804878 -0.052671 0.075249 -0.697100 -1.400654 0.302395 -0.138391 0.977589 -1.161840 0.911375
long 0.186228 -0.490740 -0.109194 -0.373550 -0.604935 -0.021255 0.324876 0.709532 -0.386406 -0.408319 0.389500 0.809088 0.376985 0.515157 0.621367 0.186113 0.552373 0.046095 -0.414970 0.147778 0.384900 -0.120853 -1.156170 0.372834 0.108787 -0.170718 -0.878236 0.374692 0.354268 -0.809362 -0.187463 1.436519 -0.644015 1.007022 -0.379764 -0.152828 0.103505 -0.365138 -1.878381 -0.131422 0.386348 -1.116215 -0.114943 -0.907558 1.693154 -0.661856 1.158046 -0.112876 -1.140684 -0.276230
world -0.074404 -0.108838 1.035641 0.431627 -0.214031 -0.760101 0.306448 -1.047673 0.581872 0.089613 0.855455 -0.337361 -0.909634 0.299648 0.033626 0.316941 -0.951432 -0.617867 0.074116 -0.756647 -0.508212 0.908387 -0.476334 -0.447577 -0.289418 -0.168841 -0.915045 0.701528 -0.183819 -0.034340 1.610436 -0.159115 -0.245653 -0.398098 -0.020660 0.331207 -0.068959 0.783448 -0.492664 0.691020 1.595634 0.509344 0.529387 -0.009909 1.338868 -0.311080 -0.360090 -1.114274 -0.919577 -0.344707
thing 0.371178 -0.471176 1.275040 1.361916 0.486776 0.331600 0.043551 -0.109527 0.108915 0.998490 -0.015469 -0.078060 -0.041065 0.159924 0.053379 0.872317 0.496587 0.100559 0.821940 0.282372 -0.199461 0.881384 0.030322 0.173072 -0.003958 0.149307 -0.656998 -0.268255 0.067829 -0.493250 1.175154 0.605482 -0.658866 0.223949 -0.288984 -0.217447 -0.084743 0.590155 -1.573259 0.651493 1.212624 0.005610 1.155801 -1.160428 0.249666 -0.320267 0.284395 -0.342195 0.087124 0.311117
cut 0.547188 0.081956 0.491992 -1.101494 0.061585 0.547122 0.557067 0.179540 0.580507 0.692607 -0.098944 1.398393 0.696543 0.296039 -0.287485 -1.042392 0.414854 1.334777 -0.339706 -0.090833 1.809136 0.534844 -0.968323 -0.267535 0.796735 1.211175 -2.325646 -0.324293 -0.654869 -0.082134 -0.338993 -0.169842 0.972848 1.060384 -1.048719 -0.658032 0.161837 0.150724 -0.173537 0.422755 0.049449 -0.234600 -0.101883 -0.058159 0.456366 -0.244678 0.412397 0.004345 1.441070 -0.231766
girls -1.118727 0.895259 0.131005 -1.621767 -0.313472 -0.396376 0.640723 -0.847692 0.509954 0.244433 0.538545 0.186857 -0.607220 1.250386 0.489866 0.521000 -0.184376 -0.530980 0.934380 -0.496261 0.873143 0.945123 0.608588 -0.431915 0.112898 -0.470049 -0.839337 -0.479031 0.247331 1.042262 0.244123 0.102583 -0.657165 1.009897 -0.353280 0.573370 0.984847 0.611568 -0.473941 0.619807 0.856038 0.239175 0.259024 -0.612666 0.742151 -0.707943 0.816863 0.236053 -0.231486 0.254080
body -0.903352 0.291298 -0.520120 -0.189818 0.177596 -0.335422 -0.142684 0.847661 -0.478971 0.420934 0.064337 0.766289 0.506224 0.284588 -0.128949 -0.243663 -0.421069 -0.412128 0.437019 0.869443 -0.168936 0.163907 1.140248 -0.441971 -0.845570 0.271987 -1.008677 1.103123 0.275176 -0.878924 0.487970 -1.173249 0.297198 0.986501 -1.425109 0.890940 0.243299 -0.015365 -0.286108 0.820281 0.173264 -0.226925 -0.437980 -0.389138 -0.463578 0.121031 -0.194432 -1.102341 -0.385709 -0.529746
type -0.473094 -0.514062 1.792725 0.891823 -0.707145 -0.299326 -0.561832 0.427152 0.417712 -0.647340 0.098374 1.639714 -0.063043 0.333888 0.014444 0.088800 0.354166 0.001306 0.549339 -1.293582 0.592116 -0.306505 -0.293419 0.303163 1.075130 -0.484234 -1.126488 0.130369 0.676075 0.510036 -0.523067 -0.076005 -0.061125 0.080563 1.115637 0.223709 0.932802 0.936490 0.560498 1.531516 0.824294 -0.391779 -0.546236 -0.548991 0.499161 0.376610 0.818826 0.193915 -0.072921 -0.765509
dance -0.812227 1.091918 -0.539229 -0.702240 -0.672837 -0.625976 0.137053 0.640751 1.130170 0.609333 -1.034071 0.389618 0.493802 -0.860317 0.226261 -0.568764 0.013169 -0.527571 1.184753 -1.150912 -0.482630 -0.017673 -0.267424 -0.017378 -0.574213 -0.465480 -0.642118 -1.128143 1.171174 0.525709 0.782496 -1.883590 -0.081991 0.543512 -0.023543 -0.514770 -0.299966 0.883547 -0.223904 0.592280 0.350520 -0.547422 -0.768174 -0.342953 1.401522 0.478843 0.177355 -1.054852 -0.711278 -0.689481
bop 0.224465 1.010707 -0.956179 0.665153 0.492907 -0.696376 -0.497456 0.807338 -0.055580 0.521961 -1.207783 -1.477831 -0.543148 0.563588 0.573524 -0.571212 1.100654 0.836987 -1.028862 -0.589828 0.346332 0.272019 -1.400045 0.890506 -1.590754 -0.018917 -0.414113 0.399955 0.836714 -0.311534 0.314643 0.167282 -0.203872 -0.445471 -0.976360 0.753893 0.915166 1.774657 0.172153 -0.192924 -0.058974 0.739627 0.687241 -0.716245 -0.632845 0.887389 -0.201506 -0.062009 -0.535306 -0.306131
fucked 0.031970 0.153192 -0.620248 -0.770400 -1.130505 0.540776 0.315690 0.276555 -0.536438 -0.259897 0.105285 -0.219763 0.690567 0.311516 -0.919908 -0.040948 -1.291694 0.036725 -0.605496 0.663978 0.862069 0.391799 0.835645 -1.385096 0.175839 -0.854145 -0.472677 -0.220411 -0.270499 0.325345 -0.047384 -0.624859 0.323420 0.891312 -0.055887 -0.601248 -0.156472 1.777586 -0.134747 1.252998 1.120126 0.046097 -0.250031 -0.981052 0.292473 0.564812 -0.688434 0.315085 0.025255 -0.083258
gucci 0.850563 -0.952795 0.481188 -0.117012 0.431879 0.660978 -0.083677 -0.881139 -0.034722 0.100396 0.080635 -0.467374 0.602605 0.057299 -0.990874 0.987542 0.499689 0.370822 -1.331764 -0.021733 0.312330 1.106129 0.087710 0.495512 0.054048 0.909474 -0.165631 0.820645 1.174232 0.403397 0.864257 -0.782354 0.268758 0.592223 -0.292514 0.046709 1.028427 1.088430 -0.019118 0.271490 -0.200497 -1.468420 0.749029 0.523274 0.597340 0.796324 -0.892101 0.264184 -0.525384 -1.259492
straight -0.058778 -0.548345 0.588748 0.620297 -1.355077 -0.486316 0.413918 -0.730600 -0.927270 -0.426887 -0.116017 0.223046 -0.296584 -0.625777 -0.293814 0.670882 0.017279 0.715296 0.385180 -0.970813 0.526372 0.626718 0.268668 1.056769 0.463781 -0.660272 -1.341348 0.203504 0.159604 0.499986 -0.664893 0.028094 0.668325 0.912983 0.066825 -0.863765 0.497547 0.561106 -0.962167 -0.524912 0.755626 -0.148094 -0.314424 -0.865223 -0.795432 0.176770 0.744430 -0.236093 0.258222 0.355518
work -0.541181 -0.359789 -0.083081 0.229472 0.701217 -0.967716 -0.603506 -0.064127 -1.175191 0.733874 0.624074 0.864445 1.109658 -0.150648 -1.021847 -1.233755 0.110526 -0.174417 0.300293 0.528793 -0.230344 0.399263 0.491589 -0.181148 -1.048986 -0.989179 -0.199444 1.042944 0.258778 -0.136655 0.648470 -0.213094 0.575439 0.187620 -0.299797 0.305124 0.019817 -1.128575 -0.271580 0.951344 0.930780 -0.448954 0.672791 -0.009468 0.697240 1.729149 0.517351 -1.212757 -1.140044 0.589022
club -0.724717 -0.100280 -0.463329 -0.268233 -0.749100 0.013525 0.855760 0.617077 -0.207292 0.127452 -0.870084 -0.337176 1.088415 0.057397 0.080029 0.295384 0.203671 1.541558 0.955752 -1.258145 -0.528997 1.140573 0.524727 -0.671600 -1.232466 -0.658946 -1.240234 -0.292703 0.578454 0.451903 0.442496 -0.948812 0.906759 -0.257118 0.462909 0.027262 0.133240 -0.203119 -0.348841 0.734687 0.465407 -0.631589 -0.322071 0.072095 1.313286 0.209647 0.329167 -0.281780 0.273858 -0.414641
try 0.791301 0.540743 -0.008215 -0.170184 -0.046644 0.174038 -0.950475 1.062650 0.191923 0.755154 0.724520 0.063050 0.916032 0.659457 -0.639395 0.468492 0.826073 0.458210 0.786922 -0.088326 -0.833571 0.591305 -0.708509 -0.686491 -0.745757 0.152932 -0.331813 0.493946 -0.576482 0.294239 -0.779788 -0.630813 -0.464757 0.270733 -1.227847 0.720168 -0.241621 0.646426 -0.070234 0.309505 0.056488 0.897371 0.336404 -0.970457 0.178843 0.775612 0.788720 -0.376595 -0.639206 -0.460372
city 0.951169 0.632511 -1.199693 -0.786005 -0.071965 -0.049162 0.901542 -0.301178 -0.303073 1.278694 0.477192 2.315837 -0.417434 0.407835 0.144302 0.582306 0.617904 0.140341 0.043780 -0.559353 0.598461 0.740383 -0.097538 -0.006352 -1.133931 -0.571453 -0.737902 -0.399407 0.202942 0.060163 -0.405158 0.575642 0.564870 0.477000 0.148440 -0.781386 -0.262804 0.184451 0.385983 1.132161 -0.204015 0.924167 -0.566584 -0.637346 -0.290780 -0.711148 -0.150722 -0.922001 -0.696614 0.000704
cash -0.082195 1.299882 0.518814 -1.382345 -0.684727 -0.458590 -0.388489 0.300628 0.551918 -0.466282 -0.133934 0.513291 0.692477 -1.067290 -1.057300 0.825110 0.740252 -0.535246 0.582775 -0.795203 0.129202 0.589539 0.901656 -0.684449 0.986428 0.384740 -0.668474 -0.175722 -0.088627 1.155974 0.483439 0.027621 0.673615 0.273042 -0.798719 -0.166143 0.051571 -0.274995 -0.310631 -0.190001 0.764636 -0.512581 0.963259 -0.266464 -0.733555 0.244575 1.269704 0.181820 -0.817852 -0.442736
act -0.360045 0.298670 0.916028 -0.729130 -1.027174 -0.480673 0.815325 0.444440 0.205660 0.592521 -0.135459 -1.077154 -0.166880 0.940334 0.476540 0.693079 0.351186 -0.591998 -1.108647 0.231132 0.838452 0.521037 0.285375 -1.411442 0.152436 0.205257 0.102119 -0.201116 -0.585632 0.692644 -1.467926 -0.061570 0.532362 0.463456 0.370250 -0.872318 -0.233345 -0.020438 -0.958537 1.191262 -1.024752 -0.651674 -0.189669 -1.579251 0.119126 -0.863330 -0.236699 0.087560 -1.932273 0.322987
swear -0.360655 -0.487791 -0.289407 -0.734266 -0.195126 0.223067 1.006650 -0.569528 -0.519471 0.765111 0.018587 -0.007238 -0.168163 -0.333183 0.285814 0.887671 -0.310116 0.093612 0.955859 -0.063849 1.340333 0.922946 -1.194733 -0.601579 -0.043319 -0.282911 -0.487147 -0.013956 0.202710 -1.037386 0.256027 -0.353948 0.076385 -1.327548 -0.694525 0.580366 0.243636 0.241753 -0.030859 0.063097 0.976823 -0.481988 1.519345 -0.141851 0.559352 -0.016770 0.803284 -0.187595 -1.003900 -0.089675
old 0.996939 0.567166 0.544149 -0.019921 -0.986014 0.412362 -0.081896 1.043594 0.780492 1.162358 0.457068 0.579759 0.152989 0.598271 0.598628 1.217224 -0.968505 -0.652198 -0.303950 0.123408 0.556172 -0.165344 -0.964650 0.501644 0.192595 -1.247091 -0.762948 1.446954 -0.211104 -0.739020 -0.164299 0.526840 0.248387 0.004833 -1.453395 0.095401 0.186492 -0.263492 -0.376296 0.081630 0.406665 -0.658299 -0.101192 0.596787 1.210793 -0.782904 -0.117194 -0.214883 -1.347084 -0.350759
friends -0.227104 0.985204 1.424993 -0.301564 0.092932 -0.386184 1.229497 -0.006096 -0.101592 1.008913 0.983184 0.624522 0.173214 -0.103801 0.294740 1.381181 0.310930 0.328484 -0.033541 0.054960 0.778461 -0.186816 0.054864 0.030431 -0.934344 -0.511884 -1.014879 -0.087712 0.487986 0.331245 -0.858193 -1.560493 0.462646 0.310060 -0.436888 -0.942199 -1.244506 -0.405381 0.252478 -0.228428 0.858155 0.681698 -1.108431 -0.274697 1.026022 0.720265 0.751097 -0.217120 -0.220713 -0.110680
mad -0.516988 -0.114041 1.280106 -0.349686 -0.658698 -0.084938 -0.149012 0.982572 0.410785 0.539394 0.116593 0.218492 0.078769 0.459706 0.493200 -0.423352 -0.224912 -0.775076 -0.283099 0.965847 1.499182 0.276918 -1.324663 -0.535919 -0.138525 -0.505261 -0.328262 0.767845 -0.436584 0.317940 0.409220 -0.614790 0.384287 -0.289797 -0.212200 0.416921 0.715187 2.132387 0.309694 0.634134 0.343159 -0.118167 -0.216374 -0.500998 -0.080044 0.272135 0.436904 0.041413 -1.062951 0.530086
heart 0.442164 0.138783 -0.430542 -0.457526 0.333581 -0.144071 0.192643 0.043083 -0.337135 0.779139 -0.140948 -0.597413 -0.325513 -0.647225 -0.210752 -0.215726 0.099311 -0.470419 0.231864 -0.598020 0.131488 0.882556 0.229914 0.055001 -0.337935 -0.330945 -0.486505 1.244985 0.114218 -0.403210 0.851090 -0.097426 -0.051138 0.174809 -1.007228 -0.473196 0.183889 -0.156750 -0.728733 -1.283480 1.037073 -0.210953 -0.128549 -1.715429 1.668361 -0.666611 -0.065509 0.504758 -0.421527 -0.366354
broke 0.206989 0.378237 0.777663 -0.011758 0.370098 0.085662 0.706077 0.413778 0.561787 0.419818 0.020182 1.139881 0.110850 -0.317151 0.009535 0.502943 0.930017 -0.178990 -0.264240 -0.866837 1.009847 0.266131 0.461300 0.192559 -0.342496 -0.749292 -0.446383 0.768117 -0.347100 0.209692 -0.286982 0.911064 0.727652 0.156491 0.051224 -0.653641 0.257530 0.313700 -0.928862 -1.304837 0.536586 -0.568517 0.805636 -0.291242 0.507382 0.602518 0.832947 -0.384930 -0.337795 0.499268
house 0.443808 0.203659 0.653048 -0.472933 -1.365549 -0.796754 0.629411 0.429217 -0.652534 0.911260 -0.139912 -1.425055 0.570210 -1.076731 -0.419515 1.237051 0.093424 -0.105498 -0.107755 0.858069 0.162028 -0.261079 -0.566599 0.624478 -0.097580 -0.367496 -0.473836 0.536104 0.645658 0.135281 -0.022880 -0.094637 -0.156478 0.086524 -0.598317 -0.522341 -0.059137 0.235812 0.361326 0.017040 1.879380 -0.673364 0.354168 0.330453 -0.550352 -0.797715 1.804043 0.237915 0.247095 0.770586
diamonds -0.731908 0.338623 -0.254030 -0.153966 0.309764 -0.169541 -0.512023 -0.273094 0.572195 0.475557 -0.103453 1.113015 0.473284 0.808010 0.376428 0.555075 0.168616 -0.005331 0.092567 0.018536 -0.141238 0.380926 1.323061 0.050827 -0.008277 -0.036501 -1.714481 1.002446 -0.439016 0.025298 1.524024 -0.810594 0.251593 -0.406282 -0.362950 0.067286 -0.426569 0.865070 -0.334888 -0.314213 0.316468 -0.125567 -0.211947 0.526187 -0.089981 0.123716 -1.149717 -0.224276 0.516499 -0.922110
white -0.386423 0.235235 -0.919308 0.112187 0.017314 -0.078828 0.094030 -0.734480 1.082954 -0.119935 0.328511 -0.581031 -0.033133 0.109563 0.673785 1.219790 -0.001343 -0.073545 -0.334462 0.953599 0.395138 0.656662 0.398382 -0.187856 0.313976 0.008585 -1.287315 0.217826 0.571090 -0.054696 0.218060 1.073206 -0.695710 0.782164 -1.215632 -0.110425 0.259670 1.760151 -0.472884 0.725280 0.920039 -1.146046 0.545274 0.034210 -0.577022 -0.036109 -0.508804 -0.423084 1.184867 0.741755
live 1.145012 -0.881642 1.266572 -0.217223 -0.004753 -1.032534 -1.221096 -0.065778 -0.879258 -0.082319 -0.056468 0.691190 0.919525 0.610517 -0.141983 0.960408 0.811662 -0.425796 -1.378217 -0.594029 -0.189843 0.140393 0.065169 -1.029324 -0.450966 -0.420608 -0.980550 0.482124 0.628384 -0.347919 0.492255 -0.104176 -0.830496 -0.106048 0.046976 -0.487134 -0.720546 -0.610242 0.595494 0.736968 1.300868 0.570940 -0.158791 -0.257985 0.773424 0.975155 -0.436671 -0.522093 -0.577399 0.269255
different 0.122786 -0.172087 0.018602 -0.384158 1.065552 -0.661043 0.120562 -0.259699 1.073854 -0.655583 -0.081424 0.656830 -0.111126 0.203566 0.487182 1.708979 0.676809 -0.156576 -0.229706 -0.177971 0.973988 0.274657 -0.678934 -0.195308 -0.100214 -0.594412 -0.570979 0.542022 0.144947 0.072303 -0.589433 0.315347 1.467780 0.506240 0.615040 -0.354581 -0.707095 0.652983 -0.506469 1.641242 0.452986 0.619273 -0.753133 0.285086 -0.093521 -1.290880 0.042565 0.256455 -1.292724 0.166955
die -0.008950 -1.285516 1.211940 0.536535 0.480293 -1.119456 -0.550244 0.502639 -0.663568 0.103797 -1.524489 0.154811 -0.309346 0.505611 -0.240789 1.133094 -0.067146 -0.417380 0.209116 -0.594280 0.541779 1.172847 -0.013069 -0.840076 0.675655 -0.013335 -0.047936 1.125342 1.000173 0.726054 -0.494067 -0.854916 -0.387365 -0.357911 -0.516368 0.391992 -0.762259 -0.627589 -0.268692 0.022853 0.730972 0.420039 1.067658 -0.582002 0.456977 0.540108 -0.461323 -0.480493 -0.511803 -0.122189
hope -0.972093 -0.652165 1.405762 -0.273250 0.376869 -0.464186 0.288877 -0.343399 -0.126603 1.088639 1.018631 -1.128475 0.221383 0.297097 -0.643847 1.006039 -0.850843 0.287296 0.247817 0.107223 -0.217404 0.341608 -0.166907 -0.916898 0.429539 0.707054 -0.401653 0.545164 -0.301066 -0.645829 -0.298903 0.056269 -0.172510 -0.762295 -0.589384 -1.216142 -0.322922 -0.156700 0.119610 -0.322413 1.326494 0.820589 0.319402 -1.587809 1.084825 0.144272 0.685857 0.147081 0.225742 0.131916
hop 0.165914 1.473856 -0.719323 1.237875 1.169006 1.228945 0.720934 0.799182 -0.107554 0.522792 -0.059919 -0.232136 0.170982 -0.379067 -0.209992 0.507040 0.258821 -0.718230 -0.607580 -0.518709 0.078846 -0.303503 -0.387527 0.679875 -0.688788 0.062272 -0.501740 -0.834229 1.519945 0.429158 0.577401 0.057087 -0.106678 -0.441609 -1.315470 0.480698 -0.632090 1.892819 -0.578772 0.717026 -0.978307 0.036992 -0.572107 -0.314597 0.394049 0.263396 0.378071 -0.371992 -1.466426 1.461959
lookin -1.155721 -0.140261 -0.500384 -0.253585 -1.154970 0.077599 0.673233 0.294681 -0.044461 0.202264 -0.328902 -0.471125 -0.103290 0.632292 0.213311 0.871281 0.433645 0.188075 0.623074 -0.178059 0.309253 1.292238 0.017540 -0.938663 -0.644873 -0.281191 -0.726965 0.310406 0.594515 0.510938 0.611171 -0.485578 -0.217550 -0.150932 -0.490923 0.768868 0.678568 0.234173 -1.245569 -0.337028 0.899421 -0.423062 -0.812932 0.913720 0.837273 0.140382 -0.467794 -0.257353 0.040069 -0.197800
hate -0.143077 -0.349903 -0.188403 -0.289766 0.030698 -0.585888 0.196441 0.002019 0.131987 0.169230 0.849511 0.192567 0.431987 0.168011 -0.046334 0.555924 -0.558253 -0.020553 0.137327 -0.226111 0.882520 1.980256 -0.497304 0.535792 -1.166648 -0.241158 -0.250006 0.623972 -0.098656 0.008330 -0.252981 0.294983 0.114356 0.597800 -0.322008 -0.258704 -0.321528 -0.351093 0.853255 -0.335153 1.082654 0.587942 -0.369589 -0.571121 0.707693 0.172216 1.325728 -0.235612 0.137580 0.206357
crazy -0.088263 1.081044 -0.064136 0.338554 0.364877 -0.911673 0.981450 -0.247102 0.923135 -0.142374 0.501828 0.171896 -0.231412 -0.784918 -1.028773 0.601095 -0.358652 -0.177419 0.073321 -0.058315 0.173448 0.427829 0.341230 -0.646594 0.395662 -1.431770 -0.317808 0.907963 0.646317 0.470449 0.871693 0.001938 0.109712 0.882956 1.223446 -0.035874 -0.164093 0.009690 -0.681328 1.077673 0.893579 0.763189 -0.736470 -1.588687 -0.717664 -0.344875 0.384810 -0.573444 0.270615 0.644655
smoke -0.427161 0.154810 -0.089778 -0.335749 -1.398311 -0.245707 0.575766 -0.018450 -0.705630 -0.299208 0.492789 0.058912 0.673675 -0.006485 -1.168828 0.508927 -0.783929 0.661033 -0.104868 0.467953 -0.499497 0.476062 0.330579 -0.251910 0.052496 -1.119520 -0.941421 -0.804320 0.635237 -0.583005 -0.595582 -0.602208 0.266229 -0.378054 -0.096291 -0.018404 0.226311 1.045524 -0.696092 1.257648 0.483085 -0.367759 1.221681 -0.474799 0.525200 -0.490027 0.129277 0.128412 -0.343844 -0.234098
thought -0.218095 -1.096161 -0.097413 -0.410646 -1.177930 0.368979 0.092915 -0.478143 0.590793 0.432237 0.220226 -0.073609 -0.266289 0.780029 -0.229718 0.011199 0.261090 0.018500 -0.660777 0.229717 0.318255 -0.299610 -0.590066 -0.189322 -0.099941 -0.208491 0.180959 1.399030 0.251759 0.778147 0.955785 0.513311 -0.128489 0.130045 -0.888826 0.417064 0.643610 -0.162242 -0.783455 -0.629164 1.118275 0.381704 -0.305142 -1.543862 1.114896 -0.273187 0.273861 -0.420442 0.335049 0.241029
fly 0.748817 -0.136806 -0.053537 0.179758 -0.628932 0.115147 -0.232595 -0.041830 -0.538922 -0.877831 1.033190 0.252542 0.142624 -0.199669 -0.436483 0.158541 1.085509 -0.291387 0.415795 0.252951 -0.019138 1.752490 -0.753811 0.334791 -0.322401 -1.157969 -0.345867 0.417626 0.864210 -0.111244 -0.651952 -0.221747 -0.392251 -0.236642 -0.312502 0.195035 0.563556 0.581189 -0.981030 0.726421 -0.052639 -0.336656 0.680230 1.052936 -0.688812 -0.806298 0.363084 -0.345573 0.016108 0.396395
round 0.413894 0.287597 0.570047 -0.787499 0.328297 -0.355017 -1.353188 0.061120 -0.812887 0.207559 -0.111038 1.128168 0.506020 0.667875 0.907979 -0.385250 -0.739397 -0.310212 0.380818 -0.402998 -0.228427 0.036598 0.028345 0.727050 -0.925438 -0.236683 -0.522881 0.731021 0.123192 0.939864 -0.134131 -0.044512 0.146463 1.048475 -1.123043 -0.344404 0.597066 -0.437600 0.103405 0.574355 0.478898 0.133639 0.273525 -1.158684 -0.288994 1.195260 0.126715 -0.577324 -0.974510 -0.021370
home -0.894597 -0.172360 0.111836 -1.102573 -0.470334 -0.210923 -0.203123 -0.215723 -0.408381 0.614841 0.054145 -0.163910 0.611412 0.626923 0.780805 0.028056 -0.250185 -0.644851 0.266569 -0.968665 0.454809 0.538078 -0.413533 0.135025 -0.131819 -0.869250 -0.561526 1.526388 0.395138 0.359987 0.152303 0.537762 -0.062198 -0.593398 -0.658150 -0.437654 -0.757256 0.575885 -0.514418 0.153519 0.842718 0.411675 0.150338 -0.235610 0.125761 -0.184569 1.530945 -0.293399 0.566278 -0.122658
red 1.225355 -0.071414 -0.096662 0.352887 -0.796682 -1.168255 0.409723 -0.999269 1.499160 -0.688692 -0.521946 0.050767 0.797825 0.062838 1.491064 0.292351 1.337880 -0.208543 -0.242647 0.137626 -0.390284 0.023223 0.959350 -1.091377 0.622949 0.252115 -0.266782 1.280800 -0.123409 0.302699 -0.462155 -0.149773 0.404613 0.518051 -0.313186 0.655799 0.405784 0.792773 -0.730594 1.318348 -0.976028 0.285261 -0.657638 -0.195738 0.665186 0.568690 -0.095080 -0.248617 -0.267454 0.127092
low -0.081390 -0.029091 -0.115587 -0.419201 -0.949953 -0.709144 0.057164 0.276544 0.606309 0.120638 0.872761 -0.405150 -0.290929 0.676460 -0.359635 0.072517 0.250174 0.898006 -0.449513 -1.262034 0.581015 0.175036 0.630149 0.470854 -0.449369 0.134478 -0.419407 1.753910 -0.234066 0.108799 -1.184489 -1.001417 -0.070531 -0.560826 -1.339234 -0.245368 0.136993 -0.603051 -1.351246 0.755620 -0.124674 0.584875 -0.057358 0.069998 0.047455 -1.511710 0.523373 0.388925 1.057565 -0.166407
best -0.234869 0.179789 0.235627 -0.168781 -0.079831 0.574552 0.308512 -0.775879 -0.806096 0.825884 0.409686 -0.125340 1.068590 0.639765 -0.171522 0.377806 -0.718501 0.940356 0.149501 -0.772578 1.632683 0.654704 0.684639 -0.535151 -0.724375 -0.417722 0.418321 -0.762473 0.343108 0.600355 -1.040814 -0.414000 -0.200729 0.372677 -0.024392 0.331192 0.636186 0.299561 -1.199024 0.359278 0.262631 0.189356 -0.178469 -0.549741 -0.243485 -0.207440 0.777159 -0.498982 -0.022356 -1.398526
heard -0.297151 -0.030153 0.683114 -0.710817 -0.301876 -0.191379 0.726162 -0.210242 1.059314 -0.053159 0.186766 0.181873 -0.031451 -0.100621 -0.428484 0.871885 -0.442632 -0.062128 -0.312106 -0.045627 0.645053 0.336548 -0.659977 -1.025901 0.259762 -0.251204 -0.474913 0.243585 0.030189 1.279457 -0.814813 0.236364 -0.332373 0.412631 -0.331018 -0.590749 0.152173 0.791461 0.089508 0.344410 0.899633 -0.677346 0.000069 -1.024976 0.346641 0.397250 -0.068694 -0.119606 0.835143 1.055432
throw -0.689063 0.428817 0.117210 -0.427480 0.367779 -0.071462 -0.254196 0.413113 -0.025762 0.301527 0.295844 0.070064 0.939486 -0.557236 -0.330897 -0.312155 0.340611 0.038812 0.728030 0.108376 -0.072359 1.171630 0.490859 0.781177 -0.912244 0.567240 0.146621 -0.058765 1.389796 0.362587 -0.203298 -0.084471 0.619811 0.391251 -0.123997 -0.611311 0.553258 0.256011 -0.063530 0.628625 0.384080 -0.513891 0.057737 -0.737070 0.289041 -0.796827 1.136087 -0.766825 -0.154647 -1.223619
block 0.546757 0.338808 0.683470 0.118080 -0.827784 0.557575 -0.345701 0.151344 -0.044048 0.243782 -0.428495 -0.070978 0.793379 -0.544626 -0.591239 1.033645 -0.835116 0.171194 -0.876146 0.032302 0.354815 0.677732 -0.775023 1.264492 0.040599 -1.179491 -0.896365 0.564132 -0.008273 -0.300384 0.297057 0.053514 1.597606 0.244608 -1.103529 0.029278 -0.709427 0.521795 0.162312 0.659178 -0.035002 0.339131 0.894860 0.110620 -0.521345 -0.199404 -0.596851 -0.453185 -0.152597 0.661577
going 0.000268 0.098625 0.827705 -0.547329 1.094620 0.311611 0.039621 -0.104707 -0.636186 -0.296469 0.441042 0.055955 0.685288 0.069431 -1.037905 0.892843 0.465944 0.514532 -0.319431 -0.125701 0.520958 0.428739 0.297545 -0.698091 -0.741840 -1.053174 -1.003189 1.414012 -0.258050 -0.501513 -0.538147 -0.467493 -0.433446 -0.946849 0.521388 -0.043442 0.393335 -1.089547 -0.494847 -0.373087 0.544590 0.195533 0.222994 -1.041450 -0.617424 0.668875 0.283869 0.273026 0.413066 -0.478207
wrist -0.176657 0.969885 -0.094939 0.498917 0.354123 -0.746472 -0.098448 -0.175676 -0.202190 0.513702 0.057829 0.643684 -0.217858 0.227285 -0.519123 -0.403147 1.633592 0.221655 0.198869 -0.701268 -0.084001 0.861602 1.163581 0.622791 1.079894 0.163582 -1.109803 0.616514 0.036982 0.493149 1.382902 1.371353 0.063946 -0.393732 -0.576209 -0.518166 0.215330 1.731057 0.025323 -0.870830 0.089698 -1.071884 -0.581584 -0.552418 0.629408 0.898982 -0.977026 0.217957 0.379161 -1.317182
away -0.644711 -0.530244 -0.472898 0.067315 0.975785 -0.914857 0.078886 0.918697 -0.529185 -0.147072 -0.795477 -0.854593 1.333700 -1.432183 -0.897611 0.519219 0.015282 0.233034 1.073426 -0.316080 0.423019 -0.141566 -0.402983 -0.418483 0.137182 -0.009420 -0.528292 0.956243 0.963281 -0.745446 0.471683 1.030952 0.086317 0.705066 0.162563 -0.341737 -1.072487 -0.694175 -1.031876 1.119528 -0.364227 -0.292614 0.569185 -1.639003 0.007928 -0.437533 1.474400 -0.084052 -0.467569 -0.607308
fucking -0.297779 -0.537120 -0.388627 -0.129063 -0.452959 -0.241673 -0.581846 0.399952 0.093304 0.629976 0.815481 -0.225689 -0.345856 0.701174 0.424568 0.915201 -0.576422 0.125845 -0.277404 0.063993 0.618101 0.911821 -0.104066 -0.729229 0.095165 0.798372 -0.581371 0.968045 -0.226414 0.485402 0.259367 0.509671 0.767367 0.308082 0.477985 -1.060417 0.500399 -0.027794 0.294775 -0.171548 0.978819 -0.408536 0.118432 -0.494950 0.211164 -0.976205 0.555485 0.079265 -1.647462 0.389952
game -0.072852 -0.529670 0.059129 0.630908 -0.500565 -0.212467 -0.576495 0.652028 -0.008141 0.219602 0.914065 0.843645 0.545335 0.971353 -0.465354 0.778258 -0.503719 1.088327 0.939035 0.576096 0.300269 1.143289 0.832021 0.852700 -0.164557 -0.160046 -0.616491 1.240288 -0.265937 -0.504243 -0.514372 0.568676 0.168909 0.757238 -0.665503 0.256388 -0.846665 -0.700142 -0.524684 0.836565 0.416778 0.417407 0.152660 -0.473091 -0.092268 -0.047007 0.306038 0.564570 0.399246 0.080331
took 1.084010 0.325258 -0.282020 -0.379301 -0.484301 -0.144651 -0.044090 0.237853 -0.245389 -0.840933 0.085243 0.760187 -0.314214 -0.838158 1.036954 0.700560 0.671119 -0.230963 -0.387720 -0.523779 0.001523 -0.355050 0.970775 0.039275 -0.476754 -0.204476 -0.873501 1.215384 -0.178331 -0.939115 0.309365 0.708499 -0.170751 0.483296 -0.193595 0.365545 0.421455 -0.322431 -1.136568 -0.147340 1.134325 0.095975 0.294977 -0.337927 0.719590 -1.233485 0.606143 0.709519 -0.284621 0.513013
hands -0.250722 0.931702 -0.620832 -0.761255 0.327279 0.174968 0.332334 0.628303 0.070971 0.125791 -0.020118 0.672921 0.313171 0.221476 0.349245 0.314229 0.305818 -0.355595 -0.687797 -0.095492 0.138180 -0.489479 1.133947 0.025271 -1.703799 -0.587248 0.506710 -0.474951 0.247986 0.709266 0.353907 0.232903 -0.018189 0.482413 -0.888793 0.982025 0.017149 1.338451 0.216218 0.967317 1.059391 0.637727 -0.440094 -0.323007 0.859576 -0.895625 1.711569 -0.452938 0.595091 0.572453
ball -0.919276 -0.774544 -0.293659 0.357938 -0.793355 -0.732243 -0.858995 0.075365 -0.906552 0.065431 0.411572 1.197859 -0.053361 -0.538722 -0.067275 0.927270 1.243355 0.049468 0.502597 1.036339 0.655534 -1.044222 -0.102498 0.169466 -0.012609 0.156241 -1.174877 -0.631244 0.459641 1.607563 0.696269 -0.612695 -0.779698 0.948860 0.014837 -1.033958 1.011235 -0.339148 -0.299718 -0.664173 0.952353 0.032927 0.061986 -0.978431 0.067207 0.066489 -0.741840 -1.323479 -0.249076 0.345353
fast -0.022526 -0.097604 -0.237578 -1.394520 0.153472 -0.382759 -1.019980 -0.681657 0.373938 0.231685 -0.177917 0.135683 1.400935 -0.639959 -0.399552 0.892024 0.707980 -0.476042 1.213544 -0.932968 0.387102 -0.577030 -0.253927 -0.527769 1.075053 -1.294624 -0.110780 0.844116 -0.618453 0.052693 0.452946 0.316614 0.453075 0.274273 -0.109341 -0.033323 -0.114656 0.396781 0.102575 0.940942 0.875261 -0.366484 -0.124959 -1.006091 -0.932847 -0.462395 0.500660 0.370970 -0.196265 -0.848679
molly -0.941809 -0.419740 -1.419720 -0.767077 -0.601402 0.748711 -0.090459 0.405504 -0.722778 0.337314 1.028969 0.768640 0.293484 -0.776119 -1.103663 -0.172016 -0.092043 -0.450358 1.046666 1.521070 0.458002 -0.282583 0.757564 -0.661472 -0.703012 -0.498637 0.243147 -0.080536 -1.157272 -0.883266 -0.398750 -0.883710 1.470357 0.528827 0.174227 -0.198347 0.179935 0.453484 0.350734 0.830021 0.753990 -1.064366 -0.791103 -0.918194 0.034901 0.058460 -0.346222 0.208718 1.706733 -0.677682
getting -0.395437 -0.188878 0.570984 0.104454 -1.038183 -0.746393 -0.785693 0.394209 -0.579880 -0.273944 0.044748 0.385343 0.843723 0.478614 -0.429196 -0.298290 -0.095380 0.321192 -1.240903 1.069812 1.025047 0.247667 -0.539206 -0.707354 -0.509709 -1.076763 -0.765786 -0.209210 -0.369299 0.366797 0.088956 -0.638774 0.594714 -0.373566 -0.003345 -0.036106 -0.229640 0.734488 -0.515433 -0.092526 0.535877 -0.597730 0.281843 0.325012 0.032246 0.588905 0.842967 -0.232383 -0.365907 -0.309099
mean -0.403977 -0.662009 -0.110885 -0.537647 -0.194154 -0.845395 -0.052564 0.005357 -0.279628 0.495407 0.071165 0.376725 -0.267484 0.518250 -0.504936 0.195738 0.435809 0.004542 -0.407971 0.682939 0.846348 0.943557 0.010168 -0.547401 -0.580356 -0.674198 -0.187424 0.708664 -0.686732 -0.220548 -0.404272 -0.158914 -0.093434 -0.175317 0.174161 -0.629264 -0.148504 0.148541 -0.267979 -0.214306 0.854847 -0.079620 0.046771 -0.834076 -0.015168 0.334821 0.261481 -0.035340 -1.131693 -0.647349
shoot -0.285617 -0.126544 -0.383117 -0.427834 0.057522 0.694511 -0.078995 0.063385 -0.595341 0.337436 -0.383760 -0.774092 0.730232 0.236410 -0.118894 1.311877 0.863153 -0.243614 0.612237 -0.297426 -0.790613 0.622272 0.112818 -0.292046 -0.046884 -0.429416 -0.356839 0.102021 0.119682 -0.215298 -0.744886 0.458524 0.601918 0.309293 -1.116107 1.177302 -0.101820 0.040351 -0.010051 1.050378 -0.453882 0.416019 -0.617079 -0.891639 0.015100 -0.189142 0.235457 -0.757379 -0.681302 0.470357
shots 0.601522 -0.650621 -0.649591 0.305034 0.249557 0.657031 0.775283 0.812416 -1.851324 -0.553426 -1.408512 -0.306345 0.046954 -0.920691 0.757667 0.055125 0.233695 -0.193443 0.011966 0.409331 -0.404702 0.843829 0.189073 1.457141 -0.390101 -1.148174 0.362460 0.923241 -0.398153 0.798454 -0.619580 -1.463070 0.799538 0.848958 -0.198196 -0.550192 -0.232508 0.934724 -0.353509 0.854269 0.265109 1.110202 -1.030401 -0.632729 0.269759 0.457909 -0.104294 -0.212915 0.228464 0.385822
feelin 0.355486 0.682209 0.671086 -0.092604 -0.269984 0.149486 0.295744 -0.058888 0.601543 0.884824 -0.085669 1.046295 -1.809218 0.249609 -0.192145 -0.775173 -0.935249 0.361430 0.185774 -0.225279 0.783256 0.343311 0.289169 -0.082331 0.248817 0.832103 -1.135211 1.275163 -0.232671 -0.318677 -0.296015 1.906154 -0.036769 0.522374 0.513118 0.636364 0.229634 1.050064 -0.444463 0.224556 0.089225 0.267656 -0.819073 -1.020832 0.776726 0.494768 0.624913 -0.736121 -0.500398 0.026064
ready -0.137530 -1.200624 0.137078 -0.609860 0.662358 0.396944 -0.130389 -0.860356 -0.844287 0.814010 -1.167497 -1.251913 -0.134438 0.159309 -0.182310 1.384863 0.183495 -0.032112 0.925904 -0.529710 -0.682973 0.260486 -0.896548 -1.010038 -0.604534 -0.580116 -0.616355 0.584566 -0.158723 0.064860 -0.064364 0.467005 0.216503 -0.547184 -1.172003 0.208548 0.799877 0.460119 -0.485899 -0.468677 0.415296 0.826772 0.229336 -1.164231 -0.491042 1.321108 -0.175972 0.300476 -0.286964 0.075194
catch -0.780296 0.128397 0.671332 -0.308975 0.217520 0.649690 -0.259892 0.588122 -0.789709 0.249153 -0.158655 0.233416 1.309225 0.328232 0.236388 -0.440177 -0.108150 -0.366446 0.145811 0.109280 0.597286 -0.406556 0.348111 -0.737766 0.498161 0.580384 -0.101011 0.882515 0.847701 0.391667 -0.769969 0.005270 1.058190 -0.031604 -1.364497 0.398215 -0.520285 1.182994 0.258117 -0.125593 -0.469967 0.302315 0.323115 -1.393681 0.226207 -0.522599 0.238216 -0.824864 -0.319392 -0.987884
ring -0.074403 -0.353014 0.415820 0.923719 0.211107 -0.746274 -0.590720 -1.321955 0.291023 0.245976 0.610236 0.136378 0.294248 -0.054467 -0.276348 -0.343838 1.774568 0.988667 -0.788963 0.368603 1.012029 0.561856 0.354405 0.851642 -0.024967 0.858718 -0.979381 -0.580527 -1.269196 -0.553441 -0.010589 -1.188820 -0.202398 -1.283902 -0.041188 -0.053373 -0.506913 0.368587 0.193201 0.282200 1.171840 -0.347794 0.617522 -0.238618 -1.193949 -0.855071 1.198312 0.550726 -0.372316 -0.221343
blow 0.461044 0.375087 0.838126 -0.407028 0.372608 0.393360 0.094914 0.025742 0.316644 -0.878487 0.018360 -0.459046 1.007465 -0.469478 -0.394060 0.838538 0.337220 1.143133 0.098253 0.877607 0.718468 0.736762 -0.168540 0.064201 -0.066903 0.404304 -1.731895 -0.159077 0.225610 1.004185 -0.747595 -0.028711 -0.027344 1.061491 -0.553361 0.720443 -0.504377 -0.143757 -1.402701 0.081572 -1.133363 -0.085445 -0.045685 -0.540726 -0.201834 -1.640825 0.852130 0.639186 -0.054083 -0.018080
hell -0.648189 0.506480 -0.085731 -0.605549 0.107576 0.107629 -0.106559 0.244096 0.124046 0.480640 -0.225321 0.907031 -1.863907 0.273832 -0.576524 -0.652330 -0.209080 -0.518740 -0.385019 -0.552793 0.978060 0.799604 -0.622874 -0.763639 0.246632 -0.696130 -1.624803 1.228524 -1.108499 -0.400056 -0.064016 0.835745 0.283535 0.147866 0.030460 1.030760 -0.158514 0.697432 -0.750392 -0.350101 -0.126173 -0.364824 0.534298 0.023963 1.370352 1.007804 0.320149 -0.620985 -0.547664 0.130879
lean 0.200923 -0.509373 0.179773 -0.262111 -1.482392 -0.571706 -0.288262 -0.274317 0.231318 -0.926398 -0.433113 0.047586 0.485526 0.423550 -0.922242 0.358372 0.494798 -0.140085 -0.297054 0.200891 0.233126 0.141616 0.311195 -0.342487 -0.740484 -1.402789 0.108776 -0.627997 0.255597 -1.692638 -0.449038 0.414528 0.609612 -1.443966 -1.499279 0.547723 0.878729 1.441991 -0.851501 0.402166 -0.161080 0.207537 -0.389516 -0.658734 -0.165786 -0.071712 -0.951269 0.519078 0.575686 0.417209
hood 0.226084 0.090559 0.549982 0.918577 -0.384414 -1.057784 -0.207299 -0.496475 -0.098837 0.805740 0.355633 1.089382 0.263718 0.040134 0.527888 1.091449 -0.746287 1.039387 0.368505 0.180291 -0.019837 0.651285 -0.171362 0.585974 0.747812 -1.069561 -0.691667 0.045660 -0.193642 -0.069220 -0.884125 0.028589 0.787886 0.116857 0.205902 -0.330784 0.718423 0.335886 -0.582613 0.422950 0.983199 -0.641838 0.175954 -0.234813 -0.180850 -0.171907 0.371860 -0.980680 0.983455 0.467781
lie 0.420742 -0.286838 0.324785 1.102699 -0.735430 -0.532982 0.512041 -0.011215 0.387328 0.560018 0.109078 0.003230 0.143733 -0.354567 -0.072032 1.566822 -0.538077 -0.647244 0.764819 -0.028553 -0.352618 -0.380860 -1.278634 -1.530516 0.906108 -0.597431 -0.542819 1.105303 0.553415 0.777793 -0.567876 0.229252 -0.223037 -0.154537 -0.400666 -0.388870 -0.525855 -0.238528 -1.030570 -0.391447 -0.746854 -0.364539 1.097006 -1.787609 1.211196 0.808677 -0.691012 -0.106846 -0.870959 -0.323568
ice -0.647178 0.209120 0.654704 -0.483240 0.244091 -0.045234 0.231985 0.061522 0.026446 0.479527 -0.038595 0.594628 0.198854 0.688495 0.376430 0.450064 1.563659 -0.384471 -0.407085 -0.283492 -0.201729 0.827967 0.828424 -0.013215 0.321291 0.600166 -0.697217 1.373343 0.091029 -1.304632 0.854938 -0.149284 0.189068 -0.303640 -0.829769 0.153222 -1.090293 0.191355 -0.154596 -0.700965 0.653381 -0.569234 -0.665718 0.043898 0.517921 -0.159453 -1.116756 0.730167 -0.131583 -1.228522
slow 1.458533 0.751058 0.595702 -0.914609 0.121215 -0.472340 -1.516218 0.552217 0.197282 -0.225443 1.062386 0.304457 -0.062365 0.055662 -0.389144 0.558091 0.379648 0.504658 0.432732 0.071406 -0.418750 1.050056 -1.588354 -0.554778 -1.467317 -0.203084 -0.010747 0.986399 -0.110908 0.685576 -0.027331 -0.335929 0.108493 0.056078 -0.169256 0.165150 0.265037 -0.205282 -0.077602 0.458820 0.390660 -0.333089 1.126131 -1.264261 -0.507848 0.653289 0.139741 0.828907 0.213821 0.033328
teach -0.774795 -1.231983 -0.937065 0.733081 -0.370921 0.821051 0.720831 0.257607 1.133060 0.376039 0.017538 1.491934 1.022794 0.210546 -0.567242 1.038587 -0.770693 0.046226 0.228603 -0.425406 0.016155 1.035461 0.945549 0.249199 -0.177364 -0.757038 -0.234683 -0.411432 -1.344258 -0.526610 -0.104155 0.534320 -0.075168 -1.240158 -0.026260 -0.645320 -1.148629 0.640712 0.383828 0.248894 0.080439 0.608923 -0.942133 0.352707 -0.369976 -0.657617 0.268044 0.167840 -0.443140 1.416051
feeling -0.391586 0.044616 0.270856 0.232274 -0.718718 0.261856 0.668136 -0.492116 -0.466968 0.032404 0.578970 -0.114586 0.127815 0.716793 0.247046 -0.430458 -1.000091 1.291967 -0.646346 0.187159 0.656162 -0.187993 -0.488397 0.173241 0.177332 -0.037772 -1.289530 0.647362 -0.098861 -0.731614 0.190230 0.304319 -0.028860 -0.194834 -0.896206 -0.026567 0.371221 0.371836 -1.022040 0.940698 0.202635 -0.450476 -1.082236 -0.871863 0.296501 0.237294 -0.969645 0.538074 -1.434721 -0.268300
gas 0.199941 1.205451 0.278724 -0.351577 -0.818465 -0.947114 0.132780 0.849024 0.331496 0.343186 1.633080 0.449827 0.329977 -0.220656 0.314531 1.657726 -0.044649 -0.459175 -0.376880 0.708821 0.012240 -0.863233 -0.473074 0.100884 -1.438014 -1.123996 0.063124 -0.100033 -0.958848 0.196124 0.598190 0.019753 -0.221077 1.076182 -0.239341 -0.084695 0.818034 -0.382843 -0.698227 -0.033561 -0.044588 -1.588548 0.636329 -0.007486 0.540309 0.069795 -1.056533 -0.037307 0.818147 0.620028
bands 0.077233 1.795672 -0.310054 -0.411142 0.146993 0.270060 -0.700433 0.171086 0.422622 1.451383 -0.664273 -0.586830 0.520505 -0.944707 -0.369211 -0.471309 1.269858 0.558040 0.300590 0.287437 0.884924 0.167299 0.679347 -0.418593 -0.563405 -0.216882 -1.784562 -0.562836 0.107269 0.121956 0.506288 -0.527672 0.474038 0.243107 -0.698578 -0.335358 -0.303852 -0.547590 -0.121324 -0.137005 0.415630 -0.511175 -1.202349 0.112931 -0.533164 0.005783 0.825122 -0.434152 -0.841829 0.546866
car 0.934506 0.780363 0.238446 0.183081 0.189562 0.348523 0.360165 -0.087414 -0.423372 0.551372 -0.117836 0.071206 -0.396255 -0.200618 -0.253753 1.171334 1.242971 -0.734565 0.112563 -0.689477 0.152463 0.224115 0.362167 0.236749 0.013086 -0.646873 -0.702576 0.299518 1.143070 -0.098694 -0.039470 -0.319151 0.011933 0.228139 -0.565097 -0.115098 -0.226249 0.144387 0.290256 0.666840 1.115802 -0.827079 -0.282714 -0.103497 -0.707992 0.037236 0.252897 0.057480 -0.338538 -0.604325
ha -0.581411 -0.044748 -0.205473 0.375353 -0.271223 -0.431911 0.134230 0.749581 -0.289505 1.366083 -0.456087 -1.232217 1.225516 -0.018096 0.191544 -0.150602 -0.792079 1.036724 -0.619512 -0.348169 -0.006305 0.100594 0.371346 0.002930 0.674156 1.129301 0.629355 1.327243 0.104133 0.441365 -0.218499 -0.377070 -0.484002 -0.029269 -0.533684 0.300471 0.423021 1.105171 -0.744124 0.308440 0.274062 1.049093 0.282162 0.390378 0.522932 -1.087790 0.364705 0.238601 -0.295136 -0.255535
shake -0.704236 0.581599 -0.961189 -0.916346 -0.755334 -0.942123 -0.390805 0.080457 0.931939 -0.637351 -0.195291 -0.019603 0.505900 -0.729045 1.354530 0.271347 0.826704 -1.239585 0.481549 0.512281 -0.003652 -0.429661 1.620921 -0.225438 -0.838406 -0.841280 -0.533321 0.964661 -0.073951 0.978752 0.744637 -0.738430 -0.500609 0.897292 -0.702029 0.270267 0.316349 -0.124250 -0.654482 0.807291 -0.790788 0.173133 0.146098 -0.231523 0.290769 -0.586648 0.957072 -0.830541 0.291284 -0.518251
phone 0.453093 -0.319405 0.344896 -0.460216 -0.454204 -0.163866 0.924211 -1.172252 -0.557542 0.190633 0.919211 0.391537 0.647500 -0.431458 -0.651264 -0.442196 0.901400 -0.502607 -0.602452 -1.026721 -0.794137 0.407489 -0.333734 0.300509 -0.295368 0.372928 -0.429138 0.618994 -1.066586 0.786869 -0.753850 -0.097846 -0.850026 -1.792812 0.203303 -1.017443 -0.505944 0.657480 -0.817967 0.560257 1.057055 -0.032537 -0.064802 -0.298348 0.151239 -0.495924 0.862742 -0.396757 -0.135529 0.278852
find -0.143289 -0.192361 -0.264492 0.105919 -0.060779 -0.252904 -0.075423 0.275133 -1.103269 0.127450 0.835532 -0.377901 0.682193 -0.138728 -0.488372 0.264851 0.154161 -0.753520 0.550556 0.940142 0.610664 -0.450605 -1.012343 -1.093336 -0.114160 0.008846 -0.322060 0.593684 -0.341776 -0.254638 -0.880036 -0.446130 0.818027 -0.010611 -0.386976 -0.087279 -0.884600 -0.613256 -0.131384 0.873344 0.880654 -0.197352 -0.222784 -1.232446 0.542613 -0.226313 0.603134 -0.538138 0.496368 -0.677807
pay 0.041767 0.380023 0.734997 0.546998 -0.190448 -0.494705 -0.517635 0.412852 0.320172 -0.712869 0.473824 0.682446 0.552647 -0.355735 -0.058843 0.169583 1.056608 -0.158655 -0.049676 -0.988849 0.786021 -0.859602 0.319059 -1.194843 -0.629605 -0.248551 -0.276364 0.543949 0.358003 1.403142 0.190859 -0.139005 -0.494641 -0.182874 -1.122354 0.316416 -0.401300 -0.211034 0.154264 -0.859505 1.053852 -0.290236 0.066765 -0.750604 0.298219 0.004021 0.012575 -0.477273 -0.597555 0.345482
rock 0.342932 0.598071 0.421582 0.226350 -1.215982 -0.777862 0.822570 -0.264029 -0.215126 -0.415094 -0.461959 0.135363 0.865757 -1.002806 -0.885291 0.787183 -1.250784 0.587073 -0.323862 0.631742 0.066328 0.383169 0.258354 0.765468 -0.744629 -1.303699 -0.874714 0.148124 0.600554 -1.138341 -0.185312 -0.241241 0.869851 0.445612 -0.901329 0.750132 0.334691 0.822076 -0.245015 -0.007561 0.506624 0.246729 -0.692928 0.302777 -1.003257 0.459095 -0.210879 0.323047 0.356084 0.379254
dougie -0.465032 -0.838413 -1.087875 0.783116 -0.207522 0.503636 0.747137 -0.068933 1.178812 0.022874 -0.226072 0.799854 0.643965 0.344821 -0.151004 0.466388 -1.024005 -0.344379 0.038790 -0.190466 -0.124993 0.907449 0.482911 0.903842 -0.391853 -0.655479 -0.366101 0.111569 -1.750198 -0.252390 0.064086 0.208205 0.106250 -0.970081 0.490027 -0.296285 -0.781737 0.413238 -0.165320 0.012036 0.054047 0.252767 -1.119726 -0.074850 -0.356351 -0.639859 0.320802 0.475981 -0.895699 1.216789
times 0.777172 0.708576 -0.350545 -0.355916 -0.421430 0.027124 -0.063343 -0.321467 -0.727955 0.318762 -0.651225 -1.255511 0.312541 -0.051621 -0.507525 0.247641 0.226446 -0.058672 -1.129706 0.773180 1.047229 -0.185271 -0.506474 -0.003244 -0.494455 -1.181743 -0.424756 -0.151451 0.991549 -0.151665 -0.790997 0.358645 0.376288 -0.473340 -0.496489 -0.187485 -0.162044 0.448618 -0.367132 -1.224879 -0.434191 -0.102925 0.461903 -1.755364 0.389663 0.198600 0.136915 -0.780619 -1.206204 -1.324847
care 0.132098 -0.477476 -0.383593 -0.154316 -1.135873 -0.123522 -0.156633 -0.013852 0.224850 0.530711 0.596251 -0.911331 -1.779307 0.503905 0.670354 0.623033 -0.036248 -0.236683 -0.415299 -0.135541 0.002248 0.206048 -0.576670 -0.663831 -0.590751 0.911852 -0.234858 0.035831 0.063718 0.616390 0.568540 0.281266 0.187204 0.322472 -0.183851 -0.754142 0.351981 0.666807 -0.318585 0.394532 0.835981 -0.236416 0.049993 -1.552162 1.077787 -0.324608 1.045393 -0.279012 -1.216056 -0.105252
rollie 0.298810 -0.057089 -0.283498 1.128365 -0.007610 -1.683968 0.308143 0.440847 -0.088410 -0.263049 -1.047386 -0.346218 0.725410 -0.289502 -1.166217 0.988603 0.806148 0.197973 -1.065812 -0.731893 -0.290211 0.008328 1.419516 1.547864 -0.422087 0.659711 0.526516 0.295411 0.757226 0.380948 0.411987 -0.429226 0.554553 -0.583366 -0.963046 0.779027 -0.607324 1.212035 0.626027 1.725569 -0.619059 -0.316194 -0.573773 0.232901 -0.238403 -0.175455 -0.446593 0.889837 -1.119539 -0.270767
taste -1.416090 0.477454 -1.155133 0.798944 -0.098213 1.470185 1.377027 0.138959 -0.797457 0.706012 0.323762 0.427626 0.616550 -0.515769 -0.713426 0.810485 0.027888 1.085197 0.922328 -0.578625 -0.066811 -0.500511 -0.236612 0.844724 -0.534810 -0.113578 0.397479 0.963377 0.844997 0.305735 -0.155118 0.550088 0.336396 -0.285325 0.348517 1.039834 -0.251660 -0.382245 -0.309205 -0.643146 0.369034 0.062969 -0.098657 -1.447054 -0.061264 -0.133275 -0.962983 1.106889 -0.778660 0.667242
bang -0.008670 0.206460 1.110432 0.982799 0.023969 0.516144 -0.223037 -1.013800 1.051422 -0.465990 0.155614 -0.102591 0.948505 1.176266 -0.234767 0.593941 -1.321167 0.443566 0.300975 -0.848483 -0.206466 1.371843 -0.977914 0.391163 0.165413 -1.044839 -1.458837 -0.250939 0.735079 -0.881201 0.467827 0.104170 0.965794 -0.624511 -0.105408 0.186058 0.040691 1.183606 -0.640509 0.022038 -0.941558 -0.250526 0.220614 0.148225 0.094341 0.281179 -2.029395 0.796036 0.066144 -0.262327
freak 0.179814 -0.023401 0.112153 -0.237407 -0.232543 -1.403899 0.984573 -0.197183 1.046781 1.694313 -0.720922 0.353469 0.272800 -0.431836 0.407915 -0.397147 -0.435529 0.746199 -0.489518 0.801073 0.448787 0.650982 -0.678359 -1.180431 -0.792325 0.823991 -0.097362 -0.791722 0.608842 0.198836 -0.422625 -1.845023 0.833389 0.129879 0.159304 -0.769810 0.986708 0.563877 0.293559 0.460616 0.405736 -0.483987 -0.062266 -0.703948 0.271892 -0.033615 -0.347855 -0.284972 0.123469 0.725763
