like -0.378020 0.701207 0.694518 0.563274 0.168781 0.836182 -0.916372 0.618587 0.177261 -0.824780 -0.267595 -0.103597 0.379432 0.691765 0.860516 0.447604 0.678039 -1.522004 -0.716436 -0.628222 0.076209 0.378912 -1.423706 1.282977 -0.611014 0.301655 0.167906 0.613034 -0.569105 0.572263 -0.661533 0.261328 -0.592795 0.127475 0.576206 0.788334 0.243571 -0.137465 0.022955 -1.125415 -0.019430 -0.670101 -0.025793 0.379366 1.119425 -0.150129 0.056726 0.320706 0.659829 0.874578
yeah -0.870908 0.142049 0.521693 0.272840 -0.148964 -0.644806 -0.805656 -0.060446 0.006240 0.641513 -0.243514 1.038869 0.344800 -0.615758 1.289177 0.380421 1.043155 -1.042265 0.018481 -1.101813 -0.025748 -0.583974 -0.444063 1.183447 0.536983 0.517529 0.669479 0.198422 -0.173750 -0.350315 0.975797 -0.185028 0.261334 -0.638651 -0.221385 0.894297 -0.101370 -0.077529 0.023785 -1.164188 -0.926570 -0.628925 -0.990185 0.064763 1.337953 0.413947 -0.846998 -0.446427 -0.276314 0.303521
got -1.108967 0.699993 -0.894169 -0.960727 -0.164631 -0.514374 -0.698151 0.291255 -0.066814 0.222105 -0.629435 -0.373041 0.096329 0.986486 0.166502 0.515424 0.437845 -0.784540 -1.110977 0.312790 0.098912 -0.194177 -0.595993 1.092335 0.626817 1.256445 0.430173 -0.467352 0.253525 0.888758 0.379873 -0.723353 -0.559553 0.975791 0.074520 0.054319 -0.243376 -0.544273 0.161457 -0.179194 -0.058623 -0.058630 0.196050 0.681029 1.485708 0.210871 -0.284646 -0.431930 0.243389 0.185103
know -0.210755 0.087708 1.021532 -0.018097 -0.519055 -0.570486 -0.277323 -0.054572 0.308832 -0.446731 -0.089059 1.168942 -1.054663 0.808703 0.143967 0.386899 0.263364 -0.774462 -0.372550 0.335561 0.207514 0.671530 -0.672154 0.676513 0.089190 1.418515 -0.189543 0.057284 -1.073869 0.723203 0.419595 0.247224 -0.289630 -0.010106 0.538217 0.223321 0.041996 -0.388028 -0.107674 -0.460155 -1.119275 -0.890720 -0.200457 -0.453219 0.837873 0.016796 -0.456202 -0.455204 -0.931507 0.097051
ayy -0.543545 -0.170231 0.069624 0.271461 -0.175467 -0.232349 0.382049 0.542417 1.334245 0.150362 -0.005348 0.218092 -0.235749 0.126246 0.856877 0.641579 1.393241 -0.479125 -0.783199 -0.358007 0.176345 0.328488 -1.081524 -0.062469 -0.297331 0.473622 1.100754 -0.007990 0.003028 -0.061356 1.037942 -0.768032 -0.023340 0.386304 0.104369 -0.348696 0.833301 0.673941 -0.283321 -0.723229 -0.549387 1.104448 -0.784548 -0.377962 0.657348 0.621194 0.141272 0.183575 -0.497009 0.014290
bitch -0.491630 0.957839 -0.274755 0.036354 0.053612 -0.454465 0.296143 0.393926 0.320060 -0.034047 0.623833 0.684835 -0.137278 0.792473 -0.455541 0.152205 0.510910 -0.366714 -0.016704 -0.880872 0.462553 -0.223958 -0.642933 0.680965 0.167218 0.151557 2.089542 -0.513944 0.794328 0.632244 -0.151454 0.208601 -0.645918 0.111168 -0.081690 0.424694 1.289647 0.314141 0.394427 -0.158093 -0.121837 -0.904403 0.427059 -0.307888 0.346637 -0.824877 0.146292 0.023629 1.141110 0.325564
ai -1.652991 0.542781 -0.154756 0.430690 -0.366246 -0.175130 -0.262284 -0.318186 -0.049836 -0.159935 -0.133780 0.552768 -0.165046 0.762921 0.170681 0.388678 1.046540 -0.258232 -0.909670 -0.299148 -0.109134 0.364241 -0.255807 0.357136 0.264908 1.140786 0.287574 -0.321805 0.101741 0.460139 0.000238 -0.646189 -0.846074 0.203998 0.108347 -0.558694 -0.237448 0.293034 -0.343587 -0.537342 -0.676103 -0.226337 0.220581 -0.347208 0.997122 -0.466478 0.024307 -0.655434 0.126318 0.946652
baby -0.155810 0.042823 0.428809 0.483652 -0.396087 -0.211344 0.325690 1.014403 0.873202 -0.233305 -0.266357 0.885648 -0.778419 0.201392 0.187914 1.344746 0.942122 -0.463674 -0.391472 0.232550 -0.192691 0.986664 -0.679782 -0.223400 0.012628 0.765869 1.135084 -0.498308 -0.120647 -0.190996 1.620917 -0.163368 0.201407 0.189817 0.209764 0.238855 0.921056 0.964451 0.256024 -0.793916 -0.349593 -0.416726 -1.052633 0.356890 1.013666 0.349434 -1.072398 -0.097701 -0.844979 -0.205858
ooh 0.098025 0.278778 0.941371 -0.891151 -0.765318 -1.853354 -1.426323 -0.133666 -0.458928 0.366760 -0.021010 -0.174693 -0.156970 -0.159426 0.889350 0.010868 0.533469 0.999555 0.706083 -0.093805 0.423925 0.014248 -0.238820 -0.695617 -0.083477 0.677597 0.265024 -0.212333 0.457978 0.981885 0.486762 -0.328777 0.438672 -0.742879 0.283055 -0.121470 -0.450707 0.140633 0.611380 -1.736455 -0.586521 -0.769850 -0.376026 -0.882002 0.070603 -0.357007 -0.314007 -0.595942 -1.026782 0.087486
way -0.398431 -0.271628 0.605688 1.116918 -0.656175 0.219351 -0.036168 0.261311 0.066436 -0.899160 -0.124504 1.065715 -0.768882 0.774422 0.108561 0.718893 0.975110 -0.348926 -1.020406 0.521672 -0.334984 1.245617 -0.558518 0.607081 -1.210658 0.968135 0.694285 0.092541 -1.073770 0.047058 0.647104 0.051868 0.801508 1.024908 -0.179341 -0.082369 -1.249237 -0.106290 -0.281283 -0.308707 0.143703 -0.230402 -0.439053 0.784655 0.836180 -0.075928 -0.935396 -0.380239 -0.242192 -0.039151
nigga -0.839847 0.401537 0.830797 -0.178586 0.549107 -0.311480 -0.102961 -0.305837 -0.055609 -0.602494 0.320532 0.727954 -0.006704 0.401291 0.169762 -0.069100 0.610171 -0.065809 -0.461487 -0.750527 -0.204321 -0.148002 -0.547908 1.499872 0.321220 0.526783 -0.069344 0.580879 0.319685 0.834734 -0.312553 0.238406 -0.846229 0.600560 0.031450 -0.542559 0.984671 0.239217 0.260780 -0.585929 -0.634546 -0.126051 0.866556 -0.554229 0.051671 -0.603381 -0.325092 -0.134757 0.308503 0.219227
fuck -1.092129 1.154731 0.237982 0.110922 0.065437 -0.107474 0.205860 0.603369 0.611881 0.749555 0.503498 0.780629 -0.027415 0.652446 0.439167 -0.127500 0.477279 -1.255072 -0.105048 -0.236451 -0.350586 0.111186 -0.899659 0.675961 0.598185 0.179581 0.834879 0.262243 -0.388654 -0.227345 -0.177256 -0.730469 -0.591571 0.303465 0.460400 0.267112 0.403411 0.071036 -0.746077 -0.276436 -0.641353 0.650307 0.141504 -0.759505 0.136680 -0.468399 1.164179 -0.244302 0.341899 0.036662
niggas -2.086089 -0.317961 0.133258 -0.753511 -0.841701 -0.504120 -0.151156 -0.523826 0.594336 0.108439 0.489904 0.295394 -0.695132 0.437267 -0.269680 0.465964 0.575748 -0.850119 0.144294 -0.221079 -0.015221 -0.108869 -0.255343 0.483736 -0.159292 -0.706603 -0.183597 0.682527 0.194830 0.851113 0.454907 -0.638332 -0.634165 0.769763 0.146215 0.603459 0.292368 -0.584709 -0.902226 -0.139008 -0.500570 -0.340937 0.166290 -0.526439 0.354282 -0.351276 0.693138 -0.518239 0.544565 -0.144604
shit -1.337228 0.094451 0.148720 0.208789 0.067119 0.132382 0.145788 -0.432286 0.299178 -0.341582 0.031564 0.554663 -0.262425 0.389651 0.161502 0.234531 0.979955 -0.745970 -0.857462 -0.429714 -0.043046 0.271173 -0.532561 0.961235 0.376995 0.856402 -0.259395 0.054533 -0.243743 0.509376 -0.287678 -0.347317 -0.991355 0.528091 -0.000156 -0.627664 0.522821 0.039955 -0.519802 0.048169 -0.621956 0.472748 0.178880 -0.201524 0.630237 0.017602 0.234068 -0.312009 0.164778 0.487251
love -0.724159 0.559844 0.767402 -1.203093 0.098561 -0.764274 -0.689445 0.383597 -0.342173 -0.177887 -0.829848 -0.136686 -0.461598 -0.358827 0.624941 0.772164 -0.074144 0.016286 -0.258468 0.410299 0.052852 0.184141 -0.250499 -0.385755 1.165227 1.070672 -0.064019 -0.627225 -0.222562 0.800299 0.566792 -0.266558 -0.623319 -0.029575 0.412111 0.263854 -0.492763 0.116648 0.605779 -0.570744 -0.476641 -0.355225 0.087103 0.232690 0.756264 -0.341561 -0.520135 -0.794740 -0.734921 0.185033
need -1.025918 -0.053154 0.372077 -0.602015 0.377707 -0.003150 -0.788949 0.384836 0.202887 0.013547 0.030307 -0.122859 -0.887838 -0.130920 -0.175085 0.140055 -0.781862 -1.118386 -0.341443 0.827579 -0.082255 0.578486 -0.747395 0.208717 0.857566 0.222851 -0.103312 0.556115 -0.767705 0.653870 1.713320 -0.148226 -0.708999 -0.395296 0.485890 0.483154 -0.471551 0.043244 0.192413 -0.968782 -0.084525 -0.334798 -0.126389 0.195429 0.223050 -0.319019 -0.977623 -0.369437 -0.464572 0.348374
ass -1.778445 -0.530389 0.348899 -0.667520 -0.922932 0.385911 -0.457037 -0.271969 0.158916 0.051073 0.424939 -0.435361 -0.145195 0.110285 -0.187827 0.036669 -0.336699 -0.912885 0.392295 0.110076 -0.280307 0.794059 -0.220191 0.039189 0.461859 -0.679838 -0.327576 1.050233 -0.249497 0.822328 0.644220 -0.994499 -1.146708 0.887983 -0.531517 0.208257 -0.259266 -0.263650 -0.609525 -0.146889 -0.175613 0.116899 0.683472 -0.295507 -0.528323 -0.971354 0.515449 -0.354707 0.379198 0.431171
let -0.828546 -0.402079 0.775035 -0.240018 -0.868280 -0.595977 -0.606823 -0.002029 -0.042744 -0.153873 -0.313700 -0.639596 0.116662 0.452392 1.391456 -0.047785 0.389211 -0.314771 -0.078435 -0.541928 -0.497518 0.735095 -0.117592 0.693977 0.672117 0.502180 -0.831068 1.152353 0.382651 -0.091891 -0.265619 0.015079 -0.464053 0.169967 -0.230598 -0.514685 0.023695 -0.098267 0.810928 -0.183934 -0.574469 0.266678 0.453365 -0.688569 -0.230801 0.109178 -0.077587 -0.058417 -0.307747 0.366759
wanna 0.752230 1.222611 0.997701 -0.057782 -0.165148 0.619050 0.340903 -0.050807 -0.130430 0.315390 0.054056 1.003349 0.830052 0.788586 0.246269 -0.081281 -0.098799 -0.508274 -0.332668 -0.533297 -0.765621 0.051317 -1.123105 1.566471 0.896853 0.801791 -0.855447 -0.504403 -0.270076 -0.779611 -0.414954 -0.815339 -0.717079 0.160535 -0.220336 0.501669 0.245989 -0.376044 -0.128898 0.765625 -0.894531 -0.225698 -0.407649 -0.360981 0.575736 -0.361513 0.020814 -0.268817 -0.284912 -0.311103
night -0.327790 0.830490 0.430632 -1.415534 -0.189137 -1.594927 -1.363969 -0.146974 -0.649462 0.537687 -0.736801 -0.177861 0.039124 -0.325080 0.708909 0.288846 0.164281 0.309897 -0.047668 -0.116215 0.338142 -0.503058 -0.211580 -0.138473 0.975828 0.952361 0.251469 -0.729737 0.121114 1.085939 0.883731 -0.191679 0.022000 -0.281146 0.275520 0.431642 -0.939797 -0.270111 0.755876 -0.940207 -0.207750 -1.134836 -0.111603 0.278488 0.882592 -0.478927 -0.912524 -0.885725 -0.569932 0.330697
want -0.334336 0.279965 0.634908 -0.415777 0.183352 0.366219 -0.034622 1.054902 -0.022259 -0.396900 -0.716756 -0.119781 -1.047643 -0.016723 0.306848 0.952430 -0.089772 -0.850967 -0.267745 0.172340 -0.115819 1.019442 -0.350452 0.117428 1.452340 1.107751 0.150240 -0.554951 -0.892849 -0.062349 0.433737 -0.149631 -0.714093 0.164014 -0.098361 0.061762 0.583933 0.601515 0.489562 -0.160765 -0.541657 0.398807 -0.171939 0.303151 0.731569 -0.052535 -0.357075 0.020184 -0.798846 0.012545
time -0.590842 0.445375 0.081162 -0.264768 -0.089597 -0.195481 -0.369567 -0.270523 0.121048 0.534512 0.654128 0.035721 -0.409489 -0.271201 -0.316170 -0.262224 -0.283367 -1.095314 -0.417800 -0.567365 -0.336807 0.318856 -0.391576 1.612332 0.894780 -0.068786 -0.609702 0.533264 -0.260275 -0.026360 1.189899 -0.072541 -0.561631 0.150085 -0.027319 0.708552 -0.144383 -0.313045 0.773024 0.017988 -0.568613 -0.258204 -0.104136 0.150238 0.180239 0.216924 -0.668526 -0.506782 -0.175417 -0.396723
uh -0.778732 0.541398 0.441521 0.192484 0.923730 -0.049739 0.155067 -0.953626 0.429908 -0.193734 -0.632221 0.403924 0.083463 -1.144540 0.614694 0.056611 1.437871 0.478466 -0.823068 -1.077404 0.248526 -0.747342 0.388260 -0.151772 0.094394 0.552708 -0.823718 -0.658372 0.119454 0.249214 -0.680659 -0.028834 -1.327566 -0.220832 0.437302 -0.184632 0.257691 0.358265 -0.239698 -0.222612 -0.868020 -0.338898 0.166095 0.245355 0.862519 0.307233 -0.718509 -0.495844 -0.369906 0.417717
man -1.208398 0.407779 -0.128096 -0.082984 0.008261 -0.099986 -0.422479 -0.164699 0.350606 0.178887 -0.182968 0.099059 0.228004 0.511929 0.205975 0.092988 0.624009 -0.606609 -0.381486 -0.339069 -0.144532 -0.054615 -0.796267 0.952815 0.423378 0.500344 0.230584 0.212066 0.045320 0.506739 0.085363 -0.690804 -0.631533 0.483707 -0.153340 -0.201822 0.300483 0.113935 -0.548215 -0.374665 -0.383015 0.369030 0.246906 -0.190980 0.606199 -0.315422 0.363518 -0.275896 0.471815 0.525430
life 0.256172 0.040668 -0.296638 0.649534 0.753299 0.044616 -0.156655 0.159845 -0.467090 0.083327 -0.891507 0.164362 0.902442 0.889078 1.206731 0.947709 0.523666 -0.657770 0.496781 -0.034862 0.839093 -0.788260 -0.118272 0.155779 0.507635 0.614096 -0.621027 0.159352 -1.004691 0.112054 -1.510305 0.143786 0.566883 -0.695170 -0.074486 0.558571 0.621201 -1.017411 -0.738730 -0.188401 -1.243075 0.153563 -0.397178 -1.141907 0.675333 0.241993 0.321172 0.078024 -0.141734 -0.040875
girl -0.453125 -0.543156 0.405843 -0.041526 -0.618971 -0.002359 0.229841 0.368627 0.268156 -0.730442 -0.379692 -0.039492 -1.596714 0.312272 -0.564602 0.511379 0.107590 -0.798953 -0.666993 0.126331 0.217639 1.150134 -0.105733 -0.437445 0.064485 0.672743 -0.545595 -0.445760 -0.681464 0.389820 0.628415 0.667689 0.063106 0.183873 0.293379 -0.194376 0.506268 0.174854 0.390950 0.041033 0.168705 -0.368120 -0.459691 0.007971 0.785650 -0.397592 -0.352330 -0.046492 -0.677779 0.006388
hol 0.413010 0.491567 -0.792173 -0.279800 0.294657 -0.401870 0.433899 0.114371 0.038261 0.099474 0.649338 -0.130639 0.220556 0.104998 -1.041470 -0.470100 -0.243252 0.683211 0.503629 -0.735725 0.697551 -0.687139 0.320002 -0.098893 -0.011338 -0.513501 1.484875 -0.769267 1.313704 0.431082 -0.538253 0.451222 -0.283595 -0.311965 -0.264607 0.197406 0.939738 0.305356 0.540962 0.379156 0.624385 -0.676790 0.566707 -0.136142 -0.379482 -0.687386 0.330639 0.445603 1.241784 0.016668
feel -0.134349 0.940120 0.384830 -0.163387 -0.488576 0.347981 -0.408430 -0.000072 0.202986 0.378021 -0.271253 0.598115 0.034355 0.755536 0.184675 0.599883 -0.088595 0.117750 -0.329081 0.230980 -0.385091 -0.200417 -0.773089 1.087261 -0.046647 -0.197712 -0.060164 -0.066358 -0.576229 -0.539746 -0.538268 -0.357078 -0.380666 1.198181 0.174388 0.765541 -0.114451 -0.421501 -0.510550 -0.083682 0.250718 -0.088466 -0.616395 0.256583 0.657012 -0.295190 0.653766 -0.277706 0.605054 -0.571493
gon -0.914055 0.759129 0.696665 0.286575 -0.679416 -0.183699 0.098389 -0.433336 -0.274840 0.381693 0.492556 0.832868 0.038604 0.818540 0.369492 0.543509 -0.017083 -0.487816 -0.300225 -0.216023 -0.275493 0.153715 -0.953508 0.950087 -0.260256 -0.245130 0.533353 -0.089240 -0.406045 -0.001901 -0.241011 -0.355515 -0.189723 1.055255 -0.140969 0.030237 0.005364 -0.259156 -0.326646 0.323879 -0.756371 -0.316649 0.037511 -0.138254 -0.105708 -0.745482 0.166993 -0.818465 0.165212 0.457182
said -0.555920 0.254615 0.106507 0.559059 0.536390 0.333538 0.110081 -0.199602 -0.355887 -0.272798 -0.885711 0.456436 0.150180 0.171090 0.735358 0.827204 1.155427 -0.244883 -0.460881 -0.182025 0.205785 0.042320 0.067363 -0.045949 0.828555 1.245831 -0.643680 -0.546705 -0.582459 0.143714 -0.920340 -0.256214 -0.567277 -0.246271 -0.034872 -0.419209 0.288740 0.322867 -0.474195 -0.223092 -0.790083 0.369764 -0.351827 -0.304460 1.153234 0.141614 0.052768 -0.421572 -0.490013 0.211407
fuckin -0.769103 0.072745 0.171858 -0.215541 0.939451 0.376896 -0.645460 0.306899 0.330236 -0.350452 0.408681 0.380550 -0.106837 0.007724 0.228357 -0.023440 -0.416137 -0.420632 -0.645712 1.207666 -0.117261 -0.078121 -1.080778 0.338887 0.223207 0.176450 0.449359 0.871309 -0.504109 0.643321 0.909793 -0.591572 -0.919004 -0.734883 0.834828 0.044038 -0.288522 0.264018 -0.357117 -1.441798 -0.038785 0.605081 -0.006290 -0.227703 0.153865 -0.256748 -0.109183 -0.100998 -0.070197 0.274782
high -0.923909 0.679193 -0.222590 1.068896 -0.125765 0.065032 0.637751 0.612669 -0.475558 0.235496 0.215224 1.093233 0.108894 0.408028 0.190852 0.368039 -0.129909 -1.386359 0.457803 0.974112 -1.134068 -0.302809 -0.503477 -0.223824 -0.922826 -0.630366 1.644829 0.032709 -0.467254 -0.155262 0.297075 -0.331486 1.250741 0.800773 0.414470 0.315722 0.126686 0.117115 -0.160754 -0.157673 -0.471769 -0.274184 0.845118 0.581302 -0.329499 0.222177 -0.496655 -1.079773 0.004657 0.608433
ya -0.607905 -0.131853 0.578154 -0.503920 0.170779 -0.153843 0.008887 0.976042 -0.246693 -0.236887 -0.376792 -0.348302 -0.737422 -0.749678 0.268398 0.574882 -0.984590 -0.748247 0.077326 0.155080 -0.139151 0.739328 -0.108500 -0.117597 1.326514 0.677509 -0.509050 -0.063107 -0.280587 -0.211607 0.533452 -0.001810 -0.692083 -0.474064 -0.031376 -0.021483 0.078144 0.221623 0.570631 0.018234 -0.027726 0.252718 -0.019972 0.030928 -0.073196 0.276317 -0.723024 0.916512 0.027251 0.074403
lyrics -0.321111 0.314719 0.083530 -0.131646 -0.019698 -0.292010 -0.402972 -0.048319 0.221828 -0.105370 -0.184817 0.262951 -0.285010 0.126522 0.364094 0.186198 0.383659 -0.034949 -0.426524 -0.064005 0.038683 -0.163424 -0.430037 0.525001 -0.135702 0.555082 0.443036 -0.088861 0.096725 0.273593 0.171766 0.013920 -0.235482 0.014525 0.128973 0.296816 0.064972 0.036508 0.093536 -0.497927 -0.330997 -0.237826 -0.313236 0.195369 0.667220 0.178061 -0.376987 -0.326023 -0.257320 0.182737
o 0.886869 -0.668945 -0.051421 0.457888 0.164402 -0.065600 0.385575 0.391738 -0.772917 -1.042272 -0.380881 -0.296509 -0.802729 0.397193 0.077585 0.200613 -0.206777 0.478121 -0.355262 0.231698 0.246932 0.275029 0.211554 -0.979314 -0.570956 0.345470 -0.685156 -0.790423 -0.635971 0.141751 -0.474058 1.423484 1.425227 -0.292562 0.364886 -0.633927 0.247565 -0.216833 0.550421 0.460259 0.859033 -0.140799 -0.188109 0.023036 0.136656 -0.434786 0.354520 0.346703 -0.064312 0.212052
oh -0.370479 0.039915 0.400856 -0.195651 -0.509587 -0.040431 -0.707194 -0.405265 0.444499 0.129316 0.435082 0.004003 -0.987915 -0.195643 0.057411 -0.509974 0.060834 -0.760567 -0.151451 -0.411566 -0.223588 0.393161 -0.024201 0.735392 0.308847 0.317233 -0.516716 0.510066 -0.344176 -0.017024 0.619080 0.464634 -0.524274 -0.685669 -0.032067 0.805260 0.021089 -0.191677 0.052833 -0.613398 -0.537184 -0.527676 -0.404395 -0.208722 0.509048 0.090181 -0.336699 -0.413810 -0.492473 0.097373
feelin -0.201838 0.191202 0.350509 0.631567 0.540877 0.300071 0.362915 -0.374237 0.766829 -0.564514 -0.394475 0.142913 -0.059474 -0.902637 0.279729 0.029633 0.819792 0.081071 -0.696866 -0.679516 0.313355 0.094553 0.406617 -0.031298 -0.300042 0.020637 -1.306148 -0.303969 0.277565 -0.226172 -0.639322 0.412433 -1.365900 -0.338445 0.413049 -0.061414 0.162260 0.320322 -0.148738 -0.015514 -0.184696 -0.490142 0.073277 0.343412 0.163940 0.447331 -1.100909 0.243817 -0.025976 0.034378
lil -0.019702 0.706965 -0.560881 0.079363 0.295510 -0.176697 0.524812 0.207535 0.423069 -0.190784 0.600497 0.424287 0.220547 0.430387 -0.773044 -0.078627 0.426813 0.213963 0.038880 -1.047936 0.647067 -0.547408 -0.132974 0.502002 -0.417783 -0.264765 1.594002 -0.659895 1.126063 0.545179 -0.448155 0.386620 -0.360624 -0.116082 -0.105702 0.428872 1.153955 0.404297 0.278980 -0.094076 0.358344 -0.840051 0.391605 -0.128658 0.321220 -0.516203 0.022412 0.378915 1.293555 0.001215
think 0.221769 0.072775 0.428505 -0.057385 -0.315960 -0.359241 -0.238050 0.430906 0.481146 0.356558 0.288443 0.114868 -0.187671 0.299790 -0.280710 0.156385 0.636938 -0.544655 0.375470 -0.474534 0.625330 0.617263 -0.965100 -0.252401 -0.296694 -0.366702 0.815426 -0.195805 0.009451 0.431792 0.927237 -0.255464 0.153269 -0.024049 0.163656 0.269752 1.030444 0.421070 -0.037025 -0.948401 -0.176416 -0.269611 -0.879248 -0.520535 0.067834 -0.195949 -0.378516 0.131490 -0.183112 -0.105748
money -0.926587 0.124119 0.028066 0.091036 -0.131393 -0.379361 -0.169040 -0.065168 0.239195 0.106478 -0.129042 0.153573 -0.221829 0.595216 -0.009417 0.560186 0.438058 -0.238313 -0.667326 0.049883 -0.267442 0.251136 -0.325646 0.668190 0.033187 0.331982 0.091275 0.055181 -0.010276 -0.198889 0.564399 -0.394589 -0.363382 0.654658 0.087885 0.006122 -0.228203 -0.045558 -0.045995 -0.050653 -0.360612 -0.157072 -0.158564 0.069498 0.516358 0.009900 -0.411819 -0.395266 -0.054451 0.197673
swerve 0.896429 -0.698240 -0.144230 0.207974 -0.007619 0.254811 0.434482 0.081067 -0.144340 -0.568282 -0.013492 -0.390794 -0.488931 -0.241499 -0.839098 -0.300734 -0.514557 0.444857 0.190788 0.330686 0.335588 0.290253 0.676672 -0.920521 -0.445676 -0.294697 -0.246057 -0.104917 -0.007430 -0.135386 -0.510679 0.772146 0.495364 -0.289264 0.027269 -0.489870 -0.039358 0.317749 0.314413 0.559264 0.757981 0.180643 -0.080947 0.144870 -0.507554 0.028487 0.117065 0.456137 -0.297260 -0.315958
woo -0.113030 0.161211 -0.396024 0.135119 0.248504 -0.240986 0.058491 0.026571 0.019855 0.188891 0.345093 0.535427 0.568592 0.296827 -0.269389 -0.236792 0.887599 -0.099191 -0.036056 -0.737548 0.123933 -0.676942 -0.305055 0.463883 0.328989 0.460094 1.285730 -0.253848 0.898899 0.402318 -0.122522 -0.013622 -0.155246 0.468180 -0.620835 0.027114 0.655658 0.261281 -0.290140 0.132453 0.199169 -0.586947 0.442035 0.159477 0.587253 -0.415359 0.292468 0.094634 0.819505 0.299546
bitches -1.642282 0.396148 -0.254424 -0.774030 -0.352081 -0.598840 -0.321236 -0.158474 0.397373 0.512038 0.790174 0.018716 -0.354646 0.255126 -0.368007 -0.104635 -0.213602 -1.119348 0.166635 -0.129549 0.025720 -0.278471 0.070354 0.359846 0.151001 -0.829049 0.219118 0.602831 0.325423 0.546381 0.332824 -0.528506 -0.912398 0.032613 0.481434 0.997146 -0.205157 -0.585894 -0.545845 -0.235788 -0.412736 -0.606258 0.431978 -0.192120 0.157580 -0.248338 0.770693 -0.357176 0.857437 0.192205
ta -0.235086 -0.081317 -0.747055 -0.544438 0.013546 -0.040346 -0.694562 -0.058833 -0.471707 0.512082 -0.474901 -0.165878 0.502713 0.140207 -0.447665 0.182455 0.384556 -0.180927 -0.457750 0.702001 -0.361960 -0.645437 -0.355466 0.866203 0.559813 0.834678 0.619476 -0.377913 0.008554 0.336749 0.355949 -1.025440 -0.197091 1.381601 -0.645900 -0.208254 -0.521082 -0.029216 -0.459227 0.273846 -0.018232 -0.061343 0.426675 0.917024 1.266003 -0.154948 0.688794 -0.370752 0.808454 0.622809
tell -1.094879 0.090008 0.546844 -0.177183 -0.510743 -0.150101 0.101408 -0.264583 -0.096934 -0.064798 0.138920 0.356684 -0.495012 0.733177 0.107336 0.721898 -0.055123 -0.681617 -0.566970 0.014915 -0.340209 0.530119 -0.655515 1.045561 0.313386 0.163380 -0.536243 0.184945 -0.508326 -0.099394 0.209728 -0.345510 -0.476984 0.710285 0.062409 0.026553 0.207391 -0.326306 0.104228 0.361809 -0.647865 -0.110810 -0.014464 -0.100497 0.266469 0.015375 0.113696 -0.322598 0.067797 0.022269
tryna -0.050342 -0.428630 0.381902 0.482123 -0.311671 0.032159 0.201562 0.178566 -0.182818 -0.861318 -0.061694 0.505886 -0.961342 0.667967 -0.335164 0.168778 0.651013 -0.282609 -0.651849 -0.003412 0.032495 0.659042 -0.260680 -0.017142 -0.609064 0.664034 -0.035948 -0.208444 -0.520980 0.383907 -0.181994 0.793533 0.626502 0.621378 0.080279 -0.355700 -0.026897 -0.020828 -0.158755 0.248672 0.473246 -0.413740 -0.107170 0.224605 0.678993 -0.452288 0.242076 -0.026762 0.001741 0.138951
b 0.472553 -0.282563 0.062271 -0.840702 1.096513 0.689078 -0.421914 0.044131 0.271745 -0.946569 0.300775 -0.079182 0.349950 -0.716544 0.504318 -0.317178 -0.801454 0.966801 -0.674308 1.453778 -0.050376 -0.532999 -0.034127 -0.432622 -0.259201 -0.055741 -0.046195 0.682283 0.176535 0.562204 -0.101536 -0.239688 -1.017131 -1.112098 0.781370 0.083283 -0.270690 0.152406 0.026600 -0.890636 0.123226 1.021166 0.173464 0.061206 -0.289148 0.472739 0.593716 0.145734 -0.390305 0.001460
god 0.816116 -0.513909 -0.151536 -0.254193 0.600373 0.765757 -0.450545 0.251364 -0.255339 -0.168862 -0.689929 -0.944320 -0.899264 -0.179775 0.738448 -0.150834 -0.098482 0.153335 -0.219516 0.116579 -0.262656 0.285381 0.091562 0.138450 0.568270 0.398442 -0.610446 0.380351 -0.793823 -0.319626 -0.289296 0.500361 -0.244806 0.401055 -0.230552 -0.056409 0.346593 0.340609 0.300334 0.400334 -0.081534 0.647482 -0.252804 0.833613 0.365253 0.859102 0.524239 0.233640 -0.866490 0.291614
hit -1.028684 -0.154772 0.501182 0.274700 -0.537069 -0.272075 -0.328099 -0.257978 -0.507557 -0.259224 0.059457 0.123311 -0.202492 0.481466 0.687374 0.303652 0.202659 -0.226864 -0.459807 0.083964 -0.440916 0.516553 -0.644353 0.541998 -0.352092 0.248347 0.082700 0.397101 -0.487691 0.288635 0.302856 -0.232693 0.240620 0.767355 -0.200937 -0.404481 -0.946682 -0.221093 -0.151948 -0.144448 -0.261852 0.152348 0.202240 0.157726 0.171232 -0.398142 -0.157879 -0.423095 0.016778 0.552055
big -0.618557 0.499707 0.022548 0.006642 -0.213716 -0.246381 0.984980 0.945305 0.818167 0.664553 0.579692 0.288976 -0.461331 0.206497 -0.187257 -0.156254 0.450656 -0.677554 -0.059277 -0.151912 -0.060763 0.577192 0.019869 -0.740199 0.452083 0.016621 0.907168 -0.389525 -0.180023 -0.430217 0.353846 -0.594832 -0.216352 0.279491 0.493529 -0.259902 0.245816 0.545064 -0.425360 0.198700 -0.131579 0.645641 0.140834 -0.426685 0.041919 -0.258093 1.284861 0.305037 -0.047339 -0.172920
look -0.377840 0.552384 0.314681 0.378024 0.304360 0.403328 -0.067700 -0.035635 0.214629 -0.261655 -0.379493 0.307428 -0.043689 0.064962 0.188192 0.368289 0.592238 -0.483149 -0.607902 -0.576106 -0.052607 -0.156592 -0.450250 0.617936 -0.355111 0.197088 -0.202349 -0.268837 -0.320461 0.112540 -0.401355 0.125895 -0.512579 0.293074 0.380631 0.436841 0.215680 0.044992 -0.240569 -0.325382 -0.103285 -0.467927 -0.074233 0.388961 0.987184 -0.005588 -0.311314 -0.088729 0.225689 0.338657
low 0.914389 -0.171950 -0.253295 0.661227 0.579447 -0.159899 -0.088201 -0.303163 -0.641689 0.192706 -1.067905 0.210532 0.627426 0.169765 1.028702 0.693993 0.389252 0.041269 0.816169 -0.313201 1.005747 -0.908350 0.548070 -0.372718 0.434170 0.615241 -0.957832 -0.368898 -0.897226 -0.094099 -1.296449 0.513181 0.906549 -1.009405 -0.248920 0.477266 0.406508 -0.759131 -0.491251 -0.022520 -1.063075 -0.094833 -0.833207 -0.884071 0.569758 0.584996 -0.214352 -0.035420 -0.626568 -0.252161
la 0.734755 -0.782609 -0.077950 0.742360 -0.038483 0.419258 0.664301 0.168326 0.452960 -0.538589 -0.237979 0.173344 -0.656618 0.194597 -0.247217 0.158790 0.262525 0.411639 -0.462952 0.775699 0.028828 0.886191 0.408664 -0.661782 -1.161860 0.500543 0.060411 -0.471834 -0.655267 -0.287063 0.497978 0.342446 1.173195 -0.082698 -0.355590 -0.063508 -0.331320 0.190408 0.250214 0.294244 0.404811 0.499887 -0.227937 0.452767 -0.082916 0.430371 -0.498170 0.223140 -0.787141 -0.417735
wo -0.475552 -0.265371 -0.073715 0.507833 -0.709829 0.110600 0.692333 0.690967 0.830507 -0.531579 0.365538 0.479597 -0.417558 0.411686 -0.212173 0.885702 0.844603 -0.064619 -0.390097 -0.237205 -0.215991 1.119591 -0.484683 0.275248 -0.626597 0.090666 1.086877 0.191024 0.092628 -0.079053 1.040161 -0.021136 0.607160 0.800010 -0.253937 -0.342334 0.671325 0.488264 0.347370 -0.254247 0.147986 0.428434 -0.446041 -0.028573 -0.055332 0.076199 -0.871588 0.367624 0.021059 -0.710477
real -1.458918 -0.092493 0.029872 -0.611258 -0.309523 -0.579907 -0.291771 -0.306539 0.241684 0.238075 0.152860 -0.009249 -0.624731 0.365891 -0.119174 0.500960 0.097125 -0.511712 -0.436445 0.144474 -0.274780 0.017800 -0.116258 0.492324 0.271505 -0.213530 -0.334326 0.270598 0.117390 0.289839 0.483524 -0.578607 -0.705645 0.635490 0.256475 0.258848 -0.088498 -0.257041 -0.277293 0.167969 -0.451193 -0.072313 0.036134 -0.077791 0.500131 -0.066705 0.320418 -0.533465 0.072786 -0.023395
come -0.358582 0.061365 0.210913 0.572194 -0.451325 0.210009 0.377379 0.709900 0.529754 -0.454506 -0.023886 0.543480 -0.361697 0.239070 0.105345 0.935289 0.634961 -0.424466 -0.454054 -0.153428 -0.247170 0.938007 -0.502588 0.440498 -0.400538 0.360618 0.691684 0.015889 -0.319487 -0.197441 0.721040 0.002678 0.376203 0.618960 -0.162452 0.147005 0.221595 0.306856 0.183535 -0.307480 0.022361 0.032933 -0.486388 0.314403 0.433394 0.208162 -1.073347 0.245111 -0.030342 -0.457983
turn 0.410046 0.778573 0.938440 -0.068043 -0.493515 -0.365624 -0.083523 -0.502802 -0.355919 0.166228 0.044618 0.805988 0.151961 0.940315 0.618211 1.007687 -0.406809 0.676357 0.161478 0.153314 0.317383 -0.271203 -0.777163 0.579009 -0.152566 -0.011201 0.073008 -0.213329 -0.913290 -0.439668 -0.643782 0.093058 0.263010 0.650621 0.006585 0.446140 -0.011547 -0.652295 -0.341565 0.052063 -0.467029 -0.707038 -0.584359 -0.282322 0.110486 -0.156022 0.434943 -0.276105 0.222166 -0.407722
right -0.774856 0.552183 0.059340 -0.073962 0.196922 -0.249989 -0.331570 -0.434784 -0.092483 0.172130 -0.402511 0.315322 0.320923 0.015364 0.422660 0.098580 0.628414 -0.099318 -0.229148 -0.553442 0.144544 -0.542233 -0.228745 0.508027 0.254572 0.387335 -0.065013 -0.216868 0.081382 0.314346 -0.144273 -0.166914 -0.216249 -0.184957 0.043011 0.056795 0.081533 -0.032116 -0.220208 -0.397992 -0.415716 -0.203876 0.041957 -0.218688 0.642618 -0.008623 -0.219595 -0.340008 0.112696 0.472179
bad -0.574431 0.565115 0.046115 -0.151652 -0.165299 -0.154178 -0.412410 -0.502528 0.628416 0.565088 0.488723 0.135570 0.278272 -0.200521 0.183591 -0.235801 -0.223483 -0.877014 0.247954 -0.747788 0.422927 -0.757347 0.053860 0.704036 -0.441483 -0.926729 -0.007748 0.236962 0.354110 0.023310 -0.146028 0.072786 -0.469104 -0.759775 0.282978 1.516188 0.023972 -0.438292 -0.415919 -0.417129 -0.554610 -0.853881 -0.117838 -0.033865 0.554828 0.426739 0.283726 0.201634 0.707768 0.269994
good -0.789833 -0.233736 0.155606 -0.263213 -0.759793 -0.158458 0.081037 -0.204016 0.333059 -0.448275 -0.564080 -0.107679 -1.120165 0.356274 -0.340085 0.490761 0.028248 -0.569562 -0.371227 -0.167260 0.341068 0.473370 0.067261 0.013901 0.024773 0.724402 -0.698167 -0.301327 -0.104892 0.452389 0.020339 0.495510 -0.307088 0.198592 0.119995 -0.056120 0.421167 -0.270227 0.167268 0.151061 -0.107860 -0.569223 -0.166088 -0.357619 0.594192 -0.381882 -0.445166 -0.113013 -0.307179 -0.067246
drank 1.086388 0.035074 -0.567230 -0.189525 0.585635 0.332195 0.129930 -0.382079 -0.189209 -0.177901 -0.314126 -0.255772 0.750786 -0.633198 -0.502086 -1.150154 -0.388437 0.888503 0.280548 -0.149796 0.315268 -0.437478 0.289957 -0.186771 -0.307826 -0.561430 -0.170002 -0.329464 0.959938 0.066344 -0.397443 0.892284 0.664743 -0.620704 -0.099096 -0.380323 0.344183 0.037968 0.807587 0.706275 0.507471 0.456669 0.254307 0.312425 -0.971639 0.661430 -0.025297 0.229007 0.293206 0.080630
home 0.755571 -0.008904 -0.063757 0.277108 -0.600851 0.246320 -0.065755 -0.960515 0.761782 0.090024 -0.402558 -0.439812 -1.041733 0.164069 -0.200628 -0.427767 -1.035818 -0.171859 -0.320790 -0.224053 0.863361 0.140010 0.157640 -0.300465 -0.439824 1.078703 -0.635836 -0.521706 -0.234476 0.180865 -0.148107 0.890891 -0.211257 -0.582901 -0.141531 -0.187187 0.562917 -0.096423 0.518197 0.417012 -0.328239 -0.279098 -0.522379 -0.212078 0.359771 0.630050 -0.731335 0.083032 -1.185970 0.106826
day -0.293856 0.072058 -0.013156 0.067305 -0.165028 -0.322441 -0.501709 -0.071919 -0.648977 0.003276 -0.263730 0.118373 -0.201945 -0.166626 -0.086934 0.142372 0.261322 0.105116 -0.239592 0.218370 -0.131415 0.031592 0.191786 0.274951 -0.421783 0.586501 0.422201 -0.450820 -0.412252 0.374754 0.231085 -0.269112 0.187947 0.557438 -0.322991 -0.369427 -1.137587 -0.346423 -0.367197 -0.126286 0.094568 -0.169312 0.022265 0.735043 0.295278 -0.476914 -0.707030 -0.237527 0.253912 0.501887
monster 0.013991 -0.049561 0.079636 0.367812 0.592308 0.445146 -0.315742 0.438443 -0.327905 -0.049922 -0.090859 0.078521 -0.124488 0.269255 -0.515641 -0.091410 -0.383588 -0.513835 0.109938 0.536553 -0.002812 0.324373 -0.385205 0.200438 -0.124382 -0.528403 0.277406 0.302303 -0.561392 -0.039066 0.874358 0.361147 0.535844 -0.176444 0.435077 0.148001 -0.291218 0.009672 -0.050637 -0.669234 0.464516 -0.423182 -0.189828 0.177531 -0.386732 -0.491858 -1.146778 -0.123148 -0.135870 0.142634
everybody -0.756766 0.383319 0.194990 0.586829 -0.017454 0.300218 0.386337 0.210929 -0.312611 -0.117538 0.191520 0.833567 -0.297165 0.679684 -0.175021 0.203355 -0.384387 -1.069287 -0.078465 0.940555 -0.687616 0.073570 -0.657152 0.248667 -0.516177 -0.155064 0.602665 0.099360 -0.772901 0.201823 0.226054 -0.197968 0.321214 0.638945 0.492888 -0.035665 0.117730 0.055871 -0.132910 -0.119846 -0.504895 -0.128177 0.661117 0.227547 -0.151921 -0.040743 -0.502614 -0.822777 -0.246618 0.513179
sit 0.279319 0.620183 -0.708400 -0.062460 0.148716 -0.170626 0.469098 0.038577 0.279716 -0.073427 0.618397 0.206084 0.304821 0.336975 -0.948693 -0.415848 0.130340 0.505914 0.260126 -0.873904 0.667953 -0.547919 -0.036946 0.301216 -0.396961 -0.522842 1.578205 -0.683581 1.304161 0.455824 -0.521340 0.486777 -0.174875 -0.164622 -0.222014 0.272353 1.054474 0.239087 0.539014 0.345079 0.546971 -0.656218 0.399215 -0.109526 -0.237003 -0.586619 0.288084 0.359239 1.346999 0.008932
getting -0.171587 0.070465 -0.303388 0.720426 -0.020478 0.318645 0.744170 0.351883 -0.523909 -0.066611 0.197778 0.524614 0.066925 0.204118 -0.228972 -0.015660 -0.570006 -0.479364 0.527540 1.098901 -0.794008 -0.205930 0.093366 -0.637815 -0.840013 -0.748296 0.788836 0.082250 -0.297009 -0.196065 -0.117015 -0.053029 1.079007 0.526102 0.209595 -0.122907 -0.027045 0.081970 -0.068858 0.321548 0.014785 0.097242 0.892704 0.418501 -0.769827 0.195809 -0.078308 -0.594523 -0.013795 0.256451
play -0.143448 0.144840 -0.135679 0.195049 0.416819 0.607621 0.178071 -0.460435 -0.184515 -0.430398 -0.213802 0.681481 0.606161 0.545843 0.403395 0.280496 0.867089 0.040639 -0.779684 0.372978 -0.034140 0.023915 -0.167825 0.386136 0.077460 0.981371 -0.525689 -0.144332 -0.210403 0.241702 -0.951968 -0.437621 -0.405842 -0.128890 -0.258116 -0.310044 -0.401049 -0.068112 -0.862854 0.044717 -0.039749 0.200891 -0.009215 -0.073740 0.875338 0.104500 0.404567 -0.359665 -0.030548 -0.206095
dreams 0.024961 -0.219108 -0.101416 -0.449525 1.003311 0.830835 -0.129630 0.359174 0.476345 -0.707067 0.507183 0.083646 0.142401 -0.408102 0.270384 -0.213331 -0.784753 0.089983 -0.713503 1.388361 -0.132874 -0.121767 -0.411176 -0.206559 -0.032062 -0.090460 0.106331 0.833400 -0.235889 0.316273 0.182924 -0.432785 -0.959240 -1.027011 0.799429 0.061321 -0.083202 0.220291 -0.212214 -0.761716 0.124826 1.220427 0.104650 -0.165291 -0.261046 0.451035 0.717095 0.430658 -0.125863 0.017265
hey -0.090419 -0.032004 -0.277757 0.385868 0.139129 -0.733103 -0.011847 -0.229170 -0.009762 -0.198984 -0.280354 -0.065668 -0.005680 -0.229013 0.312821 0.064251 0.323272 0.260697 -0.512242 -0.720124 -0.017090 -0.678592 -0.247762 0.159675 -0.624330 0.585748 0.311366 -0.373153 0.401985 0.160295 -0.125948 0.335418 0.266882 -0.060478 0.159033 -0.340948 0.035498 -0.196675 -0.107417 -0.265203 -0.122410 -0.284926 -0.096055 0.126741 0.422256 -0.243495 -0.279469 -0.134999 -0.012794 0.538215
believe 0.667467 -0.398308 -0.067378 0.260617 0.170214 0.065388 0.330563 0.221754 -0.288775 -0.475190 -0.308002 -0.430174 -0.340376 -0.392736 -0.519633 0.135877 -0.162298 0.322927 0.318255 0.085955 0.396354 0.161839 0.543061 -0.715442 0.269182 0.155686 0.013697 -0.332919 -0.122685 -0.245904 -0.555156 0.362314 0.258389 -0.213058 -0.111367 -0.600766 0.099653 0.760654 0.425023 0.356928 0.370717 0.452805 -0.210157 0.199040 -0.207019 0.137901 0.002493 0.190424 -0.632325 -0.241821
chase -0.099127 0.406971 -0.694488 -0.174432 -0.198122 -0.559721 0.427211 0.179342 -0.036588 0.722733 0.931165 0.210694 -0.082008 0.098678 -0.816046 -0.401652 -0.296317 -0.242560 0.800263 -0.419408 0.222277 -0.615470 0.611920 -0.559907 0.115838 -0.803121 0.975116 -0.278270 0.547778 -0.180025 -0.094652 -0.386742 -0.240625 -0.054751 0.277216 0.464126 0.068401 -0.163653 -0.266245 0.431272 0.125983 -0.612390 0.250107 -0.299636 -0.397336 -0.574723 0.889265 0.136901 0.898467 -0.077528
dog -1.035895 -0.629145 0.043804 -0.561399 -0.513404 0.194798 -0.192008 -0.375015 -0.005345 0.239616 0.560975 -0.250295 -0.113902 -0.245763 -0.473278 -0.212811 -0.706868 -0.351120 0.691733 0.454624 -0.294529 0.205191 0.268515 -0.301670 0.099646 -1.173095 -0.348861 0.983606 -0.019038 0.410173 0.558182 -0.670441 -0.482344 0.330589 -0.317381 0.367536 -0.502829 -0.316555 -0.540103 0.116054 0.039230 0.022839 0.567164 -0.199024 -0.841594 -0.517341 0.434796 -0.252934 0.365763 0.003851
head 0.431790 0.379042 -0.087145 -0.123374 0.175143 0.127028 -0.005797 -0.170731 -0.079003 0.062316 -0.418926 -0.034194 0.460449 0.127875 -0.245602 -0.295359 -0.073209 -0.040788 0.030391 -0.361381 0.374682 -0.136904 -0.178134 0.297250 0.036993 -0.082308 -0.254929 -0.487591 0.293161 0.014358 -0.219204 0.236764 0.125468 -0.129383 0.087308 -0.120280 0.501929 -0.081051 0.335912 0.301780 0.111853 0.053774 -0.261061 -0.082245 -0.081441 0.415418 -0.268679 0.188268 0.135874 -0.046571
pop 0.072955 -0.531715 0.675496 0.588419 -0.016434 0.301033 0.031894 0.185360 -0.282797 -0.261123 -0.095410 -0.439505 0.845490 0.515355 1.103617 0.184934 0.080811 -0.343581 0.218501 -0.358796 -0.309340 0.441623 0.070800 0.496223 0.088783 -0.524285 -0.457482 1.305211 0.111259 -0.637615 -1.216505 0.335737 0.088201 -0.193891 -0.313113 -0.259032 0.448020 -0.401526 0.362975 0.310709 -0.472102 0.334887 0.420161 -0.683154 -0.633830 -0.329222 0.218749 0.253290 0.152379 0.293755
gang -0.217574 0.263677 -0.629109 0.043120 0.017303 0.010286 0.070355 0.262413 -0.565103 0.316311 0.282383 -0.112732 0.078154 -0.088606 -0.388693 0.074214 -0.169896 -0.418419 0.169118 -0.277669 0.011139 -0.386935 0.552290 -0.488785 0.538719 0.079571 0.245505 -0.407034 0.286859 -0.017792 -0.314883 -0.589156 -0.457216 0.125629 0.115130 -0.079261 -0.179050 0.126151 -0.097791 0.396986 0.115493 -0.332356 0.210131 0.043183 0.099396 -0.458556 0.448967 0.285694 0.592781 0.305815
inside -0.082649 0.330414 -0.714035 -0.533846 0.202284 -0.143107 -0.256584 -0.174659 -0.386734 0.244859 -0.383467 -0.356134 0.537904 0.223955 -0.323334 -0.110050 0.183383 -0.123122 -0.156289 -0.180695 0.331292 -0.406967 0.114632 0.354979 0.475533 0.193410 -0.310809 -0.670593 0.341181 0.303280 -0.191572 -0.226035 -0.266418 0.247415 -0.008378 -0.095597 0.211811 -0.421560 0.178844 0.308981 0.176986 0.006671 0.006805 0.238785 0.350573 0.300217 -0.164078 -0.146095 0.324501 -0.016996
na 0.045766 1.234865 1.077783 -0.201038 -0.784773 -0.110785 0.107828 -0.672412 -0.390834 0.441860 0.407074 1.122104 0.279093 1.083640 0.335091 0.777378 -0.641756 0.480661 -0.094959 0.180139 -0.091151 -0.246630 -1.023264 1.026522 -0.188650 -0.520131 -0.157550 -0.337713 -0.722146 -0.483598 -0.972345 -0.211797 -0.090810 1.219305 0.015176 0.535198 -0.178813 -0.707630 -0.485321 0.582174 -0.467561 -0.692746 -0.474841 -0.188675 -0.216604 -0.649927 0.771362 -0.720911 0.330286 -0.432084
save 1.173843 0.613809 0.734110 0.123635 -0.051202 0.440886 0.575045 -0.228360 -0.115345 0.458634 0.229049 0.693424 0.781645 0.443894 -0.111687 -0.450290 -0.434913 -0.113125 0.301933 -0.411689 -0.482164 0.000097 -0.512487 0.647033 0.436806 -0.012021 -0.951364 -0.308054 -0.132575 -0.786985 -0.407750 -0.465398 -0.079593 -0.216208 -0.175455 0.304545 0.301093 -0.304362 -0.069524 0.931644 -0.719282 0.077496 -0.413124 -0.634772 -0.174482 -0.117801 0.076920 -0.051595 -0.442423 -0.479156
bish 0.074670 -0.366509 0.564150 -0.328131 0.091995 -0.100941 0.012390 0.775639 -0.348226 -0.238867 -0.498435 -0.494239 -0.615962 -0.698482 0.264701 0.490782 -0.977170 -0.237643 0.181842 0.389527 -0.167107 0.694882 -0.014435 -0.355037 0.823817 0.437561 -0.748760 -0.032128 -0.387217 -0.417764 0.563640 0.218608 -0.057035 -0.404596 -0.086854 -0.062435 -0.152828 0.137873 0.558178 0.094457 0.179100 0.249838 -0.264808 0.218409 -0.229111 0.457597 -0.842558 0.753410 -0.347650 -0.111037
hold 0.342827 0.049101 -0.225394 0.096551 -0.391034 0.321809 -0.187403 -0.771395 0.712521 0.273421 -0.047704 -0.343296 -1.018422 0.054558 -0.561230 -0.406728 -1.133108 -0.645066 -0.185524 0.124542 0.684463 0.238633 0.118369 -0.083458 -0.219085 0.776559 -0.658972 -0.326288 -0.511270 0.259391 0.406496 0.444415 -0.324029 -0.527167 -0.074554 0.126077 0.201491 -0.332680 0.238405 0.259833 -0.385114 -0.267944 -0.385484 -0.142966 0.186841 0.568805 -0.658937 -0.016345 -0.925455 -0.131270
swear -0.489494 -0.155975 -0.311242 -0.013872 -0.427676 -0.074272 0.338403 0.253643 0.521049 -0.049159 0.199284 0.004587 -0.041992 0.291651 -0.159275 0.286998 0.645886 -0.029762 -0.052023 -0.211113 0.094555 0.315283 -0.224944 0.070002 -0.204129 -0.129407 0.538489 0.130182 0.256485 0.145792 0.350421 -0.259572 0.181166 0.549980 -0.193085 -0.190489 0.448615 0.144493 -0.103380 -0.024721 0.020328 0.469339 -0.114442 -0.246160 -0.065932 0.060486 0.073804 0.180173 0.277877 -0.383455
things 0.345599 0.377115 -0.037482 0.273738 -0.417418 -0.070023 -0.156469 -1.169555 0.642714 0.677216 0.207643 0.081996 0.029956 -0.248079 0.079973 -0.450776 -0.810428 -0.359341 0.295657 -0.412070 0.840051 -0.797828 0.396653 0.036216 -0.802641 -0.328561 -0.340062 -0.323975 0.064165 -0.176446 -0.321698 0.456710 0.143788 -1.080187 0.045363 0.956031 0.030140 -0.452521 -0.198955 0.073219 -0.726035 -0.688810 -0.438548 -0.179265 0.388048 0.799018 -0.071071 0.153395 -0.307892 0.212549
watch -0.055958 -0.448856 0.379426 -0.282603 -0.167851 -0.618179 -0.199121 -0.142247 0.012483 0.187590 -0.079767 -0.168986 0.131601 -0.238501 0.887385 -0.251657 0.085933 0.194258 0.189297 -0.257366 -0.036294 0.087939 0.012797 0.011954 -0.152453 0.075542 -0.312801 0.221406 0.208274 -0.290256 0.455490 -0.144533 0.445342 -0.399366 -0.218743 -0.287958 -0.218047 0.273220 0.252417 -0.296315 0.196218 0.166350 -0.207962 -0.184405 -0.223840 0.530415 0.184499 0.375295 -0.211412 -0.464788
wishin 0.169086 0.212731 -0.101598 -0.188958 0.029517 -0.519529 -0.238998 -0.502696 0.301337 0.590798 0.424064 0.065819 0.586464 -0.664961 0.150666 -0.575691 -0.310667 0.171647 0.561409 -0.232000 0.365084 -0.893031 0.502706 -0.109543 -0.396642 -0.930272 0.123779 0.028577 0.629400 -0.228067 0.043183 0.140056 0.289895 -1.067123 0.114438 0.865491 -0.317495 -0.171316 -0.145313 -0.311676 -0.201649 -0.413549 -0.168931 -0.097020 -0.122406 0.421120 0.207804 0.263609 0.209991 0.030684
ye 0.075878 0.315800 -0.375071 -0.057413 -0.049383 -0.214656 0.767801 0.549262 0.252394 0.685987 0.701666 0.070166 -0.039763 -0.146734 -0.457412 -0.439288 -0.169453 -0.177924 0.445322 -0.047973 0.025876 -0.077040 0.583406 -0.860605 0.263661 -0.367146 0.762693 -0.316917 0.146873 -0.485725 -0.042758 -0.433192 -0.098448 -0.063436 0.220119 -0.053258 0.008010 0.219673 -0.293260 0.424167 0.210376 0.229041 0.255108 -0.296291 -0.411063 -0.313438 1.068557 0.437655 0.318513 -0.223614
yo -0.426240 -0.185465 -0.080736 -0.147650 -0.421138 -0.305664 -0.113337 0.081033 -0.005948 -0.218676 0.154313 -0.333934 0.431402 0.087713 0.174454 -0.236818 0.114087 0.049504 0.123147 -0.347840 -0.137268 0.199609 0.123182 0.218925 0.449074 -0.100687 -0.128882 0.544929 0.546060 0.072493 -0.246485 0.255593 -0.240149 -0.299365 -0.068698 -0.146353 -0.161117 0.047761 0.462242 0.110918 0.397363 0.020215 0.485678 -0.166943 -0.338970 -0.018424 0.156040 0.145764 0.508940 0.063044
young -0.880502 0.189233 0.320389 0.185490 0.250740 -0.114723 0.150183 -0.458777 0.061588 -0.132951 -0.114231 0.421724 -0.268175 -0.029895 0.035210 0.142445 0.901693 -0.179947 -0.535475 -0.533858 -0.213671 0.033344 -0.026277 0.616218 0.309809 0.309331 -0.513742 -0.064848 0.007856 0.321370 -0.123454 -0.027862 -0.692830 0.489321 0.145832 -0.365621 0.445075 0.234897 -0.106841 -0.107987 -0.520519 -0.165176 0.198684 -0.111427 0.326134 -0.136367 -0.430477 -0.434713 -0.164760 0.170958
better 0.142812 -0.542123 -0.062432 0.105976 -0.461631 -0.171634 0.069684 0.404037 -0.273808 -0.556747 0.026214 -0.625242 0.694473 0.081606 0.406487 -0.262326 -0.003706 0.333785 0.314710 -0.222614 -0.317043 0.377425 0.408276 -0.007596 0.329623 -0.174993 -0.275284 0.704695 0.622782 -0.226297 -0.691599 0.610984 0.207001 -0.309713 -0.216284 -0.437605 -0.251120 0.082373 0.837843 0.464465 0.787745 0.221185 0.722242 -0.049340 -0.711000 0.145539 0.267939 0.547265 0.613150 -0.022915
gettin -0.617147 0.267391 -0.015354 0.410247 -0.213924 -0.117846 0.215840 0.265277 0.139693 0.165616 -0.021106 0.448733 -0.283990 0.137981 0.214948 0.517777 0.065061 -0.579455 -0.022947 0.514141 -0.481814 0.118769 -0.368391 -0.098564 -0.321522 -0.105772 0.789204 0.026987 -0.163275 -0.129561 0.820513 -0.229683 0.416659 0.335658 0.213523 0.251138 0.233915 0.223894 0.046666 -0.306399 -0.385660 -0.198380 -0.041111 0.407359 0.130887 0.355195 -0.686266 -0.495907 -0.251103 0.232687
hard -0.148911 0.278031 -0.003533 0.532529 -0.031168 0.237324 0.188079 -0.830332 0.447600 0.068073 -0.332143 0.255937 -0.314928 0.090361 0.065753 -0.038052 0.000083 -0.337010 -0.344280 -0.469671 0.497898 -0.144835 0.105793 0.057904 -0.104829 0.774806 -0.419825 -0.427042 -0.323868 0.073131 -0.535843 0.217666 -0.456746 -0.320872 0.015566 -0.206940 0.458434 -0.007409 -0.149094 0.188199 -0.739506 -0.133691 -0.097819 -0.218437 0.548778 0.409124 -0.353934 -0.169433 -0.511925 0.393252
huh -0.725679 0.483095 0.139567 -0.357268 0.491876 -0.386968 -0.237041 -0.544334 -0.177965 0.025692 -0.512239 0.024663 -0.020191 -0.548278 0.191835 0.032203 0.622906 0.470308 -0.372326 -0.414380 0.102518 -0.519174 0.229767 0.123029 0.338016 0.491733 -0.323859 -0.428510 0.143618 0.474399 -0.164112 -0.110006 -0.653364 0.142304 0.088077 -0.257802 -0.157034 0.046327 -0.050534 -0.112251 -0.360009 -0.226222 0.386339 0.289174 0.459858 -0.086965 -0.494677 -0.509694 -0.091900 0.299454
left -0.119268 0.011290 0.243433 0.010989 -0.206691 -0.076916 0.034714 0.231251 0.103854 -0.030657 -0.469789 0.442307 -0.538757 -0.034135 0.165526 0.459617 0.456829 -0.164983 -0.264874 0.150215 -0.308699 0.501286 -0.152426 0.171964 0.266228 0.569691 0.108683 -0.276151 -0.263799 -0.038817 0.704898 0.033523 0.023901 0.509204 -0.020674 -0.063609 0.231240 0.281465 0.095132 -0.130003 -0.185162 -0.269044 -0.259498 0.510239 0.472922 0.182780 -0.601561 -0.220954 -0.439619 -0.067565
mask -0.338363 0.238305 -0.095732 0.199689 -0.138983 -0.147926 0.579117 0.319387 0.432341 0.517582 0.576241 0.330491 -0.019977 0.248501 -0.130869 -0.322178 0.142532 -0.185810 0.309204 0.003683 -0.042640 0.091748 0.009258 -0.402705 -0.144472 -0.534171 0.610736 0.215088 -0.035135 -0.361546 -0.060910 -0.327603 0.111505 0.103811 0.351594 -0.067382 0.034345 0.116660 -0.456012 0.084698 0.039734 0.500318 0.154882 -0.534998 -0.567678 -0.253617 1.006866 0.070951 0.277226 -0.243132
rap 0.506028 0.055745 -0.140844 0.028620 0.305401 0.682292 -0.496697 0.093944 -0.224455 0.103133 -0.535738 -0.559514 0.084254 0.072085 0.616747 -0.084162 0.181016 -0.095411 -0.198125 -0.218384 -0.207880 -0.229495 -0.091078 0.568575 0.260985 0.066956 -0.464533 0.256302 -0.472189 -0.287225 -0.517163 0.231357 -0.167570 0.520055 -0.090002 0.331118 0.236683 0.100470 0.066364 0.146613 -0.005637 0.124861 -0.204383 0.654420 0.589149 0.531634 0.501817 0.234155 -0.105343 0.317600
mind 0.049577 -0.122969 -0.295488 0.079437 0.022306 -0.111066 -0.393222 -0.112302 -0.282095 0.437554 -0.361871 0.193400 -0.044980 -0.492569 -0.073650 0.007993 0.033175 0.181926 0.187836 0.134601 -0.224149 -0.614207 0.471325 0.235326 -0.295930 0.149819 0.378508 -0.397975 -0.338023 -0.213142 0.237978 -0.081913 0.364457 0.241246 -0.443842 0.161780 -0.570745 -0.272938 -0.494618 -0.048104 0.228288 -0.053767 -0.233574 0.571207 0.311841 -0.113094 -0.469328 0.056723 0.420780 0.174805
playin 0.219564 -0.016527 0.046070 0.083837 0.847046 1.033071 -0.101255 -0.024756 0.251259 -0.759152 0.313648 0.527603 0.408249 0.014063 0.513833 0.040069 -0.187746 0.180016 -0.892775 1.184682 -0.162336 -0.066898 -0.383041 0.034402 -0.462021 0.270624 -0.070244 0.553826 -0.387503 0.202785 -0.324962 -0.426248 -0.673407 -0.808220 0.466875 0.075640 -0.369869 0.073828 -0.603482 -0.745216 0.063757 0.753012 -0.167175 -0.043764 0.284352 0.322903 0.632934 0.093649 -0.136339 -0.026919
pussy -0.760226 -0.097871 -0.091645 0.224212 -0.071863 0.135179 0.277200 -0.405043 0.048666 -0.297290 -0.099246 -0.082563 0.250114 0.116864 -0.142497 0.268995 0.901501 -0.361771 0.008481 -0.227472 -0.130502 -0.109447 0.213647 0.010819 -0.156961 -0.245741 -0.633869 0.075106 0.028491 0.049778 -0.580712 -0.408381 -0.050538 0.501663 0.211901 -0.316323 0.212991 -0.105833 -0.633588 0.328115 -0.129904 -0.071153 0.362531 -0.353459 -0.160601 0.103079 0.470728 -0.143136 0.354691 -0.003012
shot -0.095692 -0.343815 0.190554 -0.392806 -0.019799 -0.618482 -0.479896 -0.044852 -0.205720 0.066596 -0.264908 -0.365357 0.796801 -0.470207 0.899315 -0.491118 0.018632 0.124843 0.394357 -0.705853 0.102343 -0.261683 0.203979 0.284046 0.322820 -0.259302 -0.293782 0.521354 0.834437 -0.148063 0.166959 0.351464 0.486737 -0.859049 -0.101584 -0.140412 -0.116239 0.029683 0.972237 -0.313554 0.217117 0.111623 -0.079335 -0.284542 -0.415229 0.613086 -0.138181 0.426050 0.238264 -0.178411
boy 0.283700 0.074889 -0.286451 0.570721 0.149196 0.357873 0.178363 -0.235133 0.297991 -0.385027 0.207784 0.114593 0.683937 -0.163788 -0.373470 -0.385716 0.226990 0.139193 -0.421903 -0.547029 -0.038169 -0.263843 -0.100085 0.900721 -0.618491 -0.035886 -0.148982 -0.263088 0.457055 -0.616749 -0.646936 -0.128413 -0.365912 0.441547 -0.048165 -0.276571 -0.536432 -0.310434 -0.427309 0.197634 0.469753 -0.113052 -0.540056 0.738228 -0.119952 -0.316812 -0.602734 -0.280185 0.608512 0.267108
damn -0.396877 0.149521 0.045532 0.323074 -0.004210 0.051850 0.043532 -0.168686 -0.246128 -0.187782 -0.174643 0.172944 -0.044450 0.334465 0.105520 0.231439 0.460989 0.078017 -0.353341 -0.118455 -0.017437 0.142094 -0.131482 0.013883 -0.025685 0.484594 -0.072411 -0.243588 -0.189918 0.236307 -0.437238 -0.051701 -0.188956 0.106867 0.055137 -0.367689 -0.134198 0.116436 -0.310619 -0.093957 -0.196386 0.020729 0.084920 -0.157383 0.476522 -0.238021 0.313066 -0.191074 0.063069 0.406673
going 0.938004 -0.120971 -0.177710 0.452221 -0.288368 0.466978 0.150908 -0.767356 0.632617 -0.019335 -0.242326 -0.309880 -0.870737 0.038541 -0.401311 -0.359849 -1.015818 -0.070893 -0.157826 0.043814 0.786727 0.055594 0.318520 -0.501024 -0.595831 0.743424 -0.658130 -0.497125 -0.394850 0.018740 -0.249308 0.739424 -0.004128 -0.683608 -0.062846 -0.189123 0.507463 -0.156520 0.233355 0.407456 -0.219102 -0.068706 -0.506233 -0.233366 0.151607 0.685963 -0.496254 0.215778 -1.023535 -0.142814
hoes -0.390598 -0.023670 0.033312 0.045352 -0.143714 -0.202469 -0.040247 -0.072367 0.091144 -0.175091 -0.055526 0.165401 -0.547457 0.261948 0.094081 -0.041829 0.059557 -0.113803 -0.359724 0.151246 -0.135875 0.267881 -0.305480 0.218284 -0.100010 0.507243 0.249331 0.127428 -0.210379 0.347177 0.415300 0.013976 -0.131177 0.289886 0.040810 -0.288244 -0.164236 0.055495 -0.029032 -0.113189 -0.148220 0.124151 0.133893 0.125851 0.204443 -0.105773 -0.284709 -0.131087 -0.178945 0.209367
crazy 0.637157 -0.127991 0.494863 0.145474 -0.480182 -0.648453 -0.055811 0.284294 0.280984 0.247093 -0.018735 0.307621 -0.378449 -0.004571 -0.034675 0.253767 0.533169 0.056878 0.413309 -0.232350 0.434426 0.505927 -0.364590 -0.622831 -0.370053 0.136572 0.634409 -0.453114 -0.094793 0.078216 0.805143 0.003899 0.797852 -0.209257 0.046897 0.038783 0.602148 0.429150 0.299982 -0.673262 -0.321670 -0.222538 -0.888252 -0.384586 0.080677 0.130520 -0.663258 -0.041742 -0.797219 -0.327711
hands -0.220594 -0.143953 0.176400 -0.195633 0.723525 0.500957 -0.280912 0.148086 0.044708 -0.203763 0.349473 0.025999 -0.318363 -0.083299 -0.261649 -0.257266 -0.937236 -0.289756 -0.328065 1.090617 -0.150763 0.113291 -0.597897 0.115298 0.255895 -0.118516 -0.099367 0.646511 -0.663805 0.327202 0.824805 -0.130958 -0.503449 -0.510950 0.550850 -0.052866 -0.447810 0.093943 -0.089836 -0.691056 0.219575 0.335654 0.067525 0.041788 -0.266333 -0.290358 -0.430398 -0.031171 -0.242916 0.115368
light -0.109202 0.450942 0.464175 0.687855 0.245818 0.619336 -0.167283 0.101312 0.261442 -0.104886 -0.352569 0.217658 0.482390 0.279845 0.788337 0.328039 0.515220 -0.773634 -0.438782 -0.501171 -0.309649 0.026960 -0.869278 0.695824 -0.436686 0.068331 -0.246383 0.264882 -0.471238 -0.210920 -0.128569 -0.145160 -0.164225 -0.050950 0.304156 0.361601 0.109632 -0.092286 -0.280655 -0.592971 -0.425001 0.113485 -0.254264 -0.027064 0.725451 0.256204 -0.071148 0.135638 -0.016307 0.412144
mean 0.180446 -0.242145 0.627205 -0.135193 -0.059896 -0.167748 -0.110895 0.375181 0.124727 -0.029348 -0.200660 0.604966 -0.421011 -0.083986 0.082887 0.186804 0.638073 -0.350192 0.101525 0.177249 -0.373370 0.778746 -0.265261 0.292473 0.451981 0.424513 -0.020025 0.186521 -0.448365 0.018196 0.588309 0.032528 -0.097554 0.300013 0.202873 -0.081451 -0.141278 0.079545 -0.231278 -0.125726 -0.213677 -0.344256 -0.068319 0.105148 0.147560 -0.114851 -0.014000 -0.070020 -0.243555 -0.045023
pull -0.864915 -0.201679 0.080920 -0.085632 -0.298098 0.039432 -0.364303 -0.321361 -0.218101 0.260106 0.060205 0.142687 0.046089 -0.044694 0.001458 0.013414 0.047959 -0.465938 0.027842 0.105237 -0.294377 0.121700 -0.127421 0.348740 0.188550 0.022338 -0.033075 0.349186 -0.279253 0.256667 0.464109 -0.687965 -0.272867 0.472774 -0.371302 0.019162 -0.567164 -0.124753 -0.506012 0.008963 -0.297236 -0.038850 0.239710 0.132680 0.196999 -0.265519 0.158859 -0.348598 0.275064 0.379585
shoot -0.554374 -0.097627 0.255767 0.194333 -0.311980 0.160844 0.135190 0.159352 0.449508 -0.435625 0.382608 0.237232 -0.012528 0.301772 0.297419 0.240077 0.685297 -0.294873 -0.133119 -0.466496 -0.180061 0.278633 -0.448289 0.578234 -0.465071 -0.220088 0.186824 0.578689 0.129139 0.136051 0.130950 0.032466 -0.002663 0.431734 0.013941 -0.025396 0.580258 0.102542 -0.069680 -0.403118 -0.172117 0.261012 0.013732 -0.364973 -0.057333 0.009814 -0.024862 0.310837 0.381364 -0.220737
bang 0.589860 -0.711095 0.853909 0.505979 -0.416257 -0.245198 -0.044578 0.257291 -0.103140 0.331032 0.102994 -0.459612 0.035668 0.207451 0.932480 0.748044 -0.460378 -0.118183 0.698993 -0.019313 -0.580309 0.412865 0.134329 -0.175271 0.152972 -0.325059 -0.070228 1.031259 0.281957 -0.879619 0.143071 0.106265 0.304222 0.183862 -0.295046 -0.249593 0.330814 -0.083758 0.504639 0.227176 -0.246207 0.180953 -0.514264 -0.394334 -0.510707 -0.277811 -0.340987 0.257976 -0.450456 -0.040429
city -0.563627 0.196237 0.135126 -0.156962 -0.177712 -0.007469 -0.157865 -0.208414 0.114956 0.013583 -0.029795 0.310214 -0.139799 0.203113 0.003853 0.023789 0.359424 -0.211378 -0.297652 -0.101268 -0.250278 0.143352 -0.276732 0.689205 0.052687 0.249415 -0.022485 0.139677 -0.047188 0.287047 0.211621 -0.216546 -0.412915 0.718798 -0.104510 -0.079736 0.071840 -0.007194 -0.186615 -0.126701 -0.182451 -0.174261 0.229250 0.209665 0.224254 -0.129996 -0.108607 -0.222985 0.113109 0.050383
deep -0.036002 -0.204954 -0.226000 0.383319 0.297329 0.457389 0.219053 -0.001831 -0.108168 -0.311413 -0.256179 -0.168089 0.517813 0.036915 0.127729 0.140208 0.653337 -0.137956 -0.106888 0.081928 0.159804 -0.014756 0.218283 -0.200384 -0.233595 -0.082360 -0.416255 0.087714 -0.188011 -0.228591 -0.727759 -0.098567 0.387381 -0.138681 0.006256 -0.211637 0.025111 -0.146642 -0.302706 0.025649 0.055083 0.129888 0.077143 -0.140728 0.038419 0.248898 0.256638 0.218314 0.163542 -0.109361
molly -0.083206 0.441428 -0.006813 0.079463 0.197870 0.009942 0.590132 0.602044 0.288142 0.475042 0.425568 0.198929 0.037980 -0.230996 -0.095438 -0.315266 -0.035791 -0.409715 0.221442 -0.142037 -0.094994 0.066904 -0.002185 -0.541254 0.346174 -0.156271 0.761600 -0.309565 0.114435 -0.312326 0.050311 -0.243444 -0.110377 -0.033800 0.206754 -0.083988 0.354317 0.443232 -0.194076 0.170078 0.037923 0.257877 0.255446 -0.132046 -0.243801 -0.138445 0.674717 0.358492 0.138353 0.079343
nah 0.072234 0.568816 0.133501 -0.080660 -0.533379 0.034046 -0.097929 -0.037832 0.265411 0.652790 0.043112 0.449577 0.163936 0.463695 -0.237392 0.146982 -0.257061 0.528714 0.407175 0.167585 -0.274354 -0.338452 -0.154173 0.310104 -0.155542 -0.794641 0.141488 0.148860 -0.024427 -0.768156 -0.508592 -0.379144 -0.035065 0.811581 0.120926 0.553894 -0.157000 -0.267164 -0.627426 0.018012 0.615644 0.048279 -0.445372 -0.082068 -0.040941 -0.504478 0.800964 -0.124771 0.718676 -0.860238
okay 0.225170 -0.588321 -0.182244 0.043153 -0.158584 -0.355580 0.164103 0.027856 -0.672311 -0.579498 -0.120241 -0.389279 -0.663090 0.377218 0.023169 0.140473 -0.253717 0.384889 -0.206577 0.117854 0.063126 0.056846 0.219556 -0.619157 -0.344790 0.062638 -0.605998 -0.457456 -0.314053 0.264311 -0.274264 0.812004 0.972972 0.042905 0.151251 -0.471683 0.033742 -0.415928 0.222199 0.405965 0.544931 -0.101068 -0.001932 -0.086444 0.038510 -0.521699 0.496001 0.038829 0.099350 0.186937
percocets 0.465505 -0.034773 -0.045496 -0.103372 0.208759 0.077547 0.681567 0.538264 0.204679 0.291052 0.257910 -0.232433 -0.143065 -0.512514 -0.259271 -0.405242 -0.433219 0.122271 0.326590 0.149838 0.038277 0.200030 0.510326 -1.038099 0.293579 -0.309201 0.175020 -0.321543 0.045803 -0.463105 0.057630 0.042733 0.153759 -0.318913 0.163213 -0.300202 0.163819 0.394851 0.075171 0.374813 0.292430 0.478290 0.158148 -0.107604 -0.547285 0.071502 0.596908 0.545469 -0.225478 -0.221908
wifey 0.707865 0.001506 0.235796 0.235442 0.141253 0.309734 -0.169865 0.123694 0.253420 0.036146 0.147297 -0.353423 0.194116 -0.152328 0.084544 0.050054 0.094340 -0.044002 0.172554 -0.420652 0.408292 0.177948 -0.302308 -0.112149 -0.307112 -0.391241 0.041003 0.217873 -0.092690 -0.182438 -0.070538 0.221552 -0.101368 -0.391834 0.075922 0.350123 0.428638 0.114374 -0.087654 -0.352953 0.295174 0.019686 -0.559372 -0.174108 -0.058169 0.080749 0.087672 0.599970 0.219247 -0.174685
yoo 0.341677 0.063219 0.385967 -0.735721 -0.403638 -1.165134 -0.709802 0.045200 -0.267357 0.317770 0.072328 -0.349714 -0.146314 -0.339153 0.280743 -0.017783 -0.075900 0.920641 0.695215 0.198154 0.331004 -0.080589 0.088029 -0.980824 -0.101322 0.078544 0.343067 -0.251794 0.450561 0.558460 0.416196 -0.146380 0.519406 -0.525597 0.135274 -0.017738 -0.305917 0.185807 0.520418 -0.896338 -0.053011 -0.424698 -0.168278 -0.397102 -0.262144 -0.259329 -0.109666 -0.263997 -0.665032 -0.173829
drop -0.094161 -0.275356 0.434385 0.385777 -0.200690 0.162371 0.026596 -0.014006 -0.106744 0.076229 0.046824 -0.183783 0.616775 0.137128 0.617582 -0.008213 -0.047744 -0.259968 0.217380 -0.388491 -0.243566 0.266541 0.113785 0.367779 0.058491 -0.541245 -0.166063 0.861955 0.131434 -0.536324 -0.626987 0.122378 0.029500 -0.196740 -0.305845 -0.017347 0.175588 -0.254570 0.194265 0.185398 -0.342052 0.157282 0.246849 -0.447225 -0.479527 -0.241365 0.016150 0.041113 0.097465 0.146231
fall 0.171580 0.142096 0.174511 -0.843296 0.193934 -1.005215 -0.665151 0.002656 -0.416943 0.046836 -0.326678 -0.334810 -0.029760 -0.714163 0.423768 0.134890 -0.218238 1.115296 0.182734 0.366722 0.160411 -0.529916 0.221625 -0.751994 0.223318 0.474172 0.259526 -0.508424 0.390816 0.509408 0.393043 0.093179 0.168482 -0.511096 0.263723 -0.040798 -0.610255 0.076556 0.512295 -0.530444 -0.059800 -0.213186 -0.048150 0.211558 0.064772 -0.032980 -0.202196 -0.525883 -0.578485 0.029494
lookin 0.174104 0.029309 -0.044748 0.642051 0.195790 0.425882 0.178696 -0.187953 0.301591 -0.605898 0.095638 0.111715 0.473482 -0.219045 -0.265184 -0.299279 0.239120 0.012234 -0.401139 -0.584680 -0.019545 -0.134625 -0.147173 0.821481 -0.622794 -0.005223 -0.351231 -0.178825 0.328136 -0.403298 -0.699958 0.051296 -0.440459 0.337152 0.043928 -0.257869 -0.399618 -0.239486 -0.346731 0.112298 0.415648 -0.181296 -0.415434 0.671444 -0.144485 -0.347305 -0.692534 -0.184074 0.538627 0.308541
new 0.033295 0.220135 -0.015966 0.275261 0.224619 0.249380 -0.064222 0.120693 -0.029018 -0.171478 -0.098502 -0.015203 0.127177 0.232839 0.089224 0.183304 0.204019 -0.257115 -0.235133 0.029466 0.181986 0.032854 -0.331132 0.107756 -0.355521 0.084810 0.117563 -0.068095 -0.125223 0.170821 -0.262593 0.030980 0.038397 -0.016213 0.120526 0.202747 0.066325 -0.275144 -0.058298 -0.187120 -0.189223 -0.299784 0.039532 0.086437 0.256386 -0.059966 -0.094980 0.107452 0.113141 0.199874
ride 0.650691 -0.262241 0.511326 0.474289 -0.293175 -0.214090 0.140987 0.408539 0.307874 0.355876 0.047397 0.391852 -0.065326 -0.036120 0.426295 0.583284 0.208320 -0.179392 0.366003 -0.060821 -0.316968 0.292317 -0.298221 -0.173591 0.073554 0.121857 0.580594 0.065651 0.244268 -0.650417 0.932734 0.019386 0.490091 -0.045696 -0.160868 0.113939 0.633707 0.348969 0.296040 -0.121706 -0.262021 -0.138236 -0.914094 0.034861 0.141384 0.160132 -0.621667 0.064521 -0.597769 -0.184799
roll -0.295466 -0.035527 -0.310087 -0.418187 -0.203539 0.044655 -0.236803 -0.174001 -0.135489 0.460982 -0.012324 -0.036256 0.439535 0.093447 -0.198705 -0.129574 0.019553 -0.150754 0.036003 0.072109 -0.073589 -0.265647 -0.068207 0.386764 0.595772 0.193326 0.117178 0.041855 0.045001 0.115586 0.224693 -0.711345 -0.414672 0.639680 -0.530095 0.099413 -0.196695 -0.191914 -0.375802 0.194201 -0.146426 0.003634 0.166651 0.175207 0.297835 -0.144615 0.265009 -0.134730 0.192563 0.124965
saved 1.151532 0.586142 0.644952 0.111270 -0.088878 0.470295 0.496069 -0.259368 -0.191620 0.428114 0.158219 0.599742 0.812548 0.284749 0.061553 -0.401066 -0.504644 0.087539 0.278704 -0.339680 -0.504409 -0.145535 -0.332594 0.548255 0.453982 0.064130 -0.938217 -0.335602 -0.110855 -0.862181 -0.540173 -0.394284 -0.087524 -0.286228 -0.255684 0.290701 0.077555 -0.344367 -0.055720 0.934168 -0.595496 0.102868 -0.348844 -0.464974 -0.135500 -0.101020 0.126458 -0.034661 -0.391622 -0.437817
yes 1.061906 -0.366932 -0.384817 -0.298059 0.641719 0.525221 -0.111043 0.669888 -0.526081 -0.343974 -0.389274 -1.029855 -0.515031 -0.522256 -0.011240 -0.048449 -0.365995 0.303041 0.344689 0.106165 -0.055795 0.221582 0.546542 -0.554402 0.596382 -0.105973 0.104980 -0.127425 -0.177763 -0.199965 -0.189788 0.506790 0.193932 -0.076009 -0.329717 -0.228893 0.247356 0.407981 0.581220 0.414823 0.379064 0.530885 0.143581 0.662742 -0.253704 0.270400 0.324872 0.376928 -0.330484 -0.004028
dna -0.192858 0.280771 -0.720119 -0.650688 0.206504 -0.124001 -0.365314 -0.283554 -0.373846 0.232345 -0.291274 -0.458366 0.373828 0.027865 -0.218299 -0.130395 -0.023048 0.037131 -0.184416 0.008440 0.220200 -0.501547 0.292202 0.205666 0.498297 0.276377 -0.383537 -0.527169 0.318766 0.300600 -0.269402 -0.291213 -0.458547 0.149117 -0.016947 -0.040069 -0.030191 -0.404181 0.109597 0.244399 0.158535 -0.028010 0.221872 0.368242 0.431309 0.218335 0.092958 -0.229670 0.298229 0.064177
run -1.049408 -0.040299 0.312112 -0.200066 -0.075190 0.126591 -0.088163 -0.473620 -0.032402 -0.086822 0.200236 0.239681 -0.051101 -0.085832 -0.125250 -0.034687 0.024237 -0.240274 0.041814 -0.082258 -0.241910 0.028693 -0.078349 0.416582 0.028025 -0.355415 -0.363826 0.420451 -0.065491 0.478667 0.081443 -0.380589 -0.742897 0.552893 -0.155537 0.051359 -0.059156 -0.113680 -0.428573 -0.022328 -0.251457 -0.195019 0.594847 -0.005354 -0.175081 -0.407636 0.025074 -0.287931 0.318472 0.268626
straight -0.560752 -0.006673 -0.004341 -0.210938 -0.132405 -0.244678 -0.368517 -0.262539 0.098603 0.145597 0.126511 0.098844 -0.073675 -0.137453 0.028286 -0.215312 0.318902 -0.075903 0.008831 -0.372615 -0.044862 -0.194908 0.021273 0.450128 0.121198 0.041024 0.017437 0.118913 0.167953 0.153029 0.200321 -0.080957 -0.240745 -0.109177 -0.069112 0.091714 -0.006441 -0.044222 -0.108917 -0.343650 -0.109122 -0.149972 0.014133 -0.136798 0.133491 -0.147285 -0.101170 -0.220192 0.170555 0.144272
ballin 0.256460 0.225219 0.364876 -0.159473 -0.016343 -0.174546 -0.365354 -0.315355 -0.261837 0.020030 -0.003871 -0.128877 0.312526 0.104258 0.445870 -0.280494 0.114547 0.300433 0.056851 -0.278674 -0.076474 -0.106453 0.024332 0.293440 -0.035639 0.056823 -0.482452 0.125389 0.174267 -0.054728 -0.501830 -0.014808 -0.115604 -0.126546 -0.022141 -0.051629 -0.068449 -0.083716 0.137141 -0.156340 -0.064603 -0.289797 0.057660 -0.243307 -0.100085 -0.079208 0.234402 -0.039079 0.002943 -0.053212
came -0.680928 0.035951 0.441565 -0.418028 -0.543237 -0.118319 -0.132281 -0.196546 0.020985 0.127778 0.106513 0.070035 -0.021504 0.145011 0.008589 0.012747 -0.040042 -0.101467 0.274641 -0.206603 -0.299477 0.191658 0.001108 0.285810 0.285723 -0.315809 -0.448928 0.366866 0.102352 0.073126 -0.158279 -0.344445 -0.489342 0.547370 -0.154770 0.140424 -0.050303 -0.187592 -0.213658 0.069138 -0.121701 -0.091045 0.277860 -0.311471 -0.247404 -0.415038 0.341443 -0.154420 0.271661 -0.154109
change 0.544437 -0.199821 -0.076831 0.574043 0.574287 0.567218 0.052365 0.208731 -0.297889 -0.164188 -0.435440 -0.286788 0.622192 0.130974 0.572376 0.188892 0.191514 -0.098006 0.216573 0.088000 0.491048 -0.238950 0.143609 -0.350776 -0.139034 -0.051225 -0.582291 0.176024 -0.568656 -0.322663 -1.020217 0.142051 0.555046 -0.681587 0.011739 0.115850 0.138760 -0.605156 -0.162035 -0.092178 -0.600673 0.167273 -0.072801 -0.517430 0.035064 0.178293 0.184566 0.348662 -0.266695 0.089197
dance -0.185950 -0.018428 -0.393123 -0.317019 0.295518 0.056998 -0.349038 0.195422 -0.073458 0.137597 -0.095218 -0.587240 -0.222786 -0.018175 -0.228182 -0.216453 -0.574376 -0.335436 -0.109874 0.254484 -0.016233 0.147155 0.008525 0.226182 0.320979 -0.029329 -0.165575 0.281105 0.049259 0.127043 0.503720 0.082047 0.012173 -0.162972 0.055328 0.027953 -0.258937 -0.199162 0.368787 -0.159942 0.321834 -0.002398 0.124821 0.283596 -0.169134 -0.016787 -0.440954 0.045792 -0.094668 -0.110723
mama 0.114180 0.435348 -0.230546 0.113111 0.213637 0.091565 0.214585 0.208656 0.313922 0.026929 0.056381 0.089528 0.321159 0.101506 -0.075832 0.064741 0.273349 -0.122592 -0.155385 -0.643689 0.282169 -0.462917 -0.236541 0.361903 -0.251450 -0.100825 0.568338 -0.427304 0.458507 0.029327 -0.214580 0.068308 -0.173930 -0.164330 0.063993 0.452697 0.466533 0.170498 -0.016831 -0.129452 0.090819 -0.353159 -0.076817 0.136391 0.576006 0.067414 0.014049 0.210814 0.544016 0.087100
round 0.374042 -0.513842 0.527133 0.652601 -0.365158 -0.014844 0.150719 0.208225 0.102076 -0.627637 -0.124842 0.417565 -0.798720 0.295095 -0.109312 0.198931 0.350772 -0.112128 -0.373454 0.423401 -0.049275 0.887619 -0.032883 -0.174759 -0.758836 0.567956 -0.033515 0.040020 -0.637091 0.060300 0.456252 0.450522 0.729242 0.415365 0.084185 -0.269355 -0.519080 0.030353 0.041286 -0.063803 0.051004 -0.264618 -0.283129 0.327121 0.215687 0.227587 -0.695610 -0.055841 -0.704905 -0.207977
sayin 0.502317 -0.333882 -0.097961 -0.127921 0.664065 0.837894 0.102723 0.415794 0.491656 -0.706840 0.420939 0.115308 0.123752 -0.270415 0.270527 -0.034655 -0.451467 0.367506 -0.575589 1.150236 -0.069197 -0.005423 -0.283177 -0.441422 -0.477614 -0.115769 0.447217 0.502061 -0.087406 0.110704 0.139129 -0.290682 -0.375764 -0.707714 0.444134 -0.042041 0.044328 0.319131 -0.166688 -0.626271 0.289663 1.072434 -0.169604 -0.017411 -0.186071 0.374481 0.579164 0.470587 -0.203951 -0.151040
songs -0.535404 0.350596 -0.163645 -1.327199 -0.045568 -1.040029 -0.851229 0.006659 -0.489783 0.279173 -0.506383 -0.485492 -0.141590 -0.196841 0.167352 0.217657 -0.155427 0.301763 -0.056991 0.356804 0.288538 -0.266920 0.110769 -0.391316 0.868813 0.541948 0.244996 -0.472613 0.313170 0.975130 0.638418 -0.220141 -0.136102 0.014012 0.159953 0.115131 -0.673225 -0.150781 0.537453 -0.416347 0.102246 -0.451910 0.233740 0.299263 0.427210 -0.307989 -0.319059 -0.630880 -0.239561 0.185709
sound 0.608525 -0.310698 -0.077109 0.392200 0.054034 0.240713 0.092221 0.060292 0.104295 -0.224804 0.182760 -0.321133 0.309376 -0.425417 -0.321256 -0.174664 -0.362152 0.078262 0.419129 -0.031218 0.250511 -0.156399 0.175787 -0.169763 -0.267996 -0.483964 0.300654 0.458625 0.157697 -0.329060 -0.411164 0.080887 0.126561 -0.320813 -0.135362 -0.045492 -0.147116 0.489571 0.118781 0.018791 0.373342 0.291440 -0.176307 0.230901 -0.494531 0.339992 0.001565 0.341656 -0.176000 -0.206104
thing 0.149319 -0.385657 0.164753 -0.278492 -0.166054 -0.209726 -0.223187 0.132521 -0.178125 0.138121 -0.313195 0.412346 -0.375529 -0.076223 -0.262823 0.119047 0.434911 -0.116560 0.135056 0.539955 -0.438213 0.489917 0.007682 0.182961 0.451185 0.522616 0.070163 0.018796 -0.386643 0.133220 0.541379 -0.172857 0.059214 0.699768 -0.084183 -0.270206 -0.448201 0.032584 -0.331345 0.250330 -0.110197 -0.355752 0.197189 0.457914 0.291503 -0.079258 0.285286 -0.222409 -0.032840 0.114463
til -0.838100 0.155405 0.246175 -0.140308 -0.302876 0.016236 -0.291603 -0.286718 0.133910 0.098369 0.288812 0.173066 0.080809 0.203435 0.250066 0.079887 0.202853 -0.520152 0.162457 -0.223074 -0.171041 -0.259984 -0.320991 0.476853 -0.174157 -0.480910 -0.073477 0.566272 -0.069239 0.311296 0.024581 -0.228731 -0.300313 0.189790 0.130694 0.510346 0.016043 -0.330834 -0.401698 -0.334841 -0.347245 -0.313130 0.161976 -0.175794 0.185594 -0.114092 0.376678 -0.240134 0.358153 0.178924
ah 0.169717 0.266877 0.312662 -0.300924 -0.375371 -0.609226 -0.362052 0.031137 -0.172182 0.224083 -0.085366 0.019972 0.024515 0.078232 0.215361 0.256784 0.119730 0.314145 0.343188 0.032950 0.120574 0.005504 -0.177870 -0.224323 -0.044333 0.267570 0.101185 -0.349244 0.146826 0.210899 0.114414 -0.186693 0.221793 -0.088701 0.085384 0.131189 -0.087341 -0.023564 0.177875 -0.455345 -0.199094 -0.564849 -0.193134 -0.151700 0.179285 -0.157086 -0.204941 -0.280030 -0.327627 -0.027564
barbie 0.690330 -0.443200 -0.112734 -0.261050 0.691217 0.703600 -0.031029 0.148682 0.230434 -0.678315 0.427682 0.030119 0.153840 -0.402231 0.042904 -0.400814 -0.898475 0.590889 -0.266920 1.271946 -0.030671 -0.169463 0.048690 -0.518171 -0.431700 -0.302402 0.038607 0.615718 -0.115738 0.129613 -0.005604 0.009517 -0.262716 -0.984813 0.534021 0.044517 -0.260316 0.123282 -0.057077 -0.446966 0.344802 0.844055 0.024724 -0.059505 -0.555442 0.386248 0.542087 0.345298 -0.256455 -0.181365
game -0.210258 0.267369 -0.104378 0.110223 -0.114064 0.080323 -0.150634 -0.056228 -0.158539 0.108020 -0.071264 -0.006321 0.172153 0.083971 0.148068 0.086007 0.350495 -0.195752 -0.218059 -0.339974 -0.052107 -0.074000 0.037735 0.328103 0.070846 0.090352 -0.145415 -0.080188 0.071216 -0.013727 -0.246400 -0.096790 -0.233552 0.227901 0.049633 0.018837 -0.022959 -0.040365 -0.045467 0.045055 -0.064350 -0.187839 0.068231 0.104094 0.275062 -0.051443 -0.022418 -0.026676 0.210802 0.245985
ho -0.591375 0.002260 0.105738 -0.251283 -0.294507 -0.395040 -0.300030 -0.087544 -0.011305 0.269825 0.235177 -0.277340 -0.001941 0.061094 0.136734 -0.165125 0.061308 -0.325319 0.000439 -0.264376 -0.339664 0.222045 -0.075159 0.615375 0.438322 -0.124375 -0.327245 0.599015 0.233362 0.044711 0.391842 -0.083078 -0.277250 0.170522 0.014992 0.056351 -0.216535 -0.150023 0.424655 -0.073894 -0.238694 -0.107173 0.366256 -0.174226 -0.181145 0.022134 -0.142272 -0.262866 0.102387 0.066162
motherfuckin -0.153209 0.016839 0.235458 0.081025 0.372745 0.177002 -0.317666 0.338583 -0.194001 -0.163034 0.034246 0.192576 -0.374024 0.315788 -0.356622 -0.025970 -0.423628 -0.487201 -0.082823 0.715743 -0.064106 0.286245 -0.529329 0.242217 -0.010977 0.026704 0.262296 0.247641 -0.633416 0.364827 0.762884 0.149586 0.108059 -0.079016 0.469630 0.064840 -0.257196 0.066963 0.010728 -0.628923 0.109701 -0.317744 0.077028 0.114864 -0.078666 -0.386935 -0.785777 -0.218777 -0.275864 0.223961
pool 0.461270 -0.340834 -0.452362 -0.294636 0.039354 0.029138 0.239452 -0.015811 -0.247507 0.030040 0.113647 -0.215965 -0.050829 0.193610 -0.348208 -0.118108 -0.552122 0.440133 0.035431 0.536730 -0.072633 0.019500 0.303755 -0.293129 0.201335 -0.010506 -0.213837 -0.052122 0.000215 -0.200994 -0.124921 -0.084273 0.110552 -0.086217 -0.023764 -0.252375 -0.452164 -0.223739 -0.244231 0.487422 0.503127 0.204996 0.276387 -0.152135 -0.320785 0.046896 0.224298 0.084406 -0.176550 -0.357037
rappers 0.039512 -0.107104 0.001772 -0.045100 0.754978 0.899127 -0.284741 0.179113 0.313826 -0.610840 0.566872 0.132984 0.392371 -0.124882 0.288020 -0.139027 -0.569743 -0.160008 -0.495556 0.994020 -0.144412 -0.167059 -0.539948 0.061553 -0.588535 -0.447681 0.141990 0.896819 -0.255664 0.267981 -0.023781 -0.298066 -0.532825 -0.765088 0.646932 0.331824 -0.221879 -0.034447 -0.344988 -0.858438 0.207533 0.667547 0.063779 -0.088571 -0.207645 0.168235 0.617288 0.288508 0.187672 0.110768
bands -0.027658 -0.158789 -0.081113 0.020410 -0.034567 0.049701 0.053422 0.171307 0.254594 -0.134742 -0.125313 -0.098172 -0.093843 0.102478 0.084953 0.127801 0.247383 -0.036208 -0.341790 0.104808 0.083767 0.173852 -0.168120 -0.150380 -0.166662 0.223160 0.099630 -0.150551 -0.046129 0.010947 0.218925 -0.120590 -0.003608 0.063021 0.064098 -0.243593 0.059232 0.271651 0.008502 -0.171362 0.082139 0.316762 -0.218327 0.041695 0.248823 0.147940 -0.050824 0.098313 -0.222322 0.068197
face -0.347057 0.122492 0.049619 0.084028 0.049619 0.036823 -0.020481 0.006084 0.200531 -0.127993 0.122321 0.137442 0.038192 0.048447 -0.088571 -0.053562 0.168049 -0.168544 -0.110699 -0.205900 -0.115411 0.050537 -0.270529 0.393820 0.008514 -0.073881 0.063609 0.103182 0.070268 -0.045573 -0.039452 -0.075301 -0.352934 0.253134 0.124009 -0.061586 -0.061316 -0.030906 -0.193041 -0.094688 0.132840 -0.088392 -0.004284 0.083208 -0.089721 -0.311324 -0.042781 -0.160181 0.354771 0.153547
gun -0.416935 -0.165237 0.147767 0.334205 -0.424055 0.261818 0.079436 -0.384640 -0.315815 0.130608 0.531367 0.306315 0.116173 0.260616 -0.279361 -0.008806 -0.054061 -0.205977 0.157980 0.091098 -0.189694 0.253614 -0.058228 0.163986 -0.615866 -0.635855 0.368733 0.177156 -0.323532 0.172479 0.170949 -0.453668 -0.005489 0.607508 -0.396119 -0.055761 -0.560318 -0.188660 -0.453461 0.342426 -0.167341 -0.137360 0.299202 0.110250 -0.437412 -0.455893 0.118710 -0.316615 0.337247 0.333489
hand -0.323859 0.022713 -0.484362 -0.622954 0.258760 -0.178296 -0.390279 -0.128537 -0.033168 0.362292 0.255727 -0.600912 -0.235556 -0.250947 -0.247533 -0.223715 -0.461106 -0.284671 -0.158934 0.015213 -0.128830 -0.119235 0.090208 0.429019 0.587620 -0.254316 -0.348077 0.239473 0.178363 0.281897 0.513516 -0.232739 -0.538516 0.036680 -0.009877 0.244687 -0.178170 -0.146844 0.360289 0.199258 -0.035279 0.141800 0.212142 0.235457 -0.062254 0.168428 -0.000859 -0.181247 0.091080 -0.158590
house -0.466577 -0.073801 0.302612 -0.288593 -0.036535 0.024015 -0.135495 -0.161326 -0.204861 -0.075286 -0.245072 -0.148060 -0.268343 0.069962 0.356759 0.207936 -0.049889 -0.049550 0.007510 0.034041 -0.231191 0.245414 -0.110873 0.324780 0.401744 0.172816 -0.435902 0.131322 -0.395437 -0.030019 -0.040997 -0.195951 -0.322405 0.474225 -0.215737 -0.222576 0.059633 0.030909 -0.098067 0.190717 -0.232662 0.241162 0.206588 0.197755 -0.010918 0.119934 0.244638 -0.094611 -0.097479 0.080403
humble 0.392170 0.380256 -0.606829 -0.101129 0.198167 -0.222723 0.367391 0.045744 0.025599 0.139498 0.545642 0.013538 0.237766 0.116107 -0.756356 -0.397642 -0.137585 0.485649 0.433513 -0.544100 0.513116 -0.543698 0.251210 -0.122421 -0.091991 -0.504758 1.123232 -0.514489 0.917260 0.221269 -0.428090 0.340328 -0.092874 -0.249074 -0.168066 0.197119 0.632771 0.171845 0.298076 0.322208 0.440605 -0.470737 0.372463 -0.155912 -0.348788 -0.491639 0.371135 0.280112 0.912355 -0.033622
little -0.014959 0.040686 -0.054761 -0.104681 0.941917 0.729047 -0.048467 0.220055 0.385077 -0.451355 0.539868 0.205067 0.289165 -0.258432 0.236259 -0.266010 -0.541384 0.037920 -0.488367 1.006584 -0.143941 -0.212205 -0.410310 -0.169320 -0.194433 -0.256306 0.213427 0.681284 -0.156401 0.150203 0.006005 -0.415278 -0.689579 -0.881732 0.739440 0.029640 -0.124630 0.229485 -0.358373 -0.780709 0.149927 0.960456 0.128504 -0.252763 -0.290137 0.118010 0.677462 0.246925 0.029212 0.029906
livin 0.004658 0.198836 0.071460 0.160914 0.508868 0.574029 -0.216110 -0.005294 0.013512 -0.373248 -0.175451 -0.045173 0.445225 0.067784 0.426628 0.106514 0.068602 -0.218201 -0.330366 -0.088211 0.060971 -0.252517 -0.185472 0.379087 -0.097594 0.143131 -0.384311 0.273812 -0.280996 0.133027 -0.748410 0.002147 -0.438958 -0.270683 0.187036 0.200336 0.123050 -0.121607 -0.192540 -0.336707 -0.156433 0.119846 0.094639 -0.104507 0.324813 0.133441 0.316237 0.194800 0.245274 0.281568
long -0.207051 0.057799 0.150324 -0.311727 -0.034132 -0.223192 -0.285941 -0.162742 -0.176488 0.172858 -0.024198 -0.198718 -0.332879 -0.572323 -0.065420 -0.114247 -0.070829 -0.088791 -0.156541 -0.216820 -0.226677 0.086332 0.104516 0.389714 0.627589 -0.076545 -0.501963 0.094047 -0.070465 0.098822 0.650912 0.146110 -0.181568 0.029102 -0.079765 0.239582 -0.184061 -0.030454 0.458796 -0.071772 -0.124905 -0.249196 -0.105122 0.208027 0.192364 -0.037813 -0.543788 -0.345992 -0.322186 -0.065468
miss 0.051290 -0.523025 0.049873 0.267437 -0.460768 -0.107303 0.447551 0.568650 0.335572 -0.372815 0.109361 -0.192011 0.166064 0.064563 0.242432 0.159029 0.343440 0.151735 0.118885 -0.362723 -0.196167 0.703897 0.000318 -0.160934 -0.164833 -0.218355 0.337538 0.452983 0.480222 -0.414914 0.290159 0.261866 0.600860 0.080456 -0.204554 -0.501099 0.236961 0.393795 0.661724 0.068436 0.475509 0.529697 -0.074844 -0.239369 -0.615031 0.251630 -0.167824 0.563188 0.180125 -0.491074
shots 0.395328 -0.290313 0.554914 0.477077 -0.153602 -0.069488 0.052720 0.159879 0.030017 0.186632 0.176037 0.032768 0.038808 0.392734 0.681212 0.771277 -0.199547 -0.107570 0.259360 0.072736 -0.334088 0.132521 -0.284328 0.123214 -0.121742 -0.145103 0.341007 0.629726 -0.043212 -0.550358 0.121975 -0.044432 0.223707 0.400852 -0.106957 -0.148136 0.361842 -0.077709 0.082020 -0.030359 -0.197339 0.173482 -0.498452 -0.212627 -0.145500 -0.113670 -0.207567 0.198439 -0.161890 -0.032487
talk -0.129096 0.023294 0.322964 -0.041014 -0.087899 0.077053 0.079230 -0.037898 0.121743 0.035360 -0.114139 -0.045497 0.243452 0.204744 0.462072 -0.287826 0.241727 -0.181027 -0.241355 -0.358072 -0.407244 0.104777 -0.314492 0.717715 0.456305 0.295065 -0.659089 0.390647 0.200461 -0.355036 -0.093995 -0.262806 -0.380896 0.333844 -0.228658 -0.320471 0.360617 -0.004420 0.046487 0.180307 -0.459704 0.446603 0.082601 -0.339234 -0.136130 0.133273 0.028775 0.090840 -0.129272 -0.012279
bound 0.310306 0.014989 -0.010464 -0.767887 0.489754 -0.489053 -0.371861 0.087760 -0.388393 -0.045815 -0.371878 -0.443269 0.111731 -0.811422 0.249874 0.050200 -0.336887 1.077816 0.202304 0.495578 0.203486 -0.478314 0.469401 -0.946222 0.412546 0.196922 0.022902 -0.453345 0.355544 0.317316 0.130336 0.067998 -0.046330 -0.573203 0.224824 -0.076780 -0.471746 0.147616 0.446257 -0.213017 0.093607 0.085894 0.096042 0.251893 -0.150901 0.090902 -0.105244 -0.291265 -0.426089 -0.056656
check 0.114241 0.194268 -0.420757 0.042287 -0.015897 -0.338665 0.128072 0.114680 0.016366 0.606891 0.510816 0.250720 0.228486 -0.276616 -0.172296 -0.268995 -0.011238 -0.232200 0.542921 -0.449275 0.083170 -0.566885 0.400089 -0.218700 0.112845 -0.515859 0.666030 -0.109838 0.361009 -0.507615 0.224447 -0.314225 -0.013153 -0.364401 0.147543 0.515123 -0.072919 -0.059018 -0.101135 0.022925 -0.098223 -0.365878 -0.223894 -0.125619 -0.078083 0.018477 0.240328 0.066796 0.345405 -0.104596
king 0.690002 0.317735 -0.524546 -0.120312 0.424323 -0.067597 0.013264 0.352263 -0.253176 -0.212264 0.328934 -0.079202 -0.168281 -0.300604 -0.601012 -0.081922 -0.030537 0.327825 0.382096 -0.326817 0.438330 -0.201906 0.365282 -0.445033 0.012138 -0.427939 1.293390 -0.374874 0.697586 0.189740 0.144052 0.472866 0.122674 0.094837 -0.307475 0.022528 0.524203 0.251830 0.426011 -0.150621 0.537176 -0.611051 0.223263 0.260802 -0.438752 -0.367687 0.129267 0.166269 0.630888 0.111654
liquor 0.598406 -0.414645 -0.485111 -0.182563 0.124087 0.163481 0.342990 -0.061856 -0.224264 0.028921 0.165816 -0.250612 0.056328 0.090364 -0.419232 -0.209443 -0.602811 0.443119 0.087880 0.477081 -0.090340 -0.037200 0.405170 -0.318517 0.116688 -0.206369 -0.288535 -0.000737 0.011586 -0.355173 -0.212968 -0.037135 0.151326 -0.095372 -0.059684 -0.238858 -0.413506 -0.212511 -0.263100 0.619448 0.564031 0.232755 0.299421 -0.115718 -0.444951 0.068246 0.235100 0.188431 -0.086288 -0.372692
old -0.105234 0.100797 -0.174022 -0.257972 -0.077817 -0.107593 0.031862 -0.080926 -0.047650 0.070553 -0.007309 -0.044164 0.062538 0.120685 -0.235230 -0.244219 -0.128091 0.086486 0.004238 0.114272 -0.109589 -0.197764 0.080159 0.016554 0.158140 0.056132 -0.025804 -0.126671 0.041404 0.225524 0.059356 0.019542 -0.117133 0.029832 -0.001373 -0.125347 -0.113970 -0.030941 0.040508 0.225258 0.027462 -0.195912 0.289455 0.161159 0.112385 0.008940 0.094755 -0.078179 0.173715 0.040189
open -0.276582 0.189094 0.014635 -0.641727 -0.302398 -0.883171 -0.570098 0.008393 -0.309775 0.165903 -0.433145 -0.312712 -0.001762 -0.089452 0.409007 0.184155 0.316650 0.288243 -0.154707 -0.095635 -0.000212 -0.098306 0.023561 -0.064701 0.393967 0.602741 0.030413 -0.308368 0.312608 0.465916 0.395449 -0.199906 0.057449 0.150212 -0.018830 -0.153322 -0.324045 -0.071112 0.457905 -0.430738 -0.120730 -0.182767 0.010138 0.098260 0.405368 -0.039551 -0.441919 -0.433341 -0.311344 0.178147
rep 0.766653 -0.145425 -0.637381 -0.098763 0.455588 0.161061 -0.145587 -0.071662 -0.348960 0.238812 -0.140650 -0.318307 0.838103 -0.153728 -0.170075 -0.164488 -0.078796 0.266263 0.328034 0.010182 0.266782 -0.898226 0.319994 -0.291671 0.267735 0.022516 -0.012769 -0.313285 0.373710 0.049808 -0.599257 -0.091521 0.197730 -0.142026 -0.376302 0.023682 -0.041043 -0.095996 -0.142277 0.379431 0.199164 -0.093518 0.166631 0.134764 0.138031 -0.089017 0.413117 0.239844 0.256604 -0.034484
ring 0.097630 0.189182 -0.182241 -0.112289 0.420865 -0.074146 0.350443 0.008906 -0.153963 -0.227584 0.492894 0.091926 0.258412 0.020810 -0.654974 -0.376571 -0.128581 0.375673 0.167926 -0.588330 0.181907 -0.378638 0.184514 0.190863 0.083076 -0.232039 0.576269 -0.048881 0.791031 0.339842 -0.437123 0.315009 -0.237647 0.141060 -0.329970 -0.158833 0.560528 0.238081 0.295630 0.182415 0.431880 -0.173604 0.730189 -0.124328 -0.383299 -0.469321 0.172894 0.416654 0.844084 -0.014063
seen -0.273773 0.037147 -0.005956 0.004586 0.088502 -0.003238 0.009275 -0.037430 0.071715 0.022159 -0.171899 -0.101818 0.370626 -0.059164 0.305177 0.013138 0.331834 -0.099334 -0.144167 -0.382694 0.063971 -0.279704 -0.160004 0.124540 0.029460 0.022091 -0.138414 0.026426 0.163940 0.053537 -0.133193 -0.045662 -0.129978 -0.190646 0.004285 0.113191 0.029489 -0.015011 -0.069173 -0.100631 -0.089635 0.031935 0.016610 -0.085293 0.296551 0.104532 0.122370 -0.043534 0.130544 0.141363
set 0.121456 0.204465 -0.519713 -0.067505 0.105887 -0.013132 0.026399 0.050137 -0.239088 0.343338 0.187737 -0.022003 0.424276 -0.054132 -0.295307 -0.100512 0.061420 -0.108882 0.052746 -0.151436 0.086249 -0.563517 0.128075 -0.103172 0.188537 -0.005825 0.363977 -0.444504 0.324573 0.033540 -0.236526 -0.372839 -0.137325 0.198087 -0.092533 -0.033754 -0.092145 0.072802 -0.155323 0.298624 0.135689 -0.154098 0.168307 0.200369 0.230140 -0.303228 0.503131 0.100139 0.461358 0.191601
start 0.273663 -0.212300 -0.039838 -0.044549 0.123764 0.246902 0.211533 0.529828 0.318777 -0.216714 0.003769 -0.013935 -0.216057 -0.112808 -0.021672 0.249319 -0.078053 -0.064235 -0.180952 0.365003 0.028252 0.282789 -0.222214 -0.322298 0.156713 0.283543 0.404883 -0.090537 -0.105418 -0.041995 0.522257 -0.134226 0.016080 -0.143019 -0.004259 -0.140378 0.301676 0.320744 0.190494 -0.265452 0.098162 0.418859 -0.233625 -0.024285 0.050722 0.109302 -0.256485 0.294757 -0.343349 -0.179577
stop 0.438458 0.002775 0.298644 0.171313 0.153412 0.015051 0.258609 -0.029008 0.002756 0.090912 0.167774 0.253976 0.078561 0.152490 -0.350699 -0.330159 -0.099623 -0.039567 0.276550 -0.061184 -0.056219 0.120655 -0.119860 0.006403 -0.250812 -0.369955 -0.204935 -0.029088 -0.068858 -0.052362 0.015281 0.004358 0.214088 -0.012013 0.115994 -0.050549 0.333880 0.102852 -0.047930 0.114724 -0.156447 -0.010073 -0.044890 -0.281379 -0.396291 0.027355 -0.234026 -0.018655 -0.145512 -0.154006
teeth 0.614415 -0.306864 -0.529636 0.051291 0.151739 0.304786 0.314644 -0.035660 0.083029 0.010636 0.301880 -0.458049 0.326433 -0.469356 -0.733978 -0.551772 -0.589918 0.460530 0.444661 0.210276 0.077926 -0.204850 0.542810 -0.412774 -0.109387 -0.701242 0.182416 0.282327 0.467242 -0.267372 -0.373689 -0.029428 -0.094881 -0.232755 -0.180079 -0.263537 -0.098828 0.327844 0.104638 0.381971 0.468582 0.532839 0.240928 0.107213 -0.859604 0.250222 0.175719 0.407599 0.070815 -0.280744
trap -0.011755 0.137108 -0.198529 0.103596 -0.069413 -0.138760 0.091353 -0.136125 -0.092779 0.016479 0.027758 0.054077 0.128277 0.206141 0.110366 -0.133567 0.297833 0.273752 -0.172787 -0.278429 0.081797 -0.188789 0.094760 0.116848 0.004520 0.282274 0.225304 -0.148529 0.268099 0.121398 -0.371915 0.007810 -0.048431 0.270432 -0.193570 -0.269954 0.158871 0.034233 -0.023317 0.204415 -0.060055 0.036922 0.299835 -0.008654 0.034957 0.041021 0.125933 0.022111 0.160237 0.286421
work -0.120673 0.183680 0.098249 0.137034 0.065903 -0.032051 0.007621 -0.122186 -0.115875 -0.073878 -0.033799 0.168965 0.089199 0.116352 0.057747 0.009852 0.077113 0.037003 -0.214054 -0.114573 -0.128361 -0.011639 -0.131643 0.202420 0.058161 0.248770 -0.026117 -0.059081 -0.080324 0.092073 -0.209885 -0.057839 -0.142196 0.170380 0.060402 -0.202833 -0.181099 -0.101393 -0.135088 0.099135 -0.117233 0.025852 0.121268 0.036314 0.115276 -0.200030 -0.078813 -0.254256 -0.006740 0.201174
bring -0.923441 -0.431943 0.156043 -0.460521 -0.317925 0.222745 -0.323447 -0.218022 -0.027723 0.011845 0.333036 -0.502071 0.188032 -0.062752 0.197523 -0.161758 -0.217995 -0.318591 0.312445 0.199735 -0.246845 0.282850 0.059315 -0.108081 0.380505 -0.449667 -0.461465 0.919440 -0.009449 0.338709 0.035900 -0.589209 -0.711116 0.257640 -0.231940 0.016016 -0.252600 -0.182772 -0.442796 -0.228246 -0.098395 0.400635 0.490448 -0.395040 -0.514662 -0.501276 0.523644 -0.209819 0.165602 0.231084
car -0.407141 -0.023601 -0.085889 -0.239057 0.012894 -0.021935 -0.138735 0.003904 -0.033796 0.024013 -0.058401 -0.193691 0.007720 0.072411 0.113460 0.080890 0.028474 -0.240639 -0.218612 0.149507 -0.071091 0.082110 -0.172413 0.128646 0.309091 0.300040 -0.094144 0.139526 -0.007858 0.226034 0.153082 -0.296731 -0.287265 0.171579 -0.028061 -0.165429 -0.040010 0.002800 -0.114733 -0.143535 -0.129112 0.238742 0.126540 -0.046910 0.150385 -0.008701 0.034643 -0.128108 -0.043222 0.214415
cause -0.629110 0.004059 -0.084997 -0.095023 -0.093124 -0.067359 0.039830 -0.049808 0.042793 -0.081771 -0.126710 0.078653 -0.219099 0.348176 -0.099876 0.341006 0.120384 -0.217228 -0.386593 0.140599 -0.087825 0.217409 -0.158852 0.220071 0.241837 0.364176 0.022451 -0.073103 -0.073708 0.154482 0.115152 -0.322453 -0.429817 0.275699 0.018721 -0.250948 0.151027 0.070104 -0.075651 0.073205 -0.273813 0.090408 0.125533 -0.002367 0.292229 0.057495 0.008649 -0.133652 -0.006949 0.157954
foreigns 0.221290 0.018501 -0.057340 0.105814 0.032020 0.016633 0.680076 0.346029 0.349834 0.275490 0.383975 0.037033 -0.102607 -0.116697 -0.221873 -0.357079 -0.043294 0.089014 0.225457 0.036352 0.021191 0.175761 0.323576 -0.727127 -0.030110 -0.335789 0.318076 -0.128458 -0.000193 -0.401602 0.042372 -0.052435 0.198698 -0.119994 0.223744 -0.228908 0.077199 0.291626 -0.115056 0.252409 0.171338 0.442943 0.074800 -0.246275 -0.425411 -0.027930 0.687462 0.291500 -0.100409 -0.259270
girls 0.128713 0.248676 0.098945 -0.098616 0.088855 0.156735 0.041618 -0.115856 0.003822 0.163423 -0.088203 0.069617 0.356913 -0.026079 0.131679 -0.042409 0.089654 0.043819 -0.097363 -0.098331 -0.113992 -0.106502 -0.131797 0.245200 0.179788 0.233009 -0.409573 -0.161180 0.044256 -0.200527 -0.084319 -0.319734 -0.313114 -0.101932 -0.100265 0.179093 -0.183782 -0.034054 -0.163151 0.106599 -0.104480 -0.090862 -0.028523 0.045247 0.218373 0.098362 -0.070858 -0.077762 -0.124203 -0.168849
lit -0.184751 0.135473 0.074547 -0.295866 -0.204844 -0.584143 -0.573923 -0.129757 -0.254691 0.382805 -0.019421 0.097319 0.165340 -0.366565 0.305901 -0.109975 0.226242 0.111851 0.228192 -0.329548 0.014795 -0.370970 0.030049 0.110586 0.274768 0.076800 0.206539 -0.132485 0.176341 0.095208 0.463035 -0.120435 0.181493 -0.307062 -0.000415 0.135603 -0.331595 -0.020348 0.120191 -0.516102 -0.068384 -0.313753 -0.187468 -0.053376 0.190933 -0.048466 -0.254318 -0.319477 -0.123627 0.162504
mad -0.509643 0.438409 -0.148521 0.115675 0.048529 0.008900 0.477839 0.356713 0.765334 0.485553 0.407200 0.301145 0.032491 0.203812 0.068778 -0.038706 0.508135 -0.400581 -0.180042 -0.078171 -0.089192 0.051028 -0.455735 -0.036551 0.063462 -0.121042 0.758985 -0.047270 0.034623 -0.236339 0.226710 -0.668645 -0.236428 0.304369 0.221245 -0.108258 0.345799 0.340396 -0.567022 -0.056898 -0.224463 0.750435 -0.057331 -0.380748 -0.020792 -0.062761 0.779497 0.031271 0.121701 -0.064004
main 0.534646 -0.205594 -0.322816 0.342369 0.432858 0.708689 0.369697 0.125553 -0.006276 -0.227448 0.092331 -0.386605 0.529729 -0.098816 -0.090696 -0.345267 -0.138066 0.087925 0.096808 0.086046 0.154971 -0.069825 0.211603 -0.346155 -0.266599 -0.477643 -0.253740 0.208784 -0.023404 -0.423480 -0.779879 0.192717 0.240745 -0.449872 0.027048 -0.136980 0.263178 -0.033760 -0.006900 0.266943 0.217649 0.352251 0.198189 -0.120460 -0.416693 0.232311 0.513342 0.583419 0.268635 -0.051942
rockstar 0.296184 0.134813 -0.128250 0.151333 0.095681 0.470551 0.105801 0.078978 0.008846 0.012344 0.013018 -0.063982 0.417150 0.131249 -0.133315 0.148148 0.060818 0.190612 -0.102657 0.189359 -0.042243 -0.237379 -0.272308 0.190707 -0.409884 -0.199521 0.212706 -0.207103 0.040249 -0.177241 -0.440482 -0.193336 0.055849 0.456464 -0.119598 0.147863 0.071229 -0.015934 -0.147492 0.029657 0.332287 0.066056 0.001974 0.011556 0.087113 -0.135308 0.502417 0.111985 0.504373 -0.026324
seat 0.759087 -0.571929 -0.046982 0.114166 -0.162289 -0.031218 0.455225 0.168313 -0.318520 -0.488367 -0.082658 -0.191426 -0.577985 0.038009 -0.394078 -0.112270 -0.334250 0.354063 0.039411 0.224265 0.160846 0.367956 0.466610 -0.972123 -0.377574 -0.045074 -0.450642 -0.434661 -0.107193 -0.023363 -0.185380 0.879345 0.899088 -0.261345 0.112057 -0.344028 0.085319 0.011753 0.355973 0.511912 0.596275 -0.114254 -0.151818 0.067295 -0.231750 -0.162511 0.120844 0.224252 -0.231070 -0.193140
sun 0.478405 -0.095210 0.740103 0.504790 -0.422978 -0.056989 0.129188 0.115133 0.113502 -0.497984 -0.040002 0.524126 -0.460180 0.480967 0.177128 0.510475 0.121144 0.053818 -0.120266 0.288985 0.152826 0.682619 -0.333771 -0.105427 -0.654948 0.396694 0.051689 0.038338 -0.781787 -0.075293 0.026391 0.372182 0.503055 0.300008 0.154554 -0.018241 -0.192079 -0.142548 -0.085851 -0.086435 -0.165731 -0.398467 -0.330921 -0.018463 0.122475 0.079878 -0.209730 0.052015 -0.392053 -0.208471
talkin -0.516353 0.237045 -0.159450 -0.054287 -0.027397 -0.002178 -0.043626 -0.213594 0.060283 0.077647 0.009655 0.087059 0.258177 0.226929 -0.060676 -0.030456 0.254759 -0.146634 -0.275202 -0.223643 -0.059053 -0.157837 -0.140646 0.433281 0.141871 0.152365 -0.081733 -0.041291 0.170162 0.158096 -0.160170 -0.232782 -0.340996 0.211875 -0.053541 -0.169360 0.010856 -0.041153 -0.251254 0.055244 -0.048905 0.137828 0.152733 -0.068512 0.276541 -0.119094 0.244453 -0.091269 0.308541 0.260397
wake 0.283959 0.446376 -0.462910 -0.150771 0.308130 0.349656 -0.130205 -0.293810 -0.155562 0.066635 -0.202600 -0.072150 0.528201 -0.211017 -0.270546 -0.680835 -0.088205 0.300827 -0.065396 -0.136505 0.044398 -0.410827 -0.156739 0.254265 -0.150143 -0.238568 0.021588 -0.290777 0.401166 0.148253 -0.362863 0.221179 0.027764 -0.013535 0.002304 -0.100214 0.078751 -0.093217 0.153391 0.396432 0.184759 0.278548 0.280000 0.419972 -0.280884 0.249196 0.283556 -0.080631 0.450367 0.343298
window -0.227382 0.010972 0.185117 -0.238720 -0.391732 -0.658065 -0.236670 0.217512 0.086747 0.149136 -0.156683 -0.147896 -0.000960 -0.009893 0.489282 0.242777 0.484706 0.088889 -0.094575 -0.188821 -0.066519 0.184207 -0.168995 -0.151402 0.187019 0.390384 0.185513 -0.056903 0.246293 0.145358 0.513613 -0.364465 0.029162 0.142416 -0.016836 -0.196971 -0.046006 0.124220 0.286740 -0.456214 -0.272126 0.165729 -0.178803 -0.257981 0.165983 0.134885 -0.254974 -0.176633 -0.370296 0.075830
block -0.710356 0.039731 -0.038300 -0.087962 -0.061906 -0.065325 -0.241821 -0.432781 -0.173428 0.235087 -0.144613 0.189478 0.170101 0.131460 0.056614 -0.016895 0.404451 -0.336118 -0.269574 -0.087253 -0.290642 -0.148500 -0.269023 0.683245 0.356603 0.371869 -0.128036 0.075936 -0.125123 0.188774 0.034905 -0.535970 -0.329320 0.596153 -0.252537 -0.242361 -0.222410 -0.082124 -0.456676 0.206574 -0.409507 0.051087 0.268020 0.171615 0.546534 -0.111665 0.393715 -0.395637 0.320829 0.463767
cane 0.334145 -0.404624 0.110477 0.278161 0.073541 0.466217 0.330178 0.164580 0.070769 -0.211031 0.211102 -0.371176 0.312888 -0.023850 -0.005965 -0.313831 -0.389917 0.050689 0.116311 -0.002151 -0.185811 0.318665 0.235210 -0.109489 -0.171169 -0.682575 -0.099916 0.635526 0.161387 -0.413889 -0.525923 0.247232 0.058621 -0.222399 -0.091287 -0.165946 0.219090 0.008277 0.210397 0.380598 0.176651 0.376084 0.353522 -0.169190 -0.714234 -0.080524 0.282627 0.341693 0.153876 0.015793
comes 0.466599 -0.390663 -0.254628 0.030957 -0.061029 0.122282 0.167816 0.068858 0.040805 -0.134953 0.275598 -0.567001 0.514818 -0.363435 -0.282535 -0.402515 -0.450617 0.349976 0.480817 0.002904 0.010865 -0.009687 0.409384 -0.342307 0.014710 -0.639350 -0.017916 0.540259 0.510446 -0.324038 -0.338807 0.084779 0.082323 -0.369251 -0.152942 -0.164007 -0.223808 0.273261 0.265888 0.293678 0.567897 0.456249 0.227434 0.011824 -0.874230 0.237718 0.218534 0.416972 0.184520 -0.280508
cool -0.660117 -0.059234 0.057293 -0.178646 -0.143398 0.061412 0.084265 -0.160069 0.312486 0.011631 0.418611 0.196039 -0.132636 0.216374 -0.028221 0.040817 0.156175 -0.260498 -0.033053 0.013649 -0.110988 -0.056472 -0.208428 0.276749 -0.197820 -0.406322 -0.021029 0.391636 0.061329 0.206689 -0.030754 -0.312215 -0.339322 0.231614 0.124300 0.111230 0.133676 -0.138623 -0.432365 -0.044735 -0.163159 0.171849 0.149578 -0.232741 -0.104704 -0.093462 0.476121 -0.144070 0.203267 -0.024665
crooked 0.214557 -0.261439 0.311284 0.730678 -0.270159 0.237207 0.256315 0.283662 0.050684 -0.646476 -0.219786 0.339447 -0.578094 0.270625 -0.152206 0.325555 0.465331 -0.171557 -0.497607 0.291081 -0.020053 0.847473 -0.099462 -0.155632 -0.730700 0.615156 0.206276 -0.176822 -0.474169 0.007445 0.230505 0.354412 0.661977 0.476986 -0.064962 -0.338493 -0.410646 0.127184 0.017027 0.011442 0.234000 -0.154101 -0.180640 0.438895 0.291211 0.147755 -0.738818 0.000567 -0.390739 -0.088498
dirty 0.751267 -0.047438 -0.122230 0.194875 0.291144 0.370876 0.222209 0.092822 -0.109719 -0.149142 0.015412 -0.271561 0.094884 -0.140379 -0.125811 -0.304613 -0.294671 0.255652 0.107669 -0.060266 0.194062 0.014619 0.253287 -0.255829 -0.426048 -0.291826 -0.175449 0.021652 0.048228 -0.020613 -0.533743 0.420560 0.339409 -0.371122 0.008652 -0.206007 0.048175 0.020342 -0.011109 0.161642 0.291067 0.345544 0.182095 0.048598 -0.522801 -0.032780 0.115635 0.417871 0.149772 -0.032784
hope -0.232279 0.166032 0.029225 -0.181463 -0.241761 -0.266080 -0.187028 -0.135938 -0.143317 0.097697 0.039762 0.168277 0.105292 0.020433 -0.042246 -0.061414 0.173843 0.097880 0.049527 -0.224440 -0.084956 -0.101421 -0.020743 0.257723 0.123572 0.043945 0.075338 -0.096464 0.118774 0.054153 0.080096 -0.080149 -0.045560 0.125723 0.013644 -0.025248 -0.115297 -0.069329 0.001816 -0.125387 -0.036439 -0.200601 0.084436 -0.065673 0.067965 -0.152065 -0.088687 -0.249933 0.081842 0.103073
kill -0.037829 0.385484 -0.021291 -0.122758 0.004796 0.218770 -0.198856 -0.132702 0.034197 0.156665 -0.177259 0.022092 0.164897 0.219143 0.075065 0.005654 -0.034624 -0.144173 -0.307671 0.029105 -0.132830 -0.191748 -0.324103 0.484420 0.200060 0.409048 -0.190642 -0.131991 -0.153517 -0.035023 -0.147029 -0.353446 -0.377889 0.269523 -0.035431 0.045032 -0.019541 -0.157517 -0.205192 0.035900 -0.222173 0.095766 -0.063202 0.112960 0.423734 0.024442 0.162587 -0.112811 0.037264 0.053834
people 0.365652 0.170912 0.153741 0.262895 0.370082 0.544017 0.099878 -0.295550 0.034905 -0.056803 -0.406342 -0.039225 0.119380 -0.248190 0.266322 -0.032768 0.268799 0.249266 -0.316908 -0.304362 -0.188780 -0.207985 0.159795 0.128246 -0.046958 0.166005 -0.704913 -0.171233 -0.309138 -0.322622 -0.603930 0.065104 -0.350396 0.237032 -0.013792 0.058983 0.070335 0.051636 -0.161760 0.352278 -0.146906 0.002242 -0.086536 0.360871 0.342527 0.259308 -0.047619 0.018352 -0.171980 0.050202
phone 0.084063 -0.051951 0.231098 -0.915505 0.202338 -0.473205 -0.483767 0.230202 -0.374395 0.033175 -0.370233 -0.454459 -0.058776 -0.615932 -0.025351 0.003198 -0.584495 0.290060 0.181587 0.489971 0.036104 0.001609 0.118303 -0.867662 0.600558 0.050429 -0.120465 -0.224491 -0.103006 0.373723 0.838621 0.035180 0.185493 -0.503559 0.139752 0.131179 -0.793381 0.197084 0.519528 -0.297591 0.444320 -0.271047 -0.026089 0.203683 -0.192161 -0.384713 -0.501487 -0.223251 -0.367061 0.029848
poppin -0.366703 0.109117 0.041396 -0.120693 -0.156256 -0.239287 -0.333796 -0.078126 0.046906 0.148109 -0.083925 -0.025051 0.005712 0.155653 0.184369 -0.011557 0.092362 -0.093535 -0.023085 0.053824 -0.079787 0.026409 -0.290207 0.174085 0.114004 0.200945 0.067754 0.179265 0.021069 0.253300 0.263193 -0.278405 -0.111677 0.133900 0.037466 -0.081247 -0.163825 -0.042990 -0.059638 -0.366675 -0.174572 0.051142 0.048086 -0.089420 0.116444 -0.071684 -0.063263 -0.200815 -0.053258 0.158678
power -0.188278 -0.112386 -0.349060 -0.254118 -0.090086 0.125782 -0.178394 -0.191974 0.116293 0.485771 0.136977 -0.148226 -0.153178 -0.141581 -0.205606 -0.475003 0.191614 -0.200373 -0.096661 -0.064804 -0.265016 -0.064133 0.114085 0.552360 0.088481 0.058244 -0.196069 0.171381 0.164035 -0.087609 0.511238 -0.122261 -0.002764 -0.229596 -0.301102 0.421831 -0.153135 -0.239775 -0.079113 -0.311192 -0.188659 -0.103325 -0.161724 0.182864 0.242223 0.157392 -0.371688 -0.310517 -0.094454 -0.050025
remy 0.122824 0.086516 -0.153367 -0.326872 -0.060768 -0.591344 -0.291082 -0.018381 -0.120814 0.262249 -0.113754 -0.080909 -0.284780 0.040172 -0.109877 0.123556 -0.028038 0.202085 -0.082157 0.164158 0.206220 -0.040770 0.039443 0.095826 0.115740 0.451686 0.176269 -0.286010 0.186646 0.156389 0.603307 -0.034307 0.072316 0.148290 0.066233 0.063354 -0.263049 -0.032866 0.180171 -0.031974 -0.085027 -0.354049 -0.166932 0.172489 0.352790 0.239005 -0.348488 -0.114703 -0.293404 -0.044919
skrrt -0.150734 -0.007803 -0.039390 0.184132 -0.218987 -0.217504 -0.197304 -0.049459 -0.056214 0.358649 0.079728 0.148814 0.149486 -0.162721 0.229899 -0.095033 0.235683 -0.106127 0.226719 -0.478629 0.067413 -0.319707 0.125160 0.119151 0.182048 0.038889 0.110009 -0.088490 0.236608 -0.129196 0.260762 -0.109457 0.313218 -0.458018 -0.132834 0.081761 -0.132309 0.039477 0.129746 -0.378512 -0.253242 -0.248836 -0.168329 -0.307425 0.140234 0.057717 -0.114191 -0.259360 -0.117460 0.135157
smile 0.338438 -0.342880 0.328949 0.800998 -0.310016 0.268712 0.268202 0.380178 0.048018 -0.704302 -0.199098 0.335106 -0.631127 0.312283 -0.179320 0.316840 0.390512 -0.134313 -0.448477 0.397624 -0.027289 0.933134 -0.091911 -0.262726 -0.850988 0.573904 0.296435 -0.125937 -0.487508 -0.035957 0.259102 0.443841 0.811975 0.440682 -0.066329 -0.344282 -0.436810 0.155958 0.049971 -0.011596 0.321537 -0.142583 -0.217464 0.428919 0.203415 0.145697 -0.737039 0.070409 -0.422083 -0.108563
smoke -0.323708 0.072991 0.057040 -0.029751 -0.138566 -0.019899 -0.006914 0.063302 -0.072400 0.013309 0.017780 0.068895 -0.062348 0.117503 0.074039 0.062029 0.073459 -0.116525 -0.178998 0.003631 -0.166849 0.186926 -0.170375 0.290764 -0.031415 -0.009947 0.147501 0.087866 -0.052945 0.027642 0.103471 -0.065053 -0.021505 0.396574 -0.077140 -0.138694 -0.030342 0.008271 -0.009127 0.035712 -0.042045 0.170089 0.098121 0.130469 -0.052154 -0.074310 -0.041371 -0.143699 0.046179 0.113257
stand 0.360476 0.266874 -0.323407 -0.022756 0.318412 0.219673 0.130472 -0.216379 0.029387 0.025798 -0.160618 0.092599 0.384648 -0.314426 -0.290752 -0.622334 0.023304 0.266551 0.077572 -0.237415 0.173871 -0.258588 0.002988 0.037569 -0.140207 -0.251329 0.075977 -0.293577 0.437071 0.060351 -0.174132 0.367324 0.250502 -0.269902 -0.022795 -0.155432 0.316432 0.067500 0.268251 0.312515 0.120547 0.252287 0.167553 0.124777 -0.354620 0.310220 0.049556 0.056234 0.245718 0.134994
thousand 0.314719 0.007758 -0.175035 -0.110097 0.182452 -0.150784 0.259955 0.012575 0.004264 -0.112051 0.348338 -0.009515 0.126817 -0.185477 -0.519729 -0.215735 -0.132803 0.383049 0.261156 -0.350401 0.262022 -0.152351 0.344165 -0.208517 -0.039472 -0.253149 0.550144 -0.089416 0.665370 0.173928 -0.018333 0.288248 0.105399 -0.146215 -0.279627 0.011530 0.368965 0.227867 0.384057 0.012746 0.388264 -0.203233 0.284789 -0.064092 -0.321725 -0.234533 -0.034479 0.331358 0.378204 -0.149880
act -0.132940 0.094635 0.345563 0.215592 -0.242029 0.207417 -0.121543 0.007388 0.113519 -0.278495 -0.321431 0.193608 -0.314545 0.187652 0.147636 0.246736 0.215710 -0.488144 -0.319054 -0.177408 0.018753 0.300786 -0.352467 0.399882 -0.167834 0.485355 -0.387889 -0.025999 -0.435769 0.110320 -0.037571 0.208392 -0.097686 0.204320 0.155466 0.095095 0.029002 -0.124864 -0.014656 -0.141344 -0.174437 -0.302724 -0.217448 0.071630 0.504561 -0.056371 -0.333403 -0.060914 -0.246752 0.130293
black 0.024006 0.017432 -0.097958 0.017006 0.117233 -0.062977 -0.088381 -0.066511 0.037787 0.241895 -0.102830 -0.120939 0.122276 -0.221805 0.119052 -0.118975 -0.023296 -0.007000 0.104814 -0.167578 0.156020 -0.210372 0.192623 -0.034323 0.130159 0.009259 -0.050363 -0.088053 0.067115 -0.118868 0.053911 0.120154 -0.081469 -0.376586 -0.043677 0.271787 -0.064920 -0.064271 -0.042622 -0.093749 -0.196144 -0.186037 -0.153342 0.138673 0.253533 0.229222 -0.206092 0.017349 0.016124 0.081013
