4998 50
like -0.338455 -0.017931 0.057696 0.514238 0.748484 -0.366270 0.819447 0.723116 -0.889332 -0.505171 0.399749 -0.434186 0.584399 -0.400888 1.336274 -1.648170 -0.361047 -2.224609 -0.177889 -1.300584 1.576719 0.288972 -1.389752 0.771398 1.303718 -0.124431 -0.170285 -1.295436 0.004152 0.217488 0.119165 -0.237625 -1.180318 -0.252742 -0.809718 0.154372 -0.195411 -0.820822 -0.544534 -1.109092 -1.144065 -1.143939 -0.082976 -0.335783 -0.443620 0.517307 -0.986401 -0.491025 0.674650 0.566523
got -0.108190 -0.799285 -1.168258 0.196094 -0.701738 0.193953 0.885356 -0.337293 -0.280859 -0.232401 -0.803588 -0.357992 0.247150 -0.916372 -0.686957 -0.401536 0.687077 -2.080089 -0.955748 -1.244573 2.323095 0.267486 -0.508080 0.739133 0.818691 -0.413766 1.252884 -0.689873 0.277978 -0.159062 -0.614888 0.290322 -1.549577 1.903176 -0.405556 -0.507273 0.690793 0.194776 -0.466661 -2.080558 -0.365617 0.129651 0.361144 -0.257800 -0.124175 0.262080 -0.986564 -0.535274 -0.791192 1.279246
know -0.477964 -0.563569 -0.393359 0.595737 0.736841 0.667217 0.518052 0.658805 -1.053601 0.232151 -0.652081 0.204291 -0.331938 -1.072544 0.926657 0.115254 1.550040 -1.632794 -0.955793 -0.246135 1.784346 0.552337 0.622048 1.059778 0.647169 -1.441905 0.018135 -1.050872 -0.314607 -0.143756 0.300197 0.502506 -0.090250 0.452023 -0.076629 0.350377 -0.000421 -0.963523 0.335130 -0.455970 -0.105400 -1.526105 0.619271 -2.254509 -0.709094 -0.370484 -0.807771 0.384240 0.360603 2.491662
yeah -0.785186 0.999729 -0.532880 0.340342 0.441929 0.219611 0.823742 -0.870907 -0.776910 1.421715 -0.734394 0.526683 0.079613 0.974957 0.476245 -1.152796 0.915891 -1.122920 -0.735014 0.779235 1.229017 -0.263202 0.225354 0.908814 0.073418 0.340865 -0.415265 -1.929172 -0.034729 -0.577616 0.248578 -0.068595 -0.993950 0.966320 0.564266 -0.633947 -1.170998 0.018986 -0.468346 -0.171145 -0.785898 -1.017679 0.426729 -0.448907 -0.965025 0.465483 -0.429249 -0.231790 -0.050841 1.344563
nigga -0.640894 0.241645 -0.317798 0.859182 1.080732 0.897265 0.260235 0.218103 -0.902611 1.583769 -0.729600 0.114171 -0.461281 -1.200599 -0.009920 -1.295373 -0.365238 -1.465633 -1.377890 -0.986782 1.053095 0.683757 0.756844 0.658844 0.950412 -1.294274 -0.236143 -1.481803 0.665077 -0.753499 -0.611161 -1.215272 -0.232766 0.138976 -0.830151 -0.441053 -0.536461 1.076963 -0.268153 -0.184426 -0.513845 -0.600300 -0.174163 -0.238972 -0.424979 1.447538 0.270628 -0.396997 -0.661947 1.469767
ai -0.974965 -0.408477 -1.015999 0.990607 -0.213900 0.683506 1.292025 -0.387531 -1.496804 1.304895 -1.073664 -0.715803 0.643776 -0.569855 0.129209 -1.383100 1.868528 -0.865752 0.061600 -0.481479 0.801188 0.456468 -0.160242 1.188776 0.602230 -0.712971 0.917146 -0.576384 0.092976 1.812005 0.276655 0.006348 -0.473880 0.066008 -0.657849 -1.174216 0.215487 0.216105 -0.515889 -1.414855 -0.296716 -0.505852 0.141707 -0.193797 -0.695500 0.612138 -1.539708 0.168583 -0.084040 -0.025855
niggas 0.294451 -0.421425 -0.534730 1.275995 -0.157735 0.336901 0.226429 0.433314 -1.080342 0.415853 -1.364205 -0.469673 0.696185 -1.261215 0.041609 -0.784358 0.436120 -2.212710 0.383342 0.835532 0.236181 0.850764 0.107766 0.891133 0.609508 -0.929784 0.772234 -0.016087 -0.079019 -0.403656 -0.097771 -1.238252 -0.415683 -0.286157 0.253048 -0.498603 -0.204397 0.679438 -0.550001 -1.073750 -0.634307 -0.289721 -0.354541 -0.792942 -0.946648 1.473124 -0.376563 -1.195437 -0.057996 1.238913
shit 0.139974 -0.932283 -0.465342 0.064170 0.351654 -0.206131 0.693804 -0.640155 -1.157445 1.076308 -1.074546 -0.397455 -0.055950 -1.595229 0.150553 -0.210737 0.428858 -1.484199 0.195282 0.408580 1.155805 0.150130 -0.572615 -0.165826 0.244158 -1.049577 -0.484053 -1.877093 -0.847569 1.028012 -0.617440 -0.067379 -0.002801 -0.154963 0.319633 -0.551952 0.749055 0.995510 -0.182093 -0.261144 -0.521893 -1.833169 -0.280307 0.019336 -0.386265 0.996118 -0.586098 -0.685371 -0.029927 0.969563
let -1.831583 -0.761313 0.026610 -0.221497 -0.297090 -0.874178 1.008856 0.679860 0.073044 0.629386 -0.484874 0.076329 -0.164671 -0.693654 0.262069 -0.113268 0.970190 -1.962873 -0.590019 0.906159 0.990698 -0.835643 -0.294144 -0.162060 0.327212 0.094968 0.161868 -1.096234 1.578152 0.169763 -1.320581 -0.915746 -0.506545 -0.077231 0.542068 -0.053982 0.466318 -0.727843 -0.042513 -1.712178 -0.569021 -1.656676 0.322196 -1.362276 -0.222111 -0.246697 -1.302964 -0.913453 0.064599 0.661171
love 0.197721 -0.003672 0.618483 0.067632 1.107298 0.102916 -0.527981 -0.353301 -2.219957 0.214511 -0.652112 0.783108 0.156314 0.677916 -0.106380 -0.291303 0.241655 -1.051984 -1.896451 -0.819007 0.159776 -0.813178 -0.473525 0.518498 1.102310 -0.778046 0.444855 -0.958740 0.704075 0.774256 -0.109304 -0.772039 -1.165154 0.691797 -0.624732 0.382751 0.482883 -0.315242 -0.373095 -1.168187 0.721031 -1.418508 1.192787 -0.695071 -1.894972 -0.456424 -0.684610 0.020857 -0.736838 0.597633
bitch -1.327136 -0.701780 0.013989 0.567187 0.057000 1.115062 1.254369 0.748807 -0.895898 0.663179 -0.808696 -0.022043 0.282364 -0.739685 0.021490 -0.960234 -0.061826 -0.547975 -0.507105 -0.064021 2.117371 -0.478613 -0.897957 0.075025 0.911930 -1.521927 0.863297 -1.531494 0.155268 0.421924 0.268340 0.393118 0.342175 0.075868 0.310979 -0.238425 -0.250727 1.660095 -0.062006 -1.469674 0.418413 -0.703982 0.619649 0.385750 -0.043042 -0.582034 0.510863 -1.013443 1.192375 0.425977
oh -0.480531 0.833756 0.620029 0.089742 0.383958 -0.310149 1.780280 0.721968 -1.311715 -0.764260 -1.870915 -1.516367 0.582223 1.311915 0.641138 0.243617 0.812043 -0.189968 -0.574110 0.821146 1.187780 -0.810824 1.128988 0.469753 0.989095 0.114754 0.122704 -1.516083 -1.199743 -0.883194 -0.495993 -0.236918 -0.619616 1.019868 1.110253 0.191197 0.567722 -0.350207 -0.870039 -0.161091 0.066948 -0.779330 0.862838 -0.218306 -1.097148 0.110934 0.152950 0.020197 -0.620840 0.777445
baby 0.058942 -1.336099 0.836728 0.743061 -0.543099 -0.621208 1.768451 0.637028 -0.403811 0.210825 -1.438368 1.033265 -0.097618 -0.073099 0.138661 -0.339437 1.517901 -1.390430 -0.367199 -0.381931 0.296851 -0.582949 -1.213866 -0.411906 0.161286 -0.181529 -0.142630 -1.279986 0.709263 0.020351 0.526330 -0.224967 0.185185 0.589263 -0.597178 0.551541 -0.503955 -0.255131 0.220006 0.150736 -0.046757 -0.469742 0.240624 0.016707 -1.384521 -0.028121 -0.245618 -0.209466 -1.276532 1.768291
ya -1.196176 -0.648031 0.240410 -0.119979 0.251817 -0.694629 1.376614 0.577727 -0.188301 0.042065 -0.367958 0.616222 -0.067275 -0.941503 0.369764 -0.639325 0.776934 -2.171815 -0.477028 0.630160 1.341935 -0.521525 -0.205974 0.486925 0.693881 -0.751351 1.198087 -0.551328 0.714750 0.298813 0.047618 -0.853276 -1.029230 0.651169 0.573004 -0.533172 -0.143337 -0.819091 0.243089 -0.198186 1.303121 -2.008121 -0.753177 -0.076600 -0.635617 0.793714 -0.959290 0.826981 -0.493233 0.027419
fuck -0.937160 -0.463969 0.025027 0.860818 0.626830 0.224751 1.318182 0.159388 -1.149000 -0.085250 -1.385622 1.146370 0.432739 -1.150286 0.267139 -0.094243 -0.423499 -1.279243 -0.063660 -0.032756 1.082694 0.948873 0.249319 0.547059 -0.128149 -0.877309 0.037809 -2.287325 0.157381 0.526571 -0.382579 -0.593481 -0.032447 0.569745 -0.013140 -0.281400 0.024923 0.863415 -1.098259 -0.986550 -0.057316 -1.115877 -1.178711 -0.437961 0.516628 0.661002 -0.413532 0.160065 0.076308 0.015532
man -0.936779 0.038234 -0.314697 -0.122100 -0.030839 1.017061 0.755425 0.514527 -0.491441 -0.537758 -0.350446 0.296836 -0.069817 -0.966854 -0.479265 -0.313206 0.592248 -1.277685 -1.306399 0.209302 1.698330 0.046567 -1.058953 0.480033 0.116095 -0.232565 -1.308260 -0.947487 -1.312829 0.704129 -0.263212 -0.216619 0.083047 0.338008 0.330303 -0.569706 0.698213 0.455374 -1.911921 -1.338669 1.223263 -0.939266 1.001379 -0.164039 -0.623597 0.716662 -1.259841 -0.721402 0.176035 1.050241
wanna -0.548517 0.481937 -0.182147 -0.635428 -0.284669 0.287686 2.001933 0.510591 -0.707565 0.516825 -0.167486 0.955875 0.697381 0.455923 0.840904 0.727263 0.397420 -2.511518 -0.195582 -0.145373 0.708658 -0.330467 -0.095906 0.813114 1.513216 -0.743127 1.084150 -1.517010 -0.040622 -0.126942 0.652901 -0.260775 0.713575 0.304520 -0.112113 2.080541 0.606206 0.151335 -0.142069 -0.353125 -0.371470 -0.736452 -0.483617 -0.074684 -1.838210 0.698871 -1.221079 -0.484043 -0.828857 0.261706
girl -1.286549 -0.049205 0.649682 1.075639 -0.147157 -0.702690 1.052740 1.059663 -0.655478 0.171294 -0.881007 -0.604601 0.045774 -0.422323 -0.638227 -0.153164 0.993177 -0.752667 -0.804615 -0.587651 1.014669 0.767040 -1.053445 0.896674 -0.049310 0.085564 0.174715 -2.007082 -0.007728 1.021590 0.229964 -0.727556 -0.445837 0.277401 0.192442 1.326469 0.355437 -1.179917 -0.077174 -0.479398 -0.112916 -0.657123 0.354038 -0.013656 -0.525923 -1.468552 -0.659291 -0.024133 -1.035222 1.036383
want -0.622409 -0.160565 -0.459286 -0.294386 1.014890 -0.758030 -0.262910 1.294080 -0.689657 0.390130 -1.130344 0.879534 1.834629 -1.561746 -0.694552 -0.281525 0.753201 -0.545838 -1.057224 -0.989336 1.513444 -0.516253 0.417710 1.249523 0.207659 -0.235306 0.878397 -1.535023 -0.297291 -0.078441 0.639640 -0.175743 -0.679475 0.419657 0.683472 0.477328 -0.775744 0.238977 -0.535028 0.044950 0.425314 -0.676846 -0.630513 -0.094490 -1.477167 0.535780 -0.645462 -0.716588 -0.141960 1.290532
gon -0.672075 0.422755 -0.237252 0.926568 -0.231932 0.340840 0.647468 0.433516 -0.862499 -0.591925 -0.368805 0.501950 -0.350820 -1.264772 -0.021506 -0.222314 -0.017708 -1.254579 -0.460375 -0.301145 -0.185313 -0.808539 0.423705 0.581945 1.546082 -0.456917 0.228175 -2.176560 0.504821 0.958337 -0.480679 0.224054 -0.028297 0.087840 0.273814 -1.421116 -0.497651 -0.164065 0.294271 -1.088802 -0.082261 -0.826167 0.282302 -0.869405 -1.162238 0.166296 -1.760931 0.291176 -0.618334 0.957475
right -0.282391 -0.219370 0.134030 0.884967 0.366811 0.080952 1.747616 0.977801 -1.662615 0.137538 -0.222169 0.058017 0.824521 -0.243107 1.303790 -0.258897 0.652541 -1.520038 -1.224918 0.392873 1.797922 0.258756 -0.139196 -0.249548 -0.119794 0.345981 0.411952 -0.474617 0.338573 0.579602 -0.172071 -0.260101 -1.331242 -0.867415 0.446056 -0.079461 -0.214465 0.830452 -0.036133 0.364383 0.175114 0.155905 0.289229 -1.319040 -0.534202 0.540551 -1.260632 0.209324 -1.385239 0.752301
money -0.063493 -0.154674 -0.283783 0.779561 1.092556 0.821022 1.405344 0.890568 -0.899393 0.555270 -0.806516 0.655324 0.522979 -0.550763 0.860917 0.117685 0.163914 -0.871768 -1.106415 -0.472101 -0.193080 0.037622 -0.893772 0.208908 0.692974 -0.673122 -0.147318 0.207848 -0.867554 -0.454493 -0.512117 0.324497 -0.823330 0.759765 0.159293 -0.247208 -0.416308 0.207998 -0.552926 -2.521815 0.007716 -0.476473 0.395359 0.281538 0.611636 0.392753 -0.758188 -1.513252 -0.503587 1.186913
yo -0.070054 0.395896 0.642231 0.978297 -0.311166 -1.255030 0.618993 0.047779 0.326082 0.955003 -1.322944 -0.379155 -0.225385 -0.985229 -0.326512 -0.870520 0.039163 -0.710620 -1.165753 1.183289 1.110172 -0.138453 -0.468960 0.041890 1.902685 0.338834 -0.087622 -0.868395 -0.257139 0.029395 0.753813 -0.345189 -0.035048 -0.344422 -0.431283 0.014537 -0.226098 0.602247 -1.376500 -0.888981 0.858515 -0.197875 -0.725488 -0.284846 -0.515953 -0.175288 -0.542300 -0.064465 -0.793808 1.357546
uh 0.684762 0.946369 -0.017801 -0.191570 -0.117599 -0.749968 0.867039 -1.057834 -0.770712 0.073387 -1.826446 -0.408366 0.483223 -0.398862 0.559225 0.069741 -0.070459 -0.768583 0.191264 0.560221 1.100289 -1.416754 -0.204823 0.969931 0.069993 1.306559 0.761500 -1.853298 0.017404 0.957744 -0.906725 -0.129931 -0.867443 -0.196814 -0.469968 0.877815 -1.020589 -0.887597 -0.217907 -0.785527 1.164087 -0.913785 0.343022 -0.648494 0.126580 0.689060 -0.641792 -0.657153 -0.457217 1.622857
time -0.470433 0.140477 0.137953 -0.180008 0.340190 0.334249 1.445703 0.441985 -0.191965 0.822698 -1.320685 0.675998 0.000848 -0.069868 -0.225647 -1.333372 1.267862 -0.681004 -1.456315 -1.078145 0.472207 -0.260051 -0.944005 0.721737 0.386702 -0.656335 0.382248 -0.743160 0.316937 -0.295980 -1.544732 -0.277230 0.084517 -0.784201 0.532591 0.666148 0.382101 -0.093363 -0.443825 -0.500624 -2.173603 -0.992793 0.026653 -0.923580 -0.466600 0.339863 -0.955588 -0.383913 -1.053835 0.494339
come -1.333629 0.094004 0.338067 -0.576164 0.081322 0.341027 1.695523 0.405929 -0.475200 -0.407704 -1.538009 0.349204 0.462640 -1.148143 0.298942 0.191607 0.252519 -0.980521 -0.720669 -0.585661 0.284538 -0.526679 -0.574824 0.365225 0.326256 0.568336 0.484164 -1.266747 0.374516 0.042241 -0.520169 0.116334 -0.249895 -1.019547 -1.141225 -0.629920 0.020713 -0.243948 0.563256 -0.159742 0.207788 -1.287631 -0.484527 -0.045697 -0.695220 1.214487 -0.211140 -0.530119 -0.298961 1.710161
cause -0.149279 -0.113129 -0.339305 0.087731 0.095468 -0.183977 1.113622 -0.435405 -0.837291 -0.297880 -0.428938 0.687120 0.414695 -1.056456 0.236952 -0.651029 1.021672 -1.691012 -0.622372 -0.664527 0.444999 0.397699 -0.315824 -0.116528 1.104659 -0.587400 0.940428 0.023672 -0.096891 0.939159 0.215963 -0.077137 -1.132196 -0.068883 -0.050652 -0.287290 0.224589 0.256616 -1.195295 -0.763852 -0.789224 -0.973661 -0.200269 0.035362 -1.167002 -0.265290 -0.016063 0.230242 -0.136119 0.697900
ass -1.479801 0.195959 -0.211979 0.629495 0.371583 -0.247869 0.959069 -0.138469 -1.133829 0.858931 -0.326284 -0.663481 -0.406387 -1.227592 -0.100599 -1.054236 0.689448 -1.092091 -0.465596 0.133914 0.895669 -0.619675 -0.727839 0.385928 0.907442 -1.885531 0.318481 0.310399 -0.123013 0.092149 0.139034 -1.496430 -0.883802 -0.618774 1.045306 0.117052 -0.777967 0.275266 -0.523178 -0.778551 0.226647 -0.845874 -1.162934 0.284128 -0.552081 -0.389819 -0.331302 -0.588622 -0.189272 0.776061
need -0.612193 -0.413279 0.680720 0.223965 -0.966542 -0.203807 0.492110 -0.514307 -0.675368 -0.929900 -0.107189 0.506719 -0.125031 -0.527572 -0.078558 -0.503317 1.240503 -1.544813 -2.600307 -1.074737 0.080388 -0.828971 0.067737 0.069591 0.164345 -1.056220 0.271848 -0.891007 -1.008060 -0.046430 0.374613 0.014154 -0.996652 -0.346474 0.383490 -0.514187 0.263007 0.150269 -1.096526 -0.327159 -0.516912 -0.299154 -0.515922 -1.778697 -0.337996 0.681628 -0.446749 -0.178107 -0.863133 0.809893
tell -0.177265 -0.760309 0.048459 0.177171 0.279803 0.278027 0.043829 0.491019 -0.689754 -0.418027 -0.148422 0.039579 0.062009 0.175400 -0.114712 -0.297042 1.195773 -1.944024 -0.812430 0.747338 -0.057779 0.505220 -0.076957 -0.836874 0.792287 -0.214270 1.115419 -1.548301 -0.133460 0.107349 -0.505158 -0.640363 -0.811115 0.883952 -0.576358 1.301231 -0.362453 -0.514874 -1.177863 -0.832546 -0.051704 -0.791281 -1.352263 -0.882181 -0.740714 0.076447 -0.727239 -1.131825 -0.244241 0.720759
ta -0.237536 -0.434534 -1.900235 0.531400 -0.566947 0.198726 0.815526 0.076559 -0.266757 -0.781745 -0.888501 -0.146785 0.347574 -0.569586 -0.274682 -0.497187 0.971807 -1.563260 -1.271567 -0.566351 1.159495 -0.227329 -0.342556 0.209635 1.026768 -0.330286 0.810082 -0.548505 0.184170 -0.105217 -0.332869 -0.140800 0.270027 1.644577 0.306192 -0.365550 0.400511 -0.235561 -0.243157 -0.627743 -0.392560 -0.395754 -0.053255 0.356201 -1.225710 0.473561 -1.172190 -0.315504 -0.613940 0.434991
way 0.210770 -1.179698 0.345380 1.191093 0.297095 -0.979581 1.668882 0.392575 -1.658502 0.580345 0.185573 -0.162731 0.163883 -0.998185 0.490719 -1.082604 0.230827 -0.034230 -1.159639 0.034499 0.835585 -0.265127 -0.142949 0.144885 0.298124 -0.135918 0.767637 -0.797876 0.349276 -0.322056 0.358997 0.385720 -0.153223 0.086001 0.408738 0.463346 0.254629 0.501591 -0.158640 -1.176890 0.214189 -1.118327 -0.161790 -1.762744 -1.215248 -0.400169 -0.717313 -0.795524 0.330808 -0.164355
lyrics -0.582349 0.047766 0.412866 0.636518 0.144818 -0.349400 0.472431 0.284922 -0.624351 0.144034 -1.217776 0.246450 0.607056 0.110073 0.607559 -0.814744 0.736727 -1.238016 -0.947518 0.665590 0.868424 -0.668399 -0.091750 -0.234521 0.480238 0.260037 -0.506500 -1.118742 0.155802 -0.265828 -0.205075 0.267424 -0.690392 0.553592 -0.644443 0.157394 -0.228355 0.077991 -0.551558 -0.388346 -0.093093 -0.790417 0.751644 -0.450527 -0.406687 0.247855 -0.344162 -1.070195 -0.070046 0.384389
big -1.229306 0.317804 0.063065 0.844034 -0.583381 0.613214 0.991688 -1.209515 -0.956620 0.228662 -0.419781 0.461252 -0.604386 -1.374444 0.009075 -0.413808 0.688309 -0.601351 0.321590 -0.240042 1.120185 -0.637853 -0.361422 -0.021479 1.017887 0.481287 0.201542 0.187972 -0.875493 -0.800376 1.381572 -1.403329 -0.697115 0.456423 0.013837 0.649119 -0.159450 0.312997 -0.704745 -1.045715 0.394639 -1.051175 1.273478 -0.928146 0.841776 1.332361 -0.653546 -0.250552 -0.917996 0.165911
think 0.115768 -0.644364 -0.286359 0.106177 0.039252 -0.181992 0.562623 -0.433559 -0.908862 -0.165120 -1.401694 1.167606 -0.294770 -0.403804 0.686423 -1.142060 0.908048 -0.524825 -1.321981 -0.860285 0.320347 -0.147533 -0.268954 1.030835 -0.255455 0.010803 -0.576546 -0.823355 -0.567310 0.509559 0.499675 -1.490943 0.882649 0.472754 0.279214 0.204671 -0.409664 0.471141 0.110980 -0.872961 0.547577 -0.423904 0.369967 -1.445162 -1.159528 0.017495 -0.831794 -0.777581 -0.395110 0.004861
look -0.286674 -0.974027 -0.753322 1.228903 1.257986 -0.844435 0.732107 0.154197 -1.291985 -0.444572 -0.381172 0.010798 -0.567240 0.371223 1.183276 -0.105686 -0.701026 -0.877471 -1.035963 0.418144 0.890869 -0.501629 -0.249245 0.611887 0.331087 -0.867013 0.293592 -0.333584 -0.407481 0.742211 -0.217981 -0.413641 -0.840327 0.767566 0.687179 0.206771 0.096948 0.475146 -0.600249 -1.107253 0.247148 -1.069582 -0.322143 0.373910 -0.099766 0.671214 -0.084154 0.328299 -0.238557 1.188180
hit -0.888060 0.074553 -0.436250 -0.145638 0.260029 -0.199075 0.789728 0.505573 -0.401398 -0.035152 -0.176139 -0.672915 -0.168567 -1.367422 0.557403 0.732604 0.854703 -0.093886 -0.943385 0.042566 1.012210 0.324309 0.271907 0.909088 0.395334 -1.023963 0.444551 -1.671899 0.074185 -0.406074 -0.330038 -1.758029 -0.925583 0.274003 -0.219693 -0.736083 0.554919 0.389707 0.422937 -0.909370 -0.905533 -0.714221 0.473076 0.114503 -0.048369 -0.009934 -0.840501 0.035028 -0.210164 0.276376
good -0.138517 0.335995 -1.002901 0.203318 0.152995 -0.271292 1.292022 0.096552 -1.204141 -0.077841 -0.369771 -0.844099 0.360947 -0.996020 0.780938 -0.440724 -0.735777 -0.581510 -1.156964 -0.332623 0.352923 -0.039144 1.150382 -0.515986 0.012941 -0.326818 0.522653 -0.765286 0.667938 1.135502 0.939493 0.043665 -0.349814 0.741789 0.715248 -0.181737 -0.589759 -1.016802 -1.170928 -0.380696 -0.808108 -1.490201 0.117176 -0.661668 -0.160897 -0.386246 -0.507075 -1.573840 -1.137334 1.277507
hot 0.670567 0.721570 1.078570 1.043346 -0.485148 0.154263 -1.018264 -0.417893 -0.358302 -0.214990 -0.299045 -0.501554 1.131183 -1.867389 1.476079 0.189221 2.041034 -0.565066 -0.814975 0.610959 1.270672 -0.982687 0.499519 0.981620 0.176099 0.263006 0.332881 -1.305588 0.261021 0.852182 0.060168 0.039535 -0.690685 -0.308848 -0.855166 1.209957 -0.394521 0.753170 -0.573083 -0.735697 -0.561117 -0.974319 0.230882 1.060919 -0.085520 0.426269 0.875583 -0.830430 -0.420122 0.679638
real 0.120792 -0.256286 -0.255748 0.732438 0.147664 0.309618 0.647168 0.788786 -1.013658 -0.103900 -0.125833 -0.706213 -0.035904 -0.635827 -0.643948 -0.525078 0.095990 -0.987587 -0.300065 0.493105 -0.479970 0.704927 -0.746697 -0.347171 -0.593597 -0.390311 0.401901 -1.512327 -0.052052 0.177292 0.008998 -1.516309 -0.175538 0.085728 -0.268243 -0.809519 -0.703664 0.445512 -0.333167 -0.713214 -0.040086 -1.456009 0.733167 -0.873778 -0.413098 1.416720 -0.205514 -0.441569 -1.129228 1.462521
said -1.241196 -0.562244 -1.229689 0.306819 0.289409 -0.552265 0.543408 0.022109 -0.294933 0.129889 -0.435422 0.997987 0.095945 -0.474933 1.275976 0.538235 1.001420 -0.814089 -0.924679 -1.180874 0.813210 -0.195513 0.708711 0.195912 -0.470797 0.363454 0.909369 -1.054839 0.000686 0.832198 0.416373 -0.477591 -0.725771 0.481319 0.151564 0.299921 -0.404115 0.508160 -1.593936 -0.973436 0.406230 -0.561312 -0.596590 0.226048 -1.140024 0.231004 0.352760 -0.335859 0.567073 0.789802
life -0.487046 -0.810092 0.190358 0.487371 0.352820 -0.124851 1.106067 -0.485297 -0.873186 -0.202726 -0.275804 1.566486 -0.033711 0.005195 0.517328 -0.867226 -0.002266 -0.571582 -0.432927 0.248094 0.504685 1.137453 0.106014 -0.431957 0.492134 0.753537 0.420846 -0.757573 -0.628312 0.715178 -0.114158 -0.827219 -0.621469 -0.157048 1.152116 -0.668525 0.446205 -0.305478 -0.236330 -1.302703 -1.539599 0.070630 0.074937 -0.302645 -1.219075 0.362031 -0.091178 -0.327997 -1.440878 0.996885
feel -0.165079 -0.668659 0.016256 0.709373 -0.093143 0.628942 0.777444 0.112033 -0.739395 0.443490 -0.462465 -1.195992 -0.153167 0.609312 0.647122 0.073554 -0.310309 -1.050822 -0.848229 -1.223400 0.274638 -0.222032 0.252535 -0.148905 1.831290 0.720977 0.912878 -1.835516 0.741332 0.485547 0.709693 -0.691232 0.077096 0.145464 0.862269 -0.448105 0.048523 -0.771897 -0.557426 -0.439396 -0.399765 -1.432771 1.149595 -0.932306 -0.450586 0.930924 -0.550308 -1.213820 -0.022951 0.105587
la -0.174990 -0.217462 0.059615 0.915089 1.207820 -2.109768 0.574152 -0.726492 0.037100 0.004358 -0.871620 -0.525625 0.772811 1.183666 -0.193559 0.058249 0.507272 -0.804474 -0.913688 0.853415 -1.418522 0.910532 0.060703 -0.128032 0.383335 0.906331 -1.221029 -1.014515 -1.145290 -0.904298 1.332709 0.421468 1.374506 0.023174 -0.934356 0.247893 -0.414422 -0.477449 0.058095 -0.645286 0.275664 0.479400 0.159415 0.187379 1.274348 -0.442925 -2.118682 0.150151 0.275455 0.970904
hey -1.470990 -0.102186 0.095057 -0.047072 1.020449 0.281376 1.114798 -0.160574 -0.501280 -0.594973 -1.486728 0.054383 0.762991 -1.110735 0.328730 -0.552548 0.992504 0.197639 -0.420988 0.152871 0.085460 0.287321 -0.224649 0.140103 0.419605 2.054899 0.081121 -1.850925 -0.679129 -0.415746 0.747579 0.288013 -0.910553 0.959224 0.478759 0.663424 -0.148169 0.735140 -0.096098 -0.497926 -0.158837 -1.236537 -0.054826 -0.347321 0.993051 -0.764869 -1.074204 0.008504 -0.297124 0.418289
boy 0.700481 0.997604 0.690265 0.587714 0.471018 -0.032641 0.586981 -0.380282 -0.258472 -1.337668 -0.718786 0.062098 -0.972261 -1.109994 0.715767 -0.437160 0.999323 -0.406105 -0.999740 0.477652 -0.051882 0.154408 -0.512167 0.761273 0.212516 -0.275457 0.726696 -0.478133 1.086316 0.216978 0.154976 0.307047 -0.939972 0.310581 0.698714 0.924569 -0.090916 1.013904 -0.590239 -0.495244 0.481990 -0.914241 1.001117 0.682885 -1.311275 1.230489 0.017008 -0.716923 -0.049146 1.458843
bitches -0.072435 0.062563 0.470923 -0.028633 0.463185 1.486257 0.438069 0.176163 -1.442584 1.113982 -0.416923 0.583525 0.555517 -0.879119 -0.045305 0.181585 -0.847424 -0.594093 -1.012186 1.076876 -0.046170 -0.394997 -0.460391 0.155365 0.068933 -1.116141 1.418606 -1.039202 -0.776391 -0.641415 0.119478 -0.223540 -1.052681 -0.187797 0.432929 -0.081327 -1.117576 0.007745 -0.161187 -1.619055 -0.188080 -1.011717 -0.436994 0.283511 -0.798730 -0.483054 -0.366663 -0.682383 -0.267342 0.262634
hoes -0.197941 0.644787 -0.530580 1.356257 -0.334555 0.678697 -0.125688 0.131401 -0.305631 0.445291 -0.534877 1.288581 0.753225 -0.588179 -0.299542 0.925174 1.626577 0.053718 -0.485240 -0.447655 0.877516 -0.613706 0.687638 1.550385 -0.604200 -0.909081 -0.174612 -0.617491 -0.258317 0.746045 0.534579 -0.287611 -1.276255 0.374817 -0.412417 0.503144 -1.064614 0.855389 -0.231391 -1.567151 -0.321260 -0.804799 -0.476109 -0.431879 -0.680338 0.629667 0.192162 -1.171958 -0.224209 -0.203258
head 0.350962 -0.059260 0.497631 1.440422 -0.947699 0.064596 0.700424 1.049828 -0.719482 1.055414 -1.209455 0.621900 -0.385634 -0.411114 0.838477 0.089776 -0.704973 -0.175713 -1.421183 -0.622787 1.426142 -0.201184 0.366602 -0.420391 1.075490 0.148481 0.464509 -0.532749 0.272544 0.754637 0.285438 -1.914262 -1.606164 0.437944 0.689512 -0.364940 0.938637 0.774965 0.668905 0.415826 0.420453 -0.731261 -0.655728 -0.041339 0.228095 0.407213 -1.208239 -0.175436 -0.178844 0.591368
ooh -0.641180 -0.580511 -0.555081 0.430433 -0.401238 -0.608613 -0.449311 -0.106843 -1.642047 -0.932031 -0.903121 -0.392927 0.286067 0.992335 1.002596 -0.642869 0.833054 -1.077550 -0.328479 -0.026473 0.021449 -0.954550 -1.100153 1.323929 -0.398011 1.539918 -0.220619 -0.750059 0.564554 -1.335507 0.259308 0.205483 -1.131343 1.177564 0.760246 -0.454837 0.277269 0.227580 0.745749 0.719119 0.470218 -0.267650 1.236717 0.361992 -0.963348 -0.353406 -1.031738 -0.608473 0.860993 0.648588
na -0.978275 0.547338 0.047566 0.546959 0.235167 -0.364541 0.247218 0.395144 -0.997779 -0.895342 -0.097813 1.109812 0.239491 -0.742835 -0.172381 -0.128589 0.375449 -0.129127 0.115292 0.267473 -0.761965 -1.434058 0.294181 0.207807 2.391006 -0.456392 -0.233402 -2.413178 0.547244 0.281297 -0.050549 0.351009 0.141959 0.133945 0.507477 -1.369335 -0.152534 -0.381171 -0.761170 -0.618365 -0.017867 -0.654240 0.625687 -0.052321 -0.752830 0.189834 -1.686665 0.660604 -0.882825 0.675606
ride -0.606486 0.592698 -0.851401 0.501413 -1.243817 0.226079 0.709756 0.883865 0.200577 0.898110 -0.159317 0.522847 1.170543 -0.289504 0.255624 -0.503447 0.261021 -1.464367 0.120359 -0.153246 -0.128440 -0.389294 1.444734 0.049508 0.401716 0.284999 0.387031 0.037461 0.622190 -0.929068 0.518910 0.156025 -0.287226 -0.878148 0.399632 1.053732 1.112484 -0.386061 0.288403 -1.746883 0.332252 -1.081462 0.269480 -0.369212 -0.916232 -0.292062 -0.055692 0.178310 -0.240942 1.739460
rock 0.458427 0.983188 1.487535 -0.419457 -1.496311 -0.987377 0.507792 0.425459 -1.212269 -0.021557 0.739369 0.163699 -0.051903 -0.636998 2.486486 -0.385577 0.277843 -0.686353 0.457750 0.059174 0.142949 -0.170025 -1.043645 0.546036 0.587372 0.079310 0.036184 -1.450718 0.451172 -0.170870 -0.333652 0.067112 -0.080176 1.854484 -0.429222 -0.180376 0.384717 -0.178678 -0.068860 -1.174887 -0.602717 -0.573079 0.447819 -0.072495 -0.978354 0.126483 -0.292480 0.053801 0.776004 0.518141
better -0.599411 0.634381 0.181182 0.028797 -0.884192 -0.370998 1.121282 0.614903 -1.262559 -0.282716 -0.645894 0.531221 -0.330969 -0.039588 -0.291916 -0.735370 0.315230 -0.999198 -0.149867 0.846673 0.178298 -0.540346 0.800356 0.613767 0.972543 -0.632886 0.429585 -0.060000 -0.879096 1.493893 -0.594526 -0.531961 0.123867 0.045442 -0.892624 -0.595750 0.202128 1.065801 -0.037844 0.176675 -0.932812 -0.732124 -0.088782 -1.391809 -0.774914 0.211028 -0.312849 -1.073946 0.327823 0.840721
night 0.154783 -0.362516 0.836595 -0.646311 -0.317052 -0.304026 1.395592 0.767341 -0.971395 -0.153237 -1.199346 -0.050546 0.769289 1.035411 1.157573 -0.315661 0.960586 -0.806151 -0.360263 -0.471807 0.050151 0.182555 1.237140 -0.684637 -0.012166 0.293465 -0.073622 -1.413025 -0.141899 0.245069 0.006825 -0.959191 -0.695023 -0.180003 0.857389 -0.183432 0.472237 1.086749 -0.270302 -0.480366 -0.734457 0.090469 0.224978 0.389850 -0.218138 -0.552085 -1.125719 -0.715465 -0.054717 1.083374
new -0.216695 -0.831413 0.287014 0.404496 0.783690 0.325364 1.582096 -1.290275 -0.184170 -0.327491 0.166010 -0.262376 0.104009 -1.109670 -1.126121 -0.086003 -0.164513 -0.923504 -0.791584 0.182169 1.271257 -0.577471 0.663045 0.674254 0.518433 0.294495 -0.480812 -0.719719 0.411778 0.394219 -0.400210 -0.169323 -1.503587 0.234896 -0.089421 0.033138 -0.084270 -0.599980 1.048752 -1.151020 -1.094144 -0.621370 0.641877 0.175753 -0.286061 1.376670 0.240727 -0.411259 0.673639 0.906636
mind -0.189420 0.766435 0.042631 1.697396 0.947599 0.072211 1.062717 1.034941 -0.148107 -0.443164 -0.894852 0.438302 0.873590 0.501132 -0.324547 -0.034972 1.412703 -0.423514 -1.251131 -1.397493 -0.083716 -0.096356 -0.768362 -0.766983 0.638669 0.083974 -0.508668 0.323551 0.471966 0.608685 -0.933163 -0.221143 0.077361 0.356324 0.506424 0.018931 -0.452286 0.254881 0.161311 -1.415019 -0.708227 -1.366022 -0.052839 -1.424421 0.194545 0.371399 -0.779683 -0.729059 -0.693833 0.110067
day 0.521074 0.496676 0.014392 -0.104693 0.893259 -1.003579 0.401965 -0.400405 -0.951509 -0.541169 -0.976201 0.388506 1.306890 -0.035335 0.163865 -0.462277 0.456490 0.254670 -0.481484 -0.287894 0.384333 0.375971 0.777064 0.347487 0.077663 -0.454241 0.273583 -1.195360 0.158944 -0.042952 -0.333140 -0.969434 -0.193237 -0.723694 0.189412 -0.132548 0.103290 -0.074644 0.650099 -2.217422 -1.519533 0.492253 -0.216644 -0.864961 -0.838041 -0.525185 -1.382125 -0.790460 0.356134 1.220285
drop -0.364860 0.378010 0.487682 1.707093 0.625979 0.201911 1.006441 0.897907 0.118655 -0.161712 1.164458 -1.441928 1.004424 -0.162613 -0.215490 0.519708 1.013468 -0.785020 0.121853 0.651248 0.982356 -1.065283 -1.127638 1.274386 0.150938 0.255277 -0.047056 -1.422851 0.498740 -0.048043 0.400053 -1.124782 -1.275786 -0.076047 -0.521310 -0.057276 0.913364 1.057967 -0.446208 -0.612990 -1.190107 -0.728366 -0.236324 0.450947 -0.470815 -0.075241 0.563878 -0.162690 -0.686566 0.808276
high 0.118250 -0.058449 0.498038 0.523559 0.341640 -0.143541 0.881268 -0.093108 -0.878532 -0.942587 -0.903403 0.848195 2.132437 0.402519 -0.143385 -1.079478 0.045971 -1.896066 -1.414896 0.117396 -0.056913 -0.754797 0.471492 -0.171540 0.030815 -0.779603 -0.340391 0.113914 0.450375 -0.415610 0.254284 -1.295188 0.198635 -0.248183 0.925736 0.144053 1.513685 0.461409 0.745725 -0.585083 -1.363172 -0.839873 1.446020 0.028564 1.276163 -0.386427 -0.767805 -0.278883 0.468046 0.689886
pussy -0.264775 0.913831 -0.480964 1.224152 1.106224 1.188358 0.619582 0.166404 -0.214849 -0.244478 -1.133470 -0.306666 0.543531 -1.014421 0.846217 -1.031790 -0.012183 -0.880523 -0.181728 -0.287412 0.020619 -0.612932 -1.277163 -0.841157 0.610306 -0.655602 0.405769 -1.092746 0.632617 0.346310 0.040922 -0.846328 -0.906628 1.145670 0.397474 0.424005 -0.480036 0.445122 -0.338904 0.267229 0.706947 -0.214374 -1.671074 -0.986331 -0.265281 -0.979020 -0.794995 -0.716282 0.738803 0.148306
stay -0.335943 0.016540 -0.035440 0.573060 -0.303173 0.219376 -0.053061 0.217806 -2.273905 -1.331623 -1.439106 0.592560 1.170396 -0.479371 -0.808425 -0.944348 0.378017 -0.912045 -0.275085 0.169257 0.923664 0.009885 0.632460 0.179398 0.020171 -0.787194 0.162244 1.242000 0.430392 -0.414253 -0.090830 -1.243119 -0.080399 1.058720 -1.095603 0.323616 0.429463 -0.030399 -0.275504 -0.447156 -0.817261 -1.807184 0.349625 -0.954708 -0.089651 0.374461 -0.117910 0.194485 0.417500 0.999009
huh 0.155302 1.274154 -0.363480 1.402177 -0.873257 -0.519590 0.318443 -0.826880 -1.237949 0.380606 -1.703014 -0.924892 0.652798 -0.497247 0.225184 0.047556 0.792205 -0.625630 -0.422751 0.293892 0.090017 -0.399457 -0.664292 1.113758 -0.120271 0.867842 0.508949 -1.009506 0.004585 0.231192 -1.099553 -1.124134 -0.378555 0.267081 0.515990 0.933293 -0.900637 -0.705567 0.396639 0.022376 0.899677 -0.993070 -0.213288 -0.048587 0.377364 0.125621 0.283003 -0.943454 0.220367 1.125429
watch -0.297377 0.901861 0.780300 1.818202 0.310044 -0.563263 1.361131 -0.677124 -0.117435 -0.876032 -0.054820 0.842035 -0.656054 0.249784 -0.165223 -1.045621 0.715599 -0.058654 -0.828134 0.638337 0.460211 0.196004 -0.844793 0.982043 0.294712 -1.164542 0.775370 -0.568496 1.440151 -0.101393 0.273436 -0.369406 -0.128515 0.206763 0.445107 0.234387 0.541181 1.094424 -0.078425 -0.281514 0.297790 -0.322394 -0.770799 0.430570 0.201675 1.076995 -0.820881 -0.926333 0.617602 0.837510
stop -0.843934 0.451252 0.105072 1.458415 -0.257377 0.244439 0.335706 0.444576 -0.286111 0.486852 -0.200142 -0.109263 0.371165 -1.508079 0.426856 0.333085 0.613092 -0.012094 -0.426339 0.073465 0.357336 -0.667226 -1.914688 -0.483188 0.810411 -0.091671 0.334283 -1.234494 -1.325833 0.037590 0.184605 -0.765310 -0.672189 -0.475496 -0.252104 -0.202407 1.277587 0.631196 0.659590 -0.518046 0.157718 0.016806 0.087694 -0.326867 -1.662219 0.411076 -0.107605 -0.201552 0.250723 1.069976
damn -1.421521 0.376725 0.220967 0.570168 1.151466 -0.462702 1.471932 -1.339382 -1.115308 0.006824 -0.245548 0.908972 0.696361 -0.612944 0.476956 0.024892 1.155040 -0.169826 -0.237603 0.619182 1.139120 0.900629 -0.633038 0.375339 0.069149 -0.362368 0.199130 -0.969676 0.753506 1.216080 0.572117 -0.038807 0.030950 0.857130 0.575392 0.025848 0.631741 0.523323 -0.413707 -0.093336 -0.728044 -0.659871 -0.245342 -0.403674 0.694067 0.598247 -0.125611 -0.593712 0.114325 0.462417
game 0.462610 0.132979 0.163649 0.514841 0.604642 0.101760 0.680489 0.281697 0.038549 0.609857 -0.275670 0.106294 -0.349935 0.073965 -0.158430 -1.494945 0.948482 -0.870379 -0.205149 0.317422 0.851820 0.601878 -0.108478 -0.033841 -0.002961 -0.660991 0.951992 -0.468572 -0.639733 0.929650 -0.370596 -0.028509 0.078976 0.451223 -0.152767 -1.372021 0.297419 0.570010 -0.640112 -1.127335 0.277120 -1.077487 0.582838 -1.247769 -0.673325 1.272992 0.422190 -0.475325 -0.295533 0.863158
party -0.588192 -0.239312 1.337580 -1.252135 -1.510951 -1.116824 -0.189166 0.195063 -0.454821 -0.178154 0.736003 -0.307915 -1.082885 -0.628987 2.506791 -0.878546 1.095781 0.644359 0.131613 0.105412 0.219099 0.188395 -1.364447 -0.039793 1.827099 0.281651 -0.633114 -2.070039 0.000877 -0.205673 -0.358113 -0.292730 -0.595128 0.079388 0.131482 0.283548 -0.417556 -0.388902 -0.085027 -1.334050 -1.583934 0.058395 0.193944 0.016234 0.096742 0.438432 -0.643405 0.032525 0.443384 0.820801
club -0.427929 0.343592 0.341305 -0.259747 -0.014167 0.395154 -0.332549 -0.829071 -0.475870 0.255467 -0.316996 -0.189482 0.070448 -0.062222 0.108241 1.055834 0.839548 -1.043356 -1.201942 0.087526 0.586976 0.190364 -0.545237 -0.163035 0.506387 -1.396979 0.662405 -1.178797 0.323388 -0.503783 1.576865 -0.044923 -1.354275 0.531269 0.012259 -0.865505 -0.038301 0.694480 1.459576 -0.839895 0.148545 -0.870388 -0.553653 -0.041945 0.423708 -0.797374 -1.547903 -1.177342 0.841358 0.768258
body 0.347762 0.632129 -0.874261 1.407606 -0.346659 -0.842694 1.119835 0.480389 0.950322 0.024776 -1.064941 0.649108 -0.160127 0.104479 0.768470 0.019743 1.481610 1.144495 -0.606080 0.091725 1.597648 -0.674589 -1.231463 -0.649672 1.783316 -0.607026 -0.189511 -1.212340 0.459686 -0.390938 0.413546 -0.468885 -0.877685 -0.268615 -0.111738 0.553554 0.248695 -0.188161 -0.587196 -0.652860 -0.257525 -1.263960 -0.235302 -0.065776 -0.130091 0.081191 0.324620 0.274423 -1.039019 0.041788
wit -0.132857 0.315541 0.394945 0.057491 -1.486466 -0.269807 0.641153 0.211710 -0.322282 0.472201 -0.113816 0.195775 -0.365942 -0.953243 0.667458 0.492511 -0.283862 -1.148144 0.032716 0.240491 0.158607 0.100986 -0.533740 1.388366 -0.233983 -0.516451 0.551235 -0.968844 0.035508 0.172529 0.604400 0.250515 -0.110158 0.294604 -0.218600 -0.449019 0.501664 -0.451208 -0.169794 -1.353960 0.159451 -1.061853 0.085199 -0.697070 -0.556754 0.476020 -0.106823 -0.090838 -0.601083 0.410502
hard -0.331959 -0.067787 -0.173758 1.075274 0.024012 0.465454 -0.430041 0.148755 -0.900337 0.091488 -0.399873 0.136409 -0.423784 -0.600926 0.079967 -0.815693 -0.501228 0.076161 -0.167658 -0.540699 1.632771 -0.342715 -0.333143 0.263833 0.104497 -0.050615 0.416530 -0.139634 0.508789 -0.223123 -0.102629 -0.400743 -0.038857 0.695492 0.159316 -0.381186 0.545328 -0.268329 0.363280 -0.927665 -1.105025 -1.430486 0.018787 -0.152265 -1.524165 0.399044 -0.645218 -0.063557 -0.602588 0.356275
talk -0.098846 0.110794 -0.206846 0.477669 1.365552 -0.002909 0.832081 -0.585578 -1.054986 0.792095 0.605995 -0.401089 -0.633479 -0.866017 0.270039 0.252396 0.378115 -1.014517 -1.020958 0.711107 0.044728 -0.606870 -0.662269 -0.762353 -0.195355 0.246649 0.237763 0.051021 0.262483 0.182572 -1.835082 -0.234432 -0.316113 0.714848 -0.775272 0.228109 0.980098 0.619972 -1.130536 -0.627861 0.200415 -0.631104 -0.492935 -0.187491 -1.684616 0.472860 -0.903199 -1.895269 0.074314 -0.040384
world -0.713349 -0.915963 0.645654 0.675077 0.158044 -0.530518 0.323432 -0.006706 -0.803341 0.309928 -1.287661 0.004302 -0.415665 0.361410 0.305899 -0.439205 -0.346242 0.084138 -0.902209 -0.042912 0.253317 0.337888 0.250371 0.554685 0.193516 0.497556 -0.381204 -0.960858 0.643734 1.848972 -0.230686 -0.371869 -0.270565 0.335849 1.131040 1.502077 -0.039497 -0.071616 -1.064192 -1.217610 -0.987109 -0.286688 -0.395396 0.092786 -0.582784 0.093332 -0.434093 1.183198 0.307428 1.092809
pop -0.458913 0.770531 0.894720 1.353234 0.159712 -0.233321 0.773387 -0.257658 0.070340 0.200295 0.699541 -1.442074 0.471909 -0.564194 0.525158 0.484843 0.225071 -1.490401 -0.399618 0.635553 0.526721 -1.331654 -0.696261 0.981252 -0.481452 0.065400 -0.090658 -0.867883 0.603205 0.578021 -0.800124 -1.101998 0.351016 0.572393 -0.844735 -0.396232 1.319735 0.488371 0.408028 -0.733002 -0.197237 -0.659304 -1.067214 0.067635 -0.886748 0.094694 0.642545 -0.108662 -0.890977 0.567231
run -1.712483 -0.404240 1.157254 -0.156085 0.427393 0.603893 -0.639201 0.389793 -0.446631 -0.237569 -1.002259 0.185472 -1.740193 -0.068228 0.878452 -0.203861 -0.475032 -1.355156 0.308020 -0.431124 0.887986 -0.208493 0.379652 1.065961 0.533955 0.081493 0.694037 -0.093547 0.409031 0.048053 0.154517 -0.153211 0.463711 0.623090 -0.054388 -0.714346 0.912503 1.554607 -0.053034 -0.675631 -0.482929 -1.265279 -0.602683 -0.568426 -0.815071 0.307943 0.523412 -0.449002 -1.141881 1.195774
g 0.074829 0.589901 1.086163 0.663964 0.135546 -0.207914 0.766977 0.649186 0.574530 0.910948 -0.699067 0.938101 -0.208634 -1.097387 -0.649487 -0.457105 0.443666 -1.525289 0.195863 -0.450026 0.213144 0.069486 0.351175 0.564792 0.598588 -0.554520 1.426098 -0.097158 0.109259 -0.147196 -1.151014 0.345987 -0.709042 1.329803 0.304314 -0.207059 -0.446825 0.628588 -0.667404 -0.822824 -0.066685 1.021919 1.100235 0.197206 -0.267720 -0.486050 -0.665649 0.445310 0.972337 0.665710
hood -0.780646 1.301975 -0.086202 0.743095 0.616992 -0.340141 0.611038 0.194576 -0.285008 -0.631011 -0.529912 -0.462631 -1.053121 -0.779456 0.267024 -1.291067 -1.077735 -1.463168 -0.888527 0.144388 0.610886 0.417976 1.769282 -0.009541 -0.532876 -1.369302 0.611930 -0.045702 0.016716 -0.426198 0.879463 0.177778 0.514354 0.276839 -0.803481 -0.872570 -0.197469 0.795945 -0.394339 -0.331667 -0.671889 -0.945812 0.506194 0.334687 -1.066567 0.017250 -0.377725 -0.407541 0.555071 1.160071
god -1.401444 0.415069 -0.339370 0.315636 0.916266 -0.810419 -0.199819 -0.374890 -1.254352 0.971286 -1.556347 0.821755 0.737071 0.593581 0.973748 0.113286 -0.137391 1.136065 -1.021926 0.461665 0.922246 0.812077 -0.792691 -1.095884 0.950380 -0.542575 -0.000674 -0.331800 0.454264 -0.915011 -0.302913 0.101259 0.041264 0.688490 -0.296942 -0.127714 1.430536 -0.328303 -0.365981 -0.084208 -0.254676 0.030485 -0.146380 -0.870551 -0.471383 1.755029 0.359483 -0.471222 0.339200 0.761269
roll -0.334108 1.007500 1.502509 0.908291 0.037725 -0.250925 1.387539 0.032062 -0.165431 -0.382648 -0.298291 0.126759 0.832745 0.967253 0.231687 0.884077 -0.085813 -0.921821 -0.676591 0.169327 0.381937 -0.881932 -0.602183 1.358735 0.916011 0.072086 0.308060 -0.121007 1.166341 0.256005 0.452075 -0.549055 0.638579 -0.035002 -0.655276 -0.347045 0.444046 0.413041 -0.366799 -1.460751 0.106303 -0.105960 -1.127484 -0.525998 -0.353242 -0.169095 -0.459069 -0.111286 0.248706 1.495412
gettin 0.751092 0.070381 -0.067504 -0.279532 -0.463037 1.207926 0.323078 -0.350498 -0.848795 0.453275 -1.500852 -0.247536 0.247206 -0.286198 1.442889 0.766870 0.345291 -0.349317 -0.508125 0.418227 1.502431 -0.522243 -0.706995 0.613180 1.121089 -0.443071 -0.020857 -0.386360 0.155614 0.650205 0.381668 0.114001 0.410154 -0.537048 0.250846 -0.485550 -0.306015 1.401669 -0.211376 -1.235455 -0.027599 -1.010004 0.613355 1.077661 0.230999 -0.550423 -0.234774 -1.002583 -0.371379 0.674779
fuckin 0.158503 0.078546 -0.580819 0.158481 0.424399 0.223777 0.412692 0.336810 -1.047144 0.235256 0.209848 -0.106414 0.168992 -0.804044 0.684076 -0.234228 -0.250529 -1.027400 -0.875442 -0.022515 0.414176 -0.281233 -0.779448 0.176396 -0.148088 -0.577651 0.638434 -0.869547 -0.016507 0.441305 -0.388199 -0.396176 0.044634 -0.352219 0.099052 -1.216442 -0.664251 0.515087 -1.498558 -0.220151 0.059943 -0.640474 0.144456 -0.900717 0.112949 0.057216 0.299943 -0.618488 -0.550902 1.068218
ho -0.773044 1.690448 -0.007213 1.482915 -0.992534 0.407822 0.155406 0.239150 -0.775594 -1.261541 -0.481773 -0.538879 -0.122091 -0.978556 -0.091107 -0.026481 0.910963 -0.585869 -0.936516 -0.351507 0.511583 0.763558 0.122082 1.069855 0.344349 -1.408868 0.062784 -0.210688 0.944443 -0.391837 -0.410182 -0.201835 0.641201 -0.645001 0.610479 0.163078 -0.490998 0.106593 -0.671651 -0.864559 1.241802 -0.476818 -0.024293 0.353005 0.098451 0.266111 0.055762 -1.175883 1.563172 0.844206
little -0.205409 0.309168 0.005110 -0.396245 1.336197 -1.011936 0.699459 -0.620154 0.100818 -0.981451 -0.549444 0.269870 -0.906882 -0.967955 1.042145 -0.681893 0.873385 -0.971594 -0.200533 -0.269320 1.484290 -0.439864 0.199049 -0.107827 0.245877 -0.946791 -0.244896 -0.429499 -0.332147 0.837370 -0.121089 -1.062752 0.028823 0.084940 -0.445656 0.354356 -0.399339 -0.101277 -0.031820 -0.706397 0.418369 -0.102814 0.672102 -1.030912 -0.677655 -0.314394 -0.697919 -0.350634 -0.774350 0.029161
que -0.186351 0.374811 1.167490 0.324401 0.349945 -2.162879 0.652382 0.862057 0.975182 0.137641 -0.420176 -1.900279 0.343842 0.877389 -0.557793 0.642639 -0.440894 0.418687 -0.944493 1.089848 -0.059975 -0.307046 -0.400566 0.579177 0.710679 1.344215 -0.285239 0.635541 0.559454 -0.265133 0.965945 1.697829 1.070202 0.602515 -0.522940 -0.145430 -0.435707 0.039887 -0.884052 0.200025 0.773570 -0.209237 0.424925 0.117712 0.969226 -0.385703 -0.043284 1.349619 -0.567275 -0.437400
bad -1.009373 -0.206487 -0.317212 -0.586583 0.513431 0.234801 1.412011 -0.891563 -0.392928 -0.198631 -0.700919 -0.236885 0.309070 -0.612667 0.237785 -0.632739 -0.594358 -1.336133 -1.515101 -0.616001 0.412294 0.528257 -0.177603 -0.019449 -0.452236 -0.206089 2.026216 -0.770488 0.033705 -0.161494 0.957789 -0.114725 0.152954 -0.098333 0.577075 0.340784 -0.388726 0.508611 -1.010227 -0.294081 -0.656206 -0.628726 0.081449 0.950588 -0.756653 -0.802225 0.984413 -0.453671 -0.084672 -0.162574
lil -0.617902 -0.723182 0.774306 -0.127680 -0.349798 -0.916932 1.457987 -0.224325 -0.135965 0.270283 -1.375721 -0.678900 -0.164141 -1.101425 -0.084582 -0.630881 -0.293075 -1.100226 -0.102874 -0.901423 0.262101 -1.021183 0.456963 0.210908 0.263919 -0.623852 -0.247914 -0.842906 0.136883 0.505412 0.619699 0.279091 -1.679689 1.087260 -0.252084 0.156252 -0.394847 0.765656 0.000587 -0.503264 0.041506 -0.090681 0.164879 -1.142639 -0.283084 0.659939 0.662823 -0.378963 -0.219040 0.038989
dick -0.275767 0.999609 -0.324698 -0.416045 0.139698 1.041751 0.548755 0.484922 -0.402422 -0.286918 -0.891961 -0.370338 -0.233128 -1.286027 0.124280 -0.611294 -0.044166 -0.513791 0.729249 -0.734035 0.843090 -0.033486 -0.554169 -0.129205 -0.394139 -1.030487 0.574595 -0.634207 0.813741 0.380881 0.772362 -0.487783 -1.342088 0.086174 0.729568 0.267212 -0.190341 1.091714 -0.713073 -0.201760 0.468314 -1.504968 0.041986 -0.703529 -0.980986 -0.544866 -0.063343 -0.875835 0.564852 0.431279
leave -0.315194 0.035316 -0.679796 0.889908 -0.523143 0.569398 0.537418 0.286439 -0.933227 -0.242577 0.021201 1.074778 -0.067272 -0.225748 0.093924 -0.147479 -0.122787 -0.540417 -1.333476 -0.240641 0.679545 -0.887453 -0.244381 0.047054 -0.184481 -0.098973 1.460427 -0.768293 -0.204090 0.293703 -0.010212 -0.061788 -0.338521 0.489302 0.836035 -0.364437 0.333893 0.198534 -0.401102 0.716027 -0.680505 -0.677029 -0.616383 -0.362211 -1.301295 -0.317336 -0.351475 0.303613 -0.508541 0.824808
ha -0.920504 0.610906 -0.640508 0.425919 0.118369 0.036961 -0.282319 0.795906 -0.637789 -0.673034 -0.771095 -0.631303 0.401500 -0.004781 0.841953 -0.268613 -0.255420 -0.857387 0.275427 0.278984 1.105269 -0.089808 0.106595 0.707305 -0.590843 0.140356 0.083525 -0.487397 -0.678528 0.332331 -0.503712 -0.210035 0.499361 -0.270634 -0.450895 0.286517 -1.081709 -0.172611 1.603369 -1.298394 0.517877 0.203218 0.564440 0.713674 -0.570382 0.475340 -0.526133 -1.056476 -1.318407 0.281028
wo -1.962908 0.873975 -0.083221 0.238577 0.197398 -0.804022 0.032503 -0.189973 -1.408956 -0.172765 -0.933934 -0.054829 0.590047 -0.427069 0.077543 0.313651 0.651708 -0.837497 0.764085 -0.612323 0.467526 -0.698318 -0.669812 -0.764160 0.074803 -0.206795 0.276060 -0.290532 -1.199939 0.651758 -0.288869 -0.339205 -0.417949 -0.320246 0.753370 -0.465213 0.825261 -0.044949 -0.479435 0.015584 -0.332711 -1.262951 -0.665257 -0.392180 -0.679331 -0.716762 0.254592 -0.717712 -0.373100 1.491764
black -0.897045 0.040184 -0.264471 1.333636 0.096191 0.865228 -0.022017 -0.002631 -0.650505 0.495948 -0.305271 0.171932 -0.579266 -0.337167 0.657003 -1.619676 -0.303708 -0.991062 0.705915 -0.274336 0.313271 0.874337 0.204676 0.170753 -0.454371 -0.608684 0.760885 -1.371253 -0.305411 0.023021 -0.189327 0.210033 -0.960265 0.461300 -0.584583 1.031871 2.104284 0.127277 -0.170833 -0.042963 0.484911 -0.021257 0.436802 0.230064 0.913395 -0.148014 -0.197882 -0.604634 0.109031 1.158255
bout 0.209988 -0.212649 0.475552 1.081242 0.580585 0.710349 1.377308 -0.508518 -1.195801 0.392775 -0.008360 1.174557 0.297851 -1.158218 -0.264316 0.338176 1.940432 -1.055107 0.915040 0.159626 -0.062962 0.262358 0.754244 0.251668 1.047046 -0.456423 -0.110415 0.254887 0.460623 0.060600 -1.186577 0.070937 -0.423647 -0.454173 0.417266 -0.250311 0.424894 0.010298 -0.863964 0.291826 1.147434 0.487195 0.271842 -0.854518 -0.097912 0.693643 -0.088375 -0.221828 0.748872 0.698084
bring -1.064115 -0.736253 0.024155 0.630470 0.040410 1.022020 0.446519 -0.327621 -0.148509 0.058884 -0.447035 -0.227414 -0.881391 -0.764056 0.465588 -0.838711 0.783292 -0.936275 -0.142612 0.689544 0.071423 -0.334723 -0.344595 0.068795 2.015959 0.552191 -0.117297 -1.205037 -0.552031 0.176188 -0.708566 -0.831701 -0.297016 0.906007 0.063603 1.256593 -0.114719 -0.052797 0.098461 0.153088 -0.347239 0.768120 -1.468874 -1.111922 -0.806763 -0.701093 -0.324735 -0.844885 -0.388566 0.953805
thing -1.095373 0.003833 0.093521 0.510737 0.567207 -0.145422 0.889283 -0.031789 -0.679326 0.071867 0.471886 0.071176 0.446199 -0.428346 0.326746 -0.466272 2.111777 0.532106 -0.435789 0.207057 0.383235 0.415750 0.305510 0.165269 -0.169541 -0.548821 0.958980 -1.022900 1.095866 0.270469 -0.165920 0.475940 0.095501 1.177706 0.559437 -0.618761 0.778995 -0.269003 0.086934 -0.537940 0.031363 0.157407 0.462632 -1.035551 -0.473461 0.962789 -0.538547 -1.262564 -0.054993 0.614400
da -0.858133 0.370227 1.211674 0.555680 -0.564852 -1.080800 -0.893316 -1.574598 -0.448500 -0.310843 -0.289386 -0.830482 0.567722 -0.378516 0.441201 0.614280 0.250808 -1.953643 -0.925666 -0.075954 0.208644 -0.769796 -0.157052 -1.131351 -1.209226 -1.623319 -0.556211 -1.616923 -0.863885 -0.771892 1.797704 1.247536 -0.056678 -0.571170 -0.813354 -0.947474 0.607681 -0.387543 -0.166621 -0.515134 0.147667 -0.222903 0.371439 0.149241 0.259631 0.467673 -0.858350 -0.418501 0.744218 -0.008073
til -0.006287 -0.176201 -0.011429 -0.845978 0.935156 0.104637 0.263944 1.115028 -0.218947 -0.295059 -1.289366 -0.320740 1.434766 -0.461651 0.280820 -0.970501 0.485834 0.419799 0.784065 -0.109539 0.638344 -0.752462 0.561040 -0.528887 0.052148 -0.784916 0.379229 -1.777304 0.984938 -0.408023 -0.459469 -0.854702 -0.249649 -0.397453 1.114263 -0.320773 0.749954 0.087236 -0.265273 -1.458132 -0.090893 -0.461700 -0.166506 -0.534615 -0.942794 -0.858562 -0.139376 -0.110925 -0.323253 1.263056
start 0.784149 -0.203212 -0.140935 -0.434988 0.482031 -0.082895 -0.155448 0.029891 -0.613862 -0.075135 -1.332241 0.387485 -0.088005 -0.804486 -0.262554 0.624232 0.440979 -0.511981 0.845460 -0.339093 0.739932 -0.165834 -0.901089 -0.869144 0.867083 -0.459421 -0.223550 -0.786234 -0.108149 0.935950 -0.011673 -0.386453 -0.903248 0.361430 0.165739 -0.061304 0.564820 0.565233 0.276082 0.358378 -0.706703 -1.926187 -0.474302 -0.407361 0.159082 -0.695145 -0.237022 -0.697157 -0.306974 1.429246
home -1.462965 -0.840560 0.389780 0.168022 -0.023477 0.764981 0.572254 0.256547 -0.730934 0.289794 -1.066759 0.163102 -0.759335 -0.066059 0.432746 0.378374 0.750336 -0.175351 0.061173 -0.883518 0.733121 -0.889399 0.884788 -0.630888 -0.429204 0.531384 1.127688 -0.178819 0.574379 0.013757 0.577651 -0.930944 -0.260474 0.499086 -1.127414 0.257981 0.435852 -1.046999 -1.092335 -0.464296 -0.190047 -0.853058 -0.444034 0.644379 -0.784777 0.096453 -1.564387 -0.181085 0.259229 0.917825
live 0.172797 -0.422302 0.739573 0.490125 0.545545 0.700866 0.833883 -0.062581 -0.447779 0.194235 -0.854115 1.370751 0.587312 -0.430623 1.013173 -0.043455 -0.846160 -1.216029 -0.696653 1.241625 -0.444907 -0.129347 0.083663 -0.506052 -0.394091 -0.263049 1.424471 -0.733115 -0.992042 -1.045613 -0.595272 -0.048989 -0.002209 -0.079927 1.100188 -0.060876 0.109459 -1.098529 -0.273227 -2.265110 -0.459482 -0.314823 0.208493 0.388260 -0.458811 -0.103663 -1.004460 -0.312200 -0.775486 0.375051
long -0.481994 0.630692 0.342470 -0.075538 0.185671 -0.193967 0.425913 0.685441 -1.599851 1.024463 -0.436005 0.418241 0.007034 0.597927 0.853162 -0.992769 0.505312 -0.365498 -0.092088 -0.613120 0.840030 -0.590299 0.131161 -0.115190 -0.816711 -0.409126 0.923296 -0.880773 -0.977664 -0.586945 -0.995205 0.205865 -0.645989 -0.617132 0.146265 -0.104100 -0.386701 0.333612 -0.269704 -1.037320 -0.701157 -1.211918 -0.600094 0.145610 -0.949129 -0.943931 -0.794788 -0.580577 -0.027581 0.364209
hear -0.133992 -0.002672 0.806825 1.374741 0.659408 -0.091407 -0.161290 -0.625382 0.415199 -0.070009 -1.185652 0.474949 0.272675 -0.048233 -0.175479 0.656754 1.696981 -0.905341 -0.543840 -0.741266 0.680308 -0.097174 0.464273 -0.620889 1.082750 0.973239 1.094929 -0.399743 0.010347 0.347697 0.321972 0.185550 -0.436852 -0.724307 0.821897 -0.635155 0.393083 0.301216 0.041741 -0.040923 -0.612554 -1.066196 -0.589629 0.156479 -0.672836 1.472822 -0.226518 -0.767545 0.052814 0.399218
beat -0.898266 1.410140 -0.094030 0.284591 0.183255 0.412470 0.590303 0.052792 0.794438 0.079091 -1.249893 -0.232980 0.982940 -1.587897 0.827949 -1.101751 0.304898 -0.427629 -0.473527 -0.850440 0.578260 -0.691259 -0.500677 -0.924236 0.556228 -0.818593 0.172337 -0.887306 0.109605 0.071205 -0.038909 -0.434676 -0.862301 0.679602 -0.124691 0.195190 0.555645 0.086193 0.229379 -0.659811 0.163534 -0.489206 -0.504299 -0.641209 -1.591791 -0.064221 0.682520 0.662332 0.980671 -0.281292
told -1.534683 -0.371782 -0.253004 0.310465 0.291545 0.343786 0.195797 0.553842 -0.232092 0.101774 -0.439765 0.186969 -0.086809 0.339040 -0.385697 0.434514 0.631489 -0.922801 -0.128316 -0.558409 0.212951 -0.708903 -0.729782 0.431120 -0.219808 -0.547935 0.297029 -0.473305 0.186330 1.829576 -0.001588 -0.851109 -1.088054 0.636350 0.224339 -0.534670 -0.601784 0.546495 -0.525462 -0.239656 0.111070 0.318130 -0.229829 -0.275936 -0.766865 0.257776 -0.683576 -0.427435 0.949117 0.889992
break -1.746995 0.316057 0.804956 0.286146 0.542408 -0.096009 -0.074226 0.636540 0.157399 -0.262173 0.188531 0.483042 0.694201 0.653262 -1.527149 0.281933 0.830894 -0.876735 0.624155 -0.615842 0.008610 -1.407988 -0.657553 0.469767 0.412239 -0.570538 -0.090789 -0.647314 0.299206 0.285714 -0.232639 -0.740438 -0.879727 -0.814235 0.997012 -0.660349 -0.442842 0.174311 -0.762367 -1.204275 0.385643 0.006978 -0.331785 -0.259149 -0.161477 1.099282 -1.259968 -0.358256 0.794432 1.494061
play -0.752298 -0.789142 0.498123 0.450285 1.121522 -0.576428 0.529877 0.714783 -0.839270 -0.216095 -1.339365 0.243266 -0.142464 -0.301851 0.165371 -0.010540 0.246863 -0.679173 0.159714 0.411909 0.483282 1.017872 0.813020 0.136453 -0.066997 -0.722380 0.066499 -0.117882 0.223483 0.098595 0.138653 0.286693 -0.463601 0.191021 -0.121803 0.253701 -0.137918 0.828456 0.104968 -1.161887 0.246142 -0.924866 -0.313418 -0.302375 -1.514758 1.496422 -0.473911 0.117961 0.536250 0.667854
low -1.142587 0.327959 -1.405189 -0.237765 1.124773 -0.257188 1.628790 0.180814 0.117630 0.384632 1.320973 -0.775478 1.096244 0.177847 -0.610871 0.582666 1.335056 -0.278614 -0.648718 -0.391590 -0.495957 -0.758245 -0.398145 -0.065829 0.715810 -0.281067 0.359799 -0.970383 0.517639 -0.895740 0.719126 -1.005579 -0.590717 0.267172 -0.894517 1.197940 1.435765 0.894992 0.324310 -0.879581 0.255112 -0.765803 0.560382 -0.553630 0.541079 0.062399 -0.150577 0.121323 0.127653 1.231126
face -0.385779 0.707369 -0.547781 -0.373218 0.215088 -0.645936 -0.122852 -0.234774 -0.238256 0.253532 -0.472078 0.382071 -0.301702 0.736572 -0.515140 -0.718928 -0.611303 -0.357874 -0.461450 -0.189283 1.088030 0.091052 -1.366768 0.678683 0.564158 -0.755488 1.726859 -0.220725 -0.320674 0.510652 0.006024 -0.353969 -0.913188 -0.125174 0.504567 0.853009 0.028718 0.738240 -0.144600 -1.155376 0.039887 -0.466949 -0.842862 -0.944998 0.483860 1.171014 -0.809003 -0.191753 -0.327852 1.245589
die 0.540690 -0.194623 -1.315874 0.553154 -0.084250 0.417979 -0.017598 0.444136 0.338048 -0.390093 -0.364889 1.330701 0.977596 -0.145202 0.690898 -0.572756 -0.495933 -0.938400 -0.319343 0.380830 -0.207253 -0.442424 0.952091 -0.605908 0.132601 0.002329 0.551776 -0.895535 0.213508 0.741801 -0.200315 -0.997313 0.921714 -1.155748 0.560189 -0.143847 0.695520 0.629527 -0.339012 -1.592216 -0.494680 0.362934 0.845886 -0.140885 -0.907928 0.015279 -0.455835 0.574535 -0.414972 0.911508
hold -0.497109 -0.062068 0.438184 0.322298 -0.789587 0.445339 0.211711 0.719503 -0.058937 0.248428 -0.508586 0.395338 -0.490259 -0.692996 0.700292 0.358284 0.207839 -0.458361 -0.233305 -0.399572 1.034837 -1.042974 -0.184185 0.013115 -0.144072 0.235228 -0.257902 -0.162382 0.730360 0.359241 -0.245722 -1.404330 0.401909 0.414097 -0.017433 -0.245036 0.118724 -0.218489 -1.417334 -0.753642 -0.336472 -0.108099 0.145620 -1.289844 -1.023191 -0.471689 -0.976424 0.536489 0.395974 0.780451
young -0.568532 -1.187960 1.091118 0.707669 -0.165862 0.282988 0.644286 0.796421 -0.770075 0.834161 -1.184368 0.798594 -0.179713 -0.554188 0.277711 -0.491177 -0.583848 -1.170830 0.128649 -0.080472 -0.253265 -0.131666 -0.311622 -0.048882 0.252845 -0.037837 0.003403 -0.383550 0.054229 -0.413241 0.073984 0.009057 -0.287284 0.766321 0.159055 0.642222 -0.121080 0.617490 -0.336019 -0.788541 -0.541333 0.145271 1.573149 0.081800 0.055264 1.155295 0.257562 -1.234358 0.524005 0.901353
ayy -0.245565 0.576136 -0.732204 -0.599022 -0.638205 1.687106 0.580069 0.321753 -0.092704 -0.045737 -0.722099 -0.918443 0.319011 0.009112 0.747766 -1.101493 0.560183 0.267134 0.265125 0.675024 0.533521 -0.279841 -0.575507 0.155967 -0.610747 -0.308866 -0.557772 -0.827771 2.106811 -0.269700 1.141377 0.329200 -0.592558 0.325839 0.450955 1.419356 0.010727 0.931275 -0.491280 -0.999387 -0.196367 -0.545628 1.502379 0.457326 -0.110529 0.316168 -0.725101 -0.434200 -0.849227 1.077092
daddy -1.827383 0.719281 0.478935 -0.032078 -0.312040 -1.846852 0.739456 0.087182 -0.380586 -0.613818 -0.485918 0.638056 0.008646 0.515566 0.705895 -0.686004 -0.199761 -1.003969 0.877347 -0.711295 0.091061 -0.622340 -0.153158 -0.448650 0.843164 -0.290932 0.429483 -0.508813 -0.764081 -0.396028 0.454273 0.745876 -0.603832 0.065250 0.294883 0.508034 -0.971226 -1.644312 -1.435517 -0.639191 0.268924 -0.486381 -0.134008 0.572970 -0.287792 0.451069 -0.540769 0.789356 0.929674 0.072551
ready 0.252001 -0.707977 0.445752 0.441203 -0.883950 -0.257831 0.545174 1.287311 -0.637944 -0.358910 -0.703849 -0.367608 0.305340 0.162976 0.419353 -0.768026 0.299722 -0.538665 -0.278526 0.057173 0.601922 -1.123728 0.908750 -0.457670 0.489058 0.120188 0.115102 -1.484300 0.639671 0.596522 -0.498706 0.755341 -1.075128 -1.022117 0.502979 -0.432056 0.027579 1.214115 -0.637198 0.435388 -0.109462 -0.119663 0.871086 -0.557937 0.061103 0.482021 -0.522878 0.500383 -1.473887 0.368423
tonight -0.373253 -0.591373 -0.066325 -0.380547 -0.122856 -0.160501 -0.246084 0.557647 0.154118 -1.074366 -1.831324 -0.212493 -0.231645 -0.805022 1.557237 0.126102 1.259304 -0.683259 -0.264778 -0.425590 -0.715348 -0.573550 0.901211 -0.265225 0.230743 1.203548 0.145046 -0.775776 0.788031 0.786021 0.676997 -0.347498 0.582572 0.411748 1.205046 0.549442 -0.519538 0.813060 -0.508213 0.281316 -0.799946 -0.118962 0.301682 -0.683867 -0.718590 -0.403708 -1.803586 0.030985 -0.225285 1.485683
turn -0.712898 -0.081037 -0.896707 0.004019 0.047200 -0.875437 0.135072 0.084901 -0.362827 -0.098762 -0.534737 0.535009 0.502559 -0.331471 0.581288 0.327550 0.351262 -0.294141 -0.339218 0.406677 0.018415 -0.543531 -0.006133 -0.305647 1.206471 -0.567511 -0.154086 -1.433864 0.859029 -0.286370 0.165822 0.168847 -1.504476 -0.407564 0.668368 0.622059 0.703444 -0.476173 -0.804682 -0.072789 -0.311400 -0.449050 -0.314097 0.098538 -0.570729 0.300585 -0.060265 -0.548057 -1.125395 0.337584
white -0.669693 0.372996 0.068469 0.768308 -0.131801 0.113671 0.391971 0.334994 -0.679761 -0.909409 0.390630 0.925555 -0.663581 -0.074196 0.474773 -1.159035 0.190701 -0.765814 -0.454308 -0.310241 1.149820 0.805753 -0.236930 0.212640 -1.177013 -0.540929 0.012692 -1.284701 -1.172157 -0.057536 -0.710134 -0.337142 -0.792649 -0.014893 -0.931546 0.978717 0.791512 0.936032 -0.647120 -0.927630 0.405111 0.412767 0.963463 1.225907 0.532628 -0.198306 -0.055890 0.004120 0.047896 1.029468
crazy 0.372231 0.026474 0.285887 0.741931 0.964281 -0.614066 1.068661 -0.381350 0.243026 -0.397937 -0.286471 0.206546 -0.679585 -0.310880 0.018788 0.694222 0.537955 -0.480164 -0.574549 -0.473929 0.473016 -0.017573 -0.447727 0.901222 -1.489250 -0.083409 -0.274761 -1.002365 -0.811011 0.830211 0.927762 -0.674971 0.396238 0.643041 0.673011 0.181274 0.757026 0.577301 1.163960 -0.219504 -0.229166 -0.160894 0.445046 0.268546 -1.729156 0.430565 -1.356312 -1.231404 -0.121587 1.153885
rap -0.411502 0.200396 -0.251306 0.779727 0.565008 0.336346 -0.101833 -0.008570 -0.256311 0.822932 -0.987133 0.690589 -0.311295 -0.477934 0.419078 -1.437704 0.344504 -0.451862 0.563835 0.606054 0.433256 1.201942 -0.549378 -0.183225 0.274614 0.034311 0.373518 -0.801697 -0.533496 0.731044 -0.594931 0.085644 0.225899 -0.159571 -0.256274 -1.369493 1.225987 0.075328 -0.748474 -0.805275 0.498249 -0.598904 0.117083 -0.726527 -0.775493 0.944401 -0.194939 -0.503519 -0.068212 -0.152842
everybody 0.152402 0.196483 -0.088096 0.497553 -0.407948 0.515694 0.165359 -0.303749 0.089876 0.187607 -1.000795 0.401720 -0.735083 0.094287 0.800078 0.740857 -0.083339 -0.456314 -1.184861 0.366127 2.356625 -0.103455 -0.813751 0.704004 1.205303 -0.099870 -0.031547 0.129028 0.005411 0.210088 1.159269 0.214752 0.913410 -0.963092 -0.233873 -0.981196 -0.709991 0.825076 -0.431104 -0.665275 -0.489410 -0.836815 -0.503759 -0.523383 0.218365 -1.278944 -0.435703 -1.057333 0.339065 1.420619
gone -0.606555 -0.532593 0.912682 -0.759995 -0.194607 0.188205 -0.044875 0.190319 -0.217403 0.323916 0.214659 0.272421 0.256721 -0.798143 0.865641 -0.469060 0.668970 0.077163 -0.592223 -0.917342 0.309884 -0.588936 0.087216 0.090520 0.843070 0.092085 0.696399 -1.149828 0.205452 -0.003503 -0.079080 -1.267546 0.781998 -0.357904 0.638504 -0.439495 -0.152675 -0.582933 -0.746381 -1.528451 -0.994545 -0.187145 0.040908 -0.050826 -0.840538 0.953519 -0.837924 0.609856 0.421462 1.199616
whoa -0.976538 -0.237211 0.467207 1.013780 0.516609 0.271134 0.366033 -0.418870 -0.571726 -0.410430 -0.051610 -1.149333 -0.501726 -0.151769 -0.478520 1.229751 0.611110 0.769156 -0.572401 0.710652 1.473911 -1.801661 -0.010639 0.886240 1.353893 -0.106288 -0.473227 0.650800 -1.483624 -0.425246 0.927426 1.409350 -0.752407 0.686871 0.579049 -0.613893 -0.740123 0.509282 0.114678 -0.490676 -0.490789 -0.787525 1.399416 -0.806477 -0.480533 0.569818 0.885099 -0.137421 -0.469422 -0.476201
lookin 0.094839 0.657950 -0.517509 -0.397039 -0.404233 1.326656 1.137090 -0.538993 -1.060236 0.090984 1.308339 -1.001681 0.030007 -1.117883 0.672895 -0.652341 -0.175956 0.630287 -1.522702 0.703088 0.472347 0.224757 -0.000975 0.286429 0.607516 -0.811503 0.518153 -0.791521 0.342235 0.508252 0.928152 0.137774 -1.034585 -0.601735 0.586163 1.278996 -0.734248 0.409170 0.439933 -1.015192 -0.294607 -0.274780 0.021616 0.335079 -0.243971 0.293843 -0.640168 -0.539635 -0.625663 0.793792
ice 0.617735 0.996035 0.616530 0.271348 -0.621832 0.787952 1.274630 0.814245 0.426128 -0.196002 0.993055 1.695380 0.602566 -0.308364 -0.465907 -0.850515 -0.119934 -0.004304 -0.214416 0.715302 1.488360 0.625499 0.111995 0.662749 -0.601387 0.104392 -1.062954 -0.873644 -0.275827 0.902805 0.028212 0.230286 -0.649901 0.694695 -0.160393 -0.513643 0.536243 -1.081557 -1.171731 -1.082005 -0.022481 -0.038950 0.509284 -0.288225 -0.511161 0.452298 -0.000812 -1.057606 -0.818840 1.022165
fly -0.198359 -0.202802 0.124997 -0.284953 0.361540 -0.121363 0.386626 -0.494438 -0.428702 -0.075863 0.074508 0.431669 1.335183 -0.667157 0.430669 -0.892058 0.509287 -0.916409 -1.156127 1.690061 0.549357 -0.729529 1.260693 0.358116 0.749450 0.152166 0.321425 0.577673 0.347645 0.301882 -0.175180 -1.044328 0.466304 -0.840049 -0.080170 0.835870 -0.054985 -0.167915 -0.335697 -1.505863 -0.630139 -0.438256 0.937825 0.979292 0.160630 -0.279879 0.357627 -0.655225 0.439384 0.922274
pull -0.583344 0.453345 -0.502007 0.764130 -0.613872 -0.267742 1.177082 0.789612 0.024785 0.191089 0.202293 0.067019 -0.196007 -0.949150 1.091437 -1.014093 0.347426 -0.890847 0.400752 -0.190923 0.368651 -0.381744 1.199522 -0.068509 -0.001730 -0.782855 0.387881 -1.078190 0.347884 -0.038629 -0.347680 -0.475542 0.272291 0.505275 0.004001 -0.830293 0.029932 1.267394 -0.100951 -1.401474 0.122932 -0.357319 -0.760396 0.806940 0.122085 -0.072374 0.186310 -0.310161 -0.482951 0.750610
tryna -0.934591 0.364403 -0.532263 1.427940 -0.124194 0.097694 0.651982 1.046766 0.297135 0.425134 -1.438439 0.404401 -0.630733 -0.263343 -0.244081 0.501056 -0.023813 0.456927 -0.548289 0.218790 0.127494 0.228027 -0.432396 0.632421 -0.253630 -0.645482 0.193705 -0.294246 0.009506 0.185033 -0.592613 -0.069512 -0.602198 -0.335886 -0.419588 0.536353 0.141675 -0.363016 -0.735802 -1.360822 -0.791816 -0.811955 0.085348 -0.034997 -0.826119 1.016620 -0.035758 0.456221 -0.302534 -0.182900
work -0.562054 -0.238494 -0.186902 0.602158 0.217330 -0.168063 0.640260 -0.026202 0.413975 -0.278992 -0.812410 -0.088095 -1.331907 -0.930626 -0.146533 -0.455124 0.474967 0.181952 -0.847754 0.015271 1.602890 -0.040415 -0.285890 0.011783 -0.206601 -0.312829 0.567299 -1.193557 0.244819 -1.119194 -0.243704 0.404919 -0.659749 0.102172 0.056303 -0.269353 -0.049956 -0.292929 0.950789 -0.720301 -0.072099 -1.014891 0.369017 -0.259738 -0.345977 0.095040 -1.173408 -0.569650 -0.797569 -0.416187
talkin -0.001339 -0.352665 -1.187888 0.950148 1.017946 0.533861 1.754495 0.198382 -1.760331 0.186626 -0.188066 0.195743 -0.219827 -1.514595 1.357055 0.444816 0.301183 -0.011303 0.579553 0.409459 -0.141652 -0.552594 -0.300438 -0.489195 0.578433 -0.625124 0.063788 -0.517491 0.198344 0.069824 -1.163386 0.017635 -0.153086 0.171531 0.225042 0.113023 -0.278419 0.896967 -0.390065 0.363536 1.092119 -0.593508 -0.091751 0.128936 0.027691 0.999810 -0.557998 0.246853 0.325586 0.999434
slow 0.603018 0.170012 -0.576885 0.061110 0.429201 -0.670967 2.204485 0.929219 -0.409209 -0.830069 -0.807385 -0.257088 -0.349051 0.309624 -0.548745 -0.749024 0.938090 -0.164125 0.235463 -1.366037 -1.000639 -0.150224 -0.458095 -0.267679 0.816715 -1.043470 -0.008944 -1.276937 -0.936939 -1.239825 -0.228406 -0.125843 -0.695681 -1.177575 0.090879 -0.281924 0.476364 -0.066324 0.524267 -0.008459 0.206607 -1.253524 0.416276 -0.921870 -0.696051 -0.624996 0.109407 0.600468 -0.062966 1.444711
yes -0.291852 0.417013 -0.817345 -0.034410 -0.793291 -0.480690 0.564946 0.002906 -0.020745 -0.221124 -1.639853 0.187903 1.100927 -0.272629 -0.281591 0.305643 -0.240374 0.554621 -1.483811 -0.431287 1.175620 -0.087247 -0.794594 -0.672167 1.388175 0.247325 -0.183882 -0.369744 -0.698308 0.480956 0.332793 -0.168803 -1.103828 -0.164877 -1.523424 0.440290 0.895946 -0.917091 0.768072 -0.111531 1.024124 0.279284 0.283573 -0.176148 -1.757402 0.798912 0.361481 -0.240516 0.852226 0.857677
open -0.417527 0.216993 -0.425225 1.425422 -0.346933 1.893397 1.482141 -0.143388 -0.135720 -0.812793 -0.484621 -0.565469 0.027924 0.539498 -0.095998 0.111705 0.358708 -0.685191 -0.019929 0.186201 0.529605 -0.423855 -0.247454 -0.229410 0.925095 -0.073839 0.357024 -1.938448 0.103814 -0.490372 -0.696556 -1.380772 -1.187703 0.243873 -0.731659 0.425728 -0.287338 -0.474451 -0.431757 0.004333 0.067162 0.374033 -1.801783 -1.125306 -0.206683 -0.729128 -0.159666 -0.091723 0.559940 -0.382835
house -0.731903 -0.986365 -0.952325 0.345103 -0.068642 0.616628 0.394009 -0.551336 -1.229876 -0.798233 -1.646890 1.539618 -0.465841 -1.164566 0.092809 -0.172292 -0.592667 -0.592937 1.097867 0.936149 0.179738 0.315864 -0.112265 1.160287 0.000015 0.096208 -0.556278 -0.451649 0.721637 -1.347234 0.125564 -0.383818 -1.201667 -0.112521 -0.771779 0.819781 0.566575 0.705835 -0.040944 -0.520384 -0.107427 -0.234568 -0.304890 -0.113319 -0.496779 0.337872 -0.114356 0.186449 -0.463717 0.415421
o -0.709658 0.160014 0.468787 0.886939 0.739365 0.166198 0.767277 0.501863 0.306535 0.918421 -0.706427 0.046991 -0.592673 -1.687249 -0.039773 0.810035 -0.262181 -0.382632 -0.336998 0.916186 -0.073196 -0.067065 -0.849677 1.087571 -0.213986 0.469148 0.523165 -0.391412 -1.525883 -0.091928 -0.450648 0.724161 -0.206020 0.201345 -0.372356 1.315609 0.064291 0.276858 -0.388646 -0.232778 -1.080552 0.061117 2.333718 -0.915450 -0.252844 0.194766 -0.091429 1.436883 1.336828 0.497818
shake -1.290342 -0.089559 0.763671 0.721251 -0.149553 -1.779936 1.241057 0.310011 0.258005 -0.868202 0.181114 -1.601064 -0.384944 -0.150297 0.092017 -0.939226 0.739180 -0.633485 -0.694367 0.598100 0.286391 -0.240810 -1.953959 0.422921 0.385796 -1.060902 -0.250393 -0.456445 1.092735 -0.359837 1.190838 -1.135432 -0.307641 -0.325370 0.194943 -0.118013 -0.510794 -0.337983 0.691422 0.024484 0.450376 -0.729114 -0.906470 0.882573 0.003568 0.122756 -0.117664 -0.020101 -0.993029 -0.021756
girls -0.157537 0.411961 1.156084 -0.568758 -0.342481 0.142349 -0.161644 -0.202143 -0.952166 -0.666749 -0.555288 -0.428154 -0.378582 -0.280312 0.117342 -0.436731 1.053692 -0.000031 -0.958049 0.122639 0.201247 0.386050 -0.597040 -0.188425 0.423170 -0.778547 0.078025 -0.193472 0.140345 1.394358 0.286729 0.608087 -1.957813 -0.082312 -0.270065 2.289590 -0.029279 0.874180 -0.494455 -0.624980 -0.921206 -0.218147 -0.012335 0.421257 -0.433433 -0.227753 -0.690524 -0.013301 -0.470135 1.190518
throw -0.459342 1.346780 -0.892817 1.130243 0.359420 -0.337823 0.448529 -0.666953 -0.453873 -0.139853 -0.264035 0.871679 -0.758883 -0.771572 -0.249122 1.388657 0.118080 -1.596940 -0.637958 -0.485595 0.459486 0.266917 -0.552851 1.925044 1.686233 0.368591 0.772321 -0.435079 0.305112 -0.933519 -0.791999 -0.977809 -0.214419 -0.764695 -0.297242 -0.078463 0.645793 0.301151 -0.411433 0.414248 0.329081 -0.268938 -0.316519 -0.229554 0.922641 -0.974524 -0.250276 -0.976131 0.224140 0.896926
best -1.264894 0.283678 0.074292 0.178001 -0.055187 -0.310886 -0.388125 0.384130 -0.276170 0.245837 -0.872689 -0.227003 0.987139 -1.317153 1.055864 0.280731 0.792790 -0.622513 -1.266153 -0.182096 0.229865 -0.107066 -0.193827 -0.117288 0.475217 0.412019 0.717342 0.196809 0.492599 1.002362 -0.798198 0.657759 0.222804 0.023091 -0.571415 0.657546 0.190879 -0.344571 0.031242 -1.080779 -0.100603 0.604789 0.345989 -0.377042 -0.993086 0.521273 -0.851822 0.572148 -1.356835 0.047158
dem 0.171160 0.668561 0.914932 0.258430 1.329419 1.089931 0.164026 0.025114 -0.573920 -0.366792 0.030644 0.062839 0.813796 -0.439576 -0.352658 0.888293 0.667499 -0.409452 -0.086407 0.563902 0.842863 1.265251 -0.691227 0.190279 1.303180 -0.460051 0.213074 -0.556542 0.413636 -0.358960 -0.460925 0.537274 -0.070422 -0.262277 0.499046 0.979909 1.260267 -1.017375 -0.569073 0.964932 0.544703 0.057919 -0.168948 1.279506 0.517832 -0.755341 0.031345 -1.669334 -1.177714 -0.734690
shawty -1.120507 0.875276 -1.080683 0.701964 0.380829 -0.086904 0.938967 0.812133 -0.983835 0.372583 0.738360 -0.345717 -0.172373 -0.519141 0.677816 -0.443369 1.315369 0.595244 -0.481790 -0.302030 0.220327 -0.973518 -0.711860 -0.226863 -0.262871 0.002373 1.093672 0.216592 0.210960 -0.984762 -0.408370 0.484008 -0.744930 0.801159 -0.311605 -0.121577 0.033034 0.490462 -0.698687 -0.068591 -0.159642 -1.063237 -0.230639 -0.583777 0.260480 -0.636607 -1.279309 0.917467 0.181184 1.679137
try -0.505277 0.386086 0.237995 0.694048 0.088893 1.077046 -0.234246 0.273951 -0.577659 -0.320886 0.032713 0.534479 0.659608 -0.794342 0.411432 -0.111914 0.282749 -0.861857 -0.590509 0.002755 0.611887 -0.319703 -0.497487 0.308796 0.552382 -0.077209 0.784429 -0.566921 -0.148879 0.604595 -0.680120 0.137278 0.199703 -0.671930 1.724155 -0.060625 0.695526 0.254696 -0.406686 0.199666 -1.215769 -0.832937 0.092144 -0.550367 -1.470440 0.866781 0.472278 -0.182104 -0.591599 -0.044813
b 0.680418 0.468367 1.406789 -0.492839 1.213213 1.259641 0.358550 -0.823670 0.447440 1.701897 -0.399435 0.106276 0.526039 -1.838785 0.205193 -1.134933 0.331021 -1.415620 -0.479105 -0.186749 -0.416111 -0.325650 -0.822863 -0.522181 1.103759 0.463569 0.551460 -1.115448 -0.062667 -0.384470 -0.371606 -1.048581 -0.756319 0.517085 0.223291 0.295456 0.160179 0.930939 -0.776926 -0.062363 0.441962 -0.332569 0.570137 -1.043979 -0.503645 -0.899422 0.873804 1.258493 0.555771 -0.386603
lot 0.232102 -0.011464 0.573351 0.299012 0.116791 1.059638 0.420032 -0.686519 -0.541613 1.168623 -0.462728 -0.317178 -0.076164 -0.108012 0.434407 -0.434879 0.881587 -1.297813 -1.051788 -1.057798 0.642624 0.604193 0.594752 0.113376 -1.033099 -0.631191 0.235270 0.098476 -0.862815 -0.455714 -0.298052 -0.430780 -0.073572 0.578173 0.267624 -0.743814 0.714714 -0.215839 -0.154142 -0.545477 -0.742088 -0.367384 -1.351903 1.132461 -0.717423 0.049904 0.043391 -0.616606 -0.481152 1.024847
mama -1.556843 -1.046686 0.095004 -0.098460 0.358966 -0.503773 1.095930 -0.747009 -0.694356 0.496811 -0.289023 -1.461567 -0.461179 -0.517093 0.599531 -0.253532 0.171846 -0.265623 0.134306 -0.261110 -0.236141 -0.904374 0.707868 -0.181111 0.535516 0.668276 0.366685 -0.423421 -0.620933 0.820916 1.077574 -0.373400 -0.750013 1.345233 -0.735975 0.913161 -0.427981 -0.007948 0.069803 -0.672803 0.371883 0.332383 -0.320902 -1.111704 -0.231929 0.351474 1.138793 -0.548524 -1.595208 1.174339
straight 0.124141 0.056631 -0.169153 0.146777 -0.041916 0.339587 0.103160 0.520512 -0.791167 0.210445 0.299881 -0.261774 -0.353171 -0.086467 -0.385942 -1.238188 -0.453990 0.028327 -0.004156 -0.038337 0.370218 -0.640309 -0.064576 0.579935 0.038757 -0.248115 0.849815 -0.150475 -1.006242 0.340733 -0.544411 -0.212804 -0.585815 0.678523 0.842757 -0.869924 -0.068296 0.609709 0.433234 -1.038573 0.158573 -0.684721 -0.250761 -0.099644 -0.334659 0.316394 -1.037921 1.092756 0.265114 1.805480
came -0.567410 -0.531647 0.296372 0.064332 -0.169050 -0.204564 0.064134 0.163710 -0.743150 0.219949 -0.488718 0.558739 -0.916535 -0.178113 0.739325 -0.067607 0.897077 0.446742 -0.228316 -0.200308 0.710293 0.310824 -0.166838 -0.351146 -0.197500 -0.294921 0.480282 -0.769832 -0.290153 -0.186774 -0.510964 -0.837626 -0.372259 0.429319 -1.109129 -0.198426 -0.385811 0.449374 -0.358592 -1.363062 -1.014301 -1.082111 -0.156736 -0.717640 -0.394506 0.626073 0.285268 0.122839 0.556768 0.385579
floor -0.942815 0.380407 -0.232224 0.481175 0.272615 -1.037365 0.788849 0.726634 -0.668288 -0.073018 -0.176197 -0.120941 -0.164028 -0.602851 0.166746 0.862723 0.295414 0.110881 -1.133508 -0.190159 1.028943 0.143932 0.409075 1.242554 -0.192398 -0.976762 0.126436 -1.074575 -0.373126 -0.861793 -0.155883 -1.904014 -0.993404 -1.046524 -0.503152 0.113103 0.090172 0.319240 0.820454 -0.385278 -0.463217 0.073737 -0.130976 0.476747 -0.447704 -1.294641 -0.448083 -1.405679 0.021812 -0.386507
blow -0.243366 -0.487069 -0.978160 1.166004 -0.292296 -0.111114 0.790034 1.106372 0.537661 0.447181 -0.521783 0.734283 0.098963 -0.002610 0.005155 0.871485 0.181674 -1.859856 -0.274467 0.457910 -0.282767 -0.452058 -0.335514 -0.156480 0.674168 -0.761251 -1.031863 0.117835 0.104574 0.700206 -0.056442 -0.577780 -0.002267 -0.412907 -0.535569 0.427041 -0.124515 0.208173 -0.144805 -1.097732 -0.318568 -0.803208 -0.602619 -0.862518 0.464372 0.020716 -0.887847 0.377540 -0.332894 0.986124
heart -0.100202 -0.065683 0.441366 1.076473 0.829447 -0.539948 -0.551657 -0.537865 0.006659 -0.531091 -1.094410 0.408526 0.157052 0.170706 -1.217465 0.162824 0.056032 -0.006560 -0.111303 -0.222912 1.018103 -0.080364 -0.893839 -1.394359 -0.112063 -0.288007 0.515407 -0.876229 -0.070333 1.082691 0.611897 -1.414997 -0.363815 -0.170540 0.350265 -0.324841 1.066965 -1.088444 0.028552 0.072864 -0.633868 -0.297791 0.470711 -1.114928 -1.079747 -0.113913 -0.646232 0.015312 0.047771 1.632073
mean -0.190031 -0.193319 0.307389 1.005969 1.205424 0.127405 0.543827 -0.672629 -0.938298 0.520424 0.099075 0.333157 0.043897 -0.600086 0.937579 0.041695 1.135197 -0.894378 -0.465804 0.101648 0.792544 -0.060574 0.516548 0.263190 -0.445386 -0.628911 -0.038132 -0.378300 -0.215335 0.867173 -0.430267 0.201542 0.220584 0.385366 0.127799 0.417415 0.271186 -0.297689 0.376912 0.240063 0.829360 0.317188 0.401822 -0.503195 -0.241450 0.762518 -0.655762 -0.739056 -0.068167 0.324502
ask -0.412179 0.555323 -0.827660 -0.284263 1.080840 0.230705 0.600080 -0.504675 -0.276223 1.173053 -0.530864 0.274616 -0.268036 0.515715 -0.020020 0.152823 0.330797 -0.892124 -1.088389 0.317349 0.618963 0.613179 0.511032 0.306070 1.273160 -0.493201 -0.714116 -0.745073 0.177006 0.084535 -0.496109 -0.444319 -0.187015 0.449671 -1.070887 -0.553748 -1.436337 0.545158 0.398679 -0.240288 -0.259772 -0.493962 0.185762 -0.384189 -0.566408 0.597147 -0.075759 0.374396 -0.437979 0.322542
bust -0.591320 0.479315 0.408252 0.562809 -1.050802 0.673577 0.138454 0.698400 0.184858 -0.582594 -0.687614 -0.557529 -0.712210 -0.295404 0.538023 -0.693071 0.245175 -0.898321 -0.383361 0.579102 -0.050073 0.052606 -0.061122 -0.608068 1.040089 -0.308586 0.264504 -1.061286 -0.120665 -0.434602 -0.374786 -0.918222 -0.546539 1.378935 -1.014857 -0.015988 -0.746917 0.658891 0.109596 0.091789 0.435354 0.576470 -2.462518 -1.309559 -0.930136 -0.538365 -0.146904 -0.675805 0.433758 0.806641
seen -0.634227 -1.051941 -0.657310 0.045354 -0.205764 -0.309812 0.210545 -0.431846 -1.029966 0.831328 -0.571252 -0.488842 0.252288 -0.165602 -0.200326 -0.108860 1.288027 -0.836164 -0.319049 0.234911 0.516412 0.793422 0.070233 0.031377 0.031439 -1.167076 -0.128429 -0.429416 0.194239 0.417542 -0.250169 0.382241 -0.579024 -0.280945 -0.560621 0.216608 0.612708 -0.833341 -0.821377 -0.328753 0.183001 -0.645901 0.537945 0.262713 -0.002299 0.742153 0.746028 -0.014827 0.142923 0.677420
hands -0.171821 0.152341 -0.331564 -0.547247 -0.903192 -0.303360 0.511384 -0.139920 0.280219 0.743590 0.082457 0.688397 -0.776402 0.209885 0.840983 1.165065 0.215062 -1.454314 -1.748781 0.453447 -0.098512 -0.368344 -1.212112 1.240391 0.367830 0.051249 0.068547 -0.699583 0.636735 -0.273821 -0.837672 -0.620941 -0.396907 -1.163849 0.484969 -0.689730 -0.175745 0.003348 -1.654390 -0.101432 -0.147429 -0.528114 -0.228182 -1.159843 1.229719 -0.292596 -0.151934 -0.518361 0.257339 0.294249
away -0.496984 -0.198409 0.573570 -0.216540 0.727567 -0.550670 0.307542 -0.492265 -0.917413 -0.172346 -0.413435 1.588548 -0.287200 0.764204 0.988773 0.644691 -0.430584 -1.056937 -0.100946 -0.648226 0.528872 -0.369148 -0.062377 1.051206 0.235827 1.204674 0.722802 0.732686 0.477434 -0.136041 0.349681 -0.541667 1.449671 0.003909 -0.479190 -0.485071 1.070531 0.429351 -0.194328 -1.325765 0.148905 -1.062893 -1.085387 -0.700105 -1.057679 -0.194488 -0.032320 -0.075130 -0.873774 1.486071
people -0.346277 -0.298229 0.109432 0.585559 0.589642 -0.721064 0.424647 -0.285788 -0.761875 0.796351 -0.704638 -0.175535 -0.779767 0.952009 -0.360767 -0.808896 -0.115946 -0.207132 -1.230015 0.123781 -0.429798 0.418040 -0.291411 -0.051656 0.514879 -0.073497 0.027083 -0.571678 -1.108525 0.630016 -1.090112 0.638580 -0.675301 0.350881 0.195591 -0.289298 0.923215 -0.752656 1.102362 -0.134452 0.364415 -0.824123 -0.268578 -0.043259 -1.339331 0.288403 -0.058549 -0.684185 0.385529 1.150223
block -0.380661 0.984778 0.174520 0.601975 -0.305097 0.109657 0.205740 0.371956 0.888540 -0.092248 -0.317387 0.257802 0.421339 -1.597863 1.311712 -0.121191 0.641489 -0.903024 0.003227 -0.218181 0.694292 0.156969 0.901834 -0.244957 -0.253172 0.084723 0.749300 -0.806913 -0.574084 -0.027934 -0.461357 -0.394663 -0.049015 0.561436 -0.398501 -0.369607 0.539471 0.849145 -0.032896 -1.190814 -0.113142 -0.360585 -0.172625 -0.062373 -0.371268 0.748516 0.968408 0.458615 -0.310979 -0.083597
em -1.261879 0.371040 -0.224085 0.191469 0.053799 0.063243 -0.321716 0.750471 -0.739156 -0.079650 0.730484 0.676194 0.028242 -0.827491 -0.424890 0.398442 1.229792 -0.590067 -0.383190 1.012728 -0.592260 0.617150 0.097775 -0.452952 1.521692 -1.474045 -0.146358 -0.560708 0.073522 0.363294 -0.332508 -0.207348 -1.499928 0.619225 0.225350 0.623939 -0.516651 0.086409 -0.939375 -0.045783 -0.323855 -0.795392 -0.329965 0.524445 -0.569557 0.466816 0.442745 0.189426 -0.172782 -0.125177
round -0.747849 0.364804 0.901408 -0.747638 -0.106121 0.002832 0.964763 1.515967 -0.545480 0.276886 -1.465339 -0.374696 0.378346 -0.556801 0.579638 -0.824958 -0.098433 -0.104601 -1.036645 0.171961 0.877606 0.494843 0.216647 0.902967 0.529387 1.179574 0.063171 0.608219 1.162789 0.271838 -0.653603 0.136571 -1.676082 -0.927733 0.302697 -0.040804 0.311664 0.536638 1.319163 0.194072 0.145095 0.039326 -0.637501 0.654846 -0.348877 0.249866 -1.700111 -0.687946 -0.220087 0.742465
woo -1.291221 0.107582 -0.451290 -0.077589 0.044961 -1.347609 0.737757 -0.308740 -0.178799 -0.722994 -0.567266 -0.195723 -0.768170 0.146981 0.960031 0.184160 0.095002 -0.457323 -1.192060 -0.114088 0.811442 -0.593364 -0.525560 0.945081 0.595699 0.534024 0.065731 -1.280268 0.102985 -0.646949 -1.496872 -0.277873 -0.478932 0.640188 0.728959 0.423506 -0.257408 -0.764894 0.228406 -0.425215 0.136544 0.166745 1.288956 -0.065286 -0.216441 -0.207203 0.369509 -0.958448 0.073667 -0.136690
smoke -0.021334 0.919092 0.496693 0.847718 0.481978 0.460871 0.731782 -0.517277 0.013208 0.293297 -0.608651 0.758589 1.379869 -0.483329 0.535721 0.792225 -0.998220 -1.290397 -0.601635 -0.144689 0.493773 -1.082085 0.829037 0.351991 -0.713646 -0.397816 -0.430379 -1.114449 -0.080159 0.127119 -0.363945 -0.047893 0.141555 0.638034 0.657639 -0.508195 0.573881 0.351662 -0.286616 -0.577391 -0.344079 0.046739 -0.693531 -1.695953 1.060727 -0.159549 -0.863857 0.708955 -0.360660 -0.327257
fucking -0.044102 0.334302 -0.040293 0.405859 0.437680 -0.477908 0.505761 0.296019 -0.775682 0.779483 -0.639087 0.713092 0.517764 -0.463432 0.793009 0.607208 -0.062540 -0.598846 -0.211264 -0.231398 0.532350 0.941233 -0.322109 0.392933 0.222181 -1.472506 0.014183 -0.623274 0.241720 1.276051 0.109446 -0.372599 -1.045726 0.386252 0.205389 -0.718269 -0.499038 0.490347 -0.097955 0.113978 -0.695632 0.113578 -0.383698 -0.760519 -0.010307 -0.054272 -0.083461 -0.037456 0.519026 -0.365663
going -0.261717 -0.325707 0.935011 0.769463 -0.051220 1.059047 0.466530 -0.327855 -0.028924 0.901976 -0.947917 -0.391883 -0.815700 -0.221528 -0.055054 -0.150981 0.328043 0.091854 -0.510736 -0.462484 0.206143 -0.750301 0.462256 -0.390553 -0.680243 -0.377413 -0.201119 0.129328 0.359730 1.056485 0.386730 -0.498657 -0.726150 0.384340 -0.141241 -0.006910 0.406282 -0.904313 -0.650346 -1.160603 -0.279355 0.247079 -0.417024 -0.155623 -1.482603 -0.177727 -1.735930 0.059874 -0.061044 1.606480
car -0.012339 0.092941 0.735029 0.444472 -0.297830 1.073671 0.286792 -0.530272 -0.649454 -0.255178 0.139267 0.228189 -0.145172 -0.655764 -0.043205 -0.200390 0.329869 -0.553537 0.875337 -0.250558 1.384327 0.034886 0.627703 0.163380 0.193704 -0.313241 0.089521 -0.622695 -0.563018 -0.632086 0.001653 -0.698459 -0.517915 0.184744 0.886274 0.126307 0.753989 -0.855023 -0.411187 -0.772469 -0.169699 -1.031758 -0.582115 1.000160 0.248440 0.433953 0.120628 0.244299 0.125656 1.234907
check 0.292806 -0.316761 0.081789 0.468055 -0.377842 0.207251 0.477122 0.583753 -0.134897 0.499034 0.350751 0.053996 0.117582 -0.365876 -0.280724 -0.747252 0.921160 -0.027229 -0.896200 0.352774 1.049396 -1.109233 0.393629 -0.970925 0.605685 0.210935 0.720069 -0.953748 -1.153432 0.129623 0.006825 -0.062205 0.026476 0.423217 -1.485371 -0.059731 -1.119184 -0.518875 -0.600810 0.219412 -0.354177 -0.423781 0.080594 0.195258 0.297491 1.014959 -1.114528 -1.212673 -0.105638 0.041370
left -0.294787 0.227819 1.232722 0.210850 0.162009 -0.213715 0.581297 -0.340585 -0.096823 -0.170793 -0.050129 -0.416188 0.245771 -0.156914 -0.441084 -0.263521 -0.068632 -0.016251 -0.715515 -0.038173 1.143247 -0.234402 -0.095258 -0.297155 -0.299697 0.098430 0.955755 -0.425259 0.377031 0.786251 0.174434 -1.045699 -0.673873 -0.413303 0.172748 -0.309366 1.318629 -0.067414 -0.463299 -0.167819 -0.284235 1.129831 0.029318 -0.749839 -0.811483 0.592932 -0.894298 -0.040136 0.196275 1.087190
find -0.078545 -0.512749 0.157040 0.025446 -0.092711 0.200605 0.061644 -0.693547 -1.197080 -0.963652 -0.334181 -0.275212 0.140750 -0.240706 -0.021005 -0.021179 0.079047 0.272083 -2.108428 0.021682 0.657076 -0.710564 -0.561102 -0.102653 -0.000484 0.103537 0.440638 -0.390150 0.666442 -0.072244 -0.381476 -0.551190 -0.006225 0.126658 0.322233 0.067496 -0.196753 -0.690026 0.531412 -0.525944 -0.456726 -1.751776 -0.147857 -0.778156 -1.065711 0.766282 -0.373928 0.323071 0.457578 -0.229443
getting 0.175614 -0.219643 0.265058 0.294445 0.062002 0.887147 1.035367 0.450611 -0.890540 0.754440 -1.140487 0.312089 0.037127 -0.579125 0.826311 0.087839 0.779125 -0.621612 -0.520430 -0.393505 -0.076450 0.552761 0.066266 0.179346 0.113313 -0.501426 -0.239109 0.328281 -0.605217 0.000203 -0.319490 -1.068471 -0.437558 0.406646 0.176999 -0.376604 0.090489 0.961920 0.071732 -0.326844 -0.247910 -0.234518 0.104716 0.822861 0.253762 -0.125596 -0.804737 -0.270589 -0.511767 -0.378733
star -0.043926 0.266734 1.253952 -1.309805 -0.550969 -0.619886 -0.181595 0.495775 -1.117470 0.101986 1.353018 -0.390386 -0.109137 0.147361 2.014027 -0.611973 -0.231450 0.162945 0.664283 -0.221987 0.796315 0.477510 -0.315186 0.060590 0.499307 0.090043 -0.394860 -1.467054 -1.011828 -0.066377 -0.005982 0.090964 0.027141 0.973816 -0.133121 0.316106 0.226722 -0.842396 0.162890 -1.295982 -1.000823 -0.457519 0.421093 -0.078849 -0.237820 0.128696 0.275142 -0.138821 0.304506 0.949256
eyes -0.398150 -0.113878 -1.215923 1.209011 0.204218 0.620217 1.484919 -0.757029 -0.892179 -0.594539 -0.321794 0.594557 0.107981 1.138151 0.185801 -0.030442 0.091755 0.562410 -0.901361 -0.329985 1.282133 -0.658015 -0.383048 -0.197445 0.897907 -0.481268 0.293070 -0.987196 0.427399 0.648343 0.095306 -0.084868 -0.356476 -0.793900 -0.020000 0.038774 0.638773 -0.375909 0.162279 -0.130852 0.813564 -0.097497 -0.518427 -0.291208 -0.062580 0.047367 0.377996 0.117202 -0.225231 0.679805
light -0.055462 -0.175386 0.358931 1.076960 0.204947 -0.249388 0.655265 0.192591 -0.456990 0.132085 0.030963 -0.158626 0.268142 0.449771 1.485130 -0.834295 -0.567388 -0.814776 -0.919543 0.320073 0.332866 -1.017909 0.369586 -0.162364 -0.316135 -1.319958 -1.513362 -1.095645 0.424375 -0.088588 -0.049468 -0.055283 -0.884642 -0.863591 -0.097835 0.067277 0.694748 0.222895 -0.350394 -0.361271 -0.830974 0.926106 0.021483 -0.063214 0.072175 0.345898 -0.990095 -0.090068 -1.134264 0.860749
mad 0.742426 -0.037429 -0.640900 -0.327903 0.098007 0.352083 0.847568 -0.842153 -0.452645 0.189748 -0.914058 0.611455 -0.135552 -1.331027 -0.029208 0.055663 0.335393 -1.105639 -0.121132 -0.141243 -0.169858 1.212436 -0.116025 0.272332 0.950898 0.205524 0.753506 -0.411960 -0.470586 0.795680 0.150830 -0.673426 -0.173796 0.156448 0.050965 -0.300685 0.026161 -0.108402 -0.876105 -0.235703 0.022858 -0.889294 -0.094636 0.470214 -1.185399 -0.461340 0.396048 -0.146414 -0.256233 0.052908
hate -0.257537 0.104975 0.539389 0.331172 0.679624 0.076455 0.131252 0.149834 -0.758304 0.478317 -0.269629 0.529697 0.067092 -0.401684 -1.046071 0.166534 -0.145312 -0.371680 -0.902033 -0.026041 0.152942 0.423560 -0.282009 -0.456834 0.764996 -1.359585 0.377994 0.061282 -0.320430 0.378427 0.999193 -0.158505 -0.169587 0.033219 0.294078 -0.375099 -0.327759 0.203482 -0.617288 -1.037411 -0.283168 -0.947732 0.347748 -0.779905 -1.252458 0.400670 -0.246650 0.004573 -0.145656 -0.105616
fo -0.450245 0.703254 -0.614898 0.569004 -1.335925 0.160506 0.398203 1.502592 0.664726 0.502686 0.022198 -0.286420 0.426497 0.744586 0.212236 0.664455 0.634811 -0.709777 -0.429522 0.159125 -0.826601 -0.473961 1.892325 1.073701 -0.176425 -0.927359 -1.302909 -0.159063 -1.095853 0.238474 0.449034 -0.025893 -0.043278 -0.097370 -0.168605 1.592743 0.107720 0.616466 1.046577 -1.174686 0.672561 -1.604841 -0.197395 -0.409941 0.209436 0.498827 0.530392 -0.029602 0.199457 -0.952513
y 0.432867 -0.168346 1.464241 -0.535539 0.549787 -2.023288 0.119086 0.809259 0.304678 1.971165 0.074426 -0.276646 0.461783 -0.602718 0.666262 -0.508956 -0.226780 0.103790 -0.738393 1.787167 -0.192785 0.496226 0.131679 -0.239562 1.048704 0.885242 0.366044 -0.517747 -0.324442 -1.561299 0.631332 0.632104 0.328789 0.613774 -0.285010 0.142079 -0.868884 -0.292142 -0.780687 -0.423633 0.268980 0.574575 0.708103 0.274979 0.412042 -0.282856 -0.729744 1.163852 0.832291 0.762526
heard -0.892611 -1.117470 -0.356478 -0.098599 0.343171 0.589813 -0.001727 -0.312797 -0.256634 0.282180 -1.006841 -0.527204 0.189426 0.061205 0.188758 0.424596 1.136655 -1.014027 -0.241550 -0.151871 0.325855 0.459495 -0.615496 0.587303 0.078036 0.094862 0.504532 -0.931180 0.058387 0.003978 -0.379960 0.371852 -0.216603 0.219253 0.375619 -0.762654 -0.139259 0.807142 0.131008 -0.597398 0.338790 -0.520532 -0.525702 -0.076868 -0.228199 0.033163 -0.016024 1.050431 0.831935 0.441406
things 0.029382 -1.087650 0.031587 -0.324153 0.546467 0.568184 1.670141 -0.709398 -0.930563 0.519386 -0.280299 -0.119803 0.541740 -0.003662 -0.205637 -0.343349 0.464377 -0.756624 -0.209624 -0.610732 0.616708 -0.459839 0.567107 -0.050749 -0.996251 -0.739841 0.493862 -0.081577 0.188928 -0.151969 0.703238 -0.530957 0.511306 0.300448 -0.010234 -0.228869 0.227783 -1.096439 -1.067595 -0.220042 -0.480738 -0.338011 0.054039 -0.372501 -0.955891 0.250825 -0.305076 -0.164530 -0.425350 1.059411
ay -1.048010 0.402426 1.164706 0.594873 1.765320 -1.277529 1.094573 0.584668 0.748628 -0.372560 -0.421200 -0.663918 0.545993 0.476589 -0.647774 0.275900 -0.322739 -0.438552 -1.102486 1.310698 0.531109 -0.448697 0.683069 -0.076470 0.845463 0.748150 -0.673519 0.334440 0.564645 0.093598 -1.119416 -0.355701 0.218709 0.967716 0.778047 0.202949 -0.558774 0.483624 1.075715 -0.643619 0.759977 -0.636473 0.196208 -0.443263 0.557235 0.417523 1.180353 -0.943535 -0.128155 0.516592
motherfucker -1.708682 0.080068 -0.021731 0.328457 0.582120 -0.244942 -0.204113 0.041293 -1.201548 0.145697 -0.673416 0.213875 -0.591268 -0.084243 0.076404 -0.578596 -0.515886 -0.791078 0.330831 -0.331539 0.694123 -0.237483 0.341638 -0.280994 0.933341 0.043728 0.322483 -0.247542 -0.110694 0.621895 -0.281430 -0.540582 0.174988 0.449636 -0.013286 -0.519218 -0.151091 0.661802 -0.908570 0.335555 0.219025 -0.580116 -0.326618 -0.176222 0.711651 -0.537565 0.461397 -1.114246 -0.884760 0.563218
believe -1.086055 0.113973 -0.471993 0.602549 0.501263 -0.241638 -0.282729 0.741580 0.075840 0.327539 -0.907893 -0.610751 -0.559538 -0.552330 0.530417 1.134679 0.083877 -1.048553 -1.738153 -0.088309 -0.264377 0.128658 -0.080503 -0.655329 -0.271026 0.382078 0.943053 0.206875 0.012078 0.835848 -1.005271 0.685626 -0.500925 -0.033923 -0.790119 0.177442 0.265387 -0.122965 -1.154450 -0.340091 -0.758944 -0.131516 0.546191 -0.041814 -1.949243 0.605022 -0.385909 0.186841 -0.112903 0.494462
street -0.114967 0.308183 0.602189 0.790467 -0.307471 1.608284 0.992880 0.684071 0.470378 0.219923 -0.897936 -0.221335 0.774486 -0.813744 0.838939 -0.688602 0.159664 -0.722684 -0.227231 0.151209 0.515226 -0.453605 0.317696 -1.034930 -0.757828 -0.703903 -0.980624 -0.223554 0.858156 0.154485 -0.287135 0.391363 0.315157 0.517197 -0.270843 -0.260739 -0.975848 -0.048377 0.727178 -0.901797 -0.665064 0.167630 0.412614 0.243803 -0.813846 -0.031423 0.251644 -0.154447 -0.162120 0.960900
thug 0.376532 -0.365231 -0.161375 0.570588 -0.870313 -0.315626 -0.602938 0.082822 0.239001 1.331113 0.040430 0.467724 0.756099 0.543384 0.900542 -0.069178 -1.058655 -1.856542 -0.161407 0.201722 -0.682815 0.306845 0.074928 0.219671 -0.566383 0.390966 -0.146304 -1.257096 1.000043 0.147740 1.434198 -1.029490 -0.712116 0.114935 -0.329727 -0.307672 1.172039 0.446762 0.670474 -0.790023 0.578233 -1.233526 0.574289 0.775974 -0.769966 0.686475 0.975027 -0.007940 -0.448184 -0.545528
weed 0.184864 0.201610 1.311007 0.439414 -0.272710 0.454630 0.286606 -0.792048 -0.265791 0.073306 -0.763485 0.571783 0.809658 -1.056762 0.373197 0.920404 -0.960624 -1.195001 -1.385109 0.026777 -0.229501 -1.061384 -0.326349 0.069545 -0.614597 -1.452484 0.335261 -0.840792 -1.088586 -0.445652 -0.157416 0.788389 -0.813784 -0.174580 0.401238 -0.856457 0.392605 -0.720784 0.331366 -1.678350 -0.456636 0.693473 -0.562077 -0.454742 1.057057 -0.575057 -0.828907 0.338763 -1.188937 0.429355
dope 0.085278 1.539657 -0.105360 1.315170 1.085537 0.038803 -0.166018 -0.354042 0.863246 -1.443224 -0.098678 0.131556 -0.382649 -0.713291 0.689696 -0.498369 0.278043 -0.979737 0.319539 -0.020238 0.718286 -0.206280 -0.145506 -0.270687 -0.458284 0.171619 -0.474476 0.282643 0.124983 0.487855 -0.429406 0.469517 -0.398427 0.578615 0.790801 0.525211 -0.109537 1.074614 0.632299 -0.602453 -0.686889 -0.680472 -0.137828 -0.225789 -0.802343 1.669603 -0.904960 -0.436306 0.174267 0.336501
ah -0.213465 -0.008121 0.750836 -0.734393 0.167788 -1.667849 -1.249857 -0.099513 0.062983 -0.772413 -0.483731 -0.480933 -0.660247 0.321692 1.343682 -0.569403 0.807371 -1.172625 -0.702848 0.787808 0.963895 -0.776242 -0.402524 1.167891 0.074144 0.187421 -0.455548 -1.392475 -0.045102 -0.095360 -0.889898 0.048668 0.370501 -0.523883 0.143920 -0.056525 -0.493151 -0.408480 0.849266 -0.355836 0.733175 0.199696 0.456473 0.010067 -0.263458 -0.166027 0.081714 -1.233958 -2.005083 0.200461
boss -1.112160 -0.384252 1.520618 0.369964 -1.173222 0.712360 0.094312 0.208524 0.125690 0.718061 0.862135 0.325201 -0.906707 0.106354 0.274957 -1.078682 0.660705 -0.137232 0.312532 -0.940217 -0.438963 -0.383607 -0.729615 0.175826 1.011893 0.248256 -0.155169 -0.749407 0.124713 -1.021147 0.061092 -1.109029 -0.043364 -0.112786 1.506628 0.349645 -0.521001 -0.016556 -0.335365 -0.893664 0.063316 -0.121309 0.551878 -0.317474 0.568188 1.706573 -0.143971 -0.551864 1.074021 0.922335
city 0.107295 -0.862806 0.740829 -0.023296 0.501348 0.701131 0.167581 -0.394518 0.441210 0.783642 0.145984 -0.522046 -0.658567 -0.343278 0.000473 -0.842998 0.055001 -0.658916 -0.535147 0.138749 0.116024 0.130189 0.844017 -0.260760 -0.062083 1.081166 -0.534408 -0.191716 1.632797 -0.224288 -0.356517 0.070819 -0.407286 0.092693 0.760269 0.718577 0.936561 0.943033 0.063683 -1.375248 -0.299039 -0.434681 1.430584 -0.364370 -0.503050 0.583373 -0.206193 -0.849847 0.684051 0.961517
gimme 0.159047 1.009105 1.543193 0.844758 1.221637 -0.157118 0.874263 0.014803 0.204132 0.013356 0.851780 -0.751995 1.012494 0.983284 -0.575748 0.467156 0.476858 -0.133341 0.431892 0.938590 0.135404 -1.129826 -0.427674 1.316102 -0.445216 -0.090031 -0.943460 -1.735415 0.520321 -0.060330 0.640436 -0.065121 -0.923644 -0.711032 -0.312503 0.687441 0.745906 -0.000114 -1.388111 -0.215099 -0.173358 1.028875 -0.490315 0.350546 -0.101832 -1.194594 -0.713657 -0.064887 -1.100028 0.477551
music -0.529890 -0.766676 -0.259880 1.135167 -0.504328 -0.791741 0.036448 -0.150918 -0.289411 0.883378 -1.224603 0.307870 -0.370144 0.135948 -0.319182 -0.515699 -0.377338 -1.207409 0.340611 0.294768 -0.898952 0.442335 1.279177 -0.455116 0.475512 1.030794 -0.075874 -0.347495 -0.081642 0.121664 0.206234 0.665883 -1.444287 0.503399 -0.401881 0.027204 0.859827 0.543368 0.258865 0.176795 -1.395843 -1.089965 -0.235452 -0.788604 -0.378936 -0.075202 -0.235972 -0.602805 0.460047 -0.386359
chick -1.201865 0.381913 -0.086937 0.068250 0.997214 -0.005376 1.457417 -0.639020 0.160271 -0.033060 -0.748213 -0.845519 -0.521721 -1.250163 0.011873 -0.004250 -0.636812 -0.836745 -1.310772 0.312660 0.176170 0.427658 0.135089 -0.205429 -1.307528 -0.751477 1.493699 -0.664531 -0.099086 0.407653 0.994696 -0.026759 0.106493 -0.241630 -0.610256 0.737927 -0.210793 0.339311 -0.904763 -0.022769 -0.068164 -0.928847 0.990997 0.485950 -0.431606 -0.976083 0.473907 0.654382 1.159984 -0.544650
pass -1.226460 0.658592 1.386019 -0.000308 -0.437079 0.002040 0.226180 -0.954987 0.218242 -0.647281 -0.470652 -1.060971 0.667022 -0.637936 0.722270 -0.676743 0.035789 -1.537390 -1.488191 0.606235 -0.495957 -1.502052 -1.053141 -0.364654 -0.582753 -1.204602 -0.842619 -0.426899 -0.017353 -0.130966 0.133747 0.131995 -0.791082 -0.289271 0.126754 -1.025836 0.154260 -0.246608 0.378952 0.267507 0.410726 0.902513 -0.640931 -0.440586 0.040689 -0.087562 -0.156634 -0.204053 -0.780266 0.670220
gun -0.844623 0.064302 0.101704 -0.544723 0.105056 -0.386601 -0.908947 0.431313 0.119396 -0.491635 -0.894724 -0.034473 0.233476 -0.319993 0.642086 0.157430 -0.333894 -0.790599 0.304310 -0.091672 1.182222 0.071378 0.020623 -0.011527 0.357711 0.142458 1.207074 -0.105325 0.272951 -0.564872 -0.057774 0.117996 0.361575 0.022855 0.011313 -0.050942 1.057260 1.173832 -0.695133 -0.817366 0.223214 -0.178541 -1.540408 -0.763031 -0.004145 0.926864 -0.701398 -0.243211 -0.902516 0.443394
m -0.187812 0.865452 0.251078 0.640791 0.320897 0.761838 0.289332 0.309578 0.928763 1.213278 0.011338 0.336015 0.723823 -0.586503 0.626936 -0.248913 0.129436 -1.867091 0.042013 -0.058182 -0.422345 -0.091574 -0.416330 -0.503780 0.010942 0.654503 1.159145 -1.001896 -1.056962 0.724263 0.019858 0.092843 0.632927 0.268443 -0.203443 -0.345963 -0.236056 -0.015926 -0.256525 -0.351706 0.394874 -0.339589 0.730728 -0.542329 0.106837 -0.019013 0.457303 0.689549 -0.124037 1.015399
walk 0.394509 -0.320570 -0.290693 -0.242181 0.908307 0.033053 1.249453 -0.321107 -0.890398 0.490868 0.813184 -0.026237 -0.162486 -0.840700 0.446424 0.107790 0.149148 -0.576833 -0.051668 0.543161 0.493017 -0.106782 -0.576346 0.128834 0.440049 0.770660 0.646173 -0.261946 0.534487 0.110336 -0.735680 -0.415468 -0.029540 0.263358 -0.372739 -0.424123 0.655675 0.234854 -0.541312 -0.261963 0.185296 -0.752531 -0.590454 0.296003 -0.689933 -0.659662 -0.768426 -1.140029 0.689003 0.634737
l -0.756986 0.525743 0.377774 -0.210099 0.653127 0.698086 0.674607 -0.444324 -0.509363 1.065435 -0.233663 0.534012 -0.027522 -1.613418 0.284326 0.540360 -0.603687 -0.139134 -0.299567 0.148405 0.609006 -0.497591 0.031043 0.598098 0.249219 0.905665 0.230886 0.082452 -1.655721 -0.488112 0.321701 -0.163222 0.267850 0.437467 -0.222835 0.654099 0.563490 0.302053 -0.354871 -0.119204 -0.703109 -0.314485 1.640986 -1.840246 0.633702 -0.229669 -0.719461 1.174613 0.735661 0.730928
shaky 1.187449 0.575067 0.291148 0.814532 -0.463204 -0.360676 0.672568 -0.601258 0.984440 0.408042 0.090298 0.377827 0.826374 0.294462 0.262753 0.047722 1.066343 0.033124 0.398827 -0.549636 -1.615004 0.029975 0.271442 -0.868208 -0.299436 1.102775 -0.267990 1.365756 0.247200 0.638483 0.404392 0.442218 0.937243 0.317969 -0.439652 0.852143 -0.146716 -0.559409 0.320878 0.959116 -0.613085 0.764240 0.792807 0.357490 0.643682 -0.689928 0.304163 0.358019 0.510814 -0.525660
tryin 0.340675 -0.086733 0.016654 0.543219 -0.590293 0.682067 1.019914 0.239007 -0.062352 0.353620 -0.465511 0.487354 0.133631 -0.193812 -0.114975 0.296695 -0.082758 -0.680542 -0.533468 -0.182464 0.576184 0.952392 0.061320 0.312968 0.001018 -0.757743 0.275167 -0.436258 -0.566502 1.415422 0.311959 -0.871746 -0.021903 -0.932224 0.149288 0.223877 -0.060167 -0.731023 0.551440 -1.236902 0.174537 -0.124242 -0.495101 -0.006776 -1.813125 -0.151758 -0.608580 0.195926 0.350479 -0.030454
ladies 1.136062 -1.329990 1.400032 -1.066513 -0.900037 -0.718847 0.259933 0.495489 0.329234 -0.489545 -0.714489 -0.870546 0.248259 0.676854 -0.081109 0.140952 1.304914 -1.888951 -1.963612 1.052294 -0.262135 -0.043773 0.992249 0.900612 0.550291 0.030487 0.953986 -0.364361 -0.554693 -0.020764 0.703557 -0.725120 -0.838947 -0.417053 0.593948 -0.598350 -0.140165 0.262867 -0.438921 0.323841 0.560349 -0.265647 -0.031900 0.464550 0.139970 -0.621063 0.309117 -0.153307 -0.507067 0.543906
cold 0.560205 1.209967 0.298786 -0.176619 -0.606450 -0.730755 0.573609 -0.043815 -0.554163 0.186331 -0.078466 0.941017 0.992672 -0.218378 0.327659 0.147902 -0.202129 0.629410 -0.123297 0.202017 1.004726 -0.386287 -0.202329 0.465541 -0.261126 -0.213915 0.462494 -0.427957 0.692836 1.313614 -0.381250 -1.422058 -0.484371 0.912294 0.677091 0.998543 0.173474 -0.061695 -1.196444 -0.688522 -1.227709 -0.294558 0.452015 -0.431479 -0.533680 0.317789 0.501839 -0.095401 0.843460 0.422308
wet -0.237572 1.402899 -0.372376 0.867146 -0.233983 0.337347 1.513849 0.741364 0.465781 -0.223899 0.349067 -0.393717 0.277095 -1.382542 0.479989 -0.705202 -0.088703 -0.395586 0.289409 -0.171176 0.790100 -0.883785 -1.190850 -0.412021 0.002459 -0.614627 0.146087 0.296890 1.884934 -0.380187 0.457147 0.645727 -0.332288 0.778949 -0.052032 0.348025 0.918905 0.298449 -0.375592 0.636155 0.102965 -0.756344 -0.226433 -0.438978 -0.097145 0.033537 -0.943871 -1.226190 -1.061854 -1.094413
dat 0.050171 0.709360 0.695065 1.361245 0.925136 -0.234520 0.583425 -0.670091 0.479712 -0.990054 -0.217509 -0.682493 -1.128089 -0.337361 0.290564 -0.065112 0.478380 -0.045888 -1.236899 0.667470 0.534270 0.542429 -0.658066 0.539864 -0.167577 -0.932956 0.646221 -0.518311 1.950010 -1.072185 1.633167 0.168128 -0.140648 -0.133065 0.738994 0.158684 0.436360 0.574022 -0.881329 0.523491 0.815250 -0.722809 -0.866351 -0.263878 -0.817409 0.072813 -0.442852 -0.896004 -0.716066 -0.490344
mouth 0.180633 -0.047397 -0.212047 0.421219 -0.124744 0.256420 0.622603 0.273823 -0.193061 -0.391928 -0.725327 0.103243 -0.703279 -0.154054 -0.271126 -0.403443 -0.486627 -0.419400 0.318797 -0.084875 0.611509 -0.796320 -0.280702 0.423751 0.337431 -0.313012 0.630248 -1.161608 0.370441 0.123686 -0.250855 -0.136024 -1.423725 -0.317990 -0.848362 0.215884 0.199827 1.659607 -0.623385 -0.549499 0.878693 -0.219074 -1.359368 -0.617729 -0.962330 -0.015103 0.074759 0.085589 0.007478 -0.008006
catch 0.059864 0.968121 -0.232008 0.543677 0.098242 -0.031302 0.171488 -0.000967 0.663068 -0.541854 -0.228520 0.821799 -0.382641 -0.793621 -0.276415 0.306270 0.215744 -0.243912 0.392045 0.559331 -0.011376 -0.071250 0.123926 0.193078 0.683335 -0.516831 0.031953 -1.194876 -0.125209 0.289672 0.210817 -0.061000 -0.499277 0.272481 -0.152542 -0.664922 0.739641 0.256607 -0.055374 -0.780563 -0.706285 -1.091171 -0.034241 0.939660 -0.299350 -0.376762 -0.249068 -0.281083 -0.187459 0.606108
took -0.375086 -0.360298 -0.742308 -0.435464 0.053042 0.640975 0.378678 -0.045626 -0.319509 0.799678 -0.998417 0.515158 -0.774987 0.566041 0.630617 0.683203 -0.426750 -0.368428 -1.193803 -0.319268 0.260540 0.292653 0.342521 -0.553618 -0.323395 0.021789 0.236458 -0.672061 -0.123716 -0.079323 0.887446 -0.898800 -1.597053 0.076816 0.472641 -0.019023 0.442563 0.766248 -0.241949 -0.330862 -0.182334 -0.751317 0.298535 -0.058294 -0.202995 -0.055954 -0.337879 -0.354208 0.950869 0.678750
talking -0.706318 -0.050839 0.209918 1.189157 1.177963 0.429520 0.719982 -0.699374 -1.058192 0.199607 -0.220601 1.452011 -0.187370 -0.709659 -0.272101 -0.811725 1.215763 -0.615834 0.380351 -0.105832 0.444732 0.600242 0.827062 0.101828 0.097408 -0.114728 -0.120894 -0.573396 -0.433903 0.413285 -0.466084 -0.562883 0.197433 -0.808437 -0.562373 -0.846158 0.635242 0.360807 -0.722204 0.759845 0.717264 -0.010113 -0.277389 0.494443 -0.006811 -0.049377 0.213155 -0.630452 -0.010401 0.292485
ball 1.365421 -1.308391 -0.011001 1.020298 0.892910 -0.276482 0.611332 0.373370 -0.892849 0.166832 0.590473 -0.238741 0.486295 0.202556 -0.245406 -0.797317 0.225247 0.744241 0.160114 0.668762 -0.044394 -0.895943 0.281072 1.400320 -0.176645 -0.402442 0.631816 -1.379459 -0.188232 -1.136078 0.437370 0.194231 -1.160214 -0.758949 0.165829 -0.424690 -0.236454 0.462395 -0.069867 -1.934367 -0.023124 -0.578833 0.136834 -0.507545 -0.462057 -0.345377 0.342070 0.119577 -0.346976 0.335704
dance -0.579027 0.102071 0.051887 -0.158413 -1.325592 -1.651675 0.749575 0.829182 -0.199855 -0.163734 -0.114658 0.168885 -0.321706 0.019036 0.428215 -0.133987 0.893522 -0.364791 -1.014652 -0.139836 0.495956 -0.236948 -0.003876 0.360673 0.169436 -0.931426 -0.272578 -0.750315 -0.633399 -0.160152 0.042514 -0.565398 -0.821806 0.120298 -0.151999 -0.064825 -0.011856 0.561654 0.274310 -0.675241 0.065461 0.123277 -0.632893 -0.224863 -0.326816 -0.734934 -0.189533 -1.893308 0.483420 -0.014616
